<GAP_2024_3_27_120_12_10_33_154>
<Potential label="GAP_2024_3_27_120_12_10_33_154" init_args="Sum init_args_pot1={IP Glue} init_args_pot2={IP GAP label=GAP_2024_3_27_120_12_10_33_154}"/>
<pairpot>
<Potential label="pairpot" init_args="IP Glue"/>
<Glue_params n_types="1">
 <per_type_data atomic_num="15" type="1">
  <!-- P, Z: 15, many-body data ==> zero energy for pair potential! -->
  <density num_points="10" density_y1="0.0" density_yn="0.0">
   <point a="0.5" rho="0.2"/>
   <point a="1.0" rho="0.2"/>
   <point a="1.5" rho="0.2"/>
   <point a="2.0" rho="0.2"/>
   <point a="2.5" rho="0.2"/>
   <point a="3.0" rho="0.2"/>
   <point a="3.5" rho="0.2"/>
   <point a="4.0" rho="0.2"/>
   <point a="4.5" rho="0.2"/>
   <point a="5.0" rho="0.2"/>
  </density>
  <potential_density num_points="10">
   <point rho="0.0" E="0.0"/>
   <point rho="0.1111111111111111" E="0.0"/>
   <point rho="0.2222222222222222" E="0.0"/>
   <point rho="0.3333333333333333" E="0.0"/>
   <point rho="0.4444444444444444" E="0.0"/>
   <point rho="0.5555555555555556" E="0.0"/>
   <point rho="0.6666666666666666" E="0.0"/>
   <point rho="0.7777777777777777" E="0.0"/>
   <point rho="0.8888888888888888" E="0.0"/>
   <point rho="1.0" E="0.0"/>
  </potential_density>
 </per_type_data>
 <per_pair_data type1="1" type2="1">
  <!-- P-P, Z: 15-15 pair potential -->
  <potential_pair num_points="20" y1="1.e50" yn="0.0">
   <point r="0.3000000000" E="859.8804089700"/>
   <point r="0.4000000000" E="563.8615607500"/>
   <point r="0.5000000000" E="387.3577946800"/>
   <point r="0.6000000000" E="272.1176935900"/>
   <point r="0.7000000000" E="193.0605588600"/>
   <point r="0.8000000000" E="137.5769363200"/>
   <point r="0.9000000000" E="96.0487479000"/>
   <point r="1.0000000000" E="64.0028768600"/>
   <point r="1.1000000000" E="39.0318501500"/>
   <point r="1.2000000000" E="20.9460800300"/>
   <point r="1.3000000000" E="8.5214703666"/>
   <point r="1.4000000000" E="0.9748577012"/>
   <point r="1.5000000000" E="-2.5166352438"/>
   <point r="1.6000000000" E="-3.2487315300"/>
   <point r="1.7000000000" E="-2.4964595561"/>
   <point r="1.8000000000" E="-1.2948334936"/>
   <point r="1.9000000000" E="-0.3443012230"/>
   <point r="2.0000000000" E="-0.0000000000"/>
   <point r="2.1000000000" E="-0.0000000000"/>
   <point r="2.2000000000" E="-0.0000000000"/>
  </potential_pair>
 </per_pair_data>
</Glue_params>
</pairpot>
<GAP_params label="GAP_2024_3_27_120_12_10_33_154" gap_version="1686220958">
  <GAP_data do_core="T">
    <e0 Z="1" value="-.52375976999999996"/>
    <e0 Z="2" value="-.52375976999999996"/>
    <e0 Z="3" value="-.52375976999999996"/>
    <e0 Z="4" value="-.52375976999999996"/>
    <e0 Z="5" value="-.52375976999999996"/>
    <e0 Z="6" value="-.52375976999999996"/>
    <e0 Z="7" value="-.52375976999999996"/>
    <e0 Z="8" value="-.52375976999999996"/>
    <e0 Z="9" value="-.52375976999999996"/>
    <e0 Z="10" value="-.52375976999999996"/>
    <e0 Z="11" value="-.52375976999999996"/>
    <e0 Z="12" value="-.52375976999999996"/>
    <e0 Z="13" value="-.52375976999999996"/>
    <e0 Z="14" value="-.52375976999999996"/>
    <e0 Z="15" value="-.52375976999999996"/>
    <e0 Z="16" value="-.52375976999999996"/>
    <e0 Z="17" value="-.52375976999999996"/>
    <e0 Z="18" value="-.52375976999999996"/>
    <e0 Z="19" value="-.52375976999999996"/>
    <e0 Z="20" value="-.52375976999999996"/>
    <e0 Z="21" value="-.52375976999999996"/>
    <e0 Z="22" value="-.52375976999999996"/>
    <e0 Z="23" value="-.52375976999999996"/>
    <e0 Z="24" value="-.52375976999999996"/>
    <e0 Z="25" value="-.52375976999999996"/>
    <e0 Z="26" value="-.52375976999999996"/>
    <e0 Z="27" value="-.52375976999999996"/>
    <e0 Z="28" value="-.52375976999999996"/>
    <e0 Z="29" value="-.52375976999999996"/>
    <e0 Z="30" value="-.52375976999999996"/>
    <e0 Z="31" value="-.52375976999999996"/>
    <e0 Z="32" value="-.52375976999999996"/>
    <e0 Z="33" value="-.52375976999999996"/>
    <e0 Z="34" value="-.52375976999999996"/>
    <e0 Z="35" value="-.52375976999999996"/>
    <e0 Z="36" value="-.52375976999999996"/>
    <e0 Z="37" value="-.52375976999999996"/>
    <e0 Z="38" value="-.52375976999999996"/>
    <e0 Z="39" value="-.52375976999999996"/>
    <e0 Z="40" value="-.52375976999999996"/>
    <e0 Z="41" value="-.52375976999999996"/>
    <e0 Z="42" value="-.52375976999999996"/>
    <e0 Z="43" value="-.52375976999999996"/>
    <e0 Z="44" value="-.52375976999999996"/>
    <e0 Z="45" value="-.52375976999999996"/>
    <e0 Z="46" value="-.52375976999999996"/>
    <e0 Z="47" value="-.52375976999999996"/>
    <e0 Z="48" value="-.52375976999999996"/>
    <e0 Z="49" value="-.52375976999999996"/>
    <e0 Z="50" value="-.52375976999999996"/>
    <e0 Z="51" value="-.52375976999999996"/>
    <e0 Z="52" value="-.52375976999999996"/>
    <e0 Z="53" value="-.52375976999999996"/>
    <e0 Z="54" value="-.52375976999999996"/>
    <e0 Z="55" value="-.52375976999999996"/>
    <e0 Z="56" value="-.52375976999999996"/>
    <e0 Z="57" value="-.52375976999999996"/>
    <e0 Z="58" value="-.52375976999999996"/>
    <e0 Z="59" value="-.52375976999999996"/>
    <e0 Z="60" value="-.52375976999999996"/>
    <e0 Z="61" value="-.52375976999999996"/>
    <e0 Z="62" value="-.52375976999999996"/>
    <e0 Z="63" value="-.52375976999999996"/>
    <e0 Z="64" value="-.52375976999999996"/>
    <e0 Z="65" value="-.52375976999999996"/>
    <e0 Z="66" value="-.52375976999999996"/>
    <e0 Z="67" value="-.52375976999999996"/>
    <e0 Z="68" value="-.52375976999999996"/>
    <e0 Z="69" value="-.52375976999999996"/>
    <e0 Z="70" value="-.52375976999999996"/>
    <e0 Z="71" value="-.52375976999999996"/>
    <e0 Z="72" value="-.52375976999999996"/>
    <e0 Z="73" value="-.52375976999999996"/>
    <e0 Z="74" value="-.52375976999999996"/>
    <e0 Z="75" value="-.52375976999999996"/>
    <e0 Z="76" value="-.52375976999999996"/>
    <e0 Z="77" value="-.52375976999999996"/>
    <e0 Z="78" value="-.52375976999999996"/>
    <e0 Z="79" value="-.52375976999999996"/>
    <e0 Z="80" value="-.52375976999999996"/>
    <e0 Z="81" value="-.52375976999999996"/>
    <e0 Z="82" value="-.52375976999999996"/>
    <e0 Z="83" value="-.52375976999999996"/>
    <e0 Z="84" value="-.52375976999999996"/>
    <e0 Z="85" value="-.52375976999999996"/>
    <e0 Z="86" value="-.52375976999999996"/>
    <e0 Z="87" value="-.52375976999999996"/>
    <e0 Z="88" value="-.52375976999999996"/>
    <e0 Z="89" value="-.52375976999999996"/>
    <e0 Z="90" value="-.52375976999999996"/>
    <e0 Z="91" value="-.52375976999999996"/>
    <e0 Z="92" value="-.52375976999999996"/>
    <e0 Z="93" value="-.52375976999999996"/>
    <e0 Z="94" value="-.52375976999999996"/>
    <e0 Z="95" value="-.52375976999999996"/>
    <e0 Z="96" value="-.52375976999999996"/>
    <e0 Z="97" value="-.52375976999999996"/>
    <e0 Z="98" value="-.52375976999999996"/>
    <e0 Z="99" value="-.52375976999999996"/>
    <e0 Z="100" value="-.52375976999999996"/>
    <e0 Z="101" value="-.52375976999999996"/>
    <e0 Z="102" value="-.52375976999999996"/>
    <e0 Z="103" value="-.52375976999999996"/>
    <e0 Z="104" value="-.52375976999999996"/>
    <e0 Z="105" value="-.52375976999999996"/>
    <e0 Z="106" value="-.52375976999999996"/>
    <e0 Z="107" value="-.52375976999999996"/>
    <e0 Z="108" value="-.52375976999999996"/>
    <e0 Z="109" value="-.52375976999999996"/>
    <e0 Z="110" value="-.52375976999999996"/>
    <e0 Z="111" value="-.52375976999999996"/>
    <e0 Z="112" value="-.52375976999999996"/>
    <e0 Z="113" value="-.52375976999999996"/>
    <e0 Z="114" value="-.52375976999999996"/>
    <e0 Z="115" value="-.52375976999999996"/>
    <e0 Z="116" value="-.52375976999999996"/>
    <e0 Z="117" value="-.52375976999999996"/>
    <e0 Z="118" value="-.52375976999999996"/>
  </GAP_data>
  <gpSparse label="GAP_2024_3_27_120_12_10_33_154" n_coordinate="2" fitted="T">
    <gpCoordinates label="GAP_2024_3_27_120_12_10_33_1541" dimensions="1" signal_variance="1.0000000000000000" signal_mean=".00000000000000000E+000" sparsified="T" n_permutations="1" covariance_type="1" n_sparseX="47" sparseX_filename="phosphorus.xml.sparseX.GAP_2024_3_27_120_12_10_33_1541" sparseX_md5sum="c07267d540d37338db819da8b3ad3779">
      <theta>  0.50000000000000000E+000 </theta>
      <descriptor> distance_2b Z1=15 Z2=15 cutoff=5.0 n_sparse=47 covariance_type=ard_se delta=1. theta_uniform=0.5 sparse_method=uniform add_species=F</descriptor>
      <permutation i="1">1  </permutation>
      <sparseX i="1" alpha="-138278.09379320982" sparseCutoff="1.0000000000000000"/>
      <sparseX i="2" alpha="-279731.86417176115" sparseCutoff="1.0000000000000000"/>
      <sparseX i="3" alpha="309733.13636369811" sparseCutoff="1.0000000000000000"/>
      <sparseX i="4" alpha="-334609.40681243525" sparseCutoff="1.0000000000000000"/>
      <sparseX i="5" alpha="-423431.24574839795" sparseCutoff="1.0000000000000000"/>
      <sparseX i="6" alpha="439721.99966184789" sparseCutoff="1.0000000000000000"/>
      <sparseX i="7" alpha="633012.38150701369" sparseCutoff="1.0000000000000000"/>
      <sparseX i="8" alpha="171929.24130090381" sparseCutoff="1.0000000000000000"/>
      <sparseX i="9" alpha="-246073.82673936588" sparseCutoff="1.0000000000000000"/>
      <sparseX i="10" alpha="-369415.82308305171" sparseCutoff="1.0000000000000000"/>
      <sparseX i="11" alpha="434454.34131635493" sparseCutoff="1.0000000000000000"/>
      <sparseX i="12" alpha="154765.40144009612" sparseCutoff="1.0000000000000000"/>
      <sparseX i="13" alpha="-318050.12470397557" sparseCutoff="1.0000000000000000"/>
      <sparseX i="14" alpha="32221.250456271577" sparseCutoff="1.0000000000000000"/>
      <sparseX i="15" alpha="-70776.000033202654" sparseCutoff="1.0000000000000000"/>
      <sparseX i="16" alpha="-553269.62121284287" sparseCutoff="1.0000000000000000"/>
      <sparseX i="17" alpha="301972.96121745015" sparseCutoff="1.0000000000000000"/>
      <sparseX i="18" alpha="155474.46064134821" sparseCutoff="1.0000000000000000"/>
      <sparseX i="19" alpha="-470665.13695974351" sparseCutoff="1.0000000000000000"/>
      <sparseX i="20" alpha="625961.56455357559" sparseCutoff="1.0000000000000000"/>
      <sparseX i="21" alpha="-782785.42956704786" sparseCutoff="1.0000000000000000"/>
      <sparseX i="22" alpha="461754.45382738777" sparseCutoff="1.0000000000000000"/>
      <sparseX i="23" alpha="-131424.74512961644" sparseCutoff="1.0000000000000000"/>
      <sparseX i="24" alpha="-436073.88081971649" sparseCutoff="1.0000000000000000"/>
      <sparseX i="25" alpha="-153009.00523614083" sparseCutoff="1.0000000000000000"/>
      <sparseX i="26" alpha="477799.98949368834" sparseCutoff="1.0000000000000000"/>
      <sparseX i="27" alpha="-314610.00474741228" sparseCutoff="1.0000000000000000"/>
      <sparseX i="28" alpha="-470286.73472388624" sparseCutoff="1.0000000000000000"/>
      <sparseX i="29" alpha="102062.63146829729" sparseCutoff="1.0000000000000000"/>
      <sparseX i="30" alpha="-695879.71277331549" sparseCutoff="1.0000000000000000"/>
      <sparseX i="31" alpha="-375032.90361679846" sparseCutoff="1.0000000000000000"/>
      <sparseX i="32" alpha="584952.82317320141" sparseCutoff="1.0000000000000000"/>
      <sparseX i="33" alpha="-220168.14197354790" sparseCutoff="1.0000000000000000"/>
      <sparseX i="34" alpha="395410.37494904915" sparseCutoff="1.0000000000000000"/>
      <sparseX i="35" alpha="-246714.25864030860" sparseCutoff="1.0000000000000000"/>
      <sparseX i="36" alpha="523548.16358673491" sparseCutoff="1.0000000000000000"/>
      <sparseX i="37" alpha="79674.189061806668" sparseCutoff=".86708839760984890"/>
      <sparseX i="38" alpha="538609.40710472851" sparseCutoff="1.0000000000000000"/>
      <sparseX i="39" alpha="190596.55246255762" sparseCutoff=".22068316683472011"/>
      <sparseX i="40" alpha="-26102.040418983612" sparseCutoff=".17183403324191265"/>
      <sparseX i="41" alpha="-233564.00044527813" sparseCutoff=".79468211133163935"/>
      <sparseX i="42" alpha="479910.49045041227" sparseCutoff="1.0000000000000000"/>
      <sparseX i="43" alpha="72396.120133657503" sparseCutoff="1.0000000000000000"/>
      <sparseX i="44" alpha="-537199.36704208318" sparseCutoff=".16944764486645003E-001"/>
      <sparseX i="45" alpha="407036.57292518468" sparseCutoff="1.0000000000000000"/>
      <sparseX i="46" alpha="-272863.31153947348" sparseCutoff="1.0000000000000000"/>
      <sparseX i="47" alpha="88608.825785410183" sparseCutoff="1.0000000000000000"/>
    </gpCoordinates>
    <gpCoordinates label="GAP_2024_3_27_120_12_10_33_1542" dimensions="72" signal_variance=".10000000000000001E+000" signal_mean=".00000000000000000E+000" sparsified="T" n_permutations="1" covariance_type="2" zeta="6.0000000000000000" n_sparseX="3248" sparseX_filename="phosphorus.xml.sparseX.GAP_2024_3_27_120_12_10_33_1542" sparseX_md5sum="7087dda3ef2915741e73973506ba10fb">
      <descriptor> soap_turbo l_max=8 alpha_max={8} atom_sigma_r={0.5} atom_sigma_t={0.5} atom_sigma_r_scaling={0.} atom_sigma_t_scaling={0.} zeta=6 rcut_hard=5.0 rcut_soft=4.5 basis=poly3gauss scaling_mode=polynomial amplitude_scaling={1.0} n_species=1 species_Z=15 central_index=1 radial_enhancement={1} compress_mode=trivial central_weight={1.0} config_type_n_sparse={dimer:48:trimer:200:tetramer:200:exotic_crystals:400:2D:200:P4:200:liquid:200: cryst_hp:250:cryst:500:rss:250:phosphorene:200:ribbons:200:BP_new:400} delta=0.1 f0=0.0 covariance_type=dot_product sparse_method=cur_points add_species=F</descriptor>
      <permutation i="1">1  </permutation>
      <sparseX i="1" alpha="-131610.90569815616" sparseCutoff="1.0000000000000000"/>
      <sparseX i="2" alpha="-143723.02660261374" sparseCutoff="1.0000000000000000"/>
      <sparseX i="3" alpha="107212.08649426556" sparseCutoff="1.0000000000000000"/>
      <sparseX i="4" alpha="-36807.593550000383" sparseCutoff="1.0000000000000000"/>
      <sparseX i="5" alpha="-114726.48183470027" sparseCutoff="1.0000000000000000"/>
      <sparseX i="6" alpha="54231.550374207000" sparseCutoff="1.0000000000000000"/>
      <sparseX i="7" alpha="23416.514783412109" sparseCutoff="1.0000000000000000"/>
      <sparseX i="8" alpha="280641.28777995607" sparseCutoff="1.0000000000000000"/>
      <sparseX i="9" alpha="72087.398807525795" sparseCutoff="1.0000000000000000"/>
      <sparseX i="10" alpha="-42584.777549003964" sparseCutoff="1.0000000000000000"/>
      <sparseX i="11" alpha="-26142.002812104027" sparseCutoff="1.0000000000000000"/>
      <sparseX i="12" alpha="-181320.20368899876" sparseCutoff="1.0000000000000000"/>
      <sparseX i="13" alpha="153894.47684701343" sparseCutoff="1.0000000000000000"/>
      <sparseX i="14" alpha="15886.292285464862" sparseCutoff="1.0000000000000000"/>
      <sparseX i="15" alpha="138424.86192038847" sparseCutoff="1.0000000000000000"/>
      <sparseX i="16" alpha="48354.080644915288" sparseCutoff="1.0000000000000000"/>
      <sparseX i="17" alpha="126211.11187532560" sparseCutoff="1.0000000000000000"/>
      <sparseX i="18" alpha="41877.551717606228" sparseCutoff="1.0000000000000000"/>
      <sparseX i="19" alpha="32441.663321494307" sparseCutoff="1.0000000000000000"/>
      <sparseX i="20" alpha="-1935.3402837267463" sparseCutoff="1.0000000000000000"/>
      <sparseX i="21" alpha="36006.321765953893" sparseCutoff="1.0000000000000000"/>
      <sparseX i="22" alpha="-3268.6218928129247" sparseCutoff="1.0000000000000000"/>
      <sparseX i="23" alpha="-9732.2625938021629" sparseCutoff="1.0000000000000000"/>
      <sparseX i="24" alpha="13165.936550713466" sparseCutoff="1.0000000000000000"/>
      <sparseX i="25" alpha="25878.900018314409" sparseCutoff="1.0000000000000000"/>
      <sparseX i="26" alpha="10581.406597379226" sparseCutoff="1.0000000000000000"/>
      <sparseX i="27" alpha="15311.488868345979" sparseCutoff="1.0000000000000000"/>
      <sparseX i="28" alpha="-78438.593054829224" sparseCutoff="1.0000000000000000"/>
      <sparseX i="29" alpha="-3441.5548039315145" sparseCutoff="1.0000000000000000"/>
      <sparseX i="30" alpha="-7466.1447764433315" sparseCutoff="1.0000000000000000"/>
      <sparseX i="31" alpha="-18506.836123467863" sparseCutoff="1.0000000000000000"/>
      <sparseX i="32" alpha="10891.217618534234" sparseCutoff="1.0000000000000000"/>
      <sparseX i="33" alpha="1340.3740227068984" sparseCutoff="1.0000000000000000"/>
      <sparseX i="34" alpha="54754.271582788024" sparseCutoff="1.0000000000000000"/>
      <sparseX i="35" alpha="-99786.391888124679" sparseCutoff="1.0000000000000000"/>
      <sparseX i="36" alpha="-18747.732625583834" sparseCutoff="1.0000000000000000"/>
      <sparseX i="37" alpha="100943.85696339671" sparseCutoff="1.0000000000000000"/>
      <sparseX i="38" alpha="-133921.50035532474" sparseCutoff="1.0000000000000000"/>
      <sparseX i="39" alpha="-196357.61580354642" sparseCutoff="1.0000000000000000"/>
      <sparseX i="40" alpha="100618.18721524377" sparseCutoff="1.0000000000000000"/>
      <sparseX i="41" alpha="35263.255894849739" sparseCutoff="1.0000000000000000"/>
      <sparseX i="42" alpha="-7894.6997577853754" sparseCutoff="1.0000000000000000"/>
      <sparseX i="43" alpha="208962.75146597953" sparseCutoff="1.0000000000000000"/>
      <sparseX i="44" alpha="-47584.080770738845" sparseCutoff="1.0000000000000000"/>
      <sparseX i="45" alpha="-139380.62501498905" sparseCutoff="1.0000000000000000"/>
      <sparseX i="46" alpha="-1098.4793791929101" sparseCutoff="1.0000000000000000"/>
      <sparseX i="47" alpha="-136458.40265759348" sparseCutoff="1.0000000000000000"/>
      <sparseX i="48" alpha="5070.7284884375476" sparseCutoff="1.0000000000000000"/>
      <sparseX i="49" alpha="-46362.901261835839" sparseCutoff="1.0000000000000000"/>
      <sparseX i="50" alpha="43414.013874604803" sparseCutoff="1.0000000000000000"/>
      <sparseX i="51" alpha="-66131.731301605469" sparseCutoff="1.0000000000000000"/>
      <sparseX i="52" alpha="28113.072042884065" sparseCutoff="1.0000000000000000"/>
      <sparseX i="53" alpha="156924.20468109532" sparseCutoff="1.0000000000000000"/>
      <sparseX i="54" alpha="64283.148205359161" sparseCutoff="1.0000000000000000"/>
      <sparseX i="55" alpha="30398.345454092028" sparseCutoff="1.0000000000000000"/>
      <sparseX i="56" alpha="29965.392402505058" sparseCutoff="1.0000000000000000"/>
      <sparseX i="57" alpha="-56306.008905023409" sparseCutoff="1.0000000000000000"/>
      <sparseX i="58" alpha="-51566.263047391418" sparseCutoff="1.0000000000000000"/>
      <sparseX i="59" alpha="-81644.653894997915" sparseCutoff="1.0000000000000000"/>
      <sparseX i="60" alpha="-15961.951207844726" sparseCutoff="1.0000000000000000"/>
      <sparseX i="61" alpha="54533.579226762464" sparseCutoff="1.0000000000000000"/>
      <sparseX i="62" alpha="-122175.83470511594" sparseCutoff="1.0000000000000000"/>
      <sparseX i="63" alpha="26773.248882663960" sparseCutoff="1.0000000000000000"/>
      <sparseX i="64" alpha="70577.568009226714" sparseCutoff="1.0000000000000000"/>
      <sparseX i="65" alpha="62528.336365348136" sparseCutoff="1.0000000000000000"/>
      <sparseX i="66" alpha="-20423.631774167909" sparseCutoff="1.0000000000000000"/>
      <sparseX i="67" alpha="308719.60746165056" sparseCutoff="1.0000000000000000"/>
      <sparseX i="68" alpha="-155993.67039002906" sparseCutoff="1.0000000000000000"/>
      <sparseX i="69" alpha="-479891.64346452913" sparseCutoff="1.0000000000000000"/>
      <sparseX i="70" alpha="-11436.106261919944" sparseCutoff="1.0000000000000000"/>
      <sparseX i="71" alpha="20038.380825535693" sparseCutoff="1.0000000000000000"/>
      <sparseX i="72" alpha="122594.76364150971" sparseCutoff="1.0000000000000000"/>
      <sparseX i="73" alpha="21882.725595018135" sparseCutoff="1.0000000000000000"/>
      <sparseX i="74" alpha="246425.32950485760" sparseCutoff="1.0000000000000000"/>
      <sparseX i="75" alpha="-354125.63473686489" sparseCutoff="1.0000000000000000"/>
      <sparseX i="76" alpha="-79800.929462426473" sparseCutoff="1.0000000000000000"/>
      <sparseX i="77" alpha="107221.66301787774" sparseCutoff="1.0000000000000000"/>
      <sparseX i="78" alpha="-273252.52392603236" sparseCutoff="1.0000000000000000"/>
      <sparseX i="79" alpha="12627.562789645184" sparseCutoff="1.0000000000000000"/>
      <sparseX i="80" alpha="76145.414377578272" sparseCutoff="1.0000000000000000"/>
      <sparseX i="81" alpha="99000.637492971800" sparseCutoff="1.0000000000000000"/>
      <sparseX i="82" alpha="-157947.84093946245" sparseCutoff="1.0000000000000000"/>
      <sparseX i="83" alpha="27698.117404815795" sparseCutoff="1.0000000000000000"/>
      <sparseX i="84" alpha="161585.61807270147" sparseCutoff="1.0000000000000000"/>
      <sparseX i="85" alpha="7357.8780594534246" sparseCutoff="1.0000000000000000"/>
      <sparseX i="86" alpha="-8029.7887739089520" sparseCutoff="1.0000000000000000"/>
      <sparseX i="87" alpha="-70868.572553306163" sparseCutoff="1.0000000000000000"/>
      <sparseX i="88" alpha="192489.63382904514" sparseCutoff="1.0000000000000000"/>
      <sparseX i="89" alpha="116321.63995046368" sparseCutoff="1.0000000000000000"/>
      <sparseX i="90" alpha="49435.045210711025" sparseCutoff="1.0000000000000000"/>
      <sparseX i="91" alpha="10232.075639125374" sparseCutoff="1.0000000000000000"/>
      <sparseX i="92" alpha="-85743.568627578483" sparseCutoff="1.0000000000000000"/>
      <sparseX i="93" alpha="39043.006823924814" sparseCutoff="1.0000000000000000"/>
      <sparseX i="94" alpha="-10329.174133486094" sparseCutoff="1.0000000000000000"/>
      <sparseX i="95" alpha="-48772.453159125107" sparseCutoff="1.0000000000000000"/>
      <sparseX i="96" alpha="85002.444252572459" sparseCutoff="1.0000000000000000"/>
      <sparseX i="97" alpha="-51854.918349539337" sparseCutoff="1.0000000000000000"/>
      <sparseX i="98" alpha="11652.441854066106" sparseCutoff="1.0000000000000000"/>
      <sparseX i="99" alpha="125404.74918875309" sparseCutoff="1.0000000000000000"/>
      <sparseX i="100" alpha="92149.659512596205" sparseCutoff="1.0000000000000000"/>
      <sparseX i="101" alpha="66641.929284692174" sparseCutoff="1.0000000000000000"/>
      <sparseX i="102" alpha="133259.27100018840" sparseCutoff="1.0000000000000000"/>
      <sparseX i="103" alpha="109823.06898758320" sparseCutoff="1.0000000000000000"/>
      <sparseX i="104" alpha="18791.289575070670" sparseCutoff="1.0000000000000000"/>
      <sparseX i="105" alpha="-35219.926032296673" sparseCutoff="1.0000000000000000"/>
      <sparseX i="106" alpha="311615.94157424557" sparseCutoff="1.0000000000000000"/>
      <sparseX i="107" alpha="-175164.32844552991" sparseCutoff="1.0000000000000000"/>
      <sparseX i="108" alpha="148300.61321090432" sparseCutoff="1.0000000000000000"/>
      <sparseX i="109" alpha="148376.05890317867" sparseCutoff="1.0000000000000000"/>
      <sparseX i="110" alpha="-313535.80084969831" sparseCutoff="1.0000000000000000"/>
      <sparseX i="111" alpha="67245.178146017424" sparseCutoff="1.0000000000000000"/>
      <sparseX i="112" alpha="-51758.342178483617" sparseCutoff="1.0000000000000000"/>
      <sparseX i="113" alpha="302547.81920478499" sparseCutoff="1.0000000000000000"/>
      <sparseX i="114" alpha="16944.745338339624" sparseCutoff="1.0000000000000000"/>
      <sparseX i="115" alpha="56695.167969626920" sparseCutoff="1.0000000000000000"/>
      <sparseX i="116" alpha="44504.119294746415" sparseCutoff="1.0000000000000000"/>
      <sparseX i="117" alpha="101847.07278007586" sparseCutoff="1.0000000000000000"/>
      <sparseX i="118" alpha="8137.0339169296712" sparseCutoff="1.0000000000000000"/>
      <sparseX i="119" alpha="-15544.465773795369" sparseCutoff="1.0000000000000000"/>
      <sparseX i="120" alpha="-288223.86140499660" sparseCutoff="1.0000000000000000"/>
      <sparseX i="121" alpha="-179144.70444376318" sparseCutoff="1.0000000000000000"/>
      <sparseX i="122" alpha="75085.606876843885" sparseCutoff="1.0000000000000000"/>
      <sparseX i="123" alpha="28265.172832743236" sparseCutoff="1.0000000000000000"/>
      <sparseX i="124" alpha="24274.845960270559" sparseCutoff="1.0000000000000000"/>
      <sparseX i="125" alpha="-349890.02930271789" sparseCutoff="1.0000000000000000"/>
      <sparseX i="126" alpha="40737.253975814630" sparseCutoff="1.0000000000000000"/>
      <sparseX i="127" alpha="-230690.99497427826" sparseCutoff="1.0000000000000000"/>
      <sparseX i="128" alpha="16337.379482348579" sparseCutoff="1.0000000000000000"/>
      <sparseX i="129" alpha="3578.4887563246471" sparseCutoff="1.0000000000000000"/>
      <sparseX i="130" alpha="176141.01515793891" sparseCutoff="1.0000000000000000"/>
      <sparseX i="131" alpha="-110370.85640366669" sparseCutoff="1.0000000000000000"/>
      <sparseX i="132" alpha="-208033.58175125348" sparseCutoff="1.0000000000000000"/>
      <sparseX i="133" alpha="79839.269012158096" sparseCutoff="1.0000000000000000"/>
      <sparseX i="134" alpha="-163725.87199181697" sparseCutoff="1.0000000000000000"/>
      <sparseX i="135" alpha="355989.68497631536" sparseCutoff="1.0000000000000000"/>
      <sparseX i="136" alpha="-109710.95161327827" sparseCutoff="1.0000000000000000"/>
      <sparseX i="137" alpha="257858.10890602859" sparseCutoff="1.0000000000000000"/>
      <sparseX i="138" alpha="135473.55513011976" sparseCutoff="1.0000000000000000"/>
      <sparseX i="139" alpha="-41901.273418008481" sparseCutoff="1.0000000000000000"/>
      <sparseX i="140" alpha="41998.767619182370" sparseCutoff="1.0000000000000000"/>
      <sparseX i="141" alpha="-92334.471931674649" sparseCutoff="1.0000000000000000"/>
      <sparseX i="142" alpha="190893.63289826375" sparseCutoff="1.0000000000000000"/>
      <sparseX i="143" alpha="-426888.11083787802" sparseCutoff="1.0000000000000000"/>
      <sparseX i="144" alpha="49066.167661034400" sparseCutoff="1.0000000000000000"/>
      <sparseX i="145" alpha="-237563.56760044378" sparseCutoff="1.0000000000000000"/>
      <sparseX i="146" alpha="-97748.245009728082" sparseCutoff="1.0000000000000000"/>
      <sparseX i="147" alpha="-148519.04517078714" sparseCutoff="1.0000000000000000"/>
      <sparseX i="148" alpha="-183624.63645959084" sparseCutoff="1.0000000000000000"/>
      <sparseX i="149" alpha="120014.87711463455" sparseCutoff="1.0000000000000000"/>
      <sparseX i="150" alpha="-44087.057824994343" sparseCutoff="1.0000000000000000"/>
      <sparseX i="151" alpha="-17383.556908240902" sparseCutoff="1.0000000000000000"/>
      <sparseX i="152" alpha="-63354.308748737138" sparseCutoff="1.0000000000000000"/>
      <sparseX i="153" alpha="-110401.34079736749" sparseCutoff="1.0000000000000000"/>
      <sparseX i="154" alpha="-331541.59427917021" sparseCutoff="1.0000000000000000"/>
      <sparseX i="155" alpha="-3332.5727755253592" sparseCutoff="1.0000000000000000"/>
      <sparseX i="156" alpha="69536.229282409389" sparseCutoff="1.0000000000000000"/>
      <sparseX i="157" alpha="-147934.20147982231" sparseCutoff="1.0000000000000000"/>
      <sparseX i="158" alpha="-18929.380070555708" sparseCutoff="1.0000000000000000"/>
      <sparseX i="159" alpha="-387461.80153837724" sparseCutoff="1.0000000000000000"/>
      <sparseX i="160" alpha="41252.472315960171" sparseCutoff="1.0000000000000000"/>
      <sparseX i="161" alpha="-86279.035612178501" sparseCutoff="1.0000000000000000"/>
      <sparseX i="162" alpha="-116053.44145250772" sparseCutoff="1.0000000000000000"/>
      <sparseX i="163" alpha="157194.81560133939" sparseCutoff="1.0000000000000000"/>
      <sparseX i="164" alpha="-139636.03303799831" sparseCutoff="1.0000000000000000"/>
      <sparseX i="165" alpha="170856.30140710517" sparseCutoff="1.0000000000000000"/>
      <sparseX i="166" alpha="-214355.73729999224" sparseCutoff="1.0000000000000000"/>
      <sparseX i="167" alpha="-26965.202183692923" sparseCutoff="1.0000000000000000"/>
      <sparseX i="168" alpha="-83505.565575944915" sparseCutoff="1.0000000000000000"/>
      <sparseX i="169" alpha="-158675.53413621918" sparseCutoff="1.0000000000000000"/>
      <sparseX i="170" alpha="-30345.231142443674" sparseCutoff="1.0000000000000000"/>
      <sparseX i="171" alpha="4633.6298904416672" sparseCutoff="1.0000000000000000"/>
      <sparseX i="172" alpha="-158817.62133352074" sparseCutoff="1.0000000000000000"/>
      <sparseX i="173" alpha="-70444.391331661536" sparseCutoff="1.0000000000000000"/>
      <sparseX i="174" alpha="28113.761912667862" sparseCutoff="1.0000000000000000"/>
      <sparseX i="175" alpha="-47.527996740918390" sparseCutoff="1.0000000000000000"/>
      <sparseX i="176" alpha="-47559.076037943458" sparseCutoff="1.0000000000000000"/>
      <sparseX i="177" alpha="-72074.429599226947" sparseCutoff="1.0000000000000000"/>
      <sparseX i="178" alpha="-44756.332271841762" sparseCutoff="1.0000000000000000"/>
      <sparseX i="179" alpha="-79622.309548414181" sparseCutoff="1.0000000000000000"/>
      <sparseX i="180" alpha="23048.057501621388" sparseCutoff="1.0000000000000000"/>
      <sparseX i="181" alpha="865.66316345353550" sparseCutoff="1.0000000000000000"/>
      <sparseX i="182" alpha="40526.634771986370" sparseCutoff="1.0000000000000000"/>
      <sparseX i="183" alpha="82617.690569906612" sparseCutoff="1.0000000000000000"/>
      <sparseX i="184" alpha="-51388.862603125111" sparseCutoff="1.0000000000000000"/>
      <sparseX i="185" alpha="-36308.670051268695" sparseCutoff="1.0000000000000000"/>
      <sparseX i="186" alpha="60662.315791129629" sparseCutoff="1.0000000000000000"/>
      <sparseX i="187" alpha="-59745.070280628875" sparseCutoff="1.0000000000000000"/>
      <sparseX i="188" alpha="35977.116157606601" sparseCutoff="1.0000000000000000"/>
      <sparseX i="189" alpha="-60055.479638339639" sparseCutoff="1.0000000000000000"/>
      <sparseX i="190" alpha="49735.624622580057" sparseCutoff="1.0000000000000000"/>
      <sparseX i="191" alpha="-5915.4719945129964" sparseCutoff="1.0000000000000000"/>
      <sparseX i="192" alpha="87979.349638484564" sparseCutoff="1.0000000000000000"/>
      <sparseX i="193" alpha="87782.368251133958" sparseCutoff="1.0000000000000000"/>
      <sparseX i="194" alpha="4894.5917519693121" sparseCutoff="1.0000000000000000"/>
      <sparseX i="195" alpha="47769.461150542455" sparseCutoff="1.0000000000000000"/>
      <sparseX i="196" alpha="-107391.63021886312" sparseCutoff="1.0000000000000000"/>
      <sparseX i="197" alpha="25931.752505316857" sparseCutoff="1.0000000000000000"/>
      <sparseX i="198" alpha="-46323.393897963622" sparseCutoff="1.0000000000000000"/>
      <sparseX i="199" alpha="-75858.079726760829" sparseCutoff="1.0000000000000000"/>
      <sparseX i="200" alpha="-3678.2208163047367" sparseCutoff="1.0000000000000000"/>
      <sparseX i="201" alpha="-28138.449139862951" sparseCutoff="1.0000000000000000"/>
      <sparseX i="202" alpha="27716.208642271638" sparseCutoff="1.0000000000000000"/>
      <sparseX i="203" alpha="25505.921564163767" sparseCutoff="1.0000000000000000"/>
      <sparseX i="204" alpha="16533.938355050323" sparseCutoff="1.0000000000000000"/>
      <sparseX i="205" alpha="334351.94854493724" sparseCutoff="1.0000000000000000"/>
      <sparseX i="206" alpha="-562798.11874832504" sparseCutoff="1.0000000000000000"/>
      <sparseX i="207" alpha="2337.5169934972537" sparseCutoff="1.0000000000000000"/>
      <sparseX i="208" alpha="10495.621971986380" sparseCutoff="1.0000000000000000"/>
      <sparseX i="209" alpha="-51573.393018725917" sparseCutoff="1.0000000000000000"/>
      <sparseX i="210" alpha="258073.37535825535" sparseCutoff="1.0000000000000000"/>
      <sparseX i="211" alpha="16463.080529802086" sparseCutoff="1.0000000000000000"/>
      <sparseX i="212" alpha="140694.03351052455" sparseCutoff="1.0000000000000000"/>
      <sparseX i="213" alpha="-129488.90387927571" sparseCutoff="1.0000000000000000"/>
      <sparseX i="214" alpha="-74928.329442253380" sparseCutoff="1.0000000000000000"/>
      <sparseX i="215" alpha="-74572.714851368932" sparseCutoff="1.0000000000000000"/>
      <sparseX i="216" alpha="257416.34388318582" sparseCutoff="1.0000000000000000"/>
      <sparseX i="217" alpha="-53872.755217245802" sparseCutoff="1.0000000000000000"/>
      <sparseX i="218" alpha="-189061.69151022850" sparseCutoff="1.0000000000000000"/>
      <sparseX i="219" alpha="89165.091334614306" sparseCutoff="1.0000000000000000"/>
      <sparseX i="220" alpha="25314.704040169712" sparseCutoff="1.0000000000000000"/>
      <sparseX i="221" alpha="-143846.65606313149" sparseCutoff="1.0000000000000000"/>
      <sparseX i="222" alpha="87373.875234141975" sparseCutoff="1.0000000000000000"/>
      <sparseX i="223" alpha="16889.618991884774" sparseCutoff="1.0000000000000000"/>
      <sparseX i="224" alpha="-91401.494882810322" sparseCutoff="1.0000000000000000"/>
      <sparseX i="225" alpha="-15090.720793550885" sparseCutoff="1.0000000000000000"/>
      <sparseX i="226" alpha="-129921.43728358608" sparseCutoff="1.0000000000000000"/>
      <sparseX i="227" alpha="-297038.05544022669" sparseCutoff="1.0000000000000000"/>
      <sparseX i="228" alpha="-96800.512311287079" sparseCutoff="1.0000000000000000"/>
      <sparseX i="229" alpha="-50019.037673688283" sparseCutoff="1.0000000000000000"/>
      <sparseX i="230" alpha="172240.47890345933" sparseCutoff="1.0000000000000000"/>
      <sparseX i="231" alpha="-22586.833220425837" sparseCutoff="1.0000000000000000"/>
      <sparseX i="232" alpha="-79352.390765857679" sparseCutoff="1.0000000000000000"/>
      <sparseX i="233" alpha="-47765.037554279195" sparseCutoff="1.0000000000000000"/>
      <sparseX i="234" alpha="1638.6304091825618" sparseCutoff="1.0000000000000000"/>
      <sparseX i="235" alpha="-294933.96572806785" sparseCutoff="1.0000000000000000"/>
      <sparseX i="236" alpha="-28463.450039681684" sparseCutoff="1.0000000000000000"/>
      <sparseX i="237" alpha="-108521.67117934657" sparseCutoff="1.0000000000000000"/>
      <sparseX i="238" alpha="-575732.74779401941" sparseCutoff="1.0000000000000000"/>
      <sparseX i="239" alpha="-138064.50697919438" sparseCutoff="1.0000000000000000"/>
      <sparseX i="240" alpha="82559.436728149623" sparseCutoff="1.0000000000000000"/>
      <sparseX i="241" alpha="64626.065943430862" sparseCutoff="1.0000000000000000"/>
      <sparseX i="242" alpha="134259.60181679248" sparseCutoff="1.0000000000000000"/>
      <sparseX i="243" alpha="-144976.22796746710" sparseCutoff="1.0000000000000000"/>
      <sparseX i="244" alpha="-93923.984400366258" sparseCutoff="1.0000000000000000"/>
      <sparseX i="245" alpha="39665.439631784655" sparseCutoff="1.0000000000000000"/>
      <sparseX i="246" alpha="-285744.54694394657" sparseCutoff="1.0000000000000000"/>
      <sparseX i="247" alpha="112362.98742570449" sparseCutoff="1.0000000000000000"/>
      <sparseX i="248" alpha="100790.89845558100" sparseCutoff="1.0000000000000000"/>
      <sparseX i="249" alpha="-134179.86505978176" sparseCutoff="1.0000000000000000"/>
      <sparseX i="250" alpha="278156.38375154143" sparseCutoff="1.0000000000000000"/>
      <sparseX i="251" alpha="134862.17108987668" sparseCutoff="1.0000000000000000"/>
      <sparseX i="252" alpha="-231403.26337060286" sparseCutoff="1.0000000000000000"/>
      <sparseX i="253" alpha="176004.46586477358" sparseCutoff="1.0000000000000000"/>
      <sparseX i="254" alpha="156078.81767012406" sparseCutoff="1.0000000000000000"/>
      <sparseX i="255" alpha="-107149.10238140993" sparseCutoff="1.0000000000000000"/>
      <sparseX i="256" alpha="-297520.29790769459" sparseCutoff="1.0000000000000000"/>
      <sparseX i="257" alpha="-290272.27967634861" sparseCutoff="1.0000000000000000"/>
      <sparseX i="258" alpha="515864.01732128247" sparseCutoff="1.0000000000000000"/>
      <sparseX i="259" alpha="-192916.63375440019" sparseCutoff="1.0000000000000000"/>
      <sparseX i="260" alpha="-414244.82817624282" sparseCutoff="1.0000000000000000"/>
      <sparseX i="261" alpha="394229.61929747986" sparseCutoff="1.0000000000000000"/>
      <sparseX i="262" alpha="76881.251286685423" sparseCutoff="1.0000000000000000"/>
      <sparseX i="263" alpha="-283308.45302995050" sparseCutoff="1.0000000000000000"/>
      <sparseX i="264" alpha="437200.11515918054" sparseCutoff="1.0000000000000000"/>
      <sparseX i="265" alpha="219621.67869919707" sparseCutoff="1.0000000000000000"/>
      <sparseX i="266" alpha="-78750.444842111567" sparseCutoff="1.0000000000000000"/>
      <sparseX i="267" alpha="47372.238936163027" sparseCutoff="1.0000000000000000"/>
      <sparseX i="268" alpha="-44377.540402304541" sparseCutoff="1.0000000000000000"/>
      <sparseX i="269" alpha="844339.97921113332" sparseCutoff="1.0000000000000000"/>
      <sparseX i="270" alpha="97935.110712602473" sparseCutoff="1.0000000000000000"/>
      <sparseX i="271" alpha="32132.195330528582" sparseCutoff="1.0000000000000000"/>
      <sparseX i="272" alpha="-81550.358096755008" sparseCutoff="1.0000000000000000"/>
      <sparseX i="273" alpha="-461806.74583881575" sparseCutoff="1.0000000000000000"/>
      <sparseX i="274" alpha="620545.26009325148" sparseCutoff="1.0000000000000000"/>
      <sparseX i="275" alpha="8513.0454711589919" sparseCutoff="1.0000000000000000"/>
      <sparseX i="276" alpha="54069.718657023310" sparseCutoff="1.0000000000000000"/>
      <sparseX i="277" alpha="-31927.077525985664" sparseCutoff="1.0000000000000000"/>
      <sparseX i="278" alpha="-199484.15707523137" sparseCutoff="1.0000000000000000"/>
      <sparseX i="279" alpha="-122536.80320213478" sparseCutoff="1.0000000000000000"/>
      <sparseX i="280" alpha="-391438.05684224796" sparseCutoff="1.0000000000000000"/>
      <sparseX i="281" alpha="292138.13725649210" sparseCutoff="1.0000000000000000"/>
      <sparseX i="282" alpha="-320540.23768834950" sparseCutoff="1.0000000000000000"/>
      <sparseX i="283" alpha="-360820.14219059702" sparseCutoff="1.0000000000000000"/>
      <sparseX i="284" alpha="206735.41675132123" sparseCutoff="1.0000000000000000"/>
      <sparseX i="285" alpha="-208306.19474176556" sparseCutoff="1.0000000000000000"/>
      <sparseX i="286" alpha="75680.347665403955" sparseCutoff="1.0000000000000000"/>
      <sparseX i="287" alpha="-43316.116913857470" sparseCutoff="1.0000000000000000"/>
      <sparseX i="288" alpha="-29583.384805879694" sparseCutoff="1.0000000000000000"/>
      <sparseX i="289" alpha="-33676.936871694859" sparseCutoff="1.0000000000000000"/>
      <sparseX i="290" alpha="65545.141002405406" sparseCutoff="1.0000000000000000"/>
      <sparseX i="291" alpha="-78303.304736648395" sparseCutoff="1.0000000000000000"/>
      <sparseX i="292" alpha="-947.47203822811503" sparseCutoff="1.0000000000000000"/>
      <sparseX i="293" alpha="-11838.481271937257" sparseCutoff="1.0000000000000000"/>
      <sparseX i="294" alpha="-41331.662957336208" sparseCutoff="1.0000000000000000"/>
      <sparseX i="295" alpha="-23199.679001484645" sparseCutoff="1.0000000000000000"/>
      <sparseX i="296" alpha="87941.891438148217" sparseCutoff="1.0000000000000000"/>
      <sparseX i="297" alpha="88379.399720080706" sparseCutoff="1.0000000000000000"/>
      <sparseX i="298" alpha="-80268.193463536227" sparseCutoff="1.0000000000000000"/>
      <sparseX i="299" alpha="-81749.313834381799" sparseCutoff="1.0000000000000000"/>
      <sparseX i="300" alpha="35194.072005743110" sparseCutoff="1.0000000000000000"/>
      <sparseX i="301" alpha="51498.149171496640" sparseCutoff="1.0000000000000000"/>
      <sparseX i="302" alpha="-92247.123942352904" sparseCutoff="1.0000000000000000"/>
      <sparseX i="303" alpha="9124.5979809896980" sparseCutoff="1.0000000000000000"/>
      <sparseX i="304" alpha="-174336.65295777249" sparseCutoff="1.0000000000000000"/>
      <sparseX i="305" alpha="-209623.08801663562" sparseCutoff="1.0000000000000000"/>
      <sparseX i="306" alpha="28629.918841030016" sparseCutoff="1.0000000000000000"/>
      <sparseX i="307" alpha="7954.2736149041011" sparseCutoff="1.0000000000000000"/>
      <sparseX i="308" alpha="14066.538361962430" sparseCutoff="1.0000000000000000"/>
      <sparseX i="309" alpha="-14648.679434512385" sparseCutoff="1.0000000000000000"/>
      <sparseX i="310" alpha="72947.438968921066" sparseCutoff="1.0000000000000000"/>
      <sparseX i="311" alpha="58332.582237352603" sparseCutoff="1.0000000000000000"/>
      <sparseX i="312" alpha="28268.106320235838" sparseCutoff="1.0000000000000000"/>
      <sparseX i="313" alpha="7346.3073993057387" sparseCutoff="1.0000000000000000"/>
      <sparseX i="314" alpha="21886.211753180378" sparseCutoff="1.0000000000000000"/>
      <sparseX i="315" alpha="10708.259906350950" sparseCutoff="1.0000000000000000"/>
      <sparseX i="316" alpha="25322.253794360400" sparseCutoff="1.0000000000000000"/>
      <sparseX i="317" alpha="9133.2578549107384" sparseCutoff="1.0000000000000000"/>
      <sparseX i="318" alpha="-14466.862697989756" sparseCutoff="1.0000000000000000"/>
      <sparseX i="319" alpha="125474.78088659445" sparseCutoff="1.0000000000000000"/>
      <sparseX i="320" alpha="-107370.91648028049" sparseCutoff="1.0000000000000000"/>
      <sparseX i="321" alpha="96008.114453648683" sparseCutoff="1.0000000000000000"/>
      <sparseX i="322" alpha="99311.424239892047" sparseCutoff="1.0000000000000000"/>
      <sparseX i="323" alpha="1988.5194637866432" sparseCutoff="1.0000000000000000"/>
      <sparseX i="324" alpha="100884.18994718695" sparseCutoff="1.0000000000000000"/>
      <sparseX i="325" alpha="-49165.953424504274" sparseCutoff="1.0000000000000000"/>
      <sparseX i="326" alpha="7078.3102030769378" sparseCutoff="1.0000000000000000"/>
      <sparseX i="327" alpha="36560.525868508477" sparseCutoff="1.0000000000000000"/>
      <sparseX i="328" alpha="-33467.296387902948" sparseCutoff="1.0000000000000000"/>
      <sparseX i="329" alpha="-30627.248841137014" sparseCutoff="1.0000000000000000"/>
      <sparseX i="330" alpha="-53028.623843440015" sparseCutoff="1.0000000000000000"/>
      <sparseX i="331" alpha="-68239.804662048758" sparseCutoff="1.0000000000000000"/>
      <sparseX i="332" alpha="11737.706716852375" sparseCutoff="1.0000000000000000"/>
      <sparseX i="333" alpha="-36615.275814051180" sparseCutoff="1.0000000000000000"/>
      <sparseX i="334" alpha="-37501.706838369355" sparseCutoff="1.0000000000000000"/>
      <sparseX i="335" alpha="-12787.443275204785" sparseCutoff="1.0000000000000000"/>
      <sparseX i="336" alpha="-46866.253632374479" sparseCutoff="1.0000000000000000"/>
      <sparseX i="337" alpha="-12336.855495470496" sparseCutoff="1.0000000000000000"/>
      <sparseX i="338" alpha="-12908.875146798180" sparseCutoff="1.0000000000000000"/>
      <sparseX i="339" alpha="-36291.469695776308" sparseCutoff="1.0000000000000000"/>
      <sparseX i="340" alpha="107256.19001430925" sparseCutoff="1.0000000000000000"/>
      <sparseX i="341" alpha="29665.819927312543" sparseCutoff="1.0000000000000000"/>
      <sparseX i="342" alpha="-31018.707790073939" sparseCutoff="1.0000000000000000"/>
      <sparseX i="343" alpha="137697.49863870619" sparseCutoff="1.0000000000000000"/>
      <sparseX i="344" alpha="204687.94681596267" sparseCutoff="1.0000000000000000"/>
      <sparseX i="345" alpha="-28603.243509822201" sparseCutoff="1.0000000000000000"/>
      <sparseX i="346" alpha="-40765.556047023369" sparseCutoff="1.0000000000000000"/>
      <sparseX i="347" alpha="131438.33249646006" sparseCutoff="1.0000000000000000"/>
      <sparseX i="348" alpha="-57051.141169438051" sparseCutoff="1.0000000000000000"/>
      <sparseX i="349" alpha="-107068.65849874938" sparseCutoff="1.0000000000000000"/>
      <sparseX i="350" alpha="-23250.500299931693" sparseCutoff="1.0000000000000000"/>
      <sparseX i="351" alpha="-297310.91166713403" sparseCutoff="1.0000000000000000"/>
      <sparseX i="352" alpha="-221171.10657525033" sparseCutoff="1.0000000000000000"/>
      <sparseX i="353" alpha="-227958.27185658630" sparseCutoff="1.0000000000000000"/>
      <sparseX i="354" alpha="-18295.077206585502" sparseCutoff="1.0000000000000000"/>
      <sparseX i="355" alpha="93608.094248897440" sparseCutoff="1.0000000000000000"/>
      <sparseX i="356" alpha="300401.28986485576" sparseCutoff="1.0000000000000000"/>
      <sparseX i="357" alpha="1614.4267948279346" sparseCutoff="1.0000000000000000"/>
      <sparseX i="358" alpha="380046.75939120381" sparseCutoff="1.0000000000000000"/>
      <sparseX i="359" alpha="226811.20230261973" sparseCutoff="1.0000000000000000"/>
      <sparseX i="360" alpha="-17021.746610456721" sparseCutoff="1.0000000000000000"/>
      <sparseX i="361" alpha="-329625.90644903085" sparseCutoff="1.0000000000000000"/>
      <sparseX i="362" alpha="-177533.12722927643" sparseCutoff="1.0000000000000000"/>
      <sparseX i="363" alpha="62540.527997686666" sparseCutoff="1.0000000000000000"/>
      <sparseX i="364" alpha="-6259.6142022753966" sparseCutoff="1.0000000000000000"/>
      <sparseX i="365" alpha="-123530.88586542850" sparseCutoff="1.0000000000000000"/>
      <sparseX i="366" alpha="293146.82564445020" sparseCutoff="1.0000000000000000"/>
      <sparseX i="367" alpha="100187.96252794427" sparseCutoff="1.0000000000000000"/>
      <sparseX i="368" alpha="-41727.879808462851" sparseCutoff="1.0000000000000000"/>
      <sparseX i="369" alpha="-112673.02690326188" sparseCutoff="1.0000000000000000"/>
      <sparseX i="370" alpha="115796.93798859221" sparseCutoff="1.0000000000000000"/>
      <sparseX i="371" alpha="-206288.62439467415" sparseCutoff="1.0000000000000000"/>
      <sparseX i="372" alpha="2030.4676388953833" sparseCutoff="1.0000000000000000"/>
      <sparseX i="373" alpha="-8973.6232531515689" sparseCutoff="1.0000000000000000"/>
      <sparseX i="374" alpha="-4792.8590735023927" sparseCutoff="1.0000000000000000"/>
      <sparseX i="375" alpha="101860.16183956678" sparseCutoff="1.0000000000000000"/>
      <sparseX i="376" alpha="48101.443090244582" sparseCutoff="1.0000000000000000"/>
      <sparseX i="377" alpha="33920.096380771873" sparseCutoff="1.0000000000000000"/>
      <sparseX i="378" alpha="-16317.793456650998" sparseCutoff="1.0000000000000000"/>
      <sparseX i="379" alpha="-234281.02466094468" sparseCutoff="1.0000000000000000"/>
      <sparseX i="380" alpha="-19531.019658488836" sparseCutoff="1.0000000000000000"/>
      <sparseX i="381" alpha="281874.10810003459" sparseCutoff="1.0000000000000000"/>
      <sparseX i="382" alpha="219326.57840312095" sparseCutoff="1.0000000000000000"/>
      <sparseX i="383" alpha="-46121.323944346193" sparseCutoff="1.0000000000000000"/>
      <sparseX i="384" alpha="-117073.92968345802" sparseCutoff="1.0000000000000000"/>
      <sparseX i="385" alpha="-238458.27494761415" sparseCutoff="1.0000000000000000"/>
      <sparseX i="386" alpha="-95078.942095313629" sparseCutoff="1.0000000000000000"/>
      <sparseX i="387" alpha="68947.075415086190" sparseCutoff="1.0000000000000000"/>
      <sparseX i="388" alpha="-107938.98772514674" sparseCutoff="1.0000000000000000"/>
      <sparseX i="389" alpha="-124997.90814300995" sparseCutoff="1.0000000000000000"/>
      <sparseX i="390" alpha="20430.537785588916" sparseCutoff="1.0000000000000000"/>
      <sparseX i="391" alpha="-44979.090793592812" sparseCutoff="1.0000000000000000"/>
      <sparseX i="392" alpha="-29700.136525523594" sparseCutoff="1.0000000000000000"/>
      <sparseX i="393" alpha="-8421.1841074517615" sparseCutoff="1.0000000000000000"/>
      <sparseX i="394" alpha="92963.307871418903" sparseCutoff="1.0000000000000000"/>
      <sparseX i="395" alpha="-9833.2635119730166" sparseCutoff="1.0000000000000000"/>
      <sparseX i="396" alpha="202728.38373363545" sparseCutoff="1.0000000000000000"/>
      <sparseX i="397" alpha="-244745.42380589625" sparseCutoff="1.0000000000000000"/>
      <sparseX i="398" alpha="-126163.63253978302" sparseCutoff="1.0000000000000000"/>
      <sparseX i="399" alpha="74599.833872525414" sparseCutoff="1.0000000000000000"/>
      <sparseX i="400" alpha="165107.60533940390" sparseCutoff="1.0000000000000000"/>
      <sparseX i="401" alpha="-321034.15535069362" sparseCutoff="1.0000000000000000"/>
      <sparseX i="402" alpha="-37018.926216261119" sparseCutoff="1.0000000000000000"/>
      <sparseX i="403" alpha="456180.27917453507" sparseCutoff="1.0000000000000000"/>
      <sparseX i="404" alpha="-211621.08570405614" sparseCutoff="1.0000000000000000"/>
      <sparseX i="405" alpha="21875.563990638329" sparseCutoff="1.0000000000000000"/>
      <sparseX i="406" alpha="242904.72827338797" sparseCutoff="1.0000000000000000"/>
      <sparseX i="407" alpha="47901.275306157702" sparseCutoff="1.0000000000000000"/>
      <sparseX i="408" alpha="39601.641527775573" sparseCutoff="1.0000000000000000"/>
      <sparseX i="409" alpha="524933.81495807751" sparseCutoff="1.0000000000000000"/>
      <sparseX i="410" alpha="-60901.877906213063" sparseCutoff="1.0000000000000000"/>
      <sparseX i="411" alpha="73605.688054799437" sparseCutoff="1.0000000000000000"/>
      <sparseX i="412" alpha="169159.62907343949" sparseCutoff="1.0000000000000000"/>
      <sparseX i="413" alpha="284856.92878356070" sparseCutoff="1.0000000000000000"/>
      <sparseX i="414" alpha="-97873.897433888545" sparseCutoff="1.0000000000000000"/>
      <sparseX i="415" alpha="-281307.89310244482" sparseCutoff="1.0000000000000000"/>
      <sparseX i="416" alpha="-928.27522319493573" sparseCutoff="1.0000000000000000"/>
      <sparseX i="417" alpha="133724.05593385262" sparseCutoff="1.0000000000000000"/>
      <sparseX i="418" alpha="957.98592673900089" sparseCutoff="1.0000000000000000"/>
      <sparseX i="419" alpha="-505186.23320509464" sparseCutoff="1.0000000000000000"/>
      <sparseX i="420" alpha="76451.367051969835" sparseCutoff="1.0000000000000000"/>
      <sparseX i="421" alpha="141298.15294015539" sparseCutoff="1.0000000000000000"/>
      <sparseX i="422" alpha="-128825.30899620787" sparseCutoff="1.0000000000000000"/>
      <sparseX i="423" alpha="287008.92195091426" sparseCutoff="1.0000000000000000"/>
      <sparseX i="424" alpha="-525350.59084183176" sparseCutoff="1.0000000000000000"/>
      <sparseX i="425" alpha="85142.885611922466" sparseCutoff="1.0000000000000000"/>
      <sparseX i="426" alpha="-231072.32871965299" sparseCutoff="1.0000000000000000"/>
      <sparseX i="427" alpha="-474687.41530211078" sparseCutoff="1.0000000000000000"/>
      <sparseX i="428" alpha="-481040.77324869967" sparseCutoff="1.0000000000000000"/>
      <sparseX i="429" alpha="44646.986502203552" sparseCutoff="1.0000000000000000"/>
      <sparseX i="430" alpha="303778.37895567500" sparseCutoff="1.0000000000000000"/>
      <sparseX i="431" alpha="373672.61830724392" sparseCutoff="1.0000000000000000"/>
      <sparseX i="432" alpha="-191038.14241422160" sparseCutoff="1.0000000000000000"/>
      <sparseX i="433" alpha="355621.72814068961" sparseCutoff="1.0000000000000000"/>
      <sparseX i="434" alpha="-409673.33964575559" sparseCutoff="1.0000000000000000"/>
      <sparseX i="435" alpha="-40481.716114035065" sparseCutoff="1.0000000000000000"/>
      <sparseX i="436" alpha="-58742.148341494198" sparseCutoff="1.0000000000000000"/>
      <sparseX i="437" alpha="-265684.20855521644" sparseCutoff="1.0000000000000000"/>
      <sparseX i="438" alpha="-12421.206541067826" sparseCutoff="1.0000000000000000"/>
      <sparseX i="439" alpha="319819.06315085501" sparseCutoff="1.0000000000000000"/>
      <sparseX i="440" alpha="-222737.92408364653" sparseCutoff="1.0000000000000000"/>
      <sparseX i="441" alpha="44729.792687582041" sparseCutoff="1.0000000000000000"/>
      <sparseX i="442" alpha="-88757.486961626899" sparseCutoff="1.0000000000000000"/>
      <sparseX i="443" alpha="-137095.10881700445" sparseCutoff="1.0000000000000000"/>
      <sparseX i="444" alpha="-41354.898185548285" sparseCutoff="1.0000000000000000"/>
      <sparseX i="445" alpha="-105013.79072553510" sparseCutoff="1.0000000000000000"/>
      <sparseX i="446" alpha="-167305.53935771770" sparseCutoff="1.0000000000000000"/>
      <sparseX i="447" alpha="67.117247989362710" sparseCutoff="1.0000000000000000"/>
      <sparseX i="448" alpha="74103.641425083217" sparseCutoff="1.0000000000000000"/>
      <sparseX i="449" alpha="-106776.30418524424" sparseCutoff="1.0000000000000000"/>
      <sparseX i="450" alpha="33410.411215544365" sparseCutoff="1.0000000000000000"/>
      <sparseX i="451" alpha="64212.742186885145" sparseCutoff="1.0000000000000000"/>
      <sparseX i="452" alpha="-34155.882739540735" sparseCutoff="1.0000000000000000"/>
      <sparseX i="453" alpha="-51119.575906105478" sparseCutoff="1.0000000000000000"/>
      <sparseX i="454" alpha="112108.95944443626" sparseCutoff="1.0000000000000000"/>
      <sparseX i="455" alpha="74758.296684889501" sparseCutoff="1.0000000000000000"/>
      <sparseX i="456" alpha="-29704.222451013706" sparseCutoff="1.0000000000000000"/>
      <sparseX i="457" alpha="-867.29422837371965" sparseCutoff="1.0000000000000000"/>
      <sparseX i="458" alpha="-106232.96277242723" sparseCutoff="1.0000000000000000"/>
      <sparseX i="459" alpha="8534.8889239272121" sparseCutoff="1.0000000000000000"/>
      <sparseX i="460" alpha="-29978.691808536296" sparseCutoff="1.0000000000000000"/>
      <sparseX i="461" alpha="20339.382807424008" sparseCutoff="1.0000000000000000"/>
      <sparseX i="462" alpha="165471.17273339143" sparseCutoff="1.0000000000000000"/>
      <sparseX i="463" alpha="-96769.120479841149" sparseCutoff="1.0000000000000000"/>
      <sparseX i="464" alpha="-19612.991746252876" sparseCutoff="1.0000000000000000"/>
      <sparseX i="465" alpha="10040.030048432140" sparseCutoff="1.0000000000000000"/>
      <sparseX i="466" alpha="-32806.098307415756" sparseCutoff="1.0000000000000000"/>
      <sparseX i="467" alpha="29075.110646373229" sparseCutoff="1.0000000000000000"/>
      <sparseX i="468" alpha="84066.702689867947" sparseCutoff="1.0000000000000000"/>
      <sparseX i="469" alpha="23529.231327117508" sparseCutoff="1.0000000000000000"/>
      <sparseX i="470" alpha="-83853.947829159864" sparseCutoff="1.0000000000000000"/>
      <sparseX i="471" alpha="-104108.17833106931" sparseCutoff="1.0000000000000000"/>
      <sparseX i="472" alpha="-18899.757835310149" sparseCutoff="1.0000000000000000"/>
      <sparseX i="473" alpha="112846.71832052516" sparseCutoff="1.0000000000000000"/>
      <sparseX i="474" alpha="-71837.523083329477" sparseCutoff="1.0000000000000000"/>
      <sparseX i="475" alpha="49614.953153179318" sparseCutoff="1.0000000000000000"/>
      <sparseX i="476" alpha="4522.2901583864405" sparseCutoff="1.0000000000000000"/>
      <sparseX i="477" alpha="-5046.5583118184850" sparseCutoff="1.0000000000000000"/>
      <sparseX i="478" alpha="-32451.695705218259" sparseCutoff="1.0000000000000000"/>
      <sparseX i="479" alpha="20071.992812420052" sparseCutoff="1.0000000000000000"/>
      <sparseX i="480" alpha="-19710.559941977936" sparseCutoff="1.0000000000000000"/>
      <sparseX i="481" alpha="-238.50390089726460" sparseCutoff="1.0000000000000000"/>
      <sparseX i="482" alpha="70268.336039567963" sparseCutoff="1.0000000000000000"/>
      <sparseX i="483" alpha="-14629.075399671681" sparseCutoff="1.0000000000000000"/>
      <sparseX i="484" alpha="-14418.842897387083" sparseCutoff="1.0000000000000000"/>
      <sparseX i="485" alpha="-79162.490910675799" sparseCutoff="1.0000000000000000"/>
      <sparseX i="486" alpha="5702.2396895959264" sparseCutoff="1.0000000000000000"/>
      <sparseX i="487" alpha="6226.8039694269855" sparseCutoff="1.0000000000000000"/>
      <sparseX i="488" alpha="24949.104277919741" sparseCutoff="1.0000000000000000"/>
      <sparseX i="489" alpha="21190.055266251082" sparseCutoff="1.0000000000000000"/>
      <sparseX i="490" alpha="-18480.072711611643" sparseCutoff="1.0000000000000000"/>
      <sparseX i="491" alpha="47583.816403174307" sparseCutoff="1.0000000000000000"/>
      <sparseX i="492" alpha="-194041.22916474019" sparseCutoff="1.0000000000000000"/>
      <sparseX i="493" alpha="-36589.332038408611" sparseCutoff="1.0000000000000000"/>
      <sparseX i="494" alpha="13588.864804462377" sparseCutoff="1.0000000000000000"/>
      <sparseX i="495" alpha="-3659.4861553079609" sparseCutoff="1.0000000000000000"/>
      <sparseX i="496" alpha="-12207.682200458152" sparseCutoff="1.0000000000000000"/>
      <sparseX i="497" alpha="-1728.6176176585554" sparseCutoff="1.0000000000000000"/>
      <sparseX i="498" alpha="-17325.652652825789" sparseCutoff="1.0000000000000000"/>
      <sparseX i="499" alpha="161230.41389838222" sparseCutoff="1.0000000000000000"/>
      <sparseX i="500" alpha="-62637.275744615421" sparseCutoff="1.0000000000000000"/>
      <sparseX i="501" alpha="24081.100685354038" sparseCutoff="1.0000000000000000"/>
      <sparseX i="502" alpha="-97424.541206420166" sparseCutoff="1.0000000000000000"/>
      <sparseX i="503" alpha="202132.55476278145" sparseCutoff="1.0000000000000000"/>
      <sparseX i="504" alpha="-94493.030201192538" sparseCutoff="1.0000000000000000"/>
      <sparseX i="505" alpha="-293578.93418913445" sparseCutoff="1.0000000000000000"/>
      <sparseX i="506" alpha="284785.08246390615" sparseCutoff="1.0000000000000000"/>
      <sparseX i="507" alpha="204822.08573481615" sparseCutoff="1.0000000000000000"/>
      <sparseX i="508" alpha="-12330.878515138313" sparseCutoff="1.0000000000000000"/>
      <sparseX i="509" alpha="264926.67713258381" sparseCutoff="1.0000000000000000"/>
      <sparseX i="510" alpha="17818.525917016897" sparseCutoff="1.0000000000000000"/>
      <sparseX i="511" alpha="193287.98210742077" sparseCutoff="1.0000000000000000"/>
      <sparseX i="512" alpha="82893.621337206714" sparseCutoff="1.0000000000000000"/>
      <sparseX i="513" alpha="488029.01907894947" sparseCutoff="1.0000000000000000"/>
      <sparseX i="514" alpha="-210264.18657899793" sparseCutoff="1.0000000000000000"/>
      <sparseX i="515" alpha="239424.46101189108" sparseCutoff="1.0000000000000000"/>
      <sparseX i="516" alpha="-26477.271667767120" sparseCutoff="1.0000000000000000"/>
      <sparseX i="517" alpha="4716.0504362305883" sparseCutoff="1.0000000000000000"/>
      <sparseX i="518" alpha="75487.188836204368" sparseCutoff="1.0000000000000000"/>
      <sparseX i="519" alpha="63471.692231432076" sparseCutoff="1.0000000000000000"/>
      <sparseX i="520" alpha="-52314.793995086948" sparseCutoff="1.0000000000000000"/>
      <sparseX i="521" alpha="117028.39794608571" sparseCutoff="1.0000000000000000"/>
      <sparseX i="522" alpha="69853.079645517690" sparseCutoff="1.0000000000000000"/>
      <sparseX i="523" alpha="39607.594262058898" sparseCutoff="1.0000000000000000"/>
      <sparseX i="524" alpha="244807.24110527083" sparseCutoff="1.0000000000000000"/>
      <sparseX i="525" alpha="5297.9057766891001" sparseCutoff="1.0000000000000000"/>
      <sparseX i="526" alpha="-7086.8568104046990" sparseCutoff="1.0000000000000000"/>
      <sparseX i="527" alpha="-328973.33665288356" sparseCutoff="1.0000000000000000"/>
      <sparseX i="528" alpha="-467237.80541956192" sparseCutoff="1.0000000000000000"/>
      <sparseX i="529" alpha="4707.2504616697861" sparseCutoff="1.0000000000000000"/>
      <sparseX i="530" alpha="320916.13107630186" sparseCutoff="1.0000000000000000"/>
      <sparseX i="531" alpha="336407.60503209132" sparseCutoff="1.0000000000000000"/>
      <sparseX i="532" alpha="-456961.96287267271" sparseCutoff="1.0000000000000000"/>
      <sparseX i="533" alpha="-84726.274181725224" sparseCutoff="1.0000000000000000"/>
      <sparseX i="534" alpha="-507153.57796769816" sparseCutoff="1.0000000000000000"/>
      <sparseX i="535" alpha="-38865.262815112917" sparseCutoff="1.0000000000000000"/>
      <sparseX i="536" alpha="-378225.76555011648" sparseCutoff="1.0000000000000000"/>
      <sparseX i="537" alpha="357192.38418445084" sparseCutoff="1.0000000000000000"/>
      <sparseX i="538" alpha="546818.76837416086" sparseCutoff="1.0000000000000000"/>
      <sparseX i="539" alpha="187885.33655949589" sparseCutoff="1.0000000000000000"/>
      <sparseX i="540" alpha="511810.24946933554" sparseCutoff="1.0000000000000000"/>
      <sparseX i="541" alpha="-232596.03411989249" sparseCutoff="1.0000000000000000"/>
      <sparseX i="542" alpha="659774.03425399470" sparseCutoff="1.0000000000000000"/>
      <sparseX i="543" alpha="-506817.56702037127" sparseCutoff="1.0000000000000000"/>
      <sparseX i="544" alpha="410392.47347427555" sparseCutoff="1.0000000000000000"/>
      <sparseX i="545" alpha="83389.064072098729" sparseCutoff="1.0000000000000000"/>
      <sparseX i="546" alpha="6308.3221001135153" sparseCutoff="1.0000000000000000"/>
      <sparseX i="547" alpha="575669.35532249708" sparseCutoff="1.0000000000000000"/>
      <sparseX i="548" alpha="144018.30149358319" sparseCutoff="1.0000000000000000"/>
      <sparseX i="549" alpha="104298.75687517166" sparseCutoff="1.0000000000000000"/>
      <sparseX i="550" alpha="-434494.56578581309" sparseCutoff="1.0000000000000000"/>
      <sparseX i="551" alpha="6279.8128948342710" sparseCutoff="1.0000000000000000"/>
      <sparseX i="552" alpha="-87378.995438305457" sparseCutoff="1.0000000000000000"/>
      <sparseX i="553" alpha="435974.10011962737" sparseCutoff="1.0000000000000000"/>
      <sparseX i="554" alpha="96028.885135676886" sparseCutoff="1.0000000000000000"/>
      <sparseX i="555" alpha="-400274.41009096603" sparseCutoff="1.0000000000000000"/>
      <sparseX i="556" alpha="36097.531268494211" sparseCutoff="1.0000000000000000"/>
      <sparseX i="557" alpha="-218533.62105692373" sparseCutoff="1.0000000000000000"/>
      <sparseX i="558" alpha="207757.66845116569" sparseCutoff="1.0000000000000000"/>
      <sparseX i="559" alpha="56413.936103275133" sparseCutoff="1.0000000000000000"/>
      <sparseX i="560" alpha="103606.82602178105" sparseCutoff="1.0000000000000000"/>
      <sparseX i="561" alpha="-260548.98364534628" sparseCutoff="1.0000000000000000"/>
      <sparseX i="562" alpha="40269.537841832593" sparseCutoff="1.0000000000000000"/>
      <sparseX i="563" alpha="-144613.02933520902" sparseCutoff="1.0000000000000000"/>
      <sparseX i="564" alpha="118189.42203935073" sparseCutoff="1.0000000000000000"/>
      <sparseX i="565" alpha="-312.72573414662463" sparseCutoff="1.0000000000000000"/>
      <sparseX i="566" alpha="-88187.339524409035" sparseCutoff="1.0000000000000000"/>
      <sparseX i="567" alpha="65293.935508901981" sparseCutoff="1.0000000000000000"/>
      <sparseX i="568" alpha="-34746.938679794490" sparseCutoff="1.0000000000000000"/>
      <sparseX i="569" alpha="-25029.004976761247" sparseCutoff="1.0000000000000000"/>
      <sparseX i="570" alpha="132914.82501088074" sparseCutoff="1.0000000000000000"/>
      <sparseX i="571" alpha="23960.434044311940" sparseCutoff="1.0000000000000000"/>
      <sparseX i="572" alpha="408008.32358217658" sparseCutoff="1.0000000000000000"/>
      <sparseX i="573" alpha="147584.48312449575" sparseCutoff="1.0000000000000000"/>
      <sparseX i="574" alpha="-757069.23009563575" sparseCutoff="1.0000000000000000"/>
      <sparseX i="575" alpha="75229.711897728484" sparseCutoff="1.0000000000000000"/>
      <sparseX i="576" alpha="-28999.300068399982" sparseCutoff="1.0000000000000000"/>
      <sparseX i="577" alpha="-15052.962690504281" sparseCutoff="1.0000000000000000"/>
      <sparseX i="578" alpha="19635.346705277247" sparseCutoff="1.0000000000000000"/>
      <sparseX i="579" alpha="-195103.07520950193" sparseCutoff="1.0000000000000000"/>
      <sparseX i="580" alpha="92952.731725774735" sparseCutoff="1.0000000000000000"/>
      <sparseX i="581" alpha="-76314.399819022787" sparseCutoff="1.0000000000000000"/>
      <sparseX i="582" alpha="-70086.840316741771" sparseCutoff="1.0000000000000000"/>
      <sparseX i="583" alpha="-77767.228073357925" sparseCutoff="1.0000000000000000"/>
      <sparseX i="584" alpha="-14391.241071252709" sparseCutoff="1.0000000000000000"/>
      <sparseX i="585" alpha="-18946.153126141176" sparseCutoff="1.0000000000000000"/>
      <sparseX i="586" alpha="-34821.576008415977" sparseCutoff="1.0000000000000000"/>
      <sparseX i="587" alpha="188365.73485361779" sparseCutoff="1.0000000000000000"/>
      <sparseX i="588" alpha="89045.230322213523" sparseCutoff="1.0000000000000000"/>
      <sparseX i="589" alpha="38834.283503693943" sparseCutoff="1.0000000000000000"/>
      <sparseX i="590" alpha="369343.26747620897" sparseCutoff="1.0000000000000000"/>
      <sparseX i="591" alpha="-676539.58057395148" sparseCutoff="1.0000000000000000"/>
      <sparseX i="592" alpha="3394.7271649079580" sparseCutoff="1.0000000000000000"/>
      <sparseX i="593" alpha="85350.824986265376" sparseCutoff="1.0000000000000000"/>
      <sparseX i="594" alpha="15470.388295484754" sparseCutoff="1.0000000000000000"/>
      <sparseX i="595" alpha="67010.996640811310" sparseCutoff="1.0000000000000000"/>
      <sparseX i="596" alpha="-2830.6162393802679" sparseCutoff="1.0000000000000000"/>
      <sparseX i="597" alpha="-375972.85278823163" sparseCutoff="1.0000000000000000"/>
      <sparseX i="598" alpha="-125475.82002316198" sparseCutoff="1.0000000000000000"/>
      <sparseX i="599" alpha="-9651.6339872879289" sparseCutoff="1.0000000000000000"/>
      <sparseX i="600" alpha="-544.89194871573227" sparseCutoff="1.0000000000000000"/>
      <sparseX i="601" alpha="-7893.7525230991941" sparseCutoff="1.0000000000000000"/>
      <sparseX i="602" alpha="6328.0087096954085" sparseCutoff="1.0000000000000000"/>
      <sparseX i="603" alpha="10210.181729400705" sparseCutoff="1.0000000000000000"/>
      <sparseX i="604" alpha="-7745.1071670974297" sparseCutoff="1.0000000000000000"/>
      <sparseX i="605" alpha="-50941.548558726354" sparseCutoff="1.0000000000000000"/>
      <sparseX i="606" alpha="60873.129059110754" sparseCutoff="1.0000000000000000"/>
      <sparseX i="607" alpha="4117.1361478949393" sparseCutoff="1.0000000000000000"/>
      <sparseX i="608" alpha="-13278.994479431058" sparseCutoff="1.0000000000000000"/>
      <sparseX i="609" alpha="83862.852248426570" sparseCutoff="1.0000000000000000"/>
      <sparseX i="610" alpha="-147940.02387866125" sparseCutoff="1.0000000000000000"/>
      <sparseX i="611" alpha="24356.700898227911" sparseCutoff="1.0000000000000000"/>
      <sparseX i="612" alpha="69629.741519793402" sparseCutoff="1.0000000000000000"/>
      <sparseX i="613" alpha="-5241.6123736582140" sparseCutoff="1.0000000000000000"/>
      <sparseX i="614" alpha="53536.277854229127" sparseCutoff="1.0000000000000000"/>
      <sparseX i="615" alpha="-166933.92758236418" sparseCutoff="1.0000000000000000"/>
      <sparseX i="616" alpha="-159095.19270186740" sparseCutoff="1.0000000000000000"/>
      <sparseX i="617" alpha="-73919.452803774635" sparseCutoff="1.0000000000000000"/>
      <sparseX i="618" alpha="-44561.821662976297" sparseCutoff="1.0000000000000000"/>
      <sparseX i="619" alpha="45417.892850378055" sparseCutoff="1.0000000000000000"/>
      <sparseX i="620" alpha="198228.08614827535" sparseCutoff="1.0000000000000000"/>
      <sparseX i="621" alpha="-133652.69583299698" sparseCutoff="1.0000000000000000"/>
      <sparseX i="622" alpha="171206.72182924897" sparseCutoff="1.0000000000000000"/>
      <sparseX i="623" alpha="88389.354419146592" sparseCutoff="1.0000000000000000"/>
      <sparseX i="624" alpha="-5114.1393965455591" sparseCutoff="1.0000000000000000"/>
      <sparseX i="625" alpha="93205.238825164284" sparseCutoff="1.0000000000000000"/>
      <sparseX i="626" alpha="-3593.8883317533987" sparseCutoff="1.0000000000000000"/>
      <sparseX i="627" alpha="8014.7241290318316" sparseCutoff="1.0000000000000000"/>
      <sparseX i="628" alpha="48595.384997635207" sparseCutoff="1.0000000000000000"/>
      <sparseX i="629" alpha="127751.36262912705" sparseCutoff="1.0000000000000000"/>
      <sparseX i="630" alpha="81241.062283225285" sparseCutoff="1.0000000000000000"/>
      <sparseX i="631" alpha="39506.702792264710" sparseCutoff="1.0000000000000000"/>
      <sparseX i="632" alpha="-20056.089519473426" sparseCutoff="1.0000000000000000"/>
      <sparseX i="633" alpha="-127113.80305445894" sparseCutoff="1.0000000000000000"/>
      <sparseX i="634" alpha="189861.49539285203" sparseCutoff="1.0000000000000000"/>
      <sparseX i="635" alpha="11522.425376764144" sparseCutoff="1.0000000000000000"/>
      <sparseX i="636" alpha="74925.284494122228" sparseCutoff="1.0000000000000000"/>
      <sparseX i="637" alpha="-305635.01168125129" sparseCutoff="1.0000000000000000"/>
      <sparseX i="638" alpha="182729.20826020342" sparseCutoff="1.0000000000000000"/>
      <sparseX i="639" alpha="-80847.042067638104" sparseCutoff="1.0000000000000000"/>
      <sparseX i="640" alpha="-193583.90017777157" sparseCutoff="1.0000000000000000"/>
      <sparseX i="641" alpha="-416050.69970991754" sparseCutoff="1.0000000000000000"/>
      <sparseX i="642" alpha="272859.34148512699" sparseCutoff="1.0000000000000000"/>
      <sparseX i="643" alpha="264259.13514705916" sparseCutoff="1.0000000000000000"/>
      <sparseX i="644" alpha="-169321.93923774289" sparseCutoff="1.0000000000000000"/>
      <sparseX i="645" alpha="71330.540177960691" sparseCutoff="1.0000000000000000"/>
      <sparseX i="646" alpha="12372.158069867563" sparseCutoff="1.0000000000000000"/>
      <sparseX i="647" alpha="-58523.299911199661" sparseCutoff="1.0000000000000000"/>
      <sparseX i="648" alpha="-47197.498690122564" sparseCutoff="1.0000000000000000"/>
      <sparseX i="649" alpha="-36353.973017123986" sparseCutoff="1.0000000000000000"/>
      <sparseX i="650" alpha="-284132.47072599991" sparseCutoff="1.0000000000000000"/>
      <sparseX i="651" alpha="370988.63483079115" sparseCutoff="1.0000000000000000"/>
      <sparseX i="652" alpha="-281098.00525882514" sparseCutoff="1.0000000000000000"/>
      <sparseX i="653" alpha="112320.72387739563" sparseCutoff="1.0000000000000000"/>
      <sparseX i="654" alpha="130881.48853402268" sparseCutoff="1.0000000000000000"/>
      <sparseX i="655" alpha="-39984.380656566500" sparseCutoff="1.0000000000000000"/>
      <sparseX i="656" alpha="-145155.46063047185" sparseCutoff="1.0000000000000000"/>
      <sparseX i="657" alpha="-17331.079874284565" sparseCutoff="1.0000000000000000"/>
      <sparseX i="658" alpha="-54107.382669269587" sparseCutoff="1.0000000000000000"/>
      <sparseX i="659" alpha="-153407.16475057695" sparseCutoff="1.0000000000000000"/>
      <sparseX i="660" alpha="-80976.556417186701" sparseCutoff="1.0000000000000000"/>
      <sparseX i="661" alpha="54971.191885931228" sparseCutoff="1.0000000000000000"/>
      <sparseX i="662" alpha="14918.943061855016" sparseCutoff="1.0000000000000000"/>
      <sparseX i="663" alpha="-18756.124523622711" sparseCutoff="1.0000000000000000"/>
      <sparseX i="664" alpha="140058.67223697761" sparseCutoff="1.0000000000000000"/>
      <sparseX i="665" alpha="114.59755780279741" sparseCutoff="1.0000000000000000"/>
      <sparseX i="666" alpha="50121.768203815293" sparseCutoff="1.0000000000000000"/>
      <sparseX i="667" alpha="-58571.800300187795" sparseCutoff="1.0000000000000000"/>
      <sparseX i="668" alpha="-33741.807826514319" sparseCutoff="1.0000000000000000"/>
      <sparseX i="669" alpha="-70594.938660254062" sparseCutoff="1.0000000000000000"/>
      <sparseX i="670" alpha="62536.728667920906" sparseCutoff="1.0000000000000000"/>
      <sparseX i="671" alpha="65234.443155451678" sparseCutoff="1.0000000000000000"/>
      <sparseX i="672" alpha="-28655.398887961372" sparseCutoff="1.0000000000000000"/>
      <sparseX i="673" alpha="585.03108902841029" sparseCutoff="1.0000000000000000"/>
      <sparseX i="674" alpha="-37113.889552309724" sparseCutoff="1.0000000000000000"/>
      <sparseX i="675" alpha="-53848.510537343915" sparseCutoff="1.0000000000000000"/>
      <sparseX i="676" alpha="-39665.016077601234" sparseCutoff="1.0000000000000000"/>
      <sparseX i="677" alpha="2615.8913158753639" sparseCutoff="1.0000000000000000"/>
      <sparseX i="678" alpha="80817.661631666168" sparseCutoff="1.0000000000000000"/>
      <sparseX i="679" alpha="-57674.295684539262" sparseCutoff="1.0000000000000000"/>
      <sparseX i="680" alpha="62284.494703819160" sparseCutoff="1.0000000000000000"/>
      <sparseX i="681" alpha="31090.760674541456" sparseCutoff="1.0000000000000000"/>
      <sparseX i="682" alpha="-210173.02291823595" sparseCutoff="1.0000000000000000"/>
      <sparseX i="683" alpha="96879.099006048549" sparseCutoff="1.0000000000000000"/>
      <sparseX i="684" alpha="247815.19081094235" sparseCutoff="1.0000000000000000"/>
      <sparseX i="685" alpha="123986.31941690494" sparseCutoff="1.0000000000000000"/>
      <sparseX i="686" alpha="-626786.73042894155" sparseCutoff="1.0000000000000000"/>
      <sparseX i="687" alpha="-14149.057846538388" sparseCutoff="1.0000000000000000"/>
      <sparseX i="688" alpha="-68767.275181381032" sparseCutoff="1.0000000000000000"/>
      <sparseX i="689" alpha="-251637.47901961827" sparseCutoff="1.0000000000000000"/>
      <sparseX i="690" alpha="28544.555443194829" sparseCutoff="1.0000000000000000"/>
      <sparseX i="691" alpha="97551.387141183368" sparseCutoff="1.0000000000000000"/>
      <sparseX i="692" alpha="71102.588686929797" sparseCutoff="1.0000000000000000"/>
      <sparseX i="693" alpha="-286086.20260636375" sparseCutoff="1.0000000000000000"/>
      <sparseX i="694" alpha="-40757.854430689789" sparseCutoff="1.0000000000000000"/>
      <sparseX i="695" alpha="-40908.854023156491" sparseCutoff="1.0000000000000000"/>
      <sparseX i="696" alpha="-137823.95087840891" sparseCutoff="1.0000000000000000"/>
      <sparseX i="697" alpha="426342.25789817504" sparseCutoff="1.0000000000000000"/>
      <sparseX i="698" alpha="141776.28774015274" sparseCutoff="1.0000000000000000"/>
      <sparseX i="699" alpha="77306.844028736814" sparseCutoff="1.0000000000000000"/>
      <sparseX i="700" alpha="123107.50988654839" sparseCutoff="1.0000000000000000"/>
      <sparseX i="701" alpha="-62038.453633698613" sparseCutoff="1.0000000000000000"/>
      <sparseX i="702" alpha="-111100.95982809996" sparseCutoff="1.0000000000000000"/>
      <sparseX i="703" alpha="611887.81409256335" sparseCutoff="1.0000000000000000"/>
      <sparseX i="704" alpha="121106.22257694794" sparseCutoff="1.0000000000000000"/>
      <sparseX i="705" alpha="-472576.14551684266" sparseCutoff="1.0000000000000000"/>
      <sparseX i="706" alpha="-232610.05937562938" sparseCutoff="1.0000000000000000"/>
      <sparseX i="707" alpha="111137.04645772818" sparseCutoff="1.0000000000000000"/>
      <sparseX i="708" alpha="-53464.972811968502" sparseCutoff="1.0000000000000000"/>
      <sparseX i="709" alpha="283213.30597256409" sparseCutoff="1.0000000000000000"/>
      <sparseX i="710" alpha="387552.01925487566" sparseCutoff="1.0000000000000000"/>
      <sparseX i="711" alpha="139217.31408127196" sparseCutoff="1.0000000000000000"/>
      <sparseX i="712" alpha="43846.439035917865" sparseCutoff="1.0000000000000000"/>
      <sparseX i="713" alpha="-505135.78401086433" sparseCutoff="1.0000000000000000"/>
      <sparseX i="714" alpha="-290727.70844671305" sparseCutoff="1.0000000000000000"/>
      <sparseX i="715" alpha="-263167.73734020418" sparseCutoff="1.0000000000000000"/>
      <sparseX i="716" alpha="424874.62039364490" sparseCutoff="1.0000000000000000"/>
      <sparseX i="717" alpha="69311.342440491790" sparseCutoff="1.0000000000000000"/>
      <sparseX i="718" alpha="-337486.53743687645" sparseCutoff="1.0000000000000000"/>
      <sparseX i="719" alpha="60215.711638542671" sparseCutoff="1.0000000000000000"/>
      <sparseX i="720" alpha="416645.94659274392" sparseCutoff="1.0000000000000000"/>
      <sparseX i="721" alpha="-158792.93319073043" sparseCutoff="1.0000000000000000"/>
      <sparseX i="722" alpha="-185431.81170713186" sparseCutoff="1.0000000000000000"/>
      <sparseX i="723" alpha="-254350.06396290936" sparseCutoff="1.0000000000000000"/>
      <sparseX i="724" alpha="81906.397827914887" sparseCutoff="1.0000000000000000"/>
      <sparseX i="725" alpha="74552.696817352058" sparseCutoff="1.0000000000000000"/>
      <sparseX i="726" alpha="-108424.98649300866" sparseCutoff="1.0000000000000000"/>
      <sparseX i="727" alpha="77271.982989656448" sparseCutoff="1.0000000000000000"/>
      <sparseX i="728" alpha="123739.55927074171" sparseCutoff="1.0000000000000000"/>
      <sparseX i="729" alpha="41552.213837874748" sparseCutoff="1.0000000000000000"/>
      <sparseX i="730" alpha="5763.4535120169430" sparseCutoff="1.0000000000000000"/>
      <sparseX i="731" alpha="-34797.833701374140" sparseCutoff="1.0000000000000000"/>
      <sparseX i="732" alpha="-25569.033211227554" sparseCutoff="1.0000000000000000"/>
      <sparseX i="733" alpha="-69127.926045591099" sparseCutoff="1.0000000000000000"/>
      <sparseX i="734" alpha="-28915.488669159258" sparseCutoff="1.0000000000000000"/>
      <sparseX i="735" alpha="106095.14226130622" sparseCutoff="1.0000000000000000"/>
      <sparseX i="736" alpha="8161.1816943952745" sparseCutoff="1.0000000000000000"/>
      <sparseX i="737" alpha="-31970.106456744179" sparseCutoff="1.0000000000000000"/>
      <sparseX i="738" alpha="-22747.252983853214" sparseCutoff="1.0000000000000000"/>
      <sparseX i="739" alpha="-51390.153258885141" sparseCutoff="1.0000000000000000"/>
      <sparseX i="740" alpha="47151.963761527433" sparseCutoff="1.0000000000000000"/>
      <sparseX i="741" alpha="20048.790145990275" sparseCutoff="1.0000000000000000"/>
      <sparseX i="742" alpha="1320.3029016088328" sparseCutoff="1.0000000000000000"/>
      <sparseX i="743" alpha="13658.250523974073" sparseCutoff="1.0000000000000000"/>
      <sparseX i="744" alpha="-40446.791039016403" sparseCutoff="1.0000000000000000"/>
      <sparseX i="745" alpha="-50555.971275850519" sparseCutoff="1.0000000000000000"/>
      <sparseX i="746" alpha="-67465.674461443981" sparseCutoff="1.0000000000000000"/>
      <sparseX i="747" alpha="92942.353556820992" sparseCutoff="1.0000000000000000"/>
      <sparseX i="748" alpha="22355.492751509784" sparseCutoff="1.0000000000000000"/>
      <sparseX i="749" alpha="4981.2962146179852" sparseCutoff="1.0000000000000000"/>
      <sparseX i="750" alpha="-20859.147557397991" sparseCutoff="1.0000000000000000"/>
      <sparseX i="751" alpha="5418.5015210250140" sparseCutoff="1.0000000000000000"/>
      <sparseX i="752" alpha="3005.7381680356648" sparseCutoff="1.0000000000000000"/>
      <sparseX i="753" alpha="-9485.3661242589242" sparseCutoff="1.0000000000000000"/>
      <sparseX i="754" alpha="411091.50845461088" sparseCutoff="1.0000000000000000"/>
      <sparseX i="755" alpha="71155.453241671901" sparseCutoff="1.0000000000000000"/>
      <sparseX i="756" alpha="159762.72277363876" sparseCutoff="1.0000000000000000"/>
      <sparseX i="757" alpha="-341613.58359771047" sparseCutoff="1.0000000000000000"/>
      <sparseX i="758" alpha="60289.081763556642" sparseCutoff="1.0000000000000000"/>
      <sparseX i="759" alpha="31593.852091180088" sparseCutoff="1.0000000000000000"/>
      <sparseX i="760" alpha="-99220.203038696127" sparseCutoff="1.0000000000000000"/>
      <sparseX i="761" alpha="60217.844628076302" sparseCutoff="1.0000000000000000"/>
      <sparseX i="762" alpha="167641.49544717450" sparseCutoff="1.0000000000000000"/>
      <sparseX i="763" alpha="1953.3769452684876" sparseCutoff="1.0000000000000000"/>
      <sparseX i="764" alpha="380690.65741607046" sparseCutoff="1.0000000000000000"/>
      <sparseX i="765" alpha="92568.104479281086" sparseCutoff="1.0000000000000000"/>
      <sparseX i="766" alpha="31673.778877007506" sparseCutoff="1.0000000000000000"/>
      <sparseX i="767" alpha="15591.067222526508" sparseCutoff="1.0000000000000000"/>
      <sparseX i="768" alpha="310803.18681707856" sparseCutoff="1.0000000000000000"/>
      <sparseX i="769" alpha="-113554.12325528798" sparseCutoff="1.0000000000000000"/>
      <sparseX i="770" alpha="-58648.405303707157" sparseCutoff="1.0000000000000000"/>
      <sparseX i="771" alpha="-87934.395044428311" sparseCutoff="1.0000000000000000"/>
      <sparseX i="772" alpha="27933.869265826786" sparseCutoff="1.0000000000000000"/>
      <sparseX i="773" alpha="-61186.984536459386" sparseCutoff="1.0000000000000000"/>
      <sparseX i="774" alpha="78376.267922095838" sparseCutoff="1.0000000000000000"/>
      <sparseX i="775" alpha="59161.481367791806" sparseCutoff="1.0000000000000000"/>
      <sparseX i="776" alpha="-60008.263803164460" sparseCutoff="1.0000000000000000"/>
      <sparseX i="777" alpha="-185.20190674142188" sparseCutoff="1.0000000000000000"/>
      <sparseX i="778" alpha="418575.99370109825" sparseCutoff="1.0000000000000000"/>
      <sparseX i="779" alpha="74056.433809395690" sparseCutoff="1.0000000000000000"/>
      <sparseX i="780" alpha="-93087.982537571690" sparseCutoff="1.0000000000000000"/>
      <sparseX i="781" alpha="28681.187315212570" sparseCutoff="1.0000000000000000"/>
      <sparseX i="782" alpha="-429911.14871373138" sparseCutoff="1.0000000000000000"/>
      <sparseX i="783" alpha="-161415.03447510253" sparseCutoff="1.0000000000000000"/>
      <sparseX i="784" alpha="88715.750958633726" sparseCutoff="1.0000000000000000"/>
      <sparseX i="785" alpha="-108472.11969010776" sparseCutoff="1.0000000000000000"/>
      <sparseX i="786" alpha="40894.690424257744" sparseCutoff="1.0000000000000000"/>
      <sparseX i="787" alpha="-16225.788541041558" sparseCutoff="1.0000000000000000"/>
      <sparseX i="788" alpha="-21095.274513517903" sparseCutoff="1.0000000000000000"/>
      <sparseX i="789" alpha="280580.93311808398" sparseCutoff="1.0000000000000000"/>
      <sparseX i="790" alpha="429703.97454815678" sparseCutoff="1.0000000000000000"/>
      <sparseX i="791" alpha="77413.551513813130" sparseCutoff="1.0000000000000000"/>
      <sparseX i="792" alpha="190317.05267200468" sparseCutoff="1.0000000000000000"/>
      <sparseX i="793" alpha="126801.36016963444" sparseCutoff="1.0000000000000000"/>
      <sparseX i="794" alpha="282430.24330011877" sparseCutoff="1.0000000000000000"/>
      <sparseX i="795" alpha="-187041.16782996076" sparseCutoff="1.0000000000000000"/>
      <sparseX i="796" alpha="-159386.70609344848" sparseCutoff="1.0000000000000000"/>
      <sparseX i="797" alpha="-6753.5213253512266" sparseCutoff="1.0000000000000000"/>
      <sparseX i="798" alpha="39910.974257499540" sparseCutoff="1.0000000000000000"/>
      <sparseX i="799" alpha="158100.29041625085" sparseCutoff="1.0000000000000000"/>
      <sparseX i="800" alpha="139564.07960512370" sparseCutoff="1.0000000000000000"/>
      <sparseX i="801" alpha="-76133.370088770374" sparseCutoff="1.0000000000000000"/>
      <sparseX i="802" alpha="-128084.28123216359" sparseCutoff="1.0000000000000000"/>
      <sparseX i="803" alpha="248636.10696319418" sparseCutoff="1.0000000000000000"/>
      <sparseX i="804" alpha="-82244.920605381427" sparseCutoff="1.0000000000000000"/>
      <sparseX i="805" alpha="-580041.04217175266" sparseCutoff="1.0000000000000000"/>
      <sparseX i="806" alpha="-72309.459640895788" sparseCutoff="1.0000000000000000"/>
      <sparseX i="807" alpha="194587.20042400327" sparseCutoff="1.0000000000000000"/>
      <sparseX i="808" alpha="243763.40786530706" sparseCutoff="1.0000000000000000"/>
      <sparseX i="809" alpha="15176.910025877743" sparseCutoff="1.0000000000000000"/>
      <sparseX i="810" alpha="162811.98744751062" sparseCutoff="1.0000000000000000"/>
      <sparseX i="811" alpha="-73856.521192645130" sparseCutoff="1.0000000000000000"/>
      <sparseX i="812" alpha="5900.0338397833902" sparseCutoff="1.0000000000000000"/>
      <sparseX i="813" alpha="-553428.97909319296" sparseCutoff="1.0000000000000000"/>
      <sparseX i="814" alpha="-46454.673934691447" sparseCutoff="1.0000000000000000"/>
      <sparseX i="815" alpha="222198.22439625888" sparseCutoff="1.0000000000000000"/>
      <sparseX i="816" alpha="-133363.98792064545" sparseCutoff="1.0000000000000000"/>
      <sparseX i="817" alpha="11351.207791898534" sparseCutoff="1.0000000000000000"/>
      <sparseX i="818" alpha="-1605.7060225638058" sparseCutoff="1.0000000000000000"/>
      <sparseX i="819" alpha="235698.45918150380" sparseCutoff="1.0000000000000000"/>
      <sparseX i="820" alpha="-85579.434172450303" sparseCutoff="1.0000000000000000"/>
      <sparseX i="821" alpha="-29996.568265706810" sparseCutoff="1.0000000000000000"/>
      <sparseX i="822" alpha="149339.43905086126" sparseCutoff="1.0000000000000000"/>
      <sparseX i="823" alpha="-35105.043898199219" sparseCutoff="1.0000000000000000"/>
      <sparseX i="824" alpha="185799.13842871765" sparseCutoff="1.0000000000000000"/>
      <sparseX i="825" alpha="11578.009922726435" sparseCutoff="1.0000000000000000"/>
      <sparseX i="826" alpha="-19253.111745830305" sparseCutoff="1.0000000000000000"/>
      <sparseX i="827" alpha="121278.60121365963" sparseCutoff="1.0000000000000000"/>
      <sparseX i="828" alpha="30938.897161383469" sparseCutoff="1.0000000000000000"/>
      <sparseX i="829" alpha="172298.97369716840" sparseCutoff="1.0000000000000000"/>
      <sparseX i="830" alpha="-181994.01942330896" sparseCutoff="1.0000000000000000"/>
      <sparseX i="831" alpha="-141540.08351002357" sparseCutoff="1.0000000000000000"/>
      <sparseX i="832" alpha="95146.490095425310" sparseCutoff="1.0000000000000000"/>
      <sparseX i="833" alpha="7080.6332549499284" sparseCutoff="1.0000000000000000"/>
      <sparseX i="834" alpha="1457.3747522862134" sparseCutoff="1.0000000000000000"/>
      <sparseX i="835" alpha="154660.24328387502" sparseCutoff="1.0000000000000000"/>
      <sparseX i="836" alpha="50574.867278652338" sparseCutoff="1.0000000000000000"/>
      <sparseX i="837" alpha="18851.227500614274" sparseCutoff="1.0000000000000000"/>
      <sparseX i="838" alpha="-6486.6393423377976" sparseCutoff="1.0000000000000000"/>
      <sparseX i="839" alpha="52848.626167257200" sparseCutoff="1.0000000000000000"/>
      <sparseX i="840" alpha="-57365.678817075641" sparseCutoff="1.0000000000000000"/>
      <sparseX i="841" alpha="1674.2467983134732" sparseCutoff="1.0000000000000000"/>
      <sparseX i="842" alpha="-16933.958272568252" sparseCutoff="1.0000000000000000"/>
      <sparseX i="843" alpha="55727.457684624576" sparseCutoff="1.0000000000000000"/>
      <sparseX i="844" alpha="-88439.593300272783" sparseCutoff="1.0000000000000000"/>
      <sparseX i="845" alpha="-13371.076821057321" sparseCutoff="1.0000000000000000"/>
      <sparseX i="846" alpha="-15663.990302103713" sparseCutoff="1.0000000000000000"/>
      <sparseX i="847" alpha="26233.952333898491" sparseCutoff="1.0000000000000000"/>
      <sparseX i="848" alpha="-39097.698960269743" sparseCutoff="1.0000000000000000"/>
      <sparseX i="849" alpha="-18428.057577279884" sparseCutoff="1.0000000000000000"/>
      <sparseX i="850" alpha="296285.06825764972" sparseCutoff="1.0000000000000000"/>
      <sparseX i="851" alpha="12507.757268207244" sparseCutoff="1.0000000000000000"/>
      <sparseX i="852" alpha="14070.406855994119" sparseCutoff="1.0000000000000000"/>
      <sparseX i="853" alpha="53237.873303070650" sparseCutoff="1.0000000000000000"/>
      <sparseX i="854" alpha="-129846.93127868389" sparseCutoff="1.0000000000000000"/>
      <sparseX i="855" alpha="57153.381558952351" sparseCutoff="1.0000000000000000"/>
      <sparseX i="856" alpha="-162110.07842009314" sparseCutoff="1.0000000000000000"/>
      <sparseX i="857" alpha="-290576.28320235165" sparseCutoff="1.0000000000000000"/>
      <sparseX i="858" alpha="41043.004530547798" sparseCutoff="1.0000000000000000"/>
      <sparseX i="859" alpha="20703.240645082431" sparseCutoff="1.0000000000000000"/>
      <sparseX i="860" alpha="17806.753672234925" sparseCutoff="1.0000000000000000"/>
      <sparseX i="861" alpha="-24585.613438293887" sparseCutoff="1.0000000000000000"/>
      <sparseX i="862" alpha="47540.759625707571" sparseCutoff="1.0000000000000000"/>
      <sparseX i="863" alpha="-19026.338287665902" sparseCutoff="1.0000000000000000"/>
      <sparseX i="864" alpha="33455.742569235364" sparseCutoff="1.0000000000000000"/>
      <sparseX i="865" alpha="-198249.85789097977" sparseCutoff="1.0000000000000000"/>
      <sparseX i="866" alpha="193889.34226929880" sparseCutoff="1.0000000000000000"/>
      <sparseX i="867" alpha="-139303.97056559622" sparseCutoff="1.0000000000000000"/>
      <sparseX i="868" alpha="-17455.663993439190" sparseCutoff="1.0000000000000000"/>
      <sparseX i="869" alpha="104711.89980622879" sparseCutoff="1.0000000000000000"/>
      <sparseX i="870" alpha="-42038.178183905460" sparseCutoff="1.0000000000000000"/>
      <sparseX i="871" alpha="43509.311920795968" sparseCutoff="1.0000000000000000"/>
      <sparseX i="872" alpha="-121765.74160852171" sparseCutoff="1.0000000000000000"/>
      <sparseX i="873" alpha="51103.057606892653" sparseCutoff="1.0000000000000000"/>
      <sparseX i="874" alpha="101270.97081576379" sparseCutoff="1.0000000000000000"/>
      <sparseX i="875" alpha="28179.661801522587" sparseCutoff="1.0000000000000000"/>
      <sparseX i="876" alpha="-52974.516235343246" sparseCutoff="1.0000000000000000"/>
      <sparseX i="877" alpha="131032.27803773366" sparseCutoff="1.0000000000000000"/>
      <sparseX i="878" alpha="-137390.43758810099" sparseCutoff="1.0000000000000000"/>
      <sparseX i="879" alpha="-15411.941740603039" sparseCutoff="1.0000000000000000"/>
      <sparseX i="880" alpha="57195.106363104613" sparseCutoff="1.0000000000000000"/>
      <sparseX i="881" alpha="-15939.069369638739" sparseCutoff="1.0000000000000000"/>
      <sparseX i="882" alpha="-25474.567807625415" sparseCutoff="1.0000000000000000"/>
      <sparseX i="883" alpha="20332.822633873206" sparseCutoff="1.0000000000000000"/>
      <sparseX i="884" alpha="101272.29610506097" sparseCutoff="1.0000000000000000"/>
      <sparseX i="885" alpha="38016.015305703397" sparseCutoff="1.0000000000000000"/>
      <sparseX i="886" alpha="-43214.930440766067" sparseCutoff="1.0000000000000000"/>
      <sparseX i="887" alpha="-39098.525501864482" sparseCutoff="1.0000000000000000"/>
      <sparseX i="888" alpha="136985.04172276374" sparseCutoff="1.0000000000000000"/>
      <sparseX i="889" alpha="-17409.748767319867" sparseCutoff="1.0000000000000000"/>
      <sparseX i="890" alpha="26482.503362726817" sparseCutoff="1.0000000000000000"/>
      <sparseX i="891" alpha="11903.067799150767" sparseCutoff="1.0000000000000000"/>
      <sparseX i="892" alpha="-178378.91074709359" sparseCutoff="1.0000000000000000"/>
      <sparseX i="893" alpha="68723.538267717508" sparseCutoff="1.0000000000000000"/>
      <sparseX i="894" alpha="148526.28699963228" sparseCutoff="1.0000000000000000"/>
      <sparseX i="895" alpha="74737.658274588757" sparseCutoff="1.0000000000000000"/>
      <sparseX i="896" alpha="-456720.85817375605" sparseCutoff="1.0000000000000000"/>
      <sparseX i="897" alpha="94110.674354218820" sparseCutoff="1.0000000000000000"/>
      <sparseX i="898" alpha="-231036.92685293272" sparseCutoff="1.0000000000000000"/>
      <sparseX i="899" alpha="-21993.326761508059" sparseCutoff="1.0000000000000000"/>
      <sparseX i="900" alpha="92018.334440714243" sparseCutoff="1.0000000000000000"/>
      <sparseX i="901" alpha="56157.973349220112" sparseCutoff="1.0000000000000000"/>
      <sparseX i="902" alpha="68349.791593537710" sparseCutoff="1.0000000000000000"/>
      <sparseX i="903" alpha="171868.34159177000" sparseCutoff="1.0000000000000000"/>
      <sparseX i="904" alpha="-266990.60646609520" sparseCutoff="1.0000000000000000"/>
      <sparseX i="905" alpha="-331517.59350155707" sparseCutoff="1.0000000000000000"/>
      <sparseX i="906" alpha="-105769.86059383734" sparseCutoff="1.0000000000000000"/>
      <sparseX i="907" alpha="55960.537102319504" sparseCutoff="1.0000000000000000"/>
      <sparseX i="908" alpha="329158.21022459242" sparseCutoff="1.0000000000000000"/>
      <sparseX i="909" alpha="272410.50749775657" sparseCutoff="1.0000000000000000"/>
      <sparseX i="910" alpha="315186.85320013255" sparseCutoff="1.0000000000000000"/>
      <sparseX i="911" alpha="-79137.334135217374" sparseCutoff="1.0000000000000000"/>
      <sparseX i="912" alpha="-289230.99830892874" sparseCutoff="1.0000000000000000"/>
      <sparseX i="913" alpha="-38824.450885995626" sparseCutoff="1.0000000000000000"/>
      <sparseX i="914" alpha="8207.1454267014415" sparseCutoff="1.0000000000000000"/>
      <sparseX i="915" alpha="19327.145764105393" sparseCutoff="1.0000000000000000"/>
      <sparseX i="916" alpha="-13982.191221761896" sparseCutoff="1.0000000000000000"/>
      <sparseX i="917" alpha="-99118.771616380443" sparseCutoff="1.0000000000000000"/>
      <sparseX i="918" alpha="12292.592671965871" sparseCutoff="1.0000000000000000"/>
      <sparseX i="919" alpha="-13189.869685941456" sparseCutoff="1.0000000000000000"/>
      <sparseX i="920" alpha="-69679.082748833636" sparseCutoff="1.0000000000000000"/>
      <sparseX i="921" alpha="143846.29809008015" sparseCutoff="1.0000000000000000"/>
      <sparseX i="922" alpha="-58107.641257655647" sparseCutoff="1.0000000000000000"/>
      <sparseX i="923" alpha="-104797.43917205959" sparseCutoff="1.0000000000000000"/>
      <sparseX i="924" alpha="-116663.62819242076" sparseCutoff="1.0000000000000000"/>
      <sparseX i="925" alpha="-88395.992653461130" sparseCutoff="1.0000000000000000"/>
      <sparseX i="926" alpha="-28814.910335332312" sparseCutoff="1.0000000000000000"/>
      <sparseX i="927" alpha="51211.636626389693" sparseCutoff="1.0000000000000000"/>
      <sparseX i="928" alpha="133019.32602023022" sparseCutoff="1.0000000000000000"/>
      <sparseX i="929" alpha="32887.975962522833" sparseCutoff="1.0000000000000000"/>
      <sparseX i="930" alpha="-3571.0987100080024" sparseCutoff="1.0000000000000000"/>
      <sparseX i="931" alpha="-12736.791052438828" sparseCutoff="1.0000000000000000"/>
      <sparseX i="932" alpha="-75378.865042761216" sparseCutoff="1.0000000000000000"/>
      <sparseX i="933" alpha="108087.25414850049" sparseCutoff="1.0000000000000000"/>
      <sparseX i="934" alpha="-42444.487037677733" sparseCutoff="1.0000000000000000"/>
      <sparseX i="935" alpha="-16052.425906451690" sparseCutoff="1.0000000000000000"/>
      <sparseX i="936" alpha="-101721.55731279835" sparseCutoff="1.0000000000000000"/>
      <sparseX i="937" alpha="190829.89382692840" sparseCutoff="1.0000000000000000"/>
      <sparseX i="938" alpha="-448102.10918758425" sparseCutoff="1.0000000000000000"/>
      <sparseX i="939" alpha="156951.96009599691" sparseCutoff="1.0000000000000000"/>
      <sparseX i="940" alpha="-94377.041597818577" sparseCutoff="1.0000000000000000"/>
      <sparseX i="941" alpha="45082.946701953711" sparseCutoff="1.0000000000000000"/>
      <sparseX i="942" alpha="358558.13879284827" sparseCutoff="1.0000000000000000"/>
      <sparseX i="943" alpha="19474.899302386384" sparseCutoff="1.0000000000000000"/>
      <sparseX i="944" alpha="-110733.42559675414" sparseCutoff="1.0000000000000000"/>
      <sparseX i="945" alpha="-74462.004970981056" sparseCutoff="1.0000000000000000"/>
      <sparseX i="946" alpha="-340843.17691665911" sparseCutoff="1.0000000000000000"/>
      <sparseX i="947" alpha="-31415.942490884547" sparseCutoff="1.0000000000000000"/>
      <sparseX i="948" alpha="-2771.6379778085397" sparseCutoff="1.0000000000000000"/>
      <sparseX i="949" alpha="-127722.76465998638" sparseCutoff="1.0000000000000000"/>
      <sparseX i="950" alpha="-23262.036054398508" sparseCutoff="1.0000000000000000"/>
      <sparseX i="951" alpha="120151.49974766288" sparseCutoff="1.0000000000000000"/>
      <sparseX i="952" alpha="-177250.79090117846" sparseCutoff="1.0000000000000000"/>
      <sparseX i="953" alpha="293175.70568742731" sparseCutoff="1.0000000000000000"/>
      <sparseX i="954" alpha="-60485.787164999798" sparseCutoff="1.0000000000000000"/>
      <sparseX i="955" alpha="-241551.92132656131" sparseCutoff="1.0000000000000000"/>
      <sparseX i="956" alpha="-70205.662505273955" sparseCutoff="1.0000000000000000"/>
      <sparseX i="957" alpha="-205419.49187397442" sparseCutoff="1.0000000000000000"/>
      <sparseX i="958" alpha="66938.669602489666" sparseCutoff="1.0000000000000000"/>
      <sparseX i="959" alpha="-274686.00143919972" sparseCutoff="1.0000000000000000"/>
      <sparseX i="960" alpha="-8429.7295771362078" sparseCutoff="1.0000000000000000"/>
      <sparseX i="961" alpha="-37203.241938798688" sparseCutoff="1.0000000000000000"/>
      <sparseX i="962" alpha="-46322.298092430778" sparseCutoff="1.0000000000000000"/>
      <sparseX i="963" alpha="297826.73215982277" sparseCutoff="1.0000000000000000"/>
      <sparseX i="964" alpha="139094.71963862123" sparseCutoff="1.0000000000000000"/>
      <sparseX i="965" alpha="-297354.02063731255" sparseCutoff="1.0000000000000000"/>
      <sparseX i="966" alpha="272543.31179548649" sparseCutoff="1.0000000000000000"/>
      <sparseX i="967" alpha="262203.29779302981" sparseCutoff="1.0000000000000000"/>
      <sparseX i="968" alpha="36763.976234205096" sparseCutoff="1.0000000000000000"/>
      <sparseX i="969" alpha="-139858.58926008258" sparseCutoff="1.0000000000000000"/>
      <sparseX i="970" alpha="34065.548683809982" sparseCutoff="1.0000000000000000"/>
      <sparseX i="971" alpha="-2418.1355133341635" sparseCutoff="1.0000000000000000"/>
      <sparseX i="972" alpha="-274198.31468251866" sparseCutoff="1.0000000000000000"/>
      <sparseX i="973" alpha="215825.79999767142" sparseCutoff="1.0000000000000000"/>
      <sparseX i="974" alpha="-348742.05052329070" sparseCutoff="1.0000000000000000"/>
      <sparseX i="975" alpha="-129377.20699523267" sparseCutoff="1.0000000000000000"/>
      <sparseX i="976" alpha="-185490.46445279708" sparseCutoff="1.0000000000000000"/>
      <sparseX i="977" alpha="-173423.67019401438" sparseCutoff="1.0000000000000000"/>
      <sparseX i="978" alpha="-313968.55682874256" sparseCutoff="1.0000000000000000"/>
      <sparseX i="979" alpha="51719.922977611757" sparseCutoff="1.0000000000000000"/>
      <sparseX i="980" alpha="8474.1521942190248" sparseCutoff="1.0000000000000000"/>
      <sparseX i="981" alpha="-11363.102587462785" sparseCutoff="1.0000000000000000"/>
      <sparseX i="982" alpha="-4270.9759119480968" sparseCutoff="1.0000000000000000"/>
      <sparseX i="983" alpha="32373.723929492531" sparseCutoff="1.0000000000000000"/>
      <sparseX i="984" alpha="23385.066381799210" sparseCutoff="1.0000000000000000"/>
      <sparseX i="985" alpha="48846.392247608797" sparseCutoff="1.0000000000000000"/>
      <sparseX i="986" alpha="-49661.098858960235" sparseCutoff="1.0000000000000000"/>
      <sparseX i="987" alpha="150391.06997797446" sparseCutoff="1.0000000000000000"/>
      <sparseX i="988" alpha="4357.6399701206710" sparseCutoff="1.0000000000000000"/>
      <sparseX i="989" alpha="-35211.642133177207" sparseCutoff="1.0000000000000000"/>
      <sparseX i="990" alpha="-72689.042734991657" sparseCutoff="1.0000000000000000"/>
      <sparseX i="991" alpha="-48015.452628211766" sparseCutoff="1.0000000000000000"/>
      <sparseX i="992" alpha="-16176.472894450899" sparseCutoff="1.0000000000000000"/>
      <sparseX i="993" alpha="70042.886999193652" sparseCutoff="1.0000000000000000"/>
      <sparseX i="994" alpha="199667.61667241997" sparseCutoff="1.0000000000000000"/>
      <sparseX i="995" alpha="-84068.623762351868" sparseCutoff="1.0000000000000000"/>
      <sparseX i="996" alpha="-44007.629508539627" sparseCutoff="1.0000000000000000"/>
      <sparseX i="997" alpha="-16254.702066609174" sparseCutoff="1.0000000000000000"/>
      <sparseX i="998" alpha="-115952.71887196669" sparseCutoff="1.0000000000000000"/>
      <sparseX i="999" alpha="158795.01982725319" sparseCutoff="1.0000000000000000"/>
      <sparseX i="1000" alpha="-3782.9627161208050" sparseCutoff="1.0000000000000000"/>
