<GAP_2020_10_15_180_13_48_39_974>
<Potential label="GAP_2020_10_15_180_13_48_39_974" init_args="Sum init_args_pot1={IP Glue} init_args_pot2={IP GAP label=GAP_2020_10_15_180_13_48_39_974}"/>
<quip>
  <Glue_params n_types="1">
  <per_type_data atomic_num="14" type="1">
    <!-- Si -->
    <density num_points="14" density_y1="-0.4144" density_yn="0.0">
      <point a="0.821917808219178" rho="0.258391"/>
      <point a="1.027397260273973" rho="0.173248"/>
      <point a="1.232876712328767" rho="0.097399"/>
      <point a="1.438356164383562" rho="0.050254"/>
      <point a="1.643835616438357" rho="0.025066"/>
      <point a="1.849315068493151" rho="0.012652"/>
      <point a="2.054794520547945" rho="0.006107"/>
      <point a="2.260273972602740" rho="0.003182"/>
      <point a="2.465753424657535" rho="0.001524"/>
      <point a="2.671232876712329" rho="0.000913"/>
      <point a="2.876712328767124" rho="0.000383"/>
      <point a="3.082191780821919" rho="0.000295"/>
      <point a="3.287671232876713" rho="0.000080"/>
      <point a="3.493150684931507" rho="0.000000"/>
    </density>
    <potential_density num_points="12">
      <point rho="0.0000000000000" E="0.0"/>
      <point rho="0.0572259106295" E="0.0"/>
      <point rho="0.0633096739107" E="0.0"/>
      <point rho="0.0689221129285" E="0.0"/>
      <point rho="0.0741074612625" E="0.0"/>
      <point rho="0.0789857895134" E="0.0"/>
      <point rho="0.0835293161324" E="0.0"/>
      <point rho="0.1529969346048" E="0.0"/>
      <point rho="0.2168736082455" E="0.0"/>
      <point rho="0.2697341539351" E="0.0"/>
      <point rho="0.3158337343334" E="0.0"/>
      <point rho="0.3570433660014" E="0.0"/>
    </potential_density>
  </per_type_data>
  <per_pair_data type1="1" type2="1">
    <!-- Si -->
    <potential_pair num_points="26" y1="1.0e50" yn="0.0">
      <point r=" 1.2" E="13.4896897268455"/>
      <point r="1.33" E="6.35102226195354"/>
      <point r="1.46" E="2.85261290997884"/>
      <point r="1.59" E="1.17069139864555"/>
      <point r="1.60" E="1.074447150725763"/>
      <point r="1.62" E="0.906655292950206"/>
      <point r="1.64" E="0.767927847060999"/>
      <point r="1.66" E="0.653627486419334"/>
      <point r="1.68" E="0.559116884386403"/>
      <point r="1.70" E="0.479758714323394"/>
      <point r="1.72" E="0.410915649591501"/>
      <point r="1.74" E="0.348717279587451"/>
      <point r="1.76" E="0.292360857850120"/>
      <point r="1.78" E="0.241810553953918"/>
      <point r="1.80" E="0.197030537473260"/>
      <point r="1.82" E="0.157984977982556"/>
      <point r="1.84" E="0.124638045056218"/>
      <point r="1.85" E="0.11009036654669"/>
      <point r="1.86" E="0.096940368680633"/>
      <point r="1.88" E="0.074531168317590"/>
      <point r="1.90" E="0.056738252904286"/>
      <point r="1.98" E="0.0180148277318245"/>
      <point r="2.11" E="0.00107543820001212"/>
      <point r="2.24" E="5.0184779157859e-06"/>
      <point r="2.37" E="8.33906077334409e-13"/>
      <point r=" 2.5" E="0.00000000000000000"/>
    </potential_pair>
 </per_pair_data>
</Glue_params>
</quip>
<GAP_params label="GAP_2020_10_15_180_13_48_39_974" gap_version="1593096078">
  <GAP_data do_core="T">
    <e0 Z="1" value=".00000000000000000E+000"/>
    <e0 Z="2" value=".00000000000000000E+000"/>
    <e0 Z="3" value=".00000000000000000E+000"/>
    <e0 Z="4" value=".00000000000000000E+000"/>
    <e0 Z="5" value=".00000000000000000E+000"/>
    <e0 Z="6" value=".00000000000000000E+000"/>
    <e0 Z="7" value=".00000000000000000E+000"/>
    <e0 Z="8" value=".00000000000000000E+000"/>
    <e0 Z="9" value=".00000000000000000E+000"/>
    <e0 Z="10" value=".00000000000000000E+000"/>
    <e0 Z="11" value=".00000000000000000E+000"/>
    <e0 Z="12" value=".00000000000000000E+000"/>
    <e0 Z="13" value=".00000000000000000E+000"/>
    <e0 Z="14" value="-158.54496821000001"/>
    <e0 Z="15" value=".00000000000000000E+000"/>
    <e0 Z="16" value=".00000000000000000E+000"/>
    <e0 Z="17" value=".00000000000000000E+000"/>
    <e0 Z="18" value=".00000000000000000E+000"/>
    <e0 Z="19" value=".00000000000000000E+000"/>
    <e0 Z="20" value=".00000000000000000E+000"/>
    <e0 Z="21" value=".00000000000000000E+000"/>
    <e0 Z="22" value=".00000000000000000E+000"/>
    <e0 Z="23" value=".00000000000000000E+000"/>
    <e0 Z="24" value=".00000000000000000E+000"/>
    <e0 Z="25" value=".00000000000000000E+000"/>
    <e0 Z="26" value=".00000000000000000E+000"/>
    <e0 Z="27" value=".00000000000000000E+000"/>
    <e0 Z="28" value=".00000000000000000E+000"/>
    <e0 Z="29" value=".00000000000000000E+000"/>
    <e0 Z="30" value=".00000000000000000E+000"/>
    <e0 Z="31" value=".00000000000000000E+000"/>
    <e0 Z="32" value=".00000000000000000E+000"/>
    <e0 Z="33" value=".00000000000000000E+000"/>
    <e0 Z="34" value=".00000000000000000E+000"/>
    <e0 Z="35" value=".00000000000000000E+000"/>
    <e0 Z="36" value=".00000000000000000E+000"/>
    <e0 Z="37" value=".00000000000000000E+000"/>
    <e0 Z="38" value=".00000000000000000E+000"/>
    <e0 Z="39" value=".00000000000000000E+000"/>
    <e0 Z="40" value=".00000000000000000E+000"/>
    <e0 Z="41" value=".00000000000000000E+000"/>
    <e0 Z="42" value=".00000000000000000E+000"/>
    <e0 Z="43" value=".00000000000000000E+000"/>
    <e0 Z="44" value=".00000000000000000E+000"/>
    <e0 Z="45" value=".00000000000000000E+000"/>
    <e0 Z="46" value=".00000000000000000E+000"/>
    <e0 Z="47" value=".00000000000000000E+000"/>
    <e0 Z="48" value=".00000000000000000E+000"/>
    <e0 Z="49" value=".00000000000000000E+000"/>
    <e0 Z="50" value=".00000000000000000E+000"/>
    <e0 Z="51" value=".00000000000000000E+000"/>
    <e0 Z="52" value=".00000000000000000E+000"/>
    <e0 Z="53" value=".00000000000000000E+000"/>
    <e0 Z="54" value=".00000000000000000E+000"/>
    <e0 Z="55" value=".00000000000000000E+000"/>
    <e0 Z="56" value=".00000000000000000E+000"/>
    <e0 Z="57" value=".00000000000000000E+000"/>
    <e0 Z="58" value=".00000000000000000E+000"/>
    <e0 Z="59" value=".00000000000000000E+000"/>
    <e0 Z="60" value=".00000000000000000E+000"/>
    <e0 Z="61" value=".00000000000000000E+000"/>
    <e0 Z="62" value=".00000000000000000E+000"/>
    <e0 Z="63" value=".00000000000000000E+000"/>
    <e0 Z="64" value=".00000000000000000E+000"/>
    <e0 Z="65" value=".00000000000000000E+000"/>
    <e0 Z="66" value=".00000000000000000E+000"/>
    <e0 Z="67" value=".00000000000000000E+000"/>
    <e0 Z="68" value=".00000000000000000E+000"/>
    <e0 Z="69" value=".00000000000000000E+000"/>
    <e0 Z="70" value=".00000000000000000E+000"/>
    <e0 Z="71" value=".00000000000000000E+000"/>
    <e0 Z="72" value=".00000000000000000E+000"/>
    <e0 Z="73" value=".00000000000000000E+000"/>
    <e0 Z="74" value=".00000000000000000E+000"/>
    <e0 Z="75" value=".00000000000000000E+000"/>
    <e0 Z="76" value=".00000000000000000E+000"/>
    <e0 Z="77" value=".00000000000000000E+000"/>
    <e0 Z="78" value=".00000000000000000E+000"/>
    <e0 Z="79" value=".00000000000000000E+000"/>
    <e0 Z="80" value=".00000000000000000E+000"/>
    <e0 Z="81" value=".00000000000000000E+000"/>
    <e0 Z="82" value=".00000000000000000E+000"/>
    <e0 Z="83" value=".00000000000000000E+000"/>
    <e0 Z="84" value=".00000000000000000E+000"/>
    <e0 Z="85" value=".00000000000000000E+000"/>
    <e0 Z="86" value=".00000000000000000E+000"/>
    <e0 Z="87" value=".00000000000000000E+000"/>
    <e0 Z="88" value=".00000000000000000E+000"/>
    <e0 Z="89" value=".00000000000000000E+000"/>
    <e0 Z="90" value=".00000000000000000E+000"/>
    <e0 Z="91" value=".00000000000000000E+000"/>
    <e0 Z="92" value=".00000000000000000E+000"/>
    <e0 Z="93" value=".00000000000000000E+000"/>
    <e0 Z="94" value=".00000000000000000E+000"/>
    <e0 Z="95" value=".00000000000000000E+000"/>
    <e0 Z="96" value=".00000000000000000E+000"/>
    <e0 Z="97" value=".00000000000000000E+000"/>
    <e0 Z="98" value=".00000000000000000E+000"/>
    <e0 Z="99" value=".00000000000000000E+000"/>
    <e0 Z="100" value=".00000000000000000E+000"/>
    <e0 Z="101" value=".00000000000000000E+000"/>
    <e0 Z="102" value=".00000000000000000E+000"/>
    <e0 Z="103" value=".00000000000000000E+000"/>
    <e0 Z="104" value=".00000000000000000E+000"/>
    <e0 Z="105" value=".00000000000000000E+000"/>
    <e0 Z="106" value=".00000000000000000E+000"/>
    <e0 Z="107" value=".00000000000000000E+000"/>
    <e0 Z="108" value=".00000000000000000E+000"/>
    <e0 Z="109" value=".00000000000000000E+000"/>
    <e0 Z="110" value=".00000000000000000E+000"/>
    <e0 Z="111" value=".00000000000000000E+000"/>
    <e0 Z="112" value=".00000000000000000E+000"/>
    <e0 Z="113" value=".00000000000000000E+000"/>
    <e0 Z="114" value=".00000000000000000E+000"/>
    <e0 Z="115" value=".00000000000000000E+000"/>
    <e0 Z="116" value=".00000000000000000E+000"/>
    <e0 Z="117" value=".00000000000000000E+000"/>
    <e0 Z="118" value=".00000000000000000E+000"/>
  </GAP_data>
  <gpSparse label="GAP_2020_10_15_180_13_48_39_974" n_coordinate="3">
    <gpCoordinates label="GAP_2020_10_15_180_13_48_39_9741" dimensions="1" signal_variance="1.0000000000000000" signal_mean=".00000000000000000E+000" sparsified="T" n_permutations="1" covariance_type="1" n_sparseX="25" sparseX_filename="silicon.xml.sparseX.GAP_2020_10_15_180_13_48_39_9741" sparseX_md5sum="2f6978dceb9d8980a407f4ff73a4ed26">
      <theta>  0.10000000000000000E+001 </theta>
      <descriptor> distance_2b Z1=14 Z2=14 cutoff=5.0 n_sparse=25 covariance_type=ard_se delta=1.0 theta_uniform=1. sparse_method=uniform</descriptor>
      <permutation i="1">1  </permutation>
      <sparseX i="1" alpha="49521.082489061228" sparseCutoff=".95916265828807301E-001"/>
      <sparseX i="2" alpha="-2917.8576195259220" sparseCutoff="1.0000000000000000"/>
      <sparseX i="3" alpha="43115.293039544260" sparseCutoff="1.0000000000000000"/>
      <sparseX i="4" alpha="-44834.207012831524" sparseCutoff=".61715395357447955"/>
      <sparseX i="5" alpha="2013.8009860370880" sparseCutoff="1.0000000000000000"/>
      <sparseX i="6" alpha="-29399.792929486153" sparseCutoff="1.0000000000000000"/>
      <sparseX i="7" alpha="891.15359613744113" sparseCutoff="1.0000000000000000"/>
      <sparseX i="8" alpha="6111.8296376212775" sparseCutoff="1.0000000000000000"/>
      <sparseX i="9" alpha="25596.153464137726" sparseCutoff=".17014789478577264E-001"/>
      <sparseX i="10" alpha="-19507.269461405220" sparseCutoff="1.0000000000000000"/>
      <sparseX i="11" alpha="29987.663881208962" sparseCutoff="1.0000000000000000"/>
      <sparseX i="12" alpha="-12384.492145416425" sparseCutoff="1.0000000000000000"/>
      <sparseX i="13" alpha="-43750.877653902520" sparseCutoff="1.0000000000000000"/>
      <sparseX i="14" alpha="35139.768606118254" sparseCutoff="1.0000000000000000"/>
      <sparseX i="15" alpha="-20584.844989356276" sparseCutoff="1.0000000000000000"/>
      <sparseX i="16" alpha="-48230.331060071650" sparseCutoff="1.0000000000000000"/>
      <sparseX i="17" alpha="14954.054037327182" sparseCutoff="1.0000000000000000"/>
      <sparseX i="18" alpha="42535.409618165184" sparseCutoff=".98458368727700196"/>
      <sparseX i="19" alpha="11608.257830187827" sparseCutoff="1.0000000000000000"/>
      <sparseX i="20" alpha="5574.6023161239909" sparseCutoff="1.0000000000000000"/>
      <sparseX i="21" alpha="23613.298660549772" sparseCutoff="1.0000000000000000"/>
      <sparseX i="22" alpha="-1294.5898308282983" sparseCutoff="1.0000000000000000"/>
      <sparseX i="23" alpha="-25475.233533587059" sparseCutoff="1.0000000000000000"/>
      <sparseX i="24" alpha="12944.320412985717" sparseCutoff="1.0000000000000000"/>
      <sparseX i="25" alpha="-1793.5411522974498" sparseCutoff="1.0000000000000000"/>
    </gpCoordinates>
    <gpCoordinates label="GAP_2020_10_15_180_13_48_39_9742" dimensions="3" signal_variance=".10000000000000000E-001" signal_mean=".00000000000000000E+000" sparsified="T" n_permutations="1" covariance_type="4" n_sparseX="200" sparseX_filename="silicon.xml.sparseX.GAP_2020_10_15_180_13_48_39_9742" sparseX_md5sum="e651976eaf09e22063bec875a389c991">
      <theta>  0.40000000000000000E+001  0.40000000000000000E+001  0.40000000000000000E+001 </theta>
      <descriptor> angle_3b Z_center=14 Z1=14 Z2=14 cutoff=4.0 n_sparse=200 covariance_type=pp delta=0.01 theta_uniform=4.0 sparse_method=uniform</descriptor>
      <permutation i="1">1 2 3  </permutation>
      <sparseX i="1" alpha=".13917899881026527E-252" sparseCutoff=".71164415414959248"/>
      <sparseX i="2" alpha="-.11128467474205761E-252" sparseCutoff=".76293221293927549"/>
      <sparseX i="3" alpha="-.23652884220329928E-252" sparseCutoff=".17839826870409151"/>
      <sparseX i="4" alpha="-.78542577800479046E-002" sparseCutoff=".93277507762833811"/>
      <sparseX i="5" alpha=".34593123858298790E-001" sparseCutoff=".69544591043107884"/>
      <sparseX i="6" alpha=".30452675555929633E-249" sparseCutoff=".48364501433531215"/>
      <sparseX i="7" alpha="-.18746744987865750E-242" sparseCutoff=".53057808742475210"/>
      <sparseX i="8" alpha="-.56671686187643957E-244" sparseCutoff="1.0000000000000000"/>
      <sparseX i="9" alpha="-.80407463928202971E-001" sparseCutoff=".32333692081054000"/>
      <sparseX i="10" alpha=".20819929134698870E-253" sparseCutoff=".32333692081054000"/>
      <sparseX i="11" alpha=".34015880403813362E-188" sparseCutoff=".32333692081054000"/>
      <sparseX i="12" alpha="-.19920485582168243" sparseCutoff=".10454676435924141"/>
      <sparseX i="13" alpha=".16510295763016034E-249" sparseCutoff=".32333692081054000"/>
      <sparseX i="14" alpha="-.45005277932724877E-252" sparseCutoff=".62121708048486690"/>
      <sparseX i="15" alpha=".80320217905519384E-002" sparseCutoff=".81424937884266768"/>
      <sparseX i="16" alpha=".78208541668828213E-250" sparseCutoff=".75606647487702086E-001"/>
      <sparseX i="17" alpha=".14260163139539045E-246" sparseCutoff=".23383239779166443"/>
      <sparseX i="18" alpha="-.20938750124807571E-175" sparseCutoff=".23383239779166443"/>
      <sparseX i="19" alpha=".11011683800511695E-250" sparseCutoff="1.0000000000000000"/>
      <sparseX i="20" alpha=".15730133320039589E-242" sparseCutoff="1.0000000000000000"/>
      <sparseX i="21" alpha="-.20509105629282287E-002" sparseCutoff="1.0000000000000000"/>
      <sparseX i="22" alpha=".91558193693097069E-002" sparseCutoff=".75606647487702086E-001"/>
      <sparseX i="23" alpha=".78357960731545814E-250" sparseCutoff=".92033984718538497"/>
      <sparseX i="24" alpha=".44343001761196142E-248" sparseCutoff=".56509009616433820E-001"/>
      <sparseX i="25" alpha="-.45465547190450394E-001" sparseCutoff=".99406303535878274E-001"/>
      <sparseX i="26" alpha=".79853380231860518E-002" sparseCutoff="1.0000000000000000"/>
      <sparseX i="27" alpha="-.11819493831975985E-002" sparseCutoff="1.0000000000000000"/>
      <sparseX i="28" alpha="-.40221995016210630E-002" sparseCutoff=".83977045379716564E-001"/>
      <sparseX i="29" alpha="-.93826800687685594E-002" sparseCutoff="1.0000000000000000"/>
      <sparseX i="30" alpha="-.23054193671869865E-002" sparseCutoff="1.0000000000000000"/>
      <sparseX i="31" alpha="-.68838523669952660E-002" sparseCutoff="1.0000000000000000"/>
      <sparseX i="32" alpha="-.19931302554110464E-001" sparseCutoff=".24540742918428504E-001"/>
      <sparseX i="33" alpha="-.11275562902054437E-001" sparseCutoff=".24540742918428504E-001"/>
      <sparseX i="34" alpha=".36094286759731295E-001" sparseCutoff=".24540742918428504E-001"/>
      <sparseX i="35" alpha=".77843475709646744E-004" sparseCutoff="1.0000000000000000"/>
      <sparseX i="36" alpha=".71915723370433275E-002" sparseCutoff="1.0000000000000000"/>
      <sparseX i="37" alpha="9540.3536206342815" sparseCutoff=".27146440380598769E-005"/>
      <sparseX i="38" alpha="1434.1164315832968" sparseCutoff=".27146440380598769E-005"/>
      <sparseX i="39" alpha=".24837288632394153" sparseCutoff="1.0000000000000000"/>
      <sparseX i="40" alpha="-.44245169668085614E-003" sparseCutoff="1.0000000000000000"/>
      <sparseX i="41" alpha="-.37600313848499371E-001" sparseCutoff="1.0000000000000000"/>
      <sparseX i="42" alpha="-.40220762839243647E-001" sparseCutoff="1.0000000000000000"/>
      <sparseX i="43" alpha="454.96650968791931" sparseCutoff=".11483625201313963E-004"/>
      <sparseX i="44" alpha="2.7786821584755286" sparseCutoff=".17322428419291880E-003"/>
      <sparseX i="45" alpha=".38720912264040507E-189" sparseCutoff=".60967267745633236"/>
      <sparseX i="46" alpha="-.74849305509488591E-172" sparseCutoff=".92908938629385207E-002"/>
      <sparseX i="47" alpha="-.30690615702793989" sparseCutoff=".36859250193038140"/>
      <sparseX i="48" alpha="-.10387886393918151" sparseCutoff="1.0000000000000000"/>
      <sparseX i="49" alpha="-.19910956500247224E-002" sparseCutoff=".59522150608265012"/>
      <sparseX i="50" alpha="-.45420025535034075E-001" sparseCutoff=".64445269012903539"/>
      <sparseX i="51" alpha=".20642346035282571E-001" sparseCutoff=".23055141572958637"/>
      <sparseX i="52" alpha=".40356252356197699E-005" sparseCutoff=".94769555232420255"/>
      <sparseX i="53" alpha=".83922821943687353" sparseCutoff="1.0000000000000000"/>
      <sparseX i="54" alpha="-21.736513472569669" sparseCutoff=".52236501408874083E-002"/>
      <sparseX i="55" alpha="-9.1215613936013007" sparseCutoff=".15749993426979353"/>
      <sparseX i="56" alpha=".68266942008228038" sparseCutoff=".19039363402300058E-002"/>
      <sparseX i="57" alpha=".26536244247176788E-002" sparseCutoff="1.0000000000000000"/>
      <sparseX i="58" alpha=".34795095910430244E-002" sparseCutoff="1.0000000000000000"/>
      <sparseX i="59" alpha="-.19764384669288762" sparseCutoff="1.0000000000000000"/>
      <sparseX i="60" alpha="-.17252869908109955" sparseCutoff=".59998084959004334E-001"/>
      <sparseX i="61" alpha="-21.883897467471133" sparseCutoff=".11780922542953143"/>
      <sparseX i="62" alpha="428.73766352840227" sparseCutoff=".50452746936280888E-003"/>
      <sparseX i="63" alpha=".62735468707971877E-004" sparseCutoff=".47700100513492033"/>
      <sparseX i="64" alpha="1.5513288988161906" sparseCutoff=".50238498404723830E-002"/>
      <sparseX i="65" alpha=".11706704275259949E-001" sparseCutoff="1.0000000000000000"/>
      <sparseX i="66" alpha="-2.0574386527909607" sparseCutoff=".75558370888910531"/>
      <sparseX i="67" alpha="-4.7112170541798211" sparseCutoff=".24596474076401531E-002"/>
      <sparseX i="68" alpha=".26642429495178760" sparseCutoff=".99334229902837712"/>
      <sparseX i="69" alpha="92.481097527810746" sparseCutoff=".57311030079743031E-003"/>
      <sparseX i="70" alpha="-40.145675461192482" sparseCutoff=".56208834707154442E-002"/>
      <sparseX i="71" alpha=".22199759915727340E-002" sparseCutoff=".95497294296017321"/>
      <sparseX i="72" alpha="-.17143906970341714E-001" sparseCutoff="1.0000000000000000"/>
      <sparseX i="73" alpha=".17498059889446724E-001" sparseCutoff=".15129104801763249"/>
      <sparseX i="74" alpha="-25.967379840668816" sparseCutoff=".19578989983023987E-002"/>
      <sparseX i="75" alpha="-127.87679905819201" sparseCutoff=".26490842146947302E-002"/>
      <sparseX i="76" alpha=".52929653818488256E-001" sparseCutoff="1.0000000000000000"/>
      <sparseX i="77" alpha="-.45979789792544828E-001" sparseCutoff=".83143488399991028E-001"/>
      <sparseX i="78" alpha=".12593170995833084E-002" sparseCutoff="1.0000000000000000"/>
      <sparseX i="79" alpha=".17106979287405460" sparseCutoff=".99717621563005010E-001"/>
      <sparseX i="80" alpha="-.83406315326183464E-002" sparseCutoff=".99961313303695076"/>
      <sparseX i="81" alpha=".76600031842012764E-001" sparseCutoff="1.0000000000000000"/>
      <sparseX i="82" alpha="-187.54149829744176" sparseCutoff=".41405976407682399E-003"/>
      <sparseX i="83" alpha="-.45762030987599828" sparseCutoff=".73879669194915165"/>
      <sparseX i="84" alpha="129.87890738089672" sparseCutoff=".16702446289041384E-002"/>
      <sparseX i="85" alpha="-5.1774575941741228" sparseCutoff=".80205165663793654E-003"/>
      <sparseX i="86" alpha=".22286261598906054E-003" sparseCutoff="1.0000000000000000"/>
      <sparseX i="87" alpha="-.81986681887336668E-002" sparseCutoff=".99813957599986014"/>
      <sparseX i="88" alpha="-.23946717762477941E-001" sparseCutoff=".41670283028597555"/>
      <sparseX i="89" alpha=".57698446929816828E-001" sparseCutoff=".39774709481601667"/>
      <sparseX i="90" alpha=".34302141202817967E-002" sparseCutoff="1.0000000000000000"/>
      <sparseX i="91" alpha="-38.003271433058110" sparseCutoff=".15041525923584764E-002"/>
      <sparseX i="92" alpha="-.64638331171757268" sparseCutoff=".21620488545701089E-002"/>
      <sparseX i="93" alpha="-.20015580371726349" sparseCutoff=".17595955727607915E-001"/>
      <sparseX i="94" alpha="-.15821542132606160E-001" sparseCutoff=".67040191348132105"/>
      <sparseX i="95" alpha="-148.98346099964687" sparseCutoff=".66277543636852898E-002"/>
      <sparseX i="96" alpha="-1400.3843855485341" sparseCutoff=".26243094832689717E-002"/>
      <sparseX i="97" alpha="1167.7731957015312" sparseCutoff=".43835964788990767E-003"/>
      <sparseX i="98" alpha=".15843975244383685" sparseCutoff="1.0000000000000000"/>
      <sparseX i="99" alpha=".62898664779746703E-003" sparseCutoff="1.0000000000000000"/>
      <sparseX i="100" alpha="-.24496095580695612E-002" sparseCutoff="1.0000000000000000"/>
      <sparseX i="101" alpha=".30284333422475728E-001" sparseCutoff=".28354527527375073"/>
      <sparseX i="102" alpha="-.63911032087665798E-001" sparseCutoff=".99383617208907815E-001"/>
      <sparseX i="103" alpha="2833.0178381882542" sparseCutoff=".47064586922749285E-002"/>
      <sparseX i="104" alpha=".44371710037206419" sparseCutoff=".50224193136838646"/>
      <sparseX i="105" alpha="156.76518486668755" sparseCutoff=".26280191989525525E-001"/>
      <sparseX i="106" alpha="-.27705481749425320" sparseCutoff="1.0000000000000000"/>
      <sparseX i="107" alpha=".12693774753403148E-002" sparseCutoff="1.0000000000000000"/>
      <sparseX i="108" alpha="-.14346733394465488" sparseCutoff=".14103602207885890"/>
      <sparseX i="109" alpha="-.87103181564337939E-001" sparseCutoff=".30440020554582292"/>
      <sparseX i="110" alpha="-.44809000685204700E-002" sparseCutoff="1.0000000000000000"/>
      <sparseX i="111" alpha="2.2700150118078826" sparseCutoff=".77620055036366997"/>
      <sparseX i="112" alpha=".12298395875758925" sparseCutoff=".12859434632477185"/>
      <sparseX i="113" alpha="-.18145432032924843E-001" sparseCutoff=".51074798334751315"/>
      <sparseX i="114" alpha=".68562090398223315E-002" sparseCutoff=".55942881942667277E-001"/>
      <sparseX i="115" alpha="-.96482200614424390E-001" sparseCutoff=".27403835113716091"/>
      <sparseX i="116" alpha="-2.3129293367365293" sparseCutoff=".50411336988834959E-001"/>
      <sparseX i="117" alpha="-78.027102821357857" sparseCutoff=".75649531362722167E-004"/>
      <sparseX i="118" alpha=".43472443153317990E-003" sparseCutoff="1.0000000000000000"/>
      <sparseX i="119" alpha="-.21338645061726774E-003" sparseCutoff="1.0000000000000000"/>
      <sparseX i="120" alpha=".10420047624168627E-002" sparseCutoff="1.0000000000000000"/>
      <sparseX i="121" alpha="-.25537947583176767E-002" sparseCutoff="1.0000000000000000"/>
      <sparseX i="122" alpha=".45341186572538211" sparseCutoff="1.0000000000000000"/>
      <sparseX i="123" alpha="37.416485160065875" sparseCutoff=".22344090639003451E-001"/>
      <sparseX i="124" alpha="-.19539457964801668" sparseCutoff=".95625214130460945"/>
      <sparseX i="125" alpha="-.74287419960163942E-001" sparseCutoff=".72201598268326250"/>
      <sparseX i="126" alpha=".37782152106193312" sparseCutoff="1.0000000000000000"/>
      <sparseX i="127" alpha="-.10824521371636087E-001" sparseCutoff=".10533655850172835"/>
      <sparseX i="128" alpha=".29121552126335128E-002" sparseCutoff="1.0000000000000000"/>
      <sparseX i="129" alpha=".14757525853705678E-001" sparseCutoff=".66057523294265008E-001"/>
      <sparseX i="130" alpha=".22694924958252027" sparseCutoff=".59283126946240583"/>
      <sparseX i="131" alpha=".87307603107443496E-001" sparseCutoff="1.0000000000000000"/>
      <sparseX i="132" alpha=".52237811156209263E-001" sparseCutoff=".84568234284724902E-001"/>
      <sparseX i="133" alpha="-.31031758217232702" sparseCutoff=".83949447014520073"/>
      <sparseX i="134" alpha=".12140954514427943" sparseCutoff="1.0000000000000000"/>
      <sparseX i="135" alpha="-.74427826984746315E-001" sparseCutoff="1.0000000000000000"/>
      <sparseX i="136" alpha="-54.609225974996079" sparseCutoff=".17782287396650998E-002"/>
      <sparseX i="137" alpha=".55863851456339746E-002" sparseCutoff="1.0000000000000000"/>
      <sparseX i="138" alpha="-.34544834464497076" sparseCutoff=".10203743469538418"/>
      <sparseX i="139" alpha="-.13845633725545894" sparseCutoff="1.0000000000000000"/>
      <sparseX i="140" alpha=".28127793172642873" sparseCutoff=".96409471456972307"/>
      <sparseX i="141" alpha="-.89314488066436520E-001" sparseCutoff="1.0000000000000000"/>
      <sparseX i="142" alpha=".51717903477581831E-001" sparseCutoff=".36817300758371407"/>
      <sparseX i="143" alpha="-35.628438338035807" sparseCutoff=".36817300758371407"/>
      <sparseX i="144" alpha=".11223867482464180" sparseCutoff=".81952898438364563E-001"/>
      <sparseX i="145" alpha="-.39626362686464811" sparseCutoff=".81952898438364563E-001"/>
      <sparseX i="146" alpha="-3422.9713522924408" sparseCutoff=".19924648492669617E-003"/>
      <sparseX i="147" alpha="-.53362299027422518E-001" sparseCutoff="1.0000000000000000"/>
      <sparseX i="148" alpha=".11566603322785073E-001" sparseCutoff="1.0000000000000000"/>
      <sparseX i="149" alpha=".38996109986137334" sparseCutoff="1.0000000000000000"/>
      <sparseX i="150" alpha="-.22303261601300032E-001" sparseCutoff="1.0000000000000000"/>
      <sparseX i="151" alpha="35498.963742070991" sparseCutoff=".17134182242986018E-002"/>
      <sparseX i="152" alpha="43751.483008770672" sparseCutoff=".93353393747219737E-003"/>
      <sparseX i="153" alpha="160.41224509640730" sparseCutoff=".93353393747219737E-003"/>
      <sparseX i="154" alpha="417.62877143373811" sparseCutoff=".93353393747219737E-003"/>
      <sparseX i="155" alpha=".63952642544239768E-001" sparseCutoff="1.0000000000000000"/>
      <sparseX i="156" alpha="-.31176530013747139E-002" sparseCutoff="1.0000000000000000"/>
      <sparseX i="157" alpha=".10409630541257478E-001" sparseCutoff="1.0000000000000000"/>
      <sparseX i="158" alpha="-3.6514039149105528" sparseCutoff=".46406022341993791"/>
      <sparseX i="159" alpha="-25.116839353138349" sparseCutoff=".65432454656772499E-002"/>
      <sparseX i="160" alpha=".23964141907641853" sparseCutoff=".11803592084080222"/>
      <sparseX i="161" alpha=".51945045751097901E-001" sparseCutoff=".21699260436677050E-001"/>
      <sparseX i="162" alpha="-.33521005410401081E-001" sparseCutoff=".44309976431829884"/>
      <sparseX i="163" alpha="-.13281932517013917" sparseCutoff=".34728559383860214E-001"/>
      <sparseX i="164" alpha=".12731407327745006" sparseCutoff="1.0000000000000000"/>
      <sparseX i="165" alpha=".91909733661023462E-002" sparseCutoff=".53131353565344641"/>
      <sparseX i="166" alpha="-.96169909285376016E-002" sparseCutoff=".69731615027264526"/>
      <sparseX i="167" alpha="-2877.1388004657688" sparseCutoff=".84824233686886519E-003"/>
      <sparseX i="168" alpha="-.28584027441377469" sparseCutoff=".33030623252027602E-001"/>
      <sparseX i="169" alpha="2791.8163313091018" sparseCutoff=".11623938908671839E-003"/>
      <sparseX i="170" alpha="-.21076661248030568" sparseCutoff="1.0000000000000000"/>
      <sparseX i="171" alpha="-.98359063935371138" sparseCutoff=".10348114888989303E-001"/>
      <sparseX i="172" alpha=".76493675962750344E-002" sparseCutoff=".57613083578820345"/>
      <sparseX i="173" alpha="23.322161091242290" sparseCutoff=".16789728780275404E-003"/>
      <sparseX i="174" alpha=".77988288512091428E-001" sparseCutoff=".16145395394446327"/>
      <sparseX i="175" alpha=".78721072223674766E-002" sparseCutoff="1.0000000000000000"/>
      <sparseX i="176" alpha="14.930723614223039" sparseCutoff=".95007599907934847E-002"/>
      <sparseX i="177" alpha="7.3746312108087810" sparseCutoff=".58468898978793891E-001"/>
      <sparseX i="178" alpha="-.72614349301761616E-003" sparseCutoff=".51273243344935793"/>
      <sparseX i="179" alpha=".17525468715278534E-183" sparseCutoff=".33986799983684634E-003"/>
      <sparseX i="180" alpha=".51128003293434464E-241" sparseCutoff=".27688171438738363E-002"/>
      <sparseX i="181" alpha="861.32626662961638" sparseCutoff=".78233926958937161E-004"/>
      <sparseX i="182" alpha="-.94054596148560417E-244" sparseCutoff=".37676281773705389"/>
      <sparseX i="183" alpha="-14.257355974021355" sparseCutoff=".51230413262843610E-001"/>
      <sparseX i="184" alpha="2979.0347713091137" sparseCutoff=".16226779747066814E-002"/>
      <sparseX i="185" alpha="-.17329015418463541E-001" sparseCutoff=".36743594707222588"/>
      <sparseX i="186" alpha="12.868489521189444" sparseCutoff=".14206284633287047E-001"/>
      <sparseX i="187" alpha="-8.7927337161048360" sparseCutoff=".19169092146130162E-002"/>
      <sparseX i="188" alpha=".15934308783693552" sparseCutoff=".53385127843105806"/>
      <sparseX i="189" alpha="1.8033836860585180" sparseCutoff=".18683364573002698E-001"/>
      <sparseX i="190" alpha=".20501381883235331" sparseCutoff=".64997815246970214"/>
      <sparseX i="191" alpha="-.37125400574168865" sparseCutoff=".98912927103492687"/>
      <sparseX i="192" alpha="16.771456198354873" sparseCutoff=".45713870138579027E-001"/>
      <sparseX i="193" alpha="-40.096628773538882" sparseCutoff=".33312091988662318"/>
      <sparseX i="194" alpha="3935.9320335752718" sparseCutoff=".29048364010736405E-002"/>
      <sparseX i="195" alpha="-52.052030260039928" sparseCutoff=".24730865522133155"/>
      <sparseX i="196" alpha="-.12956562653848569" sparseCutoff=".19243213511803692E-001"/>
      <sparseX i="197" alpha=".48005280178552684" sparseCutoff=".79359627132615074E-001"/>
      <sparseX i="198" alpha=".98171473727035621E-001" sparseCutoff="1.0000000000000000"/>
      <sparseX i="199" alpha="-10.801089765324287" sparseCutoff=".79831873812412028E-002"/>
      <sparseX i="200" alpha="-.11396085283498539E-001" sparseCutoff=".63616489547167865E-001"/>
    </gpCoordinates>
    <gpCoordinates label="GAP_2020_10_15_180_13_48_39_9743" dimensions="72" signal_variance="1.0000000000000000" signal_mean=".00000000000000000E+000" sparsified="T" n_permutations="1" covariance_type="2" zeta="6.0000000000000000" n_sparseX="9000" sparseX_filename="silicon.xml.sparseX.GAP_2020_10_15_180_13_48_39_9743" sparseX_md5sum="f409fdd4903e487fe416f7c5bdc8281c">
      <descriptor> soap_turbo l_max=8 alpha_max={8} atom_sigma_r={0.5} atom_sigma_t={0.5} atom_sigma_r_scaling={0.} atom_sigma_t_scaling={0.} zeta=6 rcut_hard=5.0 rcut_soft=4.0 basis=poly3gauss scaling_mode=polynomial amplitude_scaling={1.0} n_species=1 species_Z=14 radial_enhancement={1} compress_file=compress.dat central_weight={1.0} n_sparse=9000 delta=1.0 f0=0.0 covariance_type=dot_product sparse_method=cur_points</descriptor>
      <permutation i="1">1  </permutation>
      <sparseX i="1" alpha="57.331161851424007" sparseCutoff="1.0000000000000000"/>
      <sparseX i="2" alpha="-1238.5366291245959" sparseCutoff="1.0000000000000000"/>
      <sparseX i="3" alpha="-11762.692761128799" sparseCutoff="1.0000000000000000"/>
      <sparseX i="4" alpha="-6355.4571591478152" sparseCutoff="1.0000000000000000"/>
      <sparseX i="5" alpha="24365.080252060026" sparseCutoff="1.0000000000000000"/>
      <sparseX i="6" alpha="-10475.052709344589" sparseCutoff="1.0000000000000000"/>
      <sparseX i="7" alpha="-32020.911954116025" sparseCutoff="1.0000000000000000"/>
      <sparseX i="8" alpha="-17326.608875384041" sparseCutoff="1.0000000000000000"/>
      <sparseX i="9" alpha="29967.484392538860" sparseCutoff="1.0000000000000000"/>
      <sparseX i="10" alpha="18690.613626092596" sparseCutoff="1.0000000000000000"/>
      <sparseX i="11" alpha="-4325.1669122581943" sparseCutoff="1.0000000000000000"/>
      <sparseX i="12" alpha="18599.345034404243" sparseCutoff="1.0000000000000000"/>
      <sparseX i="13" alpha="22099.619247608331" sparseCutoff="1.0000000000000000"/>
      <sparseX i="14" alpha="12442.407214613319" sparseCutoff="1.0000000000000000"/>
      <sparseX i="15" alpha="-19274.389739945549" sparseCutoff="1.0000000000000000"/>
      <sparseX i="16" alpha="13967.520973321434" sparseCutoff="1.0000000000000000"/>
      <sparseX i="17" alpha="-8492.9277406549227" sparseCutoff="1.0000000000000000"/>
      <sparseX i="18" alpha="-5985.4211771651890" sparseCutoff="1.0000000000000000"/>
      <sparseX i="19" alpha="13863.940680325159" sparseCutoff="1.0000000000000000"/>
      <sparseX i="20" alpha="13584.415169593734" sparseCutoff="1.0000000000000000"/>
      <sparseX i="21" alpha="12675.520728066727" sparseCutoff="1.0000000000000000"/>
      <sparseX i="22" alpha="-10264.551793347457" sparseCutoff="1.0000000000000000"/>
      <sparseX i="23" alpha="179.12956390515683" sparseCutoff="1.0000000000000000"/>
      <sparseX i="24" alpha="2168.9033753405483" sparseCutoff="1.0000000000000000"/>
      <sparseX i="25" alpha="-6998.8419629703521" sparseCutoff="1.0000000000000000"/>
      <sparseX i="26" alpha="-27258.517320586012" sparseCutoff="1.0000000000000000"/>
      <sparseX i="27" alpha="22591.073095583379" sparseCutoff="1.0000000000000000"/>
      <sparseX i="28" alpha="-31604.853051573304" sparseCutoff="1.0000000000000000"/>
      <sparseX i="29" alpha="-4958.1046527097687" sparseCutoff="1.0000000000000000"/>
      <sparseX i="30" alpha="-8534.1954345186332" sparseCutoff="1.0000000000000000"/>
      <sparseX i="31" alpha="3048.9770533298602" sparseCutoff="1.0000000000000000"/>
      <sparseX i="32" alpha="15969.814720351947" sparseCutoff="1.0000000000000000"/>
      <sparseX i="33" alpha="-10175.824574267213" sparseCutoff="1.0000000000000000"/>
      <sparseX i="34" alpha="-6437.1066197872724" sparseCutoff="1.0000000000000000"/>
      <sparseX i="35" alpha="-4647.6900133703939" sparseCutoff="1.0000000000000000"/>
      <sparseX i="36" alpha="5671.2852051503787" sparseCutoff="1.0000000000000000"/>
      <sparseX i="37" alpha="1101.0823332567325" sparseCutoff="1.0000000000000000"/>
      <sparseX i="38" alpha="-2955.3883941839608" sparseCutoff="1.0000000000000000"/>
      <sparseX i="39" alpha="7268.5287018345061" sparseCutoff="1.0000000000000000"/>
      <sparseX i="40" alpha="20038.602221401659" sparseCutoff="1.0000000000000000"/>
      <sparseX i="41" alpha="-26494.652220901142" sparseCutoff="1.0000000000000000"/>
      <sparseX i="42" alpha="-821.26129433212452" sparseCutoff="1.0000000000000000"/>
      <sparseX i="43" alpha="7531.7404486408268" sparseCutoff="1.0000000000000000"/>
      <sparseX i="44" alpha="-6469.8859657241483" sparseCutoff="1.0000000000000000"/>
      <sparseX i="45" alpha="3819.3035239729788" sparseCutoff="1.0000000000000000"/>
      <sparseX i="46" alpha="-2789.8694452220552" sparseCutoff="1.0000000000000000"/>
      <sparseX i="47" alpha="-8531.2191692345841" sparseCutoff="1.0000000000000000"/>
      <sparseX i="48" alpha="-16943.567740813640" sparseCutoff="1.0000000000000000"/>
      <sparseX i="49" alpha="1222.3171033685512" sparseCutoff="1.0000000000000000"/>
      <sparseX i="50" alpha="8410.0945145015867" sparseCutoff="1.0000000000000000"/>
      <sparseX i="51" alpha="-3172.1648860586806" sparseCutoff="1.0000000000000000"/>
      <sparseX i="52" alpha="-809.02725712311872" sparseCutoff="1.0000000000000000"/>
      <sparseX i="53" alpha="6456.6000717739389" sparseCutoff="1.0000000000000000"/>
      <sparseX i="54" alpha="16119.080860655919" sparseCutoff="1.0000000000000000"/>
      <sparseX i="55" alpha="-23906.478992607634" sparseCutoff="1.0000000000000000"/>
      <sparseX i="56" alpha="576.55180080056971" sparseCutoff="1.0000000000000000"/>
      <sparseX i="57" alpha="-13710.967336901800" sparseCutoff="1.0000000000000000"/>
      <sparseX i="58" alpha="-11707.981137666629" sparseCutoff="1.0000000000000000"/>
      <sparseX i="59" alpha="659.91068876095335" sparseCutoff="1.0000000000000000"/>
      <sparseX i="60" alpha="-17198.989811713007" sparseCutoff="1.0000000000000000"/>
      <sparseX i="61" alpha="1585.5542968029636" sparseCutoff="1.0000000000000000"/>
      <sparseX i="62" alpha="-8777.0149032995887" sparseCutoff="1.0000000000000000"/>
      <sparseX i="63" alpha="8836.8738512339114" sparseCutoff="1.0000000000000000"/>
      <sparseX i="64" alpha="-662.09356682064129" sparseCutoff="1.0000000000000000"/>
      <sparseX i="65" alpha="2415.8565674199308" sparseCutoff="1.0000000000000000"/>
      <sparseX i="66" alpha="-6030.9710476899654" sparseCutoff="1.0000000000000000"/>
      <sparseX i="67" alpha="19142.445957260501" sparseCutoff="1.0000000000000000"/>
      <sparseX i="68" alpha="4970.1092209022563" sparseCutoff="1.0000000000000000"/>
      <sparseX i="69" alpha="-12808.394439355721" sparseCutoff="1.0000000000000000"/>
      <sparseX i="70" alpha="22150.619754082003" sparseCutoff="1.0000000000000000"/>
      <sparseX i="71" alpha="2586.9724790590099" sparseCutoff="1.0000000000000000"/>
      <sparseX i="72" alpha="-4084.4314437505700" sparseCutoff="1.0000000000000000"/>
      <sparseX i="73" alpha="2986.5911754614822" sparseCutoff="1.0000000000000000"/>
      <sparseX i="74" alpha="-12898.890639168454" sparseCutoff="1.0000000000000000"/>
      <sparseX i="75" alpha="-32544.990803309949" sparseCutoff="1.0000000000000000"/>
      <sparseX i="76" alpha="21672.540194588677" sparseCutoff="1.0000000000000000"/>
      <sparseX i="77" alpha="-1259.4863151718246" sparseCutoff="1.0000000000000000"/>
      <sparseX i="78" alpha="31714.604571081622" sparseCutoff="1.0000000000000000"/>
      <sparseX i="79" alpha="9925.2456185658557" sparseCutoff="1.0000000000000000"/>
      <sparseX i="80" alpha="-8432.0234910103263" sparseCutoff="1.0000000000000000"/>
      <sparseX i="81" alpha="5054.9843084091553" sparseCutoff="1.0000000000000000"/>
      <sparseX i="82" alpha="-6698.3197849185026" sparseCutoff="1.0000000000000000"/>
      <sparseX i="83" alpha="367.37952916176812" sparseCutoff="1.0000000000000000"/>
      <sparseX i="84" alpha="23784.323609458563" sparseCutoff="1.0000000000000000"/>
      <sparseX i="85" alpha="11487.795852206807" sparseCutoff="1.0000000000000000"/>
      <sparseX i="86" alpha="3284.4058927179867" sparseCutoff="1.0000000000000000"/>
      <sparseX i="87" alpha="-2294.4926882308841" sparseCutoff="1.0000000000000000"/>
      <sparseX i="88" alpha="5120.6895029184334" sparseCutoff="1.0000000000000000"/>
      <sparseX i="89" alpha="-2674.5373802736367" sparseCutoff="1.0000000000000000"/>
      <sparseX i="90" alpha="-14818.435936101454" sparseCutoff="1.0000000000000000"/>
      <sparseX i="91" alpha="19506.308022659076" sparseCutoff="1.0000000000000000"/>
      <sparseX i="92" alpha="23587.711762842653" sparseCutoff="1.0000000000000000"/>
      <sparseX i="93" alpha="-9718.8168038858712" sparseCutoff="1.0000000000000000"/>
      <sparseX i="94" alpha="13914.140608371479" sparseCutoff="1.0000000000000000"/>
      <sparseX i="95" alpha="25704.660968767599" sparseCutoff="1.0000000000000000"/>
      <sparseX i="96" alpha="-9476.5724300180063" sparseCutoff="1.0000000000000000"/>
      <sparseX i="97" alpha="11566.304494520902" sparseCutoff="1.0000000000000000"/>
      <sparseX i="98" alpha="-18324.426259943106" sparseCutoff="1.0000000000000000"/>
      <sparseX i="99" alpha="-35186.698397300839" sparseCutoff="1.0000000000000000"/>
      <sparseX i="100" alpha="-3834.1179292991847" sparseCutoff="1.0000000000000000"/>
      <sparseX i="101" alpha="29176.191241081018" sparseCutoff="1.0000000000000000"/>
      <sparseX i="102" alpha="1005.1604209422958" sparseCutoff="1.0000000000000000"/>
      <sparseX i="103" alpha="-24463.492841837116" sparseCutoff="1.0000000000000000"/>
      <sparseX i="104" alpha="33863.585240930639" sparseCutoff="1.0000000000000000"/>
      <sparseX i="105" alpha="-19059.195787910026" sparseCutoff="1.0000000000000000"/>
      <sparseX i="106" alpha="21462.623125795697" sparseCutoff="1.0000000000000000"/>
      <sparseX i="107" alpha="-9175.6989497787836" sparseCutoff="1.0000000000000000"/>
      <sparseX i="108" alpha="-2132.0527179530404" sparseCutoff="1.0000000000000000"/>
      <sparseX i="109" alpha="12487.151919859280" sparseCutoff="1.0000000000000000"/>
      <sparseX i="110" alpha="26354.152191282195" sparseCutoff="1.0000000000000000"/>
      <sparseX i="111" alpha="-19251.600448798486" sparseCutoff="1.0000000000000000"/>
      <sparseX i="112" alpha="-5770.8815634161056" sparseCutoff="1.0000000000000000"/>
      <sparseX i="113" alpha="8845.8016511895075" sparseCutoff="1.0000000000000000"/>
      <sparseX i="114" alpha="6499.0941981519072" sparseCutoff="1.0000000000000000"/>
      <sparseX i="115" alpha="-320.22766802634328" sparseCutoff="1.0000000000000000"/>
      <sparseX i="116" alpha="-49341.318354305826" sparseCutoff="1.0000000000000000"/>
      <sparseX i="117" alpha="-20560.356603627675" sparseCutoff="1.0000000000000000"/>
      <sparseX i="118" alpha="-18051.582325765710" sparseCutoff="1.0000000000000000"/>
      <sparseX i="119" alpha="5666.1707683348186" sparseCutoff="1.0000000000000000"/>
      <sparseX i="120" alpha="-21045.293103268756" sparseCutoff="1.0000000000000000"/>
      <sparseX i="121" alpha="-15697.986406574202" sparseCutoff="1.0000000000000000"/>
      <sparseX i="122" alpha="25272.778892699571" sparseCutoff="1.0000000000000000"/>
      <sparseX i="123" alpha="47014.825849202905" sparseCutoff="1.0000000000000000"/>
      <sparseX i="124" alpha="17508.901045429408" sparseCutoff="1.0000000000000000"/>
      <sparseX i="125" alpha="11068.015513746821" sparseCutoff="1.0000000000000000"/>
      <sparseX i="126" alpha="-12797.073593482706" sparseCutoff="1.0000000000000000"/>
      <sparseX i="127" alpha="5421.9133801368253" sparseCutoff="1.0000000000000000"/>
      <sparseX i="128" alpha="-31174.137450196398" sparseCutoff="1.0000000000000000"/>
      <sparseX i="129" alpha="10876.674193500778" sparseCutoff="1.0000000000000000"/>
      <sparseX i="130" alpha="2015.5493016705125" sparseCutoff="1.0000000000000000"/>
      <sparseX i="131" alpha="12978.725749779127" sparseCutoff="1.0000000000000000"/>
      <sparseX i="132" alpha="-24474.019102587059" sparseCutoff="1.0000000000000000"/>
      <sparseX i="133" alpha="12257.875855138791" sparseCutoff="1.0000000000000000"/>
      <sparseX i="134" alpha="-5530.0047768321674" sparseCutoff="1.0000000000000000"/>
      <sparseX i="135" alpha="24307.106114525628" sparseCutoff="1.0000000000000000"/>
      <sparseX i="136" alpha="-3420.0991242807236" sparseCutoff="1.0000000000000000"/>
      <sparseX i="137" alpha="4831.0879583887163" sparseCutoff="1.0000000000000000"/>
      <sparseX i="138" alpha="-20598.246412383494" sparseCutoff="1.0000000000000000"/>
      <sparseX i="139" alpha="4116.7872487073901" sparseCutoff="1.0000000000000000"/>
      <sparseX i="140" alpha="-9286.8282051116421" sparseCutoff="1.0000000000000000"/>
      <sparseX i="141" alpha="20259.388453089403" sparseCutoff="1.0000000000000000"/>
      <sparseX i="142" alpha="4338.5844095245775" sparseCutoff="1.0000000000000000"/>
      <sparseX i="143" alpha="-3924.9704534373086" sparseCutoff="1.0000000000000000"/>
      <sparseX i="144" alpha="8458.9839933486346" sparseCutoff="1.0000000000000000"/>
      <sparseX i="145" alpha="5786.6425290558009" sparseCutoff="1.0000000000000000"/>
      <sparseX i="146" alpha="-13930.509603308756" sparseCutoff="1.0000000000000000"/>
      <sparseX i="147" alpha="1596.1064108460969" sparseCutoff="1.0000000000000000"/>
      <sparseX i="148" alpha="-11198.786206316447" sparseCutoff="1.0000000000000000"/>
      <sparseX i="149" alpha="-131.24114935238222" sparseCutoff="1.0000000000000000"/>
      <sparseX i="150" alpha="-1343.8888905099930" sparseCutoff="1.0000000000000000"/>
      <sparseX i="151" alpha="21256.376577917064" sparseCutoff="1.0000000000000000"/>
      <sparseX i="152" alpha="1064.2660298155872" sparseCutoff="1.0000000000000000"/>
      <sparseX i="153" alpha="-7201.5173759135778" sparseCutoff="1.0000000000000000"/>
      <sparseX i="154" alpha="-11242.130092404936" sparseCutoff="1.0000000000000000"/>
      <sparseX i="155" alpha="-9575.8187849698297" sparseCutoff="1.0000000000000000"/>
      <sparseX i="156" alpha="-416.85043420832272" sparseCutoff="1.0000000000000000"/>
      <sparseX i="157" alpha="52955.703616472478" sparseCutoff="1.0000000000000000"/>
      <sparseX i="158" alpha="8888.8336814795111" sparseCutoff="1.0000000000000000"/>
      <sparseX i="159" alpha="24323.613459194763" sparseCutoff="1.0000000000000000"/>
      <sparseX i="160" alpha="-24886.468321850687" sparseCutoff="1.0000000000000000"/>
      <sparseX i="161" alpha="7661.6866375802811" sparseCutoff="1.0000000000000000"/>
      <sparseX i="162" alpha="4874.9634157309638" sparseCutoff="1.0000000000000000"/>
      <sparseX i="163" alpha="11461.843954995671" sparseCutoff="1.0000000000000000"/>
      <sparseX i="164" alpha="-12222.188065261937" sparseCutoff="1.0000000000000000"/>
      <sparseX i="165" alpha="2167.9374944217388" sparseCutoff="1.0000000000000000"/>
      <sparseX i="166" alpha="-11836.285619472004" sparseCutoff="1.0000000000000000"/>
      <sparseX i="167" alpha="33590.783531381188" sparseCutoff="1.0000000000000000"/>
      <sparseX i="168" alpha="4421.6126192807369" sparseCutoff="1.0000000000000000"/>
      <sparseX i="169" alpha="14127.677437530036" sparseCutoff="1.0000000000000000"/>
      <sparseX i="170" alpha="28890.204386781501" sparseCutoff="1.0000000000000000"/>
      <sparseX i="171" alpha="-15084.287496826371" sparseCutoff="1.0000000000000000"/>
      <sparseX i="172" alpha="-16286.992091059697" sparseCutoff="1.0000000000000000"/>
      <sparseX i="173" alpha="-6300.4299740937950" sparseCutoff="1.0000000000000000"/>
      <sparseX i="174" alpha="25332.594094587705" sparseCutoff="1.0000000000000000"/>
      <sparseX i="175" alpha="7467.1543643490686" sparseCutoff="1.0000000000000000"/>
      <sparseX i="176" alpha="5117.5769436994979" sparseCutoff="1.0000000000000000"/>
      <sparseX i="177" alpha="20395.503919676801" sparseCutoff="1.0000000000000000"/>
      <sparseX i="178" alpha="-16416.719978053643" sparseCutoff="1.0000000000000000"/>
      <sparseX i="179" alpha="-7911.8536674076631" sparseCutoff="1.0000000000000000"/>
      <sparseX i="180" alpha="15606.971103356851" sparseCutoff="1.0000000000000000"/>
      <sparseX i="181" alpha="-3266.4831771900112" sparseCutoff="1.0000000000000000"/>
      <sparseX i="182" alpha="-1191.0118589604581" sparseCutoff="1.0000000000000000"/>
      <sparseX i="183" alpha="2726.1396078239741" sparseCutoff="1.0000000000000000"/>
      <sparseX i="184" alpha="-16721.812632846875" sparseCutoff="1.0000000000000000"/>
      <sparseX i="185" alpha="-11424.052618785046" sparseCutoff="1.0000000000000000"/>
      <sparseX i="186" alpha="-20462.931080456339" sparseCutoff="1.0000000000000000"/>
      <sparseX i="187" alpha="-756.32275858702064" sparseCutoff="1.0000000000000000"/>
      <sparseX i="188" alpha="-33409.066005100969" sparseCutoff="1.0000000000000000"/>
      <sparseX i="189" alpha="-29437.031850098625" sparseCutoff="1.0000000000000000"/>
      <sparseX i="190" alpha="26613.924531012919" sparseCutoff="1.0000000000000000"/>
      <sparseX i="191" alpha="-27323.748740402458" sparseCutoff="1.0000000000000000"/>
      <sparseX i="192" alpha="-3776.1836823454591" sparseCutoff="1.0000000000000000"/>
      <sparseX i="193" alpha="15738.970776931164" sparseCutoff="1.0000000000000000"/>
      <sparseX i="194" alpha="-10021.995750289652" sparseCutoff="1.0000000000000000"/>
      <sparseX i="195" alpha="9513.8589979205190" sparseCutoff="1.0000000000000000"/>
      <sparseX i="196" alpha="-2016.1597461657955" sparseCutoff="1.0000000000000000"/>
      <sparseX i="197" alpha="9139.5605070790880" sparseCutoff="1.0000000000000000"/>
      <sparseX i="198" alpha="2135.7716506412748" sparseCutoff="1.0000000000000000"/>
      <sparseX i="199" alpha="-795.62792534811013" sparseCutoff="1.0000000000000000"/>
      <sparseX i="200" alpha="24045.090617845439" sparseCutoff="1.0000000000000000"/>
      <sparseX i="201" alpha="-7850.5069866929653" sparseCutoff="1.0000000000000000"/>
      <sparseX i="202" alpha="-36570.406034215506" sparseCutoff="1.0000000000000000"/>
      <sparseX i="203" alpha="4895.0066638884437" sparseCutoff="1.0000000000000000"/>
      <sparseX i="204" alpha="-46302.199647857196" sparseCutoff="1.0000000000000000"/>
      <sparseX i="205" alpha="10158.064403965913" sparseCutoff="1.0000000000000000"/>
      <sparseX i="206" alpha="10824.135381262935" sparseCutoff="1.0000000000000000"/>
      <sparseX i="207" alpha="-6168.6058743833401" sparseCutoff="1.0000000000000000"/>
      <sparseX i="208" alpha="22204.712967640462" sparseCutoff="1.0000000000000000"/>
      <sparseX i="209" alpha="8304.5040976507735" sparseCutoff="1.0000000000000000"/>
      <sparseX i="210" alpha="-8134.6111494508987" sparseCutoff="1.0000000000000000"/>
      <sparseX i="211" alpha="6352.5443110919286" sparseCutoff="1.0000000000000000"/>
      <sparseX i="212" alpha="-1530.9065091456698" sparseCutoff="1.0000000000000000"/>
      <sparseX i="213" alpha="28638.224494959723" sparseCutoff="1.0000000000000000"/>
      <sparseX i="214" alpha="-4706.2581893318438" sparseCutoff="1.0000000000000000"/>
      <sparseX i="215" alpha="29164.825020168097" sparseCutoff="1.0000000000000000"/>
      <sparseX i="216" alpha="3872.9648542882228" sparseCutoff="1.0000000000000000"/>
      <sparseX i="217" alpha="-8935.7719991633439" sparseCutoff="1.0000000000000000"/>
      <sparseX i="218" alpha="16663.446163081822" sparseCutoff="1.0000000000000000"/>
      <sparseX i="219" alpha="8274.2732103380731" sparseCutoff="1.0000000000000000"/>
      <sparseX i="220" alpha="4828.8950370314633" sparseCutoff="1.0000000000000000"/>
      <sparseX i="221" alpha="-1113.9617372894395" sparseCutoff="1.0000000000000000"/>
      <sparseX i="222" alpha="-31443.782577463793" sparseCutoff="1.0000000000000000"/>
      <sparseX i="223" alpha="2228.7040572825285" sparseCutoff="1.0000000000000000"/>
      <sparseX i="224" alpha="-1905.0531941168119" sparseCutoff="1.0000000000000000"/>
      <sparseX i="225" alpha="24039.515535863080" sparseCutoff="1.0000000000000000"/>
      <sparseX i="226" alpha="-18156.837365451742" sparseCutoff="1.0000000000000000"/>
      <sparseX i="227" alpha="4745.7100259630197" sparseCutoff="1.0000000000000000"/>
      <sparseX i="228" alpha="-29659.868226163013" sparseCutoff="1.0000000000000000"/>
      <sparseX i="229" alpha="1075.6260743353446" sparseCutoff="1.0000000000000000"/>
      <sparseX i="230" alpha="16687.629020157459" sparseCutoff="1.0000000000000000"/>
      <sparseX i="231" alpha="29802.463438657909" sparseCutoff="1.0000000000000000"/>
      <sparseX i="232" alpha="12634.888702263586" sparseCutoff="1.0000000000000000"/>
      <sparseX i="233" alpha="4073.8274631661911" sparseCutoff="1.0000000000000000"/>
      <sparseX i="234" alpha="6893.1874010790580" sparseCutoff="1.0000000000000000"/>
      <sparseX i="235" alpha="143.69070360079451" sparseCutoff="1.0000000000000000"/>
      <sparseX i="236" alpha="-2645.7434199866734" sparseCutoff="1.0000000000000000"/>
      <sparseX i="237" alpha="-1661.5056694431962" sparseCutoff="1.0000000000000000"/>
      <sparseX i="238" alpha="-426.49339166801855" sparseCutoff="1.0000000000000000"/>
      <sparseX i="239" alpha="-6827.1737286586394" sparseCutoff="1.0000000000000000"/>
      <sparseX i="240" alpha="-9048.0445374194660" sparseCutoff="1.0000000000000000"/>
      <sparseX i="241" alpha="-27099.984162925219" sparseCutoff="1.0000000000000000"/>
      <sparseX i="242" alpha="3930.7425776282730" sparseCutoff="1.0000000000000000"/>
      <sparseX i="243" alpha="-21974.035914766155" sparseCutoff="1.0000000000000000"/>
      <sparseX i="244" alpha="-26556.733783567139" sparseCutoff="1.0000000000000000"/>
      <sparseX i="245" alpha="-7090.7669150272159" sparseCutoff="1.0000000000000000"/>
      <sparseX i="246" alpha="25366.145695703133" sparseCutoff="1.0000000000000000"/>
      <sparseX i="247" alpha="4151.7082482219230" sparseCutoff="1.0000000000000000"/>
      <sparseX i="248" alpha="-1304.7386907284208" sparseCutoff="1.0000000000000000"/>
      <sparseX i="249" alpha="-19105.295360257682" sparseCutoff="1.0000000000000000"/>
      <sparseX i="250" alpha="10372.200454945574" sparseCutoff="1.0000000000000000"/>
      <sparseX i="251" alpha="11922.811573402261" sparseCutoff="1.0000000000000000"/>
      <sparseX i="252" alpha="21843.705707294266" sparseCutoff="1.0000000000000000"/>
      <sparseX i="253" alpha="-7601.0004863636823" sparseCutoff="1.0000000000000000"/>
      <sparseX i="254" alpha="576.79092016246898" sparseCutoff="1.0000000000000000"/>
      <sparseX i="255" alpha="6501.5089313368444" sparseCutoff="1.0000000000000000"/>
      <sparseX i="256" alpha="-1307.1234871468907" sparseCutoff="1.0000000000000000"/>
      <sparseX i="257" alpha="-11204.933798339847" sparseCutoff="1.0000000000000000"/>
      <sparseX i="258" alpha="23564.355649443656" sparseCutoff="1.0000000000000000"/>
      <sparseX i="259" alpha="1566.2759925680743" sparseCutoff="1.0000000000000000"/>
      <sparseX i="260" alpha="35913.341931160452" sparseCutoff="1.0000000000000000"/>
      <sparseX i="261" alpha="16133.003516172832" sparseCutoff="1.0000000000000000"/>
      <sparseX i="262" alpha="-21617.829568372006" sparseCutoff="1.0000000000000000"/>
      <sparseX i="263" alpha="18684.794412657226" sparseCutoff="1.0000000000000000"/>
      <sparseX i="264" alpha="-18115.878705361974" sparseCutoff="1.0000000000000000"/>
      <sparseX i="265" alpha="-7003.1480274176420" sparseCutoff="1.0000000000000000"/>
      <sparseX i="266" alpha="-8609.9269400325520" sparseCutoff="1.0000000000000000"/>
      <sparseX i="267" alpha="1817.8693599791263" sparseCutoff="1.0000000000000000"/>
      <sparseX i="268" alpha="-25135.505350930507" sparseCutoff="1.0000000000000000"/>
      <sparseX i="269" alpha="-5362.0389831172670" sparseCutoff="1.0000000000000000"/>
      <sparseX i="270" alpha="-6214.4713987696778" sparseCutoff="1.0000000000000000"/>
      <sparseX i="271" alpha="-19555.644870173139" sparseCutoff="1.0000000000000000"/>
      <sparseX i="272" alpha="-10842.777572968895" sparseCutoff="1.0000000000000000"/>
      <sparseX i="273" alpha="-9096.6102645408973" sparseCutoff="1.0000000000000000"/>
      <sparseX i="274" alpha="3872.2169277942203" sparseCutoff="1.0000000000000000"/>
      <sparseX i="275" alpha="22662.223016531436" sparseCutoff="1.0000000000000000"/>
      <sparseX i="276" alpha="1995.9401983650532" sparseCutoff="1.0000000000000000"/>
      <sparseX i="277" alpha="-10734.686200697783" sparseCutoff="1.0000000000000000"/>
      <sparseX i="278" alpha="-964.82043596412700" sparseCutoff="1.0000000000000000"/>
      <sparseX i="279" alpha="-27373.152470954999" sparseCutoff="1.0000000000000000"/>
      <sparseX i="280" alpha="-21342.053572148212" sparseCutoff="1.0000000000000000"/>
      <sparseX i="281" alpha="-8100.5352748156402" sparseCutoff="1.0000000000000000"/>
      <sparseX i="282" alpha="9435.4799767139812" sparseCutoff="1.0000000000000000"/>
      <sparseX i="283" alpha="-7068.9379651940044" sparseCutoff="1.0000000000000000"/>
      <sparseX i="284" alpha="-12303.531035389138" sparseCutoff="1.0000000000000000"/>
      <sparseX i="285" alpha="10244.683033115649" sparseCutoff="1.0000000000000000"/>
      <sparseX i="286" alpha="-23259.693012364416" sparseCutoff="1.0000000000000000"/>
      <sparseX i="287" alpha="-15302.015532141117" sparseCutoff="1.0000000000000000"/>
      <sparseX i="288" alpha="3607.6673398114617" sparseCutoff="1.0000000000000000"/>
      <sparseX i="289" alpha="13281.269528805296" sparseCutoff="1.0000000000000000"/>
      <sparseX i="290" alpha="14300.688811596294" sparseCutoff="1.0000000000000000"/>
      <sparseX i="291" alpha="6913.7124447180249" sparseCutoff="1.0000000000000000"/>
      <sparseX i="292" alpha="-2756.2718483121093" sparseCutoff="1.0000000000000000"/>
      <sparseX i="293" alpha="11885.876754751227" sparseCutoff="1.0000000000000000"/>
      <sparseX i="294" alpha="-3734.4632896888552" sparseCutoff="1.0000000000000000"/>
      <sparseX i="295" alpha="-4171.8874962095997" sparseCutoff="1.0000000000000000"/>
      <sparseX i="296" alpha="-11782.822150009630" sparseCutoff="1.0000000000000000"/>
      <sparseX i="297" alpha="16344.263134419085" sparseCutoff="1.0000000000000000"/>
      <sparseX i="298" alpha="-3125.7519106271270" sparseCutoff="1.0000000000000000"/>
      <sparseX i="299" alpha="7129.9697141474180" sparseCutoff="1.0000000000000000"/>
      <sparseX i="300" alpha="821.23332916266327" sparseCutoff="1.0000000000000000"/>
      <sparseX i="301" alpha="-7147.9453813203163" sparseCutoff="1.0000000000000000"/>
      <sparseX i="302" alpha="-2207.3886438936656" sparseCutoff="1.0000000000000000"/>
      <sparseX i="303" alpha="-29702.939885882475" sparseCutoff="1.0000000000000000"/>
      <sparseX i="304" alpha="16164.280097436791" sparseCutoff="1.0000000000000000"/>
      <sparseX i="305" alpha="10937.865002269926" sparseCutoff="1.0000000000000000"/>
      <sparseX i="306" alpha="11131.271258970251" sparseCutoff="1.0000000000000000"/>
      <sparseX i="307" alpha="6436.8846482020799" sparseCutoff="1.0000000000000000"/>
      <sparseX i="308" alpha="-7730.8199028470463" sparseCutoff="1.0000000000000000"/>
      <sparseX i="309" alpha="3766.4932252303083" sparseCutoff="1.0000000000000000"/>
      <sparseX i="310" alpha="-6372.6137218193335" sparseCutoff="1.0000000000000000"/>
      <sparseX i="311" alpha="23627.472057134826" sparseCutoff="1.0000000000000000"/>
      <sparseX i="312" alpha="-13667.738728941991" sparseCutoff="1.0000000000000000"/>
      <sparseX i="313" alpha="-2369.7248797213206" sparseCutoff="1.0000000000000000"/>
      <sparseX i="314" alpha="-129.65957040249737" sparseCutoff="1.0000000000000000"/>
      <sparseX i="315" alpha="-9699.9436966439625" sparseCutoff="1.0000000000000000"/>
      <sparseX i="316" alpha="-1472.9199669136688" sparseCutoff="1.0000000000000000"/>
      <sparseX i="317" alpha="19853.575573611637" sparseCutoff="1.0000000000000000"/>
      <sparseX i="318" alpha="-3024.3878272844372" sparseCutoff="1.0000000000000000"/>
      <sparseX i="319" alpha="1419.7402501705296" sparseCutoff="1.0000000000000000"/>
      <sparseX i="320" alpha="8706.7803437092280" sparseCutoff="1.0000000000000000"/>
      <sparseX i="321" alpha="3732.0159615211696" sparseCutoff="1.0000000000000000"/>
      <sparseX i="322" alpha="-4975.1167479927180" sparseCutoff="1.0000000000000000"/>
      <sparseX i="323" alpha="451.99464791374970" sparseCutoff="1.0000000000000000"/>
      <sparseX i="324" alpha="-523.44086392302370" sparseCutoff="1.0000000000000000"/>
      <sparseX i="325" alpha="-11655.232103434284" sparseCutoff="1.0000000000000000"/>
      <sparseX i="326" alpha="-4666.2298577905940" sparseCutoff="1.0000000000000000"/>
      <sparseX i="327" alpha="-6766.9284784968013" sparseCutoff="1.0000000000000000"/>
      <sparseX i="328" alpha="18303.977299456772" sparseCutoff="1.0000000000000000"/>
      <sparseX i="329" alpha="13835.598233261289" sparseCutoff="1.0000000000000000"/>
      <sparseX i="330" alpha="18166.477164900611" sparseCutoff="1.0000000000000000"/>
      <sparseX i="331" alpha="-29847.998738944119" sparseCutoff="1.0000000000000000"/>
      <sparseX i="332" alpha="1654.6336460814352" sparseCutoff="1.0000000000000000"/>
      <sparseX i="333" alpha="-26462.116723712392" sparseCutoff="1.0000000000000000"/>
      <sparseX i="334" alpha="16488.955723154791" sparseCutoff="1.0000000000000000"/>
      <sparseX i="335" alpha="20760.853286760514" sparseCutoff="1.0000000000000000"/>
      <sparseX i="336" alpha="-8794.3419771874505" sparseCutoff="1.0000000000000000"/>
      <sparseX i="337" alpha="-15755.660985688790" sparseCutoff="1.0000000000000000"/>
      <sparseX i="338" alpha="15764.051094875644" sparseCutoff="1.0000000000000000"/>
      <sparseX i="339" alpha="-1542.3771428527443" sparseCutoff="1.0000000000000000"/>
      <sparseX i="340" alpha="-2172.1599120651304" sparseCutoff="1.0000000000000000"/>
      <sparseX i="341" alpha="9758.6686894997219" sparseCutoff="1.0000000000000000"/>
      <sparseX i="342" alpha="473.17219508727817" sparseCutoff="1.0000000000000000"/>
      <sparseX i="343" alpha="-20196.143588920611" sparseCutoff="1.0000000000000000"/>
      <sparseX i="344" alpha="-9000.6596359497034" sparseCutoff="1.0000000000000000"/>
      <sparseX i="345" alpha="-6481.9045578633231" sparseCutoff="1.0000000000000000"/>
      <sparseX i="346" alpha="2145.0669558926147" sparseCutoff="1.0000000000000000"/>
      <sparseX i="347" alpha="-1841.4731462335308" sparseCutoff="1.0000000000000000"/>
      <sparseX i="348" alpha="-2845.9807577467445" sparseCutoff="1.0000000000000000"/>
      <sparseX i="349" alpha="40729.221769606746" sparseCutoff="1.0000000000000000"/>
      <sparseX i="350" alpha="-26646.628848648554" sparseCutoff="1.0000000000000000"/>
      <sparseX i="351" alpha="-11175.384735313990" sparseCutoff="1.0000000000000000"/>
      <sparseX i="352" alpha="1987.7641717593258" sparseCutoff="1.0000000000000000"/>
      <sparseX i="353" alpha="-3363.6632141951836" sparseCutoff="1.0000000000000000"/>
      <sparseX i="354" alpha="-22378.183277192460" sparseCutoff="1.0000000000000000"/>
      <sparseX i="355" alpha="-14096.086211466551" sparseCutoff="1.0000000000000000"/>
      <sparseX i="356" alpha="6174.1697998586424" sparseCutoff="1.0000000000000000"/>
      <sparseX i="357" alpha="-3955.8041123486346" sparseCutoff="1.0000000000000000"/>
      <sparseX i="358" alpha="4313.5046275383693" sparseCutoff="1.0000000000000000"/>
      <sparseX i="359" alpha="-3778.0254409656964" sparseCutoff="1.0000000000000000"/>
      <sparseX i="360" alpha="-11002.528622875740" sparseCutoff="1.0000000000000000"/>
      <sparseX i="361" alpha="17768.004364999997" sparseCutoff="1.0000000000000000"/>
      <sparseX i="362" alpha="-22807.075177354403" sparseCutoff="1.0000000000000000"/>
      <sparseX i="363" alpha="8092.1676960952318" sparseCutoff="1.0000000000000000"/>
      <sparseX i="364" alpha="9036.3946766630197" sparseCutoff="1.0000000000000000"/>
      <sparseX i="365" alpha="19320.027833808505" sparseCutoff="1.0000000000000000"/>
      <sparseX i="366" alpha="-10415.049243790278" sparseCutoff="1.0000000000000000"/>
      <sparseX i="367" alpha="-646.04684263084141" sparseCutoff="1.0000000000000000"/>
      <sparseX i="368" alpha="-7741.2303228111205" sparseCutoff="1.0000000000000000"/>
      <sparseX i="369" alpha="-28783.504082225991" sparseCutoff="1.0000000000000000"/>
      <sparseX i="370" alpha="15576.482775496735" sparseCutoff="1.0000000000000000"/>
      <sparseX i="371" alpha="46651.103184934254" sparseCutoff="1.0000000000000000"/>
      <sparseX i="372" alpha="3916.8797505756006" sparseCutoff="1.0000000000000000"/>
      <sparseX i="373" alpha="15513.015653161101" sparseCutoff="1.0000000000000000"/>
      <sparseX i="374" alpha="-15633.495993533934" sparseCutoff="1.0000000000000000"/>
      <sparseX i="375" alpha="2875.3421900608400" sparseCutoff="1.0000000000000000"/>
      <sparseX i="376" alpha="-5451.0985597835079" sparseCutoff="1.0000000000000000"/>
      <sparseX i="377" alpha="-23367.948871692981" sparseCutoff="1.0000000000000000"/>
      <sparseX i="378" alpha="4112.8207946832463" sparseCutoff="1.0000000000000000"/>
      <sparseX i="379" alpha="-18798.990421931700" sparseCutoff="1.0000000000000000"/>
      <sparseX i="380" alpha="9373.2587240580742" sparseCutoff="1.0000000000000000"/>
      <sparseX i="381" alpha="7536.5137329815025" sparseCutoff="1.0000000000000000"/>
      <sparseX i="382" alpha="4982.8544960822783" sparseCutoff="1.0000000000000000"/>
      <sparseX i="383" alpha="3804.0471780206635" sparseCutoff="1.0000000000000000"/>
      <sparseX i="384" alpha="-12802.241790515051" sparseCutoff="1.0000000000000000"/>
      <sparseX i="385" alpha="42205.694661128298" sparseCutoff="1.0000000000000000"/>
      <sparseX i="386" alpha="-4375.4028443895486" sparseCutoff="1.0000000000000000"/>
      <sparseX i="387" alpha="-38115.605187388006" sparseCutoff="1.0000000000000000"/>
      <sparseX i="388" alpha=".53778090429010483" sparseCutoff="1.0000000000000000"/>
      <sparseX i="389" alpha="308.90136259656720" sparseCutoff="1.0000000000000000"/>
      <sparseX i="390" alpha="844.67841656585961" sparseCutoff="1.0000000000000000"/>
      <sparseX i="391" alpha="6112.4092634285926" sparseCutoff="1.0000000000000000"/>
      <sparseX i="392" alpha="1158.5110222594640" sparseCutoff="1.0000000000000000"/>
      <sparseX i="393" alpha="-212.72928066562810" sparseCutoff="1.0000000000000000"/>
      <sparseX i="394" alpha="4284.2533933340965" sparseCutoff="1.0000000000000000"/>
      <sparseX i="395" alpha="4664.2272954989958" sparseCutoff="1.0000000000000000"/>
      <sparseX i="396" alpha="3590.5041288297198" sparseCutoff="1.0000000000000000"/>
      <sparseX i="397" alpha="-770.79657589768021" sparseCutoff="1.0000000000000000"/>
      <sparseX i="398" alpha="3227.7658401535728" sparseCutoff="1.0000000000000000"/>
      <sparseX i="399" alpha="4977.2044768506357" sparseCutoff="1.0000000000000000"/>
      <sparseX i="400" alpha="1116.9847851223940" sparseCutoff="1.0000000000000000"/>
      <sparseX i="401" alpha="-8131.8523667304726" sparseCutoff="1.0000000000000000"/>
      <sparseX i="402" alpha="-4442.2502734326499" sparseCutoff="1.0000000000000000"/>
      <sparseX i="403" alpha="-1268.7300915021399" sparseCutoff="1.0000000000000000"/>
      <sparseX i="404" alpha="4396.3188165153588" sparseCutoff="1.0000000000000000"/>
      <sparseX i="405" alpha="7.7613478765913850" sparseCutoff="1.0000000000000000"/>
      <sparseX i="406" alpha="7923.8092636109868" sparseCutoff="1.0000000000000000"/>
      <sparseX i="407" alpha="-11653.037855892304" sparseCutoff="1.0000000000000000"/>
      <sparseX i="408" alpha="19973.292161990768" sparseCutoff="1.0000000000000000"/>
      <sparseX i="409" alpha="3271.4084296783194" sparseCutoff="1.0000000000000000"/>
      <sparseX i="410" alpha="-5164.2518373733492" sparseCutoff="1.0000000000000000"/>
      <sparseX i="411" alpha="-11886.363405477985" sparseCutoff="1.0000000000000000"/>
      <sparseX i="412" alpha="1640.4706643598338" sparseCutoff="1.0000000000000000"/>
      <sparseX i="413" alpha="15371.022856541198" sparseCutoff="1.0000000000000000"/>
      <sparseX i="414" alpha="14958.861343567920" sparseCutoff="1.0000000000000000"/>
      <sparseX i="415" alpha="1951.1094977983905" sparseCutoff="1.0000000000000000"/>
      <sparseX i="416" alpha="-29385.968438892327" sparseCutoff="1.0000000000000000"/>
      <sparseX i="417" alpha="588.06113766299529" sparseCutoff="1.0000000000000000"/>
      <sparseX i="418" alpha="6370.8507901356361" sparseCutoff="1.0000000000000000"/>
      <sparseX i="419" alpha="4979.1825718421605" sparseCutoff="1.0000000000000000"/>
      <sparseX i="420" alpha="-1932.7210382731853" sparseCutoff="1.0000000000000000"/>
      <sparseX i="421" alpha="18092.930156643582" sparseCutoff="1.0000000000000000"/>
      <sparseX i="422" alpha="-33303.718805617478" sparseCutoff="1.0000000000000000"/>
      <sparseX i="423" alpha="1147.4712044379273" sparseCutoff="1.0000000000000000"/>
      <sparseX i="424" alpha="-10930.710679160678" sparseCutoff="1.0000000000000000"/>
      <sparseX i="425" alpha="12349.090441265338" sparseCutoff="1.0000000000000000"/>
      <sparseX i="426" alpha="-5526.1162257173492" sparseCutoff="1.0000000000000000"/>
      <sparseX i="427" alpha="111.47497483965766" sparseCutoff="1.0000000000000000"/>
      <sparseX i="428" alpha="-34512.656264497753" sparseCutoff="1.0000000000000000"/>
      <sparseX i="429" alpha="-31745.144315609370" sparseCutoff="1.0000000000000000"/>
      <sparseX i="430" alpha="-5912.8495685764583" sparseCutoff="1.0000000000000000"/>
      <sparseX i="431" alpha="-28281.909003908866" sparseCutoff="1.0000000000000000"/>
      <sparseX i="432" alpha="33596.241816065645" sparseCutoff="1.0000000000000000"/>
      <sparseX i="433" alpha="-19552.739512724434" sparseCutoff="1.0000000000000000"/>
      <sparseX i="434" alpha="-17728.160385359803" sparseCutoff="1.0000000000000000"/>
      <sparseX i="435" alpha="30541.104574358706" sparseCutoff="1.0000000000000000"/>
      <sparseX i="436" alpha="-349.32786357951898" sparseCutoff="1.0000000000000000"/>
      <sparseX i="437" alpha="-1624.3375187763961" sparseCutoff="1.0000000000000000"/>
      <sparseX i="438" alpha="-20774.713594047502" sparseCutoff="1.0000000000000000"/>
      <sparseX i="439" alpha="34166.139630293284" sparseCutoff="1.0000000000000000"/>
      <sparseX i="440" alpha="22101.046348164607" sparseCutoff="1.0000000000000000"/>
      <sparseX i="441" alpha="11006.545211073377" sparseCutoff="1.0000000000000000"/>
      <sparseX i="442" alpha="-21597.950780120806" sparseCutoff="1.0000000000000000"/>
      <sparseX i="443" alpha="3434.2363564559191" sparseCutoff="1.0000000000000000"/>
      <sparseX i="444" alpha="-18906.776754215611" sparseCutoff="1.0000000000000000"/>
      <sparseX i="445" alpha="2090.3596753626598" sparseCutoff="1.0000000000000000"/>
      <sparseX i="446" alpha="15354.502507562152" sparseCutoff="1.0000000000000000"/>
      <sparseX i="447" alpha="-1222.2864176457404" sparseCutoff="1.0000000000000000"/>
      <sparseX i="448" alpha="-33471.819325688397" sparseCutoff="1.0000000000000000"/>
      <sparseX i="449" alpha="-545.27293772275857" sparseCutoff="1.0000000000000000"/>
      <sparseX i="450" alpha="844.41844512066359" sparseCutoff="1.0000000000000000"/>
      <sparseX i="451" alpha="-27964.799764383835" sparseCutoff="1.0000000000000000"/>
      <sparseX i="452" alpha="2649.8460735969243" sparseCutoff="1.0000000000000000"/>
      <sparseX i="453" alpha="26469.590520647405" sparseCutoff="1.0000000000000000"/>
      <sparseX i="454" alpha="6110.1008643415926" sparseCutoff="1.0000000000000000"/>
      <sparseX i="455" alpha="-34040.563278682537" sparseCutoff="1.0000000000000000"/>
      <sparseX i="456" alpha="-15919.954363614777" sparseCutoff="1.0000000000000000"/>
      <sparseX i="457" alpha="-5266.1474941863635" sparseCutoff="1.0000000000000000"/>
      <sparseX i="458" alpha="53737.593864278751" sparseCutoff="1.0000000000000000"/>
      <sparseX i="459" alpha="-16110.541021409705" sparseCutoff="1.0000000000000000"/>
      <sparseX i="460" alpha="1627.4672521817326" sparseCutoff="1.0000000000000000"/>
      <sparseX i="461" alpha="303.92406897713869" sparseCutoff="1.0000000000000000"/>
      <sparseX i="462" alpha="-864.62473300020179" sparseCutoff="1.0000000000000000"/>
      <sparseX i="463" alpha="-908.61176401260695" sparseCutoff="1.0000000000000000"/>
      <sparseX i="464" alpha="-466.74358952585749" sparseCutoff="1.0000000000000000"/>
      <sparseX i="465" alpha="2130.8768951291472" sparseCutoff="1.0000000000000000"/>
      <sparseX i="466" alpha="2294.3417807192127" sparseCutoff="1.0000000000000000"/>
      <sparseX i="467" alpha="4933.2393558651675" sparseCutoff="1.0000000000000000"/>
      <sparseX i="468" alpha="3149.4866883980540" sparseCutoff="1.0000000000000000"/>
      <sparseX i="469" alpha="2772.7492194502597" sparseCutoff="1.0000000000000000"/>
      <sparseX i="470" alpha="1617.3365330205961" sparseCutoff="1.0000000000000000"/>
      <sparseX i="471" alpha="5863.8512571877618" sparseCutoff="1.0000000000000000"/>
      <sparseX i="472" alpha="-1261.7468769804379" sparseCutoff="1.0000000000000000"/>
      <sparseX i="473" alpha="3162.4035530531705" sparseCutoff="1.0000000000000000"/>
      <sparseX i="474" alpha="1537.6248183420132" sparseCutoff="1.0000000000000000"/>
      <sparseX i="475" alpha="2482.2081465295046" sparseCutoff="1.0000000000000000"/>
      <sparseX i="476" alpha="-934.69669805220860" sparseCutoff="1.0000000000000000"/>
      <sparseX i="477" alpha="1298.3061632328854" sparseCutoff="1.0000000000000000"/>
      <sparseX i="478" alpha="2829.0384877456640" sparseCutoff="1.0000000000000000"/>
      <sparseX i="479" alpha="3458.1451266474533" sparseCutoff="1.0000000000000000"/>
      <sparseX i="480" alpha="365.10703811582005" sparseCutoff="1.0000000000000000"/>
      <sparseX i="481" alpha="2144.1621889781172" sparseCutoff="1.0000000000000000"/>
      <sparseX i="482" alpha="-3060.5833628554697" sparseCutoff="1.0000000000000000"/>
      <sparseX i="483" alpha="5614.5534286581242" sparseCutoff="1.0000000000000000"/>
      <sparseX i="484" alpha="-1902.3996997879065" sparseCutoff="1.0000000000000000"/>
      <sparseX i="485" alpha="-4021.8278987922881" sparseCutoff="1.0000000000000000"/>
      <sparseX i="486" alpha="-203.69598629084888" sparseCutoff="1.0000000000000000"/>
      <sparseX i="487" alpha="5234.2970213299232" sparseCutoff="1.0000000000000000"/>
      <sparseX i="488" alpha="-4735.7532003352944" sparseCutoff="1.0000000000000000"/>
      <sparseX i="489" alpha="-4250.8760788145319" sparseCutoff="1.0000000000000000"/>
      <sparseX i="490" alpha="149.16611559743328" sparseCutoff="1.0000000000000000"/>
      <sparseX i="491" alpha="8312.7927206995319" sparseCutoff="1.0000000000000000"/>
      <sparseX i="492" alpha="-508.75486578878071" sparseCutoff="1.0000000000000000"/>
      <sparseX i="493" alpha="9169.8860604025576" sparseCutoff="1.0000000000000000"/>
      <sparseX i="494" alpha="2156.6510563414404" sparseCutoff="1.0000000000000000"/>
      <sparseX i="495" alpha="-53.461038134634954" sparseCutoff="1.0000000000000000"/>
      <sparseX i="496" alpha="2757.9182071432601" sparseCutoff="1.0000000000000000"/>
      <sparseX i="497" alpha="8870.2478452624237" sparseCutoff="1.0000000000000000"/>
      <sparseX i="498" alpha="-1945.1722534909911" sparseCutoff="1.0000000000000000"/>
      <sparseX i="499" alpha="2650.7565299423168" sparseCutoff="1.0000000000000000"/>
      <sparseX i="500" alpha="-1303.8983583528527" sparseCutoff="1.0000000000000000"/>
      <sparseX i="501" alpha="3151.3358557945039" sparseCutoff="1.0000000000000000"/>
      <sparseX i="502" alpha="3760.4382835117908" sparseCutoff="1.0000000000000000"/>
      <sparseX i="503" alpha="-5413.4578882254837" sparseCutoff="1.0000000000000000"/>
      <sparseX i="504" alpha="886.73995197132933" sparseCutoff="1.0000000000000000"/>
      <sparseX i="505" alpha="-8486.4612335634138" sparseCutoff="1.0000000000000000"/>
      <sparseX i="506" alpha="5818.5778084480999" sparseCutoff="1.0000000000000000"/>
      <sparseX i="507" alpha="-3325.9390740686754" sparseCutoff="1.0000000000000000"/>
      <sparseX i="508" alpha="2690.2183831774814" sparseCutoff="1.0000000000000000"/>
      <sparseX i="509" alpha="-7133.9885653025603" sparseCutoff="1.0000000000000000"/>
      <sparseX i="510" alpha="-5759.1504439986684" sparseCutoff="1.0000000000000000"/>
      <sparseX i="511" alpha="-21990.812517461225" sparseCutoff="1.0000000000000000"/>
      <sparseX i="512" alpha="2433.4843879054870" sparseCutoff="1.0000000000000000"/>
      <sparseX i="513" alpha="-8285.2007391141760" sparseCutoff="1.0000000000000000"/>
      <sparseX i="514" alpha="4202.0468093718155" sparseCutoff="1.0000000000000000"/>
      <sparseX i="515" alpha="1414.2579282191643" sparseCutoff="1.0000000000000000"/>
      <sparseX i="516" alpha="-1714.1833745555889" sparseCutoff="1.0000000000000000"/>
      <sparseX i="517" alpha="7418.2463561212835" sparseCutoff="1.0000000000000000"/>
      <sparseX i="518" alpha="562.54313896336316" sparseCutoff="1.0000000000000000"/>
      <sparseX i="519" alpha="-3058.2355239516246" sparseCutoff="1.0000000000000000"/>
      <sparseX i="520" alpha="-1522.4314843200789" sparseCutoff="1.0000000000000000"/>
      <sparseX i="521" alpha="2274.2854127647543" sparseCutoff="1.0000000000000000"/>
      <sparseX i="522" alpha="-10787.477389042404" sparseCutoff="1.0000000000000000"/>
      <sparseX i="523" alpha="-5957.7088628329757" sparseCutoff="1.0000000000000000"/>
      <sparseX i="524" alpha="4718.2676155855797" sparseCutoff="1.0000000000000000"/>
      <sparseX i="525" alpha="1556.1970050254454" sparseCutoff="1.0000000000000000"/>
      <sparseX i="526" alpha="-10994.710924958348" sparseCutoff="1.0000000000000000"/>
      <sparseX i="527" alpha="-2580.0764854712052" sparseCutoff="1.0000000000000000"/>
      <sparseX i="528" alpha="4314.2942037496241" sparseCutoff="1.0000000000000000"/>
      <sparseX i="529" alpha="-1194.3732767944898" sparseCutoff="1.0000000000000000"/>
      <sparseX i="530" alpha="17.315464615989118" sparseCutoff="1.0000000000000000"/>
      <sparseX i="531" alpha="-15515.911418715856" sparseCutoff="1.0000000000000000"/>
      <sparseX i="532" alpha="-5658.4861768763703" sparseCutoff="1.0000000000000000"/>
      <sparseX i="533" alpha="3284.7111709123797" sparseCutoff="1.0000000000000000"/>
      <sparseX i="534" alpha="4866.1007225212825" sparseCutoff="1.0000000000000000"/>
      <sparseX i="535" alpha="4675.0686012404694" sparseCutoff="1.0000000000000000"/>
      <sparseX i="536" alpha="6026.0343221835619" sparseCutoff="1.0000000000000000"/>
      <sparseX i="537" alpha="6612.4335385767554" sparseCutoff="1.0000000000000000"/>
      <sparseX i="538" alpha="3949.2996129133435" sparseCutoff="1.0000000000000000"/>
      <sparseX i="539" alpha="6423.9657882115762" sparseCutoff="1.0000000000000000"/>
      <sparseX i="540" alpha="1514.5628280114195" sparseCutoff="1.0000000000000000"/>
      <sparseX i="541" alpha="5075.4722322720427" sparseCutoff="1.0000000000000000"/>
      <sparseX i="542" alpha="8886.3568714961766" sparseCutoff="1.0000000000000000"/>
      <sparseX i="543" alpha="-2168.4772482790613" sparseCutoff="1.0000000000000000"/>
      <sparseX i="544" alpha="3825.9892444022607" sparseCutoff="1.0000000000000000"/>
      <sparseX i="545" alpha="8072.3467364022827" sparseCutoff="1.0000000000000000"/>
      <sparseX i="546" alpha="-5176.7803153905388" sparseCutoff="1.0000000000000000"/>
      <sparseX i="547" alpha="-6566.9252035807185" sparseCutoff="1.0000000000000000"/>
      <sparseX i="548" alpha="-3605.8072192902760" sparseCutoff="1.0000000000000000"/>
      <sparseX i="549" alpha="5892.0858444716987" sparseCutoff="1.0000000000000000"/>
      <sparseX i="550" alpha="-113.26715262535487" sparseCutoff="1.0000000000000000"/>
      <sparseX i="551" alpha="1357.4797072239096" sparseCutoff="1.0000000000000000"/>
      <sparseX i="552" alpha="-2688.9790468577762" sparseCutoff="1.0000000000000000"/>
      <sparseX i="553" alpha="3366.1415200559918" sparseCutoff="1.0000000000000000"/>
      <sparseX i="554" alpha="-154.84567267831929" sparseCutoff="1.0000000000000000"/>
      <sparseX i="555" alpha="-4473.3537144699567" sparseCutoff="1.0000000000000000"/>
      <sparseX i="556" alpha="-2633.8325784591252" sparseCutoff="1.0000000000000000"/>
      <sparseX i="557" alpha="1934.5306686026413" sparseCutoff="1.0000000000000000"/>
      <sparseX i="558" alpha="2363.7621181813161" sparseCutoff="1.0000000000000000"/>
      <sparseX i="559" alpha="2086.2422613364602" sparseCutoff="1.0000000000000000"/>
      <sparseX i="560" alpha="-14414.918287563356" sparseCutoff="1.0000000000000000"/>
      <sparseX i="561" alpha="-7415.0012322970751" sparseCutoff="1.0000000000000000"/>
      <sparseX i="562" alpha="-32059.420465769868" sparseCutoff="1.0000000000000000"/>
      <sparseX i="563" alpha="-1794.6194235191977" sparseCutoff="1.0000000000000000"/>
      <sparseX i="564" alpha="-1368.8012850646833" sparseCutoff="1.0000000000000000"/>
      <sparseX i="565" alpha="6795.3482107460941" sparseCutoff="1.0000000000000000"/>
      <sparseX i="566" alpha="-9320.9346598170887" sparseCutoff="1.0000000000000000"/>
      <sparseX i="567" alpha="956.72039304980558" sparseCutoff="1.0000000000000000"/>
      <sparseX i="568" alpha="-39448.407009198934" sparseCutoff="1.0000000000000000"/>
      <sparseX i="569" alpha="12562.586340434074" sparseCutoff="1.0000000000000000"/>
      <sparseX i="570" alpha="-7500.3696742472939" sparseCutoff="1.0000000000000000"/>
      <sparseX i="571" alpha="-17269.714343922555" sparseCutoff="1.0000000000000000"/>
      <sparseX i="572" alpha="-12206.945413066680" sparseCutoff="1.0000000000000000"/>
      <sparseX i="573" alpha="-86.422275122941329" sparseCutoff="1.0000000000000000"/>
      <sparseX i="574" alpha="-4671.7766152709746" sparseCutoff="1.0000000000000000"/>
      <sparseX i="575" alpha="-4247.5187848428941" sparseCutoff="1.0000000000000000"/>
      <sparseX i="576" alpha="-5827.1294530483574" sparseCutoff="1.0000000000000000"/>
      <sparseX i="577" alpha="2578.7888469115064" sparseCutoff="1.0000000000000000"/>
      <sparseX i="578" alpha="-9627.0138524151098" sparseCutoff="1.0000000000000000"/>
      <sparseX i="579" alpha="15341.500123809683" sparseCutoff="1.0000000000000000"/>
      <sparseX i="580" alpha="11838.737327019553" sparseCutoff="1.0000000000000000"/>
      <sparseX i="581" alpha="18462.254948198028" sparseCutoff="1.0000000000000000"/>
      <sparseX i="582" alpha="11137.451177869440" sparseCutoff="1.0000000000000000"/>
      <sparseX i="583" alpha="5756.8830510330827" sparseCutoff="1.0000000000000000"/>
      <sparseX i="584" alpha="-5479.2403482142845" sparseCutoff="1.0000000000000000"/>
      <sparseX i="585" alpha="18791.480563985671" sparseCutoff="1.0000000000000000"/>
      <sparseX i="586" alpha="3122.5701888769736" sparseCutoff="1.0000000000000000"/>
      <sparseX i="587" alpha="9923.2865669504754" sparseCutoff="1.0000000000000000"/>
      <sparseX i="588" alpha="-11533.706758020651" sparseCutoff="1.0000000000000000"/>
      <sparseX i="589" alpha="-12381.368472450558" sparseCutoff="1.0000000000000000"/>
      <sparseX i="590" alpha="-34769.129508138605" sparseCutoff="1.0000000000000000"/>
      <sparseX i="591" alpha="-5365.2629274571818" sparseCutoff="1.0000000000000000"/>
      <sparseX i="592" alpha="52744.708531964105" sparseCutoff="1.0000000000000000"/>
      <sparseX i="593" alpha="5884.5320420403668" sparseCutoff="1.0000000000000000"/>
      <sparseX i="594" alpha="-3058.8714292056520" sparseCutoff="1.0000000000000000"/>
      <sparseX i="595" alpha="6772.8464849922038" sparseCutoff="1.0000000000000000"/>
      <sparseX i="596" alpha="-914.04692549620222" sparseCutoff="1.0000000000000000"/>
      <sparseX i="597" alpha="5182.2261162382692" sparseCutoff="1.0000000000000000"/>
      <sparseX i="598" alpha="3419.5292725549311" sparseCutoff="1.0000000000000000"/>
      <sparseX i="599" alpha="7821.9221139621077" sparseCutoff="1.0000000000000000"/>
      <sparseX i="600" alpha="1215.0259114241128" sparseCutoff="1.0000000000000000"/>
      <sparseX i="601" alpha="4964.5085227156114" sparseCutoff="1.0000000000000000"/>
      <sparseX i="602" alpha="6568.9097815774785" sparseCutoff="1.0000000000000000"/>
      <sparseX i="603" alpha="6670.6592782525113" sparseCutoff="1.0000000000000000"/>
      <sparseX i="604" alpha="4516.7756794221286" sparseCutoff="1.0000000000000000"/>
      <sparseX i="605" alpha="5044.8931264750054" sparseCutoff="1.0000000000000000"/>
      <sparseX i="606" alpha="1428.4088009691986" sparseCutoff="1.0000000000000000"/>
      <sparseX i="607" alpha="-3369.7323885814403" sparseCutoff="1.0000000000000000"/>
      <sparseX i="608" alpha="-278.92980913278700" sparseCutoff="1.0000000000000000"/>
      <sparseX i="609" alpha="7686.5623497586594" sparseCutoff="1.0000000000000000"/>
      <sparseX i="610" alpha="7627.3308403426718" sparseCutoff="1.0000000000000000"/>
      <sparseX i="611" alpha="4916.2600467904158" sparseCutoff="1.0000000000000000"/>
      <sparseX i="612" alpha="-2436.6417533947388" sparseCutoff="1.0000000000000000"/>
      <sparseX i="613" alpha="283.32096133906566" sparseCutoff="1.0000000000000000"/>
      <sparseX i="614" alpha="3624.8472690264343" sparseCutoff="1.0000000000000000"/>
      <sparseX i="615" alpha="-1411.5925158227867" sparseCutoff="1.0000000000000000"/>
      <sparseX i="616" alpha="-37.025955464151465" sparseCutoff="1.0000000000000000"/>
      <sparseX i="617" alpha="-6170.1170601570957" sparseCutoff="1.0000000000000000"/>
      <sparseX i="618" alpha="3566.0531975631857" sparseCutoff="1.0000000000000000"/>
      <sparseX i="619" alpha="11774.881414255837" sparseCutoff="1.0000000000000000"/>
      <sparseX i="620" alpha="2635.5774039675143" sparseCutoff="1.0000000000000000"/>
      <sparseX i="621" alpha="-4735.8611975887970" sparseCutoff="1.0000000000000000"/>
      <sparseX i="622" alpha="3568.9540144364209" sparseCutoff="1.0000000000000000"/>
      <sparseX i="623" alpha="700.29131617527844" sparseCutoff="1.0000000000000000"/>
      <sparseX i="624" alpha="6539.4490173735312" sparseCutoff="1.0000000000000000"/>
      <sparseX i="625" alpha="-3424.6649478238764" sparseCutoff="1.0000000000000000"/>
      <sparseX i="626" alpha="-9559.8586792501737" sparseCutoff="1.0000000000000000"/>
      <sparseX i="627" alpha="-3159.7390825750285" sparseCutoff="1.0000000000000000"/>
      <sparseX i="628" alpha="2168.3448266899063" sparseCutoff="1.0000000000000000"/>
      <sparseX i="629" alpha="3980.3505083204809" sparseCutoff="1.0000000000000000"/>
      <sparseX i="630" alpha="264.13846253356525" sparseCutoff="1.0000000000000000"/>
      <sparseX i="631" alpha="3109.5554248792582" sparseCutoff="1.0000000000000000"/>
      <sparseX i="632" alpha="-3160.0340434898903" sparseCutoff="1.0000000000000000"/>
      <sparseX i="633" alpha="-4716.7244704799768" sparseCutoff="1.0000000000000000"/>
      <sparseX i="634" alpha="-10095.988617331903" sparseCutoff="1.0000000000000000"/>
      <sparseX i="635" alpha="-4340.7009798396484" sparseCutoff="1.0000000000000000"/>
      <sparseX i="636" alpha="-8972.2031718691396" sparseCutoff="1.0000000000000000"/>
      <sparseX i="637" alpha="-5671.8946806937611" sparseCutoff="1.0000000000000000"/>
      <sparseX i="638" alpha="-8604.3674049207311" sparseCutoff="1.0000000000000000"/>
      <sparseX i="639" alpha="-11196.371226608775" sparseCutoff="1.0000000000000000"/>
      <sparseX i="640" alpha="1799.5674261460319" sparseCutoff="1.0000000000000000"/>
      <sparseX i="641" alpha="-6489.3031635392663" sparseCutoff="1.0000000000000000"/>
      <sparseX i="642" alpha="-52.526772562722833" sparseCutoff="1.0000000000000000"/>
      <sparseX i="643" alpha="-2738.9347505667279" sparseCutoff="1.0000000000000000"/>
      <sparseX i="644" alpha="-7493.8818273605893" sparseCutoff="1.0000000000000000"/>
      <sparseX i="645" alpha="-2302.1567392792826" sparseCutoff="1.0000000000000000"/>
      <sparseX i="646" alpha="-2731.4565171768463" sparseCutoff="1.0000000000000000"/>
      <sparseX i="647" alpha="11201.709599523811" sparseCutoff="1.0000000000000000"/>
      <sparseX i="648" alpha="2540.8658471798012" sparseCutoff="1.0000000000000000"/>
      <sparseX i="649" alpha="-2041.9410646199678" sparseCutoff="1.0000000000000000"/>
      <sparseX i="650" alpha="-10718.385224933358" sparseCutoff="1.0000000000000000"/>
      <sparseX i="651" alpha="-7190.3140412794246" sparseCutoff="1.0000000000000000"/>
      <sparseX i="652" alpha="967.92925579744372" sparseCutoff="1.0000000000000000"/>
      <sparseX i="653" alpha="-1396.7443555477726" sparseCutoff="1.0000000000000000"/>
      <sparseX i="654" alpha="-6493.2959745700646" sparseCutoff="1.0000000000000000"/>
      <sparseX i="655" alpha="-20321.649621704604" sparseCutoff="1.0000000000000000"/>
      <sparseX i="656" alpha="-1219.5355999065791" sparseCutoff="1.0000000000000000"/>
      <sparseX i="657" alpha="-3678.7434524398259" sparseCutoff="1.0000000000000000"/>
      <sparseX i="658" alpha="2282.1648349490492" sparseCutoff="1.0000000000000000"/>
      <sparseX i="659" alpha="16633.493624489533" sparseCutoff="1.0000000000000000"/>
      <sparseX i="660" alpha="7480.1717946229082" sparseCutoff="1.0000000000000000"/>
      <sparseX i="661" alpha="10609.367192634782" sparseCutoff="1.0000000000000000"/>
      <sparseX i="662" alpha="11061.710334351070" sparseCutoff="1.0000000000000000"/>
      <sparseX i="663" alpha="-7136.7875624665194" sparseCutoff="1.0000000000000000"/>
      <sparseX i="664" alpha="-1464.7283903105802" sparseCutoff="1.0000000000000000"/>
      <sparseX i="665" alpha="-13012.766967691905" sparseCutoff="1.0000000000000000"/>
      <sparseX i="666" alpha="-2366.6380793143740" sparseCutoff="1.0000000000000000"/>
      <sparseX i="667" alpha="1028.2159845663175" sparseCutoff="1.0000000000000000"/>
      <sparseX i="668" alpha="-3697.7900204927782" sparseCutoff="1.0000000000000000"/>
      <sparseX i="669" alpha="3099.6792746978749" sparseCutoff="1.0000000000000000"/>
      <sparseX i="670" alpha="1463.0427414710077" sparseCutoff="1.0000000000000000"/>
      <sparseX i="671" alpha="13856.646683958730" sparseCutoff="1.0000000000000000"/>
      <sparseX i="672" alpha="12199.870433793010" sparseCutoff="1.0000000000000000"/>
      <sparseX i="673" alpha="9573.6835052451497" sparseCutoff="1.0000000000000000"/>
      <sparseX i="674" alpha="-1709.3089229136458" sparseCutoff="1.0000000000000000"/>
      <sparseX i="675" alpha="5483.2952345755839" sparseCutoff="1.0000000000000000"/>
      <sparseX i="676" alpha="-2017.3234550881205" sparseCutoff="1.0000000000000000"/>
      <sparseX i="677" alpha="3912.5577318913656" sparseCutoff="1.0000000000000000"/>
      <sparseX i="678" alpha="13006.145574619066" sparseCutoff="1.0000000000000000"/>
      <sparseX i="679" alpha="6809.6394465006897" sparseCutoff="1.0000000000000000"/>
      <sparseX i="680" alpha="-10022.801687969306" sparseCutoff="1.0000000000000000"/>
      <sparseX i="681" alpha="12940.832446021177" sparseCutoff="1.0000000000000000"/>
      <sparseX i="682" alpha="-6439.6125692136729" sparseCutoff="1.0000000000000000"/>
      <sparseX i="683" alpha="2636.9768792200734" sparseCutoff="1.0000000000000000"/>
      <sparseX i="684" alpha="14385.212083452621" sparseCutoff="1.0000000000000000"/>
      <sparseX i="685" alpha="11758.772100459377" sparseCutoff="1.0000000000000000"/>
      <sparseX i="686" alpha="-13953.273123219178" sparseCutoff="1.0000000000000000"/>
      <sparseX i="687" alpha="6186.3040342629083" sparseCutoff="1.0000000000000000"/>
      <sparseX i="688" alpha="-177.05819642713050" sparseCutoff="1.0000000000000000"/>
      <sparseX i="689" alpha="5325.4874457101359" sparseCutoff="1.0000000000000000"/>
      <sparseX i="690" alpha="-20437.358909219132" sparseCutoff="1.0000000000000000"/>
      <sparseX i="691" alpha="26904.105985435101" sparseCutoff="1.0000000000000000"/>
      <sparseX i="692" alpha="-9818.2667777985826" sparseCutoff="1.0000000000000000"/>
      <sparseX i="693" alpha="-16125.187666088610" sparseCutoff="1.0000000000000000"/>
      <sparseX i="694" alpha="15540.310076144018" sparseCutoff="1.0000000000000000"/>
      <sparseX i="695" alpha="-1369.1980185164589" sparseCutoff="1.0000000000000000"/>
      <sparseX i="696" alpha="-14577.972976276084" sparseCutoff="1.0000000000000000"/>
      <sparseX i="697" alpha="4320.3459737301864" sparseCutoff="1.0000000000000000"/>
      <sparseX i="698" alpha="6780.9711472192203" sparseCutoff="1.0000000000000000"/>
      <sparseX i="699" alpha="-8533.8989700313850" sparseCutoff="1.0000000000000000"/>
      <sparseX i="700" alpha="48729.826671256938" sparseCutoff="1.0000000000000000"/>
      <sparseX i="701" alpha="20044.980755839311" sparseCutoff="1.0000000000000000"/>
      <sparseX i="702" alpha="-1471.6878772120447" sparseCutoff="1.0000000000000000"/>
      <sparseX i="703" alpha="8094.8902807069280" sparseCutoff="1.0000000000000000"/>
      <sparseX i="704" alpha="5383.5171338500777" sparseCutoff="1.0000000000000000"/>
      <sparseX i="705" alpha="4717.4926030525221" sparseCutoff="1.0000000000000000"/>
      <sparseX i="706" alpha="17582.469077596266" sparseCutoff="1.0000000000000000"/>
      <sparseX i="707" alpha="21322.139920158952" sparseCutoff="1.0000000000000000"/>
      <sparseX i="708" alpha="-19393.178125766641" sparseCutoff="1.0000000000000000"/>
      <sparseX i="709" alpha="28570.632450498095" sparseCutoff="1.0000000000000000"/>
      <sparseX i="710" alpha="-18266.505126805212" sparseCutoff="1.0000000000000000"/>
      <sparseX i="711" alpha="-9661.2050614205509" sparseCutoff="1.0000000000000000"/>
      <sparseX i="712" alpha="30305.610613114171" sparseCutoff="1.0000000000000000"/>
      <sparseX i="713" alpha="2027.8849480314541" sparseCutoff="1.0000000000000000"/>
      <sparseX i="714" alpha="-10182.698155896682" sparseCutoff="1.0000000000000000"/>
      <sparseX i="715" alpha="-15112.004344416093" sparseCutoff="1.0000000000000000"/>
      <sparseX i="716" alpha="7216.0025646923177" sparseCutoff="1.0000000000000000"/>
      <sparseX i="717" alpha="-5759.6415875533203" sparseCutoff="1.0000000000000000"/>
      <sparseX i="718" alpha="34218.585536335413" sparseCutoff="1.0000000000000000"/>
      <sparseX i="719" alpha="4405.0293566557293" sparseCutoff="1.0000000000000000"/>
      <sparseX i="720" alpha="9195.8672277635997" sparseCutoff="1.0000000000000000"/>
      <sparseX i="721" alpha="-27424.219660693419" sparseCutoff="1.0000000000000000"/>
      <sparseX i="722" alpha="20692.864917881008" sparseCutoff="1.0000000000000000"/>
      <sparseX i="723" alpha="8149.5832664249901" sparseCutoff="1.0000000000000000"/>
      <sparseX i="724" alpha="10301.928819401663" sparseCutoff="1.0000000000000000"/>
      <sparseX i="725" alpha="-14139.579851802206" sparseCutoff="1.0000000000000000"/>
      <sparseX i="726" alpha="7561.5475322205875" sparseCutoff="1.0000000000000000"/>
      <sparseX i="727" alpha="39025.949809531572" sparseCutoff="1.0000000000000000"/>
      <sparseX i="728" alpha="633.89438442574544" sparseCutoff="1.0000000000000000"/>
      <sparseX i="729" alpha="7521.1563915372435" sparseCutoff="1.0000000000000000"/>
      <sparseX i="730" alpha="-19891.057062505159" sparseCutoff="1.0000000000000000"/>
      <sparseX i="731" alpha="22513.061972906660" sparseCutoff="1.0000000000000000"/>
      <sparseX i="732" alpha="-35437.318236316423" sparseCutoff="1.0000000000000000"/>
      <sparseX i="733" alpha="2369.4969588589352" sparseCutoff="1.0000000000000000"/>
      <sparseX i="734" alpha="1648.8543266233912" sparseCutoff="1.0000000000000000"/>
      <sparseX i="735" alpha="-563.90958282632573" sparseCutoff="1.0000000000000000"/>
      <sparseX i="736" alpha="-2399.2431844651619" sparseCutoff="1.0000000000000000"/>
      <sparseX i="737" alpha="-61.744640432500837" sparseCutoff="1.0000000000000000"/>
      <sparseX i="738" alpha="-2601.3193778355831" sparseCutoff="1.0000000000000000"/>
      <sparseX i="739" alpha="1357.2063295875862" sparseCutoff="1.0000000000000000"/>
      <sparseX i="740" alpha="1122.5474464374151" sparseCutoff="1.0000000000000000"/>
      <sparseX i="741" alpha="3154.1262818051882" sparseCutoff="1.0000000000000000"/>
      <sparseX i="742" alpha="-4690.2780428578608" sparseCutoff="1.0000000000000000"/>
      <sparseX i="743" alpha="2525.7078400764681" sparseCutoff="1.0000000000000000"/>
      <sparseX i="744" alpha="-28196.192452252166" sparseCutoff="1.0000000000000000"/>
      <sparseX i="745" alpha="3982.3301035167387" sparseCutoff="1.0000000000000000"/>
      <sparseX i="746" alpha="-19904.695035510984" sparseCutoff="1.0000000000000000"/>
      <sparseX i="747" alpha="-4311.6189937567588" sparseCutoff="1.0000000000000000"/>
      <sparseX i="748" alpha="-3295.4091502173801" sparseCutoff="1.0000000000000000"/>
      <sparseX i="749" alpha="3442.9915007393865" sparseCutoff="1.0000000000000000"/>
      <sparseX i="750" alpha="-8741.5946942573992" sparseCutoff="1.0000000000000000"/>
      <sparseX i="751" alpha="17061.980389365261" sparseCutoff="1.0000000000000000"/>
      <sparseX i="752" alpha="54143.962136913287" sparseCutoff="1.0000000000000000"/>
      <sparseX i="753" alpha="18265.472340033608" sparseCutoff="1.0000000000000000"/>
      <sparseX i="754" alpha="-8580.1598254488090" sparseCutoff="1.0000000000000000"/>
      <sparseX i="755" alpha="3135.9376604281042" sparseCutoff="1.0000000000000000"/>
      <sparseX i="756" alpha="-13795.948128683607" sparseCutoff="1.0000000000000000"/>
      <sparseX i="757" alpha="-37894.957964805842" sparseCutoff="1.0000000000000000"/>
      <sparseX i="758" alpha="-2490.4922961599809" sparseCutoff="1.0000000000000000"/>
      <sparseX i="759" alpha="8341.8985004409442" sparseCutoff="1.0000000000000000"/>
      <sparseX i="760" alpha="-11834.794079731473" sparseCutoff="1.0000000000000000"/>
      <sparseX i="761" alpha="165.36778415610257" sparseCutoff="1.0000000000000000"/>
      <sparseX i="762" alpha="-16519.270820598886" sparseCutoff="1.0000000000000000"/>
      <sparseX i="763" alpha="22744.408254360802" sparseCutoff="1.0000000000000000"/>
      <sparseX i="764" alpha="22217.639423973222" sparseCutoff="1.0000000000000000"/>
      <sparseX i="765" alpha="-7010.1207616016554" sparseCutoff="1.0000000000000000"/>
      <sparseX i="766" alpha="15407.388771951260" sparseCutoff="1.0000000000000000"/>
      <sparseX i="767" alpha="-11909.872253172154" sparseCutoff="1.0000000000000000"/>
      <sparseX i="768" alpha="8042.4954094223285" sparseCutoff="1.0000000000000000"/>
      <sparseX i="769" alpha="-38352.054507031055" sparseCutoff="1.0000000000000000"/>
      <sparseX i="770" alpha="869.88572357518046" sparseCutoff="1.0000000000000000"/>
      <sparseX i="771" alpha="-9799.8112915683050" sparseCutoff="1.0000000000000000"/>
      <sparseX i="772" alpha="9167.0613308504508" sparseCutoff="1.0000000000000000"/>
      <sparseX i="773" alpha="-5213.7407603075990" sparseCutoff="1.0000000000000000"/>
      <sparseX i="774" alpha="5765.2112406984588" sparseCutoff="1.0000000000000000"/>
      <sparseX i="775" alpha="11731.676682926427" sparseCutoff="1.0000000000000000"/>
      <sparseX i="776" alpha="4120.5988188952460" sparseCutoff="1.0000000000000000"/>
      <sparseX i="777" alpha="-16869.403148482794" sparseCutoff="1.0000000000000000"/>
      <sparseX i="778" alpha="-11329.596943222590" sparseCutoff="1.0000000000000000"/>
      <sparseX i="779" alpha="24547.869397584476" sparseCutoff="1.0000000000000000"/>
      <sparseX i="780" alpha="2027.0192936262729" sparseCutoff="1.0000000000000000"/>
      <sparseX i="781" alpha="4126.1862006756828" sparseCutoff="1.0000000000000000"/>
      <sparseX i="782" alpha="37152.352559321429" sparseCutoff="1.0000000000000000"/>
      <sparseX i="783" alpha="-2040.9579606080210" sparseCutoff="1.0000000000000000"/>
      <sparseX i="784" alpha="-12337.611346298227" sparseCutoff="1.0000000000000000"/>
      <sparseX i="785" alpha="1095.8192280339317" sparseCutoff="1.0000000000000000"/>
      <sparseX i="786" alpha="22811.902898415276" sparseCutoff="1.0000000000000000"/>
      <sparseX i="787" alpha="18626.584162567910" sparseCutoff="1.0000000000000000"/>
      <sparseX i="788" alpha="-37538.153922447877" sparseCutoff="1.0000000000000000"/>
      <sparseX i="789" alpha="-11252.708790919691" sparseCutoff="1.0000000000000000"/>
      <sparseX i="790" alpha="-2787.1554420434782" sparseCutoff="1.0000000000000000"/>
      <sparseX i="791" alpha="-1125.2408631407320" sparseCutoff="1.0000000000000000"/>
      <sparseX i="792" alpha="12830.601510780480" sparseCutoff="1.0000000000000000"/>
      <sparseX i="793" alpha="13727.456328103128" sparseCutoff="1.0000000000000000"/>
      <sparseX i="794" alpha="-2305.9545131520144" sparseCutoff="1.0000000000000000"/>
