<GAP_2023_5_13_180_7_24_31_985>
<Potential label="GAP_2023_5_13_180_7_24_31_985" init_args="Sum init_args_pot1={IP Glue} init_args_pot2={IP GAP label=GAP_2023_5_13_180_7_24_31_985}"/>
<pairpot>
<Potential label="pairpot" init_args="IP Glue"/>
<Glue_params n_types="2">
 <per_type_data atomic_num="6" type="1">
  <!-- C, Z: 6, many-body data ==> zero energy for pair potential! -->
  <density num_points="10" density_y1="0.0" density_yn="0.0">
   <point a="0.5" rho="0.2"/>
   <point a="1.0" rho="0.2"/>
   <point a="1.5" rho="0.2"/>
   <point a="2.0" rho="0.2"/>
   <point a="2.5" rho="0.2"/>
   <point a="3.0" rho="0.2"/>
   <point a="3.5" rho="0.2"/>
   <point a="4.0" rho="0.2"/>
   <point a="4.5" rho="0.2"/>
   <point a="5.0" rho="0.2"/>
  </density>
  <potential_density num_points="10">
   <point rho="0.05" E="0.0"/>
   <point rho="0.1111111111111111" E="0.0"/>
   <point rho="0.2222222222222222" E="0.0"/>
   <point rho="0.3333333333333333" E="0.0"/>
   <point rho="0.4444444444444444" E="0.0"/>
   <point rho="0.5555555555555556" E="0.0"/>
   <point rho="0.6666666666666666" E="0.0"/>
   <point rho="0.7777777777777777" E="0.0"/>
   <point rho="0.8888888888888888" E="0.0"/>
   <point rho="1.45" E="0.0"/>
  </potential_density>
 </per_type_data>
 <per_type_data atomic_num="1" type="2">
 <!-- H, Z: 1, many-body data ==> zero energy for pair potential! -->
  <density num_points="10" density_y1="0.0" density_yn="0.0">
   <point a="0.5" rho="0.2"/>
   <point a="1.0" rho="0.2"/>
   <point a="1.5" rho="0.2"/>
   <point a="2.0" rho="0.2"/>
   <point a="2.5" rho="0.2"/>
   <point a="3.0" rho="0.2"/>
   <point a="3.5" rho="0.2"/>
   <point a="4.0" rho="0.2"/>
   <point a="4.5" rho="0.2"/>
   <point a="5.0" rho="0.2"/>
  </density>
  <potential_density num_points="10">
   <point rho="0.0" E="0.0"/>
   <point rho="0.1111111111111111" E="0.0"/>
   <point rho="0.2222222222222222" E="0.0"/>
   <point rho="0.3333333333333333" E="0.0"/>
   <point rho="0.4444444444444444" E="0.0"/>
   <point rho="0.5555555555555556" E="0.0"/>
   <point rho="0.6666666666666666" E="0.0"/>
   <point rho="0.7777777777777777" E="0.0"/>
   <point rho="0.8888888888888888" E="0.0"/>
   <point rho="1.0" E="0.0"/>
  </potential_density>
 </per_type_data>
 <per_pair_data type1="1" type2="1">
  <!-- C-C, Z: 6-6 pair potential -->
  <potential_pair num_points="20" y1="1.e50" yn="0.0">
   <point r="0.0500000000000000" E="4097.5273797199997716"/>
   <point r="0.1000000000000000" E="1802.0416522600000917"/>
   <point r="0.1500000000000000" E="1047.6126364199999443"/>
   <point r="0.2000000000000000" E="681.3707098200000019"/>
   <point r="0.2500000000000000" E="471.5381923200000074"/>
   <point r="0.3000000000000000" E="339.5867137999999841"/>
   <point r="0.3500000000000000" E="251.2275732600000140"/>
   <point r="0.4000000000000000" E="189.3839592699999912"/>
   <point r="0.4500000000000000" E="144.6652514900000028"/>
   <point r="0.5000000000000000" E="111.2889775600000064"/>
   <point r="0.5500000000000000" E="85.3296315200000066"/>
   <point r="0.6000000000000000" E="64.2335172800000009"/>
   <point r="0.6500000000000000" E="46.8073881199999988"/>
   <point r="0.7000000000000000" E="32.6309588599999998"/>
   <point r="0.7500000000000000" E="21.4372415600000004"/>
   <point r="0.8000000000000000" E="12.8230688599999993"/>
   <point r="0.8500000000000000" E="6.2793650599999999"/>
   <point r="0.9000000000000000" E="1.3882432099999999"/>
   <point r="0.9500000000000000" E="0.0000000000000000"/>
   <point r="1.0000000000000000" E="0.0000000000000000"/>
  </potential_pair>
 </per_pair_data>
 <per_pair_data type1="1" type2="2">
  <!-- C-H, Z: 6-1 pair potential -->
  <potential_pair num_points="15" y1="1.e50" yn="0.0">
   <point r="0.0500000000000000" E="1052.2585962699999982"/>
   <point r="0.1000000000000000" E="475.4464298099999837"/>
   <point r="0.1500000000000000" E="282.1414125499999841"/>
   <point r="0.2000000000000000" E="184.7480703100000028"/>
   <point r="0.2500000000000000" E="126.2436170499999974"/>
   <point r="0.3000000000000000" E="87.7791358099999997"/>
   <point r="0.3500000000000000" E="61.2807841600000032"/>
   <point r="0.4000000000000000" E="42.5951627299999984"/>
   <point r="0.4500000000000000" E="29.2490216600000004"/>
   <point r="0.5000000000000000" E="19.6228390700000013"/>
   <point r="0.5500000000000000" E="12.6151876900000008"/>
   <point r="0.6000000000000000" E="7.4734250400000004"/>
   <point r="0.6500000000000000" E="3.6821937800000000"/>
   <point r="0.7000000000000000" E="0.0000000000000000"/>
   <point r="0.7500000000000000" E="0.0000000000000000"/>
  </potential_pair>
 </per_pair_data>
 <per_pair_data type1="2" type2="2">
  <!-- H-H, Z: 1-1 pair potential -->
  <potential_pair num_points="9" y1="1.e50" yn="0.0">
   <point r="0.0500000000000000" E="238.9493954499999973"/>
   <point r="0.1000000000000000" E="95.7360375500000060"/>
   <point r="0.1500000000000000" E="48.9823011100000016"/>
   <point r="0.2000000000000000" E="26.6019543300000016"/>
   <point r="0.2500000000000000" E="14.0858091000000005"/>
   <point r="0.3000000000000000" E="6.5175642099999997"/>
   <point r="0.3500000000000000" E="1.7351753500000000"/>
   <point r="0.4000000000000000" E="0.0000000000000000"/>
   <point r="0.4500000000000000" E="0.0000000000000000"/>
  </potential_pair>
 </per_pair_data>
</Glue_params>
</pairpot>
<GAP_params label="GAP_2023_5_13_180_7_24_31_985" gap_version="1670763126">
  <GAP_data do_core="T">
    <e0 Z="1" value="-.56534000000000001E-001"/>
    <e0 Z="2" value=".00000000000000000E+000"/>
    <e0 Z="3" value=".00000000000000000E+000"/>
    <e0 Z="4" value=".00000000000000000E+000"/>
    <e0 Z="5" value=".00000000000000000E+000"/>
    <e0 Z="6" value="-.16138474000000000"/>
    <e0 Z="7" value=".00000000000000000E+000"/>
    <e0 Z="8" value=".00000000000000000E+000"/>
    <e0 Z="9" value=".00000000000000000E+000"/>
    <e0 Z="10" value=".00000000000000000E+000"/>
    <e0 Z="11" value=".00000000000000000E+000"/>
    <e0 Z="12" value=".00000000000000000E+000"/>
    <e0 Z="13" value=".00000000000000000E+000"/>
    <e0 Z="14" value=".00000000000000000E+000"/>
    <e0 Z="15" value=".00000000000000000E+000"/>
    <e0 Z="16" value=".00000000000000000E+000"/>
    <e0 Z="17" value=".00000000000000000E+000"/>
    <e0 Z="18" value=".00000000000000000E+000"/>
    <e0 Z="19" value=".00000000000000000E+000"/>
    <e0 Z="20" value=".00000000000000000E+000"/>
    <e0 Z="21" value=".00000000000000000E+000"/>
    <e0 Z="22" value=".00000000000000000E+000"/>
    <e0 Z="23" value=".00000000000000000E+000"/>
    <e0 Z="24" value=".00000000000000000E+000"/>
    <e0 Z="25" value=".00000000000000000E+000"/>
    <e0 Z="26" value=".00000000000000000E+000"/>
    <e0 Z="27" value=".00000000000000000E+000"/>
    <e0 Z="28" value=".00000000000000000E+000"/>
    <e0 Z="29" value=".00000000000000000E+000"/>
    <e0 Z="30" value=".00000000000000000E+000"/>
    <e0 Z="31" value=".00000000000000000E+000"/>
    <e0 Z="32" value=".00000000000000000E+000"/>
    <e0 Z="33" value=".00000000000000000E+000"/>
    <e0 Z="34" value=".00000000000000000E+000"/>
    <e0 Z="35" value=".00000000000000000E+000"/>
    <e0 Z="36" value=".00000000000000000E+000"/>
    <e0 Z="37" value=".00000000000000000E+000"/>
    <e0 Z="38" value=".00000000000000000E+000"/>
    <e0 Z="39" value=".00000000000000000E+000"/>
    <e0 Z="40" value=".00000000000000000E+000"/>
    <e0 Z="41" value=".00000000000000000E+000"/>
    <e0 Z="42" value=".00000000000000000E+000"/>
    <e0 Z="43" value=".00000000000000000E+000"/>
    <e0 Z="44" value=".00000000000000000E+000"/>
    <e0 Z="45" value=".00000000000000000E+000"/>
    <e0 Z="46" value=".00000000000000000E+000"/>
    <e0 Z="47" value=".00000000000000000E+000"/>
    <e0 Z="48" value=".00000000000000000E+000"/>
    <e0 Z="49" value=".00000000000000000E+000"/>
    <e0 Z="50" value=".00000000000000000E+000"/>
    <e0 Z="51" value=".00000000000000000E+000"/>
    <e0 Z="52" value=".00000000000000000E+000"/>
    <e0 Z="53" value=".00000000000000000E+000"/>
    <e0 Z="54" value=".00000000000000000E+000"/>
    <e0 Z="55" value=".00000000000000000E+000"/>
    <e0 Z="56" value=".00000000000000000E+000"/>
    <e0 Z="57" value=".00000000000000000E+000"/>
    <e0 Z="58" value=".00000000000000000E+000"/>
    <e0 Z="59" value=".00000000000000000E+000"/>
    <e0 Z="60" value=".00000000000000000E+000"/>
    <e0 Z="61" value=".00000000000000000E+000"/>
    <e0 Z="62" value=".00000000000000000E+000"/>
    <e0 Z="63" value=".00000000000000000E+000"/>
    <e0 Z="64" value=".00000000000000000E+000"/>
    <e0 Z="65" value=".00000000000000000E+000"/>
    <e0 Z="66" value=".00000000000000000E+000"/>
    <e0 Z="67" value=".00000000000000000E+000"/>
    <e0 Z="68" value=".00000000000000000E+000"/>
    <e0 Z="69" value=".00000000000000000E+000"/>
    <e0 Z="70" value=".00000000000000000E+000"/>
    <e0 Z="71" value=".00000000000000000E+000"/>
    <e0 Z="72" value=".00000000000000000E+000"/>
    <e0 Z="73" value=".00000000000000000E+000"/>
    <e0 Z="74" value=".00000000000000000E+000"/>
    <e0 Z="75" value=".00000000000000000E+000"/>
    <e0 Z="76" value=".00000000000000000E+000"/>
    <e0 Z="77" value=".00000000000000000E+000"/>
    <e0 Z="78" value=".00000000000000000E+000"/>
    <e0 Z="79" value=".00000000000000000E+000"/>
    <e0 Z="80" value=".00000000000000000E+000"/>
    <e0 Z="81" value=".00000000000000000E+000"/>
    <e0 Z="82" value=".00000000000000000E+000"/>
    <e0 Z="83" value=".00000000000000000E+000"/>
    <e0 Z="84" value=".00000000000000000E+000"/>
    <e0 Z="85" value=".00000000000000000E+000"/>
    <e0 Z="86" value=".00000000000000000E+000"/>
    <e0 Z="87" value=".00000000000000000E+000"/>
    <e0 Z="88" value=".00000000000000000E+000"/>
    <e0 Z="89" value=".00000000000000000E+000"/>
    <e0 Z="90" value=".00000000000000000E+000"/>
    <e0 Z="91" value=".00000000000000000E+000"/>
    <e0 Z="92" value=".00000000000000000E+000"/>
    <e0 Z="93" value=".00000000000000000E+000"/>
    <e0 Z="94" value=".00000000000000000E+000"/>
    <e0 Z="95" value=".00000000000000000E+000"/>
    <e0 Z="96" value=".00000000000000000E+000"/>
    <e0 Z="97" value=".00000000000000000E+000"/>
    <e0 Z="98" value=".00000000000000000E+000"/>
    <e0 Z="99" value=".00000000000000000E+000"/>
    <e0 Z="100" value=".00000000000000000E+000"/>
    <e0 Z="101" value=".00000000000000000E+000"/>
    <e0 Z="102" value=".00000000000000000E+000"/>
    <e0 Z="103" value=".00000000000000000E+000"/>
    <e0 Z="104" value=".00000000000000000E+000"/>
    <e0 Z="105" value=".00000000000000000E+000"/>
    <e0 Z="106" value=".00000000000000000E+000"/>
    <e0 Z="107" value=".00000000000000000E+000"/>
    <e0 Z="108" value=".00000000000000000E+000"/>
    <e0 Z="109" value=".00000000000000000E+000"/>
    <e0 Z="110" value=".00000000000000000E+000"/>
    <e0 Z="111" value=".00000000000000000E+000"/>
    <e0 Z="112" value=".00000000000000000E+000"/>
    <e0 Z="113" value=".00000000000000000E+000"/>
    <e0 Z="114" value=".00000000000000000E+000"/>
    <e0 Z="115" value=".00000000000000000E+000"/>
    <e0 Z="116" value=".00000000000000000E+000"/>
    <e0 Z="117" value=".00000000000000000E+000"/>
    <e0 Z="118" value=".00000000000000000E+000"/>
  </GAP_data>
  <gpSparse label="GAP_2023_5_13_180_7_24_31_985" n_coordinate="8" fitted="T">
    <gpCoordinates label="GAP_2023_5_13_180_7_24_31_9851" dimensions="1" signal_variance=".50000000000000000" signal_mean=".00000000000000000E+000" sparsified="T" n_permutations="1" covariance_type="1" n_sparseX="30" sparseX_filename="CH.xml.sparseX.GAP_2023_5_13_180_7_24_31_9851" sparseX_md5sum="cf7ec3dfb1d80dbcecd7e60ad299457e">
      <theta>  0.50000000000000000E+000 </theta>
      <descriptor> distance_2b Z1=1 Z2=1 cutoff=4.0 n_sparse=30 covariance_type=ard_se delta=0.5 theta_uniform=0.5 sparse_method=uniform add_species=F</descriptor>
      <permutation i="1">1  </permutation>
      <sparseX i="1" alpha="186152.96329080121" sparseCutoff="1.0000000000000000"/>
      <sparseX i="2" alpha="-204384.92918735335" sparseCutoff="1.0000000000000000"/>
      <sparseX i="3" alpha="97537.127346915862" sparseCutoff="1.0000000000000000"/>
      <sparseX i="4" alpha="53534.827668991471" sparseCutoff="1.0000000000000000"/>
      <sparseX i="5" alpha="-74817.440911847298" sparseCutoff="1.0000000000000000"/>
      <sparseX i="6" alpha="-64792.570039008890" sparseCutoff="1.0000000000000000"/>
      <sparseX i="7" alpha="114813.81287505986" sparseCutoff="1.0000000000000000"/>
      <sparseX i="8" alpha="18030.369652085530" sparseCutoff="1.0000000000000000"/>
      <sparseX i="9" alpha="-109959.01454811502" sparseCutoff="1.0000000000000000"/>
      <sparseX i="10" alpha="1213.9255677393508" sparseCutoff="1.0000000000000000"/>
      <sparseX i="11" alpha="77022.855791717710" sparseCutoff="1.0000000000000000"/>
      <sparseX i="12" alpha="16319.087904329135" sparseCutoff="1.0000000000000000"/>
      <sparseX i="13" alpha="-91103.768890640451" sparseCutoff="1.0000000000000000"/>
      <sparseX i="14" alpha="12493.586723430511" sparseCutoff="1.0000000000000000"/>
      <sparseX i="15" alpha="63321.774202495835" sparseCutoff="1.0000000000000000"/>
      <sparseX i="16" alpha="-26309.006287695909" sparseCutoff="1.0000000000000000"/>
      <sparseX i="17" alpha="-83625.739283248797" sparseCutoff="1.0000000000000000"/>
      <sparseX i="18" alpha="56910.281972598030" sparseCutoff="1.0000000000000000"/>
      <sparseX i="19" alpha="77139.616452267961" sparseCutoff="1.0000000000000000"/>
      <sparseX i="20" alpha="-70899.731916604302" sparseCutoff="1.0000000000000000"/>
      <sparseX i="21" alpha="-56312.054017965449" sparseCutoff="1.0000000000000000"/>
      <sparseX i="22" alpha="89681.129170342479" sparseCutoff="1.0000000000000000"/>
      <sparseX i="23" alpha="31174.846121536008" sparseCutoff="1.0000000000000000"/>
      <sparseX i="24" alpha="-102952.91931342780" sparseCutoff="1.0000000000000000"/>
      <sparseX i="25" alpha="106761.36498678073" sparseCutoff="1.0000000000000000"/>
      <sparseX i="26" alpha="-100455.95286824291" sparseCutoff=".90450849718747439"/>
      <sparseX i="27" alpha="42962.125107943248" sparseCutoff=".65450849718747584"/>
      <sparseX i="28" alpha="-13634.249451589609" sparseCutoff=".95491502812525664E-001"/>
      <sparseX i="29" alpha="-4903.3721195152975" sparseCutoff=".17174340948633571E-003"/>
      <sparseX i="30" alpha="-52993.090192280499" sparseCutoff="1.0000000000000000"/>
    </gpCoordinates>
    <gpCoordinates label="GAP_2023_5_13_180_7_24_31_9852" dimensions="1" signal_variance=".50000000000000000" signal_mean=".00000000000000000E+000" sparsified="T" n_permutations="1" covariance_type="1" n_sparseX="30" sparseX_filename="CH.xml.sparseX.GAP_2023_5_13_180_7_24_31_9852" sparseX_md5sum="5ab99d1f5bf77f754ea1a8a6162ad4dc">
      <theta>  0.50000000000000000E+000 </theta>
      <descriptor> distance_2b Z1=1 Z2=6 cutoff=4.0 n_sparse=30 covariance_type=ard_se delta=0.5 theta_uniform=0.5 sparse_method=uniform add_species=F</descriptor>
      <permutation i="1">1  </permutation>
      <sparseX i="1" alpha="-35719.346801357387" sparseCutoff="1.0000000000000000"/>
      <sparseX i="2" alpha="69767.339951770569" sparseCutoff="1.0000000000000000"/>
      <sparseX i="3" alpha="-122142.90997611401" sparseCutoff="1.0000000000000000"/>
      <sparseX i="4" alpha="65278.542617605861" sparseCutoff="1.0000000000000000"/>
      <sparseX i="5" alpha="80484.420504956157" sparseCutoff="1.0000000000000000"/>
      <sparseX i="6" alpha="-140307.52133875826" sparseCutoff="1.0000000000000000"/>
      <sparseX i="7" alpha="15669.507963337381" sparseCutoff="1.0000000000000000"/>
      <sparseX i="8" alpha="118060.76959497083" sparseCutoff="1.0000000000000000"/>
      <sparseX i="9" alpha="-16845.823474248980" sparseCutoff="1.0000000000000000"/>
      <sparseX i="10" alpha="-141019.01011156352" sparseCutoff="1.0000000000000000"/>
      <sparseX i="11" alpha="71456.726168007895" sparseCutoff="1.0000000000000000"/>
      <sparseX i="12" alpha="118900.63595750039" sparseCutoff="1.0000000000000000"/>
      <sparseX i="13" alpha="-78221.319776810924" sparseCutoff="1.0000000000000000"/>
      <sparseX i="14" alpha="-101830.21466684659" sparseCutoff="1.0000000000000000"/>
      <sparseX i="15" alpha="96262.209615389336" sparseCutoff="1.0000000000000000"/>
      <sparseX i="16" alpha="58503.630024612808" sparseCutoff="1.0000000000000000"/>
      <sparseX i="17" alpha="-165800.37231219216" sparseCutoff="1.0000000000000000"/>
      <sparseX i="18" alpha="50997.425628779485" sparseCutoff="1.0000000000000000"/>
      <sparseX i="19" alpha="145877.23124941668" sparseCutoff="1.0000000000000000"/>
      <sparseX i="20" alpha="-80610.715351350722" sparseCutoff="1.0000000000000000"/>
      <sparseX i="21" alpha="-132123.78406364724" sparseCutoff="1.0000000000000000"/>
      <sparseX i="22" alpha="154971.03398966655" sparseCutoff="1.0000000000000000"/>
      <sparseX i="23" alpha="81398.228893438791" sparseCutoff="1.0000000000000000"/>
      <sparseX i="24" alpha="-192348.79798890685" sparseCutoff="1.0000000000000000"/>
      <sparseX i="25" alpha="180083.92596951028" sparseCutoff="1.0000000000000000"/>
      <sparseX i="26" alpha="-159008.81114807507" sparseCutoff=".90450849718747439"/>
      <sparseX i="27" alpha="58363.946706104762" sparseCutoff=".65450849718747584"/>
      <sparseX i="28" alpha="28796.713341412822" sparseCutoff=".95491502812525664E-001"/>
      <sparseX i="29" alpha="4573.9403931466550" sparseCutoff="1.0000000000000000"/>
      <sparseX i="30" alpha="-263742.78205487336" sparseCutoff=".94254889855389656E-002"/>
    </gpCoordinates>
    <gpCoordinates label="GAP_2023_5_13_180_7_24_31_9853" dimensions="1" signal_variance=".50000000000000000" signal_mean=".00000000000000000E+000" sparsified="T" n_permutations="1" covariance_type="1" n_sparseX="30" sparseX_filename="CH.xml.sparseX.GAP_2023_5_13_180_7_24_31_9853" sparseX_md5sum="46c51c84785a5093f98780e0c5c60a5a">
      <theta>  0.50000000000000000E+000 </theta>
      <descriptor> distance_2b Z1=6 Z2=6 cutoff=4.0 n_sparse=30 covariance_type=ard_se delta=0.5 theta_uniform=0.5 sparse_method=uniform add_species=F</descriptor>
      <permutation i="1">1  </permutation>
      <sparseX i="1" alpha="141033.18932939958" sparseCutoff="1.0000000000000000"/>
      <sparseX i="2" alpha="-146515.16492909202" sparseCutoff="1.0000000000000000"/>
      <sparseX i="3" alpha="82235.223191158249" sparseCutoff="1.0000000000000000"/>
      <sparseX i="4" alpha="42194.139396469276" sparseCutoff="1.0000000000000000"/>
      <sparseX i="5" alpha="-113075.74144443507" sparseCutoff="1.0000000000000000"/>
      <sparseX i="6" alpha="19064.902417175941" sparseCutoff="1.0000000000000000"/>
      <sparseX i="7" alpha="81395.833878931939" sparseCutoff="1.0000000000000000"/>
      <sparseX i="8" alpha="-41948.938133738971" sparseCutoff="1.0000000000000000"/>
      <sparseX i="9" alpha="75122.304183009226" sparseCutoff="1.0000000000000000"/>
      <sparseX i="10" alpha="65545.815054506384" sparseCutoff="1.0000000000000000"/>
      <sparseX i="11" alpha="-52273.219972586914" sparseCutoff="1.0000000000000000"/>
      <sparseX i="12" alpha="-86584.170342525016" sparseCutoff="1.0000000000000000"/>
      <sparseX i="13" alpha="118857.55964046606" sparseCutoff="1.0000000000000000"/>
      <sparseX i="14" alpha="27168.973002866744" sparseCutoff="1.0000000000000000"/>
      <sparseX i="15" alpha="-130309.45286009341" sparseCutoff="1.0000000000000000"/>
      <sparseX i="16" alpha="52566.665429676927" sparseCutoff="1.0000000000000000"/>
      <sparseX i="17" alpha="-29169.097368857132" sparseCutoff="1.0000000000000000"/>
      <sparseX i="18" alpha="-112732.03080899239" sparseCutoff="1.0000000000000000"/>
      <sparseX i="19" alpha="80318.370678592226" sparseCutoff="1.0000000000000000"/>
      <sparseX i="20" alpha="84336.010551169587" sparseCutoff="1.0000000000000000"/>
      <sparseX i="21" alpha="-71141.908892903331" sparseCutoff="1.0000000000000000"/>
      <sparseX i="22" alpha="-48504.559042066583" sparseCutoff="1.0000000000000000"/>
      <sparseX i="23" alpha="130143.15102290489" sparseCutoff="1.0000000000000000"/>
      <sparseX i="24" alpha="-143506.88190867676" sparseCutoff=".90450849718747439"/>
      <sparseX i="25" alpha="68006.743866890945" sparseCutoff=".65450849718747584"/>
      <sparseX i="26" alpha="-15842.207188475950" sparseCutoff=".95491502812525664E-001"/>
      <sparseX i="27" alpha="-83824.887357097818" sparseCutoff="1.0000000000000000"/>
      <sparseX i="28" alpha="-46351.631005089264" sparseCutoff="1.0000000000000000"/>
      <sparseX i="29" alpha="49812.520371407962" sparseCutoff="1.0000000000000000"/>
      <sparseX i="30" alpha="-26538.289651438310" sparseCutoff=".23133022285435623E-001"/>
    </gpCoordinates>
    <gpCoordinates label="GAP_2023_5_13_180_7_24_31_9854" dimensions="3" signal_variance=".10000000000000000E-001" signal_mean=".00000000000000000E+000" sparsified="T" n_permutations="1" covariance_type="4" n_sparseX="200" sparseX_filename="CH.xml.sparseX.GAP_2023_5_13_180_7_24_31_9854" sparseX_md5sum="d79b3c9ef9ddf39706dc5dcf1141b67c">
      <theta>  0.20000000000000000E+001  0.20000000000000000E+001  0.20000000000000000E+001 </theta>
      <descriptor> angle_3b Z_center=6 Z1=1 Z2=1 cutoff=2.0 n_sparse=200 covariance_type=pp delta=0.01 theta_uniform=2.0 sparse_method=uniform add_species=F</descriptor>
      <permutation i="1">1 2 3  </permutation>
      <sparseX i="1" alpha="12813.501757968643" sparseCutoff=".15452317655841880"/>
      <sparseX i="2" alpha="2125.3661405922862" sparseCutoff="1.0000000000000000"/>
      <sparseX i="3" alpha="-66.827955356212271" sparseCutoff=".66213703047465511"/>
      <sparseX i="4" alpha="5029.8771873170181" sparseCutoff=".31132211544160127E-001"/>
      <sparseX i="5" alpha="4205.4037968426264" sparseCutoff="1.0000000000000000"/>
      <sparseX i="6" alpha="6727.4647335765494" sparseCutoff="1.0000000000000000"/>
      <sparseX i="7" alpha="5590.6671567888716" sparseCutoff=".58399279620482282E-001"/>
      <sparseX i="8" alpha="30415.844934867564" sparseCutoff=".11635656199694977E-002"/>
      <sparseX i="9" alpha="776.67586144622567" sparseCutoff="1.0000000000000000"/>
      <sparseX i="10" alpha="-1076.1073072596453" sparseCutoff="1.0000000000000000"/>
      <sparseX i="11" alpha="-7988.5429132680019" sparseCutoff="1.0000000000000000"/>
      <sparseX i="12" alpha="-1250.7680605329942" sparseCutoff="1.0000000000000000"/>
      <sparseX i="13" alpha="-409.69125087250609" sparseCutoff=".98536615387162163"/>
      <sparseX i="14" alpha="229.67385066781213" sparseCutoff=".40519864262613103"/>
      <sparseX i="15" alpha="-10009.908867184984" sparseCutoff="1.0000000000000000"/>
      <sparseX i="16" alpha="226.29497285779200" sparseCutoff=".58293002365670177"/>
      <sparseX i="17" alpha="-25797.211331939245" sparseCutoff=".92792201736946467E-002"/>
      <sparseX i="18" alpha="-9684.3453431478210" sparseCutoff="1.0000000000000000"/>
      <sparseX i="19" alpha="3420.8883068103378" sparseCutoff="1.0000000000000000"/>
      <sparseX i="20" alpha="32308.715264523333" sparseCutoff="1.0000000000000000"/>
      <sparseX i="21" alpha="619.58207891776135" sparseCutoff=".69565792309623831"/>
      <sparseX i="22" alpha="829.80144778539216" sparseCutoff="1.0000000000000000"/>
      <sparseX i="23" alpha="-61.491989991904411" sparseCutoff=".75720646793954738E-002"/>
      <sparseX i="24" alpha="5016.1419864898999" sparseCutoff=".69382435518140920E-002"/>
      <sparseX i="25" alpha="-8748.4135676745864" sparseCutoff=".15491984583771823"/>
      <sparseX i="26" alpha="-71.391723870869015" sparseCutoff=".13807584165137499E-004"/>
      <sparseX i="27" alpha="-3587.8711570479445" sparseCutoff=".28570203367805913E-003"/>
      <sparseX i="28" alpha="138.78604400332364" sparseCutoff=".27036177353164770E-001"/>
      <sparseX i="29" alpha="-13521.013230922530" sparseCutoff=".21876390776823240E-002"/>
      <sparseX i="30" alpha="-89054.529543639146" sparseCutoff=".81770704165477492E-002"/>
      <sparseX i="31" alpha="3946.5578135554588" sparseCutoff=".47144939506527095E-003"/>
      <sparseX i="32" alpha="217.43772323823893" sparseCutoff=".27363707910549318E-003"/>
      <sparseX i="33" alpha="111.43214326002466" sparseCutoff=".52756689382004757E-004"/>
      <sparseX i="34" alpha="-1990.4105823553798" sparseCutoff=".25317380039016721E-003"/>
      <sparseX i="35" alpha="-48619.363997702501" sparseCutoff=".11418455452334164"/>
      <sparseX i="36" alpha=".51394805894737239" sparseCutoff=".27168705327902050E-007"/>
      <sparseX i="37" alpha="200.88264453707640" sparseCutoff="1.0000000000000000"/>
      <sparseX i="38" alpha="-25808.469063473873" sparseCutoff=".20267097132327661E-002"/>
      <sparseX i="39" alpha="5833.6334711948221" sparseCutoff=".25628227763461431"/>
      <sparseX i="40" alpha="-2316.9737633065984" sparseCutoff=".29982422498126865"/>
      <sparseX i="41" alpha="536.87171856393832" sparseCutoff=".43767863132009953E-004"/>
      <sparseX i="42" alpha="18663.168894531489" sparseCutoff=".15568596293771209"/>
      <sparseX i="43" alpha="-2187.4893891928396" sparseCutoff=".51669366103337799"/>
      <sparseX i="44" alpha="1520.9665390939242" sparseCutoff="1.0000000000000000"/>
      <sparseX i="45" alpha="6182.4942540342545" sparseCutoff=".10005418991799575E-001"/>
      <sparseX i="46" alpha="22265.904482987102" sparseCutoff=".99647380277237962E-002"/>
      <sparseX i="47" alpha="-936.15503486686293" sparseCutoff="1.0000000000000000"/>
      <sparseX i="48" alpha="2967.3839090803272" sparseCutoff=".64681678573734280"/>
      <sparseX i="49" alpha="-28010.504719785149" sparseCutoff=".40540031082439018E-001"/>
      <sparseX i="50" alpha="3166.3076020236317" sparseCutoff=".81516819038028787"/>
      <sparseX i="51" alpha="-54934.521282092741" sparseCutoff=".44465967118977323E-002"/>
      <sparseX i="52" alpha="-10026.090683060003" sparseCutoff="1.0000000000000000"/>
      <sparseX i="53" alpha="-104004.58599066029" sparseCutoff=".26218766457709101E-001"/>
      <sparseX i="54" alpha="8422.0709456369641" sparseCutoff=".48936595614282614E-002"/>
      <sparseX i="55" alpha="65544.942786470448" sparseCutoff=".65817745009681683E-001"/>
      <sparseX i="56" alpha="15754.501352226676" sparseCutoff="1.0000000000000000"/>
      <sparseX i="57" alpha="9166.4630655518176" sparseCutoff=".39252885699300251E-001"/>
      <sparseX i="58" alpha="-30056.965493777574" sparseCutoff="1.0000000000000000"/>
      <sparseX i="59" alpha="631.54477502259238" sparseCutoff="1.0000000000000000"/>
      <sparseX i="60" alpha="-4104.2737422254258" sparseCutoff=".81951340662447636"/>
      <sparseX i="61" alpha="8726.0249407184892" sparseCutoff="1.0000000000000000"/>
      <sparseX i="62" alpha="-40813.444025662990" sparseCutoff=".12355496867847537E-001"/>
      <sparseX i="63" alpha="1314.8881209952895" sparseCutoff=".77893718763089148"/>
      <sparseX i="64" alpha="-13570.081813176550" sparseCutoff=".22442664701596549"/>
      <sparseX i="65" alpha="27886.870032470215" sparseCutoff=".62670095523861946"/>
      <sparseX i="66" alpha="-717.71235481928466" sparseCutoff="1.0000000000000000"/>
      <sparseX i="67" alpha="218.58508713858589" sparseCutoff=".91662672026136938"/>
      <sparseX i="68" alpha="-7608.3511986927842" sparseCutoff=".70496491135296857"/>
      <sparseX i="69" alpha="37871.049524812173" sparseCutoff=".32228877678120993E-002"/>
      <sparseX i="70" alpha="260.31564787754326" sparseCutoff=".91690868085336263"/>
      <sparseX i="71" alpha="1687.1959864711841" sparseCutoff=".41730678627371516E-001"/>
      <sparseX i="72" alpha="-25921.872765170141" sparseCutoff=".21035524529006699E-002"/>
      <sparseX i="73" alpha="-11214.038182711125" sparseCutoff=".76852943947328833E-001"/>
      <sparseX i="74" alpha="-4122.2542311078723" sparseCutoff=".16458211872672690"/>
      <sparseX i="75" alpha="8.9979086411842584" sparseCutoff=".12304708400148212E-005"/>
      <sparseX i="76" alpha="-620.53039317736682" sparseCutoff=".58064003291844446"/>
      <sparseX i="77" alpha="123.99901342074897" sparseCutoff=".95394554977029644E-003"/>
      <sparseX i="78" alpha="-2070.1756214119800" sparseCutoff=".17423418747591901E-003"/>
      <sparseX i="79" alpha="34757.226252915360" sparseCutoff=".72713092781670374E-001"/>
      <sparseX i="80" alpha="34545.050397242318" sparseCutoff=".63153968306696173E-002"/>
      <sparseX i="81" alpha="-17495.109379288690" sparseCutoff=".23054637632311525E-002"/>
      <sparseX i="82" alpha="2806.8907318537931" sparseCutoff="1.0000000000000000"/>
      <sparseX i="83" alpha="75074.914399937203" sparseCutoff=".62245251302483054E-001"/>
      <sparseX i="84" alpha="21268.920963494984" sparseCutoff=".30584467430891032"/>
      <sparseX i="85" alpha="476.31515822465974" sparseCutoff="1.0000000000000000"/>
      <sparseX i="86" alpha="5172.9088273777461" sparseCutoff=".66579530193172620"/>
      <sparseX i="87" alpha="-2636.2781391969083" sparseCutoff=".13898008451914742"/>
      <sparseX i="88" alpha="2379.4818855089366" sparseCutoff=".93595382688428774"/>
      <sparseX i="89" alpha="30021.951292316517" sparseCutoff=".63226317741846838E-002"/>
      <sparseX i="90" alpha="-6462.1219354836558" sparseCutoff="1.0000000000000000"/>
      <sparseX i="91" alpha="107627.44289925638" sparseCutoff=".59011617420059392E-001"/>
      <sparseX i="92" alpha="113824.32708154088" sparseCutoff=".16515909677766444"/>
      <sparseX i="93" alpha="49.698708473878078" sparseCutoff="1.0000000000000000"/>
      <sparseX i="94" alpha="23.419379440982855" sparseCutoff=".17743539438841438E-005"/>
      <sparseX i="95" alpha="-2592.1006495080142" sparseCutoff=".99598429515598830"/>
      <sparseX i="96" alpha="-2372.7834338727462" sparseCutoff="1.0000000000000000"/>
      <sparseX i="97" alpha="-5831.1640187815547" sparseCutoff=".40125764827491317"/>
      <sparseX i="98" alpha="-3536.1809079094351" sparseCutoff=".24965136265954929"/>
      <sparseX i="99" alpha="8013.3806204473876" sparseCutoff="1.0000000000000000"/>
      <sparseX i="100" alpha="-9944.5426979320146" sparseCutoff=".62739256105409117E-002"/>
      <sparseX i="101" alpha="-17092.668130248414" sparseCutoff=".14727789332558139E-002"/>
      <sparseX i="102" alpha="-.90082398315034465E-001" sparseCutoff=".37167484077398741E-007"/>
      <sparseX i="103" alpha="287.50341254796160" sparseCutoff=".28250242148475380E-004"/>
      <sparseX i="104" alpha="-13872.805322433118" sparseCutoff="1.0000000000000000"/>
      <sparseX i="105" alpha="8385.7681801736617" sparseCutoff=".36888412851993069E-003"/>
      <sparseX i="106" alpha="-3367.5263015126238" sparseCutoff=".88543743055633728"/>
      <sparseX i="107" alpha="-3373.3497988224544" sparseCutoff=".92655186688356794"/>
      <sparseX i="108" alpha="687.44514981091561" sparseCutoff=".43764875909483292"/>
      <sparseX i="109" alpha="10865.099263460694" sparseCutoff=".73129230875618179E-003"/>
      <sparseX i="110" alpha="3845.5344128147426" sparseCutoff=".10704095838809846"/>
      <sparseX i="111" alpha="213.33789219111256" sparseCutoff=".23898052716166739E-003"/>
      <sparseX i="112" alpha="-21683.455176831249" sparseCutoff=".92374865602164680E-001"/>
      <sparseX i="113" alpha="1535.7743096070365" sparseCutoff="1.0000000000000000"/>
      <sparseX i="114" alpha="-13520.146038170733" sparseCutoff=".11538634613255857E-001"/>
      <sparseX i="115" alpha="-23.348465220830434" sparseCutoff=".12627484929441383E-004"/>
      <sparseX i="116" alpha="-35865.471931330561" sparseCutoff=".13927155846388523"/>
      <sparseX i="117" alpha="-3096.2441428805605" sparseCutoff=".12531868393308054E-001"/>
      <sparseX i="118" alpha="-41548.064427693404" sparseCutoff=".32274049625018675E-001"/>
      <sparseX i="119" alpha="-53407.147508273731" sparseCutoff=".42072573733683560E-002"/>
      <sparseX i="120" alpha="-23756.728984726480" sparseCutoff=".44511245981080805E-001"/>
      <sparseX i="121" alpha="857.54888119258669" sparseCutoff="1.0000000000000000"/>
      <sparseX i="122" alpha="10886.364025494038" sparseCutoff=".21501757022033541"/>
      <sparseX i="123" alpha="1280.1694399832202" sparseCutoff="1.0000000000000000"/>
      <sparseX i="124" alpha="-39079.042420832629" sparseCutoff=".12746738145459680E-001"/>
      <sparseX i="125" alpha="2142.1450410583602" sparseCutoff="1.0000000000000000"/>
      <sparseX i="126" alpha="45975.251940574446" sparseCutoff=".71403165484807962E-002"/>
      <sparseX i="127" alpha="-19186.740217346454" sparseCutoff=".49441983795268263E-001"/>
      <sparseX i="128" alpha="-3738.4524444388890" sparseCutoff="1.0000000000000000"/>
      <sparseX i="129" alpha="1629.9358748924810" sparseCutoff=".86469625031646546"/>
      <sparseX i="130" alpha="-24154.739194732651" sparseCutoff=".28637575864661799E-001"/>
      <sparseX i="131" alpha="9665.7104514110961" sparseCutoff=".10391061865925866E-002"/>
      <sparseX i="132" alpha="-651.86646910284617" sparseCutoff=".97503268546041522"/>
      <sparseX i="133" alpha="5720.2514595500170" sparseCutoff=".23338842771695395"/>
      <sparseX i="134" alpha="2843.2267879630585" sparseCutoff="1.0000000000000000"/>
      <sparseX i="135" alpha="-808.67062902456405" sparseCutoff="1.0000000000000000"/>
      <sparseX i="136" alpha="-6016.2793428445248" sparseCutoff=".76601331209300016E-001"/>
      <sparseX i="137" alpha="218.12449052677763" sparseCutoff=".93807637610345784"/>
      <sparseX i="138" alpha="-556.25562588362345" sparseCutoff=".48966289816598785E-004"/>
      <sparseX i="139" alpha="2887.6639395192137" sparseCutoff=".30580236432593355"/>
      <sparseX i="140" alpha="-8040.0603029889126" sparseCutoff=".23291848899843909"/>
      <sparseX i="141" alpha="-597.55610617795855" sparseCutoff=".91023526034214153"/>
      <sparseX i="142" alpha="-34086.584668932672" sparseCutoff=".56055819323706313"/>
      <sparseX i="143" alpha="-270.51530048524938" sparseCutoff=".63195172476978418E-003"/>
      <sparseX i="144" alpha="23579.663384716543" sparseCutoff=".46435680632904153E-002"/>
      <sparseX i="145" alpha="5202.9721111359850" sparseCutoff=".20870474928919580E-002"/>
      <sparseX i="146" alpha="32790.091143612262" sparseCutoff=".23309397676563132"/>
      <sparseX i="147" alpha="11621.420975878515" sparseCutoff=".70108221131036097E-002"/>
      <sparseX i="148" alpha="10374.609775563298" sparseCutoff=".90228491166001201"/>
      <sparseX i="149" alpha="-55414.071061600967" sparseCutoff="1.0000000000000000"/>
      <sparseX i="150" alpha="3957.6548204159594" sparseCutoff=".67501181829307533E-001"/>
      <sparseX i="151" alpha="52833.913254869425" sparseCutoff="1.0000000000000000"/>
      <sparseX i="152" alpha="-7207.2405700304535" sparseCutoff=".96540567486596185"/>
      <sparseX i="153" alpha="-106.56895533207015" sparseCutoff=".15388601565462512E-002"/>
      <sparseX i="154" alpha="16434.964928280948" sparseCutoff=".32991870957960190E-002"/>
      <sparseX i="155" alpha="-1703.3905943495761" sparseCutoff=".32991870957960190E-002"/>
      <sparseX i="156" alpha="7226.7480944221161" sparseCutoff=".13401643818117703E-001"/>
      <sparseX i="157" alpha="-2060.6062610964714" sparseCutoff="1.0000000000000000"/>
      <sparseX i="158" alpha="1557.1744221683477" sparseCutoff=".44962856025342335E-002"/>
      <sparseX i="159" alpha="61879.288378174431" sparseCutoff=".14486609678113427"/>
      <sparseX i="160" alpha="23185.048312373092" sparseCutoff="1.0000000000000000"/>
      <sparseX i="161" alpha="2741.1772782799262" sparseCutoff=".29556602689160599"/>
      <sparseX i="162" alpha="14491.596585193563" sparseCutoff=".24745528435231479E-001"/>
      <sparseX i="163" alpha="-17978.602684724043" sparseCutoff="1.0000000000000000"/>
      <sparseX i="164" alpha="9462.3805525626831" sparseCutoff=".17415873537298399E-001"/>
      <sparseX i="165" alpha="-46380.723358178038" sparseCutoff="1.0000000000000000"/>
      <sparseX i="166" alpha="2493.7007828265623" sparseCutoff=".84399227626524853E-003"/>
      <sparseX i="167" alpha="212.78527491515928" sparseCutoff=".33350609028028622"/>
      <sparseX i="168" alpha="-357.93628153778343" sparseCutoff=".33682297780860460"/>
      <sparseX i="169" alpha="-21235.571029353810" sparseCutoff=".12364273935112480"/>
      <sparseX i="170" alpha="127093.09693768894" sparseCutoff=".10053470743863535"/>
      <sparseX i="171" alpha="-16168.321198986789" sparseCutoff=".10633177184450460"/>
      <sparseX i="172" alpha="-38749.374274271941" sparseCutoff="1.0000000000000000"/>
      <sparseX i="173" alpha="-5728.8612719621196" sparseCutoff=".29090861356045217E-001"/>
      <sparseX i="174" alpha="-18257.319641621099" sparseCutoff=".70429627483948820E-001"/>
      <sparseX i="175" alpha="-23496.171180218040" sparseCutoff=".28171802017352521"/>
      <sparseX i="176" alpha="-12571.951414242076" sparseCutoff=".63958910865168916E-001"/>
      <sparseX i="177" alpha="-249.13975637183100" sparseCutoff=".13504213669979226E-003"/>
      <sparseX i="178" alpha="-88227.492941095552" sparseCutoff="1.0000000000000000"/>
      <sparseX i="179" alpha="15885.843753199732" sparseCutoff="1.0000000000000000"/>
      <sparseX i="180" alpha="53583.190676015605" sparseCutoff=".33566128054312583E-002"/>
      <sparseX i="181" alpha="-168039.82208926170" sparseCutoff=".14055595239491969"/>
      <sparseX i="182" alpha="-49671.255322391866" sparseCutoff=".20649246362516710"/>
      <sparseX i="183" alpha="14067.713381521722" sparseCutoff=".69541312835847413E-002"/>
      <sparseX i="184" alpha="-52919.220749127482" sparseCutoff=".24832969630591561E-001"/>
      <sparseX i="185" alpha="-50726.949987105676" sparseCutoff=".20511152508619973"/>
      <sparseX i="186" alpha="27936.022310463868" sparseCutoff="1.0000000000000000"/>
      <sparseX i="187" alpha="70612.581596770338" sparseCutoff="1.0000000000000000"/>
      <sparseX i="188" alpha="4562.1406668270047" sparseCutoff=".56442628944947626"/>
      <sparseX i="189" alpha="26689.837247736414" sparseCutoff="1.0000000000000000"/>
      <sparseX i="190" alpha="71988.171255167254" sparseCutoff="1.0000000000000000"/>
      <sparseX i="191" alpha="89401.385969213778" sparseCutoff=".49246120398946748E-001"/>
      <sparseX i="192" alpha="423.90570324322471" sparseCutoff=".96925542265228026"/>
      <sparseX i="193" alpha="-1542.7986379829847" sparseCutoff="1.0000000000000000"/>
      <sparseX i="194" alpha="26925.866548627600" sparseCutoff=".99458946592745900E-002"/>
      <sparseX i="195" alpha="-27411.697871534783" sparseCutoff="1.0000000000000000"/>
      <sparseX i="196" alpha="6456.0870066400112" sparseCutoff="1.0000000000000000"/>
      <sparseX i="197" alpha="3577.3894671149392" sparseCutoff=".16610087432875134"/>
      <sparseX i="198" alpha="4907.9230988903946" sparseCutoff=".51032219306275601E-003"/>
      <sparseX i="199" alpha="-4648.3349862930945" sparseCutoff=".22469629290027326"/>
      <sparseX i="200" alpha="-4429.1669355535987" sparseCutoff="1.0000000000000000"/>
    </gpCoordinates>
    <gpCoordinates label="GAP_2023_5_13_180_7_24_31_9855" dimensions="3" signal_variance=".10000000000000000E-001" signal_mean=".00000000000000000E+000" sparsified="T" n_permutations="1" covariance_type="4" n_sparseX="200" sparseX_filename="CH.xml.sparseX.GAP_2023_5_13_180_7_24_31_9855" sparseX_md5sum="9b4bdff5e68e66f77ce668f13a578d43">
      <theta>  0.20000000000000000E+001  0.20000000000000000E+001  0.20000000000000000E+001 </theta>
      <descriptor> angle_3b Z_center=6 Z1=1 Z2=6 cutoff=2.0 n_sparse=200 covariance_type=pp delta=0.01 theta_uniform=2.0 sparse_method=uniform add_species=F</descriptor>
      <permutation i="1">1 2 3  </permutation>
      <sparseX i="1" alpha="7821.5695863742776" sparseCutoff="1.0000000000000000"/>
      <sparseX i="2" alpha="-49008.126908415012" sparseCutoff="1.0000000000000000"/>
      <sparseX i="3" alpha="6196.6621257969337" sparseCutoff="1.0000000000000000"/>
      <sparseX i="4" alpha="7120.7158248197002" sparseCutoff=".77918751673722264"/>
      <sparseX i="5" alpha="-47889.077528328125" sparseCutoff="1.0000000000000000"/>
      <sparseX i="6" alpha="-95014.087405184706" sparseCutoff="1.0000000000000000"/>
      <sparseX i="7" alpha="67173.180626793954" sparseCutoff=".64955474239117558E-001"/>
      <sparseX i="8" alpha="9373.5791921674991" sparseCutoff="1.0000000000000000"/>
      <sparseX i="9" alpha="-1322.1784432520394" sparseCutoff=".60416069903730218"/>
      <sparseX i="10" alpha="89690.167593149061" sparseCutoff=".61558297024313369E-002"/>
      <sparseX i="11" alpha="-1235.9416304522383" sparseCutoff=".59243100675522031"/>
      <sparseX i="12" alpha="-17964.457628254335" sparseCutoff=".59243100675522031"/>
      <sparseX i="13" alpha="-12303.209012585707" sparseCutoff="1.0000000000000000"/>
      <sparseX i="14" alpha="-3550.3638844334346" sparseCutoff="1.0000000000000000"/>
      <sparseX i="15" alpha="4137.1035067254961" sparseCutoff=".68861516004589030"/>
      <sparseX i="16" alpha="101474.26016284795" sparseCutoff=".10484548611871009"/>
      <sparseX i="17" alpha="-11238.835066361693" sparseCutoff=".91283264700404998"/>
      <sparseX i="18" alpha="10769.389370068933" sparseCutoff=".80100265133986603E-003"/>
      <sparseX i="19" alpha="89396.490355979186" sparseCutoff=".89857029915450859E-001"/>
      <sparseX i="20" alpha="-81254.617240497217" sparseCutoff=".89857029915450859E-001"/>
      <sparseX i="21" alpha="92027.684651517076" sparseCutoff=".15284140005327795E-001"/>
      <sparseX i="22" alpha="8.9275155448471857" sparseCutoff=".31999088970881910E-005"/>
      <sparseX i="23" alpha="8538.8714282017518" sparseCutoff=".51275348285461619"/>
      <sparseX i="24" alpha="4911.3911087367323" sparseCutoff=".12017127012606887"/>
      <sparseX i="25" alpha="-119544.94294199758" sparseCutoff=".10811461336508357"/>
      <sparseX i="26" alpha="3805.8869358391498" sparseCutoff=".36917464549180745"/>
      <sparseX i="27" alpha="-3433.6582292179519" sparseCutoff="1.0000000000000000"/>
      <sparseX i="28" alpha="-6603.2300137288285" sparseCutoff="1.0000000000000000"/>
      <sparseX i="29" alpha="4398.5667214516216" sparseCutoff="1.0000000000000000"/>
      <sparseX i="30" alpha="-18293.848568759724" sparseCutoff="1.0000000000000000"/>
      <sparseX i="31" alpha="-12092.088019799106" sparseCutoff=".93374051465129493"/>
      <sparseX i="32" alpha="-1691.6140142120380" sparseCutoff="1.0000000000000000"/>
      <sparseX i="33" alpha="8275.3239590421235" sparseCutoff="1.0000000000000000"/>
      <sparseX i="34" alpha="3258.9015325198129" sparseCutoff="1.0000000000000000"/>
      <sparseX i="35" alpha="128871.31895778789" sparseCutoff="1.0000000000000000"/>
      <sparseX i="36" alpha="48528.211164553199" sparseCutoff="1.0000000000000000"/>
      <sparseX i="37" alpha="166201.47584777733" sparseCutoff=".38834303802881776E-001"/>
      <sparseX i="38" alpha="-5656.7067419449068" sparseCutoff=".54764308746876711E-001"/>
      <sparseX i="39" alpha="35005.835213710059" sparseCutoff=".41743154484689682E-002"/>
      <sparseX i="40" alpha="2082.3257175161889" sparseCutoff="1.0000000000000000"/>
      <sparseX i="41" alpha="-543.42436577047988" sparseCutoff="1.0000000000000000"/>
      <sparseX i="42" alpha="7074.0613156078534" sparseCutoff=".62013246733667204E-001"/>
      <sparseX i="43" alpha="-9871.9431341497111" sparseCutoff=".84108176545299340E-001"/>
      <sparseX i="44" alpha="-7256.5013955607119" sparseCutoff="1.0000000000000000"/>
      <sparseX i="45" alpha="-7398.5044125105069" sparseCutoff="1.0000000000000000"/>
      <sparseX i="46" alpha="-1052.4726454577237" sparseCutoff=".45998355787830708"/>
      <sparseX i="47" alpha="660.30674898181996" sparseCutoff="1.0000000000000000"/>
      <sparseX i="48" alpha="13746.539938427759" sparseCutoff="1.0000000000000000"/>
      <sparseX i="49" alpha="-194280.91050259766" sparseCutoff=".13683875969746567"/>
      <sparseX i="50" alpha="-724.99557319100836" sparseCutoff=".27063895129519899E-004"/>
      <sparseX i="51" alpha="307.39031054439454" sparseCutoff=".13807102707273071E-004"/>
      <sparseX i="52" alpha="-276004.64230522979" sparseCutoff=".56032782517336233E-002"/>
      <sparseX i="53" alpha="-21699.461903307005" sparseCutoff="1.0000000000000000"/>
      <sparseX i="54" alpha="-136079.89595859303" sparseCutoff=".47709374447005792E-001"/>
      <sparseX i="55" alpha="129394.69457642210" sparseCutoff=".14460922486756261"/>
      <sparseX i="56" alpha="56240.590602493976" sparseCutoff=".40039467424223263E-002"/>
      <sparseX i="57" alpha="74738.447514818428" sparseCutoff=".17814439199357035E-002"/>
      <sparseX i="58" alpha="-381.62308568286807" sparseCutoff=".18648536259324722E-004"/>
      <sparseX i="59" alpha="1887.6250070710162" sparseCutoff=".72742621683810338"/>
      <sparseX i="60" alpha="2536.7108579307787" sparseCutoff=".89217154313955116"/>
      <sparseX i="61" alpha="-59126.131071594391" sparseCutoff=".43616416781507843E-001"/>
      <sparseX i="62" alpha="80836.297184149968" sparseCutoff=".10337238208240146E-001"/>
      <sparseX i="63" alpha="49087.930105152867" sparseCutoff=".71010616651569355E-003"/>
      <sparseX i="64" alpha="361506.71816240088" sparseCutoff=".56339371033653444E-002"/>
      <sparseX i="65" alpha="57041.965619924282" sparseCutoff=".64473600939190467E-001"/>
      <sparseX i="66" alpha="135651.89338295857" sparseCutoff=".11178219327417582E-001"/>
      <sparseX i="67" alpha="-3239.3387966196087" sparseCutoff="1.0000000000000000"/>
      <sparseX i="68" alpha="6992.3126664100082" sparseCutoff="1.0000000000000000"/>
      <sparseX i="69" alpha="30739.705411423529" sparseCutoff="1.0000000000000000"/>
      <sparseX i="70" alpha="-8724.1621760802627" sparseCutoff="1.0000000000000000"/>
      <sparseX i="71" alpha="161447.99669375396" sparseCutoff=".12670495178170760E-001"/>
      <sparseX i="72" alpha="-1217.2152951932924" sparseCutoff="1.0000000000000000"/>
      <sparseX i="73" alpha="-18485.915504721503" sparseCutoff="1.0000000000000000"/>
      <sparseX i="74" alpha="82.200913691199077" sparseCutoff=".17869571565243270E-004"/>
      <sparseX i="75" alpha="27406.966904896475" sparseCutoff=".28650721877680120E-001"/>
      <sparseX i="76" alpha="93904.550545379781" sparseCutoff=".10953599248569013"/>
      <sparseX i="77" alpha="16257.786727498542" sparseCutoff="1.0000000000000000"/>
      <sparseX i="78" alpha="16308.674740805587" sparseCutoff="1.0000000000000000"/>
      <sparseX i="79" alpha="-14518.287710453720" sparseCutoff=".27431421180595827E-001"/>
      <sparseX i="80" alpha="-.28316108207323935E-002" sparseCutoff=".51849136650794492E-008"/>
      <sparseX i="81" alpha="216.43872686979148" sparseCutoff=".86191898339820217E-002"/>
      <sparseX i="82" alpha="2639.6711997888574" sparseCutoff=".97028680310391213"/>
      <sparseX i="83" alpha="-14255.920572421610" sparseCutoff="1.0000000000000000"/>
      <sparseX i="84" alpha="2632.1197078122373" sparseCutoff=".34019709856711877E-002"/>
      <sparseX i="85" alpha="196397.70180552852" sparseCutoff=".39643824697025654E-001"/>
      <sparseX i="86" alpha="39508.295948061765" sparseCutoff=".50577882789378248E-002"/>
      <sparseX i="87" alpha="13876.189447494175" sparseCutoff="1.0000000000000000"/>
      <sparseX i="88" alpha="-5994.8298795135024" sparseCutoff=".80113541741648542"/>
      <sparseX i="89" alpha="-82255.196922547533" sparseCutoff=".87344301654072010"/>
      <sparseX i="90" alpha="-154035.30014060150" sparseCutoff=".73124115580073423E-001"/>
      <sparseX i="91" alpha="143363.77321182223" sparseCutoff=".12938144168122462"/>
      <sparseX i="92" alpha="9252.9908089928813" sparseCutoff="1.0000000000000000"/>
      <sparseX i="93" alpha="-8368.2244568674305" sparseCutoff=".51281200216214040"/>
      <sparseX i="94" alpha="-178010.99125531162" sparseCutoff=".38227142729500396E-001"/>
      <sparseX i="95" alpha="-52233.372043964213" sparseCutoff=".93638197757751418"/>
      <sparseX i="96" alpha="-104642.62389838122" sparseCutoff=".44294142834657713E-002"/>
      <sparseX i="97" alpha="-10238.578867893952" sparseCutoff="1.0000000000000000"/>
      <sparseX i="98" alpha="-308760.26268235774" sparseCutoff=".30035114385224104E-001"/>
      <sparseX i="99" alpha="-47909.318825059512" sparseCutoff=".38594332014991073E-001"/>
      <sparseX i="100" alpha="-12389.656656248815" sparseCutoff=".51086629567992370E-003"/>
      <sparseX i="101" alpha="-31376.765423019711" sparseCutoff=".10745118023886002E-002"/>
      <sparseX i="102" alpha="-5218.9349300076392" sparseCutoff=".12856841133038921E-001"/>
      <sparseX i="103" alpha="2234.8734218215154" sparseCutoff=".42383650439531406E-002"/>
      <sparseX i="104" alpha="-24868.299738115868" sparseCutoff=".13634786328345178"/>
      <sparseX i="105" alpha="449.23718277515707" sparseCutoff=".69099765955256487"/>
      <sparseX i="106" alpha="-166517.58909204928" sparseCutoff=".48895333414499378E-001"/>
      <sparseX i="107" alpha="1983.5061620893009" sparseCutoff=".52898559531998246"/>
      <sparseX i="108" alpha="-12978.176715738544" sparseCutoff=".40875102495330218E-003"/>
      <sparseX i="109" alpha="-2066.8122537813847" sparseCutoff=".76706796857465287E-002"/>
      <sparseX i="110" alpha="26621.886835717269" sparseCutoff=".32279321766809817E-001"/>
      <sparseX i="111" alpha="-23778.920529667514" sparseCutoff=".39494344635088569"/>
      <sparseX i="112" alpha="-14447.370921679254" sparseCutoff=".72508436850324820E-001"/>
      <sparseX i="113" alpha="-.17524578376412345E-001" sparseCutoff=".18066240170533376E-008"/>
      <sparseX i="114" alpha="9883.2559706324191" sparseCutoff=".15221748227940886E-003"/>
      <sparseX i="115" alpha="15282.207225654745" sparseCutoff=".14105775257085224E-002"/>
      <sparseX i="116" alpha="139103.13380298650" sparseCutoff=".22278811576335156E-001"/>
      <sparseX i="117" alpha="-10030.961509456940" sparseCutoff=".28363892587215606"/>
      <sparseX i="118" alpha="-295.00747968668458" sparseCutoff=".96786162030404466E-004"/>
      <sparseX i="119" alpha="-59482.056481477666" sparseCutoff=".37197326240416106E-001"/>
      <sparseX i="120" alpha="6742.8730706790639" sparseCutoff=".22536344851334639"/>
      <sparseX i="121" alpha="-74198.143655009131" sparseCutoff=".85266611253265179E-003"/>
      <sparseX i="122" alpha="941.28500056152893" sparseCutoff="1.0000000000000000"/>
      <sparseX i="123" alpha="206013.46333222842" sparseCutoff=".23993108548194232E-001"/>
      <sparseX i="124" alpha="-59489.006340579297" sparseCutoff=".11134653714066012"/>
      <sparseX i="125" alpha="857.75205271541154" sparseCutoff="1.0000000000000000"/>
      <sparseX i="126" alpha="-663576.91099167429" sparseCutoff=".97318335498039477E-002"/>
      <sparseX i="127" alpha="-98879.181655993962" sparseCutoff=".89776847057002118E-001"/>
      <sparseX i="128" alpha="-3021.2718974541995" sparseCutoff=".67184601257153087E-004"/>
      <sparseX i="129" alpha="-323151.24255236197" sparseCutoff=".21378425725605554E-001"/>
      <sparseX i="130" alpha=".32512736563377514" sparseCutoff=".53694195234239018E-008"/>
      <sparseX i="131" alpha="3147.1630355259799" sparseCutoff=".20395763060010452E-003"/>
      <sparseX i="132" alpha="-8762.9371134498324" sparseCutoff="1.0000000000000000"/>
      <sparseX i="133" alpha="-86425.801396215393" sparseCutoff=".32215560249974629E-002"/>
      <sparseX i="134" alpha="4525.5685687631558" sparseCutoff=".76983339613826929"/>
      <sparseX i="135" alpha="-3396.2954727928745" sparseCutoff=".97959872409315363"/>
      <sparseX i="136" alpha="-875.80718548758136" sparseCutoff=".81202340308970422"/>
      <sparseX i="137" alpha="3977.0183046262605" sparseCutoff=".97455322106946851E-002"/>
      <sparseX i="138" alpha="10914.135340272325" sparseCutoff=".21177910379641615"/>
      <sparseX i="139" alpha="4261.9191546690872" sparseCutoff="1.0000000000000000"/>
      <sparseX i="140" alpha="-64092.642788554753" sparseCutoff=".77316371591040767E-003"/>
      <sparseX i="141" alpha="-101813.15818786452" sparseCutoff=".67371030392934572E-001"/>
      <sparseX i="142" alpha="-46704.857061233357" sparseCutoff=".19694732779500623E-001"/>
      <sparseX i="143" alpha="-1999.3591662500232" sparseCutoff=".64728632072710046"/>
      <sparseX i="144" alpha="5117.4812282016837" sparseCutoff="1.0000000000000000"/>
      <sparseX i="145" alpha="115065.31668590430" sparseCutoff=".87478936439253840"/>
      <sparseX i="146" alpha="-2825.9741666389900" sparseCutoff=".73791873124923757"/>
      <sparseX i="147" alpha="-348.67438860809614" sparseCutoff=".39254578208970137"/>
      <sparseX i="148" alpha="-5777.4174663506101" sparseCutoff=".59981929413301815"/>
      <sparseX i="149" alpha="30060.160176979560" sparseCutoff=".30892441027862705E-002"/>
      <sparseX i="150" alpha="28015.413934067441" sparseCutoff=".63140297325543993E-001"/>
      <sparseX i="151" alpha="1672.2053690490486" sparseCutoff="1.0000000000000000"/>
      <sparseX i="152" alpha="-2336.1727573147782" sparseCutoff=".94861241101694393"/>
      <sparseX i="153" alpha="164580.57852850677" sparseCutoff=".10695731857312263E-001"/>
      <sparseX i="154" alpha="8513.5059723622235" sparseCutoff=".47428277603685781"/>
      <sparseX i="155" alpha="47.944380858693378" sparseCutoff="1.0000000000000000"/>
      <sparseX i="156" alpha="30773.941899281941" sparseCutoff=".10815624211854447E-001"/>
      <sparseX i="157" alpha="-46608.519680793084" sparseCutoff=".99840451078278436"/>
      <sparseX i="158" alpha="-68999.820006812646" sparseCutoff=".10252436393024658E-001"/>
      <sparseX i="159" alpha="-4305.7020463384451" sparseCutoff=".28729354239294419"/>
      <sparseX i="160" alpha="-48001.999337580295" sparseCutoff="1.0000000000000000"/>
      <sparseX i="161" alpha="-8805.4958751507293" sparseCutoff=".19921755600222707"/>
      <sparseX i="162" alpha="-46889.402168641645" sparseCutoff=".69640833227549376E-002"/>
      <sparseX i="163" alpha="104262.27799091283" sparseCutoff="1.0000000000000000"/>
      <sparseX i="164" alpha="69401.247418211933" sparseCutoff=".28766317452602558"/>
      <sparseX i="165" alpha="42563.243287517878" sparseCutoff=".80364576813652389E-002"/>
      <sparseX i="166" alpha="-9375.2033426639264" sparseCutoff=".15817123399628102E-002"/>
      <sparseX i="167" alpha="-25385.576101128783" sparseCutoff=".11757904934675767E-001"/>
      <sparseX i="168" alpha="-6467.0170777756302" sparseCutoff=".32874384231257880E-002"/>
      <sparseX i="169" alpha="-41380.811818938819" sparseCutoff=".15138930374655024E-001"/>
      <sparseX i="170" alpha="98436.808982576724" sparseCutoff=".16316979484252292"/>
      <sparseX i="171" alpha="-1894.2458343858043" sparseCutoff=".52330846914985241E-002"/>
      <sparseX i="172" alpha="15217.538388925253" sparseCutoff=".85009802811682933"/>
      <sparseX i="173" alpha="-56700.251025063539" sparseCutoff="1.0000000000000000"/>
      <sparseX i="174" alpha="2325.5839614011170" sparseCutoff=".15737431426585680E-002"/>
      <sparseX i="175" alpha="49699.183414965562" sparseCutoff="1.0000000000000000"/>
      <sparseX i="176" alpha="19160.548666822800" sparseCutoff=".42852646503471559"/>
      <sparseX i="177" alpha="-328.09347363180706" sparseCutoff=".15818634828441147E-002"/>
      <sparseX i="178" alpha="-66428.694299057141" sparseCutoff=".19822522114227364"/>
      <sparseX i="179" alpha="4091.5975183069972" sparseCutoff=".19822522114227364"/>
      <sparseX i="180" alpha="-34335.641125448492" sparseCutoff=".58856374589380854E-002"/>
      <sparseX i="181" alpha="28967.956212390036" sparseCutoff=".84599478349002488"/>
      <sparseX i="182" alpha="-21480.232634023203" sparseCutoff=".55067879661356944"/>
      <sparseX i="183" alpha="18485.882316649895" sparseCutoff=".38521341667743447"/>
      <sparseX i="184" alpha="6043.1736977355513" sparseCutoff="1.0000000000000000"/>
      <sparseX i="185" alpha="-32111.103184788772" sparseCutoff=".21665625906768765"/>
      <sparseX i="186" alpha="-13296.209899296484" sparseCutoff="1.0000000000000000"/>
      <sparseX i="187" alpha="-227.28972679035871" sparseCutoff=".91552748217261137"/>
      <sparseX i="188" alpha="-881.89074820314920" sparseCutoff="1.0000000000000000"/>
      <sparseX i="189" alpha="1647.7573185849867" sparseCutoff=".56939705418720754"/>
      <sparseX i="190" alpha="-140933.76182618734" sparseCutoff=".79666983554314674E-001"/>
      <sparseX i="191" alpha="77149.975895642900" sparseCutoff=".14349986371812604E-001"/>
      <sparseX i="192" alpha="5.7552255613278493" sparseCutoff=".97739981121454252E-007"/>
      <sparseX i="193" alpha="268115.57816095708" sparseCutoff=".81043371288865764E-002"/>
      <sparseX i="194" alpha="2530.2945409898798" sparseCutoff=".98083137102510320"/>
      <sparseX i="195" alpha="-817.24880689809913" sparseCutoff="1.0000000000000000"/>
      <sparseX i="196" alpha="15548.606102342188" sparseCutoff="1.0000000000000000"/>
      <sparseX i="197" alpha="456747.66222155525" sparseCutoff=".46150230649589452E-001"/>
      <sparseX i="198" alpha="-207306.78312579702" sparseCutoff=".38020162128760138E-001"/>
      <sparseX i="199" alpha="141266.46587537994" sparseCutoff=".10034162278597103E-001"/>
      <sparseX i="200" alpha="52941.393123468399" sparseCutoff=".85533948478914879E-001"/>
    </gpCoordinates>
    <gpCoordinates label="GAP_2023_5_13_180_7_24_31_9856" dimensions="3" signal_variance=".10000000000000000E-001" signal_mean=".00000000000000000E+000" sparsified="T" n_permutations="1" covariance_type="4" n_sparseX="200" sparseX_filename="CH.xml.sparseX.GAP_2023_5_13_180_7_24_31_9856" sparseX_md5sum="3392f5f129fd1a1d1dfc0096425743e3">
      <theta>  0.20000000000000000E+001  0.20000000000000000E+001  0.20000000000000000E+001 </theta>
      <descriptor> angle_3b Z_center=6 Z1=6 Z2=6 cutoff=2.0 n_sparse=200 covariance_type=pp delta=0.01 theta_uniform=2.0 sparse_method=uniform add_species=F</descriptor>
      <permutation i="1">1 2 3  </permutation>
      <sparseX i="1" alpha="-146810.79567658113" sparseCutoff=".56599852548704799"/>
      <sparseX i="2" alpha="-49893.391731851800" sparseCutoff="1.0000000000000000"/>
      <sparseX i="3" alpha="-45759.509736602638" sparseCutoff="1.0000000000000000"/>
      <sparseX i="4" alpha="-54811.597307057738" sparseCutoff=".32030396243006298E-002"/>
      <sparseX i="5" alpha="-94096.480808517532" sparseCutoff="1.0000000000000000"/>
      <sparseX i="6" alpha="16209.520056951136" sparseCutoff="1.0000000000000000"/>
      <sparseX i="7" alpha="104923.23835431630" sparseCutoff="1.0000000000000000"/>
      <sparseX i="8" alpha="19109.194965525945" sparseCutoff=".76952947170620256"/>
      <sparseX i="9" alpha="-2339820.0394591046" sparseCutoff=".76189662166766233E-002"/>
      <sparseX i="10" alpha="-87365.758039702865" sparseCutoff="1.0000000000000000"/>
      <sparseX i="11" alpha="-44173.695443036850" sparseCutoff="1.0000000000000000"/>
      <sparseX i="12" alpha="53663.801318460261" sparseCutoff=".17223689322103153"/>
      <sparseX i="13" alpha="110401.55340763807" sparseCutoff=".17223689322103153"/>
      <sparseX i="14" alpha="148268.85544008380" sparseCutoff=".91278016998600453"/>
      <sparseX i="15" alpha="-35812.444939038331" sparseCutoff=".76790706700851707"/>
      <sparseX i="16" alpha="16892.054335146364" sparseCutoff=".99800841256028194"/>
      <sparseX i="17" alpha="532290.29148549528" sparseCutoff=".50284205640433621E-001"/>
      <sparseX i="18" alpha="-157772.06259236182" sparseCutoff=".77770049989357259"/>
      <sparseX i="19" alpha="766943.16217528307" sparseCutoff=".39106051863316428E-001"/>
      <sparseX i="20" alpha="-12518.652411650153" sparseCutoff="1.0000000000000000"/>
      <sparseX i="21" alpha="-4409.1100198778977" sparseCutoff="1.0000000000000000"/>
      <sparseX i="22" alpha="186059.51896624503" sparseCutoff=".12777978809347446E-001"/>
      <sparseX i="23" alpha="-3551.8768529370618" sparseCutoff=".96691778540031526"/>
      <sparseX i="24" alpha="763369.19817154540" sparseCutoff=".11283670819681139"/>
      <sparseX i="25" alpha="1866187.5030120809" sparseCutoff=".18542830427112689E-001"/>
      <sparseX i="26" alpha="-221394.86884710146" sparseCutoff=".64418490158790398"/>
      <sparseX i="27" alpha="-117330.83207383942" sparseCutoff=".14267636685153240"/>
      <sparseX i="28" alpha="129982.87960285349" sparseCutoff=".14267636685153240"/>
      <sparseX i="29" alpha="-107171.12095421598" sparseCutoff=".35756741469741771"/>
      <sparseX i="30" alpha="54287.505704007017" sparseCutoff=".35756741469741771"/>
      <sparseX i="31" alpha="180279.47772737985" sparseCutoff=".18710904913370113"/>
      <sparseX i="32" alpha="55821.716463974743" sparseCutoff=".91780016262676978"/>
      <sparseX i="33" alpha="-2987.3113834687770" sparseCutoff="1.0000000000000000"/>
      <sparseX i="34" alpha="17841.295453759903" sparseCutoff="1.0000000000000000"/>
      <sparseX i="35" alpha="-35346.209676829385" sparseCutoff="1.0000000000000000"/>
      <sparseX i="36" alpha="13468.710681382943" sparseCutoff="1.0000000000000000"/>
      <sparseX i="37" alpha="44391.613413971558" sparseCutoff=".93473003840422864"/>
      <sparseX i="38" alpha="-15158.438415161432" sparseCutoff="1.0000000000000000"/>
      <sparseX i="39" alpha="116138.01974523936" sparseCutoff=".30976176035637992"/>
      <sparseX i="40" alpha="12634.118986968302" sparseCutoff=".42031480412557209"/>
      <sparseX i="41" alpha="11109.124938040222" sparseCutoff="1.0000000000000000"/>
      <sparseX i="42" alpha="51880.240052514549" sparseCutoff="1.0000000000000000"/>
      <sparseX i="43" alpha="-43374.639698853534" sparseCutoff="1.0000000000000000"/>
      <sparseX i="44" alpha="32813.523505343510" sparseCutoff="1.0000000000000000"/>
      <sparseX i="45" alpha="14874.861373743372" sparseCutoff="1.0000000000000000"/>
      <sparseX i="46" alpha="-23296.786471463322" sparseCutoff="1.0000000000000000"/>
      <sparseX i="47" alpha="9621.7883942735407" sparseCutoff="1.0000000000000000"/>
      <sparseX i="48" alpha="23153.009074713929" sparseCutoff=".54492274489679704"/>
      <sparseX i="49" alpha="-13176.564586924786" sparseCutoff="1.0000000000000000"/>
      <sparseX i="50" alpha="-10017.624649034404" sparseCutoff=".28299966026041484"/>
      <sparseX i="51" alpha="51645.664077124318" sparseCutoff="1.0000000000000000"/>
      <sparseX i="52" alpha="-102250.02392459664" sparseCutoff=".67606131723310525"/>
      <sparseX i="53" alpha="64754.500886316338" sparseCutoff=".84463407587553541"/>
      <sparseX i="54" alpha="136.70219225619329" sparseCutoff=".94433363022028927"/>
      <sparseX i="55" alpha="-3729.1614130765884" sparseCutoff=".27063895129519899E-004"/>
      <sparseX i="56" alpha=".99117065974995967E-004" sparseCutoff=".14692344484306479E-013"/>
      <sparseX i="57" alpha="6282.6248979972679" sparseCutoff=".13617305328646713E-003"/>
      <sparseX i="58" alpha="-539038.56847288564" sparseCutoff=".83854036762282411E-001"/>
      <sparseX i="59" alpha="-4375.2595358235267" sparseCutoff=".76181008354547775E-004"/>
      <sparseX i="60" alpha="201641.18220035662" sparseCutoff=".73639911424944948E-002"/>
      <sparseX i="61" alpha="-184991.56931457325" sparseCutoff=".18274973110290485E-001"/>
      <sparseX i="62" alpha="441022.08526219829" sparseCutoff=".19068341945270378"/>
      <sparseX i="63" alpha="1626216.9474609953" sparseCutoff=".89674838595376061E-002"/>
      <sparseX i="64" alpha="517717.89011632779" sparseCutoff=".15228741261328838E-001"/>
      <sparseX i="65" alpha="541287.19825233018" sparseCutoff=".18560224031948847E-001"/>
      <sparseX i="66" alpha="280536.91401691880" sparseCutoff=".83505700528317406E-002"/>
      <sparseX i="67" alpha="-10362.537979219487" sparseCutoff=".30022888249811946"/>
      <sparseX i="68" alpha="-3774882.6043978762" sparseCutoff=".11400848762282312E-001"/>
      <sparseX i="69" alpha="12050.386431582070" sparseCutoff=".31103898768280688E-003"/>
      <sparseX i="70" alpha="-431366.12783019023" sparseCutoff=".22640679255708429"/>
      <sparseX i="71" alpha="-519901.16234347207" sparseCutoff=".14121499443098623"/>
      <sparseX i="72" alpha="246017.57164696764" sparseCutoff=".34398075695420138E-001"/>
      <sparseX i="73" alpha="-339117.26526125940" sparseCutoff=".10170520080522709E-002"/>
      <sparseX i="74" alpha="447.28566655839705" sparseCutoff=".21983532799073463"/>
      <sparseX i="75" alpha="-112172.90265200325" sparseCutoff=".24418377467237240E-001"/>
      <sparseX i="76" alpha="193927.63163600449" sparseCutoff=".68779218059705771E-002"/>
      <sparseX i="77" alpha="1030759.9767570002" sparseCutoff=".16441615346142680E-001"/>
      <sparseX i="78" alpha="145.75560186759208" sparseCutoff=".71199011824663690E-006"/>
      <sparseX i="79" alpha="967.42746277016431" sparseCutoff=".11395982900397339E-004"/>
      <sparseX i="80" alpha="-19455.230302769764" sparseCutoff=".29133288087480402"/>
      <sparseX i="81" alpha="366094.37692310329" sparseCutoff=".26174227636323549"/>
      <sparseX i="82" alpha="-12463.852377726307" sparseCutoff="1.0000000000000000"/>
      <sparseX i="83" alpha="782207.68293395557" sparseCutoff=".32950899282944597E-001"/>
      <sparseX i="84" alpha="-88192.768397363150" sparseCutoff=".19952346099381441"/>
      <sparseX i="85" alpha="-35624.544979777318" sparseCutoff=".34853620749120928"/>
      <sparseX i="86" alpha="-345777.28204167192" sparseCutoff=".82892870262760168E-001"/>
      <sparseX i="87" alpha="-10419.531616671999" sparseCutoff=".72465202494727776"/>
      <sparseX i="88" alpha="7086.9921823460909" sparseCutoff=".68421820873504502"/>
      <sparseX i="89" alpha="-9446.4678346305227" sparseCutoff=".98843563280518221"/>
      <sparseX i="90" alpha="442340.45687244867" sparseCutoff=".18134199037113125E-001"/>
      <sparseX i="91" alpha="-318461.17965678568" sparseCutoff=".91719462682748754"/>
      <sparseX i="92" alpha="252434.26022882637" sparseCutoff=".97316477485784092"/>
      <sparseX i="93" alpha="270399.67886532401" sparseCutoff="1.0000000000000000"/>
      <sparseX i="94" alpha="-2682.3658345046501" sparseCutoff=".99940124089657989"/>
      <sparseX i="95" alpha="243134.21034760293" sparseCutoff=".87561174130429686"/>
      <sparseX i="96" alpha="-709.51022975199453" sparseCutoff=".45863966899484243E-004"/>
      <sparseX i="97" alpha="-44586.142325414919" sparseCutoff=".41925119879680506E-002"/>
      <sparseX i="98" alpha="-33719.118768952118" sparseCutoff=".78673800680818706"/>
      <sparseX i="99" alpha="44418.779996157427" sparseCutoff="1.0000000000000000"/>
      <sparseX i="100" alpha="-11493.374649053481" sparseCutoff=".99918119449307752"/>
      <sparseX i="101" alpha="102311.50016563579" sparseCutoff=".61496218851767881"/>
      <sparseX i="102" alpha="-1287661.4255770899" sparseCutoff=".42638838966349873E-001"/>
      <sparseX i="103" alpha="67326.702287680062" sparseCutoff=".14950193015541630"/>
      <sparseX i="104" alpha="215863.46451032683" sparseCutoff=".75408794148588676"/>
      <sparseX i="105" alpha="-269343.52569030219" sparseCutoff="1.0000000000000000"/>
      <sparseX i="106" alpha="6427.0675076460739" sparseCutoff="1.0000000000000000"/>
      <sparseX i="107" alpha="-9921.6034027162495" sparseCutoff=".69341709160246312"/>
      <sparseX i="108" alpha="-55184.055259605433" sparseCutoff="1.0000000000000000"/>
      <sparseX i="109" alpha="162551.03232121313" sparseCutoff=".61886170734624968"/>
      <sparseX i="110" alpha="-204643.35440018255" sparseCutoff=".23343229978059471"/>
      <sparseX i="111" alpha="-13454.982093487355" sparseCutoff="1.0000000000000000"/>
      <sparseX i="112" alpha="274010.18682410475" sparseCutoff=".24446695039378236"/>
      <sparseX i="113" alpha="-4079.5909976514213" sparseCutoff=".94814331446559652"/>
      <sparseX i="114" alpha="25480.795734668467" sparseCutoff="1.0000000000000000"/>
      <sparseX i="115" alpha="-68602.259709471837" sparseCutoff=".66915697939528063"/>
      <sparseX i="116" alpha="52802.492051370296" sparseCutoff=".89667576504501922"/>
      <sparseX i="117" alpha="19560.522041005835" sparseCutoff="1.0000000000000000"/>
      <sparseX i="118" alpha="113941.65011224231" sparseCutoff=".50587875286306794"/>
      <sparseX i="119" alpha="-15591.156491460395" sparseCutoff=".21051519065430235E-001"/>
      <sparseX i="120" alpha="-33102.818354201845" sparseCutoff=".76214249589655814"/>
      <sparseX i="121" alpha="-26134.787209184102" sparseCutoff="1.0000000000000000"/>
      <sparseX i="122" alpha="38556.744272093783" sparseCutoff=".95979044099230315"/>
      <sparseX i="123" alpha="66320.618754033771" sparseCutoff=".21051519065430235E-001"/>
      <sparseX i="124" alpha="116266.33829532242" sparseCutoff="1.0000000000000000"/>
      <sparseX i="125" alpha="-31220.237285051480" sparseCutoff=".73642501356338941"/>
      <sparseX i="126" alpha="-58751.059111688308" sparseCutoff=".95053321404091939"/>
      <sparseX i="127" alpha="-501594.92294792994" sparseCutoff=".22757510125886393E-001"/>
      <sparseX i="128" alpha="-217760.72616204608" sparseCutoff="1.0000000000000000"/>
      <sparseX i="129" alpha="-18561.693872743614" sparseCutoff="1.0000000000000000"/>
      <sparseX i="130" alpha="-50986.150817163136" sparseCutoff=".73379849637025485E-001"/>
      <sparseX i="131" alpha="-159251.12750302759" sparseCutoff="1.0000000000000000"/>
      <sparseX i="132" alpha="-242591.63895442087" sparseCutoff=".30176593170163191"/>
      <sparseX i="133" alpha="199395.60539266857" sparseCutoff="1.0000000000000000"/>
      <sparseX i="134" alpha="212.34570809111071" sparseCutoff=".13010037673621966E-004"/>
      <sparseX i="135" alpha="-2305.1869214272642" sparseCutoff=".25296178194339491E-003"/>
      <sparseX i="136" alpha="-140488.29424998863" sparseCutoff=".79557912420147203"/>
      <sparseX i="137" alpha="338492.85242993030" sparseCutoff=".11020801173442729"/>
      <sparseX i="138" alpha="-189840.20434957140" sparseCutoff=".85013725385747496"/>
      <sparseX i="139" alpha="-5717.6553453998931" sparseCutoff="1.0000000000000000"/>
      <sparseX i="140" alpha="-8486.3041524893088" sparseCutoff=".90280886115108705"/>
      <sparseX i="141" alpha="-250030.45857364940" sparseCutoff=".52391160011744375E-002"/>
      <sparseX i="142" alpha="-13129.996932246620" sparseCutoff=".77692553555414046E-003"/>
      <sparseX i="143" alpha="-183563.36035211751" sparseCutoff=".82713202834405630"/>
      <sparseX i="144" alpha="-24173.447128671014" sparseCutoff=".77962965647614280"/>
      <sparseX i="145" alpha="197218.18138842680" sparseCutoff=".77962965647614280"/>
      <sparseX i="146" alpha="-4584.3061943034363" sparseCutoff=".11376533482674311E-002"/>
      <sparseX i="147" alpha="-61546.949721196346" sparseCutoff=".11376533482674311E-002"/>
      <sparseX i="148" alpha="-6237.6696041586110" sparseCutoff="1.0000000000000000"/>
      <sparseX i="149" alpha="99580.231903524778" sparseCutoff="1.0000000000000000"/>
      <sparseX i="150" alpha="-7975.3974154474363" sparseCutoff=".10246419023480779E-002"/>
      <sparseX i="151" alpha="13896.894566589794" sparseCutoff="1.0000000000000000"/>
      <sparseX i="152" alpha="-153577.81965249381" sparseCutoff="1.0000000000000000"/>
      <sparseX i="153" alpha="33191.180761748285" sparseCutoff=".99997554989717463"/>
      <sparseX i="154" alpha="-27827.250169962612" sparseCutoff=".43848814915720125E-003"/>
      <sparseX i="155" alpha="-113667.43274398553" sparseCutoff=".88819596373964915"/>
      <sparseX i="156" alpha="7076.5482600553696" sparseCutoff=".99394464951512640"/>
      <sparseX i="157" alpha="28054.619256215316" sparseCutoff="1.0000000000000000"/>
      <sparseX i="158" alpha="-41767.011095508409" sparseCutoff="1.0000000000000000"/>
      <sparseX i="159" alpha="239969.02612346123" sparseCutoff="1.0000000000000000"/>
      <sparseX i="160" alpha="-4.5334585867622073" sparseCutoff=".12250969046445626E-005"/>
      <sparseX i="161" alpha="-1188934.2310558010" sparseCutoff=".10212651409862045"/>
      <sparseX i="162" alpha="33305.652732094095" sparseCutoff=".85148139499838482"/>
      <sparseX i="163" alpha="-55606.731403014768" sparseCutoff="1.0000000000000000"/>
      <sparseX i="164" alpha="-814454.18200816610" sparseCutoff=".41671194531372413E-001"/>
      <sparseX i="165" alpha="563153.73597301100" sparseCutoff=".37344740476354929E-001"/>
      <sparseX i="166" alpha="911652.55527623498" sparseCutoff=".44508976997389760E-001"/>
      <sparseX i="167" alpha="-111749.45643273469" sparseCutoff=".89045728214822151E-001"/>
      <sparseX i="168" alpha="-2574.1360689766184" sparseCutoff=".66649302377774777E-003"/>
      <sparseX i="169" alpha="49129.155236775943" sparseCutoff=".10934004365946542"/>
      <sparseX i="170" alpha="388720.75789652159" sparseCutoff=".15131659917941520E-001"/>
      <sparseX i="171" alpha="-584000.80891830823" sparseCutoff=".29995392001437693E-001"/>
      <sparseX i="172" alpha="782145.76181682199" sparseCutoff=".90928669334069956E-002"/>
      <sparseX i="173" alpha="530864.25498459220" sparseCutoff=".98402968681725045E-002"/>
      <sparseX i="174" alpha="258062.88659060263" sparseCutoff=".27055591450414662"/>
      <sparseX i="175" alpha="475254.15768980666" sparseCutoff=".12875703770581717E-001"/>
      <sparseX i="176" alpha="88068.979594919088" sparseCutoff=".31825239618739148E-002"/>
      <sparseX i="177" alpha="9379.8798629529047" sparseCutoff=".11064750844635984E-003"/>
      <sparseX i="178" alpha="26888.362134791161" sparseCutoff="1.0000000000000000"/>
      <sparseX i="179" alpha="-.33231372668970449E-003" sparseCutoff=".25797908254077129E-009"/>
      <sparseX i="180" alpha="317539.71004136093" sparseCutoff=".26525821095868114E-001"/>
      <sparseX i="181" alpha="-1053773.1642376448" sparseCutoff=".33302783361743591E-002"/>
      <sparseX i="182" alpha="13071.468839542780" sparseCutoff=".58872880927360316"/>
      <sparseX i="183" alpha="39240.652543462325" sparseCutoff=".63279747640668293"/>
      <sparseX i="184" alpha="627323.96419571724" sparseCutoff=".58625156858576999E-001"/>
      <sparseX i="185" alpha="-4176768.9949129508" sparseCutoff=".17420160321389433E-001"/>
      <sparseX i="186" alpha="292571.80727167404" sparseCutoff=".15073149561943127E-001"/>
      <sparseX i="187" alpha="-326024.17751612200" sparseCutoff=".81357275580001831E-002"/>
      <sparseX i="188" alpha="-269299.22846557421" sparseCutoff=".76827791687165525E-001"/>
      <sparseX i="189" alpha="68741.836779167352" sparseCutoff="1.0000000000000000"/>
      <sparseX i="190" alpha="578.46598475080680" sparseCutoff="1.0000000000000000"/>
      <sparseX i="191" alpha="21391.183314090082" sparseCutoff=".82460257510216968E-003"/>
      <sparseX i="192" alpha="9308.1299009759568" sparseCutoff=".89399372313498615"/>
      <sparseX i="193" alpha="934644.79808483238" sparseCutoff=".76035240681295042E-002"/>
      <sparseX i="194" alpha="124920.44214881306" sparseCutoff=".21729579803401211"/>
      <sparseX i="195" alpha="119841.35164193393" sparseCutoff=".38326714979994392"/>
      <sparseX i="196" alpha="2513.6307896976718" sparseCutoff=".10187052106570073"/>
      <sparseX i="197" alpha="-5273.5709845858537" sparseCutoff=".37794800666075179"/>
      <sparseX i="198" alpha="-28910.604217309508" sparseCutoff="1.0000000000000000"/>
      <sparseX i="199" alpha="-1012366.1789524404" sparseCutoff=".18949891965209797E-001"/>
      <sparseX i="200" alpha="86552.169186085666" sparseCutoff=".65617734646680774E-002"/>
    </gpCoordinates>
    <gpCoordinates label="GAP_2023_5_13_180_7_24_31_9857" dimensions="279" signal_variance=".10000000000000001E+000" signal_mean=".00000000000000000E+000" sparsified="T" n_permutations="1" covariance_type="2" zeta="4.0000000000000000" n_sparseX="4872" sparseX_filename="CH.xml.sparseX.GAP_2023_5_13_180_7_24_31_9857" sparseX_md5sum="64698c7acb5884a1a29785e117b33240">
      <descriptor> soap_turbo l_max=8 alpha_max={8 8} atom_sigma_r={0.2 0.2} atom_sigma_t={0.2 0.2} atom_sigma_r_scaling={0.1 0.1} atom_sigma_t_scaling={0.1 0.1} zeta=4 rcut_hard=4.0 rcut_soft=3.5 basis=poly3gauss scaling_mode=polynomial add_species=F amplitude_scaling={2.0 2.0} n_species=2 species_Z={1 6} central_index=1 radial_enhancement=1 compress_file=compress.dat central_weight={1.0 1.0} config_type_n_sparse=dimers:84:trimers:200:soup:700:qm9:100:qm9_dist:150:diss:50:quench:600:mol_quench:1000:hpress:2000:chains:200 delta=0.1 f0=0.0 covariance_type=dot_product sparse_method=cur_points</descriptor>
      <permutation i="1">1  </permutation>
      <sparseX i="1" alpha="-18636.015457225185" sparseCutoff="1.0000000000000000"/>
      <sparseX i="2" alpha="285949.28855109506" sparseCutoff="1.0000000000000000"/>
      <sparseX i="3" alpha="-322454.73717253690" sparseCutoff="1.0000000000000000"/>
      <sparseX i="4" alpha="584221.12471458293" sparseCutoff="1.0000000000000000"/>
      <sparseX i="5" alpha="-368855.19588781585" sparseCutoff="1.0000000000000000"/>
      <sparseX i="6" alpha="-66662.321040314346" sparseCutoff="1.0000000000000000"/>
      <sparseX i="7" alpha="307878.78434405307" sparseCutoff="1.0000000000000000"/>
      <sparseX i="8" alpha="80017.867708820209" sparseCutoff="1.0000000000000000"/>
      <sparseX i="9" alpha="77551.336190855145" sparseCutoff="1.0000000000000000"/>
      <sparseX i="10" alpha="303359.41942226741" sparseCutoff="1.0000000000000000"/>
      <sparseX i="11" alpha="301026.70123058005" sparseCutoff="1.0000000000000000"/>
      <sparseX i="12" alpha="39351.381627171446" sparseCutoff="1.0000000000000000"/>
      <sparseX i="13" alpha="-193940.52056540220" sparseCutoff="1.0000000000000000"/>
      <sparseX i="14" alpha="-228166.17951559633" sparseCutoff="1.0000000000000000"/>
      <sparseX i="15" alpha="-131142.07194782750" sparseCutoff="1.0000000000000000"/>
      <sparseX i="16" alpha="-49682.831453525752" sparseCutoff="1.0000000000000000"/>
      <sparseX i="17" alpha="-50778.909155600719" sparseCutoff="1.0000000000000000"/>
      <sparseX i="18" alpha="-103727.29639751572" sparseCutoff="1.0000000000000000"/>
      <sparseX i="19" alpha="-145316.81212692888" sparseCutoff="1.0000000000000000"/>
      <sparseX i="20" alpha="-139916.87673991951" sparseCutoff="1.0000000000000000"/>
      <sparseX i="21" alpha="-89990.631795223439" sparseCutoff="1.0000000000000000"/>
      <sparseX i="22" alpha="-16465.070928675352" sparseCutoff="1.0000000000000000"/>
      <sparseX i="23" alpha="61494.485910372772" sparseCutoff="1.0000000000000000"/>
      <sparseX i="24" alpha="133889.48282094774" sparseCutoff="1.0000000000000000"/>
      <sparseX i="25" alpha="197541.34800232612" sparseCutoff="1.0000000000000000"/>
      <sparseX i="26" alpha="251536.60527232965" sparseCutoff="1.0000000000000000"/>
      <sparseX i="27" alpha="295121.69128593436" sparseCutoff="1.0000000000000000"/>
      <sparseX i="28" alpha="327835.62530069303" sparseCutoff="1.0000000000000000"/>
      <sparseX i="29" alpha="350217.24530561228" sparseCutoff="1.0000000000000000"/>
      <sparseX i="30" alpha="363971.24367912544" sparseCutoff="1.0000000000000000"/>
      <sparseX i="31" alpha="371464.08551443636" sparseCutoff="1.0000000000000000"/>
      <sparseX i="32" alpha="375017.97522120783" sparseCutoff="1.0000000000000000"/>
      <sparseX i="33" alpha="376443.86042630818" sparseCutoff="1.0000000000000000"/>
      <sparseX i="34" alpha="376907.13972955244" sparseCutoff="1.0000000000000000"/>
      <sparseX i="35" alpha="377013.96931900713" sparseCutoff="1.0000000000000000"/>
      <sparseX i="36" alpha="377025.12722988019" sparseCutoff="1.0000000000000000"/>
      <sparseX i="37" alpha="19924.556010057437" sparseCutoff="1.0000000000000000"/>
      <sparseX i="38" alpha="-303464.89983796829" sparseCutoff="1.0000000000000000"/>
      <sparseX i="39" alpha="178750.78683805926" sparseCutoff="1.0000000000000000"/>
      <sparseX i="40" alpha="-285910.91216777201" sparseCutoff="1.0000000000000000"/>
      <sparseX i="41" alpha="5314.5573485559989" sparseCutoff="1.0000000000000000"/>
      <sparseX i="42" alpha="-136332.17161013355" sparseCutoff="1.0000000000000000"/>
      <sparseX i="43" alpha="-156695.69286424271" sparseCutoff="1.0000000000000000"/>
      <sparseX i="44" alpha="-4209.6694294576237" sparseCutoff="1.0000000000000000"/>
      <sparseX i="45" alpha="-225712.47525171653" sparseCutoff="1.0000000000000000"/>
      <sparseX i="46" alpha="-605586.38635268994" sparseCutoff="1.0000000000000000"/>
      <sparseX i="47" alpha="-702729.62066197663" sparseCutoff="1.0000000000000000"/>
      <sparseX i="48" alpha="-551955.92766050040" sparseCutoff="1.0000000000000000"/>
      <sparseX i="49" alpha="-428647.11700754327" sparseCutoff="1.0000000000000000"/>
      <sparseX i="50" alpha="-434652.80654871458" sparseCutoff="1.0000000000000000"/>
      <sparseX i="51" alpha="-479093.13226878142" sparseCutoff="1.0000000000000000"/>
      <sparseX i="52" alpha="-471298.68497989263" sparseCutoff="1.0000000000000000"/>
      <sparseX i="53" alpha="-420346.22119864967" sparseCutoff="1.0000000000000000"/>
      <sparseX i="54" alpha="-385615.97457838448" sparseCutoff="1.0000000000000000"/>
      <sparseX i="55" alpha="-402820.46969484905" sparseCutoff="1.0000000000000000"/>
      <sparseX i="56" alpha="-455380.04363829445" sparseCutoff="1.0000000000000000"/>
      <sparseX i="57" alpha="-499534.93147106643" sparseCutoff="1.0000000000000000"/>
      <sparseX i="58" alpha="-499455.92842253094" sparseCutoff="1.0000000000000000"/>
      <sparseX i="59" alpha="-444049.87917522452" sparseCutoff="1.0000000000000000"/>
      <sparseX i="60" alpha="-343537.63308826479" sparseCutoff="1.0000000000000000"/>
      <sparseX i="61" alpha="-217673.71268734068" sparseCutoff="1.0000000000000000"/>
      <sparseX i="62" alpha="-85719.141272200068" sparseCutoff="1.0000000000000000"/>
      <sparseX i="63" alpha="37874.758929390468" sparseCutoff="1.0000000000000000"/>
      <sparseX i="64" alpha="144069.78228780648" sparseCutoff="1.0000000000000000"/>
      <sparseX i="65" alpha="228418.93144001593" sparseCutoff="1.0000000000000000"/>
      <sparseX i="66" alpha="290168.11562792916" sparseCutoff="1.0000000000000000"/>
      <sparseX i="67" alpha="331423.88963136112" sparseCutoff="1.0000000000000000"/>
      <sparseX i="68" alpha="356153.23081812460" sparseCutoff="1.0000000000000000"/>
      <sparseX i="69" alpha="369100.12935381505" sparseCutoff="1.0000000000000000"/>
      <sparseX i="70" alpha="374758.46273753460" sparseCutoff="1.0000000000000000"/>
      <sparseX i="71" alpha="376628.53561719268" sparseCutoff="1.0000000000000000"/>
      <sparseX i="72" alpha="377005.07374882069" sparseCutoff="1.0000000000000000"/>
      <sparseX i="73" alpha="-576.43292341299400" sparseCutoff="1.0000000000000000"/>
      <sparseX i="74" alpha="-43504.650131198221" sparseCutoff="1.0000000000000000"/>
      <sparseX i="75" alpha="-34862.120385914932" sparseCutoff="1.0000000000000000"/>
      <sparseX i="76" alpha="-1248.7935073055949" sparseCutoff="1.0000000000000000"/>
      <sparseX i="77" alpha="-1533.2469920011870" sparseCutoff="1.0000000000000000"/>
      <sparseX i="78" alpha="309916.40891702205" sparseCutoff="1.0000000000000000"/>
      <sparseX i="79" alpha="51919.902307881777" sparseCutoff="1.0000000000000000"/>
      <sparseX i="80" alpha="1747.1103670326536" sparseCutoff="1.0000000000000000"/>
      <sparseX i="81" alpha="-44381.170467331773" sparseCutoff="1.0000000000000000"/>
      <sparseX i="82" alpha="-337735.43431620556" sparseCutoff="1.0000000000000000"/>
      <sparseX i="83" alpha="-68784.985973668212" sparseCutoff="1.0000000000000000"/>
      <sparseX i="84" alpha="-10637.710910299642" sparseCutoff="1.0000000000000000"/>
      <sparseX i="85" alpha="19405.268375920743" sparseCutoff="1.0000000000000000"/>
      <sparseX i="86" alpha="-2722.3664213702677" sparseCutoff="1.0000000000000000"/>
      <sparseX i="87" alpha="80634.880725612689" sparseCutoff="1.0000000000000000"/>
      <sparseX i="88" alpha="-1959.9834184589017" sparseCutoff="1.0000000000000000"/>
      <sparseX i="89" alpha="-72422.843306424271" sparseCutoff="1.0000000000000000"/>
      <sparseX i="90" alpha="217683.40904649216" sparseCutoff="1.0000000000000000"/>
      <sparseX i="91" alpha="-5774.3280602351015" sparseCutoff="1.0000000000000000"/>
      <sparseX i="92" alpha="-5348.7461603790362" sparseCutoff="1.0000000000000000"/>
      <sparseX i="93" alpha="-47825.837625400178" sparseCutoff="1.0000000000000000"/>
      <sparseX i="94" alpha="-6572.7487132731821" sparseCutoff="1.0000000000000000"/>
      <sparseX i="95" alpha="-135105.58304928814" sparseCutoff="1.0000000000000000"/>
      <sparseX i="96" alpha="87159.740703208445" sparseCutoff="1.0000000000000000"/>
      <sparseX i="97" alpha="-1076.4156210723306" sparseCutoff="1.0000000000000000"/>
      <sparseX i="98" alpha="516499.05507624481" sparseCutoff="1.0000000000000000"/>
      <sparseX i="99" alpha="-20891.855752440948" sparseCutoff="1.0000000000000000"/>
      <sparseX i="100" alpha="978.82759645382532" sparseCutoff="1.0000000000000000"/>
      <sparseX i="101" alpha="-14548.347435329946" sparseCutoff="1.0000000000000000"/>
      <sparseX i="102" alpha="13431.249539608025" sparseCutoff="1.0000000000000000"/>
      <sparseX i="103" alpha="-55485.899452242949" sparseCutoff="1.0000000000000000"/>
      <sparseX i="104" alpha="310303.87808585208" sparseCutoff="1.0000000000000000"/>
      <sparseX i="105" alpha="-88034.585451531428" sparseCutoff="1.0000000000000000"/>
      <sparseX i="106" alpha="-64609.969085559984" sparseCutoff="1.0000000000000000"/>
      <sparseX i="107" alpha="-59899.825739035703" sparseCutoff="1.0000000000000000"/>
      <sparseX i="108" alpha="-1595.6560166087529" sparseCutoff="1.0000000000000000"/>
      <sparseX i="109" alpha="-42702.863957039699" sparseCutoff="1.0000000000000000"/>
      <sparseX i="110" alpha="-1675.7808590991167" sparseCutoff="1.0000000000000000"/>
      <sparseX i="111" alpha="167967.53258104151" sparseCutoff="1.0000000000000000"/>
      <sparseX i="112" alpha="-86563.050313074942" sparseCutoff="1.0000000000000000"/>
      <sparseX i="113" alpha="193368.67959734538" sparseCutoff="1.0000000000000000"/>
      <sparseX i="114" alpha="128180.60496438759" sparseCutoff="1.0000000000000000"/>
      <sparseX i="115" alpha="-218045.86255336291" sparseCutoff="1.0000000000000000"/>
      <sparseX i="116" alpha="3157.8608278202560" sparseCutoff="1.0000000000000000"/>
      <sparseX i="117" alpha="44110.343085164975" sparseCutoff="1.0000000000000000"/>
      <sparseX i="118" alpha="-15713.956704170028" sparseCutoff="1.0000000000000000"/>
      <sparseX i="119" alpha="-98259.080185284198" sparseCutoff="1.0000000000000000"/>
      <sparseX i="120" alpha="-65074.994688160230" sparseCutoff="1.0000000000000000"/>
      <sparseX i="121" alpha="230011.27417792473" sparseCutoff="1.0000000000000000"/>
      <sparseX i="122" alpha="5372.7790677223311" sparseCutoff="1.0000000000000000"/>
      <sparseX i="123" alpha="177463.05755457352" sparseCutoff="1.0000000000000000"/>
      <sparseX i="124" alpha="-130756.16600814099" sparseCutoff="1.0000000000000000"/>
      <sparseX i="125" alpha="227749.41896965136" sparseCutoff="1.0000000000000000"/>
      <sparseX i="126" alpha="-88506.477168179321" sparseCutoff="1.0000000000000000"/>
      <sparseX i="127" alpha="-75810.845872423481" sparseCutoff="1.0000000000000000"/>
      <sparseX i="128" alpha="-88967.981560826331" sparseCutoff="1.0000000000000000"/>
      <sparseX i="129" alpha="108006.45404052196" sparseCutoff="1.0000000000000000"/>
      <sparseX i="130" alpha="275933.01099204586" sparseCutoff="1.0000000000000000"/>
      <sparseX i="131" alpha="25349.236602808458" sparseCutoff="1.0000000000000000"/>
      <sparseX i="132" alpha="62187.259110548963" sparseCutoff="1.0000000000000000"/>
      <sparseX i="133" alpha="11698.276427935367" sparseCutoff="1.0000000000000000"/>
      <sparseX i="134" alpha="-79778.239796928334" sparseCutoff="1.0000000000000000"/>
      <sparseX i="135" alpha="158412.90771369266" sparseCutoff="1.0000000000000000"/>
      <sparseX i="136" alpha="-521254.65493392304" sparseCutoff="1.0000000000000000"/>
      <sparseX i="137" alpha="-16966.405732349896" sparseCutoff="1.0000000000000000"/>
      <sparseX i="138" alpha="-12695.368243582763" sparseCutoff="1.0000000000000000"/>
      <sparseX i="139" alpha="11748.706745320418" sparseCutoff="1.0000000000000000"/>
      <sparseX i="140" alpha="-11398.176189794425" sparseCutoff="1.0000000000000000"/>
      <sparseX i="141" alpha="-13462.151276587212" sparseCutoff="1.0000000000000000"/>
      <sparseX i="142" alpha="202697.23488741796" sparseCutoff="1.0000000000000000"/>
      <sparseX i="143" alpha="2439.4115712130620" sparseCutoff="1.0000000000000000"/>
      <sparseX i="144" alpha="139770.38517688366" sparseCutoff="1.0000000000000000"/>
      <sparseX i="145" alpha="32510.902152488765" sparseCutoff="1.0000000000000000"/>
      <sparseX i="146" alpha="-9625.4639447278932" sparseCutoff="1.0000000000000000"/>
      <sparseX i="147" alpha="-69465.403700496972" sparseCutoff="1.0000000000000000"/>
      <sparseX i="148" alpha="110677.61164371438" sparseCutoff="1.0000000000000000"/>
      <sparseX i="149" alpha="48753.892036415622" sparseCutoff="1.0000000000000000"/>
      <sparseX i="150" alpha="-7445.3359704448776" sparseCutoff="1.0000000000000000"/>
      <sparseX i="151" alpha="1187.9335381186465" sparseCutoff="1.0000000000000000"/>
      <sparseX i="152" alpha="-37422.949538319372" sparseCutoff="1.0000000000000000"/>
      <sparseX i="153" alpha="-25921.993761961698" sparseCutoff="1.0000000000000000"/>
      <sparseX i="154" alpha="-8533.4098716333629" sparseCutoff="1.0000000000000000"/>
      <sparseX i="155" alpha="-2506.5531013192144" sparseCutoff="1.0000000000000000"/>
      <sparseX i="156" alpha="6196.2613966776526" sparseCutoff="1.0000000000000000"/>
      <sparseX i="157" alpha="-87666.927753872267" sparseCutoff="1.0000000000000000"/>
      <sparseX i="158" alpha="70840.456707475241" sparseCutoff="1.0000000000000000"/>
      <sparseX i="159" alpha="33672.631338245155" sparseCutoff="1.0000000000000000"/>
      <sparseX i="160" alpha="-3468.4827297960824" sparseCutoff="1.0000000000000000"/>
      <sparseX i="161" alpha="-705.55569428169269" sparseCutoff="1.0000000000000000"/>
      <sparseX i="162" alpha="12414.940931562300" sparseCutoff="1.0000000000000000"/>
      <sparseX i="163" alpha="23197.297270952651" sparseCutoff="1.0000000000000000"/>
      <sparseX i="164" alpha="-24203.054065957967" sparseCutoff="1.0000000000000000"/>
      <sparseX i="165" alpha="64718.677681665300" sparseCutoff="1.0000000000000000"/>
      <sparseX i="166" alpha="-37010.251347308644" sparseCutoff="1.0000000000000000"/>
      <sparseX i="167" alpha="13850.330713390962" sparseCutoff="1.0000000000000000"/>
      <sparseX i="168" alpha="77544.365452050843" sparseCutoff="1.0000000000000000"/>
      <sparseX i="169" alpha="-103632.09943957855" sparseCutoff="1.0000000000000000"/>
      <sparseX i="170" alpha="-198251.06019283624" sparseCutoff="1.0000000000000000"/>
      <sparseX i="171" alpha="-111201.04236242830" sparseCutoff="1.0000000000000000"/>
      <sparseX i="172" alpha="-38427.707418902566" sparseCutoff="1.0000000000000000"/>
      <sparseX i="173" alpha="107194.80483589480" sparseCutoff="1.0000000000000000"/>
      <sparseX i="174" alpha="-37246.325408618955" sparseCutoff="1.0000000000000000"/>
      <sparseX i="175" alpha="2399.6817254048733" sparseCutoff="1.0000000000000000"/>
      <sparseX i="176" alpha="2699.5423804489074" sparseCutoff="1.0000000000000000"/>
      <sparseX i="177" alpha="-132697.18912901287" sparseCutoff="1.0000000000000000"/>
      <sparseX i="178" alpha="174403.51617304480" sparseCutoff="1.0000000000000000"/>
      <sparseX i="179" alpha="-90499.117972687629" sparseCutoff="1.0000000000000000"/>
      <sparseX i="180" alpha="-6906.9117283323576" sparseCutoff="1.0000000000000000"/>
      <sparseX i="181" alpha="-3044.4515927594430" sparseCutoff="1.0000000000000000"/>
      <sparseX i="182" alpha="-5173.5375838950449" sparseCutoff="1.0000000000000000"/>
      <sparseX i="183" alpha="3432.0383247556556" sparseCutoff="1.0000000000000000"/>
      <sparseX i="184" alpha="1693.5632868475473" sparseCutoff="1.0000000000000000"/>
      <sparseX i="185" alpha="-18520.971836342884" sparseCutoff="1.0000000000000000"/>
      <sparseX i="186" alpha="745.55385740043278" sparseCutoff="1.0000000000000000"/>
      <sparseX i="187" alpha="188881.99283194009" sparseCutoff="1.0000000000000000"/>
      <sparseX i="188" alpha="40899.665668884285" sparseCutoff="1.0000000000000000"/>
      <sparseX i="189" alpha="97108.981943930819" sparseCutoff="1.0000000000000000"/>
      <sparseX i="190" alpha="-65527.427634873995" sparseCutoff="1.0000000000000000"/>
      <sparseX i="191" alpha="5197.1891638969610" sparseCutoff="1.0000000000000000"/>
      <sparseX i="192" alpha="1379.9048927001390" sparseCutoff="1.0000000000000000"/>
      <sparseX i="193" alpha="-2326.3122142425636" sparseCutoff="1.0000000000000000"/>
      <sparseX i="194" alpha="2967.5394033452408" sparseCutoff="1.0000000000000000"/>
      <sparseX i="195" alpha="11303.836489675414" sparseCutoff="1.0000000000000000"/>
      <sparseX i="196" alpha="223908.80447759942" sparseCutoff="1.0000000000000000"/>
      <sparseX i="197" alpha="-85132.288493906308" sparseCutoff="1.0000000000000000"/>
      <sparseX i="198" alpha="-2510.7425870635429" sparseCutoff="1.0000000000000000"/>
      <sparseX i="199" alpha="-689.58413122611137" sparseCutoff="1.0000000000000000"/>
      <sparseX i="200" alpha="1831.4732009099428" sparseCutoff="1.0000000000000000"/>
      <sparseX i="201" alpha="-319.26282080600794" sparseCutoff="1.0000000000000000"/>
      <sparseX i="202" alpha="63689.615843547384" sparseCutoff="1.0000000000000000"/>
      <sparseX i="203" alpha="-273314.70789659413" sparseCutoff="1.0000000000000000"/>
      <sparseX i="204" alpha="55289.223961278629" sparseCutoff="1.0000000000000000"/>
      <sparseX i="205" alpha="121317.57292790995" sparseCutoff="1.0000000000000000"/>
      <sparseX i="206" alpha="84278.951406064472" sparseCutoff="1.0000000000000000"/>
      <sparseX i="207" alpha="39794.390235363484" sparseCutoff="1.0000000000000000"/>
      <sparseX i="208" alpha="76011.521571317426" sparseCutoff="1.0000000000000000"/>
      <sparseX i="209" alpha="102661.73560689467" sparseCutoff="1.0000000000000000"/>
      <sparseX i="210" alpha="15987.663022098017" sparseCutoff="1.0000000000000000"/>
      <sparseX i="211" alpha="-20537.575379089634" sparseCutoff="1.0000000000000000"/>
      <sparseX i="212" alpha="-291310.45389427920" sparseCutoff="1.0000000000000000"/>
      <sparseX i="213" alpha="-187156.04668219303" sparseCutoff="1.0000000000000000"/>
      <sparseX i="214" alpha="176157.32192619832" sparseCutoff="1.0000000000000000"/>
      <sparseX i="215" alpha="265690.10862280225" sparseCutoff="1.0000000000000000"/>
      <sparseX i="216" alpha="85632.499184781744" sparseCutoff="1.0000000000000000"/>
      <sparseX i="217" alpha="56945.111298464079" sparseCutoff="1.0000000000000000"/>
      <sparseX i="218" alpha="-68857.965785232867" sparseCutoff="1.0000000000000000"/>
      <sparseX i="219" alpha="151238.55211237998" sparseCutoff="1.0000000000000000"/>
      <sparseX i="220" alpha="5431.4641677690634" sparseCutoff="1.0000000000000000"/>
      <sparseX i="221" alpha="-8755.4370831992092" sparseCutoff="1.0000000000000000"/>
      <sparseX i="222" alpha="-44992.973737091983" sparseCutoff="1.0000000000000000"/>
      <sparseX i="223" alpha="44650.713968007381" sparseCutoff="1.0000000000000000"/>
      <sparseX i="224" alpha="-25813.648379751154" sparseCutoff="1.0000000000000000"/>
      <sparseX i="225" alpha="255252.76104877610" sparseCutoff="1.0000000000000000"/>
      <sparseX i="226" alpha="-1652.3371045519800" sparseCutoff="1.0000000000000000"/>
      <sparseX i="227" alpha="22532.038312563986" sparseCutoff="1.0000000000000000"/>
      <sparseX i="228" alpha="-309093.33668790257" sparseCutoff="1.0000000000000000"/>
      <sparseX i="229" alpha="263581.69513127767" sparseCutoff="1.0000000000000000"/>
      <sparseX i="230" alpha="124442.05429479830" sparseCutoff="1.0000000000000000"/>
      <sparseX i="231" alpha="181753.67839675321" sparseCutoff="1.0000000000000000"/>
      <sparseX i="232" alpha="112355.06293117341" sparseCutoff="1.0000000000000000"/>
      <sparseX i="233" alpha="399892.15742643207" sparseCutoff="1.0000000000000000"/>
      <sparseX i="234" alpha="17347.216755747639" sparseCutoff="1.0000000000000000"/>
      <sparseX i="235" alpha="-156967.21602470137" sparseCutoff="1.0000000000000000"/>
      <sparseX i="236" alpha="-112043.62730275070" sparseCutoff="1.0000000000000000"/>
      <sparseX i="237" alpha="116799.84591381023" sparseCutoff="1.0000000000000000"/>
      <sparseX i="238" alpha="-560201.27606439719" sparseCutoff="1.0000000000000000"/>
      <sparseX i="239" alpha="616293.67109031579" sparseCutoff="1.0000000000000000"/>
      <sparseX i="240" alpha="-290914.10819981922" sparseCutoff="1.0000000000000000"/>
      <sparseX i="241" alpha="-95397.516624751064" sparseCutoff="1.0000000000000000"/>
      <sparseX i="242" alpha="41166.849105705449" sparseCutoff="1.0000000000000000"/>
      <sparseX i="243" alpha="-128656.46830348730" sparseCutoff="1.0000000000000000"/>
      <sparseX i="244" alpha="-62740.028734919775" sparseCutoff="1.0000000000000000"/>
      <sparseX i="245" alpha="9142.2638257474518" sparseCutoff="1.0000000000000000"/>
      <sparseX i="246" alpha="-303780.98871990794" sparseCutoff="1.0000000000000000"/>
      <sparseX i="247" alpha="648992.78682326933" sparseCutoff="1.0000000000000000"/>
      <sparseX i="248" alpha="176776.65186843008" sparseCutoff="1.0000000000000000"/>
      <sparseX i="249" alpha="-147409.39137498292" sparseCutoff="1.0000000000000000"/>
      <sparseX i="250" alpha="542017.30965089088" sparseCutoff="1.0000000000000000"/>
      <sparseX i="251" alpha="55470.341677618526" sparseCutoff="1.0000000000000000"/>
      <sparseX i="252" alpha="-14220.242735050188" sparseCutoff="1.0000000000000000"/>
      <sparseX i="253" alpha="-27582.317171533112" sparseCutoff="1.0000000000000000"/>
      <sparseX i="254" alpha="-166440.01168849776" sparseCutoff="1.0000000000000000"/>
      <sparseX i="255" alpha="-399045.17788940668" sparseCutoff="1.0000000000000000"/>
      <sparseX i="256" alpha="59779.112563689057" sparseCutoff="1.0000000000000000"/>
      <sparseX i="257" alpha="-143692.15592563202" sparseCutoff="1.0000000000000000"/>
      <sparseX i="258" alpha="70114.035460246698" sparseCutoff="1.0000000000000000"/>
      <sparseX i="259" alpha="51752.313609138604" sparseCutoff="1.0000000000000000"/>
      <sparseX i="260" alpha="27079.658656716307" sparseCutoff="1.0000000000000000"/>
      <sparseX i="261" alpha="240670.52339558970" sparseCutoff="1.0000000000000000"/>
      <sparseX i="262" alpha="-59128.275320325432" sparseCutoff="1.0000000000000000"/>
      <sparseX i="263" alpha="-150339.68996331448" sparseCutoff="1.0000000000000000"/>
      <sparseX i="264" alpha="13609.299703563558" sparseCutoff="1.0000000000000000"/>
      <sparseX i="265" alpha="-137863.72214516028" sparseCutoff="1.0000000000000000"/>
      <sparseX i="266" alpha="-114170.08080180988" sparseCutoff="1.0000000000000000"/>
      <sparseX i="267" alpha="427688.17005962040" sparseCutoff="1.0000000000000000"/>
      <sparseX i="268" alpha="-20486.424784016468" sparseCutoff="1.0000000000000000"/>
