<GAP_2022_5_19_180_7_17_31_414>
<Potential label="GAP_2022_5_19_180_7_17_31_414" init_args="Sum init_args_pot1={IP Glue} init_args_pot2={IP GAP label=GAP_2022_5_19_180_7_17_31_414}"/>
<pairpot>
<Potential label="pairpot" init_args="IP Glue"/>
<Glue_params n_types="2">
 <per_type_data atomic_num="6" type="1">
  <!-- C, Z: 6, many-body data ==> zero energy for pair potential! -->
  <density num_points="10" density_y1="0.0" density_yn="0.0">
   <point a="0.5" rho="0.2"/>
   <point a="1.0" rho="0.2"/>
   <point a="1.5" rho="0.2"/>
   <point a="2.0" rho="0.2"/>
   <point a="2.5" rho="0.2"/>
   <point a="3.0" rho="0.2"/>
   <point a="3.5" rho="0.2"/>
   <point a="4.0" rho="0.2"/>
   <point a="4.5" rho="0.2"/>
   <point a="5.0" rho="0.2"/>
  </density>
  <potential_density num_points="10">
   <point rho="0.05" E="0.0"/>
   <point rho="0.1111111111111111" E="0.0"/>
   <point rho="0.2222222222222222" E="0.0"/>
   <point rho="0.3333333333333333" E="0.0"/>
   <point rho="0.4444444444444444" E="0.0"/>
   <point rho="0.5555555555555556" E="0.0"/>
   <point rho="0.6666666666666666" E="0.0"/>
   <point rho="0.7777777777777777" E="0.0"/>
   <point rho="0.8888888888888888" E="0.0"/>
   <point rho="1.45" E="0.0"/>
  </potential_density>
 </per_type_data>
 <per_type_data atomic_num="8" type="2">
 <!-- N, Z: 8, many-body data ==> zero energy for pair potential! -->
  <density num_points="10" density_y1="0.0" density_yn="0.0">
   <point a="0.5" rho="0.2"/>
   <point a="1.0" rho="0.2"/>
   <point a="1.5" rho="0.2"/>
   <point a="2.0" rho="0.2"/>
   <point a="2.5" rho="0.2"/>
   <point a="3.0" rho="0.2"/>
   <point a="3.5" rho="0.2"/>
   <point a="4.0" rho="0.2"/>
   <point a="4.5" rho="0.2"/>
   <point a="5.0" rho="0.2"/>
  </density>
  <potential_density num_points="10">
   <point rho="0.0" E="0.0"/>
   <point rho="0.1111111111111111" E="0.0"/>
   <point rho="0.2222222222222222" E="0.0"/>
   <point rho="0.3333333333333333" E="0.0"/>
   <point rho="0.4444444444444444" E="0.0"/>
   <point rho="0.5555555555555556" E="0.0"/>
   <point rho="0.6666666666666666" E="0.0"/>
   <point rho="0.7777777777777777" E="0.0"/>
   <point rho="0.8888888888888888" E="0.0"/>
   <point rho="1.0" E="0.0"/>
  </potential_density>
 </per_type_data>
 <per_pair_data type1="1" type2="1">
  <!-- C-C, Z: 6-6 pair potential -->
  <potential_pair num_points="20" y1="1.e50" yn="0.0">
   <point r="0.0500000000000000" E="4097.5273797199997716"/>
   <point r="0.1000000000000000" E="1802.0416522600000917"/>
   <point r="0.1500000000000000" E="1047.6126364199999443"/>
   <point r="0.2000000000000000" E="681.3707098200000019"/>
   <point r="0.2500000000000000" E="471.5381923200000074"/>
   <point r="0.3000000000000000" E="339.5867137999999841"/>
   <point r="0.3500000000000000" E="251.2275732600000140"/>
   <point r="0.4000000000000000" E="189.3839592699999912"/>
   <point r="0.4500000000000000" E="144.6652514900000028"/>
   <point r="0.5000000000000000" E="111.2889775600000064"/>
   <point r="0.5500000000000000" E="85.3296315200000066"/>
   <point r="0.6000000000000000" E="64.2335172800000009"/>
   <point r="0.6500000000000000" E="46.8073881199999988"/>
   <point r="0.7000000000000000" E="32.6309588599999998"/>
   <point r="0.7500000000000000" E="21.4372415600000004"/>
   <point r="0.8000000000000000" E="12.8230688599999993"/>
   <point r="0.8500000000000000" E="6.2793650599999999"/>
   <point r="0.9000000000000000" E="1.3882432099999999"/>
   <point r="0.9500000000000000" E="0.0000000000000000"/>
   <point r="1.0000000000000000" E="0.0000000000000000"/>
  </potential_pair>
 </per_pair_data>
 <per_pair_data type1="1" type2="2">
  <!-- C-O, Z: 6-8 pair potential -->
  <potential_pair num_points="10" y1="1.e50" yn="0.0">
   <point r="0.100000" E="2787.613705"/>
   <point r="0.200000" E="1079.815707"/>
   <point r="0.300000" E="535.161244"/>
   <point r="0.400000" E="280.409644"/>
   <point r="0.500000" E="142.206060"/>
   <point r="0.600000" E="65.450093"/>
   <point r="0.700000" E="23.789092"/>
   <point r="0.800000" E="2.124163"/>
   <point r="0.900000" E="-4.232913"/>
   <point r="1.000000" E="-0.000000"/>
  </potential_pair>
 </per_pair_data>
 <per_pair_data type1="2" type2="2">
  <!-- O-O, Z: 8-8 pair potential -->
  <potential_pair num_points="10" y1="1.e50" yn="0.0">
   <point r="0.100000" E="4145.961952"/>
   <point r="0.200000" E="1578.270769"/>
   <point r="0.300000" E="749.943690"/>
   <point r="0.400000" E="375.458660"/>
   <point r="0.500000" E="188.167692"/>
   <point r="0.600000" E="91.042589"/>
   <point r="0.700000" E="40.452817"/>
   <point r="0.800000" E="14.365449"/>
   <point r="0.900000" E="0.605994"/>
   <point r="1.000000" E="-0.000000"/>
  </potential_pair>
 </per_pair_data>
</Glue_params>
</pairpot>
<GAP_params label="GAP_2022_5_19_180_7_17_31_414" gap_version="1643998566">
  <GAP_data do_core="T">
    <e0 Z="1" value=".00000000000000000E+000"/>
    <e0 Z="2" value=".00000000000000000E+000"/>
    <e0 Z="3" value=".00000000000000000E+000"/>
    <e0 Z="4" value=".00000000000000000E+000"/>
    <e0 Z="5" value=".00000000000000000E+000"/>
    <e0 Z="6" value="-.16138474000000000"/>
    <e0 Z="7" value=".00000000000000000E+000"/>
    <e0 Z="8" value=".00000000000000000E+000"/>
    <e0 Z="9" value=".00000000000000000E+000"/>
    <e0 Z="10" value=".00000000000000000E+000"/>
    <e0 Z="11" value=".00000000000000000E+000"/>
    <e0 Z="12" value=".00000000000000000E+000"/>
    <e0 Z="13" value=".00000000000000000E+000"/>
    <e0 Z="14" value=".00000000000000000E+000"/>
    <e0 Z="15" value=".00000000000000000E+000"/>
    <e0 Z="16" value=".00000000000000000E+000"/>
    <e0 Z="17" value=".00000000000000000E+000"/>
    <e0 Z="18" value=".00000000000000000E+000"/>
    <e0 Z="19" value=".00000000000000000E+000"/>
    <e0 Z="20" value=".00000000000000000E+000"/>
    <e0 Z="21" value=".00000000000000000E+000"/>
    <e0 Z="22" value=".00000000000000000E+000"/>
    <e0 Z="23" value=".00000000000000000E+000"/>
    <e0 Z="24" value=".00000000000000000E+000"/>
    <e0 Z="25" value=".00000000000000000E+000"/>
    <e0 Z="26" value=".00000000000000000E+000"/>
    <e0 Z="27" value=".00000000000000000E+000"/>
    <e0 Z="28" value=".00000000000000000E+000"/>
    <e0 Z="29" value=".00000000000000000E+000"/>
    <e0 Z="30" value=".00000000000000000E+000"/>
    <e0 Z="31" value=".00000000000000000E+000"/>
    <e0 Z="32" value=".00000000000000000E+000"/>
    <e0 Z="33" value=".00000000000000000E+000"/>
    <e0 Z="34" value=".00000000000000000E+000"/>
    <e0 Z="35" value=".00000000000000000E+000"/>
    <e0 Z="36" value=".00000000000000000E+000"/>
    <e0 Z="37" value=".00000000000000000E+000"/>
    <e0 Z="38" value=".00000000000000000E+000"/>
    <e0 Z="39" value=".00000000000000000E+000"/>
    <e0 Z="40" value=".00000000000000000E+000"/>
    <e0 Z="41" value=".00000000000000000E+000"/>
    <e0 Z="42" value=".00000000000000000E+000"/>
    <e0 Z="43" value=".00000000000000000E+000"/>
    <e0 Z="44" value=".00000000000000000E+000"/>
    <e0 Z="45" value=".00000000000000000E+000"/>
    <e0 Z="46" value=".00000000000000000E+000"/>
    <e0 Z="47" value=".00000000000000000E+000"/>
    <e0 Z="48" value=".00000000000000000E+000"/>
    <e0 Z="49" value=".00000000000000000E+000"/>
    <e0 Z="50" value=".00000000000000000E+000"/>
    <e0 Z="51" value=".00000000000000000E+000"/>
    <e0 Z="52" value=".00000000000000000E+000"/>
    <e0 Z="53" value=".00000000000000000E+000"/>
    <e0 Z="54" value=".00000000000000000E+000"/>
    <e0 Z="55" value=".00000000000000000E+000"/>
    <e0 Z="56" value=".00000000000000000E+000"/>
    <e0 Z="57" value=".00000000000000000E+000"/>
    <e0 Z="58" value=".00000000000000000E+000"/>
    <e0 Z="59" value=".00000000000000000E+000"/>
    <e0 Z="60" value=".00000000000000000E+000"/>
    <e0 Z="61" value=".00000000000000000E+000"/>
    <e0 Z="62" value=".00000000000000000E+000"/>
    <e0 Z="63" value=".00000000000000000E+000"/>
    <e0 Z="64" value=".00000000000000000E+000"/>
    <e0 Z="65" value=".00000000000000000E+000"/>
    <e0 Z="66" value=".00000000000000000E+000"/>
    <e0 Z="67" value=".00000000000000000E+000"/>
    <e0 Z="68" value=".00000000000000000E+000"/>
    <e0 Z="69" value=".00000000000000000E+000"/>
    <e0 Z="70" value=".00000000000000000E+000"/>
    <e0 Z="71" value=".00000000000000000E+000"/>
    <e0 Z="72" value=".00000000000000000E+000"/>
    <e0 Z="73" value=".00000000000000000E+000"/>
    <e0 Z="74" value=".00000000000000000E+000"/>
    <e0 Z="75" value=".00000000000000000E+000"/>
    <e0 Z="76" value=".00000000000000000E+000"/>
    <e0 Z="77" value=".00000000000000000E+000"/>
    <e0 Z="78" value=".00000000000000000E+000"/>
    <e0 Z="79" value=".00000000000000000E+000"/>
    <e0 Z="80" value=".00000000000000000E+000"/>
    <e0 Z="81" value=".00000000000000000E+000"/>
    <e0 Z="82" value=".00000000000000000E+000"/>
    <e0 Z="83" value=".00000000000000000E+000"/>
    <e0 Z="84" value=".00000000000000000E+000"/>
    <e0 Z="85" value=".00000000000000000E+000"/>
    <e0 Z="86" value=".00000000000000000E+000"/>
    <e0 Z="87" value=".00000000000000000E+000"/>
    <e0 Z="88" value=".00000000000000000E+000"/>
    <e0 Z="89" value=".00000000000000000E+000"/>
    <e0 Z="90" value=".00000000000000000E+000"/>
    <e0 Z="91" value=".00000000000000000E+000"/>
    <e0 Z="92" value=".00000000000000000E+000"/>
    <e0 Z="93" value=".00000000000000000E+000"/>
    <e0 Z="94" value=".00000000000000000E+000"/>
    <e0 Z="95" value=".00000000000000000E+000"/>
    <e0 Z="96" value=".00000000000000000E+000"/>
    <e0 Z="97" value=".00000000000000000E+000"/>
    <e0 Z="98" value=".00000000000000000E+000"/>
    <e0 Z="99" value=".00000000000000000E+000"/>
    <e0 Z="100" value=".00000000000000000E+000"/>
    <e0 Z="101" value=".00000000000000000E+000"/>
    <e0 Z="102" value=".00000000000000000E+000"/>
    <e0 Z="103" value=".00000000000000000E+000"/>
    <e0 Z="104" value=".00000000000000000E+000"/>
    <e0 Z="105" value=".00000000000000000E+000"/>
    <e0 Z="106" value=".00000000000000000E+000"/>
    <e0 Z="107" value=".00000000000000000E+000"/>
    <e0 Z="108" value=".00000000000000000E+000"/>
    <e0 Z="109" value=".00000000000000000E+000"/>
    <e0 Z="110" value=".00000000000000000E+000"/>
    <e0 Z="111" value=".00000000000000000E+000"/>
    <e0 Z="112" value=".00000000000000000E+000"/>
    <e0 Z="113" value=".00000000000000000E+000"/>
    <e0 Z="114" value=".00000000000000000E+000"/>
    <e0 Z="115" value=".00000000000000000E+000"/>
    <e0 Z="116" value=".00000000000000000E+000"/>
    <e0 Z="117" value=".00000000000000000E+000"/>
    <e0 Z="118" value=".00000000000000000E+000"/>
  </GAP_data>
  <gpSparse label="GAP_2022_5_19_180_7_17_31_414" n_coordinate="11" fitted="T">
    <gpCoordinates label="GAP_2022_5_19_180_7_17_31_4141" dimensions="1" signal_variance=".50000000000000000" signal_mean=".00000000000000000E+000" sparsified="T" n_permutations="1" covariance_type="1" n_sparseX="40" sparseX_filename="CO.xml.sparseX.GAP_2022_5_19_180_7_17_31_4141" sparseX_md5sum="a330f39c1d995adfbcf1231e4f0e9c83">
      <theta>  0.50000000000000000E+000 </theta>
      <descriptor> distance_2b Z1=8 Z2=8 cutoff=4.5 n_sparse=40 covariance_type=ard_se delta=0.5 theta_uniform=0.5 sparse_method=uniform add_species=F</descriptor>
      <permutation i="1">1  </permutation>
      <sparseX i="1" alpha="123269.82276767134" sparseCutoff="1.0000000000000000"/>
      <sparseX i="2" alpha="-359114.68911983940" sparseCutoff="1.0000000000000000"/>
      <sparseX i="3" alpha="312422.37302297715" sparseCutoff="1.0000000000000000"/>
      <sparseX i="4" alpha="80268.166204134657" sparseCutoff="1.0000000000000000"/>
      <sparseX i="5" alpha="-255043.64337996216" sparseCutoff="1.0000000000000000"/>
      <sparseX i="6" alpha="138674.46394401262" sparseCutoff="1.0000000000000000"/>
      <sparseX i="7" alpha="93175.302743065491" sparseCutoff="1.0000000000000000"/>
      <sparseX i="8" alpha="-128367.44370083924" sparseCutoff="1.0000000000000000"/>
      <sparseX i="9" alpha="-148002.02475758342" sparseCutoff="1.0000000000000000"/>
      <sparseX i="10" alpha="69282.116184952916" sparseCutoff="1.0000000000000000"/>
      <sparseX i="11" alpha="191958.58499057355" sparseCutoff="1.0000000000000000"/>
      <sparseX i="12" alpha="21831.475643128626" sparseCutoff="1.0000000000000000"/>
      <sparseX i="13" alpha="-223546.51521537360" sparseCutoff="1.0000000000000000"/>
      <sparseX i="14" alpha="12011.924533828747" sparseCutoff="1.0000000000000000"/>
      <sparseX i="15" alpha="156742.18225449411" sparseCutoff="1.0000000000000000"/>
      <sparseX i="16" alpha="39070.858237801120" sparseCutoff="1.0000000000000000"/>
      <sparseX i="17" alpha="-141667.50720964500" sparseCutoff="1.0000000000000000"/>
      <sparseX i="18" alpha="-112370.27975283244" sparseCutoff="1.0000000000000000"/>
      <sparseX i="19" alpha="81159.974655411643" sparseCutoff="1.0000000000000000"/>
      <sparseX i="20" alpha="143185.49285946335" sparseCutoff="1.0000000000000000"/>
      <sparseX i="21" alpha="-43632.124785914086" sparseCutoff="1.0000000000000000"/>
      <sparseX i="22" alpha="-180323.15106412463" sparseCutoff="1.0000000000000000"/>
      <sparseX i="23" alpha="58633.056280604535" sparseCutoff="1.0000000000000000"/>
      <sparseX i="24" alpha="161382.85471286587" sparseCutoff="1.0000000000000000"/>
      <sparseX i="25" alpha="13894.787178031826" sparseCutoff="1.0000000000000000"/>
      <sparseX i="26" alpha="-145708.55552501301" sparseCutoff="1.0000000000000000"/>
      <sparseX i="27" alpha="-71736.052453244236" sparseCutoff="1.0000000000000000"/>
      <sparseX i="28" alpha="141726.77498188429" sparseCutoff="1.0000000000000000"/>
      <sparseX i="29" alpha="40421.750481040894" sparseCutoff="1.0000000000000000"/>
      <sparseX i="30" alpha="-103333.95910424611" sparseCutoff="1.0000000000000000"/>
      <sparseX i="31" alpha="-40862.251824315899" sparseCutoff="1.0000000000000000"/>
      <sparseX i="32" alpha="89543.234237724842" sparseCutoff="1.0000000000000000"/>
      <sparseX i="33" alpha="57679.563440403908" sparseCutoff="1.0000000000000000"/>
      <sparseX i="34" alpha="-76537.909804059644" sparseCutoff="1.0000000000000000"/>
      <sparseX i="35" alpha="-59567.373239213834" sparseCutoff="1.0000000000000000"/>
      <sparseX i="36" alpha="88208.332748227695" sparseCutoff="1.0000000000000000"/>
      <sparseX i="37" alpha="-65236.569896640009" sparseCutoff=".65450849718747317"/>
      <sparseX i="38" alpha="62528.696041300282" sparseCutoff=".34549150281252683"/>
      <sparseX i="39" alpha="-20854.561551492105" sparseCutoff=".95491502812525664E-001"/>
      <sparseX i="40" alpha="-52533.709604175936" sparseCutoff=".15912243277679428E-001"/>
    </gpCoordinates>
    <gpCoordinates label="GAP_2022_5_19_180_7_17_31_4142" dimensions="1" signal_variance=".50000000000000000" signal_mean=".00000000000000000E+000" sparsified="T" n_permutations="1" covariance_type="1" n_sparseX="40" sparseX_filename="CO.xml.sparseX.GAP_2022_5_19_180_7_17_31_4142" sparseX_md5sum="8ecb6456ccd1193ca8f17fc8cd85e26e">
      <theta>  0.50000000000000000E+000 </theta>
      <descriptor> distance_2b Z1=8 Z2=6 cutoff=4.5 n_sparse=40 covariance_type=ard_se delta=0.5 theta_uniform=0.5 sparse_method=uniform add_species=F</descriptor>
      <permutation i="1">1  </permutation>
      <sparseX i="1" alpha="-8858.6794289964455" sparseCutoff="1.0000000000000000"/>
      <sparseX i="2" alpha="262433.59254943166" sparseCutoff="1.0000000000000000"/>
      <sparseX i="3" alpha="-489487.66452938039" sparseCutoff="1.0000000000000000"/>
      <sparseX i="4" alpha="-154781.56466114070" sparseCutoff="1.0000000000000000"/>
      <sparseX i="5" alpha="726396.52541660785" sparseCutoff="1.0000000000000000"/>
      <sparseX i="6" alpha="-236264.62407268965" sparseCutoff="1.0000000000000000"/>
      <sparseX i="7" alpha="-578837.22721825878" sparseCutoff="1.0000000000000000"/>
      <sparseX i="8" alpha="99042.003335755566" sparseCutoff="1.0000000000000000"/>
      <sparseX i="9" alpha="702796.28719371185" sparseCutoff="1.0000000000000000"/>
      <sparseX i="10" alpha="260556.73346700729" sparseCutoff="1.0000000000000000"/>
      <sparseX i="11" alpha="-607617.62620396074" sparseCutoff="1.0000000000000000"/>
      <sparseX i="12" alpha="-559031.85325069062" sparseCutoff="1.0000000000000000"/>
      <sparseX i="13" alpha="518815.63041431177" sparseCutoff="1.0000000000000000"/>
      <sparseX i="14" alpha="693934.31447938934" sparseCutoff="1.0000000000000000"/>
      <sparseX i="15" alpha="-448212.65612574236" sparseCutoff="1.0000000000000000"/>
      <sparseX i="16" alpha="-707202.61713411089" sparseCutoff="1.0000000000000000"/>
      <sparseX i="17" alpha="97799.937080132688" sparseCutoff="1.0000000000000000"/>
      <sparseX i="18" alpha="708812.30935331620" sparseCutoff="1.0000000000000000"/>
      <sparseX i="19" alpha="260902.22902161552" sparseCutoff="1.0000000000000000"/>
      <sparseX i="20" alpha="-519793.55337783048" sparseCutoff="1.0000000000000000"/>
      <sparseX i="21" alpha="-434568.38413372450" sparseCutoff="1.0000000000000000"/>
      <sparseX i="22" alpha="780823.22865808185" sparseCutoff="1.0000000000000000"/>
      <sparseX i="23" alpha="118134.74351371556" sparseCutoff="1.0000000000000000"/>
      <sparseX i="24" alpha="-611222.52991067723" sparseCutoff="1.0000000000000000"/>
      <sparseX i="25" alpha="-363004.81148365611" sparseCutoff="1.0000000000000000"/>
      <sparseX i="26" alpha="427078.60665244464" sparseCutoff="1.0000000000000000"/>
      <sparseX i="27" alpha="483021.74334464833" sparseCutoff="1.0000000000000000"/>
      <sparseX i="28" alpha="-389442.20114946755" sparseCutoff="1.0000000000000000"/>
      <sparseX i="29" alpha="-432612.23664530506" sparseCutoff="1.0000000000000000"/>
      <sparseX i="30" alpha="413748.21976378228" sparseCutoff="1.0000000000000000"/>
      <sparseX i="31" alpha="360331.13409323589" sparseCutoff="1.0000000000000000"/>
      <sparseX i="32" alpha="-327322.24996266060" sparseCutoff="1.0000000000000000"/>
      <sparseX i="33" alpha="-382127.50014991732" sparseCutoff="1.0000000000000000"/>
      <sparseX i="34" alpha="290686.94539207121" sparseCutoff="1.0000000000000000"/>
      <sparseX i="35" alpha="365655.67185001360" sparseCutoff="1.0000000000000000"/>
      <sparseX i="36" alpha="-426836.65105572605" sparseCutoff="1.0000000000000000"/>
      <sparseX i="37" alpha="300391.00649367378" sparseCutoff=".65450849718747317"/>
      <sparseX i="38" alpha="-313514.27853380411" sparseCutoff=".34549150281252683"/>
      <sparseX i="39" alpha="201707.76757882774" sparseCutoff=".95491502812525664E-001"/>
      <sparseX i="40" alpha="631.59326215474539" sparseCutoff=".11603020351746984E-004"/>
    </gpCoordinates>
    <gpCoordinates label="GAP_2022_5_19_180_7_17_31_4143" dimensions="1" signal_variance=".50000000000000000" signal_mean=".00000000000000000E+000" sparsified="T" n_permutations="1" covariance_type="1" n_sparseX="40" sparseX_filename="CO.xml.sparseX.GAP_2022_5_19_180_7_17_31_4143" sparseX_md5sum="d41b59ae4a23e6c85bc96fb28cedd47f">
      <theta>  0.50000000000000000E+000 </theta>
      <descriptor> distance_2b Z1=6 Z2=6 cutoff=4.5 n_sparse=40 covariance_type=ard_se delta=0.5 theta_uniform=0.5 sparse_method=uniform add_species=F</descriptor>
      <permutation i="1">1  </permutation>
      <sparseX i="1" alpha="406861.75972461584" sparseCutoff=".38437050441691878E-001"/>
      <sparseX i="2" alpha="208867.06270082635" sparseCutoff="1.0000000000000000"/>
      <sparseX i="3" alpha="257993.66416608531" sparseCutoff="1.0000000000000000"/>
      <sparseX i="4" alpha="-281962.54475228995" sparseCutoff="1.0000000000000000"/>
      <sparseX i="5" alpha="-11504.145305599950" sparseCutoff="1.0000000000000000"/>
      <sparseX i="6" alpha="-461136.37877289683" sparseCutoff="1.0000000000000000"/>
      <sparseX i="7" alpha="284886.72296220082" sparseCutoff="1.0000000000000000"/>
      <sparseX i="8" alpha="252224.15168816576" sparseCutoff=".70426257266472392"/>
      <sparseX i="9" alpha="-52626.449881923574" sparseCutoff="1.0000000000000000"/>
      <sparseX i="10" alpha="166399.92704969642" sparseCutoff="1.0000000000000000"/>
      <sparseX i="11" alpha="-389686.41830685467" sparseCutoff=".99855210829397389"/>
      <sparseX i="12" alpha="-267962.05382171791" sparseCutoff="1.0000000000000000"/>
      <sparseX i="13" alpha="-195647.67897299607" sparseCutoff="1.0000000000000000"/>
      <sparseX i="14" alpha="577259.57321727625" sparseCutoff="1.0000000000000000"/>
      <sparseX i="15" alpha="-244605.17648575918" sparseCutoff="1.0000000000000000"/>
      <sparseX i="16" alpha="-105234.85512927377" sparseCutoff="1.0000000000000000"/>
      <sparseX i="17" alpha="20157.195922898700" sparseCutoff="1.0000000000000000"/>
      <sparseX i="18" alpha="268756.36469029781" sparseCutoff="1.0000000000000000"/>
      <sparseX i="19" alpha="-413248.59168957348" sparseCutoff="1.0000000000000000"/>
      <sparseX i="20" alpha="186204.49054296172" sparseCutoff=".66098066432118685E-002"/>
      <sparseX i="21" alpha="-536168.66161763330" sparseCutoff="1.0000000000000000"/>
      <sparseX i="22" alpha="375358.38762357022" sparseCutoff="1.0000000000000000"/>
      <sparseX i="23" alpha="-282218.22046224243" sparseCutoff=".25814939498822109"/>
      <sparseX i="24" alpha="401129.05370561348" sparseCutoff="1.0000000000000000"/>
      <sparseX i="25" alpha="246312.01761210544" sparseCutoff="1.0000000000000000"/>
      <sparseX i="26" alpha="-369988.89371088700" sparseCutoff="1.0000000000000000"/>
      <sparseX i="27" alpha="-7598.4300010006673" sparseCutoff="1.0000000000000000"/>
      <sparseX i="28" alpha="240068.09833038464" sparseCutoff="1.0000000000000000"/>
      <sparseX i="29" alpha="20778.155453363412" sparseCutoff="1.0000000000000000"/>
      <sparseX i="30" alpha="-58702.586445651817" sparseCutoff="1.0000000000000000"/>
      <sparseX i="31" alpha="31850.289518483496" sparseCutoff="1.0000000000000000"/>
      <sparseX i="32" alpha="493412.61987113819" sparseCutoff="1.0000000000000000"/>
      <sparseX i="33" alpha="-15584.345980204676" sparseCutoff="1.0000000000000000"/>
      <sparseX i="34" alpha="-134246.65737646478" sparseCutoff="1.0000000000000000"/>
      <sparseX i="35" alpha="-452294.74344745599" sparseCutoff="1.0000000000000000"/>
      <sparseX i="36" alpha="-563827.28981780238" sparseCutoff="1.0000000000000000"/>
      <sparseX i="37" alpha="21717.120464451920" sparseCutoff="1.0000000000000000"/>
      <sparseX i="38" alpha="458891.71692449768" sparseCutoff="1.0000000000000000"/>
      <sparseX i="39" alpha="407200.71882538858" sparseCutoff="1.0000000000000000"/>
      <sparseX i="40" alpha="-40802.535998695901" sparseCutoff="1.0000000000000000"/>
    </gpCoordinates>
    <gpCoordinates label="GAP_2022_5_19_180_7_17_31_4144" dimensions="3" signal_variance=".10000000000000000E-001" signal_mean=".00000000000000000E+000" sparsified="T" n_permutations="1" covariance_type="4" n_sparseX="200" sparseX_filename="CO.xml.sparseX.GAP_2022_5_19_180_7_17_31_4144" sparseX_md5sum="c87f847e80e190d633976799e02caf2c">
      <theta>  0.20000000000000000E+001  0.20000000000000000E+001  0.20000000000000000E+001 </theta>
      <descriptor> angle_3b Z_center=8 Z1=8 Z2=8 cutoff=2.0 n_sparse=200 covariance_type=pp delta=0.01 theta_uniform=2.0 sparse_method=uniform add_species=F</descriptor>
      <permutation i="1">1 2 3  </permutation>
      <sparseX i="1" alpha=".31575721705598458" sparseCutoff="1.0000000000000000"/>
      <sparseX i="2" alpha="-.25662038320111646" sparseCutoff="1.0000000000000000"/>
      <sparseX i="3" alpha=".17606056522253402" sparseCutoff="1.0000000000000000"/>
      <sparseX i="4" alpha="-.48727475053377217" sparseCutoff=".64909159014038176"/>
      <sparseX i="5" alpha="1.4060374397693809" sparseCutoff=".64909159014038176"/>
      <sparseX i="6" alpha="1.5646579948734385" sparseCutoff="1.0000000000000000"/>
      <sparseX i="7" alpha=".91209180542571336E-001" sparseCutoff=".90044685567682103"/>
      <sparseX i="8" alpha="-.12261336423749683" sparseCutoff=".90044685567682103"/>
      <sparseX i="9" alpha=".42391445831109303" sparseCutoff="1.0000000000000000"/>
      <sparseX i="10" alpha="2.0447428396393970" sparseCutoff=".90044685567682103"/>
      <sparseX i="11" alpha="-.74227246426124449" sparseCutoff="1.0000000000000000"/>
      <sparseX i="12" alpha="-4.4230760281035986" sparseCutoff=".18789737546410062"/>
      <sparseX i="13" alpha="9.5280772107997223" sparseCutoff="1.0000000000000000"/>
      <sparseX i="14" alpha="-8.8748364797963095" sparseCutoff="1.0000000000000000"/>
      <sparseX i="15" alpha="-3.3897407079044926" sparseCutoff="1.0000000000000000"/>
      <sparseX i="16" alpha="1.2645721364222411" sparseCutoff=".89929070685403523"/>
      <sparseX i="17" alpha="-.16948234809109730" sparseCutoff=".89929070685403523"/>
      <sparseX i="18" alpha=".58438624326565669" sparseCutoff="1.0000000000000000"/>
      <sparseX i="19" alpha="-.39893239649751201E-001" sparseCutoff="1.0000000000000000"/>
      <sparseX i="20" alpha=".43011157440474296" sparseCutoff="1.0000000000000000"/>
      <sparseX i="21" alpha="39.324422851294074" sparseCutoff=".19299595086953358"/>
      <sparseX i="22" alpha="-13.153459275176381" sparseCutoff=".19299595086953358"/>
      <sparseX i="23" alpha="-2.2000867027106392" sparseCutoff=".19299595086953358"/>
      <sparseX i="24" alpha="16.040797230663685" sparseCutoff=".19299595086953358"/>
      <sparseX i="25" alpha="3.1101476893945725" sparseCutoff=".49422620431400432"/>
      <sparseX i="26" alpha="1.6553586331335863" sparseCutoff="1.0000000000000000"/>
      <sparseX i="27" alpha="-.84056251897790335" sparseCutoff="1.0000000000000000"/>
      <sparseX i="28" alpha="-2.8694937364114983" sparseCutoff=".49422620431400432"/>
      <sparseX i="29" alpha="-1241.7299299328502" sparseCutoff=".67222302157511661E-002"/>
      <sparseX i="30" alpha="-8395.7770898974559" sparseCutoff=".13601525287558869E-001"/>
      <sparseX i="31" alpha=".92368161825053297" sparseCutoff="1.0000000000000000"/>
      <sparseX i="32" alpha="-3.6937100109446641" sparseCutoff=".80948834631352906"/>
      <sparseX i="33" alpha="-.12202173342360567" sparseCutoff=".80948834631352906"/>
      <sparseX i="34" alpha="-.84085527093153167" sparseCutoff="1.0000000000000000"/>
      <sparseX i="35" alpha="1.4104135685701589" sparseCutoff="1.0000000000000000"/>
      <sparseX i="36" alpha="-1.4023837365364544" sparseCutoff="1.0000000000000000"/>
      <sparseX i="37" alpha="406.77996236402248" sparseCutoff=".13601525287558869E-001"/>
      <sparseX i="38" alpha="-2.4354407841144265" sparseCutoff=".80948834631352906"/>
      <sparseX i="39" alpha="-1938.3431227580104" sparseCutoff=".13601525287558869E-001"/>
      <sparseX i="40" alpha="10228.753933297930" sparseCutoff=".55815330389439866E-002"/>
      <sparseX i="41" alpha="-334.64985835802923" sparseCutoff=".13601525287558869E-001"/>
      <sparseX i="42" alpha="4842.0864110548155" sparseCutoff=".55815330389439866E-002"/>
      <sparseX i="43" alpha="12818.806285614404" sparseCutoff=".55815330389439866E-002"/>
      <sparseX i="44" alpha="-41291.450808400084" sparseCutoff=".75917362772541931E-004"/>
      <sparseX i="45" alpha="-3046.7382484616819" sparseCutoff=".55815330389439866E-002"/>
      <sparseX i="46" alpha="9446.2914885839091" sparseCutoff=".10772132761607122E-002"/>
      <sparseX i="47" alpha="84.566720055557170" sparseCutoff=".29316702766759906E-001"/>
      <sparseX i="48" alpha="-.33578605851502791" sparseCutoff="1.0000000000000000"/>
      <sparseX i="49" alpha="-.18497554944504166" sparseCutoff="1.0000000000000000"/>
      <sparseX i="50" alpha="-.11791560875421940" sparseCutoff="1.0000000000000000"/>
      <sparseX i="51" alpha=".55082136420497574" sparseCutoff=".81015445475211090"/>
      <sparseX i="52" alpha="-.70347070928333519E-001" sparseCutoff=".99773997805719583"/>
      <sparseX i="53" alpha="-4.2267349474406881" sparseCutoff=".37637602653256841"/>
      <sparseX i="54" alpha="-15.624310180818812" sparseCutoff=".71277095120640552E-001"/>
      <sparseX i="55" alpha="-1.4487575999501641" sparseCutoff=".19802609459113724"/>
      <sparseX i="56" alpha="-.21884272675992980E-001" sparseCutoff="1.0000000000000000"/>
      <sparseX i="57" alpha="2.5860089117721321" sparseCutoff=".19802609459113724"/>
      <sparseX i="58" alpha="-11.731403402287672" sparseCutoff=".10053186679036046"/>
      <sparseX i="59" alpha="-4.0549990306429233" sparseCutoff=".20152366395636034"/>
      <sparseX i="60" alpha="1.4002474809622820" sparseCutoff=".17955820938227968"/>
      <sparseX i="61" alpha="-.25310899403547499" sparseCutoff=".13117693895941746"/>
      <sparseX i="62" alpha="-420.80594384103483" sparseCutoff=".22825884265156257E-002"/>
      <sparseX i="63" alpha="-2600.3866503716167" sparseCutoff=".35890798065422724E-002"/>
      <sparseX i="64" alpha="28877.850274179298" sparseCutoff=".44813540843204242E-003"/>
      <sparseX i="65" alpha=".64262719616906799E-001" sparseCutoff="1.0000000000000000"/>
      <sparseX i="66" alpha="121.66575189187003" sparseCutoff=".15435480565125559E-001"/>
      <sparseX i="67" alpha="1099.5142226391522" sparseCutoff=".51243567332147945E-002"/>
      <sparseX i="68" alpha="172.83955668820823" sparseCutoff=".35890798065422724E-002"/>
      <sparseX i="69" alpha="3493.7553806116921" sparseCutoff=".18251282275944525E-002"/>
      <sparseX i="70" alpha="-4749.1104023403950" sparseCutoff=".16312922489070414E-002"/>
      <sparseX i="71" alpha="-128.25330391318235" sparseCutoff=".30772503164033124E-001"/>
      <sparseX i="72" alpha="-173.30929286989618" sparseCutoff=".13796170276338308E-001"/>
      <sparseX i="73" alpha="2.1964496174882395" sparseCutoff=".35018048583782041"/>
      <sparseX i="74" alpha="-2.3976017064165331" sparseCutoff=".80019573677088063E-001"/>
      <sparseX i="75" alpha="-6.2375851475149720" sparseCutoff=".92801168061582895E-001"/>
      <sparseX i="76" alpha="-23.320804615727397" sparseCutoff=".10305318002724217E-001"/>
      <sparseX i="77" alpha="-7102.9579550349845" sparseCutoff=".33368209043869233E-002"/>
      <sparseX i="78" alpha="58.954804158496806" sparseCutoff=".83861981249971455E-002"/>
      <sparseX i="79" alpha="449.80632256264948" sparseCutoff=".10305318002724217E-001"/>
      <sparseX i="80" alpha="-141.79668029133600" sparseCutoff=".10305318002724217E-001"/>
      <sparseX i="81" alpha="-.22335941407003113E-001" sparseCutoff=".98224555706946015"/>
      <sparseX i="82" alpha=".37749549449155720E-001" sparseCutoff=".98529474271092843"/>
      <sparseX i="83" alpha="-.70049036792483366" sparseCutoff=".53704353359603263"/>
      <sparseX i="84" alpha=".23116450499773836" sparseCutoff=".44139401930999023"/>
      <sparseX i="85" alpha="2784.1914488675811" sparseCutoff=".49834534510352609E-002"/>
      <sparseX i="86" alpha="-200.48741499832602" sparseCutoff=".18076318415872539E-001"/>
      <sparseX i="87" alpha="-60.387061219426499" sparseCutoff=".18076318415872539E-001"/>
      <sparseX i="88" alpha=".88971375402165778E-001" sparseCutoff=".82296300911062192"/>
      <sparseX i="89" alpha="-14.253290252149217" sparseCutoff=".98989758562355756E-001"/>
      <sparseX i="90" alpha=".28640567283939633" sparseCutoff=".14247920480933188"/>
      <sparseX i="91" alpha="-408.56204898370021" sparseCutoff=".13582936812144730E-001"/>
      <sparseX i="92" alpha="-92.672889122650574" sparseCutoff=".19311946577097845E-001"/>
      <sparseX i="93" alpha="-1.8266158286024483" sparseCutoff=".21659093768149890"/>
      <sparseX i="94" alpha="62.101198418657162" sparseCutoff=".56808638190426440E-001"/>
      <sparseX i="95" alpha="-103.82553931981765" sparseCutoff=".27133404945352713E-001"/>
      <sparseX i="96" alpha=".64255162712193559E-001" sparseCutoff="1.0000000000000000"/>
      <sparseX i="97" alpha=".30921039311943405" sparseCutoff=".68299679862949181"/>
      <sparseX i="98" alpha=".54273108921253077" sparseCutoff=".52517693836031021"/>
      <sparseX i="99" alpha="-.75472291774110065E-001" sparseCutoff=".92636958500290145"/>
      <sparseX i="100" alpha="-.22810313186079070" sparseCutoff=".54255597646348963"/>
      <sparseX i="101" alpha="-5697.9603983067518" sparseCutoff=".15652326950977391E-002"/>
      <sparseX i="102" alpha="217.17379730553907" sparseCutoff=".29012184100430827E-001"/>
      <sparseX i="103" alpha="-1.6129037637451693" sparseCutoff=".43796184931786308"/>
      <sparseX i="104" alpha="22065.599911893631" sparseCutoff=".25987423141510578E-002"/>
      <sparseX i="105" alpha="-.20471594606183807" sparseCutoff=".60311092283987267"/>
      <sparseX i="106" alpha=".52965997646088940E-001" sparseCutoff="1.0000000000000000"/>
      <sparseX i="107" alpha="-.36436811560491800" sparseCutoff=".29318723492350657"/>
      <sparseX i="108" alpha="-13883.363918539006" sparseCutoff=".25256187647895558E-002"/>
      <sparseX i="109" alpha="1132.7592993315438" sparseCutoff=".70219142083474129E-002"/>
      <sparseX i="110" alpha="1592.2528647446907" sparseCutoff=".66669819697647830E-002"/>
      <sparseX i="111" alpha="10776.406797096419" sparseCutoff=".25315381762979266E-002"/>
      <sparseX i="112" alpha="-344.67074059394696" sparseCutoff=".77474553373163481E-003"/>
      <sparseX i="113" alpha="-59.314250812410783" sparseCutoff=".36378254133357942E-001"/>
      <sparseX i="114" alpha="65.864611811061707" sparseCutoff=".37301276937741976E-001"/>
      <sparseX i="115" alpha=".50397570085480292" sparseCutoff=".18621862422471347"/>
      <sparseX i="116" alpha="2.9494102888148390" sparseCutoff=".22912860265668433"/>
      <sparseX i="117" alpha="-1.1505785496183538" sparseCutoff=".22893198599357714"/>
      <sparseX i="118" alpha="-142.23960613148938" sparseCutoff=".38460516075642381E-001"/>
      <sparseX i="119" alpha="-246.92744072057175" sparseCutoff=".23239014492075934E-001"/>
      <sparseX i="120" alpha=".75178309930610324E-001" sparseCutoff=".76095124517274348"/>
      <sparseX i="121" alpha="-64.251989252844936" sparseCutoff=".28238995777689315E-001"/>
      <sparseX i="122" alpha="-.40091195048078183E-001" sparseCutoff=".99661556813436836"/>
      <sparseX i="123" alpha="-7.0569221479084216" sparseCutoff=".19461844638771683"/>
      <sparseX i="124" alpha="-.20606053501682567" sparseCutoff=".52497148452616493"/>
      <sparseX i="125" alpha=".35464202707408093" sparseCutoff=".48695568028297992"/>
      <sparseX i="126" alpha=".21785426042522138" sparseCutoff=".39301305847755047"/>
      <sparseX i="127" alpha="-.10774830533902333" sparseCutoff=".50164325652764530"/>
      <sparseX i="128" alpha="797.14210331281527" sparseCutoff=".93422582987190902E-002"/>
      <sparseX i="129" alpha="-40.687487939345090" sparseCutoff=".34998793569467224E-001"/>
      <sparseX i="130" alpha="-.16839594615732079" sparseCutoff="1.0000000000000000"/>
      <sparseX i="131" alpha=".43164734195629617" sparseCutoff=".54721755746388623"/>
      <sparseX i="132" alpha=".17612998010155148" sparseCutoff=".54721755746388623"/>
      <sparseX i="133" alpha=".32489362451953990" sparseCutoff=".36511022485737132"/>
      <sparseX i="134" alpha="4.0818430945654152" sparseCutoff=".76883185284465194E-001"/>
      <sparseX i="135" alpha="-33.472732291739426" sparseCutoff=".34721391127386425E-001"/>
      <sparseX i="136" alpha="-4714.7694917061453" sparseCutoff=".77653891413251011E-005"/>
      <sparseX i="137" alpha="-75.392522597782516" sparseCutoff=".34721391127386425E-001"/>
      <sparseX i="138" alpha="18.475081554484198" sparseCutoff=".40751616476551233E-001"/>
      <sparseX i="139" alpha="-4.4642000345906068" sparseCutoff=".12300840732979201"/>
      <sparseX i="140" alpha="72.558520643165906" sparseCutoff=".22028584736853520E-001"/>
      <sparseX i="141" alpha=".20765595039469875" sparseCutoff=".91928897029454304"/>
      <sparseX i="142" alpha="-.14769227744724880" sparseCutoff=".56493635687543522E-001"/>
      <sparseX i="143" alpha="-1.1198586597346381" sparseCutoff=".54143356960060784E-001"/>
      <sparseX i="144" alpha="-4.2530296251002051" sparseCutoff=".86381365481846717E-001"/>
      <sparseX i="145" alpha=".97414499005490618" sparseCutoff=".14653551674622306"/>
      <sparseX i="146" alpha="-5523.3995162282399" sparseCutoff=".44711146733084073E-003"/>
      <sparseX i="147" alpha="-70131.309420015445" sparseCutoff=".53117789764572885E-004"/>
      <sparseX i="148" alpha="-1587.6314613343629" sparseCutoff=".27112822042567016E-002"/>
      <sparseX i="149" alpha="-215.36934429605211" sparseCutoff=".17408729903609046E-001"/>
      <sparseX i="150" alpha="-420.93441820310983" sparseCutoff=".33746782694667543E-006"/>
      <sparseX i="151" alpha="-1594.5901715897696" sparseCutoff=".83201504232387267E-004"/>
      <sparseX i="152" alpha="7724.1303131236236" sparseCutoff=".14425195196394354E-002"/>
      <sparseX i="153" alpha="-47120.115116281275" sparseCutoff=".32874977344664228E-004"/>
      <sparseX i="154" alpha="1406.7828399836249" sparseCutoff=".31637544245384785E-002"/>
      <sparseX i="155" alpha="788.14794624006583" sparseCutoff=".58922375017069458E-002"/>
      <sparseX i="156" alpha="-8840.3684245525001" sparseCutoff=".56318437219764737E-005"/>
      <sparseX i="157" alpha="3532.5905360474439" sparseCutoff=".54198578775915829E-003"/>
      <sparseX i="158" alpha="-.41693095765296631E-001" sparseCutoff=".56825094540754695"/>
      <sparseX i="159" alpha=".66616931188137746E-001" sparseCutoff=".46836004972435341"/>
      <sparseX i="160" alpha=".10100697696356209" sparseCutoff=".77978246057981782"/>
      <sparseX i="161" alpha=".97627918143972189E-001" sparseCutoff=".55275991798721502"/>
      <sparseX i="162" alpha="1.2424455649391699" sparseCutoff=".17614467616945284"/>
      <sparseX i="163" alpha="59.012447086254028" sparseCutoff=".90777330380808707E-001"/>
      <sparseX i="164" alpha="-.25101602719886368" sparseCutoff=".53176739315617005"/>
      <sparseX i="165" alpha="-220.93871430689828" sparseCutoff=".19207529236336746E-001"/>
      <sparseX i="166" alpha="-.31915579185459508" sparseCutoff=".18510238574383969"/>
      <sparseX i="167" alpha="2.9323342788141695" sparseCutoff=".38760259487580234"/>
      <sparseX i="168" alpha="24.383562532812011" sparseCutoff=".22532709807399076E-001"/>
      <sparseX i="169" alpha="1.6982057859436528" sparseCutoff=".36135172770741414"/>
      <sparseX i="170" alpha="47.119655922922604" sparseCutoff=".45844475699273614E-001"/>
      <sparseX i="171" alpha="-.11623795021933633" sparseCutoff=".58085335392155679"/>
      <sparseX i="172" alpha="91.983978941409774" sparseCutoff=".18038115863457691E-001"/>
      <sparseX i="173" alpha="9256.0340436368442" sparseCutoff=".89346063676665199E-004"/>
      <sparseX i="174" alpha="178.98485685358122" sparseCutoff=".12675508281413783E-001"/>
      <sparseX i="175" alpha="-.38434238642587587" sparseCutoff=".99388380632469953"/>
      <sparseX i="176" alpha="-.29153834920908012" sparseCutoff=".31144558042395809"/>
      <sparseX i="177" alpha="-.40213989748478932E-002" sparseCutoff=".96881011357444435"/>
      <sparseX i="178" alpha="-5669.7520563740845" sparseCutoff=".86591700279299198E-003"/>
      <sparseX i="179" alpha="50.199433295671646" sparseCutoff=".27100980866632630E-001"/>
      <sparseX i="180" alpha="-149.04527990118248" sparseCutoff=".21375101966109367E-001"/>
      <sparseX i="181" alpha=".71764038297073146E-001" sparseCutoff=".74641362574463177"/>
      <sparseX i="182" alpha=".18748864120911986E-001" sparseCutoff="1.0000000000000000"/>
      <sparseX i="183" alpha="-.63958053858266883" sparseCutoff=".97404221414197889"/>
      <sparseX i="184" alpha=".15975960217642643" sparseCutoff=".62798228083100172"/>
      <sparseX i="185" alpha="10.114903718530579" sparseCutoff=".31348928609004068E-001"/>
      <sparseX i="186" alpha="-22.008701195869996" sparseCutoff=".19473731155229546E-001"/>
      <sparseX i="187" alpha="277.03830257121632" sparseCutoff=".11479157591487432E-002"/>
      <sparseX i="188" alpha="306.20735424087997" sparseCutoff=".37867453145024599E-002"/>
      <sparseX i="189" alpha="-.40113397587737787" sparseCutoff=".77885416908679372"/>
      <sparseX i="190" alpha="1.9621795471075600" sparseCutoff=".18610827502036423"/>
      <sparseX i="191" alpha="10.314168027037299" sparseCutoff=".63958289899051904E-001"/>
      <sparseX i="192" alpha="6.9911751595453513" sparseCutoff=".41037913174915563E-001"/>
      <sparseX i="193" alpha="-1.3980964868519705" sparseCutoff=".10673640966928344"/>
      <sparseX i="194" alpha=".65528197783939382E-001" sparseCutoff=".19247779555825933"/>
      <sparseX i="195" alpha="-2.4397348514225454" sparseCutoff=".76901037106003045E-001"/>
      <sparseX i="196" alpha="-43257.885038559769" sparseCutoff=".97744352307749249E-004"/>
      <sparseX i="197" alpha="-27.224507019319375" sparseCutoff=".79146978349104516E-001"/>
      <sparseX i="198" alpha="3.5464585400330240" sparseCutoff=".16944833874719750"/>
      <sparseX i="199" alpha="-57806.126227183595" sparseCutoff=".75697996293009326E-003"/>
      <sparseX i="200" alpha="-277.90878943919137" sparseCutoff=".56417427267225762E-002"/>
    </gpCoordinates>
    <gpCoordinates label="GAP_2022_5_19_180_7_17_31_4145" dimensions="3" signal_variance=".10000000000000000E-001" signal_mean=".00000000000000000E+000" sparsified="T" n_permutations="1" covariance_type="4" n_sparseX="200" sparseX_filename="CO.xml.sparseX.GAP_2022_5_19_180_7_17_31_4145" sparseX_md5sum="e2b5c1888b91dffca08c3c087c2f3472">
      <theta>  0.20000000000000000E+001  0.20000000000000000E+001  0.20000000000000000E+001 </theta>
      <descriptor> angle_3b Z_center=8 Z1=8 Z2=6 cutoff=2.0 n_sparse=200 covariance_type=pp delta=0.01 theta_uniform=2.0 sparse_method=uniform add_species=F</descriptor>
      <permutation i="1">1 2 3  </permutation>
      <sparseX i="1" alpha=".12616043639782876" sparseCutoff="1.0000000000000000"/>
      <sparseX i="2" alpha="-.12850361138207136" sparseCutoff=".90325044892526618"/>
      <sparseX i="3" alpha=".35701135538779116" sparseCutoff=".90325044892526618"/>
      <sparseX i="4" alpha=".16716965901624162" sparseCutoff=".75057803312769633"/>
      <sparseX i="5" alpha="-.18404574028564699" sparseCutoff=".99997954125836541"/>
      <sparseX i="6" alpha=".20605817392203411E-001" sparseCutoff=".93670177173039781"/>
      <sparseX i="7" alpha="-.55978731121613301" sparseCutoff=".44339674431008208"/>
      <sparseX i="8" alpha="-6.9740616173165364" sparseCutoff=".19377147577688630"/>
      <sparseX i="9" alpha=".49577053596704607" sparseCutoff=".96745766921079446"/>
      <sparseX i="10" alpha="-1.0715641209824225" sparseCutoff=".49636339679958180"/>
      <sparseX i="11" alpha=".79774706423023967" sparseCutoff=".61230986814813171"/>
      <sparseX i="12" alpha="-.11800809489481641" sparseCutoff=".72025493219771319"/>
      <sparseX i="13" alpha="-.93212375404986669E-001" sparseCutoff=".91292833401725426"/>
      <sparseX i="14" alpha="-.97406123733660210" sparseCutoff=".45882237611490856"/>
      <sparseX i="15" alpha="-3.7079353016829035" sparseCutoff=".47065182915235704"/>
      <sparseX i="16" alpha="-.55734265119327631" sparseCutoff=".85714694195297647"/>
      <sparseX i="17" alpha="-.18071825049822646" sparseCutoff=".69990949011349124"/>
      <sparseX i="18" alpha="105456.07619088834" sparseCutoff=".29138606191803085E-004"/>
      <sparseX i="19" alpha=".88448000245236080" sparseCutoff=".78765677440605253"/>
      <sparseX i="20" alpha="-618.25640498299856" sparseCutoff=".14622491697480866E-001"/>
      <sparseX i="21" alpha="-8205.2771862975624" sparseCutoff=".31171642480158435E-002"/>
      <sparseX i="22" alpha="3154.4105368694909" sparseCutoff=".14609293585247450E-001"/>
      <sparseX i="23" alpha="-4051.7074240502720" sparseCutoff=".42998200993601037E-002"/>
      <sparseX i="24" alpha=".94331337528452153" sparseCutoff="1.0000000000000000"/>
      <sparseX i="25" alpha="7.6795011625813441" sparseCutoff="1.0000000000000000"/>
      <sparseX i="26" alpha="-18.285492521992538" sparseCutoff=".18789737546410062"/>
      <sparseX i="27" alpha="14.835344297324779" sparseCutoff=".18789737546410062"/>
      <sparseX i="28" alpha="-9.2705056601104037" sparseCutoff="1.0000000000000000"/>
      <sparseX i="29" alpha="-10.475735038264972" sparseCutoff="1.0000000000000000"/>
      <sparseX i="30" alpha="-3358.9350307289169" sparseCutoff=".25245713112435064E-002"/>
      <sparseX i="31" alpha="12.292698981592823" sparseCutoff=".18789737546410062"/>
      <sparseX i="32" alpha="-1.5508285827557475" sparseCutoff=".56508979902322354"/>
      <sparseX i="33" alpha="5.9652479488701928" sparseCutoff="1.0000000000000000"/>
      <sparseX i="34" alpha="1.5974434905809061" sparseCutoff="1.0000000000000000"/>
      <sparseX i="35" alpha="11.171461038894879" sparseCutoff=".19441546606360938E-001"/>
      <sparseX i="36" alpha="-7.0655309331829006" sparseCutoff="1.0000000000000000"/>
      <sparseX i="37" alpha="2.3396916245898818" sparseCutoff="1.0000000000000000"/>
      <sparseX i="38" alpha="-1.2792076663689402" sparseCutoff="1.0000000000000000"/>
      <sparseX i="39" alpha="5.5942447078316446" sparseCutoff="1.0000000000000000"/>
      <sparseX i="40" alpha=".66280977064328372" sparseCutoff="1.0000000000000000"/>
      <sparseX i="41" alpha="-.23272115334440713" sparseCutoff=".89929070685403523"/>
      <sparseX i="42" alpha="-10.727739291216716" sparseCutoff=".95661282063936037"/>
      <sparseX i="43" alpha="-1646.2304091730637" sparseCutoff=".39250266790678362E-001"/>
      <sparseX i="44" alpha="-170.97433806320208" sparseCutoff=".11059615488919078"/>
      <sparseX i="45" alpha=".12903588264900112" sparseCutoff=".88327799725047651"/>
      <sparseX i="46" alpha=".22680435366327113E-001" sparseCutoff=".99790979215764464"/>
      <sparseX i="47" alpha=".28023395016706010" sparseCutoff=".49702088108407350"/>
      <sparseX i="48" alpha="5.5784995323245035" sparseCutoff=".74733179575807857E-001"/>
      <sparseX i="49" alpha="-.37567975364205813" sparseCutoff=".51136648606042223"/>
      <sparseX i="50" alpha="-.46950549980054219E-001" sparseCutoff=".88577218430479210"/>
      <sparseX i="51" alpha="-.29024399094704105E-001" sparseCutoff="1.0000000000000000"/>
      <sparseX i="52" alpha="1099.5863676443444" sparseCutoff=".10780406853603104E-001"/>
      <sparseX i="53" alpha="-6270.3536604961764" sparseCutoff=".65177913690625871E-002"/>
      <sparseX i="54" alpha="-1297.9948045488493" sparseCutoff=".13601525287558869E-001"/>
      <sparseX i="55" alpha="-.43633612548131145" sparseCutoff="1.0000000000000000"/>
      <sparseX i="56" alpha="-1761.5849771914168" sparseCutoff=".42976359457712957E-002"/>
      <sparseX i="57" alpha="6.2761410630289740" sparseCutoff=".19185090406980010"/>
      <sparseX i="58" alpha="1757.3500817015308" sparseCutoff=".51691656958303992E-002"/>
      <sparseX i="59" alpha="-35161.284008310315" sparseCutoff=".10382056508278646E-002"/>
      <sparseX i="60" alpha="-31.034012535727936" sparseCutoff=".33701112646318920E-001"/>
      <sparseX i="61" alpha="-.86969754859920811" sparseCutoff="1.0000000000000000"/>
      <sparseX i="62" alpha=".82657733206028830E-001" sparseCutoff="1.0000000000000000"/>
      <sparseX i="63" alpha="-5.9156136195156135" sparseCutoff="1.0000000000000000"/>
      <sparseX i="64" alpha="100.31453258068194" sparseCutoff=".60882288883876368E-001"/>
      <sparseX i="65" alpha="2.4734873109606434" sparseCutoff=".45542522964514282"/>
      <sparseX i="66" alpha="-.47174177128606459" sparseCutoff=".75943389076646395"/>
      <sparseX i="67" alpha="-2.8902581718718583" sparseCutoff=".63678447507382496"/>
      <sparseX i="68" alpha="11.322768743236940" sparseCutoff="1.0000000000000000"/>
      <sparseX i="69" alpha="1.5345425478697514" sparseCutoff="1.0000000000000000"/>
      <sparseX i="70" alpha="7.3230094796602438" sparseCutoff=".57301368800645314"/>
      <sparseX i="71" alpha="-.33403878837720913" sparseCutoff="1.0000000000000000"/>
      <sparseX i="72" alpha="-5.8205132723176938" sparseCutoff=".33403667386275060"/>
      <sparseX i="73" alpha="-12475.129227357116" sparseCutoff=".41524033863155063E-002"/>
      <sparseX i="74" alpha="243.76926132456197" sparseCutoff=".30446440822851552E-001"/>
      <sparseX i="75" alpha="-3581.5898579621826" sparseCutoff=".10248789908136213E-001"/>
      <sparseX i="76" alpha="6472.4854796798581" sparseCutoff=".26362012979105551E-002"/>
      <sparseX i="77" alpha=".77633354347432038" sparseCutoff=".56336532211373003"/>
      <sparseX i="78" alpha=".10704324959611018" sparseCutoff=".29757271160250770"/>
      <sparseX i="79" alpha=".78590565602150175" sparseCutoff=".98901039537184499"/>
      <sparseX i="80" alpha="3028.0877718155380" sparseCutoff=".22802769559432723E-001"/>
      <sparseX i="81" alpha="4.2269396573303633" sparseCutoff=".92020903207671123"/>
      <sparseX i="82" alpha="-2.6404044487343725" sparseCutoff="1.0000000000000000"/>
      <sparseX i="83" alpha="-1.3003764464099488" sparseCutoff="1.0000000000000000"/>
      <sparseX i="84" alpha="-1.1578588095757407" sparseCutoff=".77110797599106395"/>
      <sparseX i="85" alpha="30.689613718350078" sparseCutoff=".61541138057748235"/>
      <sparseX i="86" alpha="6.0631538947236683" sparseCutoff=".61541138057748235"/>
      <sparseX i="87" alpha="173.21507207791822" sparseCutoff=".41166027677903394E-001"/>
      <sparseX i="88" alpha="-.22271459812063185" sparseCutoff="1.0000000000000000"/>
      <sparseX i="89" alpha="17.438655006093143" sparseCutoff=".66561061606423644"/>
      <sparseX i="90" alpha="-588.41611551411222" sparseCutoff=".16270734993322156E-001"/>
      <sparseX i="91" alpha="-1.7349918705958443" sparseCutoff="1.0000000000000000"/>
      <sparseX i="92" alpha="-17.783791290908511" sparseCutoff=".37637602653256841"/>
      <sparseX i="93" alpha="3.1182637213621378" sparseCutoff="1.0000000000000000"/>
      <sparseX i="94" alpha="105.47353264806264" sparseCutoff=".57029333286431332E-001"/>
      <sparseX i="95" alpha="4211.9398528252932" sparseCutoff=".41898962948634551E-002"/>
      <sparseX i="96" alpha="2648.1964073265167" sparseCutoff=".41043043966508064E-002"/>
      <sparseX i="97" alpha="200.44359715011163" sparseCutoff=".10178879975912658E-001"/>
      <sparseX i="98" alpha="-10389.763162481182" sparseCutoff=".92969970787004641E-004"/>
      <sparseX i="99" alpha="-.60889270761014351E-002" sparseCutoff=".99715232015559230"/>
      <sparseX i="100" alpha="-56109.992186338583" sparseCutoff=".51062391838304819E-003"/>
      <sparseX i="101" alpha="50.193614448711365" sparseCutoff=".59438297172459666E-001"/>
      <sparseX i="102" alpha="-540.81372345836724" sparseCutoff=".13460120398137432E-001"/>
      <sparseX i="103" alpha="-.59909376113559554" sparseCutoff="1.0000000000000000"/>
      <sparseX i="104" alpha="-.29216049923976867" sparseCutoff="1.0000000000000000"/>
      <sparseX i="105" alpha="-11.036207356508333" sparseCutoff=".95410905757809139E-001"/>
      <sparseX i="106" alpha=".17530832552596970" sparseCutoff=".92526289611624812"/>
      <sparseX i="107" alpha=".17418094293605767E-001" sparseCutoff=".83005128553397600"/>
      <sparseX i="108" alpha="-1.0370453708422174" sparseCutoff=".59136556602555479"/>
      <sparseX i="109" alpha=".34598240693680954" sparseCutoff="1.0000000000000000"/>
      <sparseX i="110" alpha="-.70499725502848165E-001" sparseCutoff=".76595188547945514"/>
      <sparseX i="111" alpha="2.1099781185615383" sparseCutoff=".20825497029295653"/>
      <sparseX i="112" alpha="5.9832611740212904" sparseCutoff=".14878801274518505"/>
      <sparseX i="113" alpha="-567.00640976581337" sparseCutoff=".34735503002671364E-002"/>
      <sparseX i="114" alpha="-.17789739749348368" sparseCutoff=".89593948076577690"/>
      <sparseX i="115" alpha="-.32583019279719300" sparseCutoff="1.0000000000000000"/>
      <sparseX i="116" alpha=".21203059185914788" sparseCutoff=".41032300571418240"/>
      <sparseX i="117" alpha="-1590.9404073930207" sparseCutoff=".38265134207532414E-002"/>
      <sparseX i="118" alpha="10078.248304879600" sparseCutoff=".83213991738992495E-003"/>
      <sparseX i="119" alpha="10303.975308709780" sparseCutoff=".80738573979854424E-003"/>
      <sparseX i="120" alpha="-125.88181878273679" sparseCutoff=".99969152312165237E-002"/>
      <sparseX i="121" alpha="-.15738953253541357" sparseCutoff=".98642732156437507"/>
      <sparseX i="122" alpha=".93144752351303872E-001" sparseCutoff="1.0000000000000000"/>
      <sparseX i="123" alpha="153.52412208720938" sparseCutoff=".22532709807399076E-001"/>
      <sparseX i="124" alpha="990.73813456774349" sparseCutoff=".12550113521629880E-001"/>
      <sparseX i="125" alpha="48463.279867117351" sparseCutoff=".34202191326002054E-004"/>
      <sparseX i="126" alpha="42571.114647443304" sparseCutoff=".14805994414842094E-002"/>
      <sparseX i="127" alpha=".15122573966940955" sparseCutoff=".89352521800864571"/>
      <sparseX i="128" alpha="-16152.305222089020" sparseCutoff=".17983341616522651E-002"/>
      <sparseX i="129" alpha="117.28148209666219" sparseCutoff=".17715402972713012E-001"/>
      <sparseX i="130" alpha="137.63023022760720" sparseCutoff=".23672144133376261E-001"/>
      <sparseX i="131" alpha="9.5897634306403159" sparseCutoff=".33437640866991780"/>
      <sparseX i="132" alpha="-1233.6559879645686" sparseCutoff=".15950692749491310E-005"/>
      <sparseX i="133" alpha="-45.454475281616794" sparseCutoff=".37422608747024966E-001"/>
      <sparseX i="134" alpha=".17237403905711848E-001" sparseCutoff="1.0000000000000000"/>
      <sparseX i="135" alpha="407.19648919660864" sparseCutoff=".82930976469212103E-002"/>
      <sparseX i="136" alpha="-.66802833688274318E-001" sparseCutoff=".99941177499100631"/>
      <sparseX i="137" alpha="-1.0556645516281999" sparseCutoff=".14330403280931539"/>
      <sparseX i="138" alpha="76.121099793513750" sparseCutoff=".14344356126593905E-001"/>
      <sparseX i="139" alpha=".22388487035198615" sparseCutoff=".53197140119221786"/>
      <sparseX i="140" alpha=".77990870368928114E-001" sparseCutoff=".75402271826412792"/>
      <sparseX i="141" alpha="40512.350096799113" sparseCutoff=".92541824954992826E-003"/>
      <sparseX i="142" alpha="-702.93351416483301" sparseCutoff=".46776244705420966E-002"/>
      <sparseX i="143" alpha="-.27483276454624284" sparseCutoff=".63925760741977977E-001"/>
      <sparseX i="144" alpha="-.13891638544643443E-001" sparseCutoff="1.0000000000000000"/>
      <sparseX i="145" alpha="-3.8057143601839134" sparseCutoff=".19498070910170773"/>
      <sparseX i="146" alpha=".33497464581843828E-001" sparseCutoff="1.0000000000000000"/>
      <sparseX i="147" alpha="8065.4840739045603" sparseCutoff=".22340684647565142E-002"/>
      <sparseX i="148" alpha="128.35887168510806" sparseCutoff=".46314606699344951E-001"/>
      <sparseX i="149" alpha="-1512.5647571691259" sparseCutoff=".27942214661695886E-002"/>
      <sparseX i="150" alpha="-.33246756247144527" sparseCutoff=".39880169219461692"/>
      <sparseX i="151" alpha="-5.8015506066714506" sparseCutoff=".11304321044486990E-001"/>
      <sparseX i="152" alpha="842.73047452007393" sparseCutoff=".62383343773338169E-002"/>
      <sparseX i="153" alpha="-.11726958559490105" sparseCutoff="1.0000000000000000"/>
      <sparseX i="154" alpha="-33164.218554274281" sparseCutoff=".25516081280206389E-004"/>
      <sparseX i="155" alpha="-15774.466282035450" sparseCutoff=".23288154259060168E-004"/>
      <sparseX i="156" alpha="1.4827256036832486" sparseCutoff=".81513823455051448"/>
      <sparseX i="157" alpha="10.291321078423652" sparseCutoff=".13388435939886983"/>
      <sparseX i="158" alpha="4.5012816713005952" sparseCutoff=".38829298368058723"/>
      <sparseX i="159" alpha="-1169.1699294931029" sparseCutoff=".17024951529841829E-002"/>
      <sparseX i="160" alpha="-80179.134626560495" sparseCutoff=".48963090778503249E-003"/>
      <sparseX i="161" alpha="55.521738416303656" sparseCutoff=".93567817121808838E-001"/>
      <sparseX i="162" alpha="1442.4725779522048" sparseCutoff=".17723817446229341E-001"/>
      <sparseX i="163" alpha="-1.1725829496510978" sparseCutoff=".60830364443230223"/>
      <sparseX i="164" alpha=".29859670146426842" sparseCutoff=".77689395923950832"/>
      <sparseX i="165" alpha="-.51240965674281402" sparseCutoff=".79773494220064478"/>
      <sparseX i="166" alpha="3932.0262965012666" sparseCutoff=".59540424223569755E-002"/>
      <sparseX i="167" alpha="-2106.5615498473385" sparseCutoff=".13485905523700104E-001"/>
      <sparseX i="168" alpha="62230.224541999494" sparseCutoff=".61218432442972174E-004"/>
      <sparseX i="169" alpha="-.30828607211968401" sparseCutoff=".31226760177114188"/>
      <sparseX i="170" alpha="2.8183516092487064" sparseCutoff="1.0000000000000000"/>
      <sparseX i="171" alpha="-101910.46022996010" sparseCutoff=".78834364001593296E-004"/>
      <sparseX i="172" alpha="1670.8246151360736" sparseCutoff=".25245771112486493E-003"/>
      <sparseX i="173" alpha="-38649.346584411986" sparseCutoff=".68435353839140935E-004"/>
      <sparseX i="174" alpha="-16.209478943316242" sparseCutoff=".48748547594510433"/>
      <sparseX i="175" alpha="1.1037699557406033" sparseCutoff=".85559877504941650E-001"/>
      <sparseX i="176" alpha="-262334.90952134650" sparseCutoff=".26752065880819575E-004"/>
      <sparseX i="177" alpha="3350.9197862839974" sparseCutoff=".48805065353021426E-002"/>
      <sparseX i="178" alpha="2503.4554161738661" sparseCutoff=".48805065353021426E-002"/>
      <sparseX i="179" alpha="49777.034604916240" sparseCutoff=".12387974953457913E-002"/>
      <sparseX i="180" alpha="93.722472741701779" sparseCutoff=".15981547390575376E-001"/>
      <sparseX i="181" alpha="37.463970322257872" sparseCutoff=".15899719128427225"/>
      <sparseX i="182" alpha="-3.5546621446578550" sparseCutoff=".43463670656891334"/>
      <sparseX i="183" alpha="-29.427043332091731" sparseCutoff=".25316412425977919"/>
      <sparseX i="184" alpha="-.48874087933933713" sparseCutoff=".13033458133134235"/>
      <sparseX i="185" alpha="-7102.8323071140239" sparseCutoff=".11858487864835343E-004"/>
      <sparseX i="186" alpha="1101.7672604839340" sparseCutoff=".16855165380294246E-001"/>
      <sparseX i="187" alpha="-.70556106554722364" sparseCutoff=".76930254422039715E-009"/>
      <sparseX i="188" alpha="-60.761889304650943" sparseCutoff=".42536557319638679E-001"/>
      <sparseX i="189" alpha="2.0091296891271986" sparseCutoff="1.0000000000000000"/>
      <sparseX i="190" alpha="-38759.798175629752" sparseCutoff=".13837486082618095E-003"/>
      <sparseX i="191" alpha="-72.833951138039481" sparseCutoff=".16668166132559609"/>
      <sparseX i="192" alpha="501.33728354441024" sparseCutoff=".22777416663696148E-001"/>
      <sparseX i="193" alpha="-1.0057027749196892" sparseCutoff=".35309113994652719"/>
      <sparseX i="194" alpha="-2360.0290793631239" sparseCutoff=".25320729884866777E-002"/>
      <sparseX i="195" alpha="-112.48710581413756" sparseCutoff=".34034824212226177E-006"/>
      <sparseX i="196" alpha="-.23904734297430252" sparseCutoff=".88623742935728023"/>
      <sparseX i="197" alpha="1.2267587653773919" sparseCutoff=".88623742935728023"/>
      <sparseX i="198" alpha="-.78372403931034151" sparseCutoff="1.0000000000000000"/>
      <sparseX i="199" alpha="-12.332867641609699" sparseCutoff=".24270411643110062"/>
      <sparseX i="200" alpha="367.33114759506014" sparseCutoff=".68478153609864756E-001"/>
    </gpCoordinates>
    <gpCoordinates label="GAP_2022_5_19_180_7_17_31_4146" dimensions="3" signal_variance=".10000000000000000E-001" signal_mean=".00000000000000000E+000" sparsified="T" n_permutations="1" covariance_type="4" n_sparseX="200" sparseX_filename="CO.xml.sparseX.GAP_2022_5_19_180_7_17_31_4146" sparseX_md5sum="44e87b615d302bc4953c18c6d1c3f3f4">
      <theta>  0.20000000000000000E+001  0.20000000000000000E+001  0.20000000000000000E+001 </theta>
      <descriptor> angle_3b Z_center=8 Z1=6 Z2=6 cutoff=2.0 n_sparse=200 covariance_type=pp delta=0.01 theta_uniform=2.0 sparse_method=uniform add_species=F</descriptor>
      <permutation i="1">1 2 3  </permutation>
      <sparseX i="1" alpha=".18609686687527238" sparseCutoff=".48883719039181672"/>
      <sparseX i="2" alpha=".14238755536661746" sparseCutoff=".50197349052162432"/>
      <sparseX i="3" alpha=".35681441253772109E-001" sparseCutoff=".58498546637905835"/>
      <sparseX i="4" alpha="11.104773354542870" sparseCutoff=".43355385299041871E-001"/>
      <sparseX i="5" alpha="-.47992072448714666E-001" sparseCutoff=".91692483005793868"/>
      <sparseX i="6" alpha="-1.1623212447439353" sparseCutoff=".35463769887745777"/>
      <sparseX i="7" alpha="-.96899559143596392" sparseCutoff=".15652910398601200"/>
      <sparseX i="8" alpha="-.23568796492347613" sparseCutoff=".48426111947436651"/>
      <sparseX i="9" alpha=".28143637776905314E-001" sparseCutoff=".95173501737695920"/>
      <sparseX i="10" alpha="-.23241245309047501" sparseCutoff=".84077787082302768"/>
      <sparseX i="11" alpha="-.87727712489926724E-001" sparseCutoff=".96579022923442204"/>
      <sparseX i="12" alpha="-.55936445768837592E-001" sparseCutoff=".92600266905259909"/>
      <sparseX i="13" alpha="-.59019235869545619E-001" sparseCutoff=".83829904785220721"/>
      <sparseX i="14" alpha=".10338949392489313" sparseCutoff=".90734519026252314"/>
      <sparseX i="15" alpha=".12952290759619145" sparseCutoff=".81426837064473689"/>
      <sparseX i="16" alpha="619.83391996700334" sparseCutoff=".28460591346455949E-005"/>
      <sparseX i="17" alpha="55434.455798328017" sparseCutoff=".14401265683774514E-004"/>
      <sparseX i="18" alpha="23936.430382630275" sparseCutoff=".29138606191803085E-004"/>
      <sparseX i="19" alpha="284.44537969579864" sparseCutoff=".29552496237806043E-001"/>
      <sparseX i="20" alpha="-2159.9797561369182" sparseCutoff=".49240712882705146E-002"/>
      <sparseX i="21" alpha="3.9336623570281417" sparseCutoff=".90012655551060849"/>
      <sparseX i="22" alpha=".13684943799775551" sparseCutoff="1.0000000000000000"/>
      <sparseX i="23" alpha=".62185497439762649" sparseCutoff=".92497184762996620"/>
      <sparseX i="24" alpha="-240.02621467220001" sparseCutoff=".16016975967198110"/>
      <sparseX i="25" alpha="-35.896518639137447" sparseCutoff=".21317599712180807"/>
      <sparseX i="26" alpha="4.7483652527967797" sparseCutoff=".35201659393849405"/>
      <sparseX i="27" alpha="3.2872860400277157" sparseCutoff="1.0000000000000000"/>
      <sparseX i="28" alpha="-11.405051359838749" sparseCutoff="1.0000000000000000"/>
      <sparseX i="29" alpha="-21.365294072077493" sparseCutoff="1.0000000000000000"/>
      <sparseX i="30" alpha="1978.9512213518381" sparseCutoff=".25245713112435064E-002"/>
      <sparseX i="31" alpha="-2.2964982676623857" sparseCutoff="1.0000000000000000"/>
      <sparseX i="32" alpha="-23887.216836900170" sparseCutoff=".25245713112435064E-002"/>
      <sparseX i="33" alpha="2579.5456916065427" sparseCutoff=".19441546606360938E-001"/>
      <sparseX i="34" alpha="-2.7154766989289123" sparseCutoff=".72315732173330549"/>
      <sparseX i="35" alpha="27944.528456458072" sparseCutoff=".11142232708367117E-002"/>
      <sparseX i="36" alpha=".34497010198470901" sparseCutoff=".49329115137212770"/>
      <sparseX i="37" alpha=".22899534365670476" sparseCutoff="1.0000000000000000"/>
      <sparseX i="38" alpha="-186.20113897558292" sparseCutoff=".22804302477960620"/>
      <sparseX i="39" alpha="-7977.5148357558901" sparseCutoff=".45993812267419720E-003"/>
      <sparseX i="40" alpha="9457.6173886664237" sparseCutoff=".15433098914538162E-002"/>
      <sparseX i="41" alpha="-.52466262798611496" sparseCutoff=".85534047705205296"/>
      <sparseX i="42" alpha="-12.539485468021150" sparseCutoff="1.0000000000000000"/>
      <sparseX i="43" alpha="-41.281088086516768" sparseCutoff="1.0000000000000000"/>
      <sparseX i="44" alpha="-.36679090855482827" sparseCutoff=".61463776408095916"/>
      <sparseX i="45" alpha="-4046.1095047776157" sparseCutoff=".30907614569140201E-003"/>
      <sparseX i="46" alpha="-174.29611354452456" sparseCutoff=".35374557294929464E-001"/>
      <sparseX i="47" alpha="17.592210854329533" sparseCutoff=".40471502899901951E-001"/>
      <sparseX i="48" alpha=".10173904350882770" sparseCutoff=".89552016439340199"/>
      <sparseX i="49" alpha="-1047.2323203534418" sparseCutoff=".87136956164515309E-002"/>
      <sparseX i="50" alpha="-9.7645322679039275" sparseCutoff="1.0000000000000000"/>
      <sparseX i="51" alpha="-1.3820002197980135" sparseCutoff="1.0000000000000000"/>
      <sparseX i="52" alpha="19.765129372885099" sparseCutoff="1.0000000000000000"/>
      <sparseX i="53" alpha="-131.30950369726116" sparseCutoff=".19424155054599129"/>
      <sparseX i="54" alpha="37.778647160503681" sparseCutoff=".19424155054599129"/>
      <sparseX i="55" alpha="-1.7141607922420010" sparseCutoff="1.0000000000000000"/>
      <sparseX i="56" alpha="-761.65236757179230" sparseCutoff=".20310758859711509E-001"/>
      <sparseX i="57" alpha="-26371.693630387883" sparseCutoff=".29208796458412567E-002"/>
      <sparseX i="58" alpha="-11.461335021429138" sparseCutoff=".55997743903351460"/>
      <sparseX i="59" alpha="-12.223683642847638" sparseCutoff="1.0000000000000000"/>
      <sparseX i="60" alpha="-21315.232405503426" sparseCutoff=".10075027957062721E-003"/>
      <sparseX i="61" alpha="51404.630995706444" sparseCutoff=".10075027957062721E-003"/>
      <sparseX i="62" alpha="1.6569475459808622" sparseCutoff=".98273798701141934"/>
      <sparseX i="63" alpha="-12.223063158586001" sparseCutoff=".66266600067606107"/>
      <sparseX i="64" alpha="-69.216110054618426" sparseCutoff=".99255055974740802"/>
      <sparseX i="65" alpha="10.548403334244155" sparseCutoff="1.0000000000000000"/>
      <sparseX i="66" alpha="145.48997171287897" sparseCutoff=".29415909037374354E-001"/>
      <sparseX i="67" alpha="-206.44280462970326" sparseCutoff="1.0000000000000000"/>
      <sparseX i="68" alpha="-72.188096891470906" sparseCutoff="1.0000000000000000"/>
      <sparseX i="69" alpha="-71.831129362413080" sparseCutoff=".37526067840851762"/>
      <sparseX i="70" alpha=".50300507873197997" sparseCutoff="1.0000000000000000"/>
      <sparseX i="71" alpha="-408.79767703651106" sparseCutoff=".20683942055493620E-001"/>
      <sparseX i="72" alpha="-10.507920613674194" sparseCutoff="1.0000000000000000"/>
      <sparseX i="73" alpha="-30.848828005663748" sparseCutoff=".88836697990691627"/>
      <sparseX i="74" alpha="74.476369839597211" sparseCutoff=".14483213894430846"/>
      <sparseX i="75" alpha="-11.499340426400382" sparseCutoff="1.0000000000000000"/>
      <sparseX i="76" alpha="-.59653197565961193E-002" sparseCutoff="1.0000000000000000"/>
      <sparseX i="77" alpha=".70018353765727903E-001" sparseCutoff="1.0000000000000000"/>
      <sparseX i="78" alpha="71212.811354779886" sparseCutoff=".15914354132347052E-003"/>
      <sparseX i="79" alpha="5.6335320881780326" sparseCutoff=".91070228047113580E-001"/>
      <sparseX i="80" alpha="54.620642336964380" sparseCutoff=".40901998737909118E-001"/>
      <sparseX i="81" alpha="-9.7652457519311007" sparseCutoff=".78301164538612800"/>
      <sparseX i="82" alpha="-.56809490584819999" sparseCutoff="1.0000000000000000"/>
      <sparseX i="83" alpha="3769.7265069892824" sparseCutoff=".16079593778090873E-001"/>
      <sparseX i="84" alpha="-14.514958675400742" sparseCutoff="1.0000000000000000"/>
      <sparseX i="85" alpha="-.54443801493155197E-001" sparseCutoff=".90310709139902623"/>
      <sparseX i="86" alpha="-.23222901786816233" sparseCutoff=".49881718029848093"/>
      <sparseX i="87" alpha="-.19954905650912957" sparseCutoff=".66125109287219497"/>
      <sparseX i="88" alpha="-.11489823103436081" sparseCutoff=".80658019819799875"/>
      <sparseX i="89" alpha=".12153588216962825" sparseCutoff=".71471562679612277"/>
      <sparseX i="90" alpha="-.27258682273591139" sparseCutoff=".74558104175378326"/>
      <sparseX i="91" alpha=".40616609868059750" sparseCutoff=".69340278463663885"/>
      <sparseX i="92" alpha="-7.4766315760421111" sparseCutoff="1.0000000000000000"/>
      <sparseX i="93" alpha="-1622.4751353007980" sparseCutoff=".62678412208527767E-004"/>
      <sparseX i="94" alpha="36.583010217272644" sparseCutoff="1.0000000000000000"/>
      <sparseX i="95" alpha="-29236.079324985436" sparseCutoff=".62678412208527767E-004"/>
      <sparseX i="96" alpha="-12729.794507850635" sparseCutoff=".15091569142579087E-001"/>
      <sparseX i="97" alpha="-108.36330758697468" sparseCutoff="1.0000000000000000"/>
      <sparseX i="98" alpha="109.01389931895417" sparseCutoff="1.0000000000000000"/>
      <sparseX i="99" alpha="24.288800182052579" sparseCutoff=".78112795290738535"/>
      <sparseX i="100" alpha="-39.257358916035884" sparseCutoff="1.0000000000000000"/>
      <sparseX i="101" alpha="797.07678658387272" sparseCutoff=".12376454849532742"/>
      <sparseX i="102" alpha=".70676952446685182" sparseCutoff=".60923570617636003"/>
      <sparseX i="103" alpha="22.025635260043206" sparseCutoff=".60923570617636003"/>
      <sparseX i="104" alpha="44.006761829591184" sparseCutoff="1.0000000000000000"/>
      <sparseX i="105" alpha="-5.0184550065102664" sparseCutoff="1.0000000000000000"/>
      <sparseX i="106" alpha="325.78239633976432" sparseCutoff=".61218072328729745"/>
      <sparseX i="107" alpha="81.672693358542375" sparseCutoff="1.0000000000000000"/>
      <sparseX i="108" alpha="3965.0282046166190" sparseCutoff=".93251406478789323E-001"/>
      <sparseX i="109" alpha="107.48573295809915" sparseCutoff="1.0000000000000000"/>
      <sparseX i="110" alpha="-126.11565942072362" sparseCutoff="1.0000000000000000"/>
      <sparseX i="111" alpha="152.27438718002259" sparseCutoff="1.0000000000000000"/>
      <sparseX i="112" alpha="-22.248818589798450" sparseCutoff="1.0000000000000000"/>
      <sparseX i="113" alpha="4745.0192043548213" sparseCutoff=".86281921753117059E-002"/>
      <sparseX i="114" alpha="167.10361448449402" sparseCutoff=".51276281257187528E-001"/>
      <sparseX i="115" alpha="284.21558277804678" sparseCutoff=".16826868025072061"/>
      <sparseX i="116" alpha="3518.8825354292912" sparseCutoff=".51276281257187528E-001"/>
      <sparseX i="117" alpha="273.41213723007115" sparseCutoff=".16826868025072061"/>
      <sparseX i="118" alpha="19.065554319325202" sparseCutoff=".88883644442598742"/>
      <sparseX i="119" alpha="-8.5859543116551791" sparseCutoff=".39509931068604098"/>
      <sparseX i="120" alpha="-.20830396542934815" sparseCutoff=".39509931068604098"/>
      <sparseX i="121" alpha="-.14741062597547125" sparseCutoff=".88883644442598742"/>
      <sparseX i="122" alpha="-8.6929553854174397" sparseCutoff="1.0000000000000000"/>
      <sparseX i="123" alpha="51.296562079660525" sparseCutoff="1.0000000000000000"/>
      <sparseX i="124" alpha="-1923.4709336061651" sparseCutoff=".32658307979231999"/>
      <sparseX i="125" alpha="10.513777904336237" sparseCutoff="1.0000000000000000"/>
      <sparseX i="126" alpha="-16.328767520309970" sparseCutoff=".48857006036008510"/>
      <sparseX i="127" alpha="6.1119433686966786" sparseCutoff=".99078476391554571"/>
      <sparseX i="128" alpha="7.7676606444496441" sparseCutoff=".90531058525660058"/>
      <sparseX i="129" alpha="-16458.898259091293" sparseCutoff=".24318511984444402E-001"/>
      <sparseX i="130" alpha="-98.620234845448522" sparseCutoff=".43369592196301698"/>
      <sparseX i="131" alpha="889.12284400410874" sparseCutoff=".10546839475862293E-001"/>
      <sparseX i="132" alpha="10689.571097168164" sparseCutoff=".32374847636231940E-001"/>
      <sparseX i="133" alpha="21.912838265518253" sparseCutoff="1.0000000000000000"/>
      <sparseX i="134" alpha="-10831.709954434949" sparseCutoff=".11662559096841330E-001"/>
      <sparseX i="135" alpha="25.861108461802598" sparseCutoff="1.0000000000000000"/>
      <sparseX i="136" alpha="97.587858200493599" sparseCutoff="1.0000000000000000"/>
      <sparseX i="137" alpha="-151.18364959518300" sparseCutoff=".34857716661463345"/>
      <sparseX i="138" alpha="-39.534888720981584" sparseCutoff="1.0000000000000000"/>
      <sparseX i="139" alpha="25.442053138224352" sparseCutoff=".56658355756321344"/>
      <sparseX i="140" alpha="-12580.084346826276" sparseCutoff=".54314851797226948E-003"/>
      <sparseX i="141" alpha="397.85848955782546" sparseCutoff=".21853633443241788"/>
      <sparseX i="142" alpha="41.430559627624326" sparseCutoff=".13963237147612984"/>
      <sparseX i="143" alpha="-4.2502061284244315" sparseCutoff="1.0000000000000000"/>
      <sparseX i="144" alpha=".26897631024649510" sparseCutoff="1.0000000000000000"/>
      <sparseX i="145" alpha=".70717915008427268" sparseCutoff="1.0000000000000000"/>
      <sparseX i="146" alpha="1.1006645235333246" sparseCutoff=".65307986976162513"/>
      <sparseX i="147" alpha="-44909.468709556204" sparseCutoff=".23342489440456027E-002"/>
      <sparseX i="148" alpha="-5.3150373837228457" sparseCutoff="1.0000000000000000"/>
      <sparseX i="149" alpha="-37.759906626381060" sparseCutoff=".29166659949813378"/>
      <sparseX i="150" alpha="-.58629948774704299" sparseCutoff=".91719433837919473"/>
      <sparseX i="151" alpha="-953.02080617440924" sparseCutoff=".32686100718404998E-001"/>
      <sparseX i="152" alpha="-1711.7503546899820" sparseCutoff="1.0000000000000000"/>
      <sparseX i="153" alpha="80.421898736806725" sparseCutoff=".16586752565922880"/>
      <sparseX i="154" alpha="-751.79398003847348" sparseCutoff=".16433789476114485"/>
      <sparseX i="155" alpha="437.40665026839383" sparseCutoff=".64468405207504353E-001"/>
      <sparseX i="156" alpha="36364.226418699232" sparseCutoff=".23129425965118244E-003"/>
      <sparseX i="157" alpha="516.67975496557153" sparseCutoff=".70768166628582152E-001"/>
      <sparseX i="158" alpha="8.0826893763347183" sparseCutoff="1.0000000000000000"/>
      <sparseX i="159" alpha="159.81633681752433" sparseCutoff=".13595638326894366"/>
      <sparseX i="160" alpha="4009.3185532448115" sparseCutoff=".69323613678368267E-002"/>
      <sparseX i="161" alpha="-515.69682547568880" sparseCutoff="1.0000000000000000"/>
      <sparseX i="162" alpha="-34881.554555510796" sparseCutoff=".54341743279345182E-003"/>
      <sparseX i="163" alpha="2211.1369465522480" sparseCutoff="1.0000000000000000"/>
      <sparseX i="164" alpha="-17.126730489740453" sparseCutoff=".39936023979312590"/>
      <sparseX i="165" alpha="6037.8683629067409" sparseCutoff=".30571038383442328E-004"/>
      <sparseX i="166" alpha="70225.559837909095" sparseCutoff=".30571038383442328E-004"/>
      <sparseX i="167" alpha="-2098.5914743237749" sparseCutoff=".26515164208457290E-004"/>
      <sparseX i="168" alpha="-12737.307796462241" sparseCutoff=".13674386912398607E-003"/>
      <sparseX i="169" alpha="-5.4973354321631085" sparseCutoff=".22405187190793652E-001"/>
      <sparseX i="170" alpha="-12943.202891003733" sparseCutoff=".51329421675860311E-003"/>
      <sparseX i="171" alpha="63387.995557485599" sparseCutoff=".90212215464598557E-003"/>
      <sparseX i="172" alpha="-7665.7128918435928" sparseCutoff=".29220043250575084E-002"/>
      <sparseX i="173" alpha="-350.52389452795239" sparseCutoff=".16240571314916408E-001"/>
      <sparseX i="174" alpha="21.658974222249029" sparseCutoff=".36109637865335986"/>
      <sparseX i="175" alpha="2075.8011314295086" sparseCutoff=".33582374370707546E-002"/>
      <sparseX i="176" alpha="-.20140261815987145" sparseCutoff="1.0000000000000000"/>
      <sparseX i="177" alpha="3.9626055234154061" sparseCutoff=".21999356341811938"/>
      <sparseX i="178" alpha="26603.969392428990" sparseCutoff=".15409927578371148E-003"/>
      <sparseX i="179" alpha="-68943.846890690693" sparseCutoff=".30906035383247374E-003"/>
      <sparseX i="180" alpha="1.4614322373497635" sparseCutoff=".72654335985172314"/>
      <sparseX i="181" alpha="-2.8399301457011701" sparseCutoff=".99608863785086421"/>
      <sparseX i="182" alpha="3708.2958305423581" sparseCutoff=".18550940819160904E-001"/>
      <sparseX i="183" alpha=".23932485664793138" sparseCutoff="1.0000000000000000"/>
      <sparseX i="184" alpha="-602.07831213903216" sparseCutoff=".67982743585892458E-001"/>
      <sparseX i="185" alpha="53731.079668828505" sparseCutoff=".59244275755628398E-004"/>
      <sparseX i="186" alpha="-2.6427657179494064" sparseCutoff=".83358185543804364"/>
      <sparseX i="187" alpha="488.72487177838127" sparseCutoff=".52692043557113113E-001"/>
      <sparseX i="188" alpha="8.0019814918938685" sparseCutoff=".41882845299060611E-007"/>
      <sparseX i="189" alpha="-74.644276072928776" sparseCutoff=".17029538391229976"/>
      <sparseX i="190" alpha=".51470186859564416E-002" sparseCutoff="1.0000000000000000"/>
      <sparseX i="191" alpha=".21568249985141463" sparseCutoff="1.0000000000000000"/>
      <sparseX i="192" alpha="214.04954911267933" sparseCutoff=".88574673212342955E-001"/>
      <sparseX i="193" alpha="-67408.213688297430" sparseCutoff=".65404042957363680E-003"/>
      <sparseX i="194" alpha="61808.220302264337" sparseCutoff=".33829517143383336E-002"/>
      <sparseX i="195" alpha="-78.914870477937455" sparseCutoff=".46878293581824493E-001"/>
      <sparseX i="196" alpha="48.911417487963568" sparseCutoff=".41805675869993031"/>
      <sparseX i="197" alpha="148.68035987456491" sparseCutoff=".20008421088649431"/>
      <sparseX i="198" alpha="11.867067927640399" sparseCutoff=".21488494955942300"/>
      <sparseX i="199" alpha="-207.12539299420465" sparseCutoff=".10634977302692677"/>
      <sparseX i="200" alpha="-17259.007440609908" sparseCutoff=".62226544252146623E-002"/>
    </gpCoordinates>
    <gpCoordinates label="GAP_2022_5_19_180_7_17_31_4147" dimensions="3" signal_variance=".10000000000000000E-001" signal_mean=".00000000000000000E+000" sparsified="T" n_permutations="1" covariance_type="4" n_sparseX="200" sparseX_filename="CO.xml.sparseX.GAP_2022_5_19_180_7_17_31_4147" sparseX_md5sum="153c30187146eafeb5cf8b8882caae72">
      <theta>  0.20000000000000000E+001  0.20000000000000000E+001  0.20000000000000000E+001 </theta>
      <descriptor> angle_3b Z_center=6 Z1=8 Z2=8 cutoff=2.0 n_sparse=200 covariance_type=pp delta=0.01 theta_uniform=2.0 sparse_method=uniform add_species=F</descriptor>
      <permutation i="1">1 2 3  </permutation>
      <sparseX i="1" alpha="3.5604451672214101" sparseCutoff=".15652910398601200"/>
      <sparseX i="2" alpha="-.15094326731047972" sparseCutoff="1.0000000000000000"/>
      <sparseX i="3" alpha=".29849609116964725E-001" sparseCutoff="1.0000000000000000"/>
      <sparseX i="4" alpha="3.7324662172452086" sparseCutoff=".10088198616385302"/>
      <sparseX i="5" alpha=".67700299585765747E-001" sparseCutoff=".96745766921079446"/>
      <sparseX i="6" alpha="-.40109023527636262" sparseCutoff=".61434993318163644"/>
      <sparseX i="7" alpha="-.25860242422666513" sparseCutoff=".65308048638132865"/>
      <sparseX i="8" alpha="1.4679789180287164" sparseCutoff=".46437850632639571"/>
      <sparseX i="9" alpha="-1.1768503699875734" sparseCutoff=".23452732592963754"/>
      <sparseX i="10" alpha="-2.3925847695126756" sparseCutoff="1.0000000000000000"/>
      <sparseX i="11" alpha=".59958658351438980E-001" sparseCutoff=".96012264733886843"/>
      <sparseX i="12" alpha=".11812864262633120" sparseCutoff=".65946744604147012"/>
      <sparseX i="13" alpha="-.41495696128869108" sparseCutoff=".99909741017423936"/>
      <sparseX i="14" alpha="-5.3678524938666037" sparseCutoff="1.0000000000000000"/>
      <sparseX i="15" alpha="-.22521483446728699" sparseCutoff="1.0000000000000000"/>
      <sparseX i="16" alpha="5.1779010757340060" sparseCutoff="1.0000000000000000"/>
      <sparseX i="17" alpha="-4.1420587705340930" sparseCutoff=".28256168906697038"/>
      <sparseX i="18" alpha="11.928334366017840" sparseCutoff=".13564501738847007"/>
      <sparseX i="19" alpha="-20.745854449370515" sparseCutoff=".95661282063936037"/>
      <sparseX i="20" alpha="4.6999071546415392" sparseCutoff=".95661282063936037"/>
      <sparseX i="21" alpha="11.460813937427986" sparseCutoff="1.0000000000000000"/>
      <sparseX i="22" alpha="1485.1461425655671" sparseCutoff=".86640819500401825E-002"/>
      <sparseX i="23" alpha="-7.5988586669867138" sparseCutoff="1.0000000000000000"/>
      <sparseX i="24" alpha="1.7797087525175823" sparseCutoff=".56508979902322354"/>
      <sparseX i="25" alpha="1.9812154317928501" sparseCutoff=".56508979902322354"/>
      <sparseX i="26" alpha="-2.4035231928269174" sparseCutoff=".22055729749354151E-001"/>
      <sparseX i="27" alpha=".63945962595744232" sparseCutoff=".98955698475338993"/>
      <sparseX i="28" alpha="3.4047368079936140" sparseCutoff=".35489720985331041"/>
      <sparseX i="29" alpha="1.1742362284097512" sparseCutoff=".48064061930209206"/>
      <sparseX i="30" alpha=".47772210624870470" sparseCutoff=".84070288585904229"/>
      <sparseX i="31" alpha="-1.3479739616529727" sparseCutoff=".65145620713202868"/>
      <sparseX i="32" alpha="56.994640335347761" sparseCutoff=".13301837708987552"/>
      <sparseX i="33" alpha="2.0650918047553981" sparseCutoff="1.0000000000000000"/>
      <sparseX i="34" alpha=".93015956096751129" sparseCutoff=".85233328026205768"/>
      <sparseX i="35" alpha="-2.0530015646050872" sparseCutoff=".37976097744403337"/>
      <sparseX i="36" alpha="25007.806949792634" sparseCutoff=".54101790693139584E-003"/>
      <sparseX i="37" alpha="-67578.736011429486" sparseCutoff=".54101790693139584E-003"/>
      <sparseX i="38" alpha="-3.8578554706331074" sparseCutoff="1.0000000000000000"/>
      <sparseX i="39" alpha="-193.67308405696093" sparseCutoff=".33701112646318920E-001"/>
      <sparseX i="40" alpha="4903.4380386403564" sparseCutoff=".39278245744352973E-004"/>
      <sparseX i="41" alpha="2.6011329306674251" sparseCutoff=".97102947910707216"/>
      <sparseX i="42" alpha=".18342955229982971" sparseCutoff="1.0000000000000000"/>
      <sparseX i="43" alpha="-6.8875632287743969" sparseCutoff=".88555125417389713"/>
      <sparseX i="44" alpha="-596.06500390626377" sparseCutoff=".82870654675240019E-001"/>
      <sparseX i="45" alpha="-.65665601963375328E-001" sparseCutoff=".25151773369225044"/>
      <sparseX i="46" alpha="60.964082640601738" sparseCutoff=".23695982774610241"/>
      <sparseX i="47" alpha="50.972496333955185" sparseCutoff=".58373874580251034E-001"/>
      <sparseX i="48" alpha="-63.410949172351195" sparseCutoff=".69109053504664786E-001"/>
      <sparseX i="49" alpha="-14.912298761824482" sparseCutoff=".20192809931738381"/>
      <sparseX i="50" alpha="1.9854668598883241" sparseCutoff=".69071353522114332"/>
      <sparseX i="51" alpha="9.4777473564138610" sparseCutoff=".40901998737909118E-001"/>
      <sparseX i="52" alpha="-.19415614740849831E-001" sparseCutoff=".72167360153951998"/>
      <sparseX i="53" alpha="4.1940478603331872" sparseCutoff="1.0000000000000000"/>
      <sparseX i="54" alpha="-25.190232506147577" sparseCutoff=".65838745905886769E-002"/>
      <sparseX i="55" alpha="4634.3420914283115" sparseCutoff=".32017228881565502E-002"/>
      <sparseX i="56" alpha="73.461280387628449" sparseCutoff=".67132994871790586E-001"/>
      <sparseX i="57" alpha="-679.93682812164843" sparseCutoff=".64385183209598740E-002"/>
      <sparseX i="58" alpha=".26691018976181885" sparseCutoff="1.0000000000000000"/>
      <sparseX i="59" alpha="1472.9112326086595" sparseCutoff=".59969675363838373E-002"/>
      <sparseX i="60" alpha="-623.24439087079372" sparseCutoff=".86198859571098463E-001"/>
      <sparseX i="61" alpha="30412.593718070890" sparseCutoff=".29200331281242775E-003"/>
      <sparseX i="62" alpha="23.475696775493336" sparseCutoff=".24318511984444402E-001"/>
      <sparseX i="63" alpha="-3.1244365212533523" sparseCutoff="1.0000000000000000"/>
      <sparseX i="64" alpha="1366.3819130488889" sparseCutoff=".31743452282300202E-001"/>
      <sparseX i="65" alpha="-12.417208531346038" sparseCutoff=".37074026337238941E-001"/>
      <sparseX i="66" alpha="6.8054981853434375" sparseCutoff="1.0000000000000000"/>
      <sparseX i="67" alpha="-500.69231501093981" sparseCutoff=".19317978257097218E-001"/>
      <sparseX i="68" alpha="-194.61982302191194" sparseCutoff=".22046038910571178E-001"/>
      <sparseX i="69" alpha="107.89959706331268" sparseCutoff=".14521304231369714E-001"/>
      <sparseX i="70" alpha="-43.224252419057400" sparseCutoff=".10295050411303908E-001"/>
      <sparseX i="71" alpha=".83874863424367910E-001" sparseCutoff="1.0000000000000000"/>
      <sparseX i="72" alpha="-.74754598344399814" sparseCutoff="1.0000000000000000"/>
      <sparseX i="73" alpha=".51620412751860245E-001" sparseCutoff=".97608385566562017"/>
      <sparseX i="74" alpha="-1357.9567704639028" sparseCutoff=".75821674074916245E-002"/>
      <sparseX i="75" alpha="917.06856904409221" sparseCutoff=".10864445365225683E-002"/>
      <sparseX i="76" alpha="-2.3744327701548564" sparseCutoff=".23326798918030967E-001"/>
      <sparseX i="77" alpha=".21897090164113153" sparseCutoff="1.0000000000000000"/>
      <sparseX i="78" alpha="-.81536644248841601E-003" sparseCutoff=".99861512265367736"/>
      <sparseX i="79" alpha="-.56445879379640754E-001" sparseCutoff="1.0000000000000000"/>
      <sparseX i="80" alpha="-.12628845017291002" sparseCutoff=".85389201681394944"/>
      <sparseX i="81" alpha=".72307673063722336E-001" sparseCutoff="1.0000000000000000"/>
      <sparseX i="82" alpha=".68562678512255071" sparseCutoff="1.0000000000000000"/>
      <sparseX i="83" alpha=".34728320995841266" sparseCutoff="1.0000000000000000"/>
      <sparseX i="84" alpha="917.18098968265838" sparseCutoff=".88588912998425196E-002"/>
      <sparseX i="85" alpha=".53963848463380326" sparseCutoff="1.0000000000000000"/>
      <sparseX i="86" alpha=".23287792470583383E-001" sparseCutoff=".26515895526715688"/>
      <sparseX i="87" alpha="-3.5671281373376140" sparseCutoff=".65613643050278725E-001"/>
      <sparseX i="88" alpha=".35248744720532316" sparseCutoff="1.0000000000000000"/>
      <sparseX i="89" alpha="-3202.2361458463379" sparseCutoff=".37160865170960396E-002"/>
      <sparseX i="90" alpha="-.10749657670529109" sparseCutoff="1.0000000000000000"/>
      <sparseX i="91" alpha="12.541856297874427" sparseCutoff=".64468405207504353E-001"/>
      <sparseX i="92" alpha="-.50411282129023749" sparseCutoff="1.0000000000000000"/>
      <sparseX i="93" alpha="-.30063198542778685" sparseCutoff=".64337423228837409"/>
      <sparseX i="94" alpha=".13628784902393570" sparseCutoff=".63672582927732502"/>
      <sparseX i="95" alpha=".17443292195346538" sparseCutoff="1.0000000000000000"/>
      <sparseX i="96" alpha="-.26630488171440547" sparseCutoff="1.0000000000000000"/>
      <sparseX i="97" alpha="-86.897463551537129" sparseCutoff=".13347771173696288E-001"/>
      <sparseX i="98" alpha=".43760056309525092E-001" sparseCutoff=".95708741662241792"/>
      <sparseX i="99" alpha="209.36623016317068" sparseCutoff=".84106949913507201E-002"/>
      <sparseX i="100" alpha="-.28192345272304403" sparseCutoff=".92161189650122333"/>
      <sparseX i="101" alpha="-946.26820871952577" sparseCutoff=".79721935393311516E-002"/>
      <sparseX i="102" alpha="-.20090593633371256" sparseCutoff="1.0000000000000000"/>
      <sparseX i="103" alpha="-.27687111128472008" sparseCutoff=".98161944795999800"/>
      <sparseX i="104" alpha=".38527341454589657E-001" sparseCutoff=".99747505344433574"/>
      <sparseX i="105" alpha="-.13409419155128728E-001" sparseCutoff=".79687728934863822"/>
      <sparseX i="106" alpha="-.19809203050760965E-002" sparseCutoff=".84287031264167744"/>
      <sparseX i="107" alpha="7.6720584404758343" sparseCutoff=".80074459649737362E-001"/>
      <sparseX i="108" alpha=".84127590774446918E-002" sparseCutoff=".87297910392734190"/>
      <sparseX i="109" alpha=".35991210971158261E-001" sparseCutoff=".93709725030656421"/>
      <sparseX i="110" alpha="-.70465104526196577E-002" sparseCutoff=".86374309193373477"/>
      <sparseX i="111" alpha="-7505.7412839995650" sparseCutoff=".23246192275540718E-004"/>
      <sparseX i="112" alpha="10.230761095093825" sparseCutoff=".26219899470915131E-001"/>
      <sparseX i="113" alpha="108.01259419088271" sparseCutoff=".24366464653575171E-002"/>
      <sparseX i="114" alpha=".26289769843054506" sparseCutoff="1.0000000000000000"/>
      <sparseX i="115" alpha=".22764052342022881" sparseCutoff=".61172277554583632"/>
      <sparseX i="116" alpha="-521.26438887801760" sparseCutoff=".16175082898838289E-002"/>
      <sparseX i="117" alpha="-.38487611636213434E-001" sparseCutoff="1.0000000000000000"/>
      <sparseX i="118" alpha="14.556576203139020" sparseCutoff=".64603860690360781E-001"/>
      <sparseX i="119" alpha="-2.3349418248671299" sparseCutoff="1.0000000000000000"/>
      <sparseX i="120" alpha="-6.2889334478421945" sparseCutoff=".11960714483574575"/>
      <sparseX i="121" alpha="-.38750547718329989E-001" sparseCutoff=".88413171010362301"/>
      <sparseX i="122" alpha=".73809862814533289" sparseCutoff="1.0000000000000000"/>
      <sparseX i="123" alpha=".33883728820463638" sparseCutoff="1.0000000000000000"/>
      <sparseX i="124" alpha="-.14412721986821708E-001" sparseCutoff="1.0000000000000000"/>
      <sparseX i="125" alpha="-64.672887225754167" sparseCutoff=".91459074290025311E-001"/>
      <sparseX i="126" alpha="332.61926625773015" sparseCutoff=".76237675430455454E-001"/>
      <sparseX i="127" alpha="1.1186880315202063" sparseCutoff=".60710165451487719"/>
      <sparseX i="128" alpha="7.8140280691375548" sparseCutoff=".22465423744021568"/>
      <sparseX i="129" alpha="412.96644743539161" sparseCutoff=".29580559234443915E-002"/>
      <sparseX i="130" alpha="1978.9211128824618" sparseCutoff=".27267885234571465E-002"/>
      <sparseX i="131" alpha="12.812524854815971" sparseCutoff="1.0000000000000000"/>
      <sparseX i="132" alpha="30.368987176743108" sparseCutoff="1.0000000000000000"/>
      <sparseX i="133" alpha="24.596018483199479" sparseCutoff=".14775585613526893"/>
      <sparseX i="134" alpha=".16259857789603960" sparseCutoff=".76396898593988205"/>
      <sparseX i="135" alpha="-1593.2316381306516" sparseCutoff=".33646393003344184E-002"/>
      <sparseX i="136" alpha="-2.1722630239520817" sparseCutoff=".82588119735576082"/>
      <sparseX i="137" alpha="-1709.8167473614835" sparseCutoff=".84170685822804181E-003"/>
      <sparseX i="138" alpha="2.8761573735010377" sparseCutoff=".16154894670589692"/>
      <sparseX i="139" alpha="9.8083336888735513" sparseCutoff=".19690580069810565"/>
      <sparseX i="140" alpha="-16.005299764268880" sparseCutoff="1.0000000000000000"/>
      <sparseX i="141" alpha="-6542.1853781600357" sparseCutoff=".18078681363794950E-002"/>
      <sparseX i="142" alpha="-3.0545840512695062" sparseCutoff=".26336063412666533"/>
      <sparseX i="143" alpha="-104.43304702061501" sparseCutoff=".46752171122183939E-001"/>
      <sparseX i="144" alpha="2661.0140387215315" sparseCutoff=".38769133629307784E-002"/>
      <sparseX i="145" alpha="-.80308356951774268E-001" sparseCutoff="1.0000000000000000"/>
      <sparseX i="146" alpha="86.984336082851897" sparseCutoff=".47380186578635519E-002"/>
      <sparseX i="147" alpha="-51.982434153178488" sparseCutoff=".68940202000417061E-001"/>
      <sparseX i="148" alpha="-3595.7939823188613" sparseCutoff=".27623169629928945E-002"/>
      <sparseX i="149" alpha="-74867.884102915545" sparseCutoff=".24668650889497251E-002"/>
      <sparseX i="150" alpha="-75660.158282128512" sparseCutoff=".70584791200736384E-003"/>
      <sparseX i="151" alpha="2471.3903462404433" sparseCutoff=".76429275016667012E-005"/>
      <sparseX i="152" alpha="-25.197408672149393" sparseCutoff=".66104894817363868E-001"/>
      <sparseX i="153" alpha="3990.7253924585084" sparseCutoff=".45209297581261576E-001"/>
      <sparseX i="154" alpha=".82846560294732474" sparseCutoff="1.0000000000000000"/>
      <sparseX i="155" alpha="-18336.773823385556" sparseCutoff=".19091431915538248E-001"/>
      <sparseX i="156" alpha="-2920.8095256797319" sparseCutoff=".12379498371467568E-003"/>
      <sparseX i="157" alpha="-3657.1117030184805" sparseCutoff=".78799040781536989E-002"/>
      <sparseX i="158" alpha="2993.1145760379659" sparseCutoff=".68917995671058385E-003"/>
      <sparseX i="159" alpha="5712.9237505925985" sparseCutoff=".25058128562843729E-003"/>
      <sparseX i="160" alpha="-24722.132480069504" sparseCutoff=".13875838573927934E-002"/>
      <sparseX i="161" alpha="-21.970751542779791" sparseCutoff=".97212295748502542E-001"/>
      <sparseX i="162" alpha="-1807.2960898387121" sparseCutoff=".73808969106864408E-002"/>
      <sparseX i="163" alpha="-1.2618688128621711" sparseCutoff=".94767678088871465"/>
      <sparseX i="164" alpha="-6.5682615143556244" sparseCutoff=".30931464051797930"/>
      <sparseX i="165" alpha="-13.254385040447435" sparseCutoff=".30968627296347240"/>
      <sparseX i="166" alpha="-21.723699142127295" sparseCutoff="1.0000000000000000"/>
      <sparseX i="167" alpha="-2550.5375646831744" sparseCutoff=".11192277626503877E-003"/>
      <sparseX i="168" alpha="146213.39433899452" sparseCutoff=".16139668409977010E-002"/>
      <sparseX i="169" alpha=".17001197817364780" sparseCutoff=".94571319879544635"/>
      <sparseX i="170" alpha="-2.2325871076415615" sparseCutoff="1.0000000000000000"/>
      <sparseX i="171" alpha="27048.088517579472" sparseCutoff=".35204518527849974E-004"/>
      <sparseX i="172" alpha="-23.630886849697099" sparseCutoff=".32402135698120788"/>
      <sparseX i="173" alpha="-29763.397689502417" sparseCutoff=".78470398733748725E-003"/>
      <sparseX i="174" alpha="-632.33571833780070" sparseCutoff=".78339133489046087E-001"/>
      <sparseX i="175" alpha="-19262.589226892731" sparseCutoff=".17896958842217314E-003"/>
      <sparseX i="176" alpha="-434.15372834575987" sparseCutoff=".42391499515681552E-005"/>
      <sparseX i="177" alpha=".54352070880647785" sparseCutoff="1.0000000000000000"/>
      <sparseX i="178" alpha=".48648110369888097E-002" sparseCutoff="1.0000000000000000"/>
      <sparseX i="179" alpha=".43055163833375643" sparseCutoff=".95906810326089031"/>
      <sparseX i="180" alpha="1.0215452081552299" sparseCutoff="1.0000000000000000"/>
      <sparseX i="181" alpha="-9481.3362711122227" sparseCutoff=".21828322247328780E-001"/>
      <sparseX i="182" alpha="43652.119886216657" sparseCutoff=".12253061490371864E-001"/>
      <sparseX i="183" alpha="7.2203328384313972" sparseCutoff=".20065928190093982"/>
      <sparseX i="184" alpha="-.17642963639377804" sparseCutoff="1.0000000000000000"/>
      <sparseX i="185" alpha="-.12579051848295950" sparseCutoff="1.0000000000000000"/>
      <sparseX i="186" alpha="-.97488522071344549E-001" sparseCutoff="1.0000000000000000"/>
      <sparseX i="187" alpha=".34746354134041241" sparseCutoff=".39985364245325578"/>
      <sparseX i="188" alpha="157.51485996001287" sparseCutoff=".20053414351506260E-001"/>
      <sparseX i="189" alpha="8431.3289172409295" sparseCutoff=".32360082802385115E-004"/>
      <sparseX i="190" alpha=".20353471137390280" sparseCutoff=".49775663768210598"/>
      <sparseX i="191" alpha="-128.75719513809989" sparseCutoff=".41907362127271364E-001"/>
      <sparseX i="192" alpha="31975.069749485101" sparseCutoff=".58429458271397339E-003"/>
      <sparseX i="193" alpha="8.6338763025585727" sparseCutoff=".36816089775276828"/>
      <sparseX i="194" alpha=".19005960522298496" sparseCutoff="1.0000000000000000"/>
      <sparseX i="195" alpha=".31592910586878498" sparseCutoff=".97105682398800186"/>
      <sparseX i="196" alpha="1094.0524526002555" sparseCutoff=".19181001430279010E-002"/>
      <sparseX i="197" alpha="-59.605232918040244" sparseCutoff=".10634977302692677"/>
      <sparseX i="198" alpha="-7.6718257082444152" sparseCutoff=".37923706729304074"/>
      <sparseX i="199" alpha=".34417065164982219E-001" sparseCutoff="1.0000000000000000"/>
      <sparseX i="200" alpha="-.97546193557980276E-001" sparseCutoff=".57350352355933698"/>
    </gpCoordinates>
    <gpCoordinates label="GAP_2022_5_19_180_7_17_31_4148" dimensions="3" signal_variance=".10000000000000000E-001" signal_mean=".00000000000000000E+000" sparsified="T" n_permutations="1" covariance_type="4" n_sparseX="200" sparseX_filename="CO.xml.sparseX.GAP_2022_5_19_180_7_17_31_4148" sparseX_md5sum="15e1c54fe6e1154a5727edb1f929120d">
      <theta>  0.20000000000000000E+001  0.20000000000000000E+001  0.20000000000000000E+001 </theta>
      <descriptor> angle_3b Z_center=6 Z1=8 Z2=6 cutoff=2.0 n_sparse=200 covariance_type=pp delta=0.01 theta_uniform=2.0 sparse_method=uniform add_species=F</descriptor>
      <permutation i="1">1 2 3  </permutation>
      <sparseX i="1" alpha=".13234242322730305E-001" sparseCutoff="1.0000000000000000"/>
      <sparseX i="2" alpha="-.34798666849207327" sparseCutoff=".29885170531898708E-001"/>
      <sparseX i="3" alpha=".15835278492002711" sparseCutoff="1.0000000000000000"/>
      <sparseX i="4" alpha="1.3908172726157269" sparseCutoff=".22738190702800015"/>
      <sparseX i="5" alpha=".97004647893286070E-001" sparseCutoff=".48883719039181672"/>
      <sparseX i="6" alpha="-.50954513845309846" sparseCutoff=".47955769370654455"/>
      <sparseX i="7" alpha="-4491.8627191432661" sparseCutoff=".11487593567456877E-002"/>
      <sparseX i="8" alpha=".98632149049861603E-001" sparseCutoff="1.0000000000000000"/>
      <sparseX i="9" alpha="-6.2102017545852961" sparseCutoff=".91908022115891053E-001"/>
      <sparseX i="10" alpha="14.714295535898740" sparseCutoff=".10261151860199826"/>
      <sparseX i="11" alpha=".86054417093422972E-001" sparseCutoff=".36794182839516082"/>
      <sparseX i="12" alpha="1.5448154497684250" sparseCutoff=".21510554271631960"/>
      <sparseX i="13" alpha="-87.142727877786356" sparseCutoff=".82759804997302733E-002"/>
      <sparseX i="14" alpha="-.77397548480554926E-001" sparseCutoff=".96745766921079446"/>
      <sparseX i="15" alpha="1.0542102276924070" sparseCutoff=".44339674431008208"/>
      <sparseX i="16" alpha="1193.3351867752938" sparseCutoff=".54615587710998463E-002"/>
      <sparseX i="17" alpha="237.55825300567759" sparseCutoff=".30121662978690681E-001"/>
      <sparseX i="18" alpha="-.19012485503631280" sparseCutoff=".99409999572036001"/>
      <sparseX i="19" alpha="-.63666691645499107" sparseCutoff=".67709256423960484"/>
      <sparseX i="20" alpha="-.18426580309164475" sparseCutoff="1.0000000000000000"/>
      <sparseX i="21" alpha="-30.629162156457983" sparseCutoff=".36286410695439662E-001"/>
      <sparseX i="22" alpha="-14.160403485898941" sparseCutoff=".12600875450510329"/>
      <sparseX i="23" alpha="-407.97998242983232" sparseCutoff=".16832016039755537E-001"/>
      <sparseX i="24" alpha="3.8151764049499297" sparseCutoff="1.0000000000000000"/>
      <sparseX i="25" alpha="535.18930647879290" sparseCutoff=".90831520049082126E-001"/>
      <sparseX i="26" alpha="-1581.2718100761008" sparseCutoff=".14548462736902218E-001"/>
      <sparseX i="27" alpha="4.2647970392360772" sparseCutoff=".90012655551060849"/>
      <sparseX i="28" alpha="-77.628140121385428" sparseCutoff=".21317599712180807"/>
      <sparseX i="29" alpha="-4664.4533404651665" sparseCutoff=".72930570210998167E-003"/>
      <sparseX i="30" alpha="4.5734424959784770" sparseCutoff=".31661902270803216"/>
      <sparseX i="31" alpha="13.720419024918218" sparseCutoff=".47403262938492352"/>
      <sparseX i="32" alpha="2.4048911289194597" sparseCutoff="1.0000000000000000"/>
      <sparseX i="33" alpha="-3181.7733931722059" sparseCutoff=".16267082258041854E-002"/>
