<GAP_2021_3_9_120_9_59_51_575>
<Potential label="GAP_2021_3_9_120_9_59_51_575" init_args="IP GAP label=GAP_2021_3_9_120_9_59_51_575"/>
<GAP_params label="GAP_2021_3_9_120_9_59_51_575" gap_version="1611600208">
  <GAP_data do_core="F">
    <e0 Z="1" value=".90000000000000002"/>
    <e0 Z="2" value=".90000000000000002"/>
    <e0 Z="3" value=".90000000000000002"/>
    <e0 Z="4" value=".90000000000000002"/>
    <e0 Z="5" value=".90000000000000002"/>
    <e0 Z="6" value=".90000000000000002"/>
    <e0 Z="7" value=".90000000000000002"/>
    <e0 Z="8" value=".90000000000000002"/>
    <e0 Z="9" value=".90000000000000002"/>
    <e0 Z="10" value=".90000000000000002"/>
    <e0 Z="11" value=".90000000000000002"/>
    <e0 Z="12" value=".90000000000000002"/>
    <e0 Z="13" value=".90000000000000002"/>
    <e0 Z="14" value=".90000000000000002"/>
    <e0 Z="15" value=".90000000000000002"/>
    <e0 Z="16" value=".90000000000000002"/>
    <e0 Z="17" value=".90000000000000002"/>
    <e0 Z="18" value=".90000000000000002"/>
    <e0 Z="19" value=".90000000000000002"/>
    <e0 Z="20" value=".90000000000000002"/>
    <e0 Z="21" value=".90000000000000002"/>
    <e0 Z="22" value=".90000000000000002"/>
    <e0 Z="23" value=".90000000000000002"/>
    <e0 Z="24" value=".90000000000000002"/>
    <e0 Z="25" value=".90000000000000002"/>
    <e0 Z="26" value=".90000000000000002"/>
    <e0 Z="27" value=".90000000000000002"/>
    <e0 Z="28" value=".90000000000000002"/>
    <e0 Z="29" value=".90000000000000002"/>
    <e0 Z="30" value=".90000000000000002"/>
    <e0 Z="31" value=".90000000000000002"/>
    <e0 Z="32" value=".90000000000000002"/>
    <e0 Z="33" value=".90000000000000002"/>
    <e0 Z="34" value=".90000000000000002"/>
    <e0 Z="35" value=".90000000000000002"/>
    <e0 Z="36" value=".90000000000000002"/>
    <e0 Z="37" value=".90000000000000002"/>
    <e0 Z="38" value=".90000000000000002"/>
    <e0 Z="39" value=".90000000000000002"/>
    <e0 Z="40" value=".90000000000000002"/>
    <e0 Z="41" value=".90000000000000002"/>
    <e0 Z="42" value=".90000000000000002"/>
    <e0 Z="43" value=".90000000000000002"/>
    <e0 Z="44" value=".90000000000000002"/>
    <e0 Z="45" value=".90000000000000002"/>
    <e0 Z="46" value=".90000000000000002"/>
    <e0 Z="47" value=".90000000000000002"/>
    <e0 Z="48" value=".90000000000000002"/>
    <e0 Z="49" value=".90000000000000002"/>
    <e0 Z="50" value=".90000000000000002"/>
    <e0 Z="51" value=".90000000000000002"/>
    <e0 Z="52" value=".90000000000000002"/>
    <e0 Z="53" value=".90000000000000002"/>
    <e0 Z="54" value=".90000000000000002"/>
    <e0 Z="55" value=".90000000000000002"/>
    <e0 Z="56" value=".90000000000000002"/>
    <e0 Z="57" value=".90000000000000002"/>
    <e0 Z="58" value=".90000000000000002"/>
    <e0 Z="59" value=".90000000000000002"/>
    <e0 Z="60" value=".90000000000000002"/>
    <e0 Z="61" value=".90000000000000002"/>
    <e0 Z="62" value=".90000000000000002"/>
    <e0 Z="63" value=".90000000000000002"/>
    <e0 Z="64" value=".90000000000000002"/>
    <e0 Z="65" value=".90000000000000002"/>
    <e0 Z="66" value=".90000000000000002"/>
    <e0 Z="67" value=".90000000000000002"/>
    <e0 Z="68" value=".90000000000000002"/>
    <e0 Z="69" value=".90000000000000002"/>
    <e0 Z="70" value=".90000000000000002"/>
    <e0 Z="71" value=".90000000000000002"/>
    <e0 Z="72" value=".90000000000000002"/>
    <e0 Z="73" value=".90000000000000002"/>
    <e0 Z="74" value=".90000000000000002"/>
    <e0 Z="75" value=".90000000000000002"/>
    <e0 Z="76" value=".90000000000000002"/>
    <e0 Z="77" value=".90000000000000002"/>
    <e0 Z="78" value=".90000000000000002"/>
    <e0 Z="79" value=".90000000000000002"/>
    <e0 Z="80" value=".90000000000000002"/>
    <e0 Z="81" value=".90000000000000002"/>
    <e0 Z="82" value=".90000000000000002"/>
    <e0 Z="83" value=".90000000000000002"/>
    <e0 Z="84" value=".90000000000000002"/>
    <e0 Z="85" value=".90000000000000002"/>
    <e0 Z="86" value=".90000000000000002"/>
    <e0 Z="87" value=".90000000000000002"/>
    <e0 Z="88" value=".90000000000000002"/>
    <e0 Z="89" value=".90000000000000002"/>
    <e0 Z="90" value=".90000000000000002"/>
    <e0 Z="91" value=".90000000000000002"/>
    <e0 Z="92" value=".90000000000000002"/>
    <e0 Z="93" value=".90000000000000002"/>
    <e0 Z="94" value=".90000000000000002"/>
    <e0 Z="95" value=".90000000000000002"/>
    <e0 Z="96" value=".90000000000000002"/>
    <e0 Z="97" value=".90000000000000002"/>
    <e0 Z="98" value=".90000000000000002"/>
    <e0 Z="99" value=".90000000000000002"/>
    <e0 Z="100" value=".90000000000000002"/>
    <e0 Z="101" value=".90000000000000002"/>
    <e0 Z="102" value=".90000000000000002"/>
    <e0 Z="103" value=".90000000000000002"/>
    <e0 Z="104" value=".90000000000000002"/>
    <e0 Z="105" value=".90000000000000002"/>
    <e0 Z="106" value=".90000000000000002"/>
    <e0 Z="107" value=".90000000000000002"/>
    <e0 Z="108" value=".90000000000000002"/>
    <e0 Z="109" value=".90000000000000002"/>
    <e0 Z="110" value=".90000000000000002"/>
    <e0 Z="111" value=".90000000000000002"/>
    <e0 Z="112" value=".90000000000000002"/>
    <e0 Z="113" value=".90000000000000002"/>
    <e0 Z="114" value=".90000000000000002"/>
    <e0 Z="115" value=".90000000000000002"/>
    <e0 Z="116" value=".90000000000000002"/>
    <e0 Z="117" value=".90000000000000002"/>
    <e0 Z="118" value=".90000000000000002"/>
  </GAP_data>
  <gpSparse label="GAP_2021_3_9_120_9_59_51_575" n_coordinate="1">
    <gpCoordinates label="GAP_2021_3_9_120_9_59_51_5751" dimensions="72" signal_variance="1.0000000000000000" signal_mean=".00000000000000000E+000" sparsified="T" n_permutations="1" covariance_type="2" zeta="6.0000000000000000" n_sparseX="2000" sparseX_filename="hirshfeld.xml.sparseX.GAP_2021_3_9_120_9_59_51_5751" sparseX_md5sum="ec4a80ff0718eb6d2970a5b896d43e02">
      <descriptor> soap_turbo l_max=8 alpha_max={8} atom_sigma_r={0.5} atom_sigma_t={0.5} atom_sigma_r_scaling={0.} atom_sigma_t_scaling={0.} zeta=6 rcut_hard=4.5 rcut_soft=4.0 basis=poly3gauss scaling_mode=polynomial amplitude_scaling={1.0} n_species=1 species_Z=6 central_index=1 radial_enhancement={1} compress_file=compress.dat central_weight={1.0} n_sparse=2000 delta=1.0 f0=0.0 covariance_type=dot_product sparse_method=cur_points add_species=F</descriptor>
      <permutation i="1">1  </permutation>
      <sparseX i="1" alpha="22.348941919128201" sparseCutoff="1.0000000000000000"/>
      <sparseX i="2" alpha="-11.017832780575503" sparseCutoff="1.0000000000000000"/>
      <sparseX i="3" alpha="40.756756124273771" sparseCutoff="1.0000000000000000"/>
      <sparseX i="4" alpha="-26.424261909507798" sparseCutoff="1.0000000000000000"/>
      <sparseX i="5" alpha="34.393819618439501" sparseCutoff="1.0000000000000000"/>
      <sparseX i="6" alpha="-5.2100916322914106" sparseCutoff="1.0000000000000000"/>
      <sparseX i="7" alpha="-28.336458717773045" sparseCutoff="1.0000000000000000"/>
      <sparseX i="8" alpha="20.685321456768552" sparseCutoff="1.0000000000000000"/>
      <sparseX i="9" alpha="18.566166764204908" sparseCutoff="1.0000000000000000"/>
      <sparseX i="10" alpha="-15.149635945863057" sparseCutoff="1.0000000000000000"/>
      <sparseX i="11" alpha="27.788837979376702" sparseCutoff="1.0000000000000000"/>
      <sparseX i="12" alpha="38.434218597598395" sparseCutoff="1.0000000000000000"/>
      <sparseX i="13" alpha="-8.8387545157724592" sparseCutoff="1.0000000000000000"/>
      <sparseX i="14" alpha="22.780012314044185" sparseCutoff="1.0000000000000000"/>
      <sparseX i="15" alpha="-23.726584454270807" sparseCutoff="1.0000000000000000"/>
      <sparseX i="16" alpha="-86.100689247708061" sparseCutoff="1.0000000000000000"/>
      <sparseX i="17" alpha="-129.46609267837025" sparseCutoff="1.0000000000000000"/>
      <sparseX i="18" alpha="-.27298305945324591" sparseCutoff="1.0000000000000000"/>
      <sparseX i="19" alpha="-54.135800184324957" sparseCutoff="1.0000000000000000"/>
      <sparseX i="20" alpha="-1.6114696967484106" sparseCutoff="1.0000000000000000"/>
      <sparseX i="21" alpha="-7943.7336952206879" sparseCutoff="1.0000000000000000"/>
      <sparseX i="22" alpha="-4.4168846065442304" sparseCutoff="1.0000000000000000"/>
      <sparseX i="23" alpha="-120.03657419509069" sparseCutoff="1.0000000000000000"/>
      <sparseX i="24" alpha="-8.4144555625909234" sparseCutoff="1.0000000000000000"/>
      <sparseX i="25" alpha="-19.646565395746013" sparseCutoff="1.0000000000000000"/>
      <sparseX i="26" alpha="22.532423134224544" sparseCutoff="1.0000000000000000"/>
      <sparseX i="27" alpha="-6.0464654564257545" sparseCutoff="1.0000000000000000"/>
      <sparseX i="28" alpha="-5.7668729985199469" sparseCutoff="1.0000000000000000"/>
      <sparseX i="29" alpha="14.979401749247767" sparseCutoff="1.0000000000000000"/>
      <sparseX i="30" alpha="1.8340416523131131" sparseCutoff="1.0000000000000000"/>
      <sparseX i="31" alpha="-70.923530365733143" sparseCutoff="1.0000000000000000"/>
      <sparseX i="32" alpha="-24.376642908023740" sparseCutoff="1.0000000000000000"/>
      <sparseX i="33" alpha="14.524125847234018" sparseCutoff="1.0000000000000000"/>
      <sparseX i="34" alpha="13.493470950053387" sparseCutoff="1.0000000000000000"/>
      <sparseX i="35" alpha="14.923378296771986" sparseCutoff="1.0000000000000000"/>
      <sparseX i="36" alpha="6.4399386118918800" sparseCutoff="1.0000000000000000"/>
      <sparseX i="37" alpha="-.36226402686821896" sparseCutoff="1.0000000000000000"/>
      <sparseX i="38" alpha="-105.26891668416097" sparseCutoff="1.0000000000000000"/>
      <sparseX i="39" alpha="-12.559658541259461" sparseCutoff="1.0000000000000000"/>
      <sparseX i="40" alpha="-58.572493927644096" sparseCutoff="1.0000000000000000"/>
      <sparseX i="41" alpha="-10.903618916506263" sparseCutoff="1.0000000000000000"/>
      <sparseX i="42" alpha="-10.224796903360104" sparseCutoff="1.0000000000000000"/>
      <sparseX i="43" alpha="10.319877963132942" sparseCutoff="1.0000000000000000"/>
      <sparseX i="44" alpha="43.634472963761773" sparseCutoff="1.0000000000000000"/>
      <sparseX i="45" alpha="-8209.8718651616218" sparseCutoff="1.0000000000000000"/>
      <sparseX i="46" alpha="-5.6973025788045462" sparseCutoff="1.0000000000000000"/>
      <sparseX i="47" alpha="-12.711240509603229" sparseCutoff="1.0000000000000000"/>
      <sparseX i="48" alpha="-5.5864944143657453" sparseCutoff="1.0000000000000000"/>
      <sparseX i="49" alpha="-1.1108721285752026" sparseCutoff="1.0000000000000000"/>
      <sparseX i="50" alpha="3.7329267838107056" sparseCutoff="1.0000000000000000"/>
      <sparseX i="51" alpha="-15.344796362434387" sparseCutoff="1.0000000000000000"/>
      <sparseX i="52" alpha="-6.7602259085407708" sparseCutoff="1.0000000000000000"/>
      <sparseX i="53" alpha="-3.4756971051882011" sparseCutoff="1.0000000000000000"/>
      <sparseX i="54" alpha="181.04366376500542" sparseCutoff="1.0000000000000000"/>
      <sparseX i="55" alpha="-4.8368542273155999" sparseCutoff="1.0000000000000000"/>
      <sparseX i="56" alpha="31.162490309453453" sparseCutoff="1.0000000000000000"/>
      <sparseX i="57" alpha="1.2840266516812415" sparseCutoff="1.0000000000000000"/>
      <sparseX i="58" alpha="-13.616724553286538" sparseCutoff="1.0000000000000000"/>
      <sparseX i="59" alpha="10.344065995060838" sparseCutoff="1.0000000000000000"/>
      <sparseX i="60" alpha="30.843305392948178" sparseCutoff="1.0000000000000000"/>
      <sparseX i="61" alpha="-12.583641158989733" sparseCutoff="1.0000000000000000"/>
      <sparseX i="62" alpha="-1.4816245214100900" sparseCutoff="1.0000000000000000"/>
      <sparseX i="63" alpha="22.088156759648818" sparseCutoff="1.0000000000000000"/>
      <sparseX i="64" alpha="-60.066315881644478" sparseCutoff="1.0000000000000000"/>
      <sparseX i="65" alpha="-10.409606756764280" sparseCutoff="1.0000000000000000"/>
      <sparseX i="66" alpha="27.695246129125231" sparseCutoff="1.0000000000000000"/>
      <sparseX i="67" alpha="-43.975025551848475" sparseCutoff="1.0000000000000000"/>
      <sparseX i="68" alpha="-44.718421072569285" sparseCutoff="1.0000000000000000"/>
      <sparseX i="69" alpha="-4.9834060346431039" sparseCutoff="1.0000000000000000"/>
      <sparseX i="70" alpha="15.588507431708601" sparseCutoff="1.0000000000000000"/>
      <sparseX i="71" alpha="24.937569442754917" sparseCutoff="1.0000000000000000"/>
      <sparseX i="72" alpha="29.899865420960126" sparseCutoff="1.0000000000000000"/>
      <sparseX i="73" alpha="-46.013271648103093" sparseCutoff="1.0000000000000000"/>
      <sparseX i="74" alpha="17.033580207943746" sparseCutoff="1.0000000000000000"/>
      <sparseX i="75" alpha=".17883719606852400" sparseCutoff="1.0000000000000000"/>
      <sparseX i="76" alpha="10.668976294956058" sparseCutoff="1.0000000000000000"/>
      <sparseX i="77" alpha="15.477004945232332" sparseCutoff="1.0000000000000000"/>
      <sparseX i="78" alpha="-60.837113453920722" sparseCutoff="1.0000000000000000"/>
      <sparseX i="79" alpha="-21.549615656477464" sparseCutoff="1.0000000000000000"/>
      <sparseX i="80" alpha="1.1043758207661198" sparseCutoff="1.0000000000000000"/>
      <sparseX i="81" alpha="14.513061783297269" sparseCutoff="1.0000000000000000"/>
      <sparseX i="82" alpha="3.3938357546574816" sparseCutoff="1.0000000000000000"/>
      <sparseX i="83" alpha="71.500200791530048" sparseCutoff="1.0000000000000000"/>
      <sparseX i="84" alpha="-40.371160349527692" sparseCutoff="1.0000000000000000"/>
      <sparseX i="85" alpha="-106.69447429504066" sparseCutoff="1.0000000000000000"/>
      <sparseX i="86" alpha="-9.1335576017535480" sparseCutoff="1.0000000000000000"/>
      <sparseX i="87" alpha="-8.4989976563558489" sparseCutoff="1.0000000000000000"/>
      <sparseX i="88" alpha="6.0435104906082193" sparseCutoff="1.0000000000000000"/>
      <sparseX i="89" alpha="62.170928707950750" sparseCutoff="1.0000000000000000"/>
      <sparseX i="90" alpha="-41.139261269475661" sparseCutoff="1.0000000000000000"/>
      <sparseX i="91" alpha="24.918814276931194" sparseCutoff="1.0000000000000000"/>
      <sparseX i="92" alpha="-145.67086772942633" sparseCutoff="1.0000000000000000"/>
      <sparseX i="93" alpha="28.472818758053073" sparseCutoff="1.0000000000000000"/>
      <sparseX i="94" alpha="35.394791989654131" sparseCutoff="1.0000000000000000"/>
      <sparseX i="95" alpha="-.34170333086751786" sparseCutoff="1.0000000000000000"/>
      <sparseX i="96" alpha="18.752108357353261" sparseCutoff="1.0000000000000000"/>
      <sparseX i="97" alpha="47.151196062407585" sparseCutoff="1.0000000000000000"/>
      <sparseX i="98" alpha="2.1209381116352528" sparseCutoff="1.0000000000000000"/>
      <sparseX i="99" alpha="22.819238331286201" sparseCutoff="1.0000000000000000"/>
      <sparseX i="100" alpha="-1.7704859265037174" sparseCutoff="1.0000000000000000"/>
      <sparseX i="101" alpha="-90.273066836373673" sparseCutoff="1.0000000000000000"/>
      <sparseX i="102" alpha="25.673415968864294" sparseCutoff="1.0000000000000000"/>
      <sparseX i="103" alpha="-7.3788393950849382" sparseCutoff="1.0000000000000000"/>
      <sparseX i="104" alpha="-38.999589368339720" sparseCutoff="1.0000000000000000"/>
      <sparseX i="105" alpha="14.591393501323559" sparseCutoff="1.0000000000000000"/>
      <sparseX i="106" alpha="16.311154976531832" sparseCutoff="1.0000000000000000"/>
      <sparseX i="107" alpha="-59.113191497405992" sparseCutoff="1.0000000000000000"/>
      <sparseX i="108" alpha="37.252668161011265" sparseCutoff="1.0000000000000000"/>
      <sparseX i="109" alpha="50.766948987845311" sparseCutoff="1.0000000000000000"/>
      <sparseX i="110" alpha="11.184388479023102" sparseCutoff="1.0000000000000000"/>
      <sparseX i="111" alpha="-36.593203849285644" sparseCutoff="1.0000000000000000"/>
      <sparseX i="112" alpha="-4.9955269137185008" sparseCutoff="1.0000000000000000"/>
      <sparseX i="113" alpha="22.755392562284420" sparseCutoff="1.0000000000000000"/>
      <sparseX i="114" alpha="67.779913254108052" sparseCutoff="1.0000000000000000"/>
      <sparseX i="115" alpha="35.443868347652227" sparseCutoff="1.0000000000000000"/>
      <sparseX i="116" alpha="-10.518362862039707" sparseCutoff="1.0000000000000000"/>
      <sparseX i="117" alpha="-9.3433398739858369" sparseCutoff="1.0000000000000000"/>
      <sparseX i="118" alpha="-15.221742920540946" sparseCutoff="1.0000000000000000"/>
      <sparseX i="119" alpha="12.744993085075965" sparseCutoff="1.0000000000000000"/>
      <sparseX i="120" alpha="14.486254094391311" sparseCutoff="1.0000000000000000"/>
      <sparseX i="121" alpha="-26.720960439909504" sparseCutoff="1.0000000000000000"/>
      <sparseX i="122" alpha="-2.6708750846781530" sparseCutoff="1.0000000000000000"/>
      <sparseX i="123" alpha="-2.4607068752756063" sparseCutoff="1.0000000000000000"/>
      <sparseX i="124" alpha="-17.639254472957919" sparseCutoff="1.0000000000000000"/>
      <sparseX i="125" alpha="-18.307670113869648" sparseCutoff="1.0000000000000000"/>
      <sparseX i="126" alpha="21.206032451460864" sparseCutoff="1.0000000000000000"/>
      <sparseX i="127" alpha="-5.4168837375645111" sparseCutoff="1.0000000000000000"/>
      <sparseX i="128" alpha="-13.290842897226037" sparseCutoff="1.0000000000000000"/>
      <sparseX i="129" alpha="-18.722872832862745" sparseCutoff="1.0000000000000000"/>
      <sparseX i="130" alpha="-39.180347552571334" sparseCutoff="1.0000000000000000"/>
      <sparseX i="131" alpha="25.308028200479491" sparseCutoff="1.0000000000000000"/>
      <sparseX i="132" alpha="-18.893221774716295" sparseCutoff="1.0000000000000000"/>
      <sparseX i="133" alpha="7.7321739504701892" sparseCutoff="1.0000000000000000"/>
      <sparseX i="134" alpha="25.897957633749414" sparseCutoff="1.0000000000000000"/>
      <sparseX i="135" alpha="6.3782195345186956" sparseCutoff="1.0000000000000000"/>
      <sparseX i="136" alpha="-7.7917043849223599" sparseCutoff="1.0000000000000000"/>
      <sparseX i="137" alpha="12.058591868778688" sparseCutoff="1.0000000000000000"/>
      <sparseX i="138" alpha="-9.6701477362549202" sparseCutoff="1.0000000000000000"/>
      <sparseX i="139" alpha="-7.7649370611360879" sparseCutoff="1.0000000000000000"/>
      <sparseX i="140" alpha="-4.2975242653291685" sparseCutoff="1.0000000000000000"/>
      <sparseX i="141" alpha="-.47464939449452537" sparseCutoff="1.0000000000000000"/>
      <sparseX i="142" alpha="-6.5218584455920077" sparseCutoff="1.0000000000000000"/>
      <sparseX i="143" alpha="24.844988926575521" sparseCutoff="1.0000000000000000"/>
      <sparseX i="144" alpha="25969.855217124496" sparseCutoff="1.0000000000000000"/>
      <sparseX i="145" alpha="-78.377088802724856" sparseCutoff="1.0000000000000000"/>
      <sparseX i="146" alpha="-6.3297149201667411" sparseCutoff="1.0000000000000000"/>
      <sparseX i="147" alpha="-2.8906525837539494" sparseCutoff="1.0000000000000000"/>
      <sparseX i="148" alpha="-5.6680839648896457" sparseCutoff="1.0000000000000000"/>
      <sparseX i="149" alpha="32.752537688191850" sparseCutoff="1.0000000000000000"/>
      <sparseX i="150" alpha="4.9335383387014735" sparseCutoff="1.0000000000000000"/>
      <sparseX i="151" alpha="-8.2913190032447392" sparseCutoff="1.0000000000000000"/>
      <sparseX i="152" alpha="28.169768760936361" sparseCutoff="1.0000000000000000"/>
      <sparseX i="153" alpha="-58.474509315765765" sparseCutoff="1.0000000000000000"/>
      <sparseX i="154" alpha="66.708076710991378" sparseCutoff="1.0000000000000000"/>
      <sparseX i="155" alpha="-7.3722662166976454" sparseCutoff="1.0000000000000000"/>
      <sparseX i="156" alpha="-19.237885152891511" sparseCutoff="1.0000000000000000"/>
      <sparseX i="157" alpha="29.006939611001432" sparseCutoff="1.0000000000000000"/>
      <sparseX i="158" alpha="6.7731591796285295" sparseCutoff="1.0000000000000000"/>
      <sparseX i="159" alpha="34.113808012266929" sparseCutoff="1.0000000000000000"/>
      <sparseX i="160" alpha="-12.564524808518041" sparseCutoff="1.0000000000000000"/>
      <sparseX i="161" alpha="2.1323759512725107" sparseCutoff="1.0000000000000000"/>
      <sparseX i="162" alpha="-973.06189106703198" sparseCutoff="1.0000000000000000"/>
      <sparseX i="163" alpha="1938.0682390267132" sparseCutoff="1.0000000000000000"/>
      <sparseX i="164" alpha="-.96051911956221558" sparseCutoff="1.0000000000000000"/>
      <sparseX i="165" alpha="23.624214403774399" sparseCutoff="1.0000000000000000"/>
      <sparseX i="166" alpha="-8.7503054875916391" sparseCutoff="1.0000000000000000"/>
      <sparseX i="167" alpha="47.430227640308708" sparseCutoff="1.0000000000000000"/>
      <sparseX i="168" alpha="-17.179058775248219" sparseCutoff="1.0000000000000000"/>
      <sparseX i="169" alpha="-55.723421002337950" sparseCutoff="1.0000000000000000"/>
      <sparseX i="170" alpha="-17.717663965641048" sparseCutoff="1.0000000000000000"/>
      <sparseX i="171" alpha="-1.2666166730682773" sparseCutoff="1.0000000000000000"/>
      <sparseX i="172" alpha=".87632119035891978E-001" sparseCutoff="1.0000000000000000"/>
      <sparseX i="173" alpha="-20.278282459599946" sparseCutoff="1.0000000000000000"/>
      <sparseX i="174" alpha="-1.5796622854578366" sparseCutoff="1.0000000000000000"/>
      <sparseX i="175" alpha="-10.162363294209987" sparseCutoff="1.0000000000000000"/>
      <sparseX i="176" alpha="8.0189474619727612" sparseCutoff="1.0000000000000000"/>
      <sparseX i="177" alpha="26.171759100631515" sparseCutoff="1.0000000000000000"/>
      <sparseX i="178" alpha="7.7701669063736842" sparseCutoff="1.0000000000000000"/>
      <sparseX i="179" alpha="-73.118890263786810" sparseCutoff="1.0000000000000000"/>
      <sparseX i="180" alpha="-12.990989960494945" sparseCutoff="1.0000000000000000"/>
      <sparseX i="181" alpha="-6.4312075639974395" sparseCutoff="1.0000000000000000"/>
      <sparseX i="182" alpha="14.613497169310167" sparseCutoff="1.0000000000000000"/>
      <sparseX i="183" alpha="16.388257139771031" sparseCutoff="1.0000000000000000"/>
      <sparseX i="184" alpha="73.682119797579816" sparseCutoff="1.0000000000000000"/>
      <sparseX i="185" alpha="21.856311965276330" sparseCutoff="1.0000000000000000"/>
      <sparseX i="186" alpha="-13.289528882039344" sparseCutoff="1.0000000000000000"/>
      <sparseX i="187" alpha="-45.067508979489453" sparseCutoff="1.0000000000000000"/>
      <sparseX i="188" alpha="49.378449108913046" sparseCutoff="1.0000000000000000"/>
      <sparseX i="189" alpha="29.366765135212535" sparseCutoff="1.0000000000000000"/>
      <sparseX i="190" alpha="38.031470651847251" sparseCutoff="1.0000000000000000"/>
      <sparseX i="191" alpha="-27.090435509569616" sparseCutoff="1.0000000000000000"/>
      <sparseX i="192" alpha="28.151494099628646" sparseCutoff="1.0000000000000000"/>
      <sparseX i="193" alpha="-3.2396519001027455" sparseCutoff="1.0000000000000000"/>
      <sparseX i="194" alpha="5.9219138177615163" sparseCutoff="1.0000000000000000"/>
      <sparseX i="195" alpha="78.670346417742891" sparseCutoff="1.0000000000000000"/>
      <sparseX i="196" alpha="-28.792254371559803" sparseCutoff="1.0000000000000000"/>
      <sparseX i="197" alpha="5.2081002997125667" sparseCutoff="1.0000000000000000"/>
      <sparseX i="198" alpha="-69.494149043767905" sparseCutoff="1.0000000000000000"/>
      <sparseX i="199" alpha="-2.7768672334229394" sparseCutoff="1.0000000000000000"/>
      <sparseX i="200" alpha="-15.335275652214401" sparseCutoff="1.0000000000000000"/>
      <sparseX i="201" alpha="-48.263058952431500" sparseCutoff="1.0000000000000000"/>
      <sparseX i="202" alpha="-2445.9820903476170" sparseCutoff="1.0000000000000000"/>
      <sparseX i="203" alpha="-9.4742729912706540" sparseCutoff="1.0000000000000000"/>
      <sparseX i="204" alpha="2.7192150416671792" sparseCutoff="1.0000000000000000"/>
      <sparseX i="205" alpha="96.292934663345690" sparseCutoff="1.0000000000000000"/>
      <sparseX i="206" alpha="-9.6690613538768897" sparseCutoff="1.0000000000000000"/>
      <sparseX i="207" alpha="31.353853424005081" sparseCutoff="1.0000000000000000"/>
      <sparseX i="208" alpha="-30.342797892876380" sparseCutoff="1.0000000000000000"/>
      <sparseX i="209" alpha="50.710970752188729" sparseCutoff="1.0000000000000000"/>
      <sparseX i="210" alpha="-3.2030097080092830" sparseCutoff="1.0000000000000000"/>
      <sparseX i="211" alpha="20.576299996790617" sparseCutoff="1.0000000000000000"/>
      <sparseX i="212" alpha="69.618799933367058" sparseCutoff="1.0000000000000000"/>
      <sparseX i="213" alpha="23.887246789111853" sparseCutoff="1.0000000000000000"/>
      <sparseX i="214" alpha="-55.418215557775987" sparseCutoff="1.0000000000000000"/>
      <sparseX i="215" alpha="-21.600794002525255" sparseCutoff="1.0000000000000000"/>
      <sparseX i="216" alpha="-18.303739868595766" sparseCutoff="1.0000000000000000"/>
      <sparseX i="217" alpha="11.494425921015671" sparseCutoff="1.0000000000000000"/>
      <sparseX i="218" alpha="-112.39992042359916" sparseCutoff="1.0000000000000000"/>
      <sparseX i="219" alpha="-18.863388576000617" sparseCutoff="1.0000000000000000"/>
      <sparseX i="220" alpha="2.1573823059890720" sparseCutoff="1.0000000000000000"/>
      <sparseX i="221" alpha="-25.515977834741697" sparseCutoff="1.0000000000000000"/>
      <sparseX i="222" alpha="-39.441983144061574" sparseCutoff="1.0000000000000000"/>
      <sparseX i="223" alpha="89.007791795289805" sparseCutoff="1.0000000000000000"/>
      <sparseX i="224" alpha="-78.644309286371566" sparseCutoff="1.0000000000000000"/>
      <sparseX i="225" alpha="-5.3120606494097951" sparseCutoff="1.0000000000000000"/>
      <sparseX i="226" alpha="-15.885287406076467" sparseCutoff="1.0000000000000000"/>
      <sparseX i="227" alpha="3.3635139233609546" sparseCutoff="1.0000000000000000"/>
      <sparseX i="228" alpha="-22.987448209907885" sparseCutoff="1.0000000000000000"/>
      <sparseX i="229" alpha=".96854895879169078" sparseCutoff="1.0000000000000000"/>
      <sparseX i="230" alpha="-1.0249625329892318" sparseCutoff="1.0000000000000000"/>
      <sparseX i="231" alpha="-20.649929786244186" sparseCutoff="1.0000000000000000"/>
      <sparseX i="232" alpha="29.975257415712974" sparseCutoff="1.0000000000000000"/>
      <sparseX i="233" alpha="4.0892441419386953" sparseCutoff="1.0000000000000000"/>
      <sparseX i="234" alpha="34.913703607010270" sparseCutoff="1.0000000000000000"/>
      <sparseX i="235" alpha="-3.2638142075815515" sparseCutoff="1.0000000000000000"/>
      <sparseX i="236" alpha="13.146854207117840" sparseCutoff="1.0000000000000000"/>
      <sparseX i="237" alpha="323.28440436596867" sparseCutoff="1.0000000000000000"/>
      <sparseX i="238" alpha="72.313359045587660" sparseCutoff="1.0000000000000000"/>
      <sparseX i="239" alpha="-35.213675951465248" sparseCutoff="1.0000000000000000"/>
      <sparseX i="240" alpha="6.3972284968141002" sparseCutoff="1.0000000000000000"/>
      <sparseX i="241" alpha="1979.3301534028701" sparseCutoff="1.0000000000000000"/>
      <sparseX i="242" alpha="16.110453087658811" sparseCutoff="1.0000000000000000"/>
      <sparseX i="243" alpha="4.7308800039317473" sparseCutoff="1.0000000000000000"/>
      <sparseX i="244" alpha="-78.795166012774871" sparseCutoff="1.0000000000000000"/>
      <sparseX i="245" alpha="-23.038148492842453" sparseCutoff="1.0000000000000000"/>
      <sparseX i="246" alpha="-129.20468157431335" sparseCutoff="1.0000000000000000"/>
      <sparseX i="247" alpha="-50.891776790287857" sparseCutoff="1.0000000000000000"/>
      <sparseX i="248" alpha="-93.370544038206972" sparseCutoff="1.0000000000000000"/>
      <sparseX i="249" alpha="15.774113257915101" sparseCutoff="1.0000000000000000"/>
      <sparseX i="250" alpha="-2.4622540947112883" sparseCutoff="1.0000000000000000"/>
      <sparseX i="251" alpha="31.755652162468230" sparseCutoff="1.0000000000000000"/>
      <sparseX i="252" alpha="47.328531556368482" sparseCutoff="1.0000000000000000"/>
      <sparseX i="253" alpha="-16.280351639560568" sparseCutoff="1.0000000000000000"/>
      <sparseX i="254" alpha="-64.964422943895386" sparseCutoff="1.0000000000000000"/>
      <sparseX i="255" alpha="192.49939520098292" sparseCutoff="1.0000000000000000"/>
      <sparseX i="256" alpha="11.281552939387025" sparseCutoff="1.0000000000000000"/>
      <sparseX i="257" alpha="-2.2801196552075673" sparseCutoff="1.0000000000000000"/>
      <sparseX i="258" alpha="-24.025013887724683" sparseCutoff="1.0000000000000000"/>
      <sparseX i="259" alpha="11.574138172692539" sparseCutoff="1.0000000000000000"/>
      <sparseX i="260" alpha="-2.2645434652536567" sparseCutoff="1.0000000000000000"/>
      <sparseX i="261" alpha="-10.962556536987703" sparseCutoff="1.0000000000000000"/>
      <sparseX i="262" alpha="1.3896978180209483" sparseCutoff="1.0000000000000000"/>
      <sparseX i="263" alpha="104.01814165153894" sparseCutoff="1.0000000000000000"/>
      <sparseX i="264" alpha="3.8721972322256240" sparseCutoff="1.0000000000000000"/>
      <sparseX i="265" alpha="-3.3730222630333353" sparseCutoff="1.0000000000000000"/>
      <sparseX i="266" alpha="-23.343925639707475" sparseCutoff="1.0000000000000000"/>
      <sparseX i="267" alpha="48.042451542570994" sparseCutoff="1.0000000000000000"/>
      <sparseX i="268" alpha="-10.123026228090996" sparseCutoff="1.0000000000000000"/>
      <sparseX i="269" alpha="25274.918236219448" sparseCutoff="1.0000000000000000"/>
      <sparseX i="270" alpha="-64.416247862103816" sparseCutoff="1.0000000000000000"/>
      <sparseX i="271" alpha="7.9721397967592651" sparseCutoff="1.0000000000000000"/>
      <sparseX i="272" alpha="18.604627960638496" sparseCutoff="1.0000000000000000"/>
      <sparseX i="273" alpha="-4.8410845480933418" sparseCutoff="1.0000000000000000"/>
      <sparseX i="274" alpha="-64.366318596386904" sparseCutoff="1.0000000000000000"/>
      <sparseX i="275" alpha="-25.871018123980924" sparseCutoff="1.0000000000000000"/>
      <sparseX i="276" alpha="-25.404219581150834" sparseCutoff="1.0000000000000000"/>
      <sparseX i="277" alpha="37.876515084497086" sparseCutoff="1.0000000000000000"/>
      <sparseX i="278" alpha="-17.930071915569702" sparseCutoff="1.0000000000000000"/>
      <sparseX i="279" alpha="-22.649569258087965" sparseCutoff="1.0000000000000000"/>
      <sparseX i="280" alpha="5.4962906409656025" sparseCutoff="1.0000000000000000"/>
      <sparseX i="281" alpha="-34.579896230714660" sparseCutoff="1.0000000000000000"/>
      <sparseX i="282" alpha="107.94842498166253" sparseCutoff="1.0000000000000000"/>
      <sparseX i="283" alpha="-16.915198988101903" sparseCutoff="1.0000000000000000"/>
      <sparseX i="284" alpha="-72.083234647851810" sparseCutoff="1.0000000000000000"/>
      <sparseX i="285" alpha="-154.20537197685144" sparseCutoff="1.0000000000000000"/>
      <sparseX i="286" alpha="-15.855736490142135" sparseCutoff="1.0000000000000000"/>
      <sparseX i="287" alpha="-.31364002616105241" sparseCutoff="1.0000000000000000"/>
      <sparseX i="288" alpha="3.5281387709223848" sparseCutoff="1.0000000000000000"/>
      <sparseX i="289" alpha="-15.525905258830564" sparseCutoff="1.0000000000000000"/>
      <sparseX i="290" alpha="23.784443092689589" sparseCutoff="1.0000000000000000"/>
      <sparseX i="291" alpha="-31.445206558135567" sparseCutoff="1.0000000000000000"/>
      <sparseX i="292" alpha="-6.3795960976990633" sparseCutoff="1.0000000000000000"/>
      <sparseX i="293" alpha="76.143172568971679" sparseCutoff="1.0000000000000000"/>
      <sparseX i="294" alpha="75.503340658933539" sparseCutoff="1.0000000000000000"/>
      <sparseX i="295" alpha="15.073272892115412" sparseCutoff="1.0000000000000000"/>
      <sparseX i="296" alpha="3.1131189310898972" sparseCutoff="1.0000000000000000"/>
      <sparseX i="297" alpha="15.114054505754121" sparseCutoff="1.0000000000000000"/>
      <sparseX i="298" alpha="31.184437464584640" sparseCutoff="1.0000000000000000"/>
      <sparseX i="299" alpha="-27.430307092154841" sparseCutoff="1.0000000000000000"/>
      <sparseX i="300" alpha="-63.975264415686446" sparseCutoff="1.0000000000000000"/>
      <sparseX i="301" alpha="53.219440690463742" sparseCutoff="1.0000000000000000"/>
      <sparseX i="302" alpha="-67.747541696710854" sparseCutoff="1.0000000000000000"/>
      <sparseX i="303" alpha="-63.340120419927224" sparseCutoff="1.0000000000000000"/>
      <sparseX i="304" alpha="56.999055322631925" sparseCutoff="1.0000000000000000"/>
      <sparseX i="305" alpha="45.210103097727604" sparseCutoff="1.0000000000000000"/>
      <sparseX i="306" alpha="-6.4314853745494585" sparseCutoff="1.0000000000000000"/>
      <sparseX i="307" alpha="-29.100405777545550" sparseCutoff="1.0000000000000000"/>
      <sparseX i="308" alpha="-10.254876899488613" sparseCutoff="1.0000000000000000"/>
      <sparseX i="309" alpha="-43.337749535643567" sparseCutoff="1.0000000000000000"/>
      <sparseX i="310" alpha="-9.7316283195057736" sparseCutoff="1.0000000000000000"/>
      <sparseX i="311" alpha="-11.936471334732330" sparseCutoff="1.0000000000000000"/>
      <sparseX i="312" alpha="5.6413285303568301" sparseCutoff="1.0000000000000000"/>
      <sparseX i="313" alpha="26.397735371580183" sparseCutoff="1.0000000000000000"/>
      <sparseX i="314" alpha="-5.1110977988616657" sparseCutoff="1.0000000000000000"/>
      <sparseX i="315" alpha="-40.688544713709568" sparseCutoff="1.0000000000000000"/>
      <sparseX i="316" alpha="4.5045804554546303" sparseCutoff="1.0000000000000000"/>
      <sparseX i="317" alpha="40.743942225789404" sparseCutoff="1.0000000000000000"/>
      <sparseX i="318" alpha=".51711946936577402" sparseCutoff="1.0000000000000000"/>
      <sparseX i="319" alpha="-3.7996399844247666" sparseCutoff="1.0000000000000000"/>
      <sparseX i="320" alpha="36.069163555795313" sparseCutoff="1.0000000000000000"/>
      <sparseX i="321" alpha="1.8067527507142380" sparseCutoff="1.0000000000000000"/>
      <sparseX i="322" alpha="-12.479293445598289" sparseCutoff="1.0000000000000000"/>
      <sparseX i="323" alpha="-2.1815309985117719" sparseCutoff="1.0000000000000000"/>
      <sparseX i="324" alpha="30.848532439279921" sparseCutoff="1.0000000000000000"/>
      <sparseX i="325" alpha="66.447190046752297" sparseCutoff="1.0000000000000000"/>
      <sparseX i="326" alpha="16.731525289868330" sparseCutoff="1.0000000000000000"/>
      <sparseX i="327" alpha=".88292089649241445" sparseCutoff="1.0000000000000000"/>
      <sparseX i="328" alpha="8.0211933699977838" sparseCutoff="1.0000000000000000"/>
      <sparseX i="329" alpha="22.370893616251671" sparseCutoff="1.0000000000000000"/>
      <sparseX i="330" alpha="-15.104254013065360" sparseCutoff="1.0000000000000000"/>
      <sparseX i="331" alpha="3.3661989418079727" sparseCutoff="1.0000000000000000"/>
      <sparseX i="332" alpha="-12.335737995620143" sparseCutoff="1.0000000000000000"/>
      <sparseX i="333" alpha="-7.8830397224157149" sparseCutoff="1.0000000000000000"/>
      <sparseX i="334" alpha="8.9532291479823805" sparseCutoff="1.0000000000000000"/>
      <sparseX i="335" alpha="-87.247618059499175" sparseCutoff="1.0000000000000000"/>
      <sparseX i="336" alpha="12571.975047006792" sparseCutoff="1.0000000000000000"/>
      <sparseX i="337" alpha="24.293944274859143" sparseCutoff="1.0000000000000000"/>
      <sparseX i="338" alpha="27.785449260838959" sparseCutoff="1.0000000000000000"/>
      <sparseX i="339" alpha="-51.677687886730816" sparseCutoff="1.0000000000000000"/>
      <sparseX i="340" alpha="-14.983094264180133" sparseCutoff="1.0000000000000000"/>
      <sparseX i="341" alpha="-36.425459851525531" sparseCutoff="1.0000000000000000"/>
      <sparseX i="342" alpha="13.071948481154735" sparseCutoff="1.0000000000000000"/>
      <sparseX i="343" alpha="-2.0794430762905618" sparseCutoff="1.0000000000000000"/>
      <sparseX i="344" alpha="-147.81815406266355" sparseCutoff="1.0000000000000000"/>
      <sparseX i="345" alpha="-22.033319405189797" sparseCutoff="1.0000000000000000"/>
      <sparseX i="346" alpha="-2.1257792055844402" sparseCutoff="1.0000000000000000"/>
      <sparseX i="347" alpha="-4.4886338534957924" sparseCutoff="1.0000000000000000"/>
      <sparseX i="348" alpha="27.125547931846917" sparseCutoff="1.0000000000000000"/>
      <sparseX i="349" alpha="39.993887552569028" sparseCutoff="1.0000000000000000"/>
      <sparseX i="350" alpha="29.346323502808637" sparseCutoff="1.0000000000000000"/>
      <sparseX i="351" alpha="21.833822912010675" sparseCutoff="1.0000000000000000"/>
      <sparseX i="352" alpha="107.91879270434376" sparseCutoff="1.0000000000000000"/>
      <sparseX i="353" alpha="-80.095018085994738" sparseCutoff="1.0000000000000000"/>
      <sparseX i="354" alpha="6.2854036854250461" sparseCutoff="1.0000000000000000"/>
      <sparseX i="355" alpha="-64.901323988760396" sparseCutoff="1.0000000000000000"/>
      <sparseX i="356" alpha="83.026088950411960" sparseCutoff="1.0000000000000000"/>
      <sparseX i="357" alpha="-17.996463480687396" sparseCutoff="1.0000000000000000"/>
      <sparseX i="358" alpha="-13.203089322486166" sparseCutoff="1.0000000000000000"/>
      <sparseX i="359" alpha="44.129029534249362" sparseCutoff="1.0000000000000000"/>
      <sparseX i="360" alpha="11.763321865295440" sparseCutoff="1.0000000000000000"/>
      <sparseX i="361" alpha="-.16235024879276472" sparseCutoff="1.0000000000000000"/>
      <sparseX i="362" alpha="-.52154519202840544" sparseCutoff="1.0000000000000000"/>
      <sparseX i="363" alpha="63.197197407002221" sparseCutoff="1.0000000000000000"/>
      <sparseX i="364" alpha="-8.5040020668069634" sparseCutoff="1.0000000000000000"/>
      <sparseX i="365" alpha="-57.602205519478318" sparseCutoff="1.0000000000000000"/>
      <sparseX i="366" alpha="-61.592926985971346" sparseCutoff="1.0000000000000000"/>
      <sparseX i="367" alpha="-3.5871476826857376" sparseCutoff="1.0000000000000000"/>
      <sparseX i="368" alpha=".83819526071068917" sparseCutoff="1.0000000000000000"/>
      <sparseX i="369" alpha="2.4257255520316119" sparseCutoff="1.0000000000000000"/>
      <sparseX i="370" alpha="41.573809425194945" sparseCutoff="1.0000000000000000"/>
      <sparseX i="371" alpha="-35.822036288919428" sparseCutoff="1.0000000000000000"/>
      <sparseX i="372" alpha="-44448.687893969029" sparseCutoff="1.0000000000000000"/>
      <sparseX i="373" alpha="-68.883912497747289" sparseCutoff="1.0000000000000000"/>
      <sparseX i="374" alpha="-9.9706556224520284" sparseCutoff="1.0000000000000000"/>
      <sparseX i="375" alpha="202.63494033926582" sparseCutoff="1.0000000000000000"/>
      <sparseX i="376" alpha="-10.156847321079436" sparseCutoff="1.0000000000000000"/>
      <sparseX i="377" alpha="-5.9881920209961210" sparseCutoff="1.0000000000000000"/>
      <sparseX i="378" alpha="-136.41183004524211" sparseCutoff="1.0000000000000000"/>
      <sparseX i="379" alpha="7.2342519456080678" sparseCutoff="1.0000000000000000"/>
      <sparseX i="380" alpha="-9.7954205697366703" sparseCutoff="1.0000000000000000"/>
      <sparseX i="381" alpha="-98.104341781523232" sparseCutoff="1.0000000000000000"/>
      <sparseX i="382" alpha="21.452825170147850" sparseCutoff="1.0000000000000000"/>
      <sparseX i="383" alpha="-19.566245315774967" sparseCutoff="1.0000000000000000"/>
      <sparseX i="384" alpha="-33.612887280467433" sparseCutoff="1.0000000000000000"/>
      <sparseX i="385" alpha="89.548670459187676" sparseCutoff="1.0000000000000000"/>
      <sparseX i="386" alpha="-7.3488518797279072" sparseCutoff="1.0000000000000000"/>
      <sparseX i="387" alpha="-38.004596699296862" sparseCutoff="1.0000000000000000"/>
      <sparseX i="388" alpha="-59.286490857899665" sparseCutoff="1.0000000000000000"/>
      <sparseX i="389" alpha="-74.637640404399292" sparseCutoff="1.0000000000000000"/>
      <sparseX i="390" alpha="-.53904075471577373" sparseCutoff="1.0000000000000000"/>
      <sparseX i="391" alpha="-30.217081691145985" sparseCutoff="1.0000000000000000"/>
      <sparseX i="392" alpha="-25.957684528460970" sparseCutoff="1.0000000000000000"/>
      <sparseX i="393" alpha="-7.5253428463291634" sparseCutoff="1.0000000000000000"/>
      <sparseX i="394" alpha="25.526002679183957" sparseCutoff="1.0000000000000000"/>
      <sparseX i="395" alpha="99.269506719611570" sparseCutoff="1.0000000000000000"/>
      <sparseX i="396" alpha="55.141684035283397" sparseCutoff="1.0000000000000000"/>
      <sparseX i="397" alpha="-4.1938752894782096" sparseCutoff="1.0000000000000000"/>
      <sparseX i="398" alpha="7.1556405303313744" sparseCutoff="1.0000000000000000"/>
      <sparseX i="399" alpha="-35.175469466474603" sparseCutoff="1.0000000000000000"/>
      <sparseX i="400" alpha="-49.208875022881834" sparseCutoff="1.0000000000000000"/>
      <sparseX i="401" alpha="-10.306467856419195" sparseCutoff="1.0000000000000000"/>
      <sparseX i="402" alpha="51.741025006905090" sparseCutoff="1.0000000000000000"/>
      <sparseX i="403" alpha="54.989045803163371" sparseCutoff="1.0000000000000000"/>
      <sparseX i="404" alpha="-59.569405973783923" sparseCutoff="1.0000000000000000"/>
      <sparseX i="405" alpha="-19.791011541903544" sparseCutoff="1.0000000000000000"/>
      <sparseX i="406" alpha="22.099833476683830" sparseCutoff="1.0000000000000000"/>
      <sparseX i="407" alpha="-13.490248768766980" sparseCutoff="1.0000000000000000"/>
      <sparseX i="408" alpha="-7.2464925307610963" sparseCutoff="1.0000000000000000"/>
      <sparseX i="409" alpha="147.64564879279121" sparseCutoff="1.0000000000000000"/>
      <sparseX i="410" alpha="-9.3728609950593391" sparseCutoff="1.0000000000000000"/>
      <sparseX i="411" alpha="5.1124755272651807" sparseCutoff="1.0000000000000000"/>
      <sparseX i="412" alpha="-11.164584949667008" sparseCutoff="1.0000000000000000"/>
      <sparseX i="413" alpha="-13.287228629543476" sparseCutoff="1.0000000000000000"/>
      <sparseX i="414" alpha="27.564310240370929" sparseCutoff="1.0000000000000000"/>
      <sparseX i="415" alpha="-3.4705099191075122" sparseCutoff="1.0000000000000000"/>
      <sparseX i="416" alpha="1.6187466974369613" sparseCutoff="1.0000000000000000"/>
      <sparseX i="417" alpha="-1.3329908444048297" sparseCutoff="1.0000000000000000"/>
      <sparseX i="418" alpha="2.4984097273847183" sparseCutoff="1.0000000000000000"/>
      <sparseX i="419" alpha="3.4148363120647804" sparseCutoff="1.0000000000000000"/>
      <sparseX i="420" alpha="25.975575707707890" sparseCutoff="1.0000000000000000"/>
      <sparseX i="421" alpha="-41.241900890771944" sparseCutoff="1.0000000000000000"/>
      <sparseX i="422" alpha="-35.127984349501858" sparseCutoff="1.0000000000000000"/>
      <sparseX i="423" alpha="-15.122025245063295" sparseCutoff="1.0000000000000000"/>
      <sparseX i="424" alpha="-47.686277897034067" sparseCutoff="1.0000000000000000"/>
      <sparseX i="425" alpha="-.36212984486075328" sparseCutoff="1.0000000000000000"/>
      <sparseX i="426" alpha="-20.214803474486004" sparseCutoff="1.0000000000000000"/>
      <sparseX i="427" alpha="-14.511426414258358" sparseCutoff="1.0000000000000000"/>
      <sparseX i="428" alpha="8.4120764913148136" sparseCutoff="1.0000000000000000"/>
      <sparseX i="429" alpha="-7.0987832723145647" sparseCutoff="1.0000000000000000"/>
      <sparseX i="430" alpha=".80301459644336737" sparseCutoff="1.0000000000000000"/>
      <sparseX i="431" alpha="21.148662289866994" sparseCutoff="1.0000000000000000"/>
      <sparseX i="432" alpha="49.585743389623886" sparseCutoff="1.0000000000000000"/>
      <sparseX i="433" alpha="-20.732291654724115" sparseCutoff="1.0000000000000000"/>
      <sparseX i="434" alpha="-17.258975807007101" sparseCutoff="1.0000000000000000"/>
      <sparseX i="435" alpha="45.306377290304269" sparseCutoff="1.0000000000000000"/>
      <sparseX i="436" alpha="20.628165148614396" sparseCutoff="1.0000000000000000"/>
      <sparseX i="437" alpha="-113.41621387584928" sparseCutoff="1.0000000000000000"/>
      <sparseX i="438" alpha="-12.290898441274335" sparseCutoff="1.0000000000000000"/>
      <sparseX i="439" alpha="92.586862931976299" sparseCutoff="1.0000000000000000"/>
      <sparseX i="440" alpha="-18.481461565479183" sparseCutoff="1.0000000000000000"/>
      <sparseX i="441" alpha="-6.8308628307020323" sparseCutoff="1.0000000000000000"/>
      <sparseX i="442" alpha="-14.646484407752222" sparseCutoff="1.0000000000000000"/>
      <sparseX i="443" alpha="39.220938595118213" sparseCutoff="1.0000000000000000"/>
      <sparseX i="444" alpha="-29.908046182272507" sparseCutoff="1.0000000000000000"/>
      <sparseX i="445" alpha="-16.660666543437795" sparseCutoff="1.0000000000000000"/>
      <sparseX i="446" alpha="118.21734859181883" sparseCutoff="1.0000000000000000"/>
      <sparseX i="447" alpha="1.0696259442146985" sparseCutoff="1.0000000000000000"/>
      <sparseX i="448" alpha="14.013252128817287" sparseCutoff="1.0000000000000000"/>
      <sparseX i="449" alpha="-41.638315417968229" sparseCutoff="1.0000000000000000"/>
      <sparseX i="450" alpha="-20.544355579079145" sparseCutoff="1.0000000000000000"/>
      <sparseX i="451" alpha="13.677032547873067" sparseCutoff="1.0000000000000000"/>
      <sparseX i="452" alpha="31.942541872128345" sparseCutoff="1.0000000000000000"/>
      <sparseX i="453" alpha="-5.4660910601201387" sparseCutoff="1.0000000000000000"/>
      <sparseX i="454" alpha="-16.496638163176481" sparseCutoff="1.0000000000000000"/>
      <sparseX i="455" alpha="-72.930808592632985" sparseCutoff="1.0000000000000000"/>
      <sparseX i="456" alpha="-7.7414427495531966" sparseCutoff="1.0000000000000000"/>
      <sparseX i="457" alpha="-32.366404544964382" sparseCutoff="1.0000000000000000"/>
      <sparseX i="458" alpha="6.3750579815080854" sparseCutoff="1.0000000000000000"/>
      <sparseX i="459" alpha="-4.2633814634477813" sparseCutoff="1.0000000000000000"/>
      <sparseX i="460" alpha="19.663718801103112" sparseCutoff="1.0000000000000000"/>
      <sparseX i="461" alpha="-1.2893960444479236" sparseCutoff="1.0000000000000000"/>
      <sparseX i="462" alpha="8.4047210347826589" sparseCutoff="1.0000000000000000"/>
      <sparseX i="463" alpha="57.226429402517134" sparseCutoff="1.0000000000000000"/>
      <sparseX i="464" alpha="-57.588103380566515" sparseCutoff="1.0000000000000000"/>
      <sparseX i="465" alpha="-5.8109463230049325" sparseCutoff="1.0000000000000000"/>
      <sparseX i="466" alpha="-121.71152617492146" sparseCutoff="1.0000000000000000"/>
      <sparseX i="467" alpha="38.687844621397879" sparseCutoff="1.0000000000000000"/>
      <sparseX i="468" alpha="20.880082078058596" sparseCutoff="1.0000000000000000"/>
      <sparseX i="469" alpha=".53476116873136970" sparseCutoff="1.0000000000000000"/>
      <sparseX i="470" alpha=".60581130176258036" sparseCutoff="1.0000000000000000"/>
      <sparseX i="471" alpha="35180.512135499892" sparseCutoff="1.0000000000000000"/>
      <sparseX i="472" alpha="38.844583665457357" sparseCutoff="1.0000000000000000"/>
      <sparseX i="473" alpha="-14.556199395110328" sparseCutoff="1.0000000000000000"/>
      <sparseX i="474" alpha="-50.215893652031525" sparseCutoff="1.0000000000000000"/>
      <sparseX i="475" alpha="6.3057151976639272" sparseCutoff="1.0000000000000000"/>
      <sparseX i="476" alpha="-57.840486220246653" sparseCutoff="1.0000000000000000"/>
      <sparseX i="477" alpha="38.061848521871056" sparseCutoff="1.0000000000000000"/>
      <sparseX i="478" alpha="-11.768570939061568" sparseCutoff="1.0000000000000000"/>
      <sparseX i="479" alpha="4.7237897770392836" sparseCutoff="1.0000000000000000"/>
      <sparseX i="480" alpha="-40.435074245641239" sparseCutoff="1.0000000000000000"/>
      <sparseX i="481" alpha="45.456053697761227" sparseCutoff="1.0000000000000000"/>
      <sparseX i="482" alpha=".46673676727387852E-002" sparseCutoff="1.0000000000000000"/>
      <sparseX i="483" alpha="-5.9184391260986127" sparseCutoff="1.0000000000000000"/>
      <sparseX i="484" alpha="-2.9807640462452563" sparseCutoff="1.0000000000000000"/>
      <sparseX i="485" alpha="-4.9435636839005186" sparseCutoff="1.0000000000000000"/>
      <sparseX i="486" alpha="33.423472907147648" sparseCutoff="1.0000000000000000"/>
      <sparseX i="487" alpha="-11.903440264991998" sparseCutoff="1.0000000000000000"/>
      <sparseX i="488" alpha="-14.448581515588584" sparseCutoff="1.0000000000000000"/>
      <sparseX i="489" alpha="2.8111384092599634" sparseCutoff="1.0000000000000000"/>
      <sparseX i="490" alpha="-68.175084352125012" sparseCutoff="1.0000000000000000"/>
      <sparseX i="491" alpha="10.150761453391512" sparseCutoff="1.0000000000000000"/>
      <sparseX i="492" alpha="-2.5978590106484778" sparseCutoff="1.0000000000000000"/>
      <sparseX i="493" alpha="-1.6289077937048406" sparseCutoff="1.0000000000000000"/>
      <sparseX i="494" alpha="-21.338706172336341" sparseCutoff="1.0000000000000000"/>
      <sparseX i="495" alpha="7.0950225165595855" sparseCutoff="1.0000000000000000"/>
      <sparseX i="496" alpha="1.8667616423580480" sparseCutoff="1.0000000000000000"/>
      <sparseX i="497" alpha="90.432749648743169" sparseCutoff="1.0000000000000000"/>
      <sparseX i="498" alpha="10.045970996704330" sparseCutoff="1.0000000000000000"/>
      <sparseX i="499" alpha="3.1833396547326989" sparseCutoff="1.0000000000000000"/>
      <sparseX i="500" alpha="-6.3494959512200708" sparseCutoff="1.0000000000000000"/>
      <sparseX i="501" alpha="-43.590820162270354" sparseCutoff="1.0000000000000000"/>
      <sparseX i="502" alpha="-199.20390878106440" sparseCutoff="1.0000000000000000"/>
      <sparseX i="503" alpha="-13.005376730655323" sparseCutoff="1.0000000000000000"/>
      <sparseX i="504" alpha="6.4566822357279818" sparseCutoff="1.0000000000000000"/>
      <sparseX i="505" alpha="-2.8848718885657600" sparseCutoff="1.0000000000000000"/>
      <sparseX i="506" alpha="18.873130964623169" sparseCutoff="1.0000000000000000"/>
      <sparseX i="507" alpha="-6.3742984620884346" sparseCutoff="1.0000000000000000"/>
      <sparseX i="508" alpha="-.44370456063447666E-001" sparseCutoff="1.0000000000000000"/>
      <sparseX i="509" alpha="-57.707680250457678" sparseCutoff="1.0000000000000000"/>
      <sparseX i="510" alpha="-34.079184845418112" sparseCutoff="1.0000000000000000"/>
      <sparseX i="511" alpha="-93.523353815084974" sparseCutoff="1.0000000000000000"/>
      <sparseX i="512" alpha="-8.6875720349929431" sparseCutoff="1.0000000000000000"/>
      <sparseX i="513" alpha="-.62341680025824797" sparseCutoff="1.0000000000000000"/>
      <sparseX i="514" alpha="11.302354617545314" sparseCutoff="1.0000000000000000"/>
      <sparseX i="515" alpha="-429.61459472792455" sparseCutoff="1.0000000000000000"/>
      <sparseX i="516" alpha="-33.001652845907664" sparseCutoff="1.0000000000000000"/>
      <sparseX i="517" alpha="-11.365362525667301" sparseCutoff="1.0000000000000000"/>
      <sparseX i="518" alpha="14.873018687434561" sparseCutoff="1.0000000000000000"/>
      <sparseX i="519" alpha="16.384469753669727" sparseCutoff="1.0000000000000000"/>
      <sparseX i="520" alpha="3263.2267892131363" sparseCutoff="1.0000000000000000"/>
      <sparseX i="521" alpha="-9.3116795167964579" sparseCutoff="1.0000000000000000"/>
      <sparseX i="522" alpha="34.070568620649894" sparseCutoff="1.0000000000000000"/>
      <sparseX i="523" alpha="-14.338615512697764" sparseCutoff="1.0000000000000000"/>
      <sparseX i="524" alpha="-211.68298151604174" sparseCutoff="1.0000000000000000"/>
      <sparseX i="525" alpha="-11.857639061593003" sparseCutoff="1.0000000000000000"/>
      <sparseX i="526" alpha="76.511068862281903" sparseCutoff="1.0000000000000000"/>
      <sparseX i="527" alpha="8.7659590207684914" sparseCutoff="1.0000000000000000"/>
      <sparseX i="528" alpha="-1.9305153256227550" sparseCutoff="1.0000000000000000"/>
      <sparseX i="529" alpha="5.1812228434350800" sparseCutoff="1.0000000000000000"/>
      <sparseX i="530" alpha="-15.089738627033363" sparseCutoff="1.0000000000000000"/>
      <sparseX i="531" alpha="-3.4196856709957744" sparseCutoff="1.0000000000000000"/>
      <sparseX i="532" alpha="-7.3645734345118461" sparseCutoff="1.0000000000000000"/>
      <sparseX i="533" alpha="-1.9032308521225196" sparseCutoff="1.0000000000000000"/>
      <sparseX i="534" alpha="6.4804019285316512" sparseCutoff="1.0000000000000000"/>
      <sparseX i="535" alpha="74.788511944653436" sparseCutoff="1.0000000000000000"/>
      <sparseX i="536" alpha="-4.9616953328625035" sparseCutoff="1.0000000000000000"/>
      <sparseX i="537" alpha="30.564420661329599" sparseCutoff="1.0000000000000000"/>
      <sparseX i="538" alpha="-27.368603902837510" sparseCutoff="1.0000000000000000"/>
      <sparseX i="539" alpha="-4.6607376662193580" sparseCutoff="1.0000000000000000"/>
      <sparseX i="540" alpha="5.6504155411018155" sparseCutoff="1.0000000000000000"/>
      <sparseX i="541" alpha="-34.870461576322739" sparseCutoff="1.0000000000000000"/>
      <sparseX i="542" alpha="23.227446632355488" sparseCutoff="1.0000000000000000"/>
      <sparseX i="543" alpha="-2.9414366782456862" sparseCutoff="1.0000000000000000"/>
      <sparseX i="544" alpha="43.167242473969665" sparseCutoff="1.0000000000000000"/>
      <sparseX i="545" alpha="-42.591653316030602" sparseCutoff="1.0000000000000000"/>
      <sparseX i="546" alpha="-16.778083055982538" sparseCutoff="1.0000000000000000"/>
      <sparseX i="547" alpha="-54.083580894433950" sparseCutoff="1.0000000000000000"/>
      <sparseX i="548" alpha="-16.118450692275733" sparseCutoff="1.0000000000000000"/>
      <sparseX i="549" alpha="101.83596355580933" sparseCutoff="1.0000000000000000"/>
      <sparseX i="550" alpha="136.57812620770437" sparseCutoff="1.0000000000000000"/>
      <sparseX i="551" alpha="123.54336814000754" sparseCutoff="1.0000000000000000"/>
      <sparseX i="552" alpha="-9.4042839128241891" sparseCutoff="1.0000000000000000"/>
      <sparseX i="553" alpha="-11.163304381756632" sparseCutoff="1.0000000000000000"/>
      <sparseX i="554" alpha="34.580502417338558" sparseCutoff="1.0000000000000000"/>
      <sparseX i="555" alpha="4.2513124471907435" sparseCutoff="1.0000000000000000"/>
      <sparseX i="556" alpha="-45.695171861571943" sparseCutoff="1.0000000000000000"/>
      <sparseX i="557" alpha="-68.217206893483862" sparseCutoff="1.0000000000000000"/>
      <sparseX i="558" alpha="-1.7805954035404223" sparseCutoff="1.0000000000000000"/>
      <sparseX i="559" alpha="-23.158031625475530" sparseCutoff="1.0000000000000000"/>
      <sparseX i="560" alpha="4.3489633420398350" sparseCutoff="1.0000000000000000"/>
      <sparseX i="561" alpha="2.1463832757120955" sparseCutoff="1.0000000000000000"/>
      <sparseX i="562" alpha="-31.063173266727219" sparseCutoff="1.0000000000000000"/>
      <sparseX i="563" alpha="-22.542315851021474" sparseCutoff="1.0000000000000000"/>
      <sparseX i="564" alpha="8.5469875284093533" sparseCutoff="1.0000000000000000"/>
      <sparseX i="565" alpha="2.9693035853475327" sparseCutoff="1.0000000000000000"/>
      <sparseX i="566" alpha="-2.4623589371960901" sparseCutoff="1.0000000000000000"/>
      <sparseX i="567" alpha="36.087385999666687" sparseCutoff="1.0000000000000000"/>
      <sparseX i="568" alpha="-3.3745362331985818" sparseCutoff="1.0000000000000000"/>
      <sparseX i="569" alpha="4.3105344896612445" sparseCutoff="1.0000000000000000"/>
      <sparseX i="570" alpha="29.342181631516706" sparseCutoff="1.0000000000000000"/>
      <sparseX i="571" alpha="-21.049065380705962" sparseCutoff="1.0000000000000000"/>
      <sparseX i="572" alpha="-2.8887251018046975" sparseCutoff="1.0000000000000000"/>
      <sparseX i="573" alpha="-5.0209006619438910" sparseCutoff="1.0000000000000000"/>
      <sparseX i="574" alpha="-31.700213661543270" sparseCutoff="1.0000000000000000"/>
      <sparseX i="575" alpha="-2.3586406009156309" sparseCutoff="1.0000000000000000"/>
      <sparseX i="576" alpha="-4.2499390040735241" sparseCutoff="1.0000000000000000"/>
      <sparseX i="577" alpha="8.7371148058699823" sparseCutoff="1.0000000000000000"/>
      <sparseX i="578" alpha="51.603302815614633" sparseCutoff="1.0000000000000000"/>
      <sparseX i="579" alpha="-.81387736228372043" sparseCutoff="1.0000000000000000"/>
      <sparseX i="580" alpha="43.790526041217440" sparseCutoff="1.0000000000000000"/>
      <sparseX i="581" alpha="80.235886751673547" sparseCutoff="1.0000000000000000"/>
      <sparseX i="582" alpha="-6.6536611474583776" sparseCutoff="1.0000000000000000"/>
      <sparseX i="583" alpha="50.250197267252439" sparseCutoff="1.0000000000000000"/>
      <sparseX i="584" alpha="39.908777272284951" sparseCutoff="1.0000000000000000"/>
      <sparseX i="585" alpha="585.65919417321561" sparseCutoff="1.0000000000000000"/>
      <sparseX i="586" alpha="-14.232955139100550" sparseCutoff="1.0000000000000000"/>
      <sparseX i="587" alpha="12.442932046320276" sparseCutoff="1.0000000000000000"/>
      <sparseX i="588" alpha="5.5007685865033382" sparseCutoff="1.0000000000000000"/>
      <sparseX i="589" alpha="-10.125720624162927" sparseCutoff="1.0000000000000000"/>
      <sparseX i="590" alpha="15.443430178937096" sparseCutoff="1.0000000000000000"/>
      <sparseX i="591" alpha="8.6529203430017532" sparseCutoff="1.0000000000000000"/>
      <sparseX i="592" alpha="-5.9654530901930425" sparseCutoff="1.0000000000000000"/>
      <sparseX i="593" alpha="13.255180446468245" sparseCutoff="1.0000000000000000"/>
      <sparseX i="594" alpha="-28.671614530959172" sparseCutoff="1.0000000000000000"/>
      <sparseX i="595" alpha="4.8479345280283317" sparseCutoff="1.0000000000000000"/>
      <sparseX i="596" alpha="2486.7736251872643" sparseCutoff="1.0000000000000000"/>
      <sparseX i="597" alpha="-19.310885510837796" sparseCutoff="1.0000000000000000"/>
      <sparseX i="598" alpha="-40.373945868716085" sparseCutoff="1.0000000000000000"/>
      <sparseX i="599" alpha="18.117452385101654" sparseCutoff="1.0000000000000000"/>
      <sparseX i="600" alpha="27.013880804923009" sparseCutoff="1.0000000000000000"/>
      <sparseX i="601" alpha="17.436514474968401" sparseCutoff="1.0000000000000000"/>
      <sparseX i="602" alpha="25.810434497678369" sparseCutoff="1.0000000000000000"/>
      <sparseX i="603" alpha="106.96923903271804" sparseCutoff="1.0000000000000000"/>
      <sparseX i="604" alpha="13.695292398616425" sparseCutoff="1.0000000000000000"/>
      <sparseX i="605" alpha="-1.7409116706007879" sparseCutoff="1.0000000000000000"/>
      <sparseX i="606" alpha="-28.200415645386165" sparseCutoff="1.0000000000000000"/>
      <sparseX i="607" alpha="-476.57541672984115" sparseCutoff="1.0000000000000000"/>
      <sparseX i="608" alpha="-71.154431732275100" sparseCutoff="1.0000000000000000"/>
      <sparseX i="609" alpha="18.201409474719959" sparseCutoff="1.0000000000000000"/>
      <sparseX i="610" alpha="31.146273905541747" sparseCutoff="1.0000000000000000"/>
      <sparseX i="611" alpha="3.7076552197893404" sparseCutoff="1.0000000000000000"/>
      <sparseX i="612" alpha="-21.311434399767446" sparseCutoff="1.0000000000000000"/>
      <sparseX i="613" alpha="10.298993207065866" sparseCutoff="1.0000000000000000"/>
      <sparseX i="614" alpha="10.508396005382211" sparseCutoff="1.0000000000000000"/>
      <sparseX i="615" alpha="38.573657216930329" sparseCutoff="1.0000000000000000"/>
      <sparseX i="616" alpha="-10.908524790722025" sparseCutoff="1.0000000000000000"/>
      <sparseX i="617" alpha="2.3650139698193660" sparseCutoff="1.0000000000000000"/>
      <sparseX i="618" alpha="-20.141024138012998" sparseCutoff="1.0000000000000000"/>
      <sparseX i="619" alpha="6.6690090600052088" sparseCutoff="1.0000000000000000"/>
      <sparseX i="620" alpha="-15.165954096866257" sparseCutoff="1.0000000000000000"/>
      <sparseX i="621" alpha="-7.2690439591166207" sparseCutoff="1.0000000000000000"/>
      <sparseX i="622" alpha="-19.062477131147681" sparseCutoff="1.0000000000000000"/>
      <sparseX i="623" alpha="-21.532333954623503" sparseCutoff="1.0000000000000000"/>
      <sparseX i="624" alpha="-117.70088862433164" sparseCutoff="1.0000000000000000"/>
      <sparseX i="625" alpha="-13.198884242903613" sparseCutoff="1.0000000000000000"/>
      <sparseX i="626" alpha="-35.743686738830220" sparseCutoff="1.0000000000000000"/>
      <sparseX i="627" alpha="-85.697096290977399" sparseCutoff="1.0000000000000000"/>
      <sparseX i="628" alpha="14.946292343260296" sparseCutoff="1.0000000000000000"/>
      <sparseX i="629" alpha="-10.993882709647860" sparseCutoff="1.0000000000000000"/>
      <sparseX i="630" alpha="6.8054844932856291" sparseCutoff="1.0000000000000000"/>
      <sparseX i="631" alpha="31.787147858104170" sparseCutoff="1.0000000000000000"/>
      <sparseX i="632" alpha="-2.9985236448680235" sparseCutoff="1.0000000000000000"/>
      <sparseX i="633" alpha="5.8922040744002890" sparseCutoff="1.0000000000000000"/>
      <sparseX i="634" alpha="43.413704848779389" sparseCutoff="1.0000000000000000"/>
      <sparseX i="635" alpha="4.6955595997750734" sparseCutoff="1.0000000000000000"/>
      <sparseX i="636" alpha="48.674655588750923" sparseCutoff="1.0000000000000000"/>
      <sparseX i="637" alpha="-4.1554522044611160" sparseCutoff="1.0000000000000000"/>
      <sparseX i="638" alpha="-105.23349177000959" sparseCutoff="1.0000000000000000"/>
      <sparseX i="639" alpha="29.709074353411520" sparseCutoff="1.0000000000000000"/>
      <sparseX i="640" alpha="-8.5974116657703377" sparseCutoff="1.0000000000000000"/>
      <sparseX i="641" alpha="-32.557297270406423" sparseCutoff="1.0000000000000000"/>
      <sparseX i="642" alpha="-9.6340338811537070" sparseCutoff="1.0000000000000000"/>
      <sparseX i="643" alpha="13.154535553953824" sparseCutoff="1.0000000000000000"/>
      <sparseX i="644" alpha="-54.166208185557508" sparseCutoff="1.0000000000000000"/>
      <sparseX i="645" alpha="-2498.1281293045868" sparseCutoff="1.0000000000000000"/>
      <sparseX i="646" alpha="70.120787934896185" sparseCutoff="1.0000000000000000"/>
      <sparseX i="647" alpha="-31.792332843273378" sparseCutoff="1.0000000000000000"/>
      <sparseX i="648" alpha="11.785508031811691" sparseCutoff="1.0000000000000000"/>
      <sparseX i="649" alpha="12.887252841524838" sparseCutoff="1.0000000000000000"/>
      <sparseX i="650" alpha="6.1986338148368407" sparseCutoff="1.0000000000000000"/>
      <sparseX i="651" alpha="-7.7831915401325338" sparseCutoff="1.0000000000000000"/>
      <sparseX i="652" alpha="-2.7759754157475358" sparseCutoff="1.0000000000000000"/>
      <sparseX i="653" alpha="-11.153356169766244" sparseCutoff="1.0000000000000000"/>
      <sparseX i="654" alpha="-47.953261668180083" sparseCutoff="1.0000000000000000"/>
      <sparseX i="655" alpha="2327.9881624987629" sparseCutoff="1.0000000000000000"/>
      <sparseX i="656" alpha="25.476850515547802" sparseCutoff="1.0000000000000000"/>
      <sparseX i="657" alpha="-76.829414356162971" sparseCutoff="1.0000000000000000"/>
      <sparseX i="658" alpha="-152.62615560092797" sparseCutoff="1.0000000000000000"/>
      <sparseX i="659" alpha="70.885722865801142" sparseCutoff="1.0000000000000000"/>
      <sparseX i="660" alpha="-2.6958179153062276" sparseCutoff="1.0000000000000000"/>
      <sparseX i="661" alpha="18.937892673030337" sparseCutoff="1.0000000000000000"/>
      <sparseX i="662" alpha="74.188674648520930" sparseCutoff="1.0000000000000000"/>
      <sparseX i="663" alpha="-26.291621941336199" sparseCutoff="1.0000000000000000"/>
      <sparseX i="664" alpha="21.866050454726913" sparseCutoff="1.0000000000000000"/>
      <sparseX i="665" alpha="4.1372395201819572" sparseCutoff="1.0000000000000000"/>
      <sparseX i="666" alpha="19.646018922947452" sparseCutoff="1.0000000000000000"/>
      <sparseX i="667" alpha="-4.5478813495305257" sparseCutoff="1.0000000000000000"/>
      <sparseX i="668" alpha="23.767006456991052" sparseCutoff="1.0000000000000000"/>
      <sparseX i="669" alpha="-1.8589881564431854" sparseCutoff="1.0000000000000000"/>
      <sparseX i="670" alpha="11.439562024993650" sparseCutoff="1.0000000000000000"/>
      <sparseX i="671" alpha="12.041026727901468" sparseCutoff="1.0000000000000000"/>
      <sparseX i="672" alpha="-22.477580130582371" sparseCutoff="1.0000000000000000"/>
      <sparseX i="673" alpha="4.3314762229045654" sparseCutoff="1.0000000000000000"/>
      <sparseX i="674" alpha="-83.209545398379817" sparseCutoff="1.0000000000000000"/>
      <sparseX i="675" alpha="2.1648752607472601" sparseCutoff="1.0000000000000000"/>
      <sparseX i="676" alpha="23.116088414459661" sparseCutoff="1.0000000000000000"/>
      <sparseX i="677" alpha="30.843893525949021" sparseCutoff="1.0000000000000000"/>
      <sparseX i="678" alpha="-3.2419000095094597" sparseCutoff="1.0000000000000000"/>
      <sparseX i="679" alpha="-45.926944515262591" sparseCutoff="1.0000000000000000"/>
      <sparseX i="680" alpha="86.177856923595584" sparseCutoff="1.0000000000000000"/>
      <sparseX i="681" alpha=".16374276112351818" sparseCutoff="1.0000000000000000"/>
      <sparseX i="682" alpha="-48.942538684340114" sparseCutoff="1.0000000000000000"/>
      <sparseX i="683" alpha="6.4823732633712883" sparseCutoff="1.0000000000000000"/>
      <sparseX i="684" alpha="-2.2476515020994952" sparseCutoff="1.0000000000000000"/>
      <sparseX i="685" alpha="-42.861925280284176" sparseCutoff="1.0000000000000000"/>
      <sparseX i="686" alpha="16.259981543661571" sparseCutoff="1.0000000000000000"/>
      <sparseX i="687" alpha="-23.436324162919991" sparseCutoff="1.0000000000000000"/>
      <sparseX i="688" alpha="17.506639087220616" sparseCutoff="1.0000000000000000"/>
      <sparseX i="689" alpha="-13.657859863641983" sparseCutoff="1.0000000000000000"/>
      <sparseX i="690" alpha="-79.850804883455965" sparseCutoff="1.0000000000000000"/>
      <sparseX i="691" alpha="4.8308676713583338" sparseCutoff="1.0000000000000000"/>
      <sparseX i="692" alpha="95.682528001886624" sparseCutoff="1.0000000000000000"/>
      <sparseX i="693" alpha="19.833767811048560" sparseCutoff="1.0000000000000000"/>
      <sparseX i="694" alpha="49.722370846888943" sparseCutoff="1.0000000000000000"/>
      <sparseX i="695" alpha="-20.205096344234811" sparseCutoff="1.0000000000000000"/>
      <sparseX i="696" alpha="28.651597272532580" sparseCutoff="1.0000000000000000"/>
      <sparseX i="697" alpha="4.9563730755105686" sparseCutoff="1.0000000000000000"/>
      <sparseX i="698" alpha="-139.14163876341905" sparseCutoff="1.0000000000000000"/>
      <sparseX i="699" alpha="24.966933125733128" sparseCutoff="1.0000000000000000"/>
      <sparseX i="700" alpha="30.744131129668311" sparseCutoff="1.0000000000000000"/>
      <sparseX i="701" alpha="-8.7072025594594926" sparseCutoff="1.0000000000000000"/>
      <sparseX i="702" alpha="6.5508997543929999" sparseCutoff="1.0000000000000000"/>
      <sparseX i="703" alpha="11.342299978277000" sparseCutoff="1.0000000000000000"/>
      <sparseX i="704" alpha="4.5304412390703686" sparseCutoff="1.0000000000000000"/>
      <sparseX i="705" alpha="-32.977104520945574" sparseCutoff="1.0000000000000000"/>
      <sparseX i="706" alpha="34.425811464659638" sparseCutoff="1.0000000000000000"/>
      <sparseX i="707" alpha="-216.67366323246168" sparseCutoff="1.0000000000000000"/>
      <sparseX i="708" alpha="33.431337201616472" sparseCutoff="1.0000000000000000"/>
      <sparseX i="709" alpha="1.0458100714080143" sparseCutoff="1.0000000000000000"/>
      <sparseX i="710" alpha="7.2301579398997058" sparseCutoff="1.0000000000000000"/>
      <sparseX i="711" alpha="-169.97065893049816" sparseCutoff="1.0000000000000000"/>
      <sparseX i="712" alpha="-2.7738351935200649" sparseCutoff="1.0000000000000000"/>
      <sparseX i="713" alpha="44.462333150382157" sparseCutoff="1.0000000000000000"/>
      <sparseX i="714" alpha="8.1892141679782569" sparseCutoff="1.0000000000000000"/>
      <sparseX i="715" alpha="-19047.688551290397" sparseCutoff="1.0000000000000000"/>
      <sparseX i="716" alpha="-37.282364900983417" sparseCutoff="1.0000000000000000"/>
      <sparseX i="717" alpha="11.457624597365758" sparseCutoff="1.0000000000000000"/>
      <sparseX i="718" alpha="-19.389438700661202" sparseCutoff="1.0000000000000000"/>
      <sparseX i="719" alpha="-77.474295320323918" sparseCutoff="1.0000000000000000"/>
      <sparseX i="720" alpha="-35.594789225782378" sparseCutoff="1.0000000000000000"/>
      <sparseX i="721" alpha="102.38173903483411" sparseCutoff="1.0000000000000000"/>
      <sparseX i="722" alpha="-35.363664387882913" sparseCutoff="1.0000000000000000"/>
      <sparseX i="723" alpha="-51696.459796286785" sparseCutoff="1.0000000000000000"/>
      <sparseX i="724" alpha="-9.9137663609574638" sparseCutoff="1.0000000000000000"/>
      <sparseX i="725" alpha="2.3350021952660205" sparseCutoff="1.0000000000000000"/>
      <sparseX i="726" alpha="-12.868021261834276" sparseCutoff="1.0000000000000000"/>
      <sparseX i="727" alpha="174.46627214205469" sparseCutoff="1.0000000000000000"/>
      <sparseX i="728" alpha="26.364504699149649" sparseCutoff="1.0000000000000000"/>
      <sparseX i="729" alpha="-2.4990218627232847" sparseCutoff="1.0000000000000000"/>
      <sparseX i="730" alpha="6.5204309400084783" sparseCutoff="1.0000000000000000"/>
      <sparseX i="731" alpha="-6.9314599761312419" sparseCutoff="1.0000000000000000"/>
      <sparseX i="732" alpha="159.53898396186324" sparseCutoff="1.0000000000000000"/>
      <sparseX i="733" alpha="10.788278046823940" sparseCutoff="1.0000000000000000"/>
      <sparseX i="734" alpha="9.5058301487600385" sparseCutoff="1.0000000000000000"/>
      <sparseX i="735" alpha="64.978592749312341" sparseCutoff="1.0000000000000000"/>
      <sparseX i="736" alpha=".49048655609057580E-002" sparseCutoff="1.0000000000000000"/>
      <sparseX i="737" alpha="5.1669152436478560" sparseCutoff="1.0000000000000000"/>
      <sparseX i="738" alpha="31.648409739135769" sparseCutoff="1.0000000000000000"/>
      <sparseX i="739" alpha="-51.137220949616776" sparseCutoff="1.0000000000000000"/>
      <sparseX i="740" alpha="-34.455239931479042" sparseCutoff="1.0000000000000000"/>
      <sparseX i="741" alpha="3.0479620391500721" sparseCutoff="1.0000000000000000"/>
      <sparseX i="742" alpha="67.001200589743220" sparseCutoff="1.0000000000000000"/>
      <sparseX i="743" alpha="-12.506246185315261" sparseCutoff="1.0000000000000000"/>
      <sparseX i="744" alpha="-9.1248637553727381" sparseCutoff="1.0000000000000000"/>
      <sparseX i="745" alpha="54.650666806037897" sparseCutoff="1.0000000000000000"/>
      <sparseX i="746" alpha="-9.4021604485709052" sparseCutoff="1.0000000000000000"/>
      <sparseX i="747" alpha="11.318875541762822" sparseCutoff="1.0000000000000000"/>
      <sparseX i="748" alpha="-40.846468979988281" sparseCutoff="1.0000000000000000"/>
      <sparseX i="749" alpha="-34.067809147672179" sparseCutoff="1.0000000000000000"/>
      <sparseX i="750" alpha="79.815489264120984" sparseCutoff="1.0000000000000000"/>
      <sparseX i="751" alpha="-19.110541416418897" sparseCutoff="1.0000000000000000"/>
      <sparseX i="752" alpha="-42.438815829150599" sparseCutoff="1.0000000000000000"/>
      <sparseX i="753" alpha="12.159361892705816" sparseCutoff="1.0000000000000000"/>
      <sparseX i="754" alpha="62.061438870963734" sparseCutoff="1.0000000000000000"/>
      <sparseX i="755" alpha="-16.261760154164307" sparseCutoff="1.0000000000000000"/>
      <sparseX i="756" alpha="79.965685840584726" sparseCutoff="1.0000000000000000"/>
      <sparseX i="757" alpha="-31.581885036667249" sparseCutoff="1.0000000000000000"/>
      <sparseX i="758" alpha="-6.6421515638903079" sparseCutoff="1.0000000000000000"/>
      <sparseX i="759" alpha="22.493345020297021" sparseCutoff="1.0000000000000000"/>
      <sparseX i="760" alpha="-19.007798212342262" sparseCutoff="1.0000000000000000"/>
      <sparseX i="761" alpha="-14.859983741185331" sparseCutoff="1.0000000000000000"/>
      <sparseX i="762" alpha="315.42718106303113" sparseCutoff="1.0000000000000000"/>
      <sparseX i="763" alpha="6.3719571246151787" sparseCutoff="1.0000000000000000"/>
      <sparseX i="764" alpha="38.891983001382215" sparseCutoff="1.0000000000000000"/>
      <sparseX i="765" alpha="21.504262569712232" sparseCutoff="1.0000000000000000"/>
      <sparseX i="766" alpha="11.681686280722008" sparseCutoff="1.0000000000000000"/>
      <sparseX i="767" alpha="-19.433994623334709" sparseCutoff="1.0000000000000000"/>
      <sparseX i="768" alpha="-23.639098011835205" sparseCutoff="1.0000000000000000"/>
      <sparseX i="769" alpha="-18.859615941752626" sparseCutoff="1.0000000000000000"/>
      <sparseX i="770" alpha="-81.635096297148877" sparseCutoff="1.0000000000000000"/>
      <sparseX i="771" alpha="-44.053831413549688" sparseCutoff="1.0000000000000000"/>
      <sparseX i="772" alpha="-29.379576611262760" sparseCutoff="1.0000000000000000"/>
      <sparseX i="773" alpha="-84.412592242624967" sparseCutoff="1.0000000000000000"/>
      <sparseX i="774" alpha="-19.460613178110137" sparseCutoff="1.0000000000000000"/>
      <sparseX i="775" alpha="20.733990410765070" sparseCutoff="1.0000000000000000"/>
      <sparseX i="776" alpha="-55.668283367328833" sparseCutoff="1.0000000000000000"/>
      <sparseX i="777" alpha="41.270891056864151" sparseCutoff="1.0000000000000000"/>
      <sparseX i="778" alpha="-86.458036054484253" sparseCutoff="1.0000000000000000"/>
      <sparseX i="779" alpha=".19521174735673469" sparseCutoff="1.0000000000000000"/>
      <sparseX i="780" alpha="-5.5529054353513549" sparseCutoff="1.0000000000000000"/>
      <sparseX i="781" alpha="-18.280804691457593" sparseCutoff="1.0000000000000000"/>
      <sparseX i="782" alpha="25.743814580841679" sparseCutoff="1.0000000000000000"/>
      <sparseX i="783" alpha="28.397266657199282" sparseCutoff="1.0000000000000000"/>
      <sparseX i="784" alpha="-37.029401318808269" sparseCutoff="1.0000000000000000"/>
      <sparseX i="785" alpha="21.643403144684445" sparseCutoff="1.0000000000000000"/>
      <sparseX i="786" alpha="-.78190626797457741" sparseCutoff="1.0000000000000000"/>
      <sparseX i="787" alpha="69.563282831919395" sparseCutoff="1.0000000000000000"/>
      <sparseX i="788" alpha="81.862351680945778" sparseCutoff="1.0000000000000000"/>
      <sparseX i="789" alpha="5.8732886212216702" sparseCutoff="1.0000000000000000"/>
      <sparseX i="790" alpha="-32.552757207068147" sparseCutoff="1.0000000000000000"/>
      <sparseX i="791" alpha="42.278123822042950" sparseCutoff="1.0000000000000000"/>
      <sparseX i="792" alpha="14.723870489136013" sparseCutoff="1.0000000000000000"/>
      <sparseX i="793" alpha="-3.7535618236186337" sparseCutoff="1.0000000000000000"/>
      <sparseX i="794" alpha="37.320428972510975" sparseCutoff="1.0000000000000000"/>
      <sparseX i="795" alpha="-52.126996338886698" sparseCutoff="1.0000000000000000"/>
      <sparseX i="796" alpha="33.251827350403062" sparseCutoff="1.0000000000000000"/>
      <sparseX i="797" alpha="-7415.1106050444268" sparseCutoff="1.0000000000000000"/>
      <sparseX i="798" alpha="155.15007353654391" sparseCutoff="1.0000000000000000"/>
      <sparseX i="799" alpha="8.1400104337282855" sparseCutoff="1.0000000000000000"/>
      <sparseX i="800" alpha="-14.050031498785708" sparseCutoff="1.0000000000000000"/>
      <sparseX i="801" alpha="-31.095214982571594" sparseCutoff="1.0000000000000000"/>
      <sparseX i="802" alpha="14.338791251405382" sparseCutoff="1.0000000000000000"/>
      <sparseX i="803" alpha="38.291236436685523" sparseCutoff="1.0000000000000000"/>
      <sparseX i="804" alpha="7.6842733157004277" sparseCutoff="1.0000000000000000"/>
      <sparseX i="805" alpha="4.9773672600968402" sparseCutoff="1.0000000000000000"/>
      <sparseX i="806" alpha="21.477567749260512" sparseCutoff="1.0000000000000000"/>
      <sparseX i="807" alpha="86.616921798794280" sparseCutoff="1.0000000000000000"/>
      <sparseX i="808" alpha="-15.958058012126061" sparseCutoff="1.0000000000000000"/>
      <sparseX i="809" alpha="-48.778517335862887" sparseCutoff="1.0000000000000000"/>
      <sparseX i="810" alpha="-11.654937663435145" sparseCutoff="1.0000000000000000"/>
      <sparseX i="811" alpha="49.668360050228507" sparseCutoff="1.0000000000000000"/>
      <sparseX i="812" alpha="-6.2169793395340314" sparseCutoff="1.0000000000000000"/>
      <sparseX i="813" alpha="-41.194564012587840" sparseCutoff="1.0000000000000000"/>
      <sparseX i="814" alpha="-26.176784759954707" sparseCutoff="1.0000000000000000"/>
      <sparseX i="815" alpha="57.266572546481719" sparseCutoff="1.0000000000000000"/>
      <sparseX i="816" alpha="135.50187244273747" sparseCutoff="1.0000000000000000"/>
      <sparseX i="817" alpha="-3.6154347146418488" sparseCutoff="1.0000000000000000"/>
      <sparseX i="818" alpha="-22.504665062357549" sparseCutoff="1.0000000000000000"/>
      <sparseX i="819" alpha="-3.4710225132455852" sparseCutoff="1.0000000000000000"/>
      <sparseX i="820" alpha="9.7454492916178523" sparseCutoff="1.0000000000000000"/>
      <sparseX i="821" alpha=".33285911144558672" sparseCutoff="1.0000000000000000"/>
      <sparseX i="822" alpha="15.722948286458665" sparseCutoff="1.0000000000000000"/>
      <sparseX i="823" alpha="-3.2899734859972756" sparseCutoff="1.0000000000000000"/>
      <sparseX i="824" alpha="-28.666788592626840" sparseCutoff="1.0000000000000000"/>
      <sparseX i="825" alpha="1.8016454875623018" sparseCutoff="1.0000000000000000"/>
      <sparseX i="826" alpha="-.13174116603701183" sparseCutoff="1.0000000000000000"/>
      <sparseX i="827" alpha="-19.555779169348945" sparseCutoff="1.0000000000000000"/>
      <sparseX i="828" alpha="-11.574820092634804" sparseCutoff="1.0000000000000000"/>
      <sparseX i="829" alpha="41.244491698653910" sparseCutoff="1.0000000000000000"/>
      <sparseX i="830" alpha="-19.437397072883439" sparseCutoff="1.0000000000000000"/>
      <sparseX i="831" alpha="-43.929212538997056" sparseCutoff="1.0000000000000000"/>
      <sparseX i="832" alpha="-186.54214975470188" sparseCutoff="1.0000000000000000"/>
      <sparseX i="833" alpha="3.3613542579621765" sparseCutoff="1.0000000000000000"/>
      <sparseX i="834" alpha="39.186425190246169" sparseCutoff="1.0000000000000000"/>
      <sparseX i="835" alpha="-27.598544043388003" sparseCutoff="1.0000000000000000"/>
      <sparseX i="836" alpha="2.1686918286303780" sparseCutoff="1.0000000000000000"/>
      <sparseX i="837" alpha="-2.5018927015567947" sparseCutoff="1.0000000000000000"/>
      <sparseX i="838" alpha="54251.222888734599" sparseCutoff="1.0000000000000000"/>
      <sparseX i="839" alpha="33.222220666264214" sparseCutoff="1.0000000000000000"/>
      <sparseX i="840" alpha="-3.9280811558744526" sparseCutoff="1.0000000000000000"/>
      <sparseX i="841" alpha="-9.5563143105947344" sparseCutoff="1.0000000000000000"/>
      <sparseX i="842" alpha="-17.406544487002236" sparseCutoff="1.0000000000000000"/>
      <sparseX i="843" alpha="-4.3272458943175272" sparseCutoff="1.0000000000000000"/>
      <sparseX i="844" alpha="55.901568795882582" sparseCutoff="1.0000000000000000"/>
      <sparseX i="845" alpha="18.173550063630984" sparseCutoff="1.0000000000000000"/>
      <sparseX i="846" alpha="116.07974273740898" sparseCutoff="1.0000000000000000"/>
      <sparseX i="847" alpha="-72.809620190367767" sparseCutoff="1.0000000000000000"/>
      <sparseX i="848" alpha="43715.777707160327" sparseCutoff="1.0000000000000000"/>
      <sparseX i="849" alpha="11.865163720637645" sparseCutoff="1.0000000000000000"/>
      <sparseX i="850" alpha="6.8091372127781167" sparseCutoff="1.0000000000000000"/>
      <sparseX i="851" alpha="9.4631676319885383" sparseCutoff="1.0000000000000000"/>
      <sparseX i="852" alpha="58.573872082270142" sparseCutoff="1.0000000000000000"/>
      <sparseX i="853" alpha="-62.607840477451234" sparseCutoff="1.0000000000000000"/>
      <sparseX i="854" alpha="46.655578524641889" sparseCutoff="1.0000000000000000"/>
      <sparseX i="855" alpha="-110.98414969810662" sparseCutoff="1.0000000000000000"/>
      <sparseX i="856" alpha="-41.042123563352732" sparseCutoff="1.0000000000000000"/>
      <sparseX i="857" alpha="-57.845860326874416" sparseCutoff="1.0000000000000000"/>
      <sparseX i="858" alpha="12.958830776427822" sparseCutoff="1.0000000000000000"/>
      <sparseX i="859" alpha="-6.2552038136067800" sparseCutoff="1.0000000000000000"/>
      <sparseX i="860" alpha="24.596028484729544" sparseCutoff="1.0000000000000000"/>
      <sparseX i="861" alpha="-51.143047852417190" sparseCutoff="1.0000000000000000"/>
      <sparseX i="862" alpha="-7.6917429288389103" sparseCutoff="1.0000000000000000"/>
      <sparseX i="863" alpha="6.2082194226257048" sparseCutoff="1.0000000000000000"/>
      <sparseX i="864" alpha="3.9339618032933594" sparseCutoff="1.0000000000000000"/>
      <sparseX i="865" alpha="55.791733985079247" sparseCutoff="1.0000000000000000"/>
      <sparseX i="866" alpha="-15.341550874802008" sparseCutoff="1.0000000000000000"/>
      <sparseX i="867" alpha="-30.161442552063075" sparseCutoff="1.0000000000000000"/>
      <sparseX i="868" alpha="2.7685336595955747" sparseCutoff="1.0000000000000000"/>
      <sparseX i="869" alpha="8.7014865956610876" sparseCutoff="1.0000000000000000"/>
      <sparseX i="870" alpha="10.493820486546241" sparseCutoff="1.0000000000000000"/>
      <sparseX i="871" alpha="6.1634846968307579" sparseCutoff="1.0000000000000000"/>
      <sparseX i="872" alpha="-18.514611301036545" sparseCutoff="1.0000000000000000"/>
      <sparseX i="873" alpha="-68.601004422445470" sparseCutoff="1.0000000000000000"/>
      <sparseX i="874" alpha="51.069465048413754" sparseCutoff="1.0000000000000000"/>
      <sparseX i="875" alpha=".12460611396875110" sparseCutoff="1.0000000000000000"/>
      <sparseX i="876" alpha="-13.379814071494549" sparseCutoff="1.0000000000000000"/>
      <sparseX i="877" alpha="9.0726923927415672" sparseCutoff="1.0000000000000000"/>
      <sparseX i="878" alpha="-42.364368291214632" sparseCutoff="1.0000000000000000"/>
      <sparseX i="879" alpha="-31.370441862358071" sparseCutoff="1.0000000000000000"/>
      <sparseX i="880" alpha="-32.008214335640460" sparseCutoff="1.0000000000000000"/>
      <sparseX i="881" alpha="22.176141731696035" sparseCutoff="1.0000000000000000"/>
      <sparseX i="882" alpha="41.324860238649102" sparseCutoff="1.0000000000000000"/>
      <sparseX i="883" alpha="-1.1404505301726453" sparseCutoff="1.0000000000000000"/>
      <sparseX i="884" alpha="-41.624512646067515" sparseCutoff="1.0000000000000000"/>
      <sparseX i="885" alpha="4.7370009994696280" sparseCutoff="1.0000000000000000"/>
      <sparseX i="886" alpha="-16.203983681417476" sparseCutoff="1.0000000000000000"/>
      <sparseX i="887" alpha="7.2265068749701697" sparseCutoff="1.0000000000000000"/>
      <sparseX i="888" alpha="-1.7534347250010245" sparseCutoff="1.0000000000000000"/>
      <sparseX i="889" alpha="46.370439825197380" sparseCutoff="1.0000000000000000"/>
      <sparseX i="890" alpha="23.929277635953270" sparseCutoff="1.0000000000000000"/>
      <sparseX i="891" alpha="53.111559193930404" sparseCutoff="1.0000000000000000"/>
      <sparseX i="892" alpha="63.591941726889715" sparseCutoff="1.0000000000000000"/>
      <sparseX i="893" alpha="-19.905945224798113" sparseCutoff="1.0000000000000000"/>
      <sparseX i="894" alpha="-53.429023687321489" sparseCutoff="1.0000000000000000"/>
      <sparseX i="895" alpha="15.039159654027786" sparseCutoff="1.0000000000000000"/>
      <sparseX i="896" alpha="-44.533146319877467" sparseCutoff="1.0000000000000000"/>
      <sparseX i="897" alpha="1.9257187988940645" sparseCutoff="1.0000000000000000"/>
      <sparseX i="898" alpha="10.475963297819865" sparseCutoff="1.0000000000000000"/>
      <sparseX i="899" alpha="13716.844369165437" sparseCutoff="1.0000000000000000"/>
      <sparseX i="900" alpha="-1034.4243950567868" sparseCutoff="1.0000000000000000"/>
      <sparseX i="901" alpha="-56.562282129863654" sparseCutoff="1.0000000000000000"/>
      <sparseX i="902" alpha="23.769588100120480" sparseCutoff="1.0000000000000000"/>
      <sparseX i="903" alpha="-15.617620411295109" sparseCutoff="1.0000000000000000"/>
      <sparseX i="904" alpha="5.5516957457068612" sparseCutoff="1.0000000000000000"/>
      <sparseX i="905" alpha="-7.1071416092358897" sparseCutoff="1.0000000000000000"/>
      <sparseX i="906" alpha="34.971962731747965" sparseCutoff="1.0000000000000000"/>
      <sparseX i="907" alpha="41.884653007532577" sparseCutoff="1.0000000000000000"/>
      <sparseX i="908" alpha="76.384259834699861" sparseCutoff="1.0000000000000000"/>
      <sparseX i="909" alpha="29.858276835672410" sparseCutoff="1.0000000000000000"/>
      <sparseX i="910" alpha="-35.852447417110085" sparseCutoff="1.0000000000000000"/>
      <sparseX i="911" alpha="18.365618364917260" sparseCutoff="1.0000000000000000"/>
      <sparseX i="912" alpha="20.952566869326368" sparseCutoff="1.0000000000000000"/>
      <sparseX i="913" alpha="5.0797682503615125" sparseCutoff="1.0000000000000000"/>
      <sparseX i="914" alpha="15.732851710628855" sparseCutoff="1.0000000000000000"/>
      <sparseX i="915" alpha="-14.051179114526343" sparseCutoff="1.0000000000000000"/>
      <sparseX i="916" alpha="-94.756583369447014" sparseCutoff="1.0000000000000000"/>
      <sparseX i="917" alpha="38.937376532141805" sparseCutoff="1.0000000000000000"/>
      <sparseX i="918" alpha="-8.9277966583764723" sparseCutoff="1.0000000000000000"/>
      <sparseX i="919" alpha="103.24370650691475" sparseCutoff="1.0000000000000000"/>
      <sparseX i="920" alpha="8.3216954984112022" sparseCutoff="1.0000000000000000"/>
      <sparseX i="921" alpha="-9.6319581781542727" sparseCutoff="1.0000000000000000"/>
      <sparseX i="922" alpha="-15.870202833409687" sparseCutoff="1.0000000000000000"/>
      <sparseX i="923" alpha="12.853027728213030" sparseCutoff="1.0000000000000000"/>
      <sparseX i="924" alpha="-22.419345005367159" sparseCutoff="1.0000000000000000"/>
      <sparseX i="925" alpha="-24.173660233931994" sparseCutoff="1.0000000000000000"/>
      <sparseX i="926" alpha="2.1166785487954609" sparseCutoff="1.0000000000000000"/>
      <sparseX i="927" alpha="17.281733749036242" sparseCutoff="1.0000000000000000"/>
      <sparseX i="928" alpha="-4.1951467432918115" sparseCutoff="1.0000000000000000"/>
      <sparseX i="929" alpha="-1.1712972454617565" sparseCutoff="1.0000000000000000"/>
      <sparseX i="930" alpha="4.8717382426797595" sparseCutoff="1.0000000000000000"/>
      <sparseX i="931" alpha="23.136216992303172" sparseCutoff="1.0000000000000000"/>
      <sparseX i="932" alpha="-2.8937411251810907" sparseCutoff="1.0000000000000000"/>
      <sparseX i="933" alpha="82.397573798063860" sparseCutoff="1.0000000000000000"/>
      <sparseX i="934" alpha="-44872.360181765092" sparseCutoff="1.0000000000000000"/>
      <sparseX i="935" alpha="9961.5448936210614" sparseCutoff="1.0000000000000000"/>
      <sparseX i="936" alpha=".18690174698624520" sparseCutoff="1.0000000000000000"/>
      <sparseX i="937" alpha="-22.342920867017220" sparseCutoff="1.0000000000000000"/>
      <sparseX i="938" alpha="-27.066877396056313" sparseCutoff="1.0000000000000000"/>
      <sparseX i="939" alpha="91.871590081379807" sparseCutoff="1.0000000000000000"/>
      <sparseX i="940" alpha="-2.4444350177486664" sparseCutoff="1.0000000000000000"/>
      <sparseX i="941" alpha="-7.5422577377273239" sparseCutoff="1.0000000000000000"/>
      <sparseX i="942" alpha="1.3230115236710658" sparseCutoff="1.0000000000000000"/>
      <sparseX i="943" alpha="2.6404756199719981" sparseCutoff="1.0000000000000000"/>
      <sparseX i="944" alpha="-33.739285250526535" sparseCutoff="1.0000000000000000"/>
      <sparseX i="945" alpha="-8.3706255206185780" sparseCutoff="1.0000000000000000"/>
      <sparseX i="946" alpha="3.9589636313448651" sparseCutoff="1.0000000000000000"/>
      <sparseX i="947" alpha="-36.218478807285052" sparseCutoff="1.0000000000000000"/>
      <sparseX i="948" alpha="-1.5893274601272049" sparseCutoff="1.0000000000000000"/>
      <sparseX i="949" alpha="3.8874651174704069" sparseCutoff="1.0000000000000000"/>
      <sparseX i="950" alpha="-27.987454786444395" sparseCutoff="1.0000000000000000"/>
      <sparseX i="951" alpha="12.065820035936724" sparseCutoff="1.0000000000000000"/>
      <sparseX i="952" alpha="25.595874068582493" sparseCutoff="1.0000000000000000"/>
      <sparseX i="953" alpha="-2.7602966581401143" sparseCutoff="1.0000000000000000"/>
      <sparseX i="954" alpha="16.505783630569614" sparseCutoff="1.0000000000000000"/>
      <sparseX i="955" alpha="-31.013817806259894" sparseCutoff="1.0000000000000000"/>
      <sparseX i="956" alpha="-172.37047926145456" sparseCutoff="1.0000000000000000"/>
      <sparseX i="957" alpha="-34.043363872110298" sparseCutoff="1.0000000000000000"/>
      <sparseX i="958" alpha="-39.223120628021697" sparseCutoff="1.0000000000000000"/>
      <sparseX i="959" alpha="-22.057888824475633" sparseCutoff="1.0000000000000000"/>
      <sparseX i="960" alpha="-126.76066269489003" sparseCutoff="1.0000000000000000"/>
      <sparseX i="961" alpha="86.770101204730508" sparseCutoff="1.0000000000000000"/>
      <sparseX i="962" alpha="-31.785191577910236" sparseCutoff="1.0000000000000000"/>
      <sparseX i="963" alpha="23.265743331832173" sparseCutoff="1.0000000000000000"/>
      <sparseX i="964" alpha="-14.476895401118307" sparseCutoff="1.0000000000000000"/>
      <sparseX i="965" alpha="9.1627899810842273" sparseCutoff="1.0000000000000000"/>
      <sparseX i="966" alpha="-12.638508947385152" sparseCutoff="1.0000000000000000"/>
      <sparseX i="967" alpha="11.166517761732974" sparseCutoff="1.0000000000000000"/>
      <sparseX i="968" alpha="-8.1017772693899435" sparseCutoff="1.0000000000000000"/>
      <sparseX i="969" alpha="-10.757516839953547" sparseCutoff="1.0000000000000000"/>
      <sparseX i="970" alpha="-30.113535883542749" sparseCutoff="1.0000000000000000"/>
      <sparseX i="971" alpha="76.671888653811465" sparseCutoff="1.0000000000000000"/>
      <sparseX i="972" alpha="-12.867577240560509" sparseCutoff="1.0000000000000000"/>
      <sparseX i="973" alpha="-17.427429104230093" sparseCutoff="1.0000000000000000"/>
      <sparseX i="974" alpha="-9.6210729613633799" sparseCutoff="1.0000000000000000"/>
      <sparseX i="975" alpha="2.2701657274528184" sparseCutoff="1.0000000000000000"/>
      <sparseX i="976" alpha="162.89212892046461" sparseCutoff="1.0000000000000000"/>
      <sparseX i="977" alpha="-142.65753108133555" sparseCutoff="1.0000000000000000"/>
      <sparseX i="978" alpha="-4.1817739153039284" sparseCutoff="1.0000000000000000"/>
      <sparseX i="979" alpha="59.763669366480478" sparseCutoff="1.0000000000000000"/>
      <sparseX i="980" alpha="122.89729971144286" sparseCutoff="1.0000000000000000"/>
      <sparseX i="981" alpha="-25.994940324147727" sparseCutoff="1.0000000000000000"/>
      <sparseX i="982" alpha="-51.753246532811524" sparseCutoff="1.0000000000000000"/>
      <sparseX i="983" alpha="97.206042485448151" sparseCutoff="1.0000000000000000"/>
      <sparseX i="984" alpha="-58.248434064066359" sparseCutoff="1.0000000000000000"/>
      <sparseX i="985" alpha="-10.837015594009641" sparseCutoff="1.0000000000000000"/>
      <sparseX i="986" alpha="25.744564430775579" sparseCutoff="1.0000000000000000"/>
      <sparseX i="987" alpha="-46.269565910959983" sparseCutoff="1.0000000000000000"/>
      <sparseX i="988" alpha="-12.789997065216628" sparseCutoff="1.0000000000000000"/>
      <sparseX i="989" alpha="-15.134526115195094" sparseCutoff="1.0000000000000000"/>
      <sparseX i="990" alpha="-6146.6080200487941" sparseCutoff="1.0000000000000000"/>
      <sparseX i="991" alpha="-45.311224224132971" sparseCutoff="1.0000000000000000"/>
      <sparseX i="992" alpha="21.048209405531452" sparseCutoff="1.0000000000000000"/>
      <sparseX i="993" alpha="-88.720216117294754" sparseCutoff="1.0000000000000000"/>
      <sparseX i="994" alpha="77.440155560584842" sparseCutoff="1.0000000000000000"/>
      <sparseX i="995" alpha="92.288382716437184" sparseCutoff="1.0000000000000000"/>
      <sparseX i="996" alpha="-28850.480356899887" sparseCutoff="1.0000000000000000"/>
      <sparseX i="997" alpha="-59.900434866638491" sparseCutoff="1.0000000000000000"/>
      <sparseX i="998" alpha="36.354123013666033" sparseCutoff="1.0000000000000000"/>
      <sparseX i="999" alpha="-37.909953226050781" sparseCutoff="1.0000000000000000"/>
      <sparseX i="1000" alpha="12.743507784622921" sparseCutoff="1.0000000000000000"/>
      <sparseX i="1001" alpha="-3.6361070698589462" sparseCutoff="1.0000000000000000"/>
      <sparseX i="1002" alpha="-132.36540269673520" sparseCutoff="1.0000000000000000"/>
      <sparseX i="1003" alpha="54.105857588372047" sparseCutoff="1.0000000000000000"/>
      <sparseX i="1004" alpha="-9.6610973592783527" sparseCutoff="1.0000000000000000"/>
      <sparseX i="1005" alpha="55.592940588682730" sparseCutoff="1.0000000000000000"/>
      <sparseX i="1006" alpha="8.1326281260133442" sparseCutoff="1.0000000000000000"/>
      <sparseX i="1007" alpha="-89.698281481899556" sparseCutoff="1.0000000000000000"/>
      <sparseX i="1008" alpha="77.712407629310235" sparseCutoff="1.0000000000000000"/>
      <sparseX i="1009" alpha="-48.623964965410522" sparseCutoff="1.0000000000000000"/>
      <sparseX i="1010" alpha="7.7962592938498929" sparseCutoff="1.0000000000000000"/>
      <sparseX i="1011" alpha="-23.208125975923785" sparseCutoff="1.0000000000000000"/>
      <sparseX i="1012" alpha="-.17010531753053781" sparseCutoff="1.0000000000000000"/>
      <sparseX i="1013" alpha="33.252351326589519" sparseCutoff="1.0000000000000000"/>
      <sparseX i="1014" alpha="-30.386241920503878" sparseCutoff="1.0000000000000000"/>
      <sparseX i="1015" alpha="27.495616404521034" sparseCutoff="1.0000000000000000"/>
      <sparseX i="1016" alpha="73.380994682343598" sparseCutoff="1.0000000000000000"/>
      <sparseX i="1017" alpha="-26.671066934394222" sparseCutoff="1.0000000000000000"/>
      <sparseX i="1018" alpha="-31.726796002493305" sparseCutoff="1.0000000000000000"/>
      <sparseX i="1019" alpha="8147.8544381921056" sparseCutoff="1.0000000000000000"/>
      <sparseX i="1020" alpha="-35.071565646663515" sparseCutoff="1.0000000000000000"/>
      <sparseX i="1021" alpha="45.590288873223784" sparseCutoff="1.0000000000000000"/>
      <sparseX i="1022" alpha="-22.971249582229689" sparseCutoff="1.0000000000000000"/>
      <sparseX i="1023" alpha="23.799239249093631" sparseCutoff="1.0000000000000000"/>
      <sparseX i="1024" alpha="5.8154759752209699" sparseCutoff="1.0000000000000000"/>
      <sparseX i="1025" alpha="-59.456826863506258" sparseCutoff="1.0000000000000000"/>
      <sparseX i="1026" alpha="9.9648335019873109" sparseCutoff="1.0000000000000000"/>
      <sparseX i="1027" alpha="13.916457714304068" sparseCutoff="1.0000000000000000"/>
      <sparseX i="1028" alpha="-22.446489383897227" sparseCutoff="1.0000000000000000"/>
      <sparseX i="1029" alpha="-4.6881683349762522" sparseCutoff="1.0000000000000000"/>
      <sparseX i="1030" alpha="4.7592200442122987" sparseCutoff="1.0000000000000000"/>
      <sparseX i="1031" alpha="-27.180545428008898" sparseCutoff="1.0000000000000000"/>
      <sparseX i="1032" alpha="-5.5434353361193436" sparseCutoff="1.0000000000000000"/>
      <sparseX i="1033" alpha="-87.773512059858248" sparseCutoff="1.0000000000000000"/>
      <sparseX i="1034" alpha="-141.95466677129463" sparseCutoff="1.0000000000000000"/>
      <sparseX i="1035" alpha="24.214381945405179" sparseCutoff="1.0000000000000000"/>
      <sparseX i="1036" alpha="23.454799735268395" sparseCutoff="1.0000000000000000"/>
      <sparseX i="1037" alpha="22.107884667090993" sparseCutoff="1.0000000000000000"/>
      <sparseX i="1038" alpha="19.086240663831422" sparseCutoff="1.0000000000000000"/>
      <sparseX i="1039" alpha="-.80527382963320027" sparseCutoff="1.0000000000000000"/>
      <sparseX i="1040" alpha="23.027983004218800" sparseCutoff="1.0000000000000000"/>
      <sparseX i="1041" alpha="-25.649241862829935" sparseCutoff="1.0000000000000000"/>
      <sparseX i="1042" alpha="-41.791871161770523" sparseCutoff="1.0000000000000000"/>
      <sparseX i="1043" alpha="-41.829809826094326" sparseCutoff="1.0000000000000000"/>
      <sparseX i="1044" alpha="49.955495553927271" sparseCutoff="1.0000000000000000"/>
      <sparseX i="1045" alpha=".38808713732717520" sparseCutoff="1.0000000000000000"/>
      <sparseX i="1046" alpha="-12.695761343908863" sparseCutoff="1.0000000000000000"/>
      <sparseX i="1047" alpha="-33.731477882646345" sparseCutoff="1.0000000000000000"/>
      <sparseX i="1048" alpha="116.85070381021970" sparseCutoff="1.0000000000000000"/>
      <sparseX i="1049" alpha="51.287296219544004" sparseCutoff="1.0000000000000000"/>
      <sparseX i="1050" alpha="-36.587337989634385" sparseCutoff="1.0000000000000000"/>
      <sparseX i="1051" alpha="-15.479975464732970" sparseCutoff="1.0000000000000000"/>
      <sparseX i="1052" alpha="-45.332221881986051" sparseCutoff="1.0000000000000000"/>
      <sparseX i="1053" alpha="-53.492864510862347" sparseCutoff="1.0000000000000000"/>
      <sparseX i="1054" alpha="-36.425049450515878" sparseCutoff="1.0000000000000000"/>
      <sparseX i="1055" alpha="18.005239848996752" sparseCutoff="1.0000000000000000"/>
      <sparseX i="1056" alpha="15.889938214832517" sparseCutoff="1.0000000000000000"/>
      <sparseX i="1057" alpha="-71.353203880594478" sparseCutoff="1.0000000000000000"/>
      <sparseX i="1058" alpha="-81.303731794047607" sparseCutoff="1.0000000000000000"/>
      <sparseX i="1059" alpha="9.2981207165689543" sparseCutoff="1.0000000000000000"/>
      <sparseX i="1060" alpha="-12239.080395918783" sparseCutoff="1.0000000000000000"/>
      <sparseX i="1061" alpha="14.503080759775818" sparseCutoff="1.0000000000000000"/>
      <sparseX i="1062" alpha="6.4486737942519072" sparseCutoff="1.0000000000000000"/>
      <sparseX i="1063" alpha="20.495594205707768" sparseCutoff="1.0000000000000000"/>
      <sparseX i="1064" alpha="-38.190109208017084" sparseCutoff="1.0000000000000000"/>
      <sparseX i="1065" alpha="19.082009125858725" sparseCutoff="1.0000000000000000"/>
      <sparseX i="1066" alpha="-2.4926284359655644" sparseCutoff="1.0000000000000000"/>
      <sparseX i="1067" alpha="6.2722969387851011" sparseCutoff="1.0000000000000000"/>
      <sparseX i="1068" alpha="13.529903874300583" sparseCutoff="1.0000000000000000"/>
      <sparseX i="1069" alpha="392.26890607666934" sparseCutoff="1.0000000000000000"/>
      <sparseX i="1070" alpha="-7.5868200989525763" sparseCutoff="1.0000000000000000"/>
      <sparseX i="1071" alpha="4.8577871742649190" sparseCutoff="1.0000000000000000"/>
      <sparseX i="1072" alpha="-86.955078073252210" sparseCutoff="1.0000000000000000"/>
      <sparseX i="1073" alpha="25.447668130654009" sparseCutoff="1.0000000000000000"/>
      <sparseX i="1074" alpha="4.5574301322662976" sparseCutoff="1.0000000000000000"/>
      <sparseX i="1075" alpha="46.020194583453055" sparseCutoff="1.0000000000000000"/>
      <sparseX i="1076" alpha="-5.7436200505115025" sparseCutoff="1.0000000000000000"/>
      <sparseX i="1077" alpha="3.3039509468007595" sparseCutoff="1.0000000000000000"/>
      <sparseX i="1078" alpha="95.879820903748595" sparseCutoff="1.0000000000000000"/>
      <sparseX i="1079" alpha="-29.094268038921054" sparseCutoff="1.0000000000000000"/>
      <sparseX i="1080" alpha="-9.4522931707364748" sparseCutoff="1.0000000000000000"/>
      <sparseX i="1081" alpha="12.402984984544824" sparseCutoff="1.0000000000000000"/>
