<GAP_2023_11_27_120_22_26_19_547>
<Potential label="GAP_2023_11_27_120_22_26_19_547" init_args="Sum init_args_pot1={IP Glue} init_args_pot2={IP GAP label=GAP_2023_11_27_120_22_26_19_547}"/>
<pairpot>
<Potential label="pairpot" init_args="IP Glue"/>
<Glue_params n_types="2">
 <per_type_data atomic_num="6" type="1">
  <!-- C, Z: 6, many-body data ==> zero energy for pair potential! -->
  <density num_points="10" density_y1="0.0" density_yn="0.0">
   <point a="0.5" rho="0.2"/>
   <point a="1.0" rho="0.2"/>
   <point a="1.5" rho="0.2"/>
   <point a="2.0" rho="0.2"/>
   <point a="2.5" rho="0.2"/>
   <point a="3.0" rho="0.2"/>
   <point a="3.5" rho="0.2"/>
   <point a="4.0" rho="0.2"/>
   <point a="4.5" rho="0.2"/>
   <point a="5.0" rho="0.2"/>
  </density>
  <potential_density num_points="10">
   <point rho="0.05" E="0.0"/>
   <point rho="0.1111111111111111" E="0.0"/>
   <point rho="0.2222222222222222" E="0.0"/>
   <point rho="0.3333333333333333" E="0.0"/>
   <point rho="0.4444444444444444" E="0.0"/>
   <point rho="0.5555555555555556" E="0.0"/>
   <point rho="0.6666666666666666" E="0.0"/>
   <point rho="0.7777777777777777" E="0.0"/>
   <point rho="0.8888888888888888" E="0.0"/>
   <point rho="1.45" E="0.0"/>
  </potential_density>
 </per_type_data>
 <per_type_data atomic_num="1" type="2">
 <!-- H, Z: 1, many-body data ==> zero energy for pair potential! -->
  <density num_points="10" density_y1="0.0" density_yn="0.0">
   <point a="0.5" rho="0.2"/>
   <point a="1.0" rho="0.2"/>
   <point a="1.5" rho="0.2"/>
   <point a="2.0" rho="0.2"/>
   <point a="2.5" rho="0.2"/>
   <point a="3.0" rho="0.2"/>
   <point a="3.5" rho="0.2"/>
   <point a="4.0" rho="0.2"/>
   <point a="4.5" rho="0.2"/>
   <point a="5.0" rho="0.2"/>
  </density>
  <potential_density num_points="10">
   <point rho="0.0" E="0.0"/>
   <point rho="0.1111111111111111" E="0.0"/>
   <point rho="0.2222222222222222" E="0.0"/>
   <point rho="0.3333333333333333" E="0.0"/>
   <point rho="0.4444444444444444" E="0.0"/>
   <point rho="0.5555555555555556" E="0.0"/>
   <point rho="0.6666666666666666" E="0.0"/>
   <point rho="0.7777777777777777" E="0.0"/>
   <point rho="0.8888888888888888" E="0.0"/>
   <point rho="1.0" E="0.0"/>
  </potential_density>
 </per_type_data>
 <per_pair_data type1="1" type2="1">
  <!-- C-C, Z: 6-6 pair potential -->
  <potential_pair num_points="20" y1="1.e50" yn="0.0">
   <point r="0.0500000000000000" E="4097.5273797199997716"/>
   <point r="0.1000000000000000" E="1802.0416522600000917"/>
   <point r="0.1500000000000000" E="1047.6126364199999443"/>
   <point r="0.2000000000000000" E="681.3707098200000019"/>
   <point r="0.2500000000000000" E="471.5381923200000074"/>
   <point r="0.3000000000000000" E="339.5867137999999841"/>
   <point r="0.3500000000000000" E="251.2275732600000140"/>
   <point r="0.4000000000000000" E="189.3839592699999912"/>
   <point r="0.4500000000000000" E="144.6652514900000028"/>
   <point r="0.5000000000000000" E="111.2889775600000064"/>
   <point r="0.5500000000000000" E="85.3296315200000066"/>
   <point r="0.6000000000000000" E="64.2335172800000009"/>
   <point r="0.6500000000000000" E="46.8073881199999988"/>
   <point r="0.7000000000000000" E="32.6309588599999998"/>
   <point r="0.7500000000000000" E="21.4372415600000004"/>
   <point r="0.8000000000000000" E="12.8230688599999993"/>
   <point r="0.8500000000000000" E="6.2793650599999999"/>
   <point r="0.9000000000000000" E="1.3882432099999999"/>
   <point r="0.9500000000000000" E="0.0000000000000000"/>
   <point r="1.0000000000000000" E="0.0000000000000000"/>
  </potential_pair>
 </per_pair_data>
 <per_pair_data type1="1" type2="2">
  <!-- C-H, Z: 6-1 pair potential -->
  <potential_pair num_points="15" y1="1.e50" yn="0.0">
   <point r="0.0500000000000000" E="1052.2585962699999982"/>
   <point r="0.1000000000000000" E="475.4464298099999837"/>
   <point r="0.1500000000000000" E="282.1414125499999841"/>
   <point r="0.2000000000000000" E="184.7480703100000028"/>
   <point r="0.2500000000000000" E="126.2436170499999974"/>
   <point r="0.3000000000000000" E="87.7791358099999997"/>
   <point r="0.3500000000000000" E="61.2807841600000032"/>
   <point r="0.4000000000000000" E="42.5951627299999984"/>
   <point r="0.4500000000000000" E="29.2490216600000004"/>
   <point r="0.5000000000000000" E="19.6228390700000013"/>
   <point r="0.5500000000000000" E="12.6151876900000008"/>
   <point r="0.6000000000000000" E="7.4734250400000004"/>
   <point r="0.6500000000000000" E="3.6821937800000000"/>
   <point r="0.7000000000000000" E="0.0000000000000000"/>
   <point r="0.7500000000000000" E="0.0000000000000000"/>
  </potential_pair>
 </per_pair_data>
 <per_pair_data type1="2" type2="2">
  <!-- H-H, Z: 1-1 pair potential -->
  <potential_pair num_points="9" y1="1.e50" yn="0.0">
   <point r="0.0500000000000000" E="238.9493954499999973"/>
   <point r="0.1000000000000000" E="95.7360375500000060"/>
   <point r="0.1500000000000000" E="48.9823011100000016"/>
   <point r="0.2000000000000000" E="26.6019543300000016"/>
   <point r="0.2500000000000000" E="14.0858091000000005"/>
   <point r="0.3000000000000000" E="6.5175642099999997"/>
   <point r="0.3500000000000000" E="1.7351753500000000"/>
   <point r="0.4000000000000000" E="0.0000000000000000"/>
   <point r="0.4500000000000000" E="0.0000000000000000"/>
  </potential_pair>
 </per_pair_data>
</Glue_params>
</pairpot>
<GAP_params label="GAP_2023_11_27_120_22_26_19_547" gap_version="1686220958">
  <GAP_data do_core="T">
    <e0 Z="1" value="-.56534000000000001E-001"/>
    <e0 Z="2" value=".00000000000000000E+000"/>
    <e0 Z="3" value=".00000000000000000E+000"/>
    <e0 Z="4" value=".00000000000000000E+000"/>
    <e0 Z="5" value=".00000000000000000E+000"/>
    <e0 Z="6" value="-.16138474000000000"/>
    <e0 Z="7" value=".00000000000000000E+000"/>
    <e0 Z="8" value=".00000000000000000E+000"/>
    <e0 Z="9" value=".00000000000000000E+000"/>
    <e0 Z="10" value=".00000000000000000E+000"/>
    <e0 Z="11" value=".00000000000000000E+000"/>
    <e0 Z="12" value=".00000000000000000E+000"/>
    <e0 Z="13" value=".00000000000000000E+000"/>
    <e0 Z="14" value=".00000000000000000E+000"/>
    <e0 Z="15" value=".00000000000000000E+000"/>
    <e0 Z="16" value=".00000000000000000E+000"/>
    <e0 Z="17" value=".00000000000000000E+000"/>
    <e0 Z="18" value=".00000000000000000E+000"/>
    <e0 Z="19" value=".00000000000000000E+000"/>
    <e0 Z="20" value=".00000000000000000E+000"/>
    <e0 Z="21" value=".00000000000000000E+000"/>
    <e0 Z="22" value=".00000000000000000E+000"/>
    <e0 Z="23" value=".00000000000000000E+000"/>
    <e0 Z="24" value=".00000000000000000E+000"/>
    <e0 Z="25" value=".00000000000000000E+000"/>
    <e0 Z="26" value=".00000000000000000E+000"/>
    <e0 Z="27" value=".00000000000000000E+000"/>
    <e0 Z="28" value=".00000000000000000E+000"/>
    <e0 Z="29" value=".00000000000000000E+000"/>
    <e0 Z="30" value=".00000000000000000E+000"/>
    <e0 Z="31" value=".00000000000000000E+000"/>
    <e0 Z="32" value=".00000000000000000E+000"/>
    <e0 Z="33" value=".00000000000000000E+000"/>
    <e0 Z="34" value=".00000000000000000E+000"/>
    <e0 Z="35" value=".00000000000000000E+000"/>
    <e0 Z="36" value=".00000000000000000E+000"/>
    <e0 Z="37" value=".00000000000000000E+000"/>
    <e0 Z="38" value=".00000000000000000E+000"/>
    <e0 Z="39" value=".00000000000000000E+000"/>
    <e0 Z="40" value=".00000000000000000E+000"/>
    <e0 Z="41" value=".00000000000000000E+000"/>
    <e0 Z="42" value=".00000000000000000E+000"/>
    <e0 Z="43" value=".00000000000000000E+000"/>
    <e0 Z="44" value=".00000000000000000E+000"/>
    <e0 Z="45" value=".00000000000000000E+000"/>
    <e0 Z="46" value=".00000000000000000E+000"/>
    <e0 Z="47" value=".00000000000000000E+000"/>
    <e0 Z="48" value=".00000000000000000E+000"/>
    <e0 Z="49" value=".00000000000000000E+000"/>
    <e0 Z="50" value=".00000000000000000E+000"/>
    <e0 Z="51" value=".00000000000000000E+000"/>
    <e0 Z="52" value=".00000000000000000E+000"/>
    <e0 Z="53" value=".00000000000000000E+000"/>
    <e0 Z="54" value=".00000000000000000E+000"/>
    <e0 Z="55" value=".00000000000000000E+000"/>
    <e0 Z="56" value=".00000000000000000E+000"/>
    <e0 Z="57" value=".00000000000000000E+000"/>
    <e0 Z="58" value=".00000000000000000E+000"/>
    <e0 Z="59" value=".00000000000000000E+000"/>
    <e0 Z="60" value=".00000000000000000E+000"/>
    <e0 Z="61" value=".00000000000000000E+000"/>
    <e0 Z="62" value=".00000000000000000E+000"/>
    <e0 Z="63" value=".00000000000000000E+000"/>
    <e0 Z="64" value=".00000000000000000E+000"/>
    <e0 Z="65" value=".00000000000000000E+000"/>
    <e0 Z="66" value=".00000000000000000E+000"/>
    <e0 Z="67" value=".00000000000000000E+000"/>
    <e0 Z="68" value=".00000000000000000E+000"/>
    <e0 Z="69" value=".00000000000000000E+000"/>
    <e0 Z="70" value=".00000000000000000E+000"/>
    <e0 Z="71" value=".00000000000000000E+000"/>
    <e0 Z="72" value=".00000000000000000E+000"/>
    <e0 Z="73" value=".00000000000000000E+000"/>
    <e0 Z="74" value=".00000000000000000E+000"/>
    <e0 Z="75" value=".00000000000000000E+000"/>
    <e0 Z="76" value=".00000000000000000E+000"/>
    <e0 Z="77" value=".00000000000000000E+000"/>
    <e0 Z="78" value=".00000000000000000E+000"/>
    <e0 Z="79" value=".00000000000000000E+000"/>
    <e0 Z="80" value=".00000000000000000E+000"/>
    <e0 Z="81" value=".00000000000000000E+000"/>
    <e0 Z="82" value=".00000000000000000E+000"/>
    <e0 Z="83" value=".00000000000000000E+000"/>
    <e0 Z="84" value=".00000000000000000E+000"/>
    <e0 Z="85" value=".00000000000000000E+000"/>
    <e0 Z="86" value=".00000000000000000E+000"/>
    <e0 Z="87" value=".00000000000000000E+000"/>
    <e0 Z="88" value=".00000000000000000E+000"/>
    <e0 Z="89" value=".00000000000000000E+000"/>
    <e0 Z="90" value=".00000000000000000E+000"/>
    <e0 Z="91" value=".00000000000000000E+000"/>
    <e0 Z="92" value=".00000000000000000E+000"/>
    <e0 Z="93" value=".00000000000000000E+000"/>
    <e0 Z="94" value=".00000000000000000E+000"/>
    <e0 Z="95" value=".00000000000000000E+000"/>
    <e0 Z="96" value=".00000000000000000E+000"/>
    <e0 Z="97" value=".00000000000000000E+000"/>
    <e0 Z="98" value=".00000000000000000E+000"/>
    <e0 Z="99" value=".00000000000000000E+000"/>
    <e0 Z="100" value=".00000000000000000E+000"/>
    <e0 Z="101" value=".00000000000000000E+000"/>
    <e0 Z="102" value=".00000000000000000E+000"/>
    <e0 Z="103" value=".00000000000000000E+000"/>
    <e0 Z="104" value=".00000000000000000E+000"/>
    <e0 Z="105" value=".00000000000000000E+000"/>
    <e0 Z="106" value=".00000000000000000E+000"/>
    <e0 Z="107" value=".00000000000000000E+000"/>
    <e0 Z="108" value=".00000000000000000E+000"/>
    <e0 Z="109" value=".00000000000000000E+000"/>
    <e0 Z="110" value=".00000000000000000E+000"/>
    <e0 Z="111" value=".00000000000000000E+000"/>
    <e0 Z="112" value=".00000000000000000E+000"/>
    <e0 Z="113" value=".00000000000000000E+000"/>
    <e0 Z="114" value=".00000000000000000E+000"/>
    <e0 Z="115" value=".00000000000000000E+000"/>
    <e0 Z="116" value=".00000000000000000E+000"/>
    <e0 Z="117" value=".00000000000000000E+000"/>
    <e0 Z="118" value=".00000000000000000E+000"/>
  </GAP_data>
  <gpSparse label="GAP_2023_11_27_120_22_26_19_547" n_coordinate="8" fitted="T">
    <gpCoordinates label="GAP_2023_11_27_120_22_26_19_5471" dimensions="1" signal_variance=".50000000000000000" signal_mean=".00000000000000000E+000" sparsified="T" n_permutations="1" covariance_type="1" n_sparseX="30" sparseX_filename="CH.xml.sparseX.GAP_2023_11_27_120_22_26_19_5471" sparseX_md5sum="bbd379d97fd4b0aeddcc4fa3b3d7ad90">
      <theta>  0.50000000000000000E+000 </theta>
      <descriptor> distance_2b Z1=1 Z2=1 cutoff=5.0 n_sparse=30 covariance_type=ard_se delta=0.5 theta_uniform=0.5 sparse_method=uniform add_species=F</descriptor>
      <permutation i="1">1  </permutation>
      <sparseX i="1" alpha="44847.424189717509" sparseCutoff="1.0000000000000000"/>
      <sparseX i="2" alpha="44947.862779202427" sparseCutoff=".24128448056325968E-001"/>
      <sparseX i="3" alpha="38867.420648277715" sparseCutoff="1.0000000000000000"/>
      <sparseX i="4" alpha="147388.07318321394" sparseCutoff="1.0000000000000000"/>
      <sparseX i="5" alpha="-118343.11066716237" sparseCutoff="1.0000000000000000"/>
      <sparseX i="6" alpha="-17782.977950199547" sparseCutoff=".11918591899532943"/>
      <sparseX i="7" alpha="-92335.084148543363" sparseCutoff="1.0000000000000000"/>
      <sparseX i="8" alpha="65559.800790555746" sparseCutoff="1.0000000000000000"/>
      <sparseX i="9" alpha="26763.958827353570" sparseCutoff="1.0000000000000000"/>
      <sparseX i="10" alpha="-118529.12033969803" sparseCutoff="1.0000000000000000"/>
      <sparseX i="11" alpha="-1104.2632377066409" sparseCutoff="1.0000000000000000"/>
      <sparseX i="12" alpha="61632.642034819932" sparseCutoff="1.0000000000000000"/>
      <sparseX i="13" alpha="14971.032445259556" sparseCutoff="1.0000000000000000"/>
      <sparseX i="14" alpha="6687.7605313793929" sparseCutoff=".79208928283686819"/>
      <sparseX i="15" alpha="-40598.272274725481" sparseCutoff="1.0000000000000000"/>
      <sparseX i="16" alpha="109125.58164113326" sparseCutoff="1.0000000000000000"/>
      <sparseX i="17" alpha="-15547.159985144614" sparseCutoff="1.0000000000000000"/>
      <sparseX i="18" alpha="-51639.724402202984" sparseCutoff="1.0000000000000000"/>
      <sparseX i="19" alpha="98023.495365465293" sparseCutoff="1.0000000000000000"/>
      <sparseX i="20" alpha="-170555.13804533138" sparseCutoff="1.0000000000000000"/>
      <sparseX i="21" alpha="73475.243527088271" sparseCutoff="1.0000000000000000"/>
      <sparseX i="22" alpha="-67481.010257039292" sparseCutoff="1.0000000000000000"/>
      <sparseX i="23" alpha="-12339.892964395589" sparseCutoff="1.0000000000000000"/>
      <sparseX i="24" alpha="307014.58442268957" sparseCutoff="1.0000000000000000"/>
      <sparseX i="25" alpha="197885.95837812286" sparseCutoff="1.0000000000000000"/>
      <sparseX i="26" alpha="132252.68223038316" sparseCutoff="1.0000000000000000"/>
      <sparseX i="27" alpha="-101073.01927965747" sparseCutoff="1.0000000000000000"/>
      <sparseX i="28" alpha="-177861.59440177458" sparseCutoff="1.0000000000000000"/>
      <sparseX i="29" alpha="-281279.42125379341" sparseCutoff="1.0000000000000000"/>
      <sparseX i="30" alpha="-73410.747680618850" sparseCutoff="1.0000000000000000"/>
    </gpCoordinates>
    <gpCoordinates label="GAP_2023_11_27_120_22_26_19_5472" dimensions="1" signal_variance=".50000000000000000" signal_mean=".00000000000000000E+000" sparsified="T" n_permutations="1" covariance_type="1" n_sparseX="30" sparseX_filename="CH.xml.sparseX.GAP_2023_11_27_120_22_26_19_5472" sparseX_md5sum="945a7d15de4dc9756a811ef1e4f2a50e">
      <theta>  0.50000000000000000E+000 </theta>
      <descriptor> distance_2b Z1=1 Z2=6 cutoff=5.0 n_sparse=30 covariance_type=ard_se delta=0.5 theta_uniform=0.5 sparse_method=uniform add_species=F</descriptor>
      <permutation i="1">1  </permutation>
      <sparseX i="1" alpha="-218631.70955419890" sparseCutoff="1.0000000000000000"/>
      <sparseX i="2" alpha="74017.503527078661" sparseCutoff="1.0000000000000000"/>
      <sparseX i="3" alpha="-109401.00556940895" sparseCutoff="1.0000000000000000"/>
      <sparseX i="4" alpha="-116979.70907747369" sparseCutoff="1.0000000000000000"/>
      <sparseX i="5" alpha="-177083.25623576733" sparseCutoff="1.0000000000000000"/>
      <sparseX i="6" alpha="161128.62565429992" sparseCutoff="1.0000000000000000"/>
      <sparseX i="7" alpha="-48324.896818788016" sparseCutoff="1.0000000000000000"/>
      <sparseX i="8" alpha="-3840.5192806936916" sparseCutoff="1.0000000000000000"/>
      <sparseX i="9" alpha="75628.485915905956" sparseCutoff="1.0000000000000000"/>
      <sparseX i="10" alpha="92882.733271894438" sparseCutoff=".98784940777081864"/>
      <sparseX i="11" alpha="-94684.196398896951" sparseCutoff="1.0000000000000000"/>
      <sparseX i="12" alpha="81084.051873496166" sparseCutoff="1.0000000000000000"/>
      <sparseX i="13" alpha="83746.288279292086" sparseCutoff="1.0000000000000000"/>
      <sparseX i="14" alpha="-58624.315767230473" sparseCutoff="1.0000000000000000"/>
      <sparseX i="15" alpha="-122161.53412687039" sparseCutoff="1.0000000000000000"/>
      <sparseX i="16" alpha="28954.762974816196" sparseCutoff="1.0000000000000000"/>
      <sparseX i="17" alpha="-49939.313064835187" sparseCutoff=".69874476960319221"/>
      <sparseX i="18" alpha="195631.39188992596" sparseCutoff="1.0000000000000000"/>
      <sparseX i="19" alpha="30238.945183669439" sparseCutoff=".31115573794708506"/>
      <sparseX i="20" alpha="-39387.743363075708" sparseCutoff=".20588935538191411E-001"/>
      <sparseX i="21" alpha="94252.377450603977" sparseCutoff="1.0000000000000000"/>
      <sparseX i="22" alpha="-31749.166069116469" sparseCutoff="1.0000000000000000"/>
      <sparseX i="23" alpha="65747.217621187418" sparseCutoff="1.0000000000000000"/>
      <sparseX i="24" alpha="104625.38845128870" sparseCutoff="1.0000000000000000"/>
      <sparseX i="25" alpha="164975.50443356688" sparseCutoff="1.0000000000000000"/>
      <sparseX i="26" alpha="-214004.35659002807" sparseCutoff="1.0000000000000000"/>
      <sparseX i="27" alpha="30445.651745939460" sparseCutoff="1.0000000000000000"/>
      <sparseX i="28" alpha="-146634.37382079777" sparseCutoff="1.0000000000000000"/>
      <sparseX i="29" alpha="126047.10434470778" sparseCutoff="1.0000000000000000"/>
      <sparseX i="30" alpha="-9704.3264650778892" sparseCutoff="1.0000000000000000"/>
    </gpCoordinates>
    <gpCoordinates label="GAP_2023_11_27_120_22_26_19_5473" dimensions="1" signal_variance=".50000000000000000" signal_mean=".00000000000000000E+000" sparsified="T" n_permutations="1" covariance_type="1" n_sparseX="30" sparseX_filename="CH.xml.sparseX.GAP_2023_11_27_120_22_26_19_5473" sparseX_md5sum="482614846d22eb76329c1c80ab1e67b3">
      <theta>  0.50000000000000000E+000 </theta>
      <descriptor> distance_2b Z1=6 Z2=6 cutoff=5.0 n_sparse=30 covariance_type=ard_se delta=0.5 theta_uniform=0.5 sparse_method=uniform add_species=F</descriptor>
      <permutation i="1">1  </permutation>
      <sparseX i="1" alpha="-138957.94382564115" sparseCutoff="1.0000000000000000"/>
      <sparseX i="2" alpha="-462396.70071730210" sparseCutoff="1.0000000000000000"/>
      <sparseX i="3" alpha="22502.917475778009" sparseCutoff="1.0000000000000000"/>
      <sparseX i="4" alpha="497720.66989404027" sparseCutoff="1.0000000000000000"/>
      <sparseX i="5" alpha="176687.22475555097" sparseCutoff="1.0000000000000000"/>
      <sparseX i="6" alpha="-317316.62854826637" sparseCutoff="1.0000000000000000"/>
      <sparseX i="7" alpha="86828.460728279490" sparseCutoff="1.0000000000000000"/>
      <sparseX i="8" alpha="99154.047550560659" sparseCutoff="1.0000000000000000"/>
      <sparseX i="9" alpha="-118047.01621951415" sparseCutoff="1.0000000000000000"/>
      <sparseX i="10" alpha="-329479.47638461337" sparseCutoff="1.0000000000000000"/>
      <sparseX i="11" alpha="-148816.95686014675" sparseCutoff="1.0000000000000000"/>
      <sparseX i="12" alpha="-263901.62285420386" sparseCutoff="1.0000000000000000"/>
      <sparseX i="13" alpha="210006.64289015523" sparseCutoff="1.0000000000000000"/>
      <sparseX i="14" alpha="-150020.15757012152" sparseCutoff="1.0000000000000000"/>
      <sparseX i="15" alpha="43196.976306143901" sparseCutoff="1.0000000000000000"/>
      <sparseX i="16" alpha="387164.52657924278" sparseCutoff="1.0000000000000000"/>
      <sparseX i="17" alpha="53069.772323392477" sparseCutoff=".80003424715010740"/>
      <sparseX i="18" alpha="-22022.479321891569" sparseCutoff="1.0000000000000000"/>
      <sparseX i="19" alpha="25074.933765877526" sparseCutoff="1.0000000000000000"/>
      <sparseX i="20" alpha="-52275.290451224333" sparseCutoff=".18203821953914656"/>
      <sparseX i="21" alpha="1146710.5846450031" sparseCutoff=".21653075492346074E-002"/>
      <sparseX i="22" alpha="315198.01264841383" sparseCutoff="1.0000000000000000"/>
      <sparseX i="23" alpha="-50311.988405428616" sparseCutoff="1.0000000000000000"/>
      <sparseX i="24" alpha="-75383.242566524699" sparseCutoff=".99066982603217624"/>
      <sparseX i="25" alpha="238769.45730532432" sparseCutoff="1.0000000000000000"/>
      <sparseX i="26" alpha="-73801.014560693890" sparseCutoff="1.0000000000000000"/>
      <sparseX i="27" alpha="-38715.855052599785" sparseCutoff="1.0000000000000000"/>
      <sparseX i="28" alpha="82255.235053030250" sparseCutoff="1.0000000000000000"/>
      <sparseX i="29" alpha="29691.387101979624" sparseCutoff="1.0000000000000000"/>
      <sparseX i="30" alpha="-61115.665382580868" sparseCutoff="1.0000000000000000"/>
    </gpCoordinates>
    <gpCoordinates label="GAP_2023_11_27_120_22_26_19_5474" dimensions="3" signal_variance=".10000000000000000E-001" signal_mean=".00000000000000000E+000" sparsified="T" n_permutations="1" covariance_type="4" n_sparseX="200" sparseX_filename="CH.xml.sparseX.GAP_2023_11_27_120_22_26_19_5474" sparseX_md5sum="c0851b435a2c316aae8ad3ea1e70fdb5">
      <theta>  0.20000000000000000E+001  0.20000000000000000E+001  0.20000000000000000E+001 </theta>
      <descriptor> angle_3b Z_center=6 Z1=1 Z2=1 cutoff=2.0 n_sparse=200 covariance_type=pp delta=0.01 theta_uniform=2.0 sparse_method=uniform add_species=F</descriptor>
      <permutation i="1">1 2 3  </permutation>
      <sparseX i="1" alpha="12404.247719615612" sparseCutoff="1.0000000000000000"/>
      <sparseX i="2" alpha="185.55250899608004" sparseCutoff=".26469148880547966E-004"/>
      <sparseX i="3" alpha="694.43689985652782" sparseCutoff=".54912868053286212E-003"/>
      <sparseX i="4" alpha="3675.2847145767391" sparseCutoff=".28558978896997544E-003"/>
      <sparseX i="5" alpha="349339.14090250997" sparseCutoff=".32476226800978031E-001"/>
      <sparseX i="6" alpha="83002.721552880845" sparseCutoff=".41589987569211284E-001"/>
      <sparseX i="7" alpha="-4862.5512514356888" sparseCutoff=".78086647049204472"/>
      <sparseX i="8" alpha="44699.275428672321" sparseCutoff="1.0000000000000000"/>
      <sparseX i="9" alpha="2301.1709266966323" sparseCutoff="1.0000000000000000"/>
      <sparseX i="10" alpha="-33459.068096750554" sparseCutoff=".40891819548377450E-001"/>
      <sparseX i="11" alpha="-2624.1794435188799" sparseCutoff=".41589987569211284E-001"/>
      <sparseX i="12" alpha="4836.9115590726615" sparseCutoff=".55936529715340944"/>
      <sparseX i="13" alpha="225.64474476222955" sparseCutoff=".99999239534121231"/>
      <sparseX i="14" alpha="7219.9236175738488" sparseCutoff=".41589987569211284E-001"/>
      <sparseX i="15" alpha="-32011.419093144770" sparseCutoff=".12845157961415960E-001"/>
      <sparseX i="16" alpha="17967.959524058773" sparseCutoff=".28862470245645859E-001"/>
      <sparseX i="17" alpha="1085.0899936413755" sparseCutoff=".54190290951381859"/>
      <sparseX i="18" alpha="-357.72263347397012" sparseCutoff=".68232667927766921"/>
      <sparseX i="19" alpha="87.243181916108398" sparseCutoff=".69397640952921325"/>
      <sparseX i="20" alpha="38778.841249513011" sparseCutoff=".10460762230927477E-001"/>
      <sparseX i="21" alpha="-15264.161482978581" sparseCutoff=".49557122343746500E-002"/>
      <sparseX i="22" alpha="-11454.391405185712" sparseCutoff=".11915637690748726"/>
      <sparseX i="23" alpha="16483.867547944825" sparseCutoff=".29970351038304959E-001"/>
      <sparseX i="24" alpha="2548.9946025139743" sparseCutoff=".71258424371942793E-004"/>
      <sparseX i="25" alpha="-12900.257822378117" sparseCutoff=".22387757246168500E-001"/>
      <sparseX i="26" alpha="-1206.9404022734043" sparseCutoff=".41468252122881294"/>
      <sparseX i="27" alpha="25457.615742087313" sparseCutoff=".43585084100871363E-001"/>
      <sparseX i="28" alpha="1766.9805886991596" sparseCutoff=".39452726640592245"/>
      <sparseX i="29" alpha="53581.127625167290" sparseCutoff=".45987310833937256E-001"/>
      <sparseX i="30" alpha="8662.2764722539632" sparseCutoff="1.0000000000000000"/>
      <sparseX i="31" alpha="26849.780196627016" sparseCutoff=".54234283546693574E-002"/>
      <sparseX i="32" alpha="-7631.1457452680243" sparseCutoff="1.0000000000000000"/>
      <sparseX i="33" alpha="54944.186847579120" sparseCutoff=".12683789588542760"/>
      <sparseX i="34" alpha="-3817.5787587198124" sparseCutoff=".34431075562600555"/>
      <sparseX i="35" alpha="2374.4797945464734" sparseCutoff=".97767070838593906"/>
      <sparseX i="36" alpha="-9141.2406181927163" sparseCutoff=".12212749525756350E-001"/>
      <sparseX i="37" alpha="-4360.1094461755083" sparseCutoff="1.0000000000000000"/>
      <sparseX i="38" alpha="-83106.186718627869" sparseCutoff=".81589732495969125E-002"/>
      <sparseX i="39" alpha="3869.9059268377819" sparseCutoff=".26813736931147192E-003"/>
      <sparseX i="40" alpha="-5221.7398202739605" sparseCutoff="1.0000000000000000"/>
      <sparseX i="41" alpha="13782.743185398607" sparseCutoff=".21635974046407269E-002"/>
      <sparseX i="42" alpha="2746.7469518464582" sparseCutoff="1.0000000000000000"/>
      <sparseX i="43" alpha="9550.1312724212930" sparseCutoff=".93305120190729318"/>
      <sparseX i="44" alpha="10716.385422968058" sparseCutoff=".92451567529576473"/>
      <sparseX i="45" alpha="59227.153343470236" sparseCutoff=".27557206824500030"/>
      <sparseX i="46" alpha="2197.8898522592667" sparseCutoff=".80022628802589590E-003"/>
      <sparseX i="47" alpha="10141.132737405476" sparseCutoff="1.0000000000000000"/>
      <sparseX i="48" alpha="16743.883104632314" sparseCutoff=".10926035628038511E-001"/>
      <sparseX i="49" alpha="-806.26194782808113" sparseCutoff="1.0000000000000000"/>
      <sparseX i="50" alpha="-89644.030655212715" sparseCutoff="1.0000000000000000"/>
      <sparseX i="51" alpha="-3371.3305668023099" sparseCutoff=".43145595133159964E-001"/>
      <sparseX i="52" alpha="69834.454740467510" sparseCutoff="1.0000000000000000"/>
      <sparseX i="53" alpha="-47165.315017907029" sparseCutoff=".21956433456476154"/>
      <sparseX i="54" alpha="14245.763731336881" sparseCutoff=".12654065765558054E-001"/>
      <sparseX i="55" alpha="26036.185562052575" sparseCutoff=".44241723712150627E-002"/>
      <sparseX i="56" alpha="5228.3908577704633" sparseCutoff=".42837890598900319"/>
      <sparseX i="57" alpha="334.06539991620184" sparseCutoff=".93048174211292167"/>
      <sparseX i="58" alpha="-25781.043769896820" sparseCutoff=".42837890598900319"/>
      <sparseX i="59" alpha="-15062.294915928400" sparseCutoff=".25850751158621338"/>
      <sparseX i="60" alpha="-1331.9340153063752" sparseCutoff=".98303808588432484"/>
      <sparseX i="61" alpha="-107653.53066117843" sparseCutoff="1.0000000000000000"/>
      <sparseX i="62" alpha="-8931.4400991123093" sparseCutoff="1.0000000000000000"/>
      <sparseX i="63" alpha="55807.443095679751" sparseCutoff="1.0000000000000000"/>
      <sparseX i="64" alpha="1870.8851287895370" sparseCutoff=".19014640245150427E-001"/>
      <sparseX i="65" alpha="2190.9010811468434" sparseCutoff=".87234473810304247E-002"/>
      <sparseX i="66" alpha="-4574.5395094327732" sparseCutoff=".18147115562278499"/>
      <sparseX i="67" alpha="-688.46667462593712" sparseCutoff="1.0000000000000000"/>
      <sparseX i="68" alpha="-1741.5490189544262" sparseCutoff=".89851866246606305"/>
      <sparseX i="69" alpha="86647.310358481569" sparseCutoff=".45863916628256875E-001"/>
      <sparseX i="70" alpha="-17142.913349922903" sparseCutoff=".90895364064568718E-001"/>
      <sparseX i="71" alpha="-92565.504793708955" sparseCutoff=".83367315738070991E-002"/>
      <sparseX i="72" alpha="-4.9659576658356679" sparseCutoff=".38808891139607837E-006"/>
      <sparseX i="73" alpha="-59368.408784352010" sparseCutoff=".11963049696389377"/>
      <sparseX i="74" alpha="2054.7355917269447" sparseCutoff=".94766038254204366"/>
      <sparseX i="75" alpha="-2266.0223020741360" sparseCutoff="1.0000000000000000"/>
      <sparseX i="76" alpha="-147.40908803986494" sparseCutoff=".67943927170326257"/>
      <sparseX i="77" alpha="-32883.493417099868" sparseCutoff=".23645611104652353E-002"/>
      <sparseX i="78" alpha="-11973.450887004154" sparseCutoff=".15491984583771823"/>
      <sparseX i="79" alpha="59217.324078902275" sparseCutoff=".65676856104944337E-001"/>
      <sparseX i="80" alpha="-9879.5463978403532" sparseCutoff=".70496491135296857"/>
      <sparseX i="81" alpha="51699.964884419416" sparseCutoff=".29172361902211397E-001"/>
      <sparseX i="82" alpha="-26477.936531877207" sparseCutoff=".23231407007406096"/>
      <sparseX i="83" alpha="60875.118462568629" sparseCutoff=".13038245951329075E-001"/>
      <sparseX i="84" alpha="4910.7710505435425" sparseCutoff="1.0000000000000000"/>
      <sparseX i="85" alpha="734.66993628056582" sparseCutoff=".54538939087305494"/>
      <sparseX i="86" alpha="26746.532100739933" sparseCutoff="1.0000000000000000"/>
      <sparseX i="87" alpha="15365.731403815436" sparseCutoff=".51938789288990539E-002"/>
      <sparseX i="88" alpha="-46121.718808718637" sparseCutoff=".92441114950420311"/>
      <sparseX i="89" alpha="313.26911456979053" sparseCutoff=".83425270351167313E-003"/>
      <sparseX i="90" alpha="27197.439412855398" sparseCutoff=".42365958301192955E-002"/>
      <sparseX i="91" alpha="1051.9515826077718" sparseCutoff=".22728284005901853E-003"/>
      <sparseX i="92" alpha="-4850.1599027022221" sparseCutoff="1.0000000000000000"/>
      <sparseX i="93" alpha="-10805.990265128929" sparseCutoff=".57949901414647398"/>
      <sparseX i="94" alpha="10092.688479244134" sparseCutoff=".46661196190546927E-001"/>
      <sparseX i="95" alpha="-3235.8970899466499" sparseCutoff="1.0000000000000000"/>
      <sparseX i="96" alpha="3522.2293570046704" sparseCutoff=".14391523954068591E-002"/>
      <sparseX i="97" alpha="-30959.517742544118" sparseCutoff=".90706179439339452E-001"/>
      <sparseX i="98" alpha="14256.681050815754" sparseCutoff=".48776003222368858E-002"/>
      <sparseX i="99" alpha="-8641.8677288384406" sparseCutoff=".14266416315756908"/>
      <sparseX i="100" alpha="-20421.873194549149" sparseCutoff="1.0000000000000000"/>
      <sparseX i="101" alpha="-1871.2293002465385" sparseCutoff=".24497975620740597"/>
      <sparseX i="102" alpha="1268.5149079609735" sparseCutoff="1.0000000000000000"/>
      <sparseX i="103" alpha="1010.9049990815708" sparseCutoff=".87825259486772400"/>
      <sparseX i="104" alpha="34924.184724768464" sparseCutoff="1.0000000000000000"/>
      <sparseX i="105" alpha="-42861.136121463380" sparseCutoff=".16042964793930269E-002"/>
      <sparseX i="106" alpha="786.68681165774262" sparseCutoff="1.0000000000000000"/>
      <sparseX i="107" alpha="-4259.4415795638270" sparseCutoff="1.0000000000000000"/>
      <sparseX i="108" alpha="20315.309770478365" sparseCutoff=".21350973879381008E-001"/>
      <sparseX i="109" alpha="2014.4192616973505" sparseCutoff="1.0000000000000000"/>
      <sparseX i="110" alpha="29765.658824683138" sparseCutoff=".17147707991257231E-001"/>
      <sparseX i="111" alpha="-7933.7102936548818" sparseCutoff=".21599082244745549"/>
      <sparseX i="112" alpha="-1631.2497678393536" sparseCutoff=".77696474086647038E-003"/>
      <sparseX i="113" alpha="106.86437390485510" sparseCutoff=".39591652323200943E-004"/>
      <sparseX i="114" alpha="-91.897420951167646" sparseCutoff="1.0000000000000000"/>
      <sparseX i="115" alpha="-4488.8946667545706" sparseCutoff=".10825324558772664E-001"/>
      <sparseX i="116" alpha="47408.637656185136" sparseCutoff=".97146487969222983E-002"/>
      <sparseX i="117" alpha="7.2682211006927337" sparseCutoff=".12155527832764277E-005"/>
      <sparseX i="118" alpha="-4799.0269078209603" sparseCutoff=".36244043779493085E-003"/>
      <sparseX i="119" alpha="-8818.4587309401668" sparseCutoff=".92374865602164680E-001"/>
      <sparseX i="120" alpha="-7039.8132358598850" sparseCutoff=".98404039473546345"/>
      <sparseX i="121" alpha="16980.388987726805" sparseCutoff=".44937325984150123E-002"/>
      <sparseX i="122" alpha="5595.2975258084161" sparseCutoff="1.0000000000000000"/>
      <sparseX i="123" alpha="-14721.153248448878" sparseCutoff=".37664542121894184E-001"/>
      <sparseX i="124" alpha="15202.568199663003" sparseCutoff=".97112707600891102"/>
      <sparseX i="125" alpha="-6811.6066057637336" sparseCutoff="1.0000000000000000"/>
      <sparseX i="126" alpha="-2531.3995142000654" sparseCutoff="1.0000000000000000"/>
      <sparseX i="127" alpha="-8378.2018686116644" sparseCutoff=".18826510314258582E-001"/>
      <sparseX i="128" alpha="-5733.0772067607331" sparseCutoff=".90020281749472658E-001"/>
      <sparseX i="129" alpha="16670.063675459722" sparseCutoff=".99997116874061576"/>
      <sparseX i="130" alpha="13585.958630980320" sparseCutoff=".22986059570407722E-002"/>
      <sparseX i="131" alpha="6729.7915828439172" sparseCutoff=".24998814837765282E-001"/>
      <sparseX i="132" alpha="-16328.540554897050" sparseCutoff=".18449229564095310"/>
      <sparseX i="133" alpha="22490.384895656349" sparseCutoff=".64476834421555629"/>
      <sparseX i="134" alpha="-74011.249480985440" sparseCutoff=".53078021634151769E-001"/>
      <sparseX i="135" alpha="-5336.8713277520073" sparseCutoff=".58720211343645246E-002"/>
      <sparseX i="136" alpha="-3320.8099311604115" sparseCutoff="1.0000000000000000"/>
      <sparseX i="137" alpha="-679.70860757455694" sparseCutoff=".15383748308943695"/>
      <sparseX i="138" alpha="22145.182765929043" sparseCutoff=".74733721447345358E-003"/>
      <sparseX i="139" alpha="-7504.7732248603224" sparseCutoff=".76351638158794244"/>
      <sparseX i="140" alpha="4733.3747214896748" sparseCutoff=".98536615387162163"/>
      <sparseX i="141" alpha="-4070.8902471907973" sparseCutoff=".99312772683925465"/>
      <sparseX i="142" alpha="-79273.265664981707" sparseCutoff=".77160125907200783E-002"/>
      <sparseX i="143" alpha="-4051.1119786732429" sparseCutoff=".29790024884195576E-001"/>
      <sparseX i="144" alpha="-8619.7117407552560" sparseCutoff="1.0000000000000000"/>
      <sparseX i="145" alpha="8035.9505874516572" sparseCutoff="1.0000000000000000"/>
      <sparseX i="146" alpha="33959.906121280008" sparseCutoff=".17695856194861193E-001"/>
      <sparseX i="147" alpha="-15232.536399242332" sparseCutoff=".36162841533854562E-002"/>
      <sparseX i="148" alpha="-16475.182267047334" sparseCutoff=".15924204782350021"/>
      <sparseX i="149" alpha="2849.9038490324351" sparseCutoff=".88474935177931791"/>
      <sparseX i="150" alpha="691.75147050136434" sparseCutoff="1.0000000000000000"/>
      <sparseX i="151" alpha="5138.7848576907554" sparseCutoff="1.0000000000000000"/>
      <sparseX i="152" alpha="12349.745040075548" sparseCutoff=".23033496178898494E-001"/>
      <sparseX i="153" alpha="-1530.6555687108073" sparseCutoff=".36167874513033837"/>
      <sparseX i="154" alpha="12553.889284925821" sparseCutoff=".10488690489731256"/>
      <sparseX i="155" alpha="379.85413985807702" sparseCutoff=".11599463495898243E-003"/>
      <sparseX i="156" alpha="748.28752468737378" sparseCutoff=".54235892773521188"/>
      <sparseX i="157" alpha="-18363.048460946993" sparseCutoff=".28778002608118580E-002"/>
      <sparseX i="158" alpha="3510.2072446313132" sparseCutoff="1.0000000000000000"/>
      <sparseX i="159" alpha="-8850.4908741981453" sparseCutoff="1.0000000000000000"/>
      <sparseX i="160" alpha="23159.524760265667" sparseCutoff="1.0000000000000000"/>
      <sparseX i="161" alpha="2294.6264260707308" sparseCutoff=".14299807018573718"/>
      <sparseX i="162" alpha="-2275.9996991998223" sparseCutoff=".13245370822179137E-003"/>
      <sparseX i="163" alpha="28192.535313358338" sparseCutoff=".33350609028028622"/>
      <sparseX i="164" alpha="-9070.9788923716660" sparseCutoff="1.0000000000000000"/>
      <sparseX i="165" alpha="-589.10369660773142" sparseCutoff=".46673630640427655"/>
      <sparseX i="166" alpha="5020.1112165048498" sparseCutoff=".68451634508894466E-001"/>
      <sparseX i="167" alpha="2119.8985807299223" sparseCutoff=".25279439111746127E-002"/>
      <sparseX i="168" alpha="-130.17448213104703" sparseCutoff=".33682297780860460"/>
      <sparseX i="169" alpha="-58880.109382370560" sparseCutoff=".10624293511825311E-001"/>
      <sparseX i="170" alpha="-420.97173010542525" sparseCutoff="1.0000000000000000"/>
      <sparseX i="171" alpha="-364351.86869823537" sparseCutoff=".24954576097099786E-001"/>
      <sparseX i="172" alpha="26897.042114888613" sparseCutoff=".36904038087349045E-001"/>
      <sparseX i="173" alpha="10347.379556908134" sparseCutoff=".37394616937794550"/>
      <sparseX i="174" alpha="14240.690367476514" sparseCutoff=".28057712997758388"/>
      <sparseX i="175" alpha="9495.9518652706302" sparseCutoff="1.0000000000000000"/>
      <sparseX i="176" alpha="-70091.354897468322" sparseCutoff=".12504663192887028"/>
      <sparseX i="177" alpha="-3828.8269756821505" sparseCutoff=".95314151999520746"/>
      <sparseX i="178" alpha="-2113.0689730580434" sparseCutoff="1.0000000000000000"/>
      <sparseX i="179" alpha="-7379.1394639752898" sparseCutoff="1.0000000000000000"/>
      <sparseX i="180" alpha="-29751.373032645028" sparseCutoff="1.0000000000000000"/>
      <sparseX i="181" alpha="-13302.224319385159" sparseCutoff=".48642373885708801E-001"/>
      <sparseX i="182" alpha="5097.6660633798774" sparseCutoff=".99046512404698017"/>
      <sparseX i="183" alpha="10380.189687529468" sparseCutoff=".35513189973035250E-001"/>
      <sparseX i="184" alpha="280.27488281685407" sparseCutoff=".38586841024756957E-004"/>
      <sparseX i="185" alpha="69.770479861209566" sparseCutoff=".27694305042980094E-003"/>
      <sparseX i="186" alpha="567.19048471314318" sparseCutoff=".79957078012704574E-003"/>
      <sparseX i="187" alpha="-43.002106440315238" sparseCutoff=".92671319423583398"/>
      <sparseX i="188" alpha="1031.4309843205933" sparseCutoff=".28856714972314013E-003"/>
      <sparseX i="189" alpha="-3014.2247136592132" sparseCutoff=".97667608384630156"/>
      <sparseX i="190" alpha="-38041.847555604865" sparseCutoff=".99550412052497417"/>
      <sparseX i="191" alpha="-35472.446900765768" sparseCutoff=".74610152777957711E-001"/>
      <sparseX i="192" alpha="82360.468016862127" sparseCutoff=".17855527284448158"/>
      <sparseX i="193" alpha="41970.597301827125" sparseCutoff="1.0000000000000000"/>
      <sparseX i="194" alpha="-541.51702148762013" sparseCutoff="1.0000000000000000"/>
      <sparseX i="195" alpha="4778.2773054580630" sparseCutoff="1.0000000000000000"/>
      <sparseX i="196" alpha="36780.357463600274" sparseCutoff=".39011814807005663E-002"/>
      <sparseX i="197" alpha="-13277.421762266811" sparseCutoff=".19930915491099266E-002"/>
      <sparseX i="198" alpha="17478.493207980802" sparseCutoff=".33102531831113835E-001"/>
      <sparseX i="199" alpha="3294.3267264985711" sparseCutoff=".97560883877961957"/>
      <sparseX i="200" alpha="-7345.9473430681373" sparseCutoff=".88393974478038007"/>
    </gpCoordinates>
    <gpCoordinates label="GAP_2023_11_27_120_22_26_19_5475" dimensions="3" signal_variance=".10000000000000000E-001" signal_mean=".00000000000000000E+000" sparsified="T" n_permutations="1" covariance_type="4" n_sparseX="200" sparseX_filename="CH.xml.sparseX.GAP_2023_11_27_120_22_26_19_5475" sparseX_md5sum="432be9b8a9cc8b9bb6294b68396c6bcd">
      <theta>  0.20000000000000000E+001  0.20000000000000000E+001  0.20000000000000000E+001 </theta>
      <descriptor> angle_3b Z_center=6 Z1=1 Z2=6 cutoff=2.0 n_sparse=200 covariance_type=pp delta=0.01 theta_uniform=2.0 sparse_method=uniform add_species=F</descriptor>
      <permutation i="1">1 2 3  </permutation>
      <sparseX i="1" alpha="-9153.2795679679675" sparseCutoff=".98147598157382465"/>
      <sparseX i="2" alpha="10323.007290844445" sparseCutoff=".98680747118993517"/>
      <sparseX i="3" alpha="8701.9273481293567" sparseCutoff=".90640456778130440"/>
      <sparseX i="4" alpha="77313.069611341067" sparseCutoff="1.0000000000000000"/>
      <sparseX i="5" alpha="10464.404833903573" sparseCutoff=".13148774288868631"/>
      <sparseX i="6" alpha="847.34226610571909" sparseCutoff=".92783615542489928"/>
      <sparseX i="7" alpha="-455320.29514852306" sparseCutoff=".45026848184412938E-001"/>
      <sparseX i="8" alpha="-252953.23487289160" sparseCutoff=".22871808907339530E-001"/>
      <sparseX i="9" alpha="4889.2756467150739" sparseCutoff="1.0000000000000000"/>
      <sparseX i="10" alpha="377.20858344234517" sparseCutoff=".26469148880547966E-004"/>
      <sparseX i="11" alpha="-15847.674114905050" sparseCutoff=".28112050453614208E-003"/>
      <sparseX i="12" alpha="4884.7663994001268" sparseCutoff=".28558978896997544E-003"/>
      <sparseX i="13" alpha="2425.2825681891877" sparseCutoff=".39792425253253882E-002"/>
      <sparseX i="14" alpha="-136403.66415262909" sparseCutoff=".37590767611139962E-001"/>
      <sparseX i="15" alpha="59538.937991008970" sparseCutoff=".41589987569211284E-001"/>
      <sparseX i="16" alpha="-145966.35370983469" sparseCutoff=".41589987569211284E-001"/>
      <sparseX i="17" alpha="90376.581975202105" sparseCutoff=".27354135491815257E-001"/>
      <sparseX i="18" alpha="-79046.351315366628" sparseCutoff=".41589987569211284E-001"/>
      <sparseX i="19" alpha="102523.59371925291" sparseCutoff=".22953598906094311E-002"/>
      <sparseX i="20" alpha="-17726.235394820917" sparseCutoff="1.0000000000000000"/>
      <sparseX i="21" alpha="-12040.165457356850" sparseCutoff="1.0000000000000000"/>
      <sparseX i="22" alpha="3476.4800097085435" sparseCutoff="1.0000000000000000"/>
      <sparseX i="23" alpha="-1099.3215096684723" sparseCutoff=".81376444358300470"/>
      <sparseX i="24" alpha="-6185.2407414557183" sparseCutoff=".21742676424185415E-001"/>
      <sparseX i="25" alpha="-587.69713113488467" sparseCutoff=".14026093981298430E-004"/>
      <sparseX i="26" alpha="-34.987035326616095" sparseCutoff=".84824731629885595E-004"/>
      <sparseX i="27" alpha="29486.001080792430" sparseCutoff=".11915637690748726"/>
      <sparseX i="28" alpha="-21435.601237714818" sparseCutoff=".64867481878782907"/>
      <sparseX i="29" alpha="1368.7463689539888" sparseCutoff=".72250919625424783E-004"/>
      <sparseX i="30" alpha="193.35653904656263" sparseCutoff=".10985230551280312E-003"/>
      <sparseX i="31" alpha="-4886.5163965219772" sparseCutoff=".70351894133026949E-001"/>
      <sparseX i="32" alpha="14808.468080196903" sparseCutoff=".41348136865778651E-002"/>
      <sparseX i="33" alpha="5154.6363191832552" sparseCutoff=".49207603262617639E-001"/>
      <sparseX i="34" alpha="-52155.008372555450" sparseCutoff="1.0000000000000000"/>
      <sparseX i="35" alpha="-70857.165266920347" sparseCutoff="1.0000000000000000"/>
      <sparseX i="36" alpha="-87597.706194237326" sparseCutoff=".39123818371651908E-002"/>
      <sparseX i="37" alpha="141673.00349954003" sparseCutoff=".10693207936529808"/>
      <sparseX i="38" alpha="36083.054380067078" sparseCutoff=".47839844851273572E-001"/>
      <sparseX i="39" alpha="-74993.242584265710" sparseCutoff="1.0000000000000000"/>
      <sparseX i="40" alpha="-10669.618248505150" sparseCutoff=".18259558419002064E-002"/>
      <sparseX i="41" alpha="55816.527207776307" sparseCutoff=".88744827931430459"/>
      <sparseX i="42" alpha="46648.395609791791" sparseCutoff=".79939666471292803"/>
      <sparseX i="43" alpha="151614.39057844426" sparseCutoff=".57599768108503313E-002"/>
      <sparseX i="44" alpha="2901.2668538141302" sparseCutoff=".38299677704648150E-001"/>
      <sparseX i="45" alpha="-180878.80209748723" sparseCutoff=".38458329040162775E-001"/>
      <sparseX i="46" alpha="-891.77024553589922" sparseCutoff=".72556901263307452E-001"/>
      <sparseX i="47" alpha="28170.579844658198" sparseCutoff="1.0000000000000000"/>
      <sparseX i="48" alpha="1645.9483658744118" sparseCutoff=".42476959176718232E-003"/>
      <sparseX i="49" alpha="209887.77641437677" sparseCutoff=".33150913064963611"/>
      <sparseX i="50" alpha="-36388.773401447725" sparseCutoff=".34607840793477584"/>
      <sparseX i="51" alpha="45670.986262587227" sparseCutoff="1.0000000000000000"/>
      <sparseX i="52" alpha="3653.5502224790093" sparseCutoff=".22954759166868752E-003"/>
      <sparseX i="53" alpha="-56694.710566245230" sparseCutoff=".32970657287248462E-002"/>
      <sparseX i="54" alpha="-54375.230080837260" sparseCutoff=".23445883311478355"/>
      <sparseX i="55" alpha="873.43554557272466" sparseCutoff=".62521064353480305"/>
      <sparseX i="56" alpha="26010.367772733527" sparseCutoff=".33380898687641047E-002"/>
      <sparseX i="57" alpha="-37450.623960738652" sparseCutoff=".30591635453420345E-001"/>
      <sparseX i="58" alpha="45769.238970619808" sparseCutoff=".84652460861082935E-003"/>
      <sparseX i="59" alpha="273.73678328077295" sparseCutoff=".86672263380750536"/>
      <sparseX i="60" alpha="-26545.193838146013" sparseCutoff=".31813120392524374E-001"/>
      <sparseX i="61" alpha="34125.281940979177" sparseCutoff=".64087658089919064E-001"/>
      <sparseX i="62" alpha="-1632.6327381556632" sparseCutoff="1.0000000000000000"/>
      <sparseX i="63" alpha="115.06878405856855" sparseCutoff=".43508678287565299E-005"/>
      <sparseX i="64" alpha="111421.98481515597" sparseCutoff="1.0000000000000000"/>
      <sparseX i="65" alpha="-3380.6881245367081" sparseCutoff="1.0000000000000000"/>
      <sparseX i="66" alpha="-559.49009218401238" sparseCutoff=".31266012554098666E-004"/>
      <sparseX i="67" alpha="1809.5531107874554" sparseCutoff="1.0000000000000000"/>
      <sparseX i="68" alpha="-43276.591872828692" sparseCutoff=".72600823506815348E-001"/>
      <sparseX i="69" alpha="-91612.072631695715" sparseCutoff=".50273606283310401E-001"/>
      <sparseX i="70" alpha="-7242.9208808456888" sparseCutoff=".99948876993061087"/>
      <sparseX i="71" alpha="5465.3116478025559" sparseCutoff="1.0000000000000000"/>
      <sparseX i="72" alpha="51384.685993325853" sparseCutoff="1.0000000000000000"/>
      <sparseX i="73" alpha="1390.7385897923270" sparseCutoff=".98804010978114798"/>
      <sparseX i="74" alpha="20810.976628366538" sparseCutoff=".11212302467372709"/>
      <sparseX i="75" alpha="-91266.761639901262" sparseCutoff=".16875191039432946"/>
      <sparseX i="76" alpha="-81160.910873969726" sparseCutoff="1.0000000000000000"/>
      <sparseX i="77" alpha="16455.144124823546" sparseCutoff="1.0000000000000000"/>
      <sparseX i="78" alpha="5709.6262484972531" sparseCutoff="1.0000000000000000"/>
      <sparseX i="79" alpha="89720.127489662875" sparseCutoff=".26423631455932101"/>
      <sparseX i="80" alpha="-1774.1918164514957" sparseCutoff=".98118963082852673E-001"/>
      <sparseX i="81" alpha="29728.718784683504" sparseCutoff=".57997987429549112E-001"/>
      <sparseX i="82" alpha="27869.407710889693" sparseCutoff=".99840451078278436"/>
      <sparseX i="83" alpha="7085.1240418943316" sparseCutoff=".90310595649401026E-003"/>
      <sparseX i="84" alpha="9680.1439033625320" sparseCutoff="1.0000000000000000"/>
      <sparseX i="85" alpha="4834.4359728411755" sparseCutoff="1.0000000000000000"/>
      <sparseX i="86" alpha="-68347.001416161831" sparseCutoff=".30266771046511962E-001"/>
      <sparseX i="87" alpha="8396.5113295205119" sparseCutoff=".53240765900672060"/>
      <sparseX i="88" alpha="-13267.865793267138" sparseCutoff=".93374051465129493"/>
      <sparseX i="89" alpha="-24574.134768460030" sparseCutoff=".19251134730871783"/>
      <sparseX i="90" alpha="-20.410256578252397" sparseCutoff=".96684230821431072E-006"/>
      <sparseX i="91" alpha="67367.622537923540" sparseCutoff=".49443411781172814E-001"/>
      <sparseX i="92" alpha="6915.5109963033847" sparseCutoff="1.0000000000000000"/>
      <sparseX i="93" alpha="2710.7453673565665" sparseCutoff="1.0000000000000000"/>
      <sparseX i="94" alpha="90532.118847204096" sparseCutoff=".18429545752781276E-002"/>
      <sparseX i="95" alpha="-17637.544147347340" sparseCutoff="1.0000000000000000"/>
      <sparseX i="96" alpha="-61298.429397493128" sparseCutoff=".22704423632445586"/>
      <sparseX i="97" alpha="-7561.0638085428172" sparseCutoff="1.0000000000000000"/>
      <sparseX i="98" alpha="-4242.4150463952046" sparseCutoff=".94276010018905487"/>
      <sparseX i="99" alpha="-12116.401866170605" sparseCutoff="1.0000000000000000"/>
      <sparseX i="100" alpha="3578.7895382023653" sparseCutoff=".36917464549180745"/>
      <sparseX i="101" alpha="2044.5073628429261" sparseCutoff=".81592566501822748E-004"/>
      <sparseX i="102" alpha="-3792.2126777991366" sparseCutoff="1.0000000000000000"/>
      <sparseX i="103" alpha="115466.12940518372" sparseCutoff=".13792051100889891"/>
      <sparseX i="104" alpha="3834.7864816759748" sparseCutoff=".86964097835004613E-004"/>
      <sparseX i="105" alpha="12797.806103233559" sparseCutoff=".15547654848135917E-002"/>
      <sparseX i="106" alpha="14930.804903417571" sparseCutoff=".51275348285461619"/>
      <sparseX i="107" alpha="-22512.605246980198" sparseCutoff=".10605047923280542E-002"/>
      <sparseX i="108" alpha="-25430.503469123221" sparseCutoff=".90635047425419724E-002"/>
      <sparseX i="109" alpha="240392.63845905467" sparseCutoff=".85812257718081431E-002"/>
      <sparseX i="110" alpha="-80044.645764846893" sparseCutoff=".69524106722597123E-002"/>
      <sparseX i="111" alpha="-27129.661437712741" sparseCutoff=".93686783147056030E-001"/>
      <sparseX i="112" alpha="83085.762787254615" sparseCutoff=".23782522026226660E-002"/>
      <sparseX i="113" alpha="6776.5476509095461" sparseCutoff=".80100265133986603E-003"/>
      <sparseX i="114" alpha="65796.642571126737" sparseCutoff="1.0000000000000000"/>
      <sparseX i="115" alpha="-212.71628110287915" sparseCutoff=".39227879167743063E-002"/>
      <sparseX i="116" alpha="64452.293460451277" sparseCutoff=".20890087599528852E-002"/>
      <sparseX i="117" alpha="-1445.1170978683160" sparseCutoff=".37597064794336887E-004"/>
      <sparseX i="118" alpha="-27133.812397734386" sparseCutoff="1.0000000000000000"/>
      <sparseX i="119" alpha="13099.220804565253" sparseCutoff="1.0000000000000000"/>
      <sparseX i="120" alpha="-3918.9864245665203" sparseCutoff="1.0000000000000000"/>
      <sparseX i="121" alpha="-16538.553831819485" sparseCutoff="1.0000000000000000"/>
      <sparseX i="122" alpha="-30078.909094568517" sparseCutoff=".90129133125683325E-001"/>
      <sparseX i="123" alpha="-679.15093470778402" sparseCutoff=".61283063840680374"/>
      <sparseX i="124" alpha="-77280.834270517487" sparseCutoff=".12029835814949438"/>
      <sparseX i="125" alpha="65077.461184275133" sparseCutoff=".15938035514762361E-001"/>
      <sparseX i="126" alpha="34581.952282540085" sparseCutoff=".61558297024313369E-002"/>
      <sparseX i="127" alpha="7111.0796618610348" sparseCutoff="1.0000000000000000"/>
      <sparseX i="128" alpha="48045.604567532384" sparseCutoff=".19822522114227364"/>
      <sparseX i="129" alpha="-5967.9252653930635" sparseCutoff=".99044132473494295"/>
      <sparseX i="130" alpha="2990.7502640194598" sparseCutoff="1.0000000000000000"/>
      <sparseX i="131" alpha="-284678.32228134340" sparseCutoff=".11276173699110326E-001"/>
      <sparseX i="132" alpha="1401.5123844532075" sparseCutoff=".88373197650527553E-004"/>
      <sparseX i="133" alpha="3035.6842648741131" sparseCutoff="1.0000000000000000"/>
      <sparseX i="134" alpha="2000.1643659354384" sparseCutoff="1.0000000000000000"/>
      <sparseX i="135" alpha="-14151.938944412792" sparseCutoff="1.0000000000000000"/>
      <sparseX i="136" alpha="-15030.964644192938" sparseCutoff=".38521341667743447"/>
      <sparseX i="137" alpha="-161853.47908215856" sparseCutoff="1.0000000000000000"/>
      <sparseX i="138" alpha="59094.259698674447" sparseCutoff=".28119318500529167"/>
      <sparseX i="139" alpha="104754.80359963130" sparseCutoff="1.0000000000000000"/>
      <sparseX i="140" alpha="-6358.8422128094380" sparseCutoff=".70184103267850739E-003"/>
      <sparseX i="141" alpha="2763.8754947808534" sparseCutoff=".59819579363790121E-003"/>
      <sparseX i="142" alpha="199177.46581881380" sparseCutoff=".47561797083628676E-001"/>
      <sparseX i="143" alpha="-9288.3720404661181" sparseCutoff=".97297514591253931"/>
      <sparseX i="144" alpha="2097.9140769792234" sparseCutoff=".73859835907579041"/>
      <sparseX i="145" alpha="2.2337044384131040" sparseCutoff=".81933043394367298E-007"/>
      <sparseX i="146" alpha="-1832.2773553577431" sparseCutoff=".12398860400419931E-003"/>
      <sparseX i="147" alpha="-5904.4676153735973" sparseCutoff=".48513014084992129"/>
      <sparseX i="148" alpha="169892.21752055400" sparseCutoff=".12325126971467204E-001"/>
      <sparseX i="149" alpha="-1768.4409731336132" sparseCutoff=".96664116784317211"/>
      <sparseX i="150" alpha="15987.565358181962" sparseCutoff=".43093970043535101E-002"/>
      <sparseX i="151" alpha="16301.526756504651" sparseCutoff=".37230274588982981E-001"/>
      <sparseX i="152" alpha="-667.52003584177930" sparseCutoff=".90649871627745782"/>
      <sparseX i="153" alpha="2547.8983945345985" sparseCutoff=".16749778080860089E-003"/>
      <sparseX i="154" alpha="-13004.216352388998" sparseCutoff=".74068871631466360E-003"/>
      <sparseX i="155" alpha="-37106.459220123630" sparseCutoff="1.0000000000000000"/>
      <sparseX i="156" alpha="6566.2588915851775" sparseCutoff=".15664022580003101E-003"/>
      <sparseX i="157" alpha="-40923.341654426287" sparseCutoff=".19172398564200005"/>
      <sparseX i="158" alpha="448.18070604688347" sparseCutoff="1.0000000000000000"/>
      <sparseX i="159" alpha="-2367.5877474812655" sparseCutoff=".65467293649567493"/>
      <sparseX i="160" alpha="15651.994646192177" sparseCutoff=".30274983550805779"/>
      <sparseX i="161" alpha="-1838.7893216075813" sparseCutoff=".29755482681825818E-003"/>
      <sparseX i="162" alpha="-26657.821615233719" sparseCutoff=".80113541741648542"/>
      <sparseX i="163" alpha="-109051.87164780434" sparseCutoff=".87344301654072010"/>
      <sparseX i="164" alpha="7211.6948180025902" sparseCutoff=".89364306107761737"/>
      <sparseX i="165" alpha="11296.693655502851" sparseCutoff="1.0000000000000000"/>
      <sparseX i="166" alpha="425.92927301728554" sparseCutoff=".73439653967714629E-004"/>
      <sparseX i="167" alpha="6921.4824647670903" sparseCutoff="1.0000000000000000"/>
      <sparseX i="168" alpha="1880.6533102496746" sparseCutoff="1.0000000000000000"/>
      <sparseX i="169" alpha="-28109.359976519572" sparseCutoff="1.0000000000000000"/>
      <sparseX i="170" alpha="-15279.103522750060" sparseCutoff=".16686459645518975"/>
      <sparseX i="171" alpha="4188.9712135200743" sparseCutoff=".51475232816313221E-001"/>
      <sparseX i="172" alpha="64037.529789897329" sparseCutoff=".48351308297839998E-001"/>
      <sparseX i="173" alpha="20668.273318765387" sparseCutoff=".86975551823779175E-002"/>
      <sparseX i="174" alpha="-105446.70861496024" sparseCutoff=".92763551304937408E-001"/>
      <sparseX i="175" alpha="-13988.346667472004" sparseCutoff=".26503119206676917E-001"/>
      <sparseX i="176" alpha="15186.828841174385" sparseCutoff=".23000951105483503E-002"/>
      <sparseX i="177" alpha="27298.408554591304" sparseCutoff=".29699398741361294E-002"/>
      <sparseX i="178" alpha="-3739.2367399365244" sparseCutoff=".35048324047972628E-002"/>
      <sparseX i="179" alpha="99.258012163523304" sparseCutoff=".75759900641004596"/>
      <sparseX i="180" alpha="11448.537159732465" sparseCutoff=".49709841478967653"/>
      <sparseX i="181" alpha="46800.507792724020" sparseCutoff="1.0000000000000000"/>
      <sparseX i="182" alpha="9557.7197467029910" sparseCutoff="1.0000000000000000"/>
      <sparseX i="183" alpha="4931.0501738641315" sparseCutoff=".33622262469320678E-003"/>
      <sparseX i="184" alpha="32334.566082803009" sparseCutoff=".93638197757751418"/>
      <sparseX i="185" alpha="-12613.225222907484" sparseCutoff="1.0000000000000000"/>
      <sparseX i="186" alpha="-87192.110573040205" sparseCutoff=".54015925864224079"/>
      <sparseX i="187" alpha="32999.640183551994" sparseCutoff=".84108176545299340E-001"/>
      <sparseX i="188" alpha="-2732.1619193654501" sparseCutoff=".86111416993410028"/>
      <sparseX i="189" alpha="16469.177458594691" sparseCutoff=".49599270929396866E-002"/>
      <sparseX i="190" alpha="52274.391037671114" sparseCutoff=".87494717134410371E-002"/>
      <sparseX i="191" alpha="756.31896363520366" sparseCutoff="1.0000000000000000"/>
      <sparseX i="192" alpha="-1529.9719668916380" sparseCutoff=".98873246523338509"/>
      <sparseX i="193" alpha="183620.94075887240" sparseCutoff=".57835545070070382E-001"/>
      <sparseX i="194" alpha="204572.70120216819" sparseCutoff=".65901605331974367E-001"/>
      <sparseX i="195" alpha="32935.012203458609" sparseCutoff=".10294685936237946E-002"/>
      <sparseX i="196" alpha="-10900.929456555879" sparseCutoff=".38344197653158996E-002"/>
      <sparseX i="197" alpha="8357.7561823137112" sparseCutoff=".98703065426837433"/>
      <sparseX i="198" alpha="-25957.247697670187" sparseCutoff=".18285095450039268"/>
      <sparseX i="199" alpha="-34439.199263573581" sparseCutoff=".17620604040825577"/>
      <sparseX i="200" alpha="1646.4093786354551" sparseCutoff=".12112478844633623E-003"/>
    </gpCoordinates>
    <gpCoordinates label="GAP_2023_11_27_120_22_26_19_5476" dimensions="3" signal_variance=".10000000000000000E-001" signal_mean=".00000000000000000E+000" sparsified="T" n_permutations="1" covariance_type="4" n_sparseX="200" sparseX_filename="CH.xml.sparseX.GAP_2023_11_27_120_22_26_19_5476" sparseX_md5sum="eba83105be2849fe4f9648dbfaf8ee1c">
      <theta>  0.20000000000000000E+001  0.20000000000000000E+001  0.20000000000000000E+001 </theta>
      <descriptor> angle_3b Z_center=6 Z1=6 Z2=6 cutoff=2.0 n_sparse=200 covariance_type=pp delta=0.01 theta_uniform=2.0 sparse_method=uniform add_species=F</descriptor>
      <permutation i="1">1 2 3  </permutation>
      <sparseX i="1" alpha="5162.0597973348813" sparseCutoff=".96819114574139742"/>
      <sparseX i="2" alpha="405.38375749216362" sparseCutoff=".95013341509736149"/>
      <sparseX i="3" alpha="36723.572229367637" sparseCutoff=".96794492877397720"/>
      <sparseX i="4" alpha="-5912.7656731805655" sparseCutoff=".89410239419108406"/>
      <sparseX i="5" alpha="-500062.77603900427" sparseCutoff=".13627589811085786"/>
      <sparseX i="6" alpha="-33514.196025219098" sparseCutoff=".96762012007449105"/>
      <sparseX i="7" alpha="557292.80186665803" sparseCutoff=".45026848184412938E-001"/>
      <sparseX i="8" alpha="-67407.011223443857" sparseCutoff=".97563251090218062"/>
      <sparseX i="9" alpha="63686.370338653796" sparseCutoff=".28139396592039623"/>
      <sparseX i="10" alpha="-1827747.6627267075" sparseCutoff=".55820505419935107E-002"/>
      <sparseX i="11" alpha="-20803.886537692513" sparseCutoff=".69177555017738927E-003"/>
      <sparseX i="12" alpha="73778.581893483628" sparseCutoff="1.0000000000000000"/>
      <sparseX i="13" alpha="-19161.850039350189" sparseCutoff=".45713121713825100"/>
      <sparseX i="14" alpha="-54273.404068741933" sparseCutoff=".59544505397927627"/>
      <sparseX i="15" alpha="-34487.225919576114" sparseCutoff=".22532517038739732E-003"/>
      <sparseX i="16" alpha="346100.47489520488" sparseCutoff=".46986342214274546E-002"/>
      <sparseX i="17" alpha="-2486.3421590879257" sparseCutoff=".62415001905519882E-004"/>
      <sparseX i="18" alpha="-32537.431151875277" sparseCutoff=".32117059923329572"/>
      <sparseX i="19" alpha="-274579.73735868477" sparseCutoff=".14511512980651836"/>
      <sparseX i="20" alpha="-60.182509437084100" sparseCutoff=".23489577088975366E-006"/>
      <sparseX i="21" alpha="-263142.70681096468" sparseCutoff=".17849943745239027E-001"/>
      <sparseX i="22" alpha="-76748.622122323359" sparseCutoff=".47261410589204661"/>
      <sparseX i="23" alpha="763280.46740538778" sparseCutoff=".57037717655611268E-001"/>
      <sparseX i="24" alpha="3801.4104398511745" sparseCutoff="1.0000000000000000"/>
      <sparseX i="25" alpha="243812.89726002232" sparseCutoff=".56200512939162395E-002"/>
      <sparseX i="26" alpha="259357.90402844790" sparseCutoff=".33393604835061774"/>
      <sparseX i="27" alpha="-298951.94532333349" sparseCutoff=".40330449951360703E-002"/>
      <sparseX i="28" alpha="386106.39308672067" sparseCutoff=".85638614863699503E-001"/>
      <sparseX i="29" alpha="-552415.83797517326" sparseCutoff=".96525152063348774E-001"/>
      <sparseX i="30" alpha="-8319.8091292892368" sparseCutoff=".33724689044345446E-003"/>
      <sparseX i="31" alpha="-17042.663081054819" sparseCutoff=".90384176115907500"/>
      <sparseX i="32" alpha="-151822.22638078389" sparseCutoff="1.0000000000000000"/>
      <sparseX i="33" alpha="32034.727383073718" sparseCutoff="1.0000000000000000"/>
      <sparseX i="34" alpha="54787.607159244515" sparseCutoff="1.0000000000000000"/>
      <sparseX i="35" alpha="-6381.0554152428595" sparseCutoff=".33724689044345446E-003"/>
      <sparseX i="36" alpha="-14945.853896103667" sparseCutoff="1.0000000000000000"/>
      <sparseX i="37" alpha="40696.724674606434" sparseCutoff="1.0000000000000000"/>
      <sparseX i="38" alpha="-45486.662503644337" sparseCutoff=".91937507593611523"/>
      <sparseX i="39" alpha="-26471.848506596798" sparseCutoff=".91937507593611523"/>
      <sparseX i="40" alpha="-28594.951381801111" sparseCutoff="1.0000000000000000"/>
      <sparseX i="41" alpha="301572.47499624401" sparseCutoff=".91937507593611523"/>
      <sparseX i="42" alpha="-53819.454163071598" sparseCutoff="1.0000000000000000"/>
      <sparseX i="43" alpha="-32105.657375570630" sparseCutoff=".96646523829121400"/>
      <sparseX i="44" alpha="74647.773948895730" sparseCutoff=".45243300490887289"/>
      <sparseX i="45" alpha="-2870.6290923015113" sparseCutoff="1.0000000000000000"/>
      <sparseX i="46" alpha="-48933.250446137499" sparseCutoff=".90280886115108705"/>
      <sparseX i="47" alpha="-125815.26317592882" sparseCutoff=".28990779937702771E-001"/>
      <sparseX i="48" alpha="-322365.10295015783" sparseCutoff=".52391160011744375E-002"/>
      <sparseX i="49" alpha="58035.239339753236" sparseCutoff=".52391160011744375E-002"/>
      <sparseX i="50" alpha="-132527.86621879737" sparseCutoff=".97775385483085842"/>
      <sparseX i="51" alpha="-151551.92132901380" sparseCutoff="1.0000000000000000"/>
      <sparseX i="52" alpha="29820.443547452138" sparseCutoff=".77692553555414046E-003"/>
      <sparseX i="53" alpha="10208.198149942267" sparseCutoff=".77692553555414046E-003"/>
      <sparseX i="54" alpha="35303.322984955579" sparseCutoff=".77692553555414046E-003"/>
      <sparseX i="55" alpha="-19532.904350287183" sparseCutoff=".77692553555414046E-003"/>
      <sparseX i="56" alpha="-55097.415948282767" sparseCutoff="1.0000000000000000"/>
      <sparseX i="57" alpha="14038.732175378756" sparseCutoff=".33724689044345446E-003"/>
      <sparseX i="58" alpha="134258.34640314116" sparseCutoff=".52391160011744375E-002"/>
      <sparseX i="59" alpha="1074.5568504866692" sparseCutoff="1.0000000000000000"/>
      <sparseX i="60" alpha="-8704.8685760436911" sparseCutoff=".10246419023480779E-002"/>
      <sparseX i="61" alpha="6356.0684927684679" sparseCutoff=".49830101546905392"/>
      <sparseX i="62" alpha="31503.330907860978" sparseCutoff=".43848814915720125E-003"/>
      <sparseX i="63" alpha="-27199.479226885578" sparseCutoff=".51576003085562760E-003"/>
      <sparseX i="64" alpha="-73095.467947572615" sparseCutoff=".19372701160032535E-002"/>
      <sparseX i="65" alpha="4941.4904841278367" sparseCutoff="1.0000000000000000"/>
      <sparseX i="66" alpha="50620.109593561152" sparseCutoff="1.0000000000000000"/>
      <sparseX i="67" alpha="12455.615230568246" sparseCutoff="1.0000000000000000"/>
      <sparseX i="68" alpha="-3942.1715044787975" sparseCutoff=".89120534246867056E-004"/>
      <sparseX i="69" alpha="855958.76772401435" sparseCutoff=".44508976997389760E-001"/>
      <sparseX i="70" alpha="334325.77081329445" sparseCutoff=".15194715122461572"/>
      <sparseX i="71" alpha="27349.770282314777" sparseCutoff=".88582970457134180"/>
      <sparseX i="72" alpha="-206342.59744019600" sparseCutoff=".38925812166088658"/>
      <sparseX i="73" alpha="-75906.503125243660" sparseCutoff=".46976661259690022E-003"/>
      <sparseX i="74" alpha="-5074.9133783222114" sparseCutoff=".99591513664717835"/>
      <sparseX i="75" alpha="-127341.61968381413" sparseCutoff=".87462603243588899"/>
      <sparseX i="76" alpha="906023.41108831891" sparseCutoff=".16281380633155287E-001"/>
      <sparseX i="77" alpha="-196932.76386318542" sparseCutoff=".17223689322103153"/>
      <sparseX i="78" alpha="97310.248896373785" sparseCutoff=".17223689322103153"/>
      <sparseX i="79" alpha="-518937.55352966260" sparseCutoff=".44258361762388787E-001"/>
      <sparseX i="80" alpha="-68671.371720097508" sparseCutoff=".29291628662377334E-002"/>
      <sparseX i="81" alpha="24054.102183161493" sparseCutoff=".67010595244826687"/>
      <sparseX i="82" alpha="446.49264610972779" sparseCutoff=".86118420334747536"/>
      <sparseX i="83" alpha="-8926.5432992091537" sparseCutoff="1.0000000000000000"/>
      <sparseX i="84" alpha="52365.693144112978" sparseCutoff="1.0000000000000000"/>
      <sparseX i="85" alpha="29847.985455138449" sparseCutoff="1.0000000000000000"/>
      <sparseX i="86" alpha="-37257.794416819896" sparseCutoff="1.0000000000000000"/>
      <sparseX i="87" alpha="-152676.12230932870" sparseCutoff=".96959509830275481"/>
      <sparseX i="88" alpha="-594890.41694937542" sparseCutoff=".50871880654908164E-001"/>
      <sparseX i="89" alpha="-49404.711353483835" sparseCutoff=".19440598079784083"/>
      <sparseX i="90" alpha="-256869.13856099479" sparseCutoff=".33228192322668601E-002"/>
      <sparseX i="91" alpha="4504.2971793253819" sparseCutoff="1.0000000000000000"/>
      <sparseX i="92" alpha="46961.532050955248" sparseCutoff=".12179473945453861"/>
      <sparseX i="93" alpha="-59472.474485218961" sparseCutoff=".65264380572697744"/>
      <sparseX i="94" alpha="53877.174475452543" sparseCutoff=".69532162575602252"/>
      <sparseX i="95" alpha="29642.011020720394" sparseCutoff=".43882005237703225"/>
      <sparseX i="96" alpha="170697.32393156295" sparseCutoff=".99472384899911148"/>
      <sparseX i="97" alpha="106019.90557125579" sparseCutoff=".69082767864316319"/>
      <sparseX i="98" alpha="-570.26771797816764" sparseCutoff=".99833962231754592"/>
      <sparseX i="99" alpha="-147781.91156895141" sparseCutoff=".98813655315544424E-001"/>
      <sparseX i="100" alpha="-2857085.3267059457" sparseCutoff=".11657471550303141E-001"/>
      <sparseX i="101" alpha="375939.39379047905" sparseCutoff=".16722144129816818"/>
      <sparseX i="102" alpha="125146.12795968875" sparseCutoff=".82990950925782880"/>
      <sparseX i="103" alpha="690393.85103354289" sparseCutoff=".74789842552327656E-002"/>
      <sparseX i="104" alpha="-790284.66298807296" sparseCutoff=".21498252656536154E-001"/>
      <sparseX i="105" alpha="170.40084925838289" sparseCutoff=".12250969046445626E-005"/>
      <sparseX i="106" alpha="186.77105068667632" sparseCutoff=".39753034148659605E-004"/>
      <sparseX i="107" alpha="437743.53309115447" sparseCutoff=".37965795683745640E-001"/>
      <sparseX i="108" alpha="-158801.25366991939" sparseCutoff=".30855893780541199"/>
      <sparseX i="109" alpha="-370608.41097726452" sparseCutoff=".39809991074009621E-001"/>
      <sparseX i="110" alpha="-616092.94412185904" sparseCutoff=".10336737754683373"/>
      <sparseX i="111" alpha="55952.732858169125" sparseCutoff=".15005615943734039E-002"/>
      <sparseX i="112" alpha="-181020.05141614412" sparseCutoff=".44949092577221961E-001"/>
      <sparseX i="113" alpha="221772.86601814601" sparseCutoff=".38521268703582306"/>
      <sparseX i="114" alpha="-1336.0068647124012" sparseCutoff=".56717586170551865E-005"/>
      <sparseX i="115" alpha="-36958.858343735621" sparseCutoff=".48804281965204449E-002"/>
      <sparseX i="116" alpha="316003.24957249645" sparseCutoff=".23592209239107459"/>
      <sparseX i="117" alpha="-778940.48834505107" sparseCutoff=".14231286197744941E-001"/>
      <sparseX i="118" alpha="-309386.10879515839" sparseCutoff=".21025052033158054"/>
      <sparseX i="119" alpha="-476500.95347122953" sparseCutoff=".13409629617989749E-002"/>
      <sparseX i="120" alpha="-333313.25318443537" sparseCutoff=".40171622510335625"/>
      <sparseX i="121" alpha="88888.945540427798" sparseCutoff=".18555232312266190E-002"/>
      <sparseX i="122" alpha="-34685.560755125334" sparseCutoff=".23164089961182910E-002"/>
      <sparseX i="123" alpha="-775818.55378603691" sparseCutoff=".11380628529319037E-001"/>
      <sparseX i="124" alpha="576503.66285656299" sparseCutoff=".61928657130932430E-002"/>
      <sparseX i="125" alpha="100522.18292717211" sparseCutoff="1.0000000000000000"/>
      <sparseX i="126" alpha="-35715.723081592376" sparseCutoff="1.0000000000000000"/>
      <sparseX i="127" alpha="-42388.271438859469" sparseCutoff=".67606131723310525"/>
      <sparseX i="128" alpha="18348.824948620317" sparseCutoff=".84463407587553541"/>
      <sparseX i="129" alpha="-21592.561949299899" sparseCutoff="1.0000000000000000"/>
      <sparseX i="130" alpha="16427.898768134306" sparseCutoff="1.0000000000000000"/>
      <sparseX i="131" alpha="-291562.67273229407" sparseCutoff=".21030589194678095E-001"/>
      <sparseX i="132" alpha="5338.0088949006895" sparseCutoff=".96370445722680853"/>
      <sparseX i="133" alpha="70346.320853030891" sparseCutoff=".95215710871640069"/>
      <sparseX i="134" alpha="-45190.405361101533" sparseCutoff=".55778426168829209"/>
      <sparseX i="135" alpha="1186783.6492227151" sparseCutoff=".85490983854527802E-001"/>
      <sparseX i="136" alpha="1687.7498891576117" sparseCutoff=".66701754212759368E-001"/>
      <sparseX i="137" alpha="44331.291612929956" sparseCutoff=".52639589466992787"/>
      <sparseX i="138" alpha="71581.241167692206" sparseCutoff=".98012817962359611"/>
      <sparseX i="139" alpha="113.68781277917233" sparseCutoff=".17864030431580247E-005"/>
      <sparseX i="140" alpha="603739.26878663374" sparseCutoff=".12760858613312315"/>
      <sparseX i="141" alpha="-11579.824769088958" sparseCutoff=".66665715961393712"/>
      <sparseX i="142" alpha="84489.735658167367" sparseCutoff="1.0000000000000000"/>
      <sparseX i="143" alpha="-142085.06703587883" sparseCutoff="1.0000000000000000"/>
      <sparseX i="144" alpha="38175.716774761393" sparseCutoff="1.0000000000000000"/>
      <sparseX i="145" alpha="-12937.710373518694" sparseCutoff=".24396721641238350E-001"/>
      <sparseX i="146" alpha="35471.216143494625" sparseCutoff=".67547127948747232E-001"/>
      <sparseX i="147" alpha="-718588.09964990022" sparseCutoff=".40845558627219281E-001"/>
      <sparseX i="148" alpha="253802.25146768926" sparseCutoff=".15499815820736174"/>
      <sparseX i="149" alpha="39588.015940234305" sparseCutoff=".25296178194339491E-003"/>
      <sparseX i="150" alpha="-9048.1987658554190" sparseCutoff="1.0000000000000000"/>
      <sparseX i="151" alpha="-2588.7209720810984" sparseCutoff=".11777177750349072E-003"/>
      <sparseX i="152" alpha="109478.23128167322" sparseCutoff="1.0000000000000000"/>
      <sparseX i="153" alpha="-18255.246804252223" sparseCutoff="1.0000000000000000"/>
      <sparseX i="154" alpha="19644.025232290471" sparseCutoff="1.0000000000000000"/>
      <sparseX i="155" alpha="84079.195706339378" sparseCutoff="1.0000000000000000"/>
      <sparseX i="156" alpha="54153.317325912147" sparseCutoff=".47912154361687952E-002"/>
      <sparseX i="157" alpha="163980.50072618658" sparseCutoff=".33981546989667044E-002"/>
      <sparseX i="158" alpha="20789.964226796674" sparseCutoff=".30976176035637992"/>
      <sparseX i="159" alpha="41753.692339985253" sparseCutoff=".71994041723717694"/>
      <sparseX i="160" alpha="454940.68818814761" sparseCutoff=".15228741261328838E-001"/>
      <sparseX i="161" alpha="-425030.59525003150" sparseCutoff=".18003185304975472"/>
      <sparseX i="162" alpha="11819.828813981730" sparseCutoff="1.0000000000000000"/>
      <sparseX i="163" alpha="-7661.2827712583758" sparseCutoff="1.0000000000000000"/>
      <sparseX i="164" alpha="42957.263813825033" sparseCutoff=".66915697939528063"/>
      <sparseX i="165" alpha="-237375.63187690818" sparseCutoff="1.0000000000000000"/>
      <sparseX i="166" alpha="-24994.262473784624" sparseCutoff=".50587875286306794"/>
      <sparseX i="167" alpha="-69131.138698825060" sparseCutoff="1.0000000000000000"/>
      <sparseX i="168" alpha="-300510.91538485937" sparseCutoff=".89271353575370860"/>
      <sparseX i="169" alpha="147221.79825091179" sparseCutoff="1.0000000000000000"/>
      <sparseX i="170" alpha="37875.001944840114" sparseCutoff=".85232009690084243"/>
      <sparseX i="171" alpha="162117.07931568715" sparseCutoff=".97100875598948311"/>
      <sparseX i="172" alpha="89373.484877107592" sparseCutoff="1.0000000000000000"/>
      <sparseX i="173" alpha="9255.8178454259323" sparseCutoff="1.0000000000000000"/>
      <sparseX i="174" alpha="19406.089768582777" sparseCutoff=".92580060533307806"/>
      <sparseX i="175" alpha="24025.748266259718" sparseCutoff=".96730941210088095"/>
      <sparseX i="176" alpha="100838.51996702972" sparseCutoff=".85820524155559519"/>
      <sparseX i="177" alpha="-40882.825357768488" sparseCutoff="1.0000000000000000"/>
      <sparseX i="178" alpha="-60409.713574863788" sparseCutoff=".95979044099230315"/>
      <sparseX i="179" alpha="-10563.442466727107" sparseCutoff="1.0000000000000000"/>
      <sparseX i="180" alpha="-271501.91627445625" sparseCutoff=".73640250750781622E-002"/>
      <sparseX i="181" alpha="7327.3970144426621" sparseCutoff=".20838146943485958E-003"/>
      <sparseX i="182" alpha="1081266.3936065352" sparseCutoff=".42070477856575972E-001"/>
      <sparseX i="183" alpha="59834.873645453990" sparseCutoff=".59559747642015515"/>
      <sparseX i="184" alpha="-62326.145107841199" sparseCutoff="1.0000000000000000"/>
      <sparseX i="185" alpha="77367.807260525791" sparseCutoff=".78673800680818706"/>
      <sparseX i="186" alpha="51250.070965831823" sparseCutoff=".99768088357791451"/>
      <sparseX i="187" alpha="-27858.985510884835" sparseCutoff=".96321951051934895"/>
      <sparseX i="188" alpha="-90345.143633275031" sparseCutoff=".18299751252889679"/>
      <sparseX i="189" alpha="-68323.926868430251" sparseCutoff=".89919480237362837"/>
      <sparseX i="190" alpha="21755.747544076625" sparseCutoff="1.0000000000000000"/>
      <sparseX i="191" alpha="-27868.485541363643" sparseCutoff="1.0000000000000000"/>
      <sparseX i="192" alpha="17560.882622424564" sparseCutoff=".42548067644438477E-003"/>
      <sparseX i="193" alpha="-10056.010430023476" sparseCutoff=".35756741469741771"/>
      <sparseX i="194" alpha="-607743.70218808146" sparseCutoff=".36966509060057384E-002"/>
      <sparseX i="195" alpha="1274.2068106458441" sparseCutoff=".95092873227303476"/>
      <sparseX i="196" alpha="-57959.441910498288" sparseCutoff=".82778754988236991"/>
      <sparseX i="197" alpha="27937.269561245481" sparseCutoff=".33688230662131097"/>
      <sparseX i="198" alpha="-14881.226099187847" sparseCutoff="1.0000000000000000"/>
      <sparseX i="199" alpha="27846.149575246753" sparseCutoff="1.0000000000000000"/>
      <sparseX i="200" alpha="-632384.60503882368" sparseCutoff=".21604556870300478E-001"/>
    </gpCoordinates>
    <gpCoordinates label="GAP_2023_11_27_120_22_26_19_5477" dimensions="279" signal_variance=".10000000000000001E+000" signal_mean=".00000000000000000E+000" sparsified="T" n_permutations="1" covariance_type="2" zeta="4.0000000000000000" n_sparseX="7313" sparseX_filename="CH.xml.sparseX.GAP_2023_11_27_120_22_26_19_5477" sparseX_md5sum="913a6ea823d3598d20ae71079f42a009">
      <descriptor> soap_turbo l_max=8 alpha_max={8 8} atom_sigma_r={0.2 0.2} atom_sigma_t={0.2 0.2} atom_sigma_r_scaling={0.1 0.1} atom_sigma_t_scaling={0.1 0.1} zeta=4 rcut_hard=5.0 rcut_soft=4.5 basis=poly3gauss scaling_mode=polynomial add_species=F amplitude_scaling={2.0 2.0} n_species=2 species_Z={1 6} central_index=1 radial_enhancement=1 compress_mode=trivial central_weight={1.0 1.0} config_type_n_sparse=dimers:84:trimers:200:soup:700:qm9:100:qm9_dist:150:diss:50:quench:600:mol_quench:1000:hpress:2000:chains:200:interacting_molecules:1000:difficult_molecules:1000:benzene_dimer:1000 delta=0.1 f0=0.0 covariance_type=dot_product sparse_method=cur_points</descriptor>
      <permutation i="1">1  </permutation>
      <sparseX i="1" alpha="122096.86257761670" sparseCutoff="1.0000000000000000"/>
      <sparseX i="2" alpha="-19867.860038043611" sparseCutoff="1.0000000000000000"/>
      <sparseX i="3" alpha="171576.51923613020" sparseCutoff="1.0000000000000000"/>
      <sparseX i="4" alpha="-28085.679785705615" sparseCutoff="1.0000000000000000"/>
      <sparseX i="5" alpha="54701.187099961244" sparseCutoff="1.0000000000000000"/>
      <sparseX i="6" alpha="21001.813583651940" sparseCutoff="1.0000000000000000"/>
      <sparseX i="7" alpha="99835.811664480323" sparseCutoff="1.0000000000000000"/>
      <sparseX i="8" alpha="-41160.027355715065" sparseCutoff="1.0000000000000000"/>
      <sparseX i="9" alpha="74182.344230161121" sparseCutoff="1.0000000000000000"/>
      <sparseX i="10" alpha="99223.129068107810" sparseCutoff="1.0000000000000000"/>
      <sparseX i="11" alpha="74725.195705250691" sparseCutoff="1.0000000000000000"/>
      <sparseX i="12" alpha="-63304.496480307425" sparseCutoff="1.0000000000000000"/>
      <sparseX i="13" alpha="-42204.582881859540" sparseCutoff="1.0000000000000000"/>
      <sparseX i="14" alpha="-92689.749329661761" sparseCutoff="1.0000000000000000"/>
      <sparseX i="15" alpha="-74151.282987909377" sparseCutoff="1.0000000000000000"/>
      <sparseX i="16" alpha="-36150.783928508012" sparseCutoff="1.0000000000000000"/>
      <sparseX i="17" alpha="106312.94448958711" sparseCutoff="1.0000000000000000"/>
      <sparseX i="18" alpha="-7002.0400290987909" sparseCutoff="1.0000000000000000"/>
      <sparseX i="19" alpha="-73365.773636757382" sparseCutoff="1.0000000000000000"/>
      <sparseX i="20" alpha="-11842.213547324613" sparseCutoff="1.0000000000000000"/>
      <sparseX i="21" alpha="16840.492903133796" sparseCutoff="1.0000000000000000"/>
      <sparseX i="22" alpha="-36782.471873826500" sparseCutoff="1.0000000000000000"/>
      <sparseX i="23" alpha="-229423.20884120258" sparseCutoff="1.0000000000000000"/>
      <sparseX i="24" alpha="-100434.13746791633" sparseCutoff="1.0000000000000000"/>
      <sparseX i="25" alpha="1559.0716500498309" sparseCutoff="1.0000000000000000"/>
      <sparseX i="26" alpha="8814.6115456143798" sparseCutoff="1.0000000000000000"/>
      <sparseX i="27" alpha="12617.459614737978" sparseCutoff="1.0000000000000000"/>
      <sparseX i="28" alpha="11256.153426308449" sparseCutoff="1.0000000000000000"/>
      <sparseX i="29" alpha="-6500.8204146258722" sparseCutoff="1.0000000000000000"/>
      <sparseX i="30" alpha="10230.376543964252" sparseCutoff="1.0000000000000000"/>
      <sparseX i="31" alpha="3404.1789534532600" sparseCutoff="1.0000000000000000"/>
      <sparseX i="32" alpha="-13162.562630834000" sparseCutoff="1.0000000000000000"/>
      <sparseX i="33" alpha="8832.6609320072566" sparseCutoff="1.0000000000000000"/>
      <sparseX i="34" alpha="-9576.0796161282724" sparseCutoff="1.0000000000000000"/>
      <sparseX i="35" alpha="6646.4781931081934" sparseCutoff="1.0000000000000000"/>
      <sparseX i="36" alpha="-1.7170653588027442" sparseCutoff="1.0000000000000000"/>
      <sparseX i="37" alpha="-1103.2576961839900" sparseCutoff="1.0000000000000000"/>
      <sparseX i="38" alpha="-12094.724986030395" sparseCutoff="1.0000000000000000"/>
      <sparseX i="39" alpha="13476.148175515902" sparseCutoff="1.0000000000000000"/>
      <sparseX i="40" alpha="-7991.9739949672212" sparseCutoff="1.0000000000000000"/>
      <sparseX i="41" alpha="2607.3013585594072" sparseCutoff="1.0000000000000000"/>
      <sparseX i="42" alpha="6628.2618436440107" sparseCutoff="1.0000000000000000"/>
      <sparseX i="43" alpha="4206.7141698362357" sparseCutoff="1.0000000000000000"/>
      <sparseX i="44" alpha="-152.47773450105046" sparseCutoff="1.0000000000000000"/>
      <sparseX i="45" alpha="-585.90576964325714" sparseCutoff="1.0000000000000000"/>
      <sparseX i="46" alpha="3058.3435744880662" sparseCutoff="1.0000000000000000"/>
      <sparseX i="47" alpha="-8891.6317712094733" sparseCutoff="1.0000000000000000"/>
      <sparseX i="48" alpha="2161.6608091917824" sparseCutoff="1.0000000000000000"/>
      <sparseX i="49" alpha="-5781.3218722953861" sparseCutoff="1.0000000000000000"/>
      <sparseX i="50" alpha="34099.271513958636" sparseCutoff="1.0000000000000000"/>
      <sparseX i="51" alpha="13479.782235366476" sparseCutoff="1.0000000000000000"/>
      <sparseX i="52" alpha="-29483.802207240398" sparseCutoff="1.0000000000000000"/>
      <sparseX i="53" alpha="-8730.5482757977825" sparseCutoff="1.0000000000000000"/>
      <sparseX i="54" alpha="-8028.8412833973116" sparseCutoff="1.0000000000000000"/>
      <sparseX i="55" alpha="30998.369477350421" sparseCutoff="1.0000000000000000"/>
      <sparseX i="56" alpha="7890.5818679703680" sparseCutoff="1.0000000000000000"/>
      <sparseX i="57" alpha="-144523.47043763721" sparseCutoff="1.0000000000000000"/>
      <sparseX i="58" alpha="-38400.012840319854" sparseCutoff="1.0000000000000000"/>
      <sparseX i="59" alpha="-77346.645804071042" sparseCutoff="1.0000000000000000"/>
      <sparseX i="60" alpha="-96267.824119366764" sparseCutoff="1.0000000000000000"/>
      <sparseX i="61" alpha="102233.75977574664" sparseCutoff="1.0000000000000000"/>
      <sparseX i="62" alpha="-15445.060990466080" sparseCutoff="1.0000000000000000"/>
      <sparseX i="63" alpha="74438.943172770902" sparseCutoff="1.0000000000000000"/>
      <sparseX i="64" alpha="-72632.678931411792" sparseCutoff="1.0000000000000000"/>
      <sparseX i="65" alpha="-38436.501083773539" sparseCutoff="1.0000000000000000"/>
      <sparseX i="66" alpha="47309.933013126218" sparseCutoff="1.0000000000000000"/>
      <sparseX i="67" alpha="9028.3180823921739" sparseCutoff="1.0000000000000000"/>
      <sparseX i="68" alpha="82603.296580102207" sparseCutoff="1.0000000000000000"/>
      <sparseX i="69" alpha="3045.3636256791569" sparseCutoff="1.0000000000000000"/>
      <sparseX i="70" alpha="18998.977699816391" sparseCutoff="1.0000000000000000"/>
      <sparseX i="71" alpha="73262.330159501056" sparseCutoff="1.0000000000000000"/>
      <sparseX i="72" alpha="19021.498732862379" sparseCutoff="1.0000000000000000"/>
      <sparseX i="73" alpha="82647.934877465421" sparseCutoff="1.0000000000000000"/>
      <sparseX i="74" alpha="-1836.4308561244079" sparseCutoff="1.0000000000000000"/>
      <sparseX i="75" alpha="12520.279277591340" sparseCutoff="1.0000000000000000"/>
      <sparseX i="76" alpha="-133694.28967527268" sparseCutoff="1.0000000000000000"/>
      <sparseX i="77" alpha="7246.0369633024247" sparseCutoff="1.0000000000000000"/>
      <sparseX i="78" alpha="124079.90034367713" sparseCutoff="1.0000000000000000"/>
      <sparseX i="79" alpha="88204.928275344922" sparseCutoff="1.0000000000000000"/>
      <sparseX i="80" alpha="47209.589966821804" sparseCutoff="1.0000000000000000"/>
      <sparseX i="81" alpha="73743.362650999028" sparseCutoff="1.0000000000000000"/>
      <sparseX i="82" alpha="-165010.73384216390" sparseCutoff="1.0000000000000000"/>
      <sparseX i="83" alpha="132569.69167939358" sparseCutoff="1.0000000000000000"/>
      <sparseX i="84" alpha="68257.286633095937" sparseCutoff="1.0000000000000000"/>
      <sparseX i="85" alpha="-93850.596805366440" sparseCutoff="1.0000000000000000"/>
      <sparseX i="86" alpha="-72882.507555126969" sparseCutoff="1.0000000000000000"/>
      <sparseX i="87" alpha="-33345.772422512535" sparseCutoff="1.0000000000000000"/>
      <sparseX i="88" alpha="10672.846509391165" sparseCutoff="1.0000000000000000"/>
      <sparseX i="89" alpha="170346.93421866006" sparseCutoff="1.0000000000000000"/>
      <sparseX i="90" alpha="80732.520688507691" sparseCutoff="1.0000000000000000"/>
      <sparseX i="91" alpha="-122879.15081226864" sparseCutoff="1.0000000000000000"/>
      <sparseX i="92" alpha="6273.6182938651673" sparseCutoff="1.0000000000000000"/>
      <sparseX i="93" alpha="-107586.05279345981" sparseCutoff="1.0000000000000000"/>
      <sparseX i="94" alpha="-113555.56080856493" sparseCutoff="1.0000000000000000"/>
      <sparseX i="95" alpha="-196752.30551343123" sparseCutoff="1.0000000000000000"/>
      <sparseX i="96" alpha="-156653.60599789451" sparseCutoff="1.0000000000000000"/>
      <sparseX i="97" alpha="-57596.735507434387" sparseCutoff="1.0000000000000000"/>
      <sparseX i="98" alpha="-77649.969661274998" sparseCutoff="1.0000000000000000"/>
      <sparseX i="99" alpha="-7923.0068018221309" sparseCutoff="1.0000000000000000"/>
      <sparseX i="100" alpha="-71780.137395649654" sparseCutoff="1.0000000000000000"/>
      <sparseX i="101" alpha="145237.36709587931" sparseCutoff="1.0000000000000000"/>
      <sparseX i="102" alpha="-120367.84537416913" sparseCutoff="1.0000000000000000"/>
      <sparseX i="103" alpha="-69319.789099365415" sparseCutoff="1.0000000000000000"/>
      <sparseX i="104" alpha="-42781.018479116901" sparseCutoff="1.0000000000000000"/>
      <sparseX i="105" alpha="-14804.084490156181" sparseCutoff="1.0000000000000000"/>
      <sparseX i="106" alpha="12198.006538007567" sparseCutoff="1.0000000000000000"/>
      <sparseX i="107" alpha="-17171.928270038810" sparseCutoff="1.0000000000000000"/>
      <sparseX i="108" alpha="-5331.5187641665079" sparseCutoff="1.0000000000000000"/>
      <sparseX i="109" alpha="-9952.9166928426275" sparseCutoff="1.0000000000000000"/>
      <sparseX i="110" alpha="-4731.9642251506266" sparseCutoff="1.0000000000000000"/>
      <sparseX i="111" alpha="-13282.557566906784" sparseCutoff="1.0000000000000000"/>
      <sparseX i="112" alpha="-11232.285595446123" sparseCutoff="1.0000000000000000"/>
      <sparseX i="113" alpha="-38599.976589068923" sparseCutoff="1.0000000000000000"/>
      <sparseX i="114" alpha="-4536.0423089642109" sparseCutoff="1.0000000000000000"/>
      <sparseX i="115" alpha="-25829.854614672637" sparseCutoff="1.0000000000000000"/>
      <sparseX i="116" alpha="-69336.424490039513" sparseCutoff="1.0000000000000000"/>
      <sparseX i="117" alpha="-3097.5061237199011" sparseCutoff="1.0000000000000000"/>
      <sparseX i="118" alpha="3764.6536675097936" sparseCutoff="1.0000000000000000"/>
      <sparseX i="119" alpha="9469.3479306684494" sparseCutoff="1.0000000000000000"/>
      <sparseX i="120" alpha="21375.055801335398" sparseCutoff="1.0000000000000000"/>
      <sparseX i="121" alpha="20239.989994029860" sparseCutoff="1.0000000000000000"/>
      <sparseX i="122" alpha="-29144.442818102030" sparseCutoff="1.0000000000000000"/>
      <sparseX i="123" alpha="-72380.614627474191" sparseCutoff="1.0000000000000000"/>
      <sparseX i="124" alpha="1978.8115883527489" sparseCutoff="1.0000000000000000"/>
      <sparseX i="125" alpha="-26729.429174674071" sparseCutoff="1.0000000000000000"/>
      <sparseX i="126" alpha="-108888.25290844432" sparseCutoff="1.0000000000000000"/>
      <sparseX i="127" alpha="35014.956905189807" sparseCutoff="1.0000000000000000"/>
      <sparseX i="128" alpha="41604.589827238196" sparseCutoff="1.0000000000000000"/>
      <sparseX i="129" alpha="-46040.034233495338" sparseCutoff="1.0000000000000000"/>
      <sparseX i="130" alpha="44169.564627816144" sparseCutoff="1.0000000000000000"/>
      <sparseX i="131" alpha="3029.3060392045581" sparseCutoff="1.0000000000000000"/>
      <sparseX i="132" alpha="57097.353583192504" sparseCutoff="1.0000000000000000"/>
      <sparseX i="133" alpha="34406.533898695510" sparseCutoff="1.0000000000000000"/>
      <sparseX i="134" alpha="-117108.53437204732" sparseCutoff="1.0000000000000000"/>
      <sparseX i="135" alpha="88543.857995668572" sparseCutoff="1.0000000000000000"/>
      <sparseX i="136" alpha="141780.65137976923" sparseCutoff="1.0000000000000000"/>
      <sparseX i="137" alpha="69019.609810557493" sparseCutoff="1.0000000000000000"/>
      <sparseX i="138" alpha="36266.586671288358" sparseCutoff="1.0000000000000000"/>
      <sparseX i="139" alpha="-6145.8371015674629" sparseCutoff="1.0000000000000000"/>
      <sparseX i="140" alpha="73508.314242666078" sparseCutoff="1.0000000000000000"/>
      <sparseX i="141" alpha="27414.814929885990" sparseCutoff="1.0000000000000000"/>
      <sparseX i="142" alpha="67607.892835787876" sparseCutoff="1.0000000000000000"/>
      <sparseX i="143" alpha="27430.716282275669" sparseCutoff="1.0000000000000000"/>
      <sparseX i="144" alpha="73542.084257290699" sparseCutoff="1.0000000000000000"/>
      <sparseX i="145" alpha="-173812.15494420807" sparseCutoff="1.0000000000000000"/>
      <sparseX i="146" alpha="145983.71115149630" sparseCutoff="1.0000000000000000"/>
      <sparseX i="147" alpha="29431.006882038499" sparseCutoff="1.0000000000000000"/>
      <sparseX i="148" alpha="107702.29162233164" sparseCutoff="1.0000000000000000"/>
      <sparseX i="149" alpha="28943.096601361056" sparseCutoff="1.0000000000000000"/>
      <sparseX i="150" alpha="43766.166520226492" sparseCutoff="1.0000000000000000"/>
      <sparseX i="151" alpha="-9063.2816914457690" sparseCutoff="1.0000000000000000"/>
      <sparseX i="152" alpha="111410.56516268589" sparseCutoff="1.0000000000000000"/>
      <sparseX i="153" alpha="3391.6146292735589" sparseCutoff="1.0000000000000000"/>
      <sparseX i="154" alpha="240713.35261015361" sparseCutoff="1.0000000000000000"/>
      <sparseX i="155" alpha="44705.337545154602" sparseCutoff="1.0000000000000000"/>
      <sparseX i="156" alpha="89816.591004464775" sparseCutoff="1.0000000000000000"/>
      <sparseX i="157" alpha="61136.554705063114" sparseCutoff="1.0000000000000000"/>
      <sparseX i="158" alpha="-22422.626650165948" sparseCutoff="1.0000000000000000"/>
      <sparseX i="159" alpha="71610.024387144309" sparseCutoff="1.0000000000000000"/>
      <sparseX i="160" alpha="-24529.129871062643" sparseCutoff="1.0000000000000000"/>
      <sparseX i="161" alpha="41031.240748777993" sparseCutoff="1.0000000000000000"/>
      <sparseX i="162" alpha="214534.74760971116" sparseCutoff="1.0000000000000000"/>
      <sparseX i="163" alpha="151672.72176434935" sparseCutoff="1.0000000000000000"/>
      <sparseX i="164" alpha="222691.86038596215" sparseCutoff="1.0000000000000000"/>
      <sparseX i="165" alpha="10595.298745217842" sparseCutoff="1.0000000000000000"/>
      <sparseX i="166" alpha="65744.586532590634" sparseCutoff="1.0000000000000000"/>
      <sparseX i="167" alpha="120190.95872792366" sparseCutoff="1.0000000000000000"/>
      <sparseX i="168" alpha="-15997.270838327373" sparseCutoff="1.0000000000000000"/>
      <sparseX i="169" alpha="-32515.183123282317" sparseCutoff="1.0000000000000000"/>
      <sparseX i="170" alpha="-12614.488691274968" sparseCutoff="1.0000000000000000"/>
      <sparseX i="171" alpha="12290.766119887390" sparseCutoff="1.0000000000000000"/>
      <sparseX i="172" alpha="41717.174752692823" sparseCutoff="1.0000000000000000"/>
      <sparseX i="173" alpha="-19250.675676480816" sparseCutoff="1.0000000000000000"/>
      <sparseX i="174" alpha="-17082.506166745105" sparseCutoff="1.0000000000000000"/>
      <sparseX i="175" alpha="-178017.29651375045" sparseCutoff="1.0000000000000000"/>
      <sparseX i="176" alpha="-16489.626492723772" sparseCutoff="1.0000000000000000"/>
      <sparseX i="177" alpha="32355.553855136430" sparseCutoff="1.0000000000000000"/>
      <sparseX i="178" alpha="39661.191690728818" sparseCutoff="1.0000000000000000"/>
      <sparseX i="179" alpha="44587.541038407500" sparseCutoff="1.0000000000000000"/>
      <sparseX i="180" alpha="-57631.058622874574" sparseCutoff="1.0000000000000000"/>
      <sparseX i="181" alpha="-7468.7497321343426" sparseCutoff="1.0000000000000000"/>
      <sparseX i="182" alpha="19965.730698864121" sparseCutoff="1.0000000000000000"/>
      <sparseX i="183" alpha="66685.696985817543" sparseCutoff="1.0000000000000000"/>
      <sparseX i="184" alpha="-117232.50723757684" sparseCutoff="1.0000000000000000"/>
      <sparseX i="185" alpha="-126876.25124462474" sparseCutoff="1.0000000000000000"/>
      <sparseX i="186" alpha="4918.7326321218243" sparseCutoff="1.0000000000000000"/>
      <sparseX i="187" alpha="-51449.993198171112" sparseCutoff="1.0000000000000000"/>
      <sparseX i="188" alpha="116827.26277936166" sparseCutoff="1.0000000000000000"/>
      <sparseX i="189" alpha="83297.189857138888" sparseCutoff="1.0000000000000000"/>
      <sparseX i="190" alpha="-68733.347939625455" sparseCutoff="1.0000000000000000"/>
      <sparseX i="191" alpha="1075.7472629068698" sparseCutoff="1.0000000000000000"/>
      <sparseX i="192" alpha="-926.37699115627140" sparseCutoff="1.0000000000000000"/>
      <sparseX i="193" alpha="-125.27136542475299" sparseCutoff="1.0000000000000000"/>
      <sparseX i="194" alpha="-930.53297340937695" sparseCutoff="1.0000000000000000"/>
      <sparseX i="195" alpha="1079.3334568615010" sparseCutoff="1.0000000000000000"/>
      <sparseX i="196" alpha="126599.18853799137" sparseCutoff="1.0000000000000000"/>
      <sparseX i="197" alpha="-20870.947909722971" sparseCutoff="1.0000000000000000"/>
      <sparseX i="198" alpha="31523.270928842616" sparseCutoff="1.0000000000000000"/>
      <sparseX i="199" alpha="-148648.71650190378" sparseCutoff="1.0000000000000000"/>
      <sparseX i="200" alpha="98195.134947538303" sparseCutoff="1.0000000000000000"/>
      <sparseX i="201" alpha="-249487.32549408820" sparseCutoff="1.0000000000000000"/>
      <sparseX i="202" alpha="-94934.337481154769" sparseCutoff="1.0000000000000000"/>
      <sparseX i="203" alpha="-99652.864410140508" sparseCutoff="1.0000000000000000"/>
      <sparseX i="204" alpha="-110319.18911919034" sparseCutoff="1.0000000000000000"/>
      <sparseX i="205" alpha="20209.317375265335" sparseCutoff="1.0000000000000000"/>
      <sparseX i="206" alpha="3517.0226203531174" sparseCutoff="1.0000000000000000"/>
      <sparseX i="207" alpha="-121925.19283905561" sparseCutoff="1.0000000000000000"/>
      <sparseX i="208" alpha="-23824.491488368469" sparseCutoff="1.0000000000000000"/>
      <sparseX i="209" alpha="256041.51762448531" sparseCutoff="1.0000000000000000"/>
      <sparseX i="210" alpha="-98017.463976107116" sparseCutoff="1.0000000000000000"/>
      <sparseX i="211" alpha="-136371.16271788091" sparseCutoff="1.0000000000000000"/>
      <sparseX i="212" alpha="-174.76677463784696" sparseCutoff="1.0000000000000000"/>
      <sparseX i="213" alpha="57539.755628966770" sparseCutoff="1.0000000000000000"/>
      <sparseX i="214" alpha="-27934.493557465474" sparseCutoff="1.0000000000000000"/>
      <sparseX i="215" alpha="46996.039245356187" sparseCutoff="1.0000000000000000"/>
      <sparseX i="216" alpha="27805.449826703785" sparseCutoff="1.0000000000000000"/>
      <sparseX i="217" alpha="82386.311745655694" sparseCutoff="1.0000000000000000"/>
      <sparseX i="218" alpha="78820.826450806024" sparseCutoff="1.0000000000000000"/>
      <sparseX i="219" alpha="-182645.44713761006" sparseCutoff="1.0000000000000000"/>
      <sparseX i="220" alpha="62300.739573182938" sparseCutoff="1.0000000000000000"/>
      <sparseX i="221" alpha="101355.68606461979" sparseCutoff="1.0000000000000000"/>
      <sparseX i="222" alpha="-10621.755301340821" sparseCutoff="1.0000000000000000"/>
      <sparseX i="223" alpha="10125.965303226763" sparseCutoff="1.0000000000000000"/>
      <sparseX i="224" alpha="-10287.755810179417" sparseCutoff="1.0000000000000000"/>
      <sparseX i="225" alpha="56427.469550641363" sparseCutoff="1.0000000000000000"/>
      <sparseX i="226" alpha="95697.592949364480" sparseCutoff="1.0000000000000000"/>
      <sparseX i="227" alpha="-72127.961530492481" sparseCutoff="1.0000000000000000"/>
      <sparseX i="228" alpha="-1170.6149724097900" sparseCutoff="1.0000000000000000"/>
      <sparseX i="229" alpha="-25082.865093865414" sparseCutoff="1.0000000000000000"/>
      <sparseX i="230" alpha="8135.0632985659367" sparseCutoff="1.0000000000000000"/>
      <sparseX i="231" alpha="19667.485768535869" sparseCutoff="1.0000000000000000"/>
      <sparseX i="232" alpha="-60149.610515884939" sparseCutoff="1.0000000000000000"/>
      <sparseX i="233" alpha="27063.322098630964" sparseCutoff="1.0000000000000000"/>
      <sparseX i="234" alpha="11615.413490167617" sparseCutoff="1.0000000000000000"/>
      <sparseX i="235" alpha="-30908.895369771264" sparseCutoff="1.0000000000000000"/>
      <sparseX i="236" alpha="22572.935454071547" sparseCutoff="1.0000000000000000"/>
      <sparseX i="237" alpha="27144.711357046261" sparseCutoff="1.0000000000000000"/>
      <sparseX i="238" alpha="-8880.6461347123950" sparseCutoff="1.0000000000000000"/>
      <sparseX i="239" alpha="-32956.316193005419" sparseCutoff="1.0000000000000000"/>
      <sparseX i="240" alpha="-3848.0706579972502" sparseCutoff="1.0000000000000000"/>
      <sparseX i="241" alpha="16097.298345133895" sparseCutoff="1.0000000000000000"/>
      <sparseX i="242" alpha="28101.137554389279" sparseCutoff="1.0000000000000000"/>
      <sparseX i="243" alpha="-42736.745457152450" sparseCutoff="1.0000000000000000"/>
      <sparseX i="244" alpha="-13881.793443813654" sparseCutoff="1.0000000000000000"/>
      <sparseX i="245" alpha="-97212.876359962582" sparseCutoff="1.0000000000000000"/>
      <sparseX i="246" alpha="65088.935106770186" sparseCutoff="1.0000000000000000"/>
      <sparseX i="247" alpha="-126282.51133763575" sparseCutoff="1.0000000000000000"/>
      <sparseX i="248" alpha="-18759.597556291537" sparseCutoff="1.0000000000000000"/>
      <sparseX i="249" alpha="-26509.057848378900" sparseCutoff="1.0000000000000000"/>
      <sparseX i="250" alpha="279543.26428476651" sparseCutoff="1.0000000000000000"/>
      <sparseX i="251" alpha="-46128.054759206818" sparseCutoff="1.0000000000000000"/>
      <sparseX i="252" alpha="-74783.542302287708" sparseCutoff="1.0000000000000000"/>
      <sparseX i="253" alpha="-169389.04623510715" sparseCutoff="1.0000000000000000"/>
      <sparseX i="254" alpha="-73508.155283235217" sparseCutoff="1.0000000000000000"/>
      <sparseX i="255" alpha="26723.798661002646" sparseCutoff="1.0000000000000000"/>
      <sparseX i="256" alpha="-9467.2691264637506" sparseCutoff="1.0000000000000000"/>
      <sparseX i="257" alpha="-34321.565541128875" sparseCutoff="1.0000000000000000"/>
      <sparseX i="258" alpha="-15995.001207687221" sparseCutoff="1.0000000000000000"/>
      <sparseX i="259" alpha="46841.734933802334" sparseCutoff="1.0000000000000000"/>
      <sparseX i="260" alpha="-14854.227641449335" sparseCutoff="1.0000000000000000"/>
      <sparseX i="261" alpha="-49822.275862890318" sparseCutoff="1.0000000000000000"/>
      <sparseX i="262" alpha="2431.0728459952170" sparseCutoff="1.0000000000000000"/>
      <sparseX i="263" alpha="-471.49442244423761" sparseCutoff="1.0000000000000000"/>
      <sparseX i="264" alpha="-288.36200420765135" sparseCutoff="1.0000000000000000"/>
      <sparseX i="265" alpha="-475.80127749513224" sparseCutoff="1.0000000000000000"/>
      <sparseX i="266" alpha="2434.0296824962174" sparseCutoff="1.0000000000000000"/>
      <sparseX i="267" alpha="-10811.221173744516" sparseCutoff="1.0000000000000000"/>
