<GAP_2021_3_12_120_10_53_57_799>
<Potential label="GAP_2021_3_12_120_10_53_57_799" init_args="Sum init_args_pot1={IP Glue} init_args_pot2={IP GAP label=GAP_2021_3_12_120_10_53_57_799}"/>
<pairpot>
<Potential label="pairpot" init_args="IP Glue"/>
<Glue_params n_types="1">
 <per_type_data atomic_num="6" type="1">
  <!-- C, Z: 6, many-body data ==> zero energy for pair potential! -->
  <density num_points="10" density_y1="0.0" density_yn="0.0">
   <point a="0.5" rho="0.2"/>
   <point a="1.0" rho="0.2"/>
   <point a="1.5" rho="0.2"/>
   <point a="2.0" rho="0.2"/>
   <point a="2.5" rho="0.2"/>
   <point a="3.0" rho="0.2"/>
   <point a="3.5" rho="0.2"/>
   <point a="4.0" rho="0.2"/>
   <point a="4.5" rho="0.2"/>
   <point a="5.0" rho="0.2"/>
  </density>
  <potential_density num_points="10">
   <point rho="0.0" E="0.0"/>
   <point rho="0.1111111111111111" E="0.0"/>
   <point rho="0.2222222222222222" E="0.0"/>
   <point rho="0.3333333333333333" E="0.0"/>
   <point rho="0.4444444444444444" E="0.0"/>
   <point rho="0.5555555555555556" E="0.0"/>
   <point rho="0.6666666666666666" E="0.0"/>
   <point rho="0.7777777777777777" E="0.0"/>
   <point rho="0.8888888888888888" E="0.0"/>
   <point rho="1.0" E="0.0"/>
  </potential_density>
 </per_type_data>
 <per_pair_data type1="1" type2="1">
  <!-- C-C, Z: 6-6 pair potential -->
  <potential_pair num_points="15" y1="1.e50" yn="0.0">
   <point r="0.1" E="1802.54113065999991"/>
   <point r="0.2" E="681.30984417999991"/>
   <point r="0.3" E="339.93956101999999"/>
   <point r="0.4" E="189.79854275000002"/>
   <point r="0.5" E="111.71917771999999"/>
   <point r="0.6" E="64.66691623000000"/>
   <point r="0.7" E="33.06652598000000"/>
   <point r="0.8" E="13.26018809000000"/>
   <point r="0.9" E="1.65203494073981"/>
   <point r="1.0" E="-2.84417068666525"/>
   <point r="1.1" E="-2.53588300746454"/>
   <point r="1.2" E="-0.80878249636899"/>
   <point r="1.3" E="-0.00000000000000"/>
   <point r="1.4" E="-0.00000000000000"/>
   <point r="1.5" E="-0.00000000000000"/>
  </potential_pair>
 </per_pair_data>
</Glue_params>
</pairpot>
<GAP_params label="GAP_2021_3_12_120_10_53_57_799" gap_version="1593096078">
  <GAP_data do_core="T">
    <e0 Z="1" value="-.16138052999999999"/>
    <e0 Z="2" value="-.16138052999999999"/>
    <e0 Z="3" value="-.16138052999999999"/>
    <e0 Z="4" value="-.16138052999999999"/>
    <e0 Z="5" value="-.16138052999999999"/>
    <e0 Z="6" value="-.16138052999999999"/>
    <e0 Z="7" value="-.16138052999999999"/>
    <e0 Z="8" value="-.16138052999999999"/>
    <e0 Z="9" value="-.16138052999999999"/>
    <e0 Z="10" value="-.16138052999999999"/>
    <e0 Z="11" value="-.16138052999999999"/>
    <e0 Z="12" value="-.16138052999999999"/>
    <e0 Z="13" value="-.16138052999999999"/>
    <e0 Z="14" value="-.16138052999999999"/>
    <e0 Z="15" value="-.16138052999999999"/>
    <e0 Z="16" value="-.16138052999999999"/>
    <e0 Z="17" value="-.16138052999999999"/>
    <e0 Z="18" value="-.16138052999999999"/>
    <e0 Z="19" value="-.16138052999999999"/>
    <e0 Z="20" value="-.16138052999999999"/>
    <e0 Z="21" value="-.16138052999999999"/>
    <e0 Z="22" value="-.16138052999999999"/>
    <e0 Z="23" value="-.16138052999999999"/>
    <e0 Z="24" value="-.16138052999999999"/>
    <e0 Z="25" value="-.16138052999999999"/>
    <e0 Z="26" value="-.16138052999999999"/>
    <e0 Z="27" value="-.16138052999999999"/>
    <e0 Z="28" value="-.16138052999999999"/>
    <e0 Z="29" value="-.16138052999999999"/>
    <e0 Z="30" value="-.16138052999999999"/>
    <e0 Z="31" value="-.16138052999999999"/>
    <e0 Z="32" value="-.16138052999999999"/>
    <e0 Z="33" value="-.16138052999999999"/>
    <e0 Z="34" value="-.16138052999999999"/>
    <e0 Z="35" value="-.16138052999999999"/>
    <e0 Z="36" value="-.16138052999999999"/>
    <e0 Z="37" value="-.16138052999999999"/>
    <e0 Z="38" value="-.16138052999999999"/>
    <e0 Z="39" value="-.16138052999999999"/>
    <e0 Z="40" value="-.16138052999999999"/>
    <e0 Z="41" value="-.16138052999999999"/>
    <e0 Z="42" value="-.16138052999999999"/>
    <e0 Z="43" value="-.16138052999999999"/>
    <e0 Z="44" value="-.16138052999999999"/>
    <e0 Z="45" value="-.16138052999999999"/>
    <e0 Z="46" value="-.16138052999999999"/>
    <e0 Z="47" value="-.16138052999999999"/>
    <e0 Z="48" value="-.16138052999999999"/>
    <e0 Z="49" value="-.16138052999999999"/>
    <e0 Z="50" value="-.16138052999999999"/>
    <e0 Z="51" value="-.16138052999999999"/>
    <e0 Z="52" value="-.16138052999999999"/>
    <e0 Z="53" value="-.16138052999999999"/>
    <e0 Z="54" value="-.16138052999999999"/>
    <e0 Z="55" value="-.16138052999999999"/>
    <e0 Z="56" value="-.16138052999999999"/>
    <e0 Z="57" value="-.16138052999999999"/>
    <e0 Z="58" value="-.16138052999999999"/>
    <e0 Z="59" value="-.16138052999999999"/>
    <e0 Z="60" value="-.16138052999999999"/>
    <e0 Z="61" value="-.16138052999999999"/>
    <e0 Z="62" value="-.16138052999999999"/>
    <e0 Z="63" value="-.16138052999999999"/>
    <e0 Z="64" value="-.16138052999999999"/>
    <e0 Z="65" value="-.16138052999999999"/>
    <e0 Z="66" value="-.16138052999999999"/>
    <e0 Z="67" value="-.16138052999999999"/>
    <e0 Z="68" value="-.16138052999999999"/>
    <e0 Z="69" value="-.16138052999999999"/>
    <e0 Z="70" value="-.16138052999999999"/>
    <e0 Z="71" value="-.16138052999999999"/>
    <e0 Z="72" value="-.16138052999999999"/>
    <e0 Z="73" value="-.16138052999999999"/>
    <e0 Z="74" value="-.16138052999999999"/>
    <e0 Z="75" value="-.16138052999999999"/>
    <e0 Z="76" value="-.16138052999999999"/>
    <e0 Z="77" value="-.16138052999999999"/>
    <e0 Z="78" value="-.16138052999999999"/>
    <e0 Z="79" value="-.16138052999999999"/>
    <e0 Z="80" value="-.16138052999999999"/>
    <e0 Z="81" value="-.16138052999999999"/>
    <e0 Z="82" value="-.16138052999999999"/>
    <e0 Z="83" value="-.16138052999999999"/>
    <e0 Z="84" value="-.16138052999999999"/>
    <e0 Z="85" value="-.16138052999999999"/>
    <e0 Z="86" value="-.16138052999999999"/>
    <e0 Z="87" value="-.16138052999999999"/>
    <e0 Z="88" value="-.16138052999999999"/>
    <e0 Z="89" value="-.16138052999999999"/>
    <e0 Z="90" value="-.16138052999999999"/>
    <e0 Z="91" value="-.16138052999999999"/>
    <e0 Z="92" value="-.16138052999999999"/>
    <e0 Z="93" value="-.16138052999999999"/>
    <e0 Z="94" value="-.16138052999999999"/>
    <e0 Z="95" value="-.16138052999999999"/>
    <e0 Z="96" value="-.16138052999999999"/>
    <e0 Z="97" value="-.16138052999999999"/>
    <e0 Z="98" value="-.16138052999999999"/>
    <e0 Z="99" value="-.16138052999999999"/>
    <e0 Z="100" value="-.16138052999999999"/>
    <e0 Z="101" value="-.16138052999999999"/>
    <e0 Z="102" value="-.16138052999999999"/>
    <e0 Z="103" value="-.16138052999999999"/>
    <e0 Z="104" value="-.16138052999999999"/>
    <e0 Z="105" value="-.16138052999999999"/>
    <e0 Z="106" value="-.16138052999999999"/>
    <e0 Z="107" value="-.16138052999999999"/>
    <e0 Z="108" value="-.16138052999999999"/>
    <e0 Z="109" value="-.16138052999999999"/>
    <e0 Z="110" value="-.16138052999999999"/>
    <e0 Z="111" value="-.16138052999999999"/>
    <e0 Z="112" value="-.16138052999999999"/>
    <e0 Z="113" value="-.16138052999999999"/>
    <e0 Z="114" value="-.16138052999999999"/>
    <e0 Z="115" value="-.16138052999999999"/>
    <e0 Z="116" value="-.16138052999999999"/>
    <e0 Z="117" value="-.16138052999999999"/>
    <e0 Z="118" value="-.16138052999999999"/>
  </GAP_data>
  <gpSparse label="GAP_2021_3_12_120_10_53_57_799" n_coordinate="3">
    <gpCoordinates label="GAP_2021_3_12_120_10_53_57_7991" dimensions="1" signal_variance="1.0000000000000000" signal_mean=".00000000000000000E+000" sparsified="T" n_permutations="1" covariance_type="1" n_sparseX="42" sparseX_filename="carbon.xml.sparseX.GAP_2021_3_12_120_10_53_57_7991" sparseX_md5sum="eaadaa9c06f3f5eb43c94f3c9da872d2">
      <theta>  0.50000000000000000E+000 </theta>
      <descriptor> distance_2b Z1=6 Z2=6 cutoff=4.5 n_sparse=42 covariance_type=ard_se delta=1. theta_uniform=0.5 sparse_method=uniform add_species=F</descriptor>
      <permutation i="1">1  </permutation>
      <sparseX i="1" alpha="864883.14178272907" sparseCutoff=".38437050441691878E-001"/>
      <sparseX i="2" alpha="-456708.21763709147" sparseCutoff="1.0000000000000000"/>
      <sparseX i="3" alpha="-75143.371428942162" sparseCutoff="1.0000000000000000"/>
      <sparseX i="4" alpha="1080960.8396299330" sparseCutoff="1.0000000000000000"/>
      <sparseX i="5" alpha="563590.16002264444" sparseCutoff="1.0000000000000000"/>
      <sparseX i="6" alpha="1009500.1158838173" sparseCutoff=".70426257266472392"/>
      <sparseX i="7" alpha="94379.390191619925" sparseCutoff="1.0000000000000000"/>
      <sparseX i="8" alpha="1041596.5412789555" sparseCutoff="1.0000000000000000"/>
      <sparseX i="9" alpha="1503457.3493461991" sparseCutoff="1.0000000000000000"/>
      <sparseX i="10" alpha="743774.50795453042" sparseCutoff="1.0000000000000000"/>
      <sparseX i="11" alpha="-253473.43811301605" sparseCutoff=".99855210829397389"/>
      <sparseX i="12" alpha="-783485.32161013933" sparseCutoff=".85467941575570683"/>
      <sparseX i="13" alpha="292808.37343910220" sparseCutoff="1.0000000000000000"/>
      <sparseX i="14" alpha="-246825.60913125722" sparseCutoff="1.0000000000000000"/>
      <sparseX i="15" alpha="-1480032.6221661114" sparseCutoff="1.0000000000000000"/>
      <sparseX i="16" alpha="-1831995.8393598651" sparseCutoff="1.0000000000000000"/>
      <sparseX i="17" alpha="344741.87946723116" sparseCutoff="1.0000000000000000"/>
      <sparseX i="18" alpha="-2098954.9390484076" sparseCutoff="1.0000000000000000"/>
      <sparseX i="19" alpha="929274.92138296796" sparseCutoff="1.0000000000000000"/>
      <sparseX i="20" alpha="816109.08501510124" sparseCutoff="1.0000000000000000"/>
      <sparseX i="21" alpha="530850.66175629385" sparseCutoff=".66098066432118685E-002"/>
      <sparseX i="22" alpha="260008.01989086397" sparseCutoff="1.0000000000000000"/>
      <sparseX i="23" alpha="-683733.94621878595" sparseCutoff=".22278962625624166"/>
      <sparseX i="24" alpha="-1510210.5761430329" sparseCutoff="1.0000000000000000"/>
      <sparseX i="25" alpha="-1748008.9055873882" sparseCutoff="1.0000000000000000"/>
      <sparseX i="26" alpha="-1250128.6598334177" sparseCutoff="1.0000000000000000"/>
      <sparseX i="27" alpha="646208.71149118466" sparseCutoff="1.0000000000000000"/>
      <sparseX i="28" alpha="-893906.97615394776" sparseCutoff="1.0000000000000000"/>
      <sparseX i="29" alpha="-893813.32168868545" sparseCutoff="1.0000000000000000"/>
      <sparseX i="30" alpha="1447626.8001934697" sparseCutoff="1.0000000000000000"/>
      <sparseX i="31" alpha="1462196.0979130222" sparseCutoff="1.0000000000000000"/>
      <sparseX i="32" alpha="1863473.4988631487" sparseCutoff="1.0000000000000000"/>
      <sparseX i="33" alpha="634678.01126727008" sparseCutoff="1.0000000000000000"/>
      <sparseX i="34" alpha="-461329.13393628283" sparseCutoff="1.0000000000000000"/>
      <sparseX i="35" alpha="-985091.69808648271" sparseCutoff="1.0000000000000000"/>
      <sparseX i="36" alpha="-64296.334321302355" sparseCutoff="1.0000000000000000"/>
      <sparseX i="37" alpha="-29295.302376536765" sparseCutoff="1.0000000000000000"/>
      <sparseX i="38" alpha="769869.12670518470" sparseCutoff="1.0000000000000000"/>
      <sparseX i="39" alpha="-1231635.9869967913" sparseCutoff="1.0000000000000000"/>
      <sparseX i="40" alpha="-73805.873156564659" sparseCutoff="1.0000000000000000"/>
      <sparseX i="41" alpha="1269027.7554759153" sparseCutoff="1.0000000000000000"/>
      <sparseX i="42" alpha="-105476.18589111607" sparseCutoff="1.0000000000000000"/>
    </gpCoordinates>
    <gpCoordinates label="GAP_2021_3_12_120_10_53_57_7992" dimensions="3" signal_variance=".10000000000000000E-001" signal_mean=".00000000000000000E+000" sparsified="T" n_permutations="1" covariance_type="4" n_sparseX="200" sparseX_filename="carbon.xml.sparseX.GAP_2021_3_12_120_10_53_57_7992" sparseX_md5sum="790f70af4abd18c36df6dda636c5a7ae">
      <theta>  0.40000000000000000E+001  0.40000000000000000E+001  0.40000000000000000E+001 </theta>
      <descriptor> angle_3b Z_center=6 Z1=6 Z2=6 cutoff=2.8 n_sparse=200 covariance_type=pp delta=0.01 theta_uniform=4.0 sparse_method=uniform add_species=F</descriptor>
      <permutation i="1">1 2 3  </permutation>
      <sparseX i="1" alpha="-22814.921952353805" sparseCutoff=".96033297926283109E-001"/>
      <sparseX i="2" alpha="-955.61440911822012" sparseCutoff=".71537370942008904"/>
      <sparseX i="3" alpha="-9146.3933898210053" sparseCutoff=".71537370942008904"/>
      <sparseX i="4" alpha="4190.8669868562847" sparseCutoff=".71537370942008904"/>
      <sparseX i="5" alpha="-3719.4880141439021" sparseCutoff="1.0000000000000000"/>
      <sparseX i="6" alpha="-18997.825994564399" sparseCutoff=".13424214038300569"/>
      <sparseX i="7" alpha="-12421.870807429881" sparseCutoff=".59378175760086638E-001"/>
      <sparseX i="8" alpha="6566.8197532626173" sparseCutoff=".13424214038300569"/>
      <sparseX i="9" alpha="-427645.69483426580" sparseCutoff=".79710534060723360E-002"/>
      <sparseX i="10" alpha="63803.710551328935" sparseCutoff=".42477585852091194E-001"/>
      <sparseX i="11" alpha="-1853.7698378934595" sparseCutoff="1.0000000000000000"/>
      <sparseX i="12" alpha="1864181.8593485411" sparseCutoff=".33658202543528359E-002"/>
      <sparseX i="13" alpha="4785.6468190248388" sparseCutoff="1.0000000000000000"/>
      <sparseX i="14" alpha="-746076.08055603073" sparseCutoff=".14404699245016805E-001"/>
      <sparseX i="15" alpha="1021.9942630948165" sparseCutoff=".92391160576436504"/>
      <sparseX i="16" alpha="-426711.66085854045" sparseCutoff=".32994510837828228E-002"/>
      <sparseX i="17" alpha="59498.563956197751" sparseCutoff=".48971562537026780E-001"/>
      <sparseX i="18" alpha="164382.45285482801" sparseCutoff=".69805049738463443E-003"/>
      <sparseX i="19" alpha="148482.33811985358" sparseCutoff=".88178601071610185E-001"/>
      <sparseX i="20" alpha="-551502.16226796631" sparseCutoff=".46766938207133457E-001"/>
      <sparseX i="21" alpha="1096156.8914787064" sparseCutoff=".16008350212278932E-001"/>
      <sparseX i="22" alpha="258911.99841617537" sparseCutoff=".56319024141039840E-002"/>
      <sparseX i="23" alpha="9309.7816145012330" sparseCutoff=".82029038255404341"/>
      <sparseX i="24" alpha="-5272.7489192001176" sparseCutoff=".31785551181034710"/>
      <sparseX i="25" alpha="-22266.227651171615" sparseCutoff="1.0000000000000000"/>
      <sparseX i="26" alpha="-78076.254853501028" sparseCutoff="1.0000000000000000"/>
      <sparseX i="27" alpha="-2452.1206766059304" sparseCutoff="1.0000000000000000"/>
      <sparseX i="28" alpha="-3721.7643063933133" sparseCutoff="1.0000000000000000"/>
      <sparseX i="29" alpha="903339.16998285288" sparseCutoff=".98548811678634607E-001"/>
      <sparseX i="30" alpha="-6090.4247373981525" sparseCutoff=".13404823539120425E-004"/>
      <sparseX i="31" alpha="-8529.8581975785619" sparseCutoff="1.0000000000000000"/>
      <sparseX i="32" alpha="636688.40494393755" sparseCutoff=".13763211737157166E-001"/>
      <sparseX i="33" alpha="274254.80205806735" sparseCutoff="1.0000000000000000"/>
      <sparseX i="34" alpha="-1569.5886441609937" sparseCutoff=".53322108367916954E-002"/>
      <sparseX i="35" alpha="275522.63863078359" sparseCutoff=".61825038284952782E-002"/>
      <sparseX i="36" alpha="101987.14571334484" sparseCutoff=".54156220084123963E-001"/>
      <sparseX i="37" alpha="-241540.09425557120" sparseCutoff="1.0000000000000000"/>
      <sparseX i="38" alpha="-481099.52361968101" sparseCutoff=".83221676508511422E-002"/>
      <sparseX i="39" alpha="511991.29281672044" sparseCutoff="1.0000000000000000"/>
      <sparseX i="40" alpha="-54361.586925708027" sparseCutoff=".13416490551781401E-002"/>
      <sparseX i="41" alpha="318802.51425873651" sparseCutoff=".24358435063151020E-001"/>
      <sparseX i="42" alpha="2324.8830376743326" sparseCutoff="1.0000000000000000"/>
      <sparseX i="43" alpha="-316707.14984759717" sparseCutoff=".51529787516541081E-001"/>
      <sparseX i="44" alpha="-4565.8797322637165" sparseCutoff=".43254719087139056E-003"/>
      <sparseX i="45" alpha="-524051.27502357174" sparseCutoff=".68660122425488468E-002"/>
      <sparseX i="46" alpha="71596.598161782575" sparseCutoff=".19422784316163044"/>
      <sparseX i="47" alpha="-609066.01981068787" sparseCutoff=".16695691168576332E-001"/>
      <sparseX i="48" alpha="249683.23253908349" sparseCutoff=".13631325927991472E-001"/>
      <sparseX i="49" alpha="2697.3745408853092" sparseCutoff=".89213478028249660"/>
      <sparseX i="50" alpha="-7399.8954376392412" sparseCutoff=".71232203167653841E-004"/>
      <sparseX i="51" alpha="-227334.17395618002" sparseCutoff=".34302497107308039E-003"/>
      <sparseX i="52" alpha="-1208961.7552707917" sparseCutoff=".13755865347093095E-001"/>
      <sparseX i="53" alpha="-26480.948095206055" sparseCutoff=".21008292481227822"/>
      <sparseX i="54" alpha="-449666.45869331365" sparseCutoff=".36212447108593129E-001"/>
      <sparseX i="55" alpha="-460492.56978460675" sparseCutoff=".27510412622721531"/>
      <sparseX i="56" alpha="-15257.784405073429" sparseCutoff="1.0000000000000000"/>
      <sparseX i="57" alpha="-597.54952317661036" sparseCutoff=".94984500359551749E-004"/>
      <sparseX i="58" alpha="21266.732488294187" sparseCutoff="1.0000000000000000"/>
      <sparseX i="59" alpha="1288073.8260777299" sparseCutoff=".80386715654869878E-002"/>
      <sparseX i="60" alpha="-10599.294317370581" sparseCutoff="1.0000000000000000"/>
      <sparseX i="61" alpha="64777.523765998842" sparseCutoff=".35228452528152282"/>
      <sparseX i="62" alpha="-1338191.6200347415" sparseCutoff=".63750643430968684E-002"/>
      <sparseX i="63" alpha="-129602.43613420005" sparseCutoff=".59580002578046853E-003"/>
      <sparseX i="64" alpha="-186453.91661647079" sparseCutoff=".22822163601915524E-001"/>
      <sparseX i="65" alpha="-1410036.8319801327" sparseCutoff=".13669519438570810E-001"/>
      <sparseX i="66" alpha="-280108.10677801358" sparseCutoff=".31343481174152354E-002"/>
      <sparseX i="67" alpha="-1350690.7242549188" sparseCutoff=".33700645494433301E-002"/>
      <sparseX i="68" alpha="-499486.80969464337" sparseCutoff=".35876599885242455E-002"/>
      <sparseX i="69" alpha="-374450.18952010758" sparseCutoff=".16561527263244058E-001"/>
      <sparseX i="70" alpha="-18828.285733455890" sparseCutoff=".51014095773622636"/>
      <sparseX i="71" alpha="304319.28930517822" sparseCutoff=".26897150917987424E-001"/>
      <sparseX i="72" alpha="4343.1758969049388" sparseCutoff=".99949748344701395"/>
      <sparseX i="73" alpha="1751.1186895226574" sparseCutoff=".91502884168056797"/>
      <sparseX i="74" alpha="-156831.65340419568" sparseCutoff=".57632653599041933E-001"/>
      <sparseX i="75" alpha="15723.491173969824" sparseCutoff=".24145514142582547"/>
      <sparseX i="76" alpha="211467.86361568177" sparseCutoff=".27844251130974168"/>
      <sparseX i="77" alpha="212128.84957167151" sparseCutoff=".25990761899692111"/>
      <sparseX i="78" alpha="666897.60784560046" sparseCutoff=".21836923340097070E-001"/>
      <sparseX i="79" alpha="297573.23026587948" sparseCutoff=".21184652976750457"/>
      <sparseX i="80" alpha="406286.25265308656" sparseCutoff=".26406163230678098"/>
      <sparseX i="81" alpha="-2799482.7683538850" sparseCutoff=".90363186541235208E-002"/>
      <sparseX i="82" alpha="610521.77987517603" sparseCutoff=".86306471735936481E-002"/>
      <sparseX i="83" alpha="-1003095.5580908800" sparseCutoff=".10228968312640822"/>
      <sparseX i="84" alpha="107933.49057472005" sparseCutoff=".27076965332696940"/>
      <sparseX i="85" alpha="-529904.21720334305" sparseCutoff=".66964771721849781E-001"/>
      <sparseX i="86" alpha="-98745.909239588014" sparseCutoff=".95495273933917013"/>
      <sparseX i="87" alpha="168194.95378153629" sparseCutoff="1.0000000000000000"/>
      <sparseX i="88" alpha="4614.7152168284510" sparseCutoff=".84605512652995507"/>
      <sparseX i="89" alpha="-204899.08455773536" sparseCutoff="1.0000000000000000"/>
      <sparseX i="90" alpha="-63539.662822191240" sparseCutoff="1.0000000000000000"/>
      <sparseX i="91" alpha="-32604.591827370306" sparseCutoff="1.0000000000000000"/>
      <sparseX i="92" alpha="1384568.0931190273" sparseCutoff=".31945013813021184"/>
      <sparseX i="93" alpha="42724.786325288180" sparseCutoff=".50972488646155378"/>
      <sparseX i="94" alpha="97374.468664918211" sparseCutoff="1.0000000000000000"/>
      <sparseX i="95" alpha="638614.64771523955" sparseCutoff=".73626490958089263E-001"/>
      <sparseX i="96" alpha="96837.788609370386" sparseCutoff="1.0000000000000000"/>
      <sparseX i="97" alpha="-834544.18973945454" sparseCutoff=".34718191552640121"/>
      <sparseX i="98" alpha="-637166.25466519478" sparseCutoff="1.0000000000000000"/>
      <sparseX i="99" alpha="218857.75561878242" sparseCutoff=".98749090562545572"/>
      <sparseX i="100" alpha="-99093.755198490908" sparseCutoff=".99000398073457019"/>
      <sparseX i="101" alpha="806519.79833119281" sparseCutoff="1.0000000000000000"/>
      <sparseX i="102" alpha="-183089.81839440187" sparseCutoff="1.0000000000000000"/>
      <sparseX i="103" alpha="1477526.3408787143" sparseCutoff=".46405114323338645E-001"/>
      <sparseX i="104" alpha="495448.31107074808" sparseCutoff="1.0000000000000000"/>
      <sparseX i="105" alpha="-136713.61777393229" sparseCutoff=".73605316555511102"/>
      <sparseX i="106" alpha="37730.975378606010" sparseCutoff=".21595181636931415E-002"/>
      <sparseX i="107" alpha="-27797.962081450172" sparseCutoff="1.0000000000000000"/>
      <sparseX i="108" alpha="-437358.44279919669" sparseCutoff="1.0000000000000000"/>
      <sparseX i="109" alpha="40636.867298893703" sparseCutoff=".19330842500449741"/>
      <sparseX i="110" alpha="-323949.22677236353" sparseCutoff=".96665593216097856E-001"/>
      <sparseX i="111" alpha="-497323.67333506700" sparseCutoff="1.0000000000000000"/>
      <sparseX i="112" alpha="-8078.5456536044712" sparseCutoff="1.0000000000000000"/>
      <sparseX i="113" alpha="46688.864699720529" sparseCutoff=".19191743572533013"/>
      <sparseX i="114" alpha="70268.285512838527" sparseCutoff=".47212095821872319"/>
      <sparseX i="115" alpha="9568.7777496311846" sparseCutoff=".76135498932239365E-003"/>
      <sparseX i="116" alpha="-301862.14040034148" sparseCutoff=".74542055578096988"/>
      <sparseX i="117" alpha="301242.48472827516" sparseCutoff=".81851181953792085"/>
      <sparseX i="118" alpha="-54448.625456161179" sparseCutoff=".49038129183738566E-001"/>
      <sparseX i="119" alpha="63864.644481261028" sparseCutoff="1.0000000000000000"/>
      <sparseX i="120" alpha="-60586.399062204357" sparseCutoff=".10209318958977703"/>
      <sparseX i="121" alpha="-42435.779369791373" sparseCutoff=".78645734382952237"/>
      <sparseX i="122" alpha="-29856.645541188143" sparseCutoff=".36128017729015915E-001"/>
      <sparseX i="123" alpha="113843.67812987979" sparseCutoff=".29065358632067329E-001"/>
      <sparseX i="124" alpha="-48819.527783313206" sparseCutoff="1.0000000000000000"/>
      <sparseX i="125" alpha="754147.60465823824" sparseCutoff=".22149538447957733E-001"/>
      <sparseX i="126" alpha="90046.768267765859" sparseCutoff="1.0000000000000000"/>
      <sparseX i="127" alpha="-185081.82779768365" sparseCutoff=".94549240352114794"/>
      <sparseX i="128" alpha="-108468.79197715112" sparseCutoff=".99132835587186952"/>
      <sparseX i="129" alpha="-141243.66664287946" sparseCutoff="1.0000000000000000"/>
      <sparseX i="130" alpha="595647.39652593387" sparseCutoff=".44150361638913005E-001"/>
      <sparseX i="131" alpha="-173468.36797486778" sparseCutoff="1.0000000000000000"/>
      <sparseX i="132" alpha="164706.23971693084" sparseCutoff="1.0000000000000000"/>
      <sparseX i="133" alpha="170762.53029052768" sparseCutoff=".73686150160512764"/>
      <sparseX i="134" alpha="383487.53771331767" sparseCutoff="1.0000000000000000"/>
      <sparseX i="135" alpha="185548.05390779139" sparseCutoff="1.0000000000000000"/>
      <sparseX i="136" alpha="151728.55321047505" sparseCutoff=".33676152333844611"/>
      <sparseX i="137" alpha="241585.21143733323" sparseCutoff=".33928346340365956E-001"/>
      <sparseX i="138" alpha="-32860.705761730256" sparseCutoff="1.0000000000000000"/>
      <sparseX i="139" alpha="-34523.139619579975" sparseCutoff=".18879574686272599"/>
      <sparseX i="140" alpha="-541109.67223520670" sparseCutoff=".20072578127785801"/>
      <sparseX i="141" alpha="-35804.139618298279" sparseCutoff="1.0000000000000000"/>
      <sparseX i="142" alpha="15903.196871447804" sparseCutoff="1.0000000000000000"/>
      <sparseX i="143" alpha="194276.66738811973" sparseCutoff=".66083687421810244"/>
      <sparseX i="144" alpha="581895.93314413971" sparseCutoff=".75692094424828826E-001"/>
      <sparseX i="145" alpha="-12644.551632616598" sparseCutoff="1.0000000000000000"/>
      <sparseX i="146" alpha="-76248.013638808232" sparseCutoff=".34858802776969794E-002"/>
      <sparseX i="147" alpha="25749.647172320118" sparseCutoff="1.0000000000000000"/>
      <sparseX i="148" alpha="-45985.692546322483" sparseCutoff=".48098520522755195"/>
      <sparseX i="149" alpha="-561275.38585452153" sparseCutoff=".27115583053339887"/>
      <sparseX i="150" alpha="-12196.862846366208" sparseCutoff=".53336458056699287"/>
      <sparseX i="151" alpha="-545528.12304869317" sparseCutoff=".24090965151634744"/>
      <sparseX i="152" alpha="1312265.4218190759" sparseCutoff=".20206958349406501E-001"/>
      <sparseX i="153" alpha="183345.90103932773" sparseCutoff="1.0000000000000000"/>
      <sparseX i="154" alpha="4536.8146545511936" sparseCutoff="1.0000000000000000"/>
      <sparseX i="155" alpha="37023.301473517109" sparseCutoff=".20730611400289756E-002"/>
      <sparseX i="156" alpha="2544.9309198514998" sparseCutoff=".13251058437008245E-002"/>
      <sparseX i="157" alpha="-270295.19392359559" sparseCutoff="1.0000000000000000"/>
      <sparseX i="158" alpha="140434.89453204477" sparseCutoff=".67543073619263372E-002"/>
      <sparseX i="159" alpha="113894.67537244404" sparseCutoff=".41175521154839578E-001"/>
      <sparseX i="160" alpha="-4585.3941117672239" sparseCutoff=".71952183332186170"/>
      <sparseX i="161" alpha="110488.79724179331" sparseCutoff="1.0000000000000000"/>
      <sparseX i="162" alpha="554791.10326358804" sparseCutoff=".12773070085555782E-001"/>
      <sparseX i="163" alpha="-51304.165146524734" sparseCutoff="1.0000000000000000"/>
      <sparseX i="164" alpha="-118502.47057539233" sparseCutoff="1.0000000000000000"/>
      <sparseX i="165" alpha="-55312.918927736202" sparseCutoff="1.0000000000000000"/>
      <sparseX i="166" alpha="329518.39214864839" sparseCutoff="1.0000000000000000"/>
      <sparseX i="167" alpha="-60787.615347817118" sparseCutoff="1.0000000000000000"/>
      <sparseX i="168" alpha="315.59804770172053" sparseCutoff="1.0000000000000000"/>
      <sparseX i="169" alpha="7161.4341449784488" sparseCutoff=".73881309921963956"/>
      <sparseX i="170" alpha="994184.35524588462" sparseCutoff=".22030538977210801E-001"/>
      <sparseX i="171" alpha="-105128.26754232441" sparseCutoff=".11253329139853663E-002"/>
      <sparseX i="172" alpha="2887.2293408261621" sparseCutoff=".69666159600307564"/>
      <sparseX i="173" alpha="139269.87407460593" sparseCutoff="1.0000000000000000"/>
      <sparseX i="174" alpha="-763765.69632082502" sparseCutoff="1.0000000000000000"/>
      <sparseX i="175" alpha="-7746.2949010133907" sparseCutoff="1.0000000000000000"/>
      <sparseX i="176" alpha="-45836.648405656582" sparseCutoff="1.0000000000000000"/>
      <sparseX i="177" alpha="-993426.21590768406" sparseCutoff=".12587950085765132E-001"/>
      <sparseX i="178" alpha="66839.427994427620" sparseCutoff="1.0000000000000000"/>
      <sparseX i="179" alpha="418031.87183351337" sparseCutoff="1.0000000000000000"/>
      <sparseX i="180" alpha="174239.53749151647" sparseCutoff="1.0000000000000000"/>
      <sparseX i="181" alpha="-150013.27032093590" sparseCutoff=".79429913386221351"/>
      <sparseX i="182" alpha="-12988.424314391264" sparseCutoff=".95937354219329518"/>
      <sparseX i="183" alpha="-341405.26134173415" sparseCutoff="1.0000000000000000"/>
      <sparseX i="184" alpha="603534.84941409586" sparseCutoff="1.0000000000000000"/>
      <sparseX i="185" alpha="57867.604080634839" sparseCutoff="1.0000000000000000"/>
      <sparseX i="186" alpha="-196257.40562465027" sparseCutoff="1.0000000000000000"/>
      <sparseX i="187" alpha="56518.233990384520" sparseCutoff="1.0000000000000000"/>
      <sparseX i="188" alpha="-160452.91322720802" sparseCutoff=".59924554060042090"/>
      <sparseX i="189" alpha="202287.50335065846" sparseCutoff=".99261301652622569"/>
      <sparseX i="190" alpha="-403447.26143903006" sparseCutoff=".13487015263624436"/>
      <sparseX i="191" alpha="-36039.869533532401" sparseCutoff=".53430832360381852"/>
      <sparseX i="192" alpha="81580.736486519731" sparseCutoff=".81584643826736247"/>
      <sparseX i="193" alpha="8668.4098165687101" sparseCutoff="1.0000000000000000"/>
      <sparseX i="194" alpha="-20475.714797531662" sparseCutoff="1.0000000000000000"/>
      <sparseX i="195" alpha="-411326.24965753441" sparseCutoff="1.0000000000000000"/>
      <sparseX i="196" alpha="-17271.725925205770" sparseCutoff="1.0000000000000000"/>
      <sparseX i="197" alpha="46846.356672134643" sparseCutoff=".52709207679201842E-002"/>
      <sparseX i="198" alpha="122829.82380079186" sparseCutoff="1.0000000000000000"/>
      <sparseX i="199" alpha="184530.59716256932" sparseCutoff="1.0000000000000000"/>
      <sparseX i="200" alpha="-594767.01232330967" sparseCutoff="1.0000000000000000"/>
    </gpCoordinates>
    <gpCoordinates label="GAP_2021_3_12_120_10_53_57_7993" dimensions="72" signal_variance=".10000000000000001E+000" signal_mean=".00000000000000000E+000" sparsified="T" n_permutations="1" covariance_type="2" zeta="6.0000000000000000" n_sparseX="6593" sparseX_filename="carbon.xml.sparseX.GAP_2021_3_12_120_10_53_57_7993" sparseX_md5sum="ee659cc4e2b6815f08332a07ceb7eb85">
      <descriptor> soap_turbo l_max=8 alpha_max={8} atom_sigma_r={0.5} atom_sigma_t={0.5} atom_sigma_r_scaling={0.} atom_sigma_t_scaling={0.} zeta=6 rcut_hard=4.5 rcut_soft=4.0 basis=poly3gauss scaling_mode=polynomial amplitude_scaling={1.0} n_species=1 species_Z=6 central_index=1 radial_enhancement={1} compress_file=compress.dat central_weight={1.0} config_type_n_sparse={bulk_amo:2500:surf_amo:1000:bulk_cryst:500:cluster:43:glassy:250: graphitic:100:diamond_surface:200:c60:2000} delta=0.1 f0=0.0 covariance_type=dot_product sparse_method=cur_points add_species=F</descriptor>
      <permutation i="1">1  </permutation>
      <sparseX i="1" alpha="-1182.5190762433645" sparseCutoff="1.0000000000000000"/>
      <sparseX i="2" alpha="-1385.1260130085798" sparseCutoff="1.0000000000000000"/>
      <sparseX i="3" alpha="-4978.5986914116620" sparseCutoff="1.0000000000000000"/>
      <sparseX i="4" alpha="-46586.656666435360" sparseCutoff="1.0000000000000000"/>
      <sparseX i="5" alpha="-157.49217152737330" sparseCutoff="1.0000000000000000"/>
      <sparseX i="6" alpha="-2236.1631883177001" sparseCutoff="1.0000000000000000"/>
      <sparseX i="7" alpha="9425.4792441381796" sparseCutoff="1.0000000000000000"/>
      <sparseX i="8" alpha="10118.916316062174" sparseCutoff="1.0000000000000000"/>
      <sparseX i="9" alpha="20133.310906008672" sparseCutoff="1.0000000000000000"/>
      <sparseX i="10" alpha="28989.171812744138" sparseCutoff="1.0000000000000000"/>
      <sparseX i="11" alpha="-300.81226069276141" sparseCutoff="1.0000000000000000"/>
      <sparseX i="12" alpha="16193.647917282762" sparseCutoff="1.0000000000000000"/>
      <sparseX i="13" alpha="-10636.471592428066" sparseCutoff="1.0000000000000000"/>
      <sparseX i="14" alpha="-9827.1648049055493" sparseCutoff="1.0000000000000000"/>
      <sparseX i="15" alpha="-68295.839224720767" sparseCutoff="1.0000000000000000"/>
      <sparseX i="16" alpha="-40492.454042733138" sparseCutoff="1.0000000000000000"/>
      <sparseX i="17" alpha="-3197.8155599799611" sparseCutoff="1.0000000000000000"/>
      <sparseX i="18" alpha="-10579.155477753695" sparseCutoff="1.0000000000000000"/>
      <sparseX i="19" alpha="-25869.704313313392" sparseCutoff="1.0000000000000000"/>
      <sparseX i="20" alpha="-1857.5982679277190" sparseCutoff="1.0000000000000000"/>
      <sparseX i="21" alpha="12807.771591008019" sparseCutoff="1.0000000000000000"/>
      <sparseX i="22" alpha="-19316.574207037065" sparseCutoff="1.0000000000000000"/>
      <sparseX i="23" alpha="46512.396112268383" sparseCutoff="1.0000000000000000"/>
      <sparseX i="24" alpha="-21980.820914528642" sparseCutoff="1.0000000000000000"/>
      <sparseX i="25" alpha="29733.290366846424" sparseCutoff="1.0000000000000000"/>
      <sparseX i="26" alpha="54152.720019025110" sparseCutoff="1.0000000000000000"/>
      <sparseX i="27" alpha="-31942.159436333775" sparseCutoff="1.0000000000000000"/>
      <sparseX i="28" alpha="2950.9514883001325" sparseCutoff="1.0000000000000000"/>
      <sparseX i="29" alpha="-20056.763864549695" sparseCutoff="1.0000000000000000"/>
      <sparseX i="30" alpha="-22614.885739248308" sparseCutoff="1.0000000000000000"/>
      <sparseX i="31" alpha="40579.178418857686" sparseCutoff="1.0000000000000000"/>
      <sparseX i="32" alpha="-3855.9554502798615" sparseCutoff="1.0000000000000000"/>
      <sparseX i="33" alpha="25844.024206907747" sparseCutoff="1.0000000000000000"/>
      <sparseX i="34" alpha="62924.281141553933" sparseCutoff="1.0000000000000000"/>
      <sparseX i="35" alpha="14039.981333692685" sparseCutoff="1.0000000000000000"/>
      <sparseX i="36" alpha="-5716.5398330446578" sparseCutoff="1.0000000000000000"/>
      <sparseX i="37" alpha="-47255.997979349777" sparseCutoff="1.0000000000000000"/>
      <sparseX i="38" alpha="15483.799605462160" sparseCutoff="1.0000000000000000"/>
      <sparseX i="39" alpha="-57398.727621462946" sparseCutoff="1.0000000000000000"/>
      <sparseX i="40" alpha="-10647.676062682238" sparseCutoff="1.0000000000000000"/>
      <sparseX i="41" alpha="4290.9989698239333" sparseCutoff="1.0000000000000000"/>
      <sparseX i="42" alpha="29281.423947842730" sparseCutoff="1.0000000000000000"/>
      <sparseX i="43" alpha="-2743.8655727947562" sparseCutoff="1.0000000000000000"/>
      <sparseX i="44" alpha="-27964.116220925538" sparseCutoff="1.0000000000000000"/>
      <sparseX i="45" alpha="-23657.116723613282" sparseCutoff="1.0000000000000000"/>
      <sparseX i="46" alpha="-1985.2766383631747" sparseCutoff="1.0000000000000000"/>
      <sparseX i="47" alpha="77419.698162456523" sparseCutoff="1.0000000000000000"/>
      <sparseX i="48" alpha="-7015.7038455801194" sparseCutoff="1.0000000000000000"/>
      <sparseX i="49" alpha="-22859.781320571186" sparseCutoff="1.0000000000000000"/>
      <sparseX i="50" alpha="-95968.961079453991" sparseCutoff="1.0000000000000000"/>
      <sparseX i="51" alpha="-85827.711630318096" sparseCutoff="1.0000000000000000"/>
      <sparseX i="52" alpha="-26851.132474115071" sparseCutoff="1.0000000000000000"/>
      <sparseX i="53" alpha="-84623.904636988009" sparseCutoff="1.0000000000000000"/>
      <sparseX i="54" alpha="-79043.712444857127" sparseCutoff="1.0000000000000000"/>
      <sparseX i="55" alpha="61920.292799387076" sparseCutoff="1.0000000000000000"/>
      <sparseX i="56" alpha="36102.318072561604" sparseCutoff="1.0000000000000000"/>
      <sparseX i="57" alpha="79253.011151380779" sparseCutoff="1.0000000000000000"/>
      <sparseX i="58" alpha="-7392.3935295798201" sparseCutoff="1.0000000000000000"/>
      <sparseX i="59" alpha="53114.063413803226" sparseCutoff="1.0000000000000000"/>
      <sparseX i="60" alpha="28494.028941659973" sparseCutoff="1.0000000000000000"/>
      <sparseX i="61" alpha="-15971.920645128965" sparseCutoff="1.0000000000000000"/>
      <sparseX i="62" alpha="41746.375174181965" sparseCutoff="1.0000000000000000"/>
      <sparseX i="63" alpha="-40394.201386758148" sparseCutoff="1.0000000000000000"/>
      <sparseX i="64" alpha="-41498.500849575168" sparseCutoff="1.0000000000000000"/>
      <sparseX i="65" alpha="8975.8947428945867" sparseCutoff="1.0000000000000000"/>
      <sparseX i="66" alpha="-11297.151753084865" sparseCutoff="1.0000000000000000"/>
      <sparseX i="67" alpha="1479.3618931460328" sparseCutoff="1.0000000000000000"/>
      <sparseX i="68" alpha="41016.901473148799" sparseCutoff="1.0000000000000000"/>
      <sparseX i="69" alpha="126.62757201086558" sparseCutoff="1.0000000000000000"/>
      <sparseX i="70" alpha="13404.341081692672" sparseCutoff="1.0000000000000000"/>
      <sparseX i="71" alpha="-7292.8998791329468" sparseCutoff="1.0000000000000000"/>
      <sparseX i="72" alpha="33214.863393554857" sparseCutoff="1.0000000000000000"/>
      <sparseX i="73" alpha="-26706.505554101201" sparseCutoff="1.0000000000000000"/>
      <sparseX i="74" alpha="-54155.415492608758" sparseCutoff="1.0000000000000000"/>
      <sparseX i="75" alpha="22234.673222498361" sparseCutoff="1.0000000000000000"/>
      <sparseX i="76" alpha="138233.59586588223" sparseCutoff="1.0000000000000000"/>
      <sparseX i="77" alpha="43696.900633541351" sparseCutoff="1.0000000000000000"/>
      <sparseX i="78" alpha="7182.3127368222949" sparseCutoff="1.0000000000000000"/>
      <sparseX i="79" alpha="6012.4397751948509" sparseCutoff="1.0000000000000000"/>
      <sparseX i="80" alpha="-3403.2850998089625" sparseCutoff="1.0000000000000000"/>
      <sparseX i="81" alpha="2664.1237586795173" sparseCutoff="1.0000000000000000"/>
      <sparseX i="82" alpha="-39316.383740947174" sparseCutoff="1.0000000000000000"/>
      <sparseX i="83" alpha="10356.483891544471" sparseCutoff="1.0000000000000000"/>
      <sparseX i="84" alpha="40959.920183512222" sparseCutoff="1.0000000000000000"/>
      <sparseX i="85" alpha="16666.321442020537" sparseCutoff="1.0000000000000000"/>
      <sparseX i="86" alpha="-7145.8023106706269" sparseCutoff="1.0000000000000000"/>
      <sparseX i="87" alpha="-14968.215012862915" sparseCutoff="1.0000000000000000"/>
      <sparseX i="88" alpha="24031.713952803311" sparseCutoff="1.0000000000000000"/>
      <sparseX i="89" alpha="-35150.771590515964" sparseCutoff="1.0000000000000000"/>
      <sparseX i="90" alpha="26981.955162028215" sparseCutoff="1.0000000000000000"/>
      <sparseX i="91" alpha="-13290.335192946222" sparseCutoff="1.0000000000000000"/>
      <sparseX i="92" alpha="13363.271296245661" sparseCutoff="1.0000000000000000"/>
      <sparseX i="93" alpha="36381.339205599579" sparseCutoff="1.0000000000000000"/>
      <sparseX i="94" alpha="-36869.355226165877" sparseCutoff="1.0000000000000000"/>
      <sparseX i="95" alpha="30452.118416518315" sparseCutoff="1.0000000000000000"/>
      <sparseX i="96" alpha="14547.423877017309" sparseCutoff="1.0000000000000000"/>
      <sparseX i="97" alpha="43284.400611074787" sparseCutoff="1.0000000000000000"/>
      <sparseX i="98" alpha="43656.361237355653" sparseCutoff="1.0000000000000000"/>
      <sparseX i="99" alpha="-5613.5711863028164" sparseCutoff="1.0000000000000000"/>
      <sparseX i="100" alpha="48263.064006787274" sparseCutoff="1.0000000000000000"/>
      <sparseX i="101" alpha="-84802.912149393931" sparseCutoff="1.0000000000000000"/>
      <sparseX i="102" alpha="21106.869725863540" sparseCutoff="1.0000000000000000"/>
      <sparseX i="103" alpha="-23464.930156538583" sparseCutoff="1.0000000000000000"/>
      <sparseX i="104" alpha="-8998.1130454422619" sparseCutoff="1.0000000000000000"/>
      <sparseX i="105" alpha="35067.014192709081" sparseCutoff="1.0000000000000000"/>
      <sparseX i="106" alpha="28057.820828629356" sparseCutoff="1.0000000000000000"/>
      <sparseX i="107" alpha="-8083.9434274443238" sparseCutoff="1.0000000000000000"/>
      <sparseX i="108" alpha="24037.346485006099" sparseCutoff="1.0000000000000000"/>
      <sparseX i="109" alpha="-27849.223197114126" sparseCutoff="1.0000000000000000"/>
      <sparseX i="110" alpha="-46306.717035338697" sparseCutoff="1.0000000000000000"/>
      <sparseX i="111" alpha="16382.758494245019" sparseCutoff="1.0000000000000000"/>
      <sparseX i="112" alpha="26903.073278587297" sparseCutoff="1.0000000000000000"/>
      <sparseX i="113" alpha="-8560.1408709648895" sparseCutoff="1.0000000000000000"/>
      <sparseX i="114" alpha="15433.734092072387" sparseCutoff="1.0000000000000000"/>
      <sparseX i="115" alpha="-22415.328818432277" sparseCutoff="1.0000000000000000"/>
      <sparseX i="116" alpha="29374.503546410186" sparseCutoff="1.0000000000000000"/>
      <sparseX i="117" alpha="-103880.20900949862" sparseCutoff="1.0000000000000000"/>
      <sparseX i="118" alpha="5713.6378683202665" sparseCutoff="1.0000000000000000"/>
      <sparseX i="119" alpha="7790.8704172778725" sparseCutoff="1.0000000000000000"/>
      <sparseX i="120" alpha="-19824.072326540358" sparseCutoff="1.0000000000000000"/>
      <sparseX i="121" alpha="-1051.9786786644445" sparseCutoff="1.0000000000000000"/>
      <sparseX i="122" alpha="11429.168871407323" sparseCutoff="1.0000000000000000"/>
      <sparseX i="123" alpha="-17559.022077665362" sparseCutoff="1.0000000000000000"/>
      <sparseX i="124" alpha="-162053.74191755083" sparseCutoff="1.0000000000000000"/>
      <sparseX i="125" alpha="-18907.440283626966" sparseCutoff="1.0000000000000000"/>
      <sparseX i="126" alpha="76421.661428908134" sparseCutoff="1.0000000000000000"/>
      <sparseX i="127" alpha="-16975.398959811104" sparseCutoff="1.0000000000000000"/>
      <sparseX i="128" alpha="-25223.384311586706" sparseCutoff="1.0000000000000000"/>
      <sparseX i="129" alpha="6485.9229299433018" sparseCutoff="1.0000000000000000"/>
      <sparseX i="130" alpha="8258.8918238487822" sparseCutoff="1.0000000000000000"/>
      <sparseX i="131" alpha="-10268.397574922723" sparseCutoff="1.0000000000000000"/>
      <sparseX i="132" alpha="24721.976979649498" sparseCutoff="1.0000000000000000"/>
      <sparseX i="133" alpha="-7923.7421438573419" sparseCutoff="1.0000000000000000"/>
      <sparseX i="134" alpha="-38784.698609408711" sparseCutoff="1.0000000000000000"/>
      <sparseX i="135" alpha="-106857.99082329114" sparseCutoff="1.0000000000000000"/>
      <sparseX i="136" alpha="-35893.195291492448" sparseCutoff="1.0000000000000000"/>
      <sparseX i="137" alpha="8174.3315909397952" sparseCutoff="1.0000000000000000"/>
      <sparseX i="138" alpha="-4180.9027270847992" sparseCutoff="1.0000000000000000"/>
      <sparseX i="139" alpha="-22668.340099576348" sparseCutoff="1.0000000000000000"/>
      <sparseX i="140" alpha="5005.1740263568963" sparseCutoff="1.0000000000000000"/>
      <sparseX i="141" alpha="-54037.921044511051" sparseCutoff="1.0000000000000000"/>
      <sparseX i="142" alpha="-33727.294745005027" sparseCutoff="1.0000000000000000"/>
      <sparseX i="143" alpha="-23128.248909421880" sparseCutoff="1.0000000000000000"/>
      <sparseX i="144" alpha="96556.532780370195" sparseCutoff="1.0000000000000000"/>
      <sparseX i="145" alpha="11275.511663666663" sparseCutoff="1.0000000000000000"/>
      <sparseX i="146" alpha="-65160.808726261559" sparseCutoff="1.0000000000000000"/>
      <sparseX i="147" alpha="-4586.4185560138840" sparseCutoff="1.0000000000000000"/>
      <sparseX i="148" alpha="-6734.6162377656301" sparseCutoff="1.0000000000000000"/>
      <sparseX i="149" alpha="14120.870619837311" sparseCutoff="1.0000000000000000"/>
      <sparseX i="150" alpha="29916.909088889410" sparseCutoff="1.0000000000000000"/>
      <sparseX i="151" alpha="-39341.474904711002" sparseCutoff="1.0000000000000000"/>
      <sparseX i="152" alpha="111270.12179305425" sparseCutoff="1.0000000000000000"/>
      <sparseX i="153" alpha="5495.9351836674305" sparseCutoff="1.0000000000000000"/>
      <sparseX i="154" alpha="-9224.5851166595821" sparseCutoff="1.0000000000000000"/>
      <sparseX i="155" alpha="36149.181409768076" sparseCutoff="1.0000000000000000"/>
      <sparseX i="156" alpha="1665.2304898156851" sparseCutoff="1.0000000000000000"/>
      <sparseX i="157" alpha="-66262.015542734342" sparseCutoff="1.0000000000000000"/>
      <sparseX i="158" alpha="-4913.4787794606136" sparseCutoff="1.0000000000000000"/>
      <sparseX i="159" alpha="52826.812104702251" sparseCutoff="1.0000000000000000"/>
      <sparseX i="160" alpha="-24248.885977533391" sparseCutoff="1.0000000000000000"/>
      <sparseX i="161" alpha="37270.274928290775" sparseCutoff="1.0000000000000000"/>
      <sparseX i="162" alpha="-64591.189096214388" sparseCutoff="1.0000000000000000"/>
      <sparseX i="163" alpha="-27615.818997902294" sparseCutoff="1.0000000000000000"/>
      <sparseX i="164" alpha="-7466.0737208691835" sparseCutoff="1.0000000000000000"/>
      <sparseX i="165" alpha="72066.635290641061" sparseCutoff="1.0000000000000000"/>
      <sparseX i="166" alpha="-38481.615831963951" sparseCutoff="1.0000000000000000"/>
      <sparseX i="167" alpha="50780.152301334478" sparseCutoff="1.0000000000000000"/>
      <sparseX i="168" alpha="-21502.416074363813" sparseCutoff="1.0000000000000000"/>
      <sparseX i="169" alpha="-1224.6644844236428" sparseCutoff="1.0000000000000000"/>
      <sparseX i="170" alpha="41558.686804942023" sparseCutoff="1.0000000000000000"/>
      <sparseX i="171" alpha="-54181.229940478341" sparseCutoff="1.0000000000000000"/>
      <sparseX i="172" alpha="-12517.597264248523" sparseCutoff="1.0000000000000000"/>
      <sparseX i="173" alpha="-29401.350995138182" sparseCutoff="1.0000000000000000"/>
      <sparseX i="174" alpha="10077.384048903165" sparseCutoff="1.0000000000000000"/>
      <sparseX i="175" alpha="100597.53091491031" sparseCutoff="1.0000000000000000"/>
      <sparseX i="176" alpha="-57797.061382943910" sparseCutoff="1.0000000000000000"/>
      <sparseX i="177" alpha="61059.970076927457" sparseCutoff="1.0000000000000000"/>
      <sparseX i="178" alpha="3246.1347978198746" sparseCutoff="1.0000000000000000"/>
      <sparseX i="179" alpha="-4124.3702489486896" sparseCutoff="1.0000000000000000"/>
      <sparseX i="180" alpha="-52142.259812767101" sparseCutoff="1.0000000000000000"/>
      <sparseX i="181" alpha="-33580.255579669822" sparseCutoff="1.0000000000000000"/>
      <sparseX i="182" alpha="24383.687178136584" sparseCutoff="1.0000000000000000"/>
      <sparseX i="183" alpha="-63758.586508032255" sparseCutoff="1.0000000000000000"/>
      <sparseX i="184" alpha="40349.633943698413" sparseCutoff="1.0000000000000000"/>
      <sparseX i="185" alpha="58415.324204849981" sparseCutoff="1.0000000000000000"/>
      <sparseX i="186" alpha="12464.256035240096" sparseCutoff="1.0000000000000000"/>
      <sparseX i="187" alpha="36560.778595270604" sparseCutoff="1.0000000000000000"/>
      <sparseX i="188" alpha="-62759.518573660644" sparseCutoff="1.0000000000000000"/>
      <sparseX i="189" alpha="-379.36584355938010" sparseCutoff="1.0000000000000000"/>
      <sparseX i="190" alpha="-66951.516432414181" sparseCutoff="1.0000000000000000"/>
      <sparseX i="191" alpha="-6193.8456502458148" sparseCutoff="1.0000000000000000"/>
      <sparseX i="192" alpha="5470.4544932363460" sparseCutoff="1.0000000000000000"/>
      <sparseX i="193" alpha="-19042.011439755239" sparseCutoff="1.0000000000000000"/>
      <sparseX i="194" alpha="-56356.928183668737" sparseCutoff="1.0000000000000000"/>
      <sparseX i="195" alpha="-57767.475682918637" sparseCutoff="1.0000000000000000"/>
      <sparseX i="196" alpha="50608.058445414055" sparseCutoff="1.0000000000000000"/>
      <sparseX i="197" alpha="12413.451265300104" sparseCutoff="1.0000000000000000"/>
      <sparseX i="198" alpha="41927.195814485647" sparseCutoff="1.0000000000000000"/>
      <sparseX i="199" alpha="-66280.041690378275" sparseCutoff="1.0000000000000000"/>
      <sparseX i="200" alpha="-126074.50743423213" sparseCutoff="1.0000000000000000"/>
      <sparseX i="201" alpha="50593.145666226243" sparseCutoff="1.0000000000000000"/>
      <sparseX i="202" alpha="-8201.0837723703371" sparseCutoff="1.0000000000000000"/>
      <sparseX i="203" alpha="12714.208869352275" sparseCutoff="1.0000000000000000"/>
      <sparseX i="204" alpha="-41314.433334658039" sparseCutoff="1.0000000000000000"/>
      <sparseX i="205" alpha="-28816.949949435530" sparseCutoff="1.0000000000000000"/>
      <sparseX i="206" alpha="47574.077289113207" sparseCutoff="1.0000000000000000"/>
      <sparseX i="207" alpha="-2440.8684101199588" sparseCutoff="1.0000000000000000"/>
      <sparseX i="208" alpha="-20790.748825045484" sparseCutoff="1.0000000000000000"/>
      <sparseX i="209" alpha="84559.914914446548" sparseCutoff="1.0000000000000000"/>
      <sparseX i="210" alpha="-44253.076761111675" sparseCutoff="1.0000000000000000"/>
      <sparseX i="211" alpha="-17075.987500514097" sparseCutoff="1.0000000000000000"/>
      <sparseX i="212" alpha="26252.669874679825" sparseCutoff="1.0000000000000000"/>
      <sparseX i="213" alpha="-4377.4080561550500" sparseCutoff="1.0000000000000000"/>
      <sparseX i="214" alpha="3376.0600738631229" sparseCutoff="1.0000000000000000"/>
      <sparseX i="215" alpha="-22599.844502747543" sparseCutoff="1.0000000000000000"/>
      <sparseX i="216" alpha="33016.882126646160" sparseCutoff="1.0000000000000000"/>
      <sparseX i="217" alpha="49753.418714468127" sparseCutoff="1.0000000000000000"/>
      <sparseX i="218" alpha="-23278.930731662636" sparseCutoff="1.0000000000000000"/>
      <sparseX i="219" alpha="-31443.161191391682" sparseCutoff="1.0000000000000000"/>
      <sparseX i="220" alpha="3825.0512497070972" sparseCutoff="1.0000000000000000"/>
      <sparseX i="221" alpha="-27327.697116655178" sparseCutoff="1.0000000000000000"/>
      <sparseX i="222" alpha="-35977.304771491799" sparseCutoff="1.0000000000000000"/>
      <sparseX i="223" alpha="34544.127353806100" sparseCutoff="1.0000000000000000"/>
      <sparseX i="224" alpha="-13958.646145051856" sparseCutoff="1.0000000000000000"/>
      <sparseX i="225" alpha="-85825.219776996673" sparseCutoff="1.0000000000000000"/>
      <sparseX i="226" alpha="-112440.69297419643" sparseCutoff="1.0000000000000000"/>
      <sparseX i="227" alpha="18486.458904103154" sparseCutoff="1.0000000000000000"/>
      <sparseX i="228" alpha="8108.0225048853017" sparseCutoff="1.0000000000000000"/>
      <sparseX i="229" alpha="5250.5196496780245" sparseCutoff="1.0000000000000000"/>
      <sparseX i="230" alpha="14892.079339605449" sparseCutoff="1.0000000000000000"/>
      <sparseX i="231" alpha="3822.0158415872716" sparseCutoff="1.0000000000000000"/>
      <sparseX i="232" alpha="12365.410442994355" sparseCutoff="1.0000000000000000"/>
      <sparseX i="233" alpha="-16401.465338002876" sparseCutoff="1.0000000000000000"/>
      <sparseX i="234" alpha="50060.722417285418" sparseCutoff="1.0000000000000000"/>
      <sparseX i="235" alpha="-6046.3855197930843" sparseCutoff="1.0000000000000000"/>
      <sparseX i="236" alpha="-50642.926322799460" sparseCutoff="1.0000000000000000"/>
      <sparseX i="237" alpha="984.19963919185943" sparseCutoff="1.0000000000000000"/>
      <sparseX i="238" alpha="9410.9476352191650" sparseCutoff="1.0000000000000000"/>
      <sparseX i="239" alpha="13898.131929188650" sparseCutoff="1.0000000000000000"/>
      <sparseX i="240" alpha="-44437.206451541046" sparseCutoff="1.0000000000000000"/>
      <sparseX i="241" alpha="-111002.46590163912" sparseCutoff="1.0000000000000000"/>
      <sparseX i="242" alpha="-74283.764918741654" sparseCutoff="1.0000000000000000"/>
      <sparseX i="243" alpha="36829.319912347091" sparseCutoff="1.0000000000000000"/>
      <sparseX i="244" alpha="-77662.714938755729" sparseCutoff="1.0000000000000000"/>
      <sparseX i="245" alpha="-10269.312201477549" sparseCutoff="1.0000000000000000"/>
      <sparseX i="246" alpha="35379.879568592682" sparseCutoff="1.0000000000000000"/>
      <sparseX i="247" alpha="83221.146154079077" sparseCutoff="1.0000000000000000"/>
      <sparseX i="248" alpha="18208.431364967018" sparseCutoff="1.0000000000000000"/>
      <sparseX i="249" alpha="23984.619445468605" sparseCutoff="1.0000000000000000"/>
      <sparseX i="250" alpha="441.00997694886979" sparseCutoff="1.0000000000000000"/>
      <sparseX i="251" alpha="-55968.786013628305" sparseCutoff="1.0000000000000000"/>
      <sparseX i="252" alpha="68007.966777341615" sparseCutoff="1.0000000000000000"/>
      <sparseX i="253" alpha="74144.457255932561" sparseCutoff="1.0000000000000000"/>
      <sparseX i="254" alpha="7932.1906185674297" sparseCutoff="1.0000000000000000"/>
      <sparseX i="255" alpha="-2592.2770633030132" sparseCutoff="1.0000000000000000"/>
      <sparseX i="256" alpha="74367.672306562774" sparseCutoff="1.0000000000000000"/>
      <sparseX i="257" alpha="8071.6821579101870" sparseCutoff="1.0000000000000000"/>
      <sparseX i="258" alpha="-81187.931689191115" sparseCutoff="1.0000000000000000"/>
      <sparseX i="259" alpha="-56333.406010859544" sparseCutoff="1.0000000000000000"/>
      <sparseX i="260" alpha="9765.0441711203694" sparseCutoff="1.0000000000000000"/>
      <sparseX i="261" alpha="-35390.971382488380" sparseCutoff="1.0000000000000000"/>
      <sparseX i="262" alpha="5276.1313571851533" sparseCutoff="1.0000000000000000"/>
      <sparseX i="263" alpha="-8332.2781043031719" sparseCutoff="1.0000000000000000"/>
      <sparseX i="264" alpha="-107935.75892301623" sparseCutoff="1.0000000000000000"/>
      <sparseX i="265" alpha="-249.57857086786532" sparseCutoff="1.0000000000000000"/>
      <sparseX i="266" alpha="-8673.6691773119619" sparseCutoff="1.0000000000000000"/>
      <sparseX i="267" alpha="16939.027626456209" sparseCutoff="1.0000000000000000"/>
      <sparseX i="268" alpha="5296.3942504221341" sparseCutoff="1.0000000000000000"/>
      <sparseX i="269" alpha="-92982.856244836832" sparseCutoff="1.0000000000000000"/>
      <sparseX i="270" alpha="-146318.87536079338" sparseCutoff="1.0000000000000000"/>
      <sparseX i="271" alpha="11837.086026679559" sparseCutoff="1.0000000000000000"/>
      <sparseX i="272" alpha="29602.828885987492" sparseCutoff="1.0000000000000000"/>
      <sparseX i="273" alpha="-28048.457050107365" sparseCutoff="1.0000000000000000"/>
      <sparseX i="274" alpha="-53880.347468715809" sparseCutoff="1.0000000000000000"/>
      <sparseX i="275" alpha="5949.6019461791611" sparseCutoff="1.0000000000000000"/>
      <sparseX i="276" alpha="4601.3921743489100" sparseCutoff="1.0000000000000000"/>
      <sparseX i="277" alpha="-7630.7056883131145" sparseCutoff="1.0000000000000000"/>
      <sparseX i="278" alpha="98369.336488274523" sparseCutoff="1.0000000000000000"/>
      <sparseX i="279" alpha="35143.848455025356" sparseCutoff="1.0000000000000000"/>
      <sparseX i="280" alpha="4633.4216465323479" sparseCutoff="1.0000000000000000"/>
      <sparseX i="281" alpha="-169490.01448090846" sparseCutoff="1.0000000000000000"/>
      <sparseX i="282" alpha="11466.272750368593" sparseCutoff="1.0000000000000000"/>
      <sparseX i="283" alpha="4378.6054559937056" sparseCutoff="1.0000000000000000"/>
      <sparseX i="284" alpha="-68843.084356095729" sparseCutoff="1.0000000000000000"/>
      <sparseX i="285" alpha="-5389.5405673722653" sparseCutoff="1.0000000000000000"/>
      <sparseX i="286" alpha="53208.345038337393" sparseCutoff="1.0000000000000000"/>
      <sparseX i="287" alpha="-3807.3930224795272" sparseCutoff="1.0000000000000000"/>
      <sparseX i="288" alpha="-1362.9590252776420" sparseCutoff="1.0000000000000000"/>
      <sparseX i="289" alpha="-31269.209201443191" sparseCutoff="1.0000000000000000"/>
      <sparseX i="290" alpha="48703.254968013127" sparseCutoff="1.0000000000000000"/>
      <sparseX i="291" alpha="-108940.08741040021" sparseCutoff="1.0000000000000000"/>
      <sparseX i="292" alpha="-46610.967983178598" sparseCutoff="1.0000000000000000"/>
      <sparseX i="293" alpha="-210465.57481931229" sparseCutoff="1.0000000000000000"/>
      <sparseX i="294" alpha="67912.689852503507" sparseCutoff="1.0000000000000000"/>
      <sparseX i="295" alpha="65588.777003598967" sparseCutoff="1.0000000000000000"/>
      <sparseX i="296" alpha="53474.169854983011" sparseCutoff="1.0000000000000000"/>
      <sparseX i="297" alpha="-10303.439314997520" sparseCutoff="1.0000000000000000"/>
      <sparseX i="298" alpha="34152.335004572888" sparseCutoff="1.0000000000000000"/>
      <sparseX i="299" alpha="13262.118637020649" sparseCutoff="1.0000000000000000"/>
      <sparseX i="300" alpha="-38329.036973674229" sparseCutoff="1.0000000000000000"/>
      <sparseX i="301" alpha="-236492.26894620826" sparseCutoff="1.0000000000000000"/>
      <sparseX i="302" alpha="-5404.4215954598476" sparseCutoff="1.0000000000000000"/>
      <sparseX i="303" alpha="47986.012129680545" sparseCutoff="1.0000000000000000"/>
      <sparseX i="304" alpha="118633.10752476029" sparseCutoff="1.0000000000000000"/>
      <sparseX i="305" alpha="12658.128615064930" sparseCutoff="1.0000000000000000"/>
      <sparseX i="306" alpha="38634.536920576757" sparseCutoff="1.0000000000000000"/>
      <sparseX i="307" alpha="-56328.095520640018" sparseCutoff="1.0000000000000000"/>
      <sparseX i="308" alpha="-9795.5940681374886" sparseCutoff="1.0000000000000000"/>
      <sparseX i="309" alpha="43080.525005516494" sparseCutoff="1.0000000000000000"/>
      <sparseX i="310" alpha="-56493.457996305682" sparseCutoff="1.0000000000000000"/>
      <sparseX i="311" alpha="92993.363856349679" sparseCutoff="1.0000000000000000"/>
      <sparseX i="312" alpha="-30132.568925417094" sparseCutoff="1.0000000000000000"/>
      <sparseX i="313" alpha="-33819.517717220660" sparseCutoff="1.0000000000000000"/>
      <sparseX i="314" alpha="-146667.57051009065" sparseCutoff="1.0000000000000000"/>
      <sparseX i="315" alpha="-14602.581421475510" sparseCutoff="1.0000000000000000"/>
      <sparseX i="316" alpha="67872.807307046591" sparseCutoff="1.0000000000000000"/>
      <sparseX i="317" alpha="6847.6750439168445" sparseCutoff="1.0000000000000000"/>
      <sparseX i="318" alpha="19489.068714213859" sparseCutoff="1.0000000000000000"/>
      <sparseX i="319" alpha="-78861.652588453420" sparseCutoff="1.0000000000000000"/>
      <sparseX i="320" alpha="37564.339827850301" sparseCutoff="1.0000000000000000"/>
      <sparseX i="321" alpha="-39181.011027601984" sparseCutoff="1.0000000000000000"/>
      <sparseX i="322" alpha="20835.947344476775" sparseCutoff="1.0000000000000000"/>
      <sparseX i="323" alpha="111785.44035860615" sparseCutoff="1.0000000000000000"/>
      <sparseX i="324" alpha="9810.9642931663111" sparseCutoff="1.0000000000000000"/>
      <sparseX i="325" alpha="54333.470235461180" sparseCutoff="1.0000000000000000"/>
      <sparseX i="326" alpha="-83162.379014536797" sparseCutoff="1.0000000000000000"/>
      <sparseX i="327" alpha="34191.919845544464" sparseCutoff="1.0000000000000000"/>
      <sparseX i="328" alpha="15813.358655430817" sparseCutoff="1.0000000000000000"/>
      <sparseX i="329" alpha="-63103.823995644270" sparseCutoff="1.0000000000000000"/>
      <sparseX i="330" alpha="-3445.0334680352648" sparseCutoff="1.0000000000000000"/>
      <sparseX i="331" alpha="-150455.17581840034" sparseCutoff="1.0000000000000000"/>
      <sparseX i="332" alpha="-7143.4641390977504" sparseCutoff="1.0000000000000000"/>
      <sparseX i="333" alpha="-49018.596579887562" sparseCutoff="1.0000000000000000"/>
      <sparseX i="334" alpha="-89600.460908851572" sparseCutoff="1.0000000000000000"/>
      <sparseX i="335" alpha="-20755.094491925822" sparseCutoff="1.0000000000000000"/>
      <sparseX i="336" alpha="-68889.731572225486" sparseCutoff="1.0000000000000000"/>
      <sparseX i="337" alpha="-60563.009021155078" sparseCutoff="1.0000000000000000"/>
      <sparseX i="338" alpha="-40290.061462225560" sparseCutoff="1.0000000000000000"/>
      <sparseX i="339" alpha="56259.428155971837" sparseCutoff="1.0000000000000000"/>
      <sparseX i="340" alpha="168544.95900152408" sparseCutoff="1.0000000000000000"/>
      <sparseX i="341" alpha="-157766.85507333069" sparseCutoff="1.0000000000000000"/>
      <sparseX i="342" alpha="204320.75223090427" sparseCutoff="1.0000000000000000"/>
      <sparseX i="343" alpha="-40652.635751755835" sparseCutoff="1.0000000000000000"/>
      <sparseX i="344" alpha="126208.20942897844" sparseCutoff="1.0000000000000000"/>
      <sparseX i="345" alpha="-30650.980315762401" sparseCutoff="1.0000000000000000"/>
      <sparseX i="346" alpha="-155632.47364694224" sparseCutoff="1.0000000000000000"/>
      <sparseX i="347" alpha="-20070.530044638985" sparseCutoff="1.0000000000000000"/>
      <sparseX i="348" alpha="-55765.147890836248" sparseCutoff="1.0000000000000000"/>
      <sparseX i="349" alpha="-69011.755187569535" sparseCutoff="1.0000000000000000"/>
      <sparseX i="350" alpha="-37956.802252540387" sparseCutoff="1.0000000000000000"/>
      <sparseX i="351" alpha="-14379.668748585396" sparseCutoff="1.0000000000000000"/>
      <sparseX i="352" alpha="20411.595463415888" sparseCutoff="1.0000000000000000"/>
      <sparseX i="353" alpha="-53506.368452943447" sparseCutoff="1.0000000000000000"/>
      <sparseX i="354" alpha="89857.818742319432" sparseCutoff="1.0000000000000000"/>
      <sparseX i="355" alpha="122361.62382904629" sparseCutoff="1.0000000000000000"/>
      <sparseX i="356" alpha="-115891.79566323792" sparseCutoff="1.0000000000000000"/>
      <sparseX i="357" alpha="58536.280881199993" sparseCutoff="1.0000000000000000"/>
      <sparseX i="358" alpha="-76239.644993577022" sparseCutoff="1.0000000000000000"/>
      <sparseX i="359" alpha="-16798.365952359836" sparseCutoff="1.0000000000000000"/>
      <sparseX i="360" alpha="-96960.918415886932" sparseCutoff="1.0000000000000000"/>
      <sparseX i="361" alpha="-80519.712500897556" sparseCutoff="1.0000000000000000"/>
      <sparseX i="362" alpha="-114895.14848374228" sparseCutoff="1.0000000000000000"/>
      <sparseX i="363" alpha="176891.05616629889" sparseCutoff="1.0000000000000000"/>
      <sparseX i="364" alpha="-59512.499899904229" sparseCutoff="1.0000000000000000"/>
      <sparseX i="365" alpha="5387.8218477173305" sparseCutoff="1.0000000000000000"/>
      <sparseX i="366" alpha="-15216.198727749315" sparseCutoff="1.0000000000000000"/>
      <sparseX i="367" alpha="-272321.24473918416" sparseCutoff="1.0000000000000000"/>
      <sparseX i="368" alpha="-23185.325662376446" sparseCutoff="1.0000000000000000"/>
      <sparseX i="369" alpha="31495.337720774151" sparseCutoff="1.0000000000000000"/>
      <sparseX i="370" alpha="-3243.8748149512703" sparseCutoff="1.0000000000000000"/>
      <sparseX i="371" alpha="-49891.852022929328" sparseCutoff="1.0000000000000000"/>
      <sparseX i="372" alpha="76195.260132332507" sparseCutoff="1.0000000000000000"/>
      <sparseX i="373" alpha="-56428.156101418826" sparseCutoff="1.0000000000000000"/>
      <sparseX i="374" alpha="-5883.2196947005086" sparseCutoff="1.0000000000000000"/>
      <sparseX i="375" alpha="4115.7977050561476" sparseCutoff="1.0000000000000000"/>
      <sparseX i="376" alpha="-78958.726664225469" sparseCutoff="1.0000000000000000"/>
      <sparseX i="377" alpha="62209.517752229171" sparseCutoff="1.0000000000000000"/>
      <sparseX i="378" alpha="84043.110523826283" sparseCutoff="1.0000000000000000"/>
      <sparseX i="379" alpha="2729.5086620765569" sparseCutoff="1.0000000000000000"/>
      <sparseX i="380" alpha="-81918.812935141323" sparseCutoff="1.0000000000000000"/>
      <sparseX i="381" alpha="-139162.57612497822" sparseCutoff="1.0000000000000000"/>
      <sparseX i="382" alpha="-47209.833763269453" sparseCutoff="1.0000000000000000"/>
      <sparseX i="383" alpha="25393.187694186436" sparseCutoff="1.0000000000000000"/>
      <sparseX i="384" alpha="65062.856527499709" sparseCutoff="1.0000000000000000"/>
      <sparseX i="385" alpha="-5365.6015384629582" sparseCutoff="1.0000000000000000"/>
      <sparseX i="386" alpha="-151225.24452082737" sparseCutoff="1.0000000000000000"/>
      <sparseX i="387" alpha="-49728.559016190178" sparseCutoff="1.0000000000000000"/>
      <sparseX i="388" alpha="-76481.823910004925" sparseCutoff="1.0000000000000000"/>
      <sparseX i="389" alpha="73883.523284256837" sparseCutoff="1.0000000000000000"/>
      <sparseX i="390" alpha="-54854.664931769134" sparseCutoff="1.0000000000000000"/>
      <sparseX i="391" alpha="7120.5967028766736" sparseCutoff="1.0000000000000000"/>
      <sparseX i="392" alpha="218234.49566916822" sparseCutoff="1.0000000000000000"/>
      <sparseX i="393" alpha="-120154.35998668279" sparseCutoff="1.0000000000000000"/>
      <sparseX i="394" alpha="160767.26890753079" sparseCutoff="1.0000000000000000"/>
      <sparseX i="395" alpha="122634.76238447199" sparseCutoff="1.0000000000000000"/>
      <sparseX i="396" alpha="-32882.096890777611" sparseCutoff="1.0000000000000000"/>
      <sparseX i="397" alpha="89010.185152077174" sparseCutoff="1.0000000000000000"/>
      <sparseX i="398" alpha="167805.93724546372" sparseCutoff="1.0000000000000000"/>
      <sparseX i="399" alpha="-99171.412857537551" sparseCutoff="1.0000000000000000"/>
      <sparseX i="400" alpha="30686.655027728542" sparseCutoff="1.0000000000000000"/>
      <sparseX i="401" alpha="205595.07550698984" sparseCutoff="1.0000000000000000"/>
      <sparseX i="402" alpha="129323.39035784287" sparseCutoff="1.0000000000000000"/>
      <sparseX i="403" alpha="60742.368242186181" sparseCutoff="1.0000000000000000"/>
      <sparseX i="404" alpha="12974.732284513841" sparseCutoff="1.0000000000000000"/>
      <sparseX i="405" alpha="105036.67344345275" sparseCutoff="1.0000000000000000"/>
      <sparseX i="406" alpha="20697.416612719113" sparseCutoff="1.0000000000000000"/>
      <sparseX i="407" alpha="106143.80002104913" sparseCutoff="1.0000000000000000"/>
      <sparseX i="408" alpha="31757.097551059509" sparseCutoff="1.0000000000000000"/>
      <sparseX i="409" alpha="31288.290613949051" sparseCutoff="1.0000000000000000"/>
      <sparseX i="410" alpha="-11754.542559740234" sparseCutoff="1.0000000000000000"/>
      <sparseX i="411" alpha="-216180.08888720392" sparseCutoff="1.0000000000000000"/>
      <sparseX i="412" alpha="47281.568017336896" sparseCutoff="1.0000000000000000"/>
      <sparseX i="413" alpha="-66973.431213235497" sparseCutoff="1.0000000000000000"/>
      <sparseX i="414" alpha="9320.4896077115754" sparseCutoff="1.0000000000000000"/>
      <sparseX i="415" alpha="-60263.236568189168" sparseCutoff="1.0000000000000000"/>
      <sparseX i="416" alpha="-46045.516939922614" sparseCutoff="1.0000000000000000"/>
      <sparseX i="417" alpha="34105.718981521721" sparseCutoff="1.0000000000000000"/>
      <sparseX i="418" alpha="-145340.55939627378" sparseCutoff="1.0000000000000000"/>
      <sparseX i="419" alpha="48760.190069519565" sparseCutoff="1.0000000000000000"/>
      <sparseX i="420" alpha="263253.23941824021" sparseCutoff="1.0000000000000000"/>
      <sparseX i="421" alpha="34578.346474814505" sparseCutoff="1.0000000000000000"/>
      <sparseX i="422" alpha="5527.5436182650665" sparseCutoff="1.0000000000000000"/>
      <sparseX i="423" alpha="-497.98999321816513" sparseCutoff="1.0000000000000000"/>
      <sparseX i="424" alpha="107161.26461960022" sparseCutoff="1.0000000000000000"/>
      <sparseX i="425" alpha="-12442.294691432269" sparseCutoff="1.0000000000000000"/>
      <sparseX i="426" alpha="116688.54052189201" sparseCutoff="1.0000000000000000"/>
      <sparseX i="427" alpha="-22523.710979660278" sparseCutoff="1.0000000000000000"/>
      <sparseX i="428" alpha="-20479.175990201875" sparseCutoff="1.0000000000000000"/>
      <sparseX i="429" alpha="-14885.973594008530" sparseCutoff="1.0000000000000000"/>
      <sparseX i="430" alpha="-179469.01025948039" sparseCutoff="1.0000000000000000"/>
      <sparseX i="431" alpha="12204.161103281942" sparseCutoff="1.0000000000000000"/>
      <sparseX i="432" alpha="-29584.413718163989" sparseCutoff="1.0000000000000000"/>
      <sparseX i="433" alpha="-43574.838768196998" sparseCutoff="1.0000000000000000"/>
      <sparseX i="434" alpha="203640.39258032685" sparseCutoff="1.0000000000000000"/>
      <sparseX i="435" alpha="206252.32172012216" sparseCutoff="1.0000000000000000"/>
      <sparseX i="436" alpha="-14756.441841958784" sparseCutoff="1.0000000000000000"/>
      <sparseX i="437" alpha="-80348.949880655127" sparseCutoff="1.0000000000000000"/>
      <sparseX i="438" alpha="42947.786831690843" sparseCutoff="1.0000000000000000"/>
      <sparseX i="439" alpha="-15418.095643790028" sparseCutoff="1.0000000000000000"/>
      <sparseX i="440" alpha="60416.169874545485" sparseCutoff="1.0000000000000000"/>
      <sparseX i="441" alpha="63258.682704165090" sparseCutoff="1.0000000000000000"/>
      <sparseX i="442" alpha="53950.878555215611" sparseCutoff="1.0000000000000000"/>
      <sparseX i="443" alpha="-17204.930525134925" sparseCutoff="1.0000000000000000"/>
      <sparseX i="444" alpha="73194.942016214045" sparseCutoff="1.0000000000000000"/>
      <sparseX i="445" alpha="138750.94842055617" sparseCutoff="1.0000000000000000"/>
      <sparseX i="446" alpha="-7046.9135460026919" sparseCutoff="1.0000000000000000"/>
      <sparseX i="447" alpha="-19758.959496394669" sparseCutoff="1.0000000000000000"/>
      <sparseX i="448" alpha="-196830.33954280120" sparseCutoff="1.0000000000000000"/>
      <sparseX i="449" alpha="-48668.484278941214" sparseCutoff="1.0000000000000000"/>
      <sparseX i="450" alpha="-193215.61969001748" sparseCutoff="1.0000000000000000"/>
      <sparseX i="451" alpha="65521.168841648898" sparseCutoff="1.0000000000000000"/>
      <sparseX i="452" alpha="-80754.122535599628" sparseCutoff="1.0000000000000000"/>
      <sparseX i="453" alpha="-65215.931771561751" sparseCutoff="1.0000000000000000"/>
      <sparseX i="454" alpha="-78104.993566079444" sparseCutoff="1.0000000000000000"/>
      <sparseX i="455" alpha="42215.562327977103" sparseCutoff="1.0000000000000000"/>
      <sparseX i="456" alpha="124798.02087871065" sparseCutoff="1.0000000000000000"/>
      <sparseX i="457" alpha="-31798.082958889561" sparseCutoff="1.0000000000000000"/>
      <sparseX i="458" alpha="-140786.48744077404" sparseCutoff="1.0000000000000000"/>
      <sparseX i="459" alpha="-21538.037293787591" sparseCutoff="1.0000000000000000"/>
      <sparseX i="460" alpha="-71464.013903379731" sparseCutoff="1.0000000000000000"/>
      <sparseX i="461" alpha="80360.954230219184" sparseCutoff="1.0000000000000000"/>
      <sparseX i="462" alpha="-494063.79494950583" sparseCutoff="1.0000000000000000"/>
      <sparseX i="463" alpha="166997.05098394063" sparseCutoff="1.0000000000000000"/>
      <sparseX i="464" alpha="-10216.882016074429" sparseCutoff="1.0000000000000000"/>
      <sparseX i="465" alpha="-151455.72564117028" sparseCutoff="1.0000000000000000"/>
      <sparseX i="466" alpha="7597.2926318463478" sparseCutoff="1.0000000000000000"/>
      <sparseX i="467" alpha="81433.701632874378" sparseCutoff="1.0000000000000000"/>
      <sparseX i="468" alpha="-1163.6837302107062" sparseCutoff="1.0000000000000000"/>
      <sparseX i="469" alpha="-38504.557268708646" sparseCutoff="1.0000000000000000"/>
      <sparseX i="470" alpha="47774.642181038304" sparseCutoff="1.0000000000000000"/>
      <sparseX i="471" alpha="-129044.66474173145" sparseCutoff="1.0000000000000000"/>
      <sparseX i="472" alpha="69335.826366515001" sparseCutoff="1.0000000000000000"/>
      <sparseX i="473" alpha="-4219.4605138734696" sparseCutoff="1.0000000000000000"/>
      <sparseX i="474" alpha="-90254.400818193360" sparseCutoff="1.0000000000000000"/>
      <sparseX i="475" alpha="-1961.0383701844510" sparseCutoff="1.0000000000000000"/>
      <sparseX i="476" alpha="-88359.652111488962" sparseCutoff="1.0000000000000000"/>
      <sparseX i="477" alpha="-2126.8044057439370" sparseCutoff="1.0000000000000000"/>
      <sparseX i="478" alpha="36351.131441913909" sparseCutoff="1.0000000000000000"/>
      <sparseX i="479" alpha="109040.70734338861" sparseCutoff="1.0000000000000000"/>
      <sparseX i="480" alpha="54515.709303370662" sparseCutoff="1.0000000000000000"/>
      <sparseX i="481" alpha="46661.631923652480" sparseCutoff="1.0000000000000000"/>
      <sparseX i="482" alpha="127008.03347546382" sparseCutoff="1.0000000000000000"/>
      <sparseX i="483" alpha="-143743.52780059216" sparseCutoff="1.0000000000000000"/>
      <sparseX i="484" alpha="91527.770501881358" sparseCutoff="1.0000000000000000"/>
      <sparseX i="485" alpha="-33549.600909569337" sparseCutoff="1.0000000000000000"/>
      <sparseX i="486" alpha="67725.014277314753" sparseCutoff="1.0000000000000000"/>
      <sparseX i="487" alpha="-40582.615059274089" sparseCutoff="1.0000000000000000"/>
      <sparseX i="488" alpha="-185970.84264875445" sparseCutoff="1.0000000000000000"/>
      <sparseX i="489" alpha="-53719.208335932570" sparseCutoff="1.0000000000000000"/>
      <sparseX i="490" alpha="-19398.878927479669" sparseCutoff="1.0000000000000000"/>
      <sparseX i="491" alpha="-217463.38050487946" sparseCutoff="1.0000000000000000"/>
      <sparseX i="492" alpha="-150363.27512909795" sparseCutoff="1.0000000000000000"/>
      <sparseX i="493" alpha="-212197.77417463087" sparseCutoff="1.0000000000000000"/>
      <sparseX i="494" alpha="-129447.92830326981" sparseCutoff="1.0000000000000000"/>
      <sparseX i="495" alpha="84036.201058609629" sparseCutoff="1.0000000000000000"/>
      <sparseX i="496" alpha="90620.808197457882" sparseCutoff="1.0000000000000000"/>
      <sparseX i="497" alpha="-250209.62454019845" sparseCutoff="1.0000000000000000"/>
      <sparseX i="498" alpha="-8232.8897482969624" sparseCutoff="1.0000000000000000"/>
      <sparseX i="499" alpha="106844.16207029366" sparseCutoff="1.0000000000000000"/>
      <sparseX i="500" alpha="4094.5369809013564" sparseCutoff="1.0000000000000000"/>
      <sparseX i="501" alpha="10155.649837529661" sparseCutoff="1.0000000000000000"/>
      <sparseX i="502" alpha="-18211.365899422675" sparseCutoff="1.0000000000000000"/>
      <sparseX i="503" alpha="26913.735640074141" sparseCutoff="1.0000000000000000"/>
      <sparseX i="504" alpha="-25012.342051716019" sparseCutoff="1.0000000000000000"/>
      <sparseX i="505" alpha="27526.191148777438" sparseCutoff="1.0000000000000000"/>
      <sparseX i="506" alpha="-86886.450108856341" sparseCutoff="1.0000000000000000"/>
      <sparseX i="507" alpha="9443.9670611779366" sparseCutoff="1.0000000000000000"/>
      <sparseX i="508" alpha="-877.30085999662083" sparseCutoff="1.0000000000000000"/>
      <sparseX i="509" alpha="3767.2567405471577" sparseCutoff="1.0000000000000000"/>
      <sparseX i="510" alpha="141197.92584393077" sparseCutoff="1.0000000000000000"/>
      <sparseX i="511" alpha="-5386.4913683778195" sparseCutoff="1.0000000000000000"/>
      <sparseX i="512" alpha="18937.762365353083" sparseCutoff="1.0000000000000000"/>
      <sparseX i="513" alpha="-29292.157138010276" sparseCutoff="1.0000000000000000"/>
      <sparseX i="514" alpha="-2268.6390501993765" sparseCutoff="1.0000000000000000"/>
      <sparseX i="515" alpha="21543.576469985470" sparseCutoff="1.0000000000000000"/>
      <sparseX i="516" alpha="-2552.3972143448664" sparseCutoff="1.0000000000000000"/>
      <sparseX i="517" alpha="-27347.103102789624" sparseCutoff="1.0000000000000000"/>
      <sparseX i="518" alpha="40580.721708582481" sparseCutoff="1.0000000000000000"/>
      <sparseX i="519" alpha="109988.40477027513" sparseCutoff="1.0000000000000000"/>
      <sparseX i="520" alpha="-7645.1194197565110" sparseCutoff="1.0000000000000000"/>
      <sparseX i="521" alpha="8808.0663016619674" sparseCutoff="1.0000000000000000"/>
      <sparseX i="522" alpha="2412.8892690311600" sparseCutoff="1.0000000000000000"/>
      <sparseX i="523" alpha="-32678.402444770716" sparseCutoff="1.0000000000000000"/>
      <sparseX i="524" alpha="-3390.9976908434833" sparseCutoff="1.0000000000000000"/>
      <sparseX i="525" alpha="-18527.603614634241" sparseCutoff="1.0000000000000000"/>
      <sparseX i="526" alpha="17820.054633948534" sparseCutoff="1.0000000000000000"/>
      <sparseX i="527" alpha="44006.253990392688" sparseCutoff="1.0000000000000000"/>
      <sparseX i="528" alpha="12572.311330139404" sparseCutoff="1.0000000000000000"/>
      <sparseX i="529" alpha="3981.7705074938358" sparseCutoff="1.0000000000000000"/>
      <sparseX i="530" alpha="79800.628235509619" sparseCutoff="1.0000000000000000"/>
      <sparseX i="531" alpha="10769.320713353467" sparseCutoff="1.0000000000000000"/>
      <sparseX i="532" alpha="54562.338371984944" sparseCutoff="1.0000000000000000"/>
      <sparseX i="533" alpha="-38326.280228081552" sparseCutoff="1.0000000000000000"/>
      <sparseX i="534" alpha="-66386.760877445384" sparseCutoff="1.0000000000000000"/>
      <sparseX i="535" alpha="-38995.814316870863" sparseCutoff="1.0000000000000000"/>
      <sparseX i="536" alpha="-44601.232586083075" sparseCutoff="1.0000000000000000"/>
      <sparseX i="537" alpha="-10606.977186945216" sparseCutoff="1.0000000000000000"/>
      <sparseX i="538" alpha="-150.11601585707348" sparseCutoff="1.0000000000000000"/>
      <sparseX i="539" alpha="-76223.395949330166" sparseCutoff="1.0000000000000000"/>
      <sparseX i="540" alpha="-80401.152456171563" sparseCutoff="1.0000000000000000"/>
      <sparseX i="541" alpha="-2594.0927094367953" sparseCutoff="1.0000000000000000"/>
      <sparseX i="542" alpha="8738.8253284319999" sparseCutoff="1.0000000000000000"/>
      <sparseX i="543" alpha="3757.1319819053451" sparseCutoff="1.0000000000000000"/>
      <sparseX i="544" alpha="5691.4976400006408" sparseCutoff="1.0000000000000000"/>
      <sparseX i="545" alpha="12617.506129808868" sparseCutoff="1.0000000000000000"/>
      <sparseX i="546" alpha="23223.193814379501" sparseCutoff="1.0000000000000000"/>
      <sparseX i="547" alpha="-24121.507325971208" sparseCutoff="1.0000000000000000"/>
      <sparseX i="548" alpha="30337.652457731958" sparseCutoff="1.0000000000000000"/>
      <sparseX i="549" alpha="-163703.21547140073" sparseCutoff="1.0000000000000000"/>
      <sparseX i="550" alpha="43742.727231948353" sparseCutoff="1.0000000000000000"/>
      <sparseX i="551" alpha="23296.815720264032" sparseCutoff="1.0000000000000000"/>
      <sparseX i="552" alpha="72871.094376150912" sparseCutoff="1.0000000000000000"/>
      <sparseX i="553" alpha="-18989.811001109858" sparseCutoff="1.0000000000000000"/>
      <sparseX i="554" alpha="27176.399378360213" sparseCutoff="1.0000000000000000"/>
      <sparseX i="555" alpha="51993.642984602644" sparseCutoff="1.0000000000000000"/>
      <sparseX i="556" alpha="114498.54334640066" sparseCutoff="1.0000000000000000"/>
      <sparseX i="557" alpha="-8932.9906143256449" sparseCutoff="1.0000000000000000"/>
      <sparseX i="558" alpha="-81931.688459755562" sparseCutoff="1.0000000000000000"/>
      <sparseX i="559" alpha="-271076.82328459533" sparseCutoff="1.0000000000000000"/>
      <sparseX i="560" alpha="11359.652978487931" sparseCutoff="1.0000000000000000"/>
      <sparseX i="561" alpha="-51420.341259652560" sparseCutoff="1.0000000000000000"/>
      <sparseX i="562" alpha="-2079.1886623034220" sparseCutoff="1.0000000000000000"/>
      <sparseX i="563" alpha="-44003.902464172759" sparseCutoff="1.0000000000000000"/>
      <sparseX i="564" alpha="-73179.020607413229" sparseCutoff="1.0000000000000000"/>
      <sparseX i="565" alpha="19841.696843949143" sparseCutoff="1.0000000000000000"/>
      <sparseX i="566" alpha="-54404.019733856832" sparseCutoff="1.0000000000000000"/>
      <sparseX i="567" alpha="7981.2376209448112" sparseCutoff="1.0000000000000000"/>
      <sparseX i="568" alpha="-22677.252424250182" sparseCutoff="1.0000000000000000"/>
      <sparseX i="569" alpha="55881.986266949782" sparseCutoff="1.0000000000000000"/>
      <sparseX i="570" alpha="-54551.447778687769" sparseCutoff="1.0000000000000000"/>
      <sparseX i="571" alpha="41280.482879480354" sparseCutoff="1.0000000000000000"/>
      <sparseX i="572" alpha="92564.712863998007" sparseCutoff="1.0000000000000000"/>
      <sparseX i="573" alpha="-82877.484892377732" sparseCutoff="1.0000000000000000"/>
      <sparseX i="574" alpha="13390.255950139888" sparseCutoff="1.0000000000000000"/>
      <sparseX i="575" alpha="50226.302052375664" sparseCutoff="1.0000000000000000"/>
      <sparseX i="576" alpha="1148.4442130778266" sparseCutoff="1.0000000000000000"/>
      <sparseX i="577" alpha="-112803.78637685397" sparseCutoff="1.0000000000000000"/>
      <sparseX i="578" alpha="18666.048079337619" sparseCutoff="1.0000000000000000"/>
      <sparseX i="579" alpha="-9197.6429559937023" sparseCutoff="1.0000000000000000"/>
      <sparseX i="580" alpha="-49068.628695399319" sparseCutoff="1.0000000000000000"/>
      <sparseX i="581" alpha="50916.074249797479" sparseCutoff="1.0000000000000000"/>
      <sparseX i="582" alpha="38238.198988693577" sparseCutoff="1.0000000000000000"/>
      <sparseX i="583" alpha="-28711.029103850513" sparseCutoff="1.0000000000000000"/>
      <sparseX i="584" alpha="-272.48257883005499" sparseCutoff="1.0000000000000000"/>
      <sparseX i="585" alpha="-4725.0472814375253" sparseCutoff="1.0000000000000000"/>
      <sparseX i="586" alpha="-877.62570280510283" sparseCutoff="1.0000000000000000"/>
      <sparseX i="587" alpha="1537.0225435396744" sparseCutoff="1.0000000000000000"/>
      <sparseX i="588" alpha="59065.402771822941" sparseCutoff="1.0000000000000000"/>
      <sparseX i="589" alpha="-31832.853721432828" sparseCutoff="1.0000000000000000"/>
      <sparseX i="590" alpha="103401.95630779293" sparseCutoff="1.0000000000000000"/>
      <sparseX i="591" alpha="9142.3881128194043" sparseCutoff="1.0000000000000000"/>
      <sparseX i="592" alpha="-59741.905324930944" sparseCutoff="1.0000000000000000"/>
      <sparseX i="593" alpha="-56381.566547441325" sparseCutoff="1.0000000000000000"/>
      <sparseX i="594" alpha="50213.490439693203" sparseCutoff="1.0000000000000000"/>
      <sparseX i="595" alpha="-8786.6268938095891" sparseCutoff="1.0000000000000000"/>
      <sparseX i="596" alpha="58134.404561478528" sparseCutoff="1.0000000000000000"/>
      <sparseX i="597" alpha="103563.02199844983" sparseCutoff="1.0000000000000000"/>
      <sparseX i="598" alpha="27256.919694882294" sparseCutoff="1.0000000000000000"/>
      <sparseX i="599" alpha="-1815.2709460589176" sparseCutoff="1.0000000000000000"/>
      <sparseX i="600" alpha="-35322.277686912334" sparseCutoff="1.0000000000000000"/>
      <sparseX i="601" alpha="-83746.822797076966" sparseCutoff="1.0000000000000000"/>
      <sparseX i="602" alpha="73645.637342314105" sparseCutoff="1.0000000000000000"/>
      <sparseX i="603" alpha="8002.5235613833174" sparseCutoff="1.0000000000000000"/>
      <sparseX i="604" alpha="-103.31786948696607" sparseCutoff="1.0000000000000000"/>
      <sparseX i="605" alpha="-51752.302124890768" sparseCutoff="1.0000000000000000"/>
      <sparseX i="606" alpha="-18746.943381331210" sparseCutoff="1.0000000000000000"/>
      <sparseX i="607" alpha="-50525.011549045681" sparseCutoff="1.0000000000000000"/>
      <sparseX i="608" alpha="75716.505683211930" sparseCutoff="1.0000000000000000"/>
      <sparseX i="609" alpha="31688.323672302660" sparseCutoff="1.0000000000000000"/>
      <sparseX i="610" alpha="-54627.653504454967" sparseCutoff="1.0000000000000000"/>
      <sparseX i="611" alpha="-30530.000350726532" sparseCutoff="1.0000000000000000"/>
      <sparseX i="612" alpha="90270.835029451147" sparseCutoff="1.0000000000000000"/>
      <sparseX i="613" alpha="-12019.797106695623" sparseCutoff="1.0000000000000000"/>
      <sparseX i="614" alpha="-5050.5392681554631" sparseCutoff="1.0000000000000000"/>
      <sparseX i="615" alpha="117724.33390943751" sparseCutoff="1.0000000000000000"/>
      <sparseX i="616" alpha="-14590.055629785984" sparseCutoff="1.0000000000000000"/>
      <sparseX i="617" alpha="-30740.410176338813" sparseCutoff="1.0000000000000000"/>
      <sparseX i="618" alpha="-146055.38793606247" sparseCutoff="1.0000000000000000"/>
      <sparseX i="619" alpha="-272714.33147962025" sparseCutoff="1.0000000000000000"/>
      <sparseX i="620" alpha="-83964.805550629419" sparseCutoff="1.0000000000000000"/>
      <sparseX i="621" alpha="-26641.268165489684" sparseCutoff="1.0000000000000000"/>
      <sparseX i="622" alpha="-19084.216900557160" sparseCutoff="1.0000000000000000"/>
      <sparseX i="623" alpha="-4727.5053937498033" sparseCutoff="1.0000000000000000"/>
      <sparseX i="624" alpha="-65618.226401745706" sparseCutoff="1.0000000000000000"/>
      <sparseX i="625" alpha="93782.248364629195" sparseCutoff="1.0000000000000000"/>
      <sparseX i="626" alpha="51621.935605039369" sparseCutoff="1.0000000000000000"/>
      <sparseX i="627" alpha="160550.97828084405" sparseCutoff="1.0000000000000000"/>
      <sparseX i="628" alpha="6123.9070665396312" sparseCutoff="1.0000000000000000"/>
      <sparseX i="629" alpha="45319.614422963248" sparseCutoff="1.0000000000000000"/>
      <sparseX i="630" alpha="-34915.899367688617" sparseCutoff="1.0000000000000000"/>
      <sparseX i="631" alpha="-21906.732308451425" sparseCutoff="1.0000000000000000"/>
      <sparseX i="632" alpha="12452.897891360717" sparseCutoff="1.0000000000000000"/>
      <sparseX i="633" alpha="-40066.328126581349" sparseCutoff="1.0000000000000000"/>
      <sparseX i="634" alpha="-2713.4563525704220" sparseCutoff="1.0000000000000000"/>
      <sparseX i="635" alpha="462.70732659064009" sparseCutoff="1.0000000000000000"/>
      <sparseX i="636" alpha="3719.9241452930496" sparseCutoff="1.0000000000000000"/>
      <sparseX i="637" alpha="39805.583877370773" sparseCutoff="1.0000000000000000"/>
      <sparseX i="638" alpha="-121489.48867476483" sparseCutoff="1.0000000000000000"/>
      <sparseX i="639" alpha="26109.295618943663" sparseCutoff="1.0000000000000000"/>
      <sparseX i="640" alpha="739.84078721564208" sparseCutoff="1.0000000000000000"/>
      <sparseX i="641" alpha="-26700.154194993589" sparseCutoff="1.0000000000000000"/>
      <sparseX i="642" alpha="16446.425555764879" sparseCutoff="1.0000000000000000"/>
      <sparseX i="643" alpha="57732.831570041344" sparseCutoff="1.0000000000000000"/>
      <sparseX i="644" alpha="-91523.142374808682" sparseCutoff="1.0000000000000000"/>
      <sparseX i="645" alpha="51143.682064686887" sparseCutoff="1.0000000000000000"/>
      <sparseX i="646" alpha="-27253.284160887190" sparseCutoff="1.0000000000000000"/>
      <sparseX i="647" alpha="68992.305440361568" sparseCutoff="1.0000000000000000"/>
      <sparseX i="648" alpha="-37775.754898002335" sparseCutoff="1.0000000000000000"/>
      <sparseX i="649" alpha="118756.26352348621" sparseCutoff="1.0000000000000000"/>
      <sparseX i="650" alpha="-522.58755394914351" sparseCutoff="1.0000000000000000"/>
      <sparseX i="651" alpha="-4164.2078321899107" sparseCutoff="1.0000000000000000"/>
      <sparseX i="652" alpha="52229.346585552586" sparseCutoff="1.0000000000000000"/>
      <sparseX i="653" alpha="-8627.3828120257931" sparseCutoff="1.0000000000000000"/>
      <sparseX i="654" alpha="-56674.540191951804" sparseCutoff="1.0000000000000000"/>
      <sparseX i="655" alpha="-2463.1080711192662" sparseCutoff="1.0000000000000000"/>
      <sparseX i="656" alpha="-47242.594865910156" sparseCutoff="1.0000000000000000"/>
      <sparseX i="657" alpha="27840.338497088665" sparseCutoff="1.0000000000000000"/>
      <sparseX i="658" alpha="-27026.097274445601" sparseCutoff="1.0000000000000000"/>
      <sparseX i="659" alpha="-3191.6687054181120" sparseCutoff="1.0000000000000000"/>
      <sparseX i="660" alpha="-1943.3920115217679" sparseCutoff="1.0000000000000000"/>
      <sparseX i="661" alpha="13980.721342683901" sparseCutoff="1.0000000000000000"/>
      <sparseX i="662" alpha="-1046.4671974362257" sparseCutoff="1.0000000000000000"/>
      <sparseX i="663" alpha="-175880.86735073195" sparseCutoff="1.0000000000000000"/>
      <sparseX i="664" alpha="-337245.63617565116" sparseCutoff="1.0000000000000000"/>
      <sparseX i="665" alpha="-7764.0909476397010" sparseCutoff="1.0000000000000000"/>
      <sparseX i="666" alpha="-165921.98256000693" sparseCutoff="1.0000000000000000"/>
      <sparseX i="667" alpha="141217.62804883788" sparseCutoff="1.0000000000000000"/>
      <sparseX i="668" alpha="200834.44331375550" sparseCutoff="1.0000000000000000"/>
      <sparseX i="669" alpha="-147170.21542033870" sparseCutoff="1.0000000000000000"/>
      <sparseX i="670" alpha="-29929.767095932748" sparseCutoff="1.0000000000000000"/>
      <sparseX i="671" alpha="-116013.33942173899" sparseCutoff="1.0000000000000000"/>
      <sparseX i="672" alpha="94811.993047111566" sparseCutoff="1.0000000000000000"/>
      <sparseX i="673" alpha="-115835.58303152460" sparseCutoff="1.0000000000000000"/>
      <sparseX i="674" alpha="-20668.129718210275" sparseCutoff="1.0000000000000000"/>
      <sparseX i="675" alpha="29608.086125502967" sparseCutoff="1.0000000000000000"/>
      <sparseX i="676" alpha="-21516.657519894714" sparseCutoff="1.0000000000000000"/>
      <sparseX i="677" alpha="89713.260935794708" sparseCutoff="1.0000000000000000"/>
      <sparseX i="678" alpha="125996.40868122070" sparseCutoff="1.0000000000000000"/>
      <sparseX i="679" alpha="13348.436658954206" sparseCutoff="1.0000000000000000"/>
      <sparseX i="680" alpha="36426.182571622914" sparseCutoff="1.0000000000000000"/>
      <sparseX i="681" alpha="-170469.43949935638" sparseCutoff="1.0000000000000000"/>
      <sparseX i="682" alpha="-146241.21729607129" sparseCutoff="1.0000000000000000"/>
      <sparseX i="683" alpha="-11211.446645640035" sparseCutoff="1.0000000000000000"/>
      <sparseX i="684" alpha="51799.846636727212" sparseCutoff="1.0000000000000000"/>
      <sparseX i="685" alpha="123801.82420802752" sparseCutoff="1.0000000000000000"/>
      <sparseX i="686" alpha="96914.625396110525" sparseCutoff="1.0000000000000000"/>
      <sparseX i="687" alpha="16717.360163481982" sparseCutoff="1.0000000000000000"/>
      <sparseX i="688" alpha="-87057.983873385572" sparseCutoff="1.0000000000000000"/>
      <sparseX i="689" alpha="74235.248328092915" sparseCutoff="1.0000000000000000"/>
      <sparseX i="690" alpha="112286.04806746605" sparseCutoff="1.0000000000000000"/>
      <sparseX i="691" alpha="9688.9740203415986" sparseCutoff="1.0000000000000000"/>
      <sparseX i="692" alpha="50413.866410248520" sparseCutoff="1.0000000000000000"/>
      <sparseX i="693" alpha="25896.530607496239" sparseCutoff="1.0000000000000000"/>
      <sparseX i="694" alpha="59592.231545191513" sparseCutoff="1.0000000000000000"/>
      <sparseX i="695" alpha="38730.976941149107" sparseCutoff="1.0000000000000000"/>
      <sparseX i="696" alpha="-15706.233394097844" sparseCutoff="1.0000000000000000"/>
      <sparseX i="697" alpha="-269314.62176102528" sparseCutoff="1.0000000000000000"/>
      <sparseX i="698" alpha="-108834.61752171714" sparseCutoff="1.0000000000000000"/>
      <sparseX i="699" alpha="-8281.2471879984423" sparseCutoff="1.0000000000000000"/>
      <sparseX i="700" alpha="-107852.18057877089" sparseCutoff="1.0000000000000000"/>
      <sparseX i="701" alpha="-94828.819724530622" sparseCutoff="1.0000000000000000"/>
      <sparseX i="702" alpha="-232103.89262196349" sparseCutoff="1.0000000000000000"/>
      <sparseX i="703" alpha="136059.43716157356" sparseCutoff="1.0000000000000000"/>
      <sparseX i="704" alpha="1908.2067079011040" sparseCutoff="1.0000000000000000"/>
      <sparseX i="705" alpha="-23622.132146391330" sparseCutoff="1.0000000000000000"/>
      <sparseX i="706" alpha="-95656.872021918811" sparseCutoff="1.0000000000000000"/>
      <sparseX i="707" alpha="-163358.80479836906" sparseCutoff="1.0000000000000000"/>
      <sparseX i="708" alpha="37345.953364464462" sparseCutoff="1.0000000000000000"/>
      <sparseX i="709" alpha="22488.060273183477" sparseCutoff="1.0000000000000000"/>
      <sparseX i="710" alpha="-62707.289364266449" sparseCutoff="1.0000000000000000"/>
      <sparseX i="711" alpha="-93581.663358875565" sparseCutoff="1.0000000000000000"/>
      <sparseX i="712" alpha="-110314.33645039865" sparseCutoff="1.0000000000000000"/>
      <sparseX i="713" alpha="3559.9228742120258" sparseCutoff="1.0000000000000000"/>
      <sparseX i="714" alpha="11889.992155806882" sparseCutoff="1.0000000000000000"/>
      <sparseX i="715" alpha="153077.70382165289" sparseCutoff="1.0000000000000000"/>
      <sparseX i="716" alpha="-42383.278616814481" sparseCutoff="1.0000000000000000"/>
      <sparseX i="717" alpha="126851.90353979355" sparseCutoff="1.0000000000000000"/>
      <sparseX i="718" alpha="-23216.861716245090" sparseCutoff="1.0000000000000000"/>
      <sparseX i="719" alpha="79240.778481546979" sparseCutoff="1.0000000000000000"/>
      <sparseX i="720" alpha="-61031.043710065293" sparseCutoff="1.0000000000000000"/>
      <sparseX i="721" alpha="14463.319511841461" sparseCutoff="1.0000000000000000"/>
      <sparseX i="722" alpha="-97770.424166625904" sparseCutoff="1.0000000000000000"/>
      <sparseX i="723" alpha="177113.91137167305" sparseCutoff="1.0000000000000000"/>
      <sparseX i="724" alpha="79122.958606512300" sparseCutoff="1.0000000000000000"/>
      <sparseX i="725" alpha="-16744.757904127346" sparseCutoff="1.0000000000000000"/>
      <sparseX i="726" alpha="-2007.7136294880149" sparseCutoff="1.0000000000000000"/>
      <sparseX i="727" alpha="721.42730317910400" sparseCutoff="1.0000000000000000"/>
      <sparseX i="728" alpha="96045.401433767460" sparseCutoff="1.0000000000000000"/>
      <sparseX i="729" alpha="-196475.57727236548" sparseCutoff="1.0000000000000000"/>
      <sparseX i="730" alpha="96136.189679162082" sparseCutoff="1.0000000000000000"/>
      <sparseX i="731" alpha="-150884.28429935503" sparseCutoff="1.0000000000000000"/>
      <sparseX i="732" alpha="-135020.27895208515" sparseCutoff="1.0000000000000000"/>
      <sparseX i="733" alpha="12493.359111172003" sparseCutoff="1.0000000000000000"/>
      <sparseX i="734" alpha="24455.891383403567" sparseCutoff="1.0000000000000000"/>
      <sparseX i="735" alpha="-237717.97020161885" sparseCutoff="1.0000000000000000"/>
      <sparseX i="736" alpha="-230433.44401022029" sparseCutoff="1.0000000000000000"/>
      <sparseX i="737" alpha="214361.34457707225" sparseCutoff="1.0000000000000000"/>
      <sparseX i="738" alpha="108585.42653970384" sparseCutoff="1.0000000000000000"/>
      <sparseX i="739" alpha="-259444.21080792602" sparseCutoff="1.0000000000000000"/>
      <sparseX i="740" alpha="147682.70569808834" sparseCutoff="1.0000000000000000"/>
      <sparseX i="741" alpha="61021.291133311817" sparseCutoff="1.0000000000000000"/>
      <sparseX i="742" alpha="-28789.918898035190" sparseCutoff="1.0000000000000000"/>
      <sparseX i="743" alpha="-287949.66573979316" sparseCutoff="1.0000000000000000"/>
      <sparseX i="744" alpha="68869.297540670726" sparseCutoff="1.0000000000000000"/>
      <sparseX i="745" alpha="-218435.12234781170" sparseCutoff="1.0000000000000000"/>
      <sparseX i="746" alpha="-208894.24173144685" sparseCutoff="1.0000000000000000"/>
      <sparseX i="747" alpha="103917.97639622047" sparseCutoff="1.0000000000000000"/>
      <sparseX i="748" alpha="131955.74100770772" sparseCutoff="1.0000000000000000"/>
      <sparseX i="749" alpha="-158324.14011354430" sparseCutoff="1.0000000000000000"/>
      <sparseX i="750" alpha="76151.681960415852" sparseCutoff="1.0000000000000000"/>
      <sparseX i="751" alpha="-1563.2878121028350" sparseCutoff="1.0000000000000000"/>
      <sparseX i="752" alpha="-106436.41424507510" sparseCutoff="1.0000000000000000"/>
      <sparseX i="753" alpha="-224235.51355892481" sparseCutoff="1.0000000000000000"/>
      <sparseX i="754" alpha="-320337.67391674209" sparseCutoff="1.0000000000000000"/>
      <sparseX i="755" alpha="14621.417513890592" sparseCutoff="1.0000000000000000"/>
      <sparseX i="756" alpha="57999.552030837433" sparseCutoff="1.0000000000000000"/>
      <sparseX i="757" alpha="-77898.666949650127" sparseCutoff="1.0000000000000000"/>
      <sparseX i="758" alpha="-54939.072625702720" sparseCutoff="1.0000000000000000"/>
      <sparseX i="759" alpha="194310.36467608702" sparseCutoff="1.0000000000000000"/>
      <sparseX i="760" alpha="-209597.92499863595" sparseCutoff="1.0000000000000000"/>
      <sparseX i="761" alpha="100011.90012554247" sparseCutoff="1.0000000000000000"/>
      <sparseX i="762" alpha="-30430.636466049036" sparseCutoff="1.0000000000000000"/>
      <sparseX i="763" alpha="-64811.738285813437" sparseCutoff="1.0000000000000000"/>
      <sparseX i="764" alpha="-86258.855642847571" sparseCutoff="1.0000000000000000"/>
      <sparseX i="765" alpha="-42289.711298299189" sparseCutoff="1.0000000000000000"/>
      <sparseX i="766" alpha="-161914.59624420860" sparseCutoff="1.0000000000000000"/>
      <sparseX i="767" alpha="12720.896871491312" sparseCutoff="1.0000000000000000"/>
      <sparseX i="768" alpha="230136.90254863258" sparseCutoff="1.0000000000000000"/>
      <sparseX i="769" alpha="-198003.26583675243" sparseCutoff="1.0000000000000000"/>
      <sparseX i="770" alpha="-25284.324289241165" sparseCutoff="1.0000000000000000"/>
      <sparseX i="771" alpha="148986.44546633842" sparseCutoff="1.0000000000000000"/>
      <sparseX i="772" alpha="115154.34987370392" sparseCutoff="1.0000000000000000"/>
      <sparseX i="773" alpha="-106026.92603492994" sparseCutoff="1.0000000000000000"/>
      <sparseX i="774" alpha="130409.99843772918" sparseCutoff="1.0000000000000000"/>
      <sparseX i="775" alpha="-143797.50059242459" sparseCutoff="1.0000000000000000"/>
      <sparseX i="776" alpha="-146875.06268295494" sparseCutoff="1.0000000000000000"/>
      <sparseX i="777" alpha="310556.96966538404" sparseCutoff="1.0000000000000000"/>
      <sparseX i="778" alpha="64652.533978461193" sparseCutoff="1.0000000000000000"/>
      <sparseX i="779" alpha="48325.830003083574" sparseCutoff="1.0000000000000000"/>
      <sparseX i="780" alpha="100234.54047712644" sparseCutoff="1.0000000000000000"/>
      <sparseX i="781" alpha="12897.914719704837" sparseCutoff="1.0000000000000000"/>
      <sparseX i="782" alpha="227137.44729681266" sparseCutoff="1.0000000000000000"/>
      <sparseX i="783" alpha="-149361.68451163522" sparseCutoff="1.0000000000000000"/>
      <sparseX i="784" alpha="155015.09194775915" sparseCutoff="1.0000000000000000"/>
      <sparseX i="785" alpha="-44368.074554720806" sparseCutoff="1.0000000000000000"/>
      <sparseX i="786" alpha="10882.254733615400" sparseCutoff="1.0000000000000000"/>
      <sparseX i="787" alpha="-683440.63518673147" sparseCutoff="1.0000000000000000"/>
      <sparseX i="788" alpha="-90979.406701959422" sparseCutoff="1.0000000000000000"/>
      <sparseX i="789" alpha="-389175.94554638956" sparseCutoff="1.0000000000000000"/>
      <sparseX i="790" alpha="-53727.483215078981" sparseCutoff="1.0000000000000000"/>
      <sparseX i="791" alpha="151115.85039706985" sparseCutoff="1.0000000000000000"/>
      <sparseX i="792" alpha="79081.606555020306" sparseCutoff="1.0000000000000000"/>
      <sparseX i="793" alpha="-142229.70677373532" sparseCutoff="1.0000000000000000"/>
      <sparseX i="794" alpha="-17391.344375606543" sparseCutoff="1.0000000000000000"/>
      <sparseX i="795" alpha="-269783.63754528045" sparseCutoff="1.0000000000000000"/>
      <sparseX i="796" alpha="-388051.07428848644" sparseCutoff="1.0000000000000000"/>
      <sparseX i="797" alpha="-377784.60960527317" sparseCutoff="1.0000000000000000"/>
