<GAP_2023_10_28_180_1_14_11_751>
<Potential label="GAP_2023_10_28_180_1_14_11_751" init_args="Sum init_args_pot1={IP Glue} init_args_pot2={IP GAP label=GAP_2023_10_28_180_1_14_11_751}"/>
<pairpot>
<Potential label="pairpot" init_args="IP Glue"/>
<Glue_params n_types="1">
 <per_type_data atomic_num="6" type="1">
  <!-- C, Z: 6, many-body data ==> zero energy for pair potential! -->
  <density num_points="10" density_y1="0.0" density_yn="0.0">
   <point a="0.5" rho="0.2"/>
   <point a="1.0" rho="0.2"/>
   <point a="1.5" rho="0.2"/>
   <point a="2.0" rho="0.2"/>
   <point a="2.5" rho="0.2"/>
   <point a="3.0" rho="0.2"/>
   <point a="3.5" rho="0.2"/>
   <point a="4.0" rho="0.2"/>
   <point a="4.5" rho="0.2"/>
   <point a="5.0" rho="0.2"/>
  </density>
  <potential_density num_points="10">
   <point rho="0.0" E="0.0"/>
   <point rho="0.1111111111111111" E="0.0"/>
   <point rho="0.2222222222222222" E="0.0"/>
   <point rho="0.3333333333333333" E="0.0"/>
   <point rho="0.4444444444444444" E="0.0"/>
   <point rho="0.5555555555555556" E="0.0"/>
   <point rho="0.6666666666666666" E="0.0"/>
   <point rho="0.7777777777777777" E="0.0"/>
   <point rho="0.8888888888888888" E="0.0"/>
   <point rho="1.0" E="0.0"/>
  </potential_density>
 </per_type_data>
 <per_pair_data type1="1" type2="1">
  <!-- C-C, Z: 6-6 pair potential -->
  <potential_pair num_points="15" y1="1.e50" yn="0.0">
   <point r="0.1" E="1802.54113065999991"/>
   <point r="0.2" E="681.30984417999991"/>
   <point r="0.3" E="339.93956101999999"/>
   <point r="0.4" E="189.79854275000002"/>
   <point r="0.5" E="111.71917771999999"/>
   <point r="0.6" E="64.66691623000000"/>
   <point r="0.7" E="33.06652598000000"/>
   <point r="0.8" E="13.26018809000000"/>
   <point r="0.9" E="1.65203494073981"/>
   <point r="1.0" E="-2.84417068666525"/>
   <point r="1.1" E="-2.53588300746454"/>
   <point r="1.2" E="-0.80878249636899"/>
   <point r="1.3" E="-0.00000000000000"/>
   <point r="1.4" E="-0.00000000000000"/>
   <point r="1.5" E="-0.00000000000000"/>
  </potential_pair>
 </per_pair_data>
</Glue_params>
</pairpot>
<GAP_params label="GAP_2023_10_28_180_1_14_11_751" gap_version="1670763126">
  <GAP_data do_core="T">
    <e0 Z="1" value="-.16138052999999999"/>
    <e0 Z="2" value="-.16138052999999999"/>
    <e0 Z="3" value="-.16138052999999999"/>
    <e0 Z="4" value="-.16138052999999999"/>
    <e0 Z="5" value="-.16138052999999999"/>
    <e0 Z="6" value="-.16138052999999999"/>
    <e0 Z="7" value="-.16138052999999999"/>
    <e0 Z="8" value="-.16138052999999999"/>
    <e0 Z="9" value="-.16138052999999999"/>
    <e0 Z="10" value="-.16138052999999999"/>
    <e0 Z="11" value="-.16138052999999999"/>
    <e0 Z="12" value="-.16138052999999999"/>
    <e0 Z="13" value="-.16138052999999999"/>
    <e0 Z="14" value="-.16138052999999999"/>
    <e0 Z="15" value="-.16138052999999999"/>
    <e0 Z="16" value="-.16138052999999999"/>
    <e0 Z="17" value="-.16138052999999999"/>
    <e0 Z="18" value="-.16138052999999999"/>
    <e0 Z="19" value="-.16138052999999999"/>
    <e0 Z="20" value="-.16138052999999999"/>
    <e0 Z="21" value="-.16138052999999999"/>
    <e0 Z="22" value="-.16138052999999999"/>
    <e0 Z="23" value="-.16138052999999999"/>
    <e0 Z="24" value="-.16138052999999999"/>
    <e0 Z="25" value="-.16138052999999999"/>
    <e0 Z="26" value="-.16138052999999999"/>
    <e0 Z="27" value="-.16138052999999999"/>
    <e0 Z="28" value="-.16138052999999999"/>
    <e0 Z="29" value="-.16138052999999999"/>
    <e0 Z="30" value="-.16138052999999999"/>
    <e0 Z="31" value="-.16138052999999999"/>
    <e0 Z="32" value="-.16138052999999999"/>
    <e0 Z="33" value="-.16138052999999999"/>
    <e0 Z="34" value="-.16138052999999999"/>
    <e0 Z="35" value="-.16138052999999999"/>
    <e0 Z="36" value="-.16138052999999999"/>
    <e0 Z="37" value="-.16138052999999999"/>
    <e0 Z="38" value="-.16138052999999999"/>
    <e0 Z="39" value="-.16138052999999999"/>
    <e0 Z="40" value="-.16138052999999999"/>
    <e0 Z="41" value="-.16138052999999999"/>
    <e0 Z="42" value="-.16138052999999999"/>
    <e0 Z="43" value="-.16138052999999999"/>
    <e0 Z="44" value="-.16138052999999999"/>
    <e0 Z="45" value="-.16138052999999999"/>
    <e0 Z="46" value="-.16138052999999999"/>
    <e0 Z="47" value="-.16138052999999999"/>
    <e0 Z="48" value="-.16138052999999999"/>
    <e0 Z="49" value="-.16138052999999999"/>
    <e0 Z="50" value="-.16138052999999999"/>
    <e0 Z="51" value="-.16138052999999999"/>
    <e0 Z="52" value="-.16138052999999999"/>
    <e0 Z="53" value="-.16138052999999999"/>
    <e0 Z="54" value="-.16138052999999999"/>
    <e0 Z="55" value="-.16138052999999999"/>
    <e0 Z="56" value="-.16138052999999999"/>
    <e0 Z="57" value="-.16138052999999999"/>
    <e0 Z="58" value="-.16138052999999999"/>
    <e0 Z="59" value="-.16138052999999999"/>
    <e0 Z="60" value="-.16138052999999999"/>
    <e0 Z="61" value="-.16138052999999999"/>
    <e0 Z="62" value="-.16138052999999999"/>
    <e0 Z="63" value="-.16138052999999999"/>
    <e0 Z="64" value="-.16138052999999999"/>
    <e0 Z="65" value="-.16138052999999999"/>
    <e0 Z="66" value="-.16138052999999999"/>
    <e0 Z="67" value="-.16138052999999999"/>
    <e0 Z="68" value="-.16138052999999999"/>
    <e0 Z="69" value="-.16138052999999999"/>
    <e0 Z="70" value="-.16138052999999999"/>
    <e0 Z="71" value="-.16138052999999999"/>
    <e0 Z="72" value="-.16138052999999999"/>
    <e0 Z="73" value="-.16138052999999999"/>
    <e0 Z="74" value="-.16138052999999999"/>
    <e0 Z="75" value="-.16138052999999999"/>
    <e0 Z="76" value="-.16138052999999999"/>
    <e0 Z="77" value="-.16138052999999999"/>
    <e0 Z="78" value="-.16138052999999999"/>
    <e0 Z="79" value="-.16138052999999999"/>
    <e0 Z="80" value="-.16138052999999999"/>
    <e0 Z="81" value="-.16138052999999999"/>
    <e0 Z="82" value="-.16138052999999999"/>
    <e0 Z="83" value="-.16138052999999999"/>
    <e0 Z="84" value="-.16138052999999999"/>
    <e0 Z="85" value="-.16138052999999999"/>
    <e0 Z="86" value="-.16138052999999999"/>
    <e0 Z="87" value="-.16138052999999999"/>
    <e0 Z="88" value="-.16138052999999999"/>
    <e0 Z="89" value="-.16138052999999999"/>
    <e0 Z="90" value="-.16138052999999999"/>
    <e0 Z="91" value="-.16138052999999999"/>
    <e0 Z="92" value="-.16138052999999999"/>
    <e0 Z="93" value="-.16138052999999999"/>
    <e0 Z="94" value="-.16138052999999999"/>
    <e0 Z="95" value="-.16138052999999999"/>
    <e0 Z="96" value="-.16138052999999999"/>
    <e0 Z="97" value="-.16138052999999999"/>
    <e0 Z="98" value="-.16138052999999999"/>
    <e0 Z="99" value="-.16138052999999999"/>
    <e0 Z="100" value="-.16138052999999999"/>
    <e0 Z="101" value="-.16138052999999999"/>
    <e0 Z="102" value="-.16138052999999999"/>
    <e0 Z="103" value="-.16138052999999999"/>
    <e0 Z="104" value="-.16138052999999999"/>
    <e0 Z="105" value="-.16138052999999999"/>
    <e0 Z="106" value="-.16138052999999999"/>
    <e0 Z="107" value="-.16138052999999999"/>
    <e0 Z="108" value="-.16138052999999999"/>
    <e0 Z="109" value="-.16138052999999999"/>
    <e0 Z="110" value="-.16138052999999999"/>
    <e0 Z="111" value="-.16138052999999999"/>
    <e0 Z="112" value="-.16138052999999999"/>
    <e0 Z="113" value="-.16138052999999999"/>
    <e0 Z="114" value="-.16138052999999999"/>
    <e0 Z="115" value="-.16138052999999999"/>
    <e0 Z="116" value="-.16138052999999999"/>
    <e0 Z="117" value="-.16138052999999999"/>
    <e0 Z="118" value="-.16138052999999999"/>
  </GAP_data>
  <gpSparse label="GAP_2023_10_28_180_1_14_11_751" n_coordinate="3" fitted="T">
    <gpCoordinates label="GAP_2023_10_28_180_1_14_11_7511" dimensions="1" signal_variance="1.0000000000000000" signal_mean=".00000000000000000E+000" sparsified="T" n_permutations="1" covariance_type="1" n_sparseX="42" sparseX_filename="carbon.xml.sparseX.GAP_2023_10_28_180_1_14_11_7511" sparseX_md5sum="08165e4310383d121c678c6b912f0d0a">
      <theta>  0.50000000000000000E+000 </theta>
      <descriptor> distance_2b Z1=6 Z2=6 cutoff=4.5 n_sparse=42 covariance_type=ard_se delta=1. theta_uniform=0.5 sparse_method=uniform add_species=F</descriptor>
      <permutation i="1">1  </permutation>
      <sparseX i="1" alpha="673851.14886645903" sparseCutoff=".38437050441691878E-001"/>
      <sparseX i="2" alpha="-188671.55464396291" sparseCutoff="1.0000000000000000"/>
      <sparseX i="3" alpha="19108.124194231732" sparseCutoff="1.0000000000000000"/>
      <sparseX i="4" alpha="733943.96353251429" sparseCutoff="1.0000000000000000"/>
      <sparseX i="5" alpha="517317.62149311736" sparseCutoff=".70426257266472392"/>
      <sparseX i="6" alpha="282389.76948735880" sparseCutoff="1.0000000000000000"/>
      <sparseX i="7" alpha="705420.32025257335" sparseCutoff="1.0000000000000000"/>
      <sparseX i="8" alpha="1037062.9598198649" sparseCutoff="1.0000000000000000"/>
      <sparseX i="9" alpha="-614896.47486464377" sparseCutoff=".99855210829397389"/>
      <sparseX i="10" alpha="-182845.09462425808" sparseCutoff=".85467941575570683"/>
      <sparseX i="11" alpha="763627.54864582547" sparseCutoff="1.0000000000000000"/>
      <sparseX i="12" alpha="-1592240.1569784572" sparseCutoff="1.0000000000000000"/>
      <sparseX i="13" alpha="-458346.60786950629" sparseCutoff="1.0000000000000000"/>
      <sparseX i="14" alpha="-1034360.9744987122" sparseCutoff="1.0000000000000000"/>
      <sparseX i="15" alpha="-1661383.9261757662" sparseCutoff="1.0000000000000000"/>
      <sparseX i="16" alpha="332684.35797593981" sparseCutoff="1.0000000000000000"/>
      <sparseX i="17" alpha="934674.83356301638" sparseCutoff="1.0000000000000000"/>
      <sparseX i="18" alpha="-210290.02090305535" sparseCutoff="1.0000000000000000"/>
      <sparseX i="19" alpha="303054.69195655809" sparseCutoff=".66098066432118685E-002"/>
      <sparseX i="20" alpha="663498.76500565046" sparseCutoff="1.0000000000000000"/>
      <sparseX i="21" alpha="-798111.61573500943" sparseCutoff="1.0000000000000000"/>
      <sparseX i="22" alpha="-483380.95920052566" sparseCutoff=".22278962625624166"/>
      <sparseX i="23" alpha="-843176.79881206539" sparseCutoff="1.0000000000000000"/>
      <sparseX i="24" alpha="571004.56971712981" sparseCutoff="1.0000000000000000"/>
      <sparseX i="25" alpha="-1038482.5565736479" sparseCutoff="1.0000000000000000"/>
      <sparseX i="26" alpha="1144092.9103041908" sparseCutoff="1.0000000000000000"/>
      <sparseX i="27" alpha="-1222852.1935098579" sparseCutoff="1.0000000000000000"/>
      <sparseX i="28" alpha="-688689.21915636386" sparseCutoff="1.0000000000000000"/>
      <sparseX i="29" alpha="1067663.4583070595" sparseCutoff="1.0000000000000000"/>
      <sparseX i="30" alpha="1113651.3342379343" sparseCutoff="1.0000000000000000"/>
      <sparseX i="31" alpha="-349436.99941223342" sparseCutoff="1.0000000000000000"/>
      <sparseX i="32" alpha="1146463.6371545047" sparseCutoff="1.0000000000000000"/>
      <sparseX i="33" alpha="201351.02750569288" sparseCutoff="1.0000000000000000"/>
      <sparseX i="34" alpha="962317.28812934074" sparseCutoff="1.0000000000000000"/>
      <sparseX i="35" alpha="-1473912.7733001506" sparseCutoff="1.0000000000000000"/>
      <sparseX i="36" alpha="-125349.71734647796" sparseCutoff="1.0000000000000000"/>
      <sparseX i="37" alpha="236779.82225573249" sparseCutoff="1.0000000000000000"/>
      <sparseX i="38" alpha="392818.14123865706" sparseCutoff="1.0000000000000000"/>
      <sparseX i="39" alpha="-1205083.7227251648" sparseCutoff="1.0000000000000000"/>
      <sparseX i="40" alpha="262287.88133369066" sparseCutoff="1.0000000000000000"/>
      <sparseX i="41" alpha="1279396.5217827207" sparseCutoff="1.0000000000000000"/>
      <sparseX i="42" alpha="-474372.73837615870" sparseCutoff="1.0000000000000000"/>
    </gpCoordinates>
    <gpCoordinates label="GAP_2023_10_28_180_1_14_11_7512" dimensions="3" signal_variance=".10000000000000000E-001" signal_mean=".00000000000000000E+000" sparsified="T" n_permutations="1" covariance_type="4" n_sparseX="200" sparseX_filename="carbon.xml.sparseX.GAP_2023_10_28_180_1_14_11_7512" sparseX_md5sum="a6d2e56344192ae5416bddf3e36eb01e">
      <theta>  0.40000000000000000E+001  0.40000000000000000E+001  0.40000000000000000E+001 </theta>
      <descriptor> angle_3b Z_center=6 Z1=6 Z2=6 cutoff=2.4 n_sparse=200 covariance_type=pp delta=0.01 theta_uniform=4.0 sparse_method=uniform add_species=F</descriptor>
      <permutation i="1">1 2 3  </permutation>
      <sparseX i="1" alpha="7164.0437313819202" sparseCutoff=".44625217032453646"/>
      <sparseX i="2" alpha="96848.918455962019" sparseCutoff=".18418907039227592"/>
      <sparseX i="3" alpha="-682.50009073691490" sparseCutoff=".41274660974382399"/>
      <sparseX i="4" alpha="910047.02419277770" sparseCutoff=".45441133101276483E-003"/>
      <sparseX i="5" alpha="12403.461405968268" sparseCutoff=".32321859898863214"/>
      <sparseX i="6" alpha="500434.50900864496" sparseCutoff=".38890415423698123E-003"/>
      <sparseX i="7" alpha="7531.7116711803847" sparseCutoff=".97525255655603149"/>
      <sparseX i="8" alpha="61706.328894667640" sparseCutoff=".44449744899363141E-003"/>
      <sparseX i="9" alpha="12576.115813551880" sparseCutoff=".32768898219592002"/>
      <sparseX i="10" alpha="21112.839363167335" sparseCutoff=".36076755821274026E-003"/>
      <sparseX i="11" alpha="8384.4031563543795" sparseCutoff=".67733067707196759"/>
      <sparseX i="12" alpha="-8191.8434749358794" sparseCutoff=".99963979132459602"/>
      <sparseX i="13" alpha="907958.32933410374" sparseCutoff=".18691163823172305E-001"/>
      <sparseX i="14" alpha="-2044301.7326272053" sparseCutoff=".94363949317173290E-002"/>
      <sparseX i="15" alpha="-10138.620880170312" sparseCutoff="1.0000000000000000"/>
      <sparseX i="16" alpha="26289.967599076244" sparseCutoff=".73720119273022744"/>
      <sparseX i="17" alpha="137475.37148912458" sparseCutoff=".21216466066756290"/>
      <sparseX i="18" alpha="-186167.58849626369" sparseCutoff=".70497424173616874E-001"/>
      <sparseX i="19" alpha="-92259.944417224571" sparseCutoff=".28571892640173036"/>
      <sparseX i="20" alpha="4136.6228701638147" sparseCutoff="1.0000000000000000"/>
      <sparseX i="21" alpha="84422.472421806771" sparseCutoff="1.0000000000000000"/>
      <sparseX i="22" alpha="26137.546057236726" sparseCutoff=".35879026041352430"/>
      <sparseX i="23" alpha="-433431.13077222847" sparseCutoff=".25140047175786773E-002"/>
      <sparseX i="24" alpha="651539.68207475997" sparseCutoff=".12780824207516583E-001"/>
      <sparseX i="25" alpha="-169674.76801904957" sparseCutoff=".82744662615699349E-001"/>
      <sparseX i="26" alpha="1379708.0543526292" sparseCutoff=".16353886610566082E-001"/>
      <sparseX i="27" alpha="8632.3872431067575" sparseCutoff="1.0000000000000000"/>
      <sparseX i="28" alpha="-141406.53048014402" sparseCutoff=".13380041884010208E-002"/>
      <sparseX i="29" alpha="229875.58442053996" sparseCutoff="1.0000000000000000"/>
      <sparseX i="30" alpha="1910.2362595916165" sparseCutoff=".34962902923096895E-004"/>
      <sparseX i="31" alpha="-1355125.2230307120" sparseCutoff=".21163494823313034E-001"/>
      <sparseX i="32" alpha="6214.0955059425014" sparseCutoff=".70020829795436335E-003"/>
      <sparseX i="33" alpha="209966.32229071364" sparseCutoff=".14534332077166320"/>
      <sparseX i="34" alpha="56865.287180169740" sparseCutoff=".18048569567590683"/>
      <sparseX i="35" alpha="-825801.36683961900" sparseCutoff=".34253396383259305E-001"/>
      <sparseX i="36" alpha="-9460.5751769171547" sparseCutoff=".64758574598639929"/>
      <sparseX i="37" alpha="54247.786655446158" sparseCutoff=".20324360715190393E-003"/>
      <sparseX i="38" alpha="756405.16066533083" sparseCutoff=".55941101427937163E-002"/>
      <sparseX i="39" alpha="-358442.84627787670" sparseCutoff="1.0000000000000000"/>
      <sparseX i="40" alpha="-1331264.4688390922" sparseCutoff=".20670227523404482E-001"/>
      <sparseX i="41" alpha="-168814.48498025371" sparseCutoff=".16021598750128979"/>
      <sparseX i="42" alpha="1329142.2703028319" sparseCutoff=".25640233883991715E-001"/>
      <sparseX i="43" alpha="-109337.94720373640" sparseCutoff=".25181176482607015"/>
      <sparseX i="44" alpha="-1118887.4696055236" sparseCutoff=".80808541191320082E-002"/>
      <sparseX i="45" alpha="20045.755557858767" sparseCutoff=".10613863715853500"/>
      <sparseX i="46" alpha="282358.69961234595" sparseCutoff=".12847335628309969"/>
      <sparseX i="47" alpha="15880.340460220888" sparseCutoff="1.0000000000000000"/>
      <sparseX i="48" alpha="-70779.335815811573" sparseCutoff=".14433119385008353E-002"/>
      <sparseX i="49" alpha="1914.4127581610946" sparseCutoff=".79734109982842571"/>
      <sparseX i="50" alpha="221137.98283737336" sparseCutoff=".19177694767761877"/>
      <sparseX i="51" alpha="1079874.7186731810" sparseCutoff=".45219672368342338E-001"/>
      <sparseX i="52" alpha="368934.28072180116" sparseCutoff="1.0000000000000000"/>
      <sparseX i="53" alpha="-178413.51133885863" sparseCutoff="1.0000000000000000"/>
      <sparseX i="54" alpha="114068.01466016503" sparseCutoff="1.0000000000000000"/>
      <sparseX i="55" alpha="218260.86572227543" sparseCutoff=".26453716936614746"/>
      <sparseX i="56" alpha="89271.579292750277" sparseCutoff="1.0000000000000000"/>
      <sparseX i="57" alpha="289219.27841985051" sparseCutoff="1.0000000000000000"/>
      <sparseX i="58" alpha="79684.285197623409" sparseCutoff=".86735312239227491"/>
      <sparseX i="59" alpha="67258.669305012067" sparseCutoff=".75387921315466677"/>
      <sparseX i="60" alpha="23013.318261765504" sparseCutoff="1.0000000000000000"/>
      <sparseX i="61" alpha="165510.18688735634" sparseCutoff="1.0000000000000000"/>
      <sparseX i="62" alpha="199490.31020348845" sparseCutoff="1.0000000000000000"/>
      <sparseX i="63" alpha="7514.1949077741119" sparseCutoff=".54445018302345938E-003"/>
      <sparseX i="64" alpha="450455.58873700997" sparseCutoff="1.0000000000000000"/>
      <sparseX i="65" alpha="34011.226086558767" sparseCutoff="1.0000000000000000"/>
      <sparseX i="66" alpha="-376381.51484185917" sparseCutoff=".19800602698012371E-001"/>
      <sparseX i="67" alpha="11371.731851791039" sparseCutoff="1.0000000000000000"/>
      <sparseX i="68" alpha="-73037.092212332311" sparseCutoff=".12316509254690189E-001"/>
      <sparseX i="69" alpha="-66407.777396409569" sparseCutoff=".52097153652939387"/>
      <sparseX i="70" alpha="-926178.71345750045" sparseCutoff="1.0000000000000000"/>
      <sparseX i="71" alpha="421707.50210401294" sparseCutoff="1.0000000000000000"/>
      <sparseX i="72" alpha="252587.23587512085" sparseCutoff="1.0000000000000000"/>
      <sparseX i="73" alpha="-71087.444751304953" sparseCutoff="1.0000000000000000"/>
      <sparseX i="74" alpha="-122715.39481778187" sparseCutoff="1.0000000000000000"/>
      <sparseX i="75" alpha="250887.51175247901" sparseCutoff=".64329423867092284"/>
      <sparseX i="76" alpha="-408325.14476352790" sparseCutoff=".23046047082163129"/>
      <sparseX i="77" alpha="-160450.83160280483" sparseCutoff="1.0000000000000000"/>
      <sparseX i="78" alpha="246447.17511954188" sparseCutoff="1.0000000000000000"/>
      <sparseX i="79" alpha="43892.241574475578" sparseCutoff=".33656275760908794E-002"/>
      <sparseX i="80" alpha="64154.544147021741" sparseCutoff="1.0000000000000000"/>
      <sparseX i="81" alpha="7272.7250733664368" sparseCutoff="1.0000000000000000"/>
      <sparseX i="82" alpha="-389485.46798450086" sparseCutoff="1.0000000000000000"/>
      <sparseX i="83" alpha="761702.90040055790" sparseCutoff="1.0000000000000000"/>
      <sparseX i="84" alpha="191018.57963300592" sparseCutoff=".90375247946825810"/>
      <sparseX i="85" alpha="-59516.499135150669" sparseCutoff="1.0000000000000000"/>
      <sparseX i="86" alpha="-4634.2525226195703" sparseCutoff="1.0000000000000000"/>
      <sparseX i="87" alpha="386192.13874390972" sparseCutoff="1.0000000000000000"/>
      <sparseX i="88" alpha="-94522.204467453223" sparseCutoff="1.0000000000000000"/>
      <sparseX i="89" alpha="-41287.410471146766" sparseCutoff=".15160201874874638E-002"/>
      <sparseX i="90" alpha="-764058.81473118777" sparseCutoff=".12036493150444073E-001"/>
      <sparseX i="91" alpha="183954.48505011149" sparseCutoff="1.0000000000000000"/>
      <sparseX i="92" alpha="-219348.89606840964" sparseCutoff="1.0000000000000000"/>
      <sparseX i="93" alpha="645.89866429710321" sparseCutoff=".62727838131922485E-005"/>
      <sparseX i="94" alpha="85147.014938918670" sparseCutoff=".12223355890767224"/>
      <sparseX i="95" alpha="-1609947.3169340701" sparseCutoff=".17753656901640436E-001"/>
      <sparseX i="96" alpha="-41244.744771104080" sparseCutoff=".17429911797354851E-002"/>
      <sparseX i="97" alpha="-3155637.0794165912" sparseCutoff=".38222174464904113E-001"/>
      <sparseX i="98" alpha="-484.31900029632817" sparseCutoff=".32156253183596056E-005"/>
      <sparseX i="99" alpha="-80359.027595433319" sparseCutoff="1.0000000000000000"/>
      <sparseX i="100" alpha="-16580.106449607982" sparseCutoff="1.0000000000000000"/>
      <sparseX i="101" alpha="101858.43517590642" sparseCutoff="1.0000000000000000"/>
      <sparseX i="102" alpha="1768915.2003742852" sparseCutoff=".26760985227116840E-001"/>
      <sparseX i="103" alpha="-85911.956079310155" sparseCutoff=".71373469991949490"/>
      <sparseX i="104" alpha="120114.91169153106" sparseCutoff=".63635896610125720"/>
      <sparseX i="105" alpha="-9294.8639750298134" sparseCutoff=".50440595832492607"/>
      <sparseX i="106" alpha="35105.677409082782" sparseCutoff=".93513460297986839"/>
      <sparseX i="107" alpha="-161556.60062050825" sparseCutoff=".25778324511030730E-001"/>
      <sparseX i="108" alpha="2020.1730822923362" sparseCutoff="1.0000000000000000"/>
      <sparseX i="109" alpha="312183.46281521174" sparseCutoff=".37145466360375787E-001"/>
      <sparseX i="110" alpha="-30376.032846647475" sparseCutoff=".34314436864925424"/>
      <sparseX i="111" alpha="-2205.1864089612050" sparseCutoff=".79802179598353851"/>
      <sparseX i="112" alpha="-3051.7336574353044" sparseCutoff="1.0000000000000000"/>
      <sparseX i="113" alpha="4162.2579080069372" sparseCutoff="1.0000000000000000"/>
      <sparseX i="114" alpha="23831.538416050909" sparseCutoff="1.0000000000000000"/>
      <sparseX i="115" alpha="-10579.815067551583" sparseCutoff="1.0000000000000000"/>
      <sparseX i="116" alpha="7770.1404171499435" sparseCutoff="1.0000000000000000"/>
      <sparseX i="117" alpha="11439.924693555995" sparseCutoff="1.0000000000000000"/>
      <sparseX i="118" alpha="-33839.681749663127" sparseCutoff=".39035277746756142"/>
      <sparseX i="119" alpha="-194136.95538268259" sparseCutoff=".77190307113243414E-001"/>
      <sparseX i="120" alpha="-69667.385985952234" sparseCutoff=".17145171721976163"/>
      <sparseX i="121" alpha="-148240.88363869197" sparseCutoff=".12852148906285599"/>
      <sparseX i="122" alpha="2515762.8028792483" sparseCutoff=".19426087434876615E-001"/>
      <sparseX i="123" alpha="2005265.1868115175" sparseCutoff=".33750879232742115E-001"/>
      <sparseX i="124" alpha="163038.73451563448" sparseCutoff="1.0000000000000000"/>
      <sparseX i="125" alpha="-512082.92160314770" sparseCutoff="1.0000000000000000"/>
      <sparseX i="126" alpha="-483914.03815955826" sparseCutoff="1.0000000000000000"/>
      <sparseX i="127" alpha="-782332.67112537986" sparseCutoff=".18427913092259968"/>
      <sparseX i="128" alpha="-214533.64168500362" sparseCutoff=".45106082144529602E-001"/>
      <sparseX i="129" alpha="-277373.41009514785" sparseCutoff="1.0000000000000000"/>
      <sparseX i="130" alpha="-253573.26478188683" sparseCutoff=".10858006332653808"/>
      <sparseX i="131" alpha="-392285.24377109669" sparseCutoff=".71916941822529035"/>
      <sparseX i="132" alpha="431485.54448633699" sparseCutoff=".90855631213886345E-001"/>
      <sparseX i="133" alpha="-166607.94965666314" sparseCutoff=".33920338288276536E-001"/>
      <sparseX i="134" alpha="-304588.68249640201" sparseCutoff="1.0000000000000000"/>
      <sparseX i="135" alpha="532055.77938164363" sparseCutoff="1.0000000000000000"/>
      <sparseX i="136" alpha="896035.51542293036" sparseCutoff=".69816601690782742E-001"/>
      <sparseX i="137" alpha="247235.04429962559" sparseCutoff=".34025303472425161"/>
      <sparseX i="138" alpha="-239323.56989234040" sparseCutoff=".63685073756821609"/>
      <sparseX i="139" alpha="-96279.722505598736" sparseCutoff=".63685073756821609"/>
      <sparseX i="140" alpha="136415.84673955935" sparseCutoff=".84112537221498473E-002"/>
      <sparseX i="141" alpha="263440.70120156405" sparseCutoff="1.0000000000000000"/>
      <sparseX i="142" alpha="175458.56653079868" sparseCutoff="1.0000000000000000"/>
      <sparseX i="143" alpha="71221.193540786844" sparseCutoff=".41163030777274789E-003"/>
      <sparseX i="144" alpha="197191.83863120573" sparseCutoff=".34232529838719883E-001"/>
      <sparseX i="145" alpha="-227427.18856223358" sparseCutoff=".24866832093207680"/>
      <sparseX i="146" alpha="-5225.2435628580479" sparseCutoff=".28122856263583795E-002"/>
      <sparseX i="147" alpha="349224.23591582244" sparseCutoff="1.0000000000000000"/>
      <sparseX i="148" alpha="-515656.42238968977" sparseCutoff="1.0000000000000000"/>
      <sparseX i="149" alpha="17.718396659701913" sparseCutoff=".25338348249071434E-006"/>
      <sparseX i="150" alpha="344066.14223294996" sparseCutoff=".59534486278410126E-001"/>
      <sparseX i="151" alpha="4816.2366670262827" sparseCutoff=".88302789871441117E-004"/>
      <sparseX i="152" alpha="28413.352373053403" sparseCutoff=".99584666841013703"/>
      <sparseX i="153" alpha="-42376.002664214910" sparseCutoff=".96305820926751273"/>
      <sparseX i="154" alpha="-263077.21545401058" sparseCutoff=".33343258107050067"/>
      <sparseX i="155" alpha="61973.497775268064" sparseCutoff=".44766402822360885E-001"/>
      <sparseX i="156" alpha="-148262.74482533339" sparseCutoff="1.0000000000000000"/>
      <sparseX i="157" alpha="-138865.76269065190" sparseCutoff=".61520888337565638E-002"/>
      <sparseX i="158" alpha="447488.91597965627" sparseCutoff=".14497776459450940"/>
      <sparseX i="159" alpha="744573.47523695999" sparseCutoff=".75635729283994912"/>
      <sparseX i="160" alpha="-234284.06118223199" sparseCutoff="1.0000000000000000"/>
      <sparseX i="161" alpha="64080.790657875339" sparseCutoff="1.0000000000000000"/>
      <sparseX i="162" alpha="-286849.31918088172" sparseCutoff=".99957144717696111"/>
      <sparseX i="163" alpha="282836.79661904235" sparseCutoff="1.0000000000000000"/>
      <sparseX i="164" alpha="3968.2720822625629" sparseCutoff=".22954544280812117E-003"/>
      <sparseX i="165" alpha="-104492.22999330120" sparseCutoff=".82812884722317981"/>
      <sparseX i="166" alpha="376061.14748817612" sparseCutoff="1.0000000000000000"/>
      <sparseX i="167" alpha="-546743.43381973926" sparseCutoff=".32866585923582221E-001"/>
      <sparseX i="168" alpha="-717621.34790983703" sparseCutoff="1.0000000000000000"/>
      <sparseX i="169" alpha="303208.45372323674" sparseCutoff=".52196322772295245E-001"/>
      <sparseX i="170" alpha="5452.4007107903108" sparseCutoff="1.0000000000000000"/>
      <sparseX i="171" alpha="261456.83843851244" sparseCutoff=".28013758486220008E-001"/>
      <sparseX i="172" alpha="598280.02536007739" sparseCutoff=".10950101245069627"/>
      <sparseX i="173" alpha="39197.214064645603" sparseCutoff="1.0000000000000000"/>
      <sparseX i="174" alpha="-107909.41606513440" sparseCutoff=".54696107549314577"/>
      <sparseX i="175" alpha="35233.204377989663" sparseCutoff="1.0000000000000000"/>
      <sparseX i="176" alpha="163877.48551156095" sparseCutoff=".21471002740120457E-001"/>
      <sparseX i="177" alpha="-306763.89611392707" sparseCutoff=".69370750445373264"/>
      <sparseX i="178" alpha="247605.81200478351" sparseCutoff="1.0000000000000000"/>
      <sparseX i="179" alpha="-112088.74920572691" sparseCutoff=".54696107549314577"/>
      <sparseX i="180" alpha="44304.741101478074" sparseCutoff=".96775469278298498E-003"/>
      <sparseX i="181" alpha="-128235.32316360199" sparseCutoff=".79047037002150100E-002"/>
      <sparseX i="182" alpha="-70315.407786581607" sparseCutoff=".62642820078956107E-001"/>
      <sparseX i="183" alpha="-134054.97779205948" sparseCutoff=".91320043399987005"/>
      <sparseX i="184" alpha="88549.485488750841" sparseCutoff="1.0000000000000000"/>
      <sparseX i="185" alpha="-720890.94908556866" sparseCutoff=".31728432499310955E-001"/>
      <sparseX i="186" alpha="821491.75833716814" sparseCutoff=".27202868699825522E-001"/>
      <sparseX i="187" alpha="216973.76385354262" sparseCutoff=".38351089209689437E-002"/>
      <sparseX i="188" alpha="-929144.11631309823" sparseCutoff=".19542795636229904E-001"/>
      <sparseX i="189" alpha="-15598.410141981723" sparseCutoff=".53957949860103893"/>
      <sparseX i="190" alpha="-332809.81650481920" sparseCutoff=".21214710562553329"/>
      <sparseX i="191" alpha="350450.01413111505" sparseCutoff=".15274383811574760"/>
      <sparseX i="192" alpha="215808.82875032700" sparseCutoff=".42880989085688492E-002"/>
      <sparseX i="193" alpha="-371247.75740325236" sparseCutoff="1.0000000000000000"/>
      <sparseX i="194" alpha="-53569.752720009339" sparseCutoff="1.0000000000000000"/>
      <sparseX i="195" alpha="-23004.618777452146" sparseCutoff="1.0000000000000000"/>
      <sparseX i="196" alpha="-154912.39079290640" sparseCutoff="1.0000000000000000"/>
      <sparseX i="197" alpha="217877.03091039334" sparseCutoff=".40082796694958844E-001"/>
      <sparseX i="198" alpha="-230133.10132588947" sparseCutoff="1.0000000000000000"/>
      <sparseX i="199" alpha="-211229.57216763441" sparseCutoff="1.0000000000000000"/>
      <sparseX i="200" alpha="356378.72983855434" sparseCutoff=".30204306600095010"/>
    </gpCoordinates>
    <gpCoordinates label="GAP_2023_10_28_180_1_14_11_7513" dimensions="72" signal_variance=".10000000000000001E+000" signal_mean=".00000000000000000E+000" sparsified="T" n_permutations="1" covariance_type="2" zeta="6.0000000000000000" n_sparseX="10943" sparseX_filename="carbon.xml.sparseX.GAP_2023_10_28_180_1_14_11_7513" sparseX_md5sum="efb06458be7aac8750c6c82f62c7f7fb">
      <descriptor> soap_turbo l_max=8 alpha_max={8} atom_sigma_r={0.5} atom_sigma_t={0.5} atom_sigma_r_scaling={0.} atom_sigma_t_scaling={0.} zeta=6 rcut_hard=4.5 rcut_soft=4.0 basis=poly3gauss scaling_mode=polynomial amplitude_scaling={1.0} n_species=1 species_Z=6 central_index=1 radial_enhancement={1} compress_mode=trivial central_weight={1.0} config_type_n_sparse={bulk_amo:2000:surf_amo:1000:bulk_cryst:1000:cluster:43:glassy:500: graphitic:400:diamond_surface:400:c60x2:100:c60_on_graphene:100:c60_bouncy:100:c60_isostatic:50:c60_deformation:100: c60_on_a-C:250:c60_on_diamond:100:c60x2_smash:200:c60_isomers:500:unrelaxed_CNTs:1000:relaxed_CNTs:1000:amorphous_graphene:1000: exotics_crystals:1000:graphene_defects:100} delta=0.1 f0=0.0 covariance_type=dot_product sparse_method=cur_points add_species=F</descriptor>
      <permutation i="1">1  </permutation>
      <sparseX i="1" alpha="24019.967189888979" sparseCutoff="1.0000000000000000"/>
      <sparseX i="2" alpha="1933.5683501097938" sparseCutoff="1.0000000000000000"/>
      <sparseX i="3" alpha="-3263.8510441466710" sparseCutoff="1.0000000000000000"/>
      <sparseX i="4" alpha="-17571.816779027024" sparseCutoff="1.0000000000000000"/>
      <sparseX i="5" alpha="28.530411417754511" sparseCutoff="1.0000000000000000"/>
      <sparseX i="6" alpha="-6657.4182078178856" sparseCutoff="1.0000000000000000"/>
      <sparseX i="7" alpha="10632.251101483704" sparseCutoff="1.0000000000000000"/>
      <sparseX i="8" alpha="-7902.1078688834796" sparseCutoff="1.0000000000000000"/>
      <sparseX i="9" alpha="5490.9048691878043" sparseCutoff="1.0000000000000000"/>
      <sparseX i="10" alpha="-14136.189375844271" sparseCutoff="1.0000000000000000"/>
      <sparseX i="11" alpha="-37885.160202772160" sparseCutoff="1.0000000000000000"/>
      <sparseX i="12" alpha="60921.958647213112" sparseCutoff="1.0000000000000000"/>
      <sparseX i="13" alpha="15520.154682474229" sparseCutoff="1.0000000000000000"/>
      <sparseX i="14" alpha="22693.978066059080" sparseCutoff="1.0000000000000000"/>
      <sparseX i="15" alpha="-23900.697029951982" sparseCutoff="1.0000000000000000"/>
      <sparseX i="16" alpha="-22485.863364733661" sparseCutoff="1.0000000000000000"/>
      <sparseX i="17" alpha="-86302.736395839602" sparseCutoff="1.0000000000000000"/>
      <sparseX i="18" alpha="34286.629788152772" sparseCutoff="1.0000000000000000"/>
      <sparseX i="19" alpha="103355.33496548751" sparseCutoff="1.0000000000000000"/>
      <sparseX i="20" alpha="-64542.669121706276" sparseCutoff="1.0000000000000000"/>
      <sparseX i="21" alpha="10151.149821538338" sparseCutoff="1.0000000000000000"/>
      <sparseX i="22" alpha="7975.1265717227816" sparseCutoff="1.0000000000000000"/>
      <sparseX i="23" alpha="-43519.269116283242" sparseCutoff="1.0000000000000000"/>
      <sparseX i="24" alpha="211376.29695580064" sparseCutoff="1.0000000000000000"/>
      <sparseX i="25" alpha="-9121.7867454794687" sparseCutoff="1.0000000000000000"/>
      <sparseX i="26" alpha="28779.022380542254" sparseCutoff="1.0000000000000000"/>
      <sparseX i="27" alpha="114800.16503001281" sparseCutoff="1.0000000000000000"/>
      <sparseX i="28" alpha="-47294.656404423418" sparseCutoff="1.0000000000000000"/>
      <sparseX i="29" alpha="82252.397619260693" sparseCutoff="1.0000000000000000"/>
      <sparseX i="30" alpha="-245538.03503396930" sparseCutoff="1.0000000000000000"/>
      <sparseX i="31" alpha="-12764.795764820665" sparseCutoff="1.0000000000000000"/>
      <sparseX i="32" alpha="122824.53195180946" sparseCutoff="1.0000000000000000"/>
      <sparseX i="33" alpha="18202.299845469839" sparseCutoff="1.0000000000000000"/>
      <sparseX i="34" alpha="37371.459208280830" sparseCutoff="1.0000000000000000"/>
      <sparseX i="35" alpha="-36357.359135775107" sparseCutoff="1.0000000000000000"/>
      <sparseX i="36" alpha="-14070.435593805913" sparseCutoff="1.0000000000000000"/>
      <sparseX i="37" alpha="95780.426554944192" sparseCutoff="1.0000000000000000"/>
      <sparseX i="38" alpha="57575.963976935047" sparseCutoff="1.0000000000000000"/>
      <sparseX i="39" alpha="8054.2489668417102" sparseCutoff="1.0000000000000000"/>
      <sparseX i="40" alpha="18469.622258475742" sparseCutoff="1.0000000000000000"/>
      <sparseX i="41" alpha="-123315.07065232677" sparseCutoff="1.0000000000000000"/>
      <sparseX i="42" alpha="-53841.596441442372" sparseCutoff="1.0000000000000000"/>
      <sparseX i="43" alpha="-94145.128673764542" sparseCutoff="1.0000000000000000"/>
      <sparseX i="44" alpha="-17934.757012821781" sparseCutoff="1.0000000000000000"/>
      <sparseX i="45" alpha="387039.77860353910" sparseCutoff="1.0000000000000000"/>
      <sparseX i="46" alpha="27608.400181262834" sparseCutoff="1.0000000000000000"/>
      <sparseX i="47" alpha="-1694.3706025595245" sparseCutoff="1.0000000000000000"/>
      <sparseX i="48" alpha="-54050.705496758921" sparseCutoff="1.0000000000000000"/>
      <sparseX i="49" alpha="-21919.709020706163" sparseCutoff="1.0000000000000000"/>
      <sparseX i="50" alpha="36174.963317736008" sparseCutoff="1.0000000000000000"/>
      <sparseX i="51" alpha="84610.088082136863" sparseCutoff="1.0000000000000000"/>
      <sparseX i="52" alpha="-138081.90481007996" sparseCutoff="1.0000000000000000"/>
      <sparseX i="53" alpha="-137332.66797230800" sparseCutoff="1.0000000000000000"/>
      <sparseX i="54" alpha="70250.237626646252" sparseCutoff="1.0000000000000000"/>
      <sparseX i="55" alpha="-26720.373439477746" sparseCutoff="1.0000000000000000"/>
      <sparseX i="56" alpha="-42586.150973111529" sparseCutoff="1.0000000000000000"/>
      <sparseX i="57" alpha="-18837.091914501234" sparseCutoff="1.0000000000000000"/>
      <sparseX i="58" alpha="20761.645624750374" sparseCutoff="1.0000000000000000"/>
      <sparseX i="59" alpha="-14062.979654386472" sparseCutoff="1.0000000000000000"/>
      <sparseX i="60" alpha="-8921.7155591983974" sparseCutoff="1.0000000000000000"/>
      <sparseX i="61" alpha="-31189.859154308946" sparseCutoff="1.0000000000000000"/>
      <sparseX i="62" alpha="861.04537805806581" sparseCutoff="1.0000000000000000"/>
      <sparseX i="63" alpha="-30665.674828492756" sparseCutoff="1.0000000000000000"/>
      <sparseX i="64" alpha="78547.967517171521" sparseCutoff="1.0000000000000000"/>
      <sparseX i="65" alpha="-96756.779802049205" sparseCutoff="1.0000000000000000"/>
      <sparseX i="66" alpha="35762.376800715349" sparseCutoff="1.0000000000000000"/>
      <sparseX i="67" alpha="675.94602199155997" sparseCutoff="1.0000000000000000"/>
      <sparseX i="68" alpha="-30252.577494245783" sparseCutoff="1.0000000000000000"/>
      <sparseX i="69" alpha="-5988.5703237142488" sparseCutoff="1.0000000000000000"/>
      <sparseX i="70" alpha="-33736.399996286586" sparseCutoff="1.0000000000000000"/>
      <sparseX i="71" alpha="83853.421992250413" sparseCutoff="1.0000000000000000"/>
      <sparseX i="72" alpha="-23289.893174583332" sparseCutoff="1.0000000000000000"/>
      <sparseX i="73" alpha="-114943.13944411001" sparseCutoff="1.0000000000000000"/>
      <sparseX i="74" alpha="-87432.684615373713" sparseCutoff="1.0000000000000000"/>
      <sparseX i="75" alpha="-22662.588054876789" sparseCutoff="1.0000000000000000"/>
      <sparseX i="76" alpha="-86853.343428258348" sparseCutoff="1.0000000000000000"/>
      <sparseX i="77" alpha="25077.044692769185" sparseCutoff="1.0000000000000000"/>
      <sparseX i="78" alpha="35557.707518366115" sparseCutoff="1.0000000000000000"/>
      <sparseX i="79" alpha="-55313.049839325671" sparseCutoff="1.0000000000000000"/>
      <sparseX i="80" alpha="-5719.3732138095138" sparseCutoff="1.0000000000000000"/>
      <sparseX i="81" alpha="-19909.394969606787" sparseCutoff="1.0000000000000000"/>
      <sparseX i="82" alpha="-25773.693134980043" sparseCutoff="1.0000000000000000"/>
      <sparseX i="83" alpha="-108078.01374208186" sparseCutoff="1.0000000000000000"/>
      <sparseX i="84" alpha="40457.163726037732" sparseCutoff="1.0000000000000000"/>
      <sparseX i="85" alpha="70639.913367534929" sparseCutoff="1.0000000000000000"/>
      <sparseX i="86" alpha="-13798.123934429728" sparseCutoff="1.0000000000000000"/>
      <sparseX i="87" alpha="-31973.642971317451" sparseCutoff="1.0000000000000000"/>
      <sparseX i="88" alpha="-139380.61574643847" sparseCutoff="1.0000000000000000"/>
      <sparseX i="89" alpha="14212.520229289987" sparseCutoff="1.0000000000000000"/>
      <sparseX i="90" alpha="-38434.946030486790" sparseCutoff="1.0000000000000000"/>
      <sparseX i="91" alpha="100488.85067851498" sparseCutoff="1.0000000000000000"/>
      <sparseX i="92" alpha="-77147.716042595828" sparseCutoff="1.0000000000000000"/>
      <sparseX i="93" alpha="67867.639730132971" sparseCutoff="1.0000000000000000"/>
      <sparseX i="94" alpha="-16844.074201145224" sparseCutoff="1.0000000000000000"/>
      <sparseX i="95" alpha="-17561.775259155365" sparseCutoff="1.0000000000000000"/>
      <sparseX i="96" alpha="-53412.889854768786" sparseCutoff="1.0000000000000000"/>
      <sparseX i="97" alpha="-98.469219929156921" sparseCutoff="1.0000000000000000"/>
      <sparseX i="98" alpha="-88540.520099530666" sparseCutoff="1.0000000000000000"/>
      <sparseX i="99" alpha="-55925.501487739974" sparseCutoff="1.0000000000000000"/>
      <sparseX i="100" alpha="15906.999520888101" sparseCutoff="1.0000000000000000"/>
      <sparseX i="101" alpha="-12335.429685609783" sparseCutoff="1.0000000000000000"/>
      <sparseX i="102" alpha="289103.64542405133" sparseCutoff="1.0000000000000000"/>
      <sparseX i="103" alpha="33203.970251034996" sparseCutoff="1.0000000000000000"/>
      <sparseX i="104" alpha="-12063.371218796092" sparseCutoff="1.0000000000000000"/>
      <sparseX i="105" alpha="-34863.901888758504" sparseCutoff="1.0000000000000000"/>
      <sparseX i="106" alpha="-44608.335144741119" sparseCutoff="1.0000000000000000"/>
      <sparseX i="107" alpha="14301.994284632850" sparseCutoff="1.0000000000000000"/>
      <sparseX i="108" alpha="-127753.62240359565" sparseCutoff="1.0000000000000000"/>
      <sparseX i="109" alpha="-4539.1941347592083" sparseCutoff="1.0000000000000000"/>
      <sparseX i="110" alpha="5793.8752298624395" sparseCutoff="1.0000000000000000"/>
      <sparseX i="111" alpha="-21925.322526406380" sparseCutoff="1.0000000000000000"/>
      <sparseX i="112" alpha="-58802.669423370011" sparseCutoff="1.0000000000000000"/>
      <sparseX i="113" alpha="59238.385336186017" sparseCutoff="1.0000000000000000"/>
      <sparseX i="114" alpha="-17430.561945474219" sparseCutoff="1.0000000000000000"/>
      <sparseX i="115" alpha="4781.1379188255842" sparseCutoff="1.0000000000000000"/>
      <sparseX i="116" alpha="-23464.773665872504" sparseCutoff="1.0000000000000000"/>
      <sparseX i="117" alpha="-81475.912537352575" sparseCutoff="1.0000000000000000"/>
      <sparseX i="118" alpha="-37875.278896525793" sparseCutoff="1.0000000000000000"/>
      <sparseX i="119" alpha="-24676.126932303978" sparseCutoff="1.0000000000000000"/>
      <sparseX i="120" alpha="42263.689825101799" sparseCutoff="1.0000000000000000"/>
      <sparseX i="121" alpha="11256.503337204493" sparseCutoff="1.0000000000000000"/>
      <sparseX i="122" alpha="-36074.645105587813" sparseCutoff="1.0000000000000000"/>
      <sparseX i="123" alpha="40820.500879907806" sparseCutoff="1.0000000000000000"/>
      <sparseX i="124" alpha="88590.377651625953" sparseCutoff="1.0000000000000000"/>
      <sparseX i="125" alpha="30874.329414758929" sparseCutoff="1.0000000000000000"/>
      <sparseX i="126" alpha="-76944.470964472115" sparseCutoff="1.0000000000000000"/>
      <sparseX i="127" alpha="-13126.516390585135" sparseCutoff="1.0000000000000000"/>
      <sparseX i="128" alpha="-40987.874091051737" sparseCutoff="1.0000000000000000"/>
      <sparseX i="129" alpha="-59790.802723003500" sparseCutoff="1.0000000000000000"/>
      <sparseX i="130" alpha="263313.97708706546" sparseCutoff="1.0000000000000000"/>
      <sparseX i="131" alpha="30652.320258236738" sparseCutoff="1.0000000000000000"/>
      <sparseX i="132" alpha="124586.42451161772" sparseCutoff="1.0000000000000000"/>
      <sparseX i="133" alpha="113724.86918645761" sparseCutoff="1.0000000000000000"/>
      <sparseX i="134" alpha="44130.067135699675" sparseCutoff="1.0000000000000000"/>
      <sparseX i="135" alpha="25206.140345094027" sparseCutoff="1.0000000000000000"/>
      <sparseX i="136" alpha="71225.530408535240" sparseCutoff="1.0000000000000000"/>
      <sparseX i="137" alpha="-32858.812960843628" sparseCutoff="1.0000000000000000"/>
      <sparseX i="138" alpha="-17919.804985700630" sparseCutoff="1.0000000000000000"/>
      <sparseX i="139" alpha="36572.218439591103" sparseCutoff="1.0000000000000000"/>
      <sparseX i="140" alpha="74473.754327911869" sparseCutoff="1.0000000000000000"/>
      <sparseX i="141" alpha="107870.83301491146" sparseCutoff="1.0000000000000000"/>
      <sparseX i="142" alpha="-59309.120470978276" sparseCutoff="1.0000000000000000"/>
      <sparseX i="143" alpha="32999.955100845124" sparseCutoff="1.0000000000000000"/>
      <sparseX i="144" alpha="-20404.378836988217" sparseCutoff="1.0000000000000000"/>
      <sparseX i="145" alpha="24804.326214733330" sparseCutoff="1.0000000000000000"/>
      <sparseX i="146" alpha="-346304.57027760806" sparseCutoff="1.0000000000000000"/>
      <sparseX i="147" alpha="13677.838871715412" sparseCutoff="1.0000000000000000"/>
      <sparseX i="148" alpha="5008.0491907751702" sparseCutoff="1.0000000000000000"/>
      <sparseX i="149" alpha="5509.3173623905241" sparseCutoff="1.0000000000000000"/>
      <sparseX i="150" alpha="255733.29289695577" sparseCutoff="1.0000000000000000"/>
      <sparseX i="151" alpha="-17289.769454343019" sparseCutoff="1.0000000000000000"/>
      <sparseX i="152" alpha="-46655.836188957990" sparseCutoff="1.0000000000000000"/>
      <sparseX i="153" alpha="36945.714291754441" sparseCutoff="1.0000000000000000"/>
      <sparseX i="154" alpha="-61851.124703383910" sparseCutoff="1.0000000000000000"/>
      <sparseX i="155" alpha="-110542.00626748262" sparseCutoff="1.0000000000000000"/>
      <sparseX i="156" alpha="-21383.936020074147" sparseCutoff="1.0000000000000000"/>
      <sparseX i="157" alpha="-34607.098094556102" sparseCutoff="1.0000000000000000"/>
      <sparseX i="158" alpha="13559.270197488569" sparseCutoff="1.0000000000000000"/>
      <sparseX i="159" alpha="-16803.330581567465" sparseCutoff="1.0000000000000000"/>
      <sparseX i="160" alpha="-32271.283670256893" sparseCutoff="1.0000000000000000"/>
      <sparseX i="161" alpha="-100333.96196573687" sparseCutoff="1.0000000000000000"/>
      <sparseX i="162" alpha="-51676.879346241047" sparseCutoff="1.0000000000000000"/>
      <sparseX i="163" alpha="92876.520769123061" sparseCutoff="1.0000000000000000"/>
      <sparseX i="164" alpha="-61339.337484442534" sparseCutoff="1.0000000000000000"/>
      <sparseX i="165" alpha="-34616.948693733597" sparseCutoff="1.0000000000000000"/>
      <sparseX i="166" alpha="-32977.836150492782" sparseCutoff="1.0000000000000000"/>
      <sparseX i="167" alpha="-16315.152042328913" sparseCutoff="1.0000000000000000"/>
      <sparseX i="168" alpha="75956.845151428570" sparseCutoff="1.0000000000000000"/>
      <sparseX i="169" alpha="5694.9554696177192" sparseCutoff="1.0000000000000000"/>
      <sparseX i="170" alpha="866.56384303944958" sparseCutoff="1.0000000000000000"/>
      <sparseX i="171" alpha="42691.073205329893" sparseCutoff="1.0000000000000000"/>
      <sparseX i="172" alpha="75043.386297684789" sparseCutoff="1.0000000000000000"/>
      <sparseX i="173" alpha="-17455.835086457766" sparseCutoff="1.0000000000000000"/>
      <sparseX i="174" alpha="-2094.2263652221582" sparseCutoff="1.0000000000000000"/>
      <sparseX i="175" alpha="13670.183872700238" sparseCutoff="1.0000000000000000"/>
      <sparseX i="176" alpha="-148323.28912883688" sparseCutoff="1.0000000000000000"/>
      <sparseX i="177" alpha="70745.228022121388" sparseCutoff="1.0000000000000000"/>
      <sparseX i="178" alpha="-7242.8475336483625" sparseCutoff="1.0000000000000000"/>
      <sparseX i="179" alpha="-3487.0562972707903" sparseCutoff="1.0000000000000000"/>
      <sparseX i="180" alpha="-3006.8910262773416" sparseCutoff="1.0000000000000000"/>
      <sparseX i="181" alpha="213737.76412796046" sparseCutoff="1.0000000000000000"/>
      <sparseX i="182" alpha="47953.118267304540" sparseCutoff="1.0000000000000000"/>
      <sparseX i="183" alpha="16653.841956181222" sparseCutoff="1.0000000000000000"/>
      <sparseX i="184" alpha="-53089.353158529637" sparseCutoff="1.0000000000000000"/>
      <sparseX i="185" alpha="50094.117327968925" sparseCutoff="1.0000000000000000"/>
      <sparseX i="186" alpha="-37482.971690957485" sparseCutoff="1.0000000000000000"/>
      <sparseX i="187" alpha="-5674.9340415591159" sparseCutoff="1.0000000000000000"/>
      <sparseX i="188" alpha="-74267.780669138447" sparseCutoff="1.0000000000000000"/>
      <sparseX i="189" alpha="29886.799605117511" sparseCutoff="1.0000000000000000"/>
      <sparseX i="190" alpha="30810.551881591924" sparseCutoff="1.0000000000000000"/>
      <sparseX i="191" alpha="41956.831655013382" sparseCutoff="1.0000000000000000"/>
      <sparseX i="192" alpha="-167125.12817858718" sparseCutoff="1.0000000000000000"/>
      <sparseX i="193" alpha="-28159.216630683550" sparseCutoff="1.0000000000000000"/>
      <sparseX i="194" alpha="-49373.311351982236" sparseCutoff="1.0000000000000000"/>
      <sparseX i="195" alpha="42226.256974309064" sparseCutoff="1.0000000000000000"/>
      <sparseX i="196" alpha="-35923.033285229707" sparseCutoff="1.0000000000000000"/>
      <sparseX i="197" alpha="42080.385506081780" sparseCutoff="1.0000000000000000"/>
      <sparseX i="198" alpha="-147244.90587705630" sparseCutoff="1.0000000000000000"/>
      <sparseX i="199" alpha="105601.70454145649" sparseCutoff="1.0000000000000000"/>
      <sparseX i="200" alpha="-172280.71178451576" sparseCutoff="1.0000000000000000"/>
      <sparseX i="201" alpha="-22508.570370980335" sparseCutoff="1.0000000000000000"/>
      <sparseX i="202" alpha="24570.697662051956" sparseCutoff="1.0000000000000000"/>
      <sparseX i="203" alpha="-18650.551517667547" sparseCutoff="1.0000000000000000"/>
      <sparseX i="204" alpha="-8277.8565809620577" sparseCutoff="1.0000000000000000"/>
      <sparseX i="205" alpha="3169.7443578437574" sparseCutoff="1.0000000000000000"/>
      <sparseX i="206" alpha="-67753.449537376786" sparseCutoff="1.0000000000000000"/>
      <sparseX i="207" alpha="-18223.987187604595" sparseCutoff="1.0000000000000000"/>
      <sparseX i="208" alpha="35987.531655948434" sparseCutoff="1.0000000000000000"/>
      <sparseX i="209" alpha="50657.277666151196" sparseCutoff="1.0000000000000000"/>
      <sparseX i="210" alpha="37308.966284850248" sparseCutoff="1.0000000000000000"/>
      <sparseX i="211" alpha="161947.98746896675" sparseCutoff="1.0000000000000000"/>
      <sparseX i="212" alpha="-96907.159383471371" sparseCutoff="1.0000000000000000"/>
      <sparseX i="213" alpha="111.44324078579997" sparseCutoff="1.0000000000000000"/>
      <sparseX i="214" alpha="59408.546614198582" sparseCutoff="1.0000000000000000"/>
      <sparseX i="215" alpha="25491.284021102267" sparseCutoff="1.0000000000000000"/>
      <sparseX i="216" alpha="71684.358834681218" sparseCutoff="1.0000000000000000"/>
      <sparseX i="217" alpha="101476.12985860158" sparseCutoff="1.0000000000000000"/>
      <sparseX i="218" alpha="-20890.021980787238" sparseCutoff="1.0000000000000000"/>
      <sparseX i="219" alpha="4216.9348996640356" sparseCutoff="1.0000000000000000"/>
      <sparseX i="220" alpha="-12161.959620390204" sparseCutoff="1.0000000000000000"/>
      <sparseX i="221" alpha="-49883.485625592519" sparseCutoff="1.0000000000000000"/>
      <sparseX i="222" alpha="-105882.35505803340" sparseCutoff="1.0000000000000000"/>
      <sparseX i="223" alpha="-7897.2540871611936" sparseCutoff="1.0000000000000000"/>
      <sparseX i="224" alpha="-24311.638737346748" sparseCutoff="1.0000000000000000"/>
      <sparseX i="225" alpha="-156439.51336505168" sparseCutoff="1.0000000000000000"/>
      <sparseX i="226" alpha="-19135.777751514303" sparseCutoff="1.0000000000000000"/>
      <sparseX i="227" alpha="-110444.19483439559" sparseCutoff="1.0000000000000000"/>
      <sparseX i="228" alpha="-213896.79360434986" sparseCutoff="1.0000000000000000"/>
      <sparseX i="229" alpha="-62270.672812060686" sparseCutoff="1.0000000000000000"/>
      <sparseX i="230" alpha="16669.399604414451" sparseCutoff="1.0000000000000000"/>
      <sparseX i="231" alpha="16864.221047854975" sparseCutoff="1.0000000000000000"/>
      <sparseX i="232" alpha="-34432.435087949620" sparseCutoff="1.0000000000000000"/>
      <sparseX i="233" alpha="-43178.145090071972" sparseCutoff="1.0000000000000000"/>
      <sparseX i="234" alpha="-99908.702121150738" sparseCutoff="1.0000000000000000"/>
      <sparseX i="235" alpha="-104775.98141151314" sparseCutoff="1.0000000000000000"/>
      <sparseX i="236" alpha="-19379.491519268580" sparseCutoff="1.0000000000000000"/>
      <sparseX i="237" alpha="28158.196294050667" sparseCutoff="1.0000000000000000"/>
      <sparseX i="238" alpha="135927.74210944376" sparseCutoff="1.0000000000000000"/>
      <sparseX i="239" alpha="-243627.72468040706" sparseCutoff="1.0000000000000000"/>
      <sparseX i="240" alpha="79901.541485883092" sparseCutoff="1.0000000000000000"/>
      <sparseX i="241" alpha="182292.11942392250" sparseCutoff="1.0000000000000000"/>
      <sparseX i="242" alpha="182596.00809344518" sparseCutoff="1.0000000000000000"/>
      <sparseX i="243" alpha="135115.07166934852" sparseCutoff="1.0000000000000000"/>
      <sparseX i="244" alpha="-117887.32891027043" sparseCutoff="1.0000000000000000"/>
      <sparseX i="245" alpha="24192.037460511619" sparseCutoff="1.0000000000000000"/>
      <sparseX i="246" alpha="-66999.683118148532" sparseCutoff="1.0000000000000000"/>
      <sparseX i="247" alpha="-18259.118125380672" sparseCutoff="1.0000000000000000"/>
      <sparseX i="248" alpha="-32124.450815184406" sparseCutoff="1.0000000000000000"/>
      <sparseX i="249" alpha="91507.345466060069" sparseCutoff="1.0000000000000000"/>
      <sparseX i="250" alpha="89474.239272076127" sparseCutoff="1.0000000000000000"/>
      <sparseX i="251" alpha="-58291.287181113563" sparseCutoff="1.0000000000000000"/>
      <sparseX i="252" alpha="-155046.83958925432" sparseCutoff="1.0000000000000000"/>
      <sparseX i="253" alpha="-10085.332074978385" sparseCutoff="1.0000000000000000"/>
      <sparseX i="254" alpha="33160.439143993790" sparseCutoff="1.0000000000000000"/>
      <sparseX i="255" alpha="-7681.2517768101579" sparseCutoff="1.0000000000000000"/>
      <sparseX i="256" alpha="-196554.89827530147" sparseCutoff="1.0000000000000000"/>
      <sparseX i="257" alpha="-4302.4434974049973" sparseCutoff="1.0000000000000000"/>
      <sparseX i="258" alpha="-11785.286676692629" sparseCutoff="1.0000000000000000"/>
      <sparseX i="259" alpha="-76409.922794535771" sparseCutoff="1.0000000000000000"/>
      <sparseX i="260" alpha="-37603.176097913747" sparseCutoff="1.0000000000000000"/>
      <sparseX i="261" alpha="110490.17561285001" sparseCutoff="1.0000000000000000"/>
      <sparseX i="262" alpha="219241.89724091280" sparseCutoff="1.0000000000000000"/>
      <sparseX i="263" alpha="84526.478159391962" sparseCutoff="1.0000000000000000"/>
      <sparseX i="264" alpha="48209.731591508847" sparseCutoff="1.0000000000000000"/>
      <sparseX i="265" alpha="-159409.51680086410" sparseCutoff="1.0000000000000000"/>
      <sparseX i="266" alpha="-34499.314282989420" sparseCutoff="1.0000000000000000"/>
      <sparseX i="267" alpha="-10054.094472102395" sparseCutoff="1.0000000000000000"/>
      <sparseX i="268" alpha="-10221.762243224948" sparseCutoff="1.0000000000000000"/>
      <sparseX i="269" alpha="-24057.110895820922" sparseCutoff="1.0000000000000000"/>
      <sparseX i="270" alpha="48357.704151736791" sparseCutoff="1.0000000000000000"/>
      <sparseX i="271" alpha="-32907.298059243687" sparseCutoff="1.0000000000000000"/>
      <sparseX i="272" alpha="-240627.95261427216" sparseCutoff="1.0000000000000000"/>
      <sparseX i="273" alpha="-174437.85384701408" sparseCutoff="1.0000000000000000"/>
      <sparseX i="274" alpha="5637.2255847153820" sparseCutoff="1.0000000000000000"/>
      <sparseX i="275" alpha="-77450.157959900826" sparseCutoff="1.0000000000000000"/>
      <sparseX i="276" alpha="15998.259169024041" sparseCutoff="1.0000000000000000"/>
      <sparseX i="277" alpha="-110544.95583504958" sparseCutoff="1.0000000000000000"/>
      <sparseX i="278" alpha="-135071.23448219383" sparseCutoff="1.0000000000000000"/>
      <sparseX i="279" alpha="-5583.7375313837074" sparseCutoff="1.0000000000000000"/>
      <sparseX i="280" alpha="24875.064150529819" sparseCutoff="1.0000000000000000"/>
      <sparseX i="281" alpha="-10204.151077130038" sparseCutoff="1.0000000000000000"/>
      <sparseX i="282" alpha="-139078.01974659390" sparseCutoff="1.0000000000000000"/>
      <sparseX i="283" alpha="-164827.44434279721" sparseCutoff="1.0000000000000000"/>
      <sparseX i="284" alpha="-16739.079533818105" sparseCutoff="1.0000000000000000"/>
      <sparseX i="285" alpha="62179.972309174169" sparseCutoff="1.0000000000000000"/>
      <sparseX i="286" alpha="-62037.651966689533" sparseCutoff="1.0000000000000000"/>
      <sparseX i="287" alpha="-37888.268980319066" sparseCutoff="1.0000000000000000"/>
      <sparseX i="288" alpha="58608.728435272656" sparseCutoff="1.0000000000000000"/>
      <sparseX i="289" alpha="-70358.058878388620" sparseCutoff="1.0000000000000000"/>
      <sparseX i="290" alpha="7933.0187130149752" sparseCutoff="1.0000000000000000"/>
      <sparseX i="291" alpha="-35848.861554938921" sparseCutoff="1.0000000000000000"/>
      <sparseX i="292" alpha="931.03553048969002" sparseCutoff="1.0000000000000000"/>
      <sparseX i="293" alpha="-27991.302158916737" sparseCutoff="1.0000000000000000"/>
      <sparseX i="294" alpha="67244.022348832921" sparseCutoff="1.0000000000000000"/>
      <sparseX i="295" alpha="-64140.890220118083" sparseCutoff="1.0000000000000000"/>
      <sparseX i="296" alpha="115668.86142519637" sparseCutoff="1.0000000000000000"/>
      <sparseX i="297" alpha="-77893.159176637084" sparseCutoff="1.0000000000000000"/>
      <sparseX i="298" alpha="-18876.516313835466" sparseCutoff="1.0000000000000000"/>
      <sparseX i="299" alpha="89662.888815834536" sparseCutoff="1.0000000000000000"/>
      <sparseX i="300" alpha="41571.747596074048" sparseCutoff="1.0000000000000000"/>
      <sparseX i="301" alpha="147765.25879366451" sparseCutoff="1.0000000000000000"/>
      <sparseX i="302" alpha="55953.583625907944" sparseCutoff="1.0000000000000000"/>
      <sparseX i="303" alpha="-101424.08919109000" sparseCutoff="1.0000000000000000"/>
      <sparseX i="304" alpha="-59570.175559322190" sparseCutoff="1.0000000000000000"/>
      <sparseX i="305" alpha="-94324.555579373991" sparseCutoff="1.0000000000000000"/>
      <sparseX i="306" alpha="-127010.68913964787" sparseCutoff="1.0000000000000000"/>
      <sparseX i="307" alpha="-49170.488512611526" sparseCutoff="1.0000000000000000"/>
      <sparseX i="308" alpha="-78646.151568062560" sparseCutoff="1.0000000000000000"/>
      <sparseX i="309" alpha="48165.862625633083" sparseCutoff="1.0000000000000000"/>
      <sparseX i="310" alpha="-52727.056396487540" sparseCutoff="1.0000000000000000"/>
      <sparseX i="311" alpha="15736.080878520437" sparseCutoff="1.0000000000000000"/>
      <sparseX i="312" alpha="11632.643023521805" sparseCutoff="1.0000000000000000"/>
      <sparseX i="313" alpha="-13664.931178869498" sparseCutoff="1.0000000000000000"/>
      <sparseX i="314" alpha="74882.726777338452" sparseCutoff="1.0000000000000000"/>
      <sparseX i="315" alpha="-181874.01371632915" sparseCutoff="1.0000000000000000"/>
      <sparseX i="316" alpha="60334.928642530795" sparseCutoff="1.0000000000000000"/>
      <sparseX i="317" alpha="-84245.725907536107" sparseCutoff="1.0000000000000000"/>
      <sparseX i="318" alpha="-144837.47802013368" sparseCutoff="1.0000000000000000"/>
      <sparseX i="319" alpha="-50856.953158215685" sparseCutoff="1.0000000000000000"/>
      <sparseX i="320" alpha="-78403.624868804895" sparseCutoff="1.0000000000000000"/>
      <sparseX i="321" alpha="-59851.049450534432" sparseCutoff="1.0000000000000000"/>
      <sparseX i="322" alpha="234456.65449427447" sparseCutoff="1.0000000000000000"/>
      <sparseX i="323" alpha="-191532.69391142271" sparseCutoff="1.0000000000000000"/>
      <sparseX i="324" alpha="-138759.21462032478" sparseCutoff="1.0000000000000000"/>
      <sparseX i="325" alpha="-224617.04232035668" sparseCutoff="1.0000000000000000"/>
      <sparseX i="326" alpha="-78795.791600807250" sparseCutoff="1.0000000000000000"/>
      <sparseX i="327" alpha="56572.965146341005" sparseCutoff="1.0000000000000000"/>
      <sparseX i="328" alpha="-146720.47049735280" sparseCutoff="1.0000000000000000"/>
      <sparseX i="329" alpha="441064.79849296465" sparseCutoff="1.0000000000000000"/>
      <sparseX i="330" alpha="76497.635348348005" sparseCutoff="1.0000000000000000"/>
      <sparseX i="331" alpha="50429.236538276258" sparseCutoff="1.0000000000000000"/>
      <sparseX i="332" alpha="-20842.641988089210" sparseCutoff="1.0000000000000000"/>
      <sparseX i="333" alpha="-26640.691311112765" sparseCutoff="1.0000000000000000"/>
      <sparseX i="334" alpha="147992.32092180752" sparseCutoff="1.0000000000000000"/>
      <sparseX i="335" alpha="-328530.49890904821" sparseCutoff="1.0000000000000000"/>
      <sparseX i="336" alpha="120128.33017413125" sparseCutoff="1.0000000000000000"/>
      <sparseX i="337" alpha="-198150.33149789486" sparseCutoff="1.0000000000000000"/>
      <sparseX i="338" alpha="-119638.03855579125" sparseCutoff="1.0000000000000000"/>
      <sparseX i="339" alpha="37753.784606270718" sparseCutoff="1.0000000000000000"/>
      <sparseX i="340" alpha="-102679.39005841242" sparseCutoff="1.0000000000000000"/>
      <sparseX i="341" alpha="-146284.75051554365" sparseCutoff="1.0000000000000000"/>
      <sparseX i="342" alpha="-66435.910336598055" sparseCutoff="1.0000000000000000"/>
      <sparseX i="343" alpha="-46247.290081624174" sparseCutoff="1.0000000000000000"/>
      <sparseX i="344" alpha="99544.761476769097" sparseCutoff="1.0000000000000000"/>
      <sparseX i="345" alpha="124302.55407020754" sparseCutoff="1.0000000000000000"/>
      <sparseX i="346" alpha="252782.66542024745" sparseCutoff="1.0000000000000000"/>
      <sparseX i="347" alpha="250468.75283959360" sparseCutoff="1.0000000000000000"/>
      <sparseX i="348" alpha="62180.935171173187" sparseCutoff="1.0000000000000000"/>
      <sparseX i="349" alpha="-10394.049593077294" sparseCutoff="1.0000000000000000"/>
      <sparseX i="350" alpha="41225.038383885287" sparseCutoff="1.0000000000000000"/>
      <sparseX i="351" alpha="61665.556732222110" sparseCutoff="1.0000000000000000"/>
      <sparseX i="352" alpha="74916.485863064299" sparseCutoff="1.0000000000000000"/>
      <sparseX i="353" alpha="77048.190973989767" sparseCutoff="1.0000000000000000"/>
      <sparseX i="354" alpha="-72484.462004559304" sparseCutoff="1.0000000000000000"/>
      <sparseX i="355" alpha="127239.09951686411" sparseCutoff="1.0000000000000000"/>
      <sparseX i="356" alpha="64462.497263458557" sparseCutoff="1.0000000000000000"/>
      <sparseX i="357" alpha="-36190.236388493417" sparseCutoff="1.0000000000000000"/>
      <sparseX i="358" alpha="-18738.795293447365" sparseCutoff="1.0000000000000000"/>
      <sparseX i="359" alpha="63177.874733484408" sparseCutoff="1.0000000000000000"/>
      <sparseX i="360" alpha="-39081.459514153154" sparseCutoff="1.0000000000000000"/>
      <sparseX i="361" alpha="36855.262785545201" sparseCutoff="1.0000000000000000"/>
      <sparseX i="362" alpha="148383.21685707115" sparseCutoff="1.0000000000000000"/>
      <sparseX i="363" alpha="231027.07729513795" sparseCutoff="1.0000000000000000"/>
      <sparseX i="364" alpha="-9611.9653550179701" sparseCutoff="1.0000000000000000"/>
      <sparseX i="365" alpha="-296627.54893151490" sparseCutoff="1.0000000000000000"/>
      <sparseX i="366" alpha="-138148.80549770565" sparseCutoff="1.0000000000000000"/>
      <sparseX i="367" alpha="18119.264026019853" sparseCutoff="1.0000000000000000"/>
      <sparseX i="368" alpha="187189.63414779003" sparseCutoff="1.0000000000000000"/>
      <sparseX i="369" alpha="208088.39062128970" sparseCutoff="1.0000000000000000"/>
      <sparseX i="370" alpha="4130.6067009357121" sparseCutoff="1.0000000000000000"/>
      <sparseX i="371" alpha="-36160.188455496784" sparseCutoff="1.0000000000000000"/>
      <sparseX i="372" alpha="41383.600421387804" sparseCutoff="1.0000000000000000"/>
      <sparseX i="373" alpha="167217.27149936519" sparseCutoff="1.0000000000000000"/>
      <sparseX i="374" alpha="-69822.385138946032" sparseCutoff="1.0000000000000000"/>
      <sparseX i="375" alpha="-2539.9624828804554" sparseCutoff="1.0000000000000000"/>
      <sparseX i="376" alpha="149044.49535942898" sparseCutoff="1.0000000000000000"/>
      <sparseX i="377" alpha="18469.098447844430" sparseCutoff="1.0000000000000000"/>
      <sparseX i="378" alpha="19007.836746121306" sparseCutoff="1.0000000000000000"/>
      <sparseX i="379" alpha="-5729.2118047827707" sparseCutoff="1.0000000000000000"/>
      <sparseX i="380" alpha="-213489.35263317035" sparseCutoff="1.0000000000000000"/>
      <sparseX i="381" alpha="49533.368234948568" sparseCutoff="1.0000000000000000"/>
      <sparseX i="382" alpha="-60924.347214266032" sparseCutoff="1.0000000000000000"/>
      <sparseX i="383" alpha="155375.50269762438" sparseCutoff="1.0000000000000000"/>
      <sparseX i="384" alpha="-140348.21845690912" sparseCutoff="1.0000000000000000"/>
      <sparseX i="385" alpha="-98603.940230496795" sparseCutoff="1.0000000000000000"/>
      <sparseX i="386" alpha="-280861.78865407727" sparseCutoff="1.0000000000000000"/>
      <sparseX i="387" alpha="-29389.521190356354" sparseCutoff="1.0000000000000000"/>
      <sparseX i="388" alpha="-155190.39144115133" sparseCutoff="1.0000000000000000"/>
      <sparseX i="389" alpha="60439.410259640208" sparseCutoff="1.0000000000000000"/>
      <sparseX i="390" alpha="-79919.089356621917" sparseCutoff="1.0000000000000000"/>
      <sparseX i="391" alpha="-18074.384050295270" sparseCutoff="1.0000000000000000"/>
      <sparseX i="392" alpha="-351683.31850545009" sparseCutoff="1.0000000000000000"/>
      <sparseX i="393" alpha="269914.96065438347" sparseCutoff="1.0000000000000000"/>
      <sparseX i="394" alpha="202821.08694057088" sparseCutoff="1.0000000000000000"/>
      <sparseX i="395" alpha="-104479.05430793049" sparseCutoff="1.0000000000000000"/>
      <sparseX i="396" alpha="-112907.60699552530" sparseCutoff="1.0000000000000000"/>
      <sparseX i="397" alpha="-1043.6165280734610" sparseCutoff="1.0000000000000000"/>
      <sparseX i="398" alpha="-15172.502621042977" sparseCutoff="1.0000000000000000"/>
      <sparseX i="399" alpha="-27179.559045185033" sparseCutoff="1.0000000000000000"/>
      <sparseX i="400" alpha="-178649.64149707748" sparseCutoff="1.0000000000000000"/>
      <sparseX i="401" alpha="41964.986109009267" sparseCutoff="1.0000000000000000"/>
      <sparseX i="402" alpha="97772.129751349392" sparseCutoff="1.0000000000000000"/>
      <sparseX i="403" alpha="219313.03302122795" sparseCutoff="1.0000000000000000"/>
      <sparseX i="404" alpha="210986.10091912537" sparseCutoff="1.0000000000000000"/>
      <sparseX i="405" alpha="-291420.59806683561" sparseCutoff="1.0000000000000000"/>
      <sparseX i="406" alpha="44483.258250598090" sparseCutoff="1.0000000000000000"/>
      <sparseX i="407" alpha="-56430.406583818898" sparseCutoff="1.0000000000000000"/>
      <sparseX i="408" alpha="144163.10948036797" sparseCutoff="1.0000000000000000"/>
      <sparseX i="409" alpha="-128424.62671901581" sparseCutoff="1.0000000000000000"/>
      <sparseX i="410" alpha="34842.011233514677" sparseCutoff="1.0000000000000000"/>
      <sparseX i="411" alpha="-108468.07991175327" sparseCutoff="1.0000000000000000"/>
      <sparseX i="412" alpha="40127.871711214968" sparseCutoff="1.0000000000000000"/>
      <sparseX i="413" alpha="78627.544103300796" sparseCutoff="1.0000000000000000"/>
      <sparseX i="414" alpha="134004.23811486832" sparseCutoff="1.0000000000000000"/>
      <sparseX i="415" alpha="49143.376681835325" sparseCutoff="1.0000000000000000"/>
      <sparseX i="416" alpha="-114404.94994188573" sparseCutoff="1.0000000000000000"/>
      <sparseX i="417" alpha="55838.580276264671" sparseCutoff="1.0000000000000000"/>
      <sparseX i="418" alpha="7990.7777280494047" sparseCutoff="1.0000000000000000"/>
      <sparseX i="419" alpha="26109.793461786459" sparseCutoff="1.0000000000000000"/>
      <sparseX i="420" alpha="-10039.023165333523" sparseCutoff="1.0000000000000000"/>
      <sparseX i="421" alpha="-27995.029203709353" sparseCutoff="1.0000000000000000"/>
      <sparseX i="422" alpha="6845.2750101651009" sparseCutoff="1.0000000000000000"/>
      <sparseX i="423" alpha="3690.0087298746789" sparseCutoff="1.0000000000000000"/>
      <sparseX i="424" alpha="-19082.414518896923" sparseCutoff="1.0000000000000000"/>
      <sparseX i="425" alpha="1810.0795919374193" sparseCutoff="1.0000000000000000"/>
      <sparseX i="426" alpha="33696.400537417299" sparseCutoff="1.0000000000000000"/>
      <sparseX i="427" alpha="-22335.784824255097" sparseCutoff="1.0000000000000000"/>
      <sparseX i="428" alpha="22109.571334798718" sparseCutoff="1.0000000000000000"/>
      <sparseX i="429" alpha="-21323.640776774289" sparseCutoff="1.0000000000000000"/>
      <sparseX i="430" alpha="-57220.538830512873" sparseCutoff="1.0000000000000000"/>
      <sparseX i="431" alpha="43414.163652019153" sparseCutoff="1.0000000000000000"/>
      <sparseX i="432" alpha="-12651.470673937307" sparseCutoff="1.0000000000000000"/>
      <sparseX i="433" alpha="-32452.420744919087" sparseCutoff="1.0000000000000000"/>
      <sparseX i="434" alpha="40192.901587626751" sparseCutoff="1.0000000000000000"/>
      <sparseX i="435" alpha="17080.187150260492" sparseCutoff="1.0000000000000000"/>
      <sparseX i="436" alpha="-21266.256486369974" sparseCutoff="1.0000000000000000"/>
      <sparseX i="437" alpha="1259.8947814170174" sparseCutoff="1.0000000000000000"/>
      <sparseX i="438" alpha="35292.465183910790" sparseCutoff="1.0000000000000000"/>
      <sparseX i="439" alpha="44274.146846882497" sparseCutoff="1.0000000000000000"/>
      <sparseX i="440" alpha="-19675.270928314163" sparseCutoff="1.0000000000000000"/>
      <sparseX i="441" alpha="-106557.62473073129" sparseCutoff="1.0000000000000000"/>
      <sparseX i="442" alpha="118486.43287357803" sparseCutoff="1.0000000000000000"/>
      <sparseX i="443" alpha="-224685.64778781577" sparseCutoff="1.0000000000000000"/>
      <sparseX i="444" alpha="197357.05957748258" sparseCutoff="1.0000000000000000"/>
      <sparseX i="445" alpha="16916.504742238743" sparseCutoff="1.0000000000000000"/>
      <sparseX i="446" alpha="152254.67644891152" sparseCutoff="1.0000000000000000"/>
      <sparseX i="447" alpha="4766.2777176128729" sparseCutoff="1.0000000000000000"/>
      <sparseX i="448" alpha="-1923.0345336806261" sparseCutoff="1.0000000000000000"/>
      <sparseX i="449" alpha="36944.331369286614" sparseCutoff="1.0000000000000000"/>
      <sparseX i="450" alpha="38334.893417181585" sparseCutoff="1.0000000000000000"/>
      <sparseX i="451" alpha="-9045.7238560564001" sparseCutoff="1.0000000000000000"/>
      <sparseX i="452" alpha="-25593.119467707882" sparseCutoff="1.0000000000000000"/>
      <sparseX i="453" alpha="79592.391650932885" sparseCutoff="1.0000000000000000"/>
      <sparseX i="454" alpha="1622.1113114918307" sparseCutoff="1.0000000000000000"/>
      <sparseX i="455" alpha="51489.122253171678" sparseCutoff="1.0000000000000000"/>
      <sparseX i="456" alpha="-85460.353406498180" sparseCutoff="1.0000000000000000"/>
      <sparseX i="457" alpha="-46613.514423019369" sparseCutoff="1.0000000000000000"/>
      <sparseX i="458" alpha="103528.55673937246" sparseCutoff="1.0000000000000000"/>
      <sparseX i="459" alpha="2729.1107848255115" sparseCutoff="1.0000000000000000"/>
      <sparseX i="460" alpha="154671.99736151693" sparseCutoff="1.0000000000000000"/>
      <sparseX i="461" alpha="23360.548584915690" sparseCutoff="1.0000000000000000"/>
      <sparseX i="462" alpha="-178088.65080825222" sparseCutoff="1.0000000000000000"/>
      <sparseX i="463" alpha="-20924.287811505401" sparseCutoff="1.0000000000000000"/>
      <sparseX i="464" alpha="19177.837526374162" sparseCutoff="1.0000000000000000"/>
      <sparseX i="465" alpha="-71864.103360925117" sparseCutoff="1.0000000000000000"/>
      <sparseX i="466" alpha="464.63887273341146" sparseCutoff="1.0000000000000000"/>
      <sparseX i="467" alpha="-75361.961848582796" sparseCutoff="1.0000000000000000"/>
      <sparseX i="468" alpha="-5271.8198020962409" sparseCutoff="1.0000000000000000"/>
      <sparseX i="469" alpha="48819.359301232835" sparseCutoff="1.0000000000000000"/>
      <sparseX i="470" alpha="2781.9848315174513" sparseCutoff="1.0000000000000000"/>
      <sparseX i="471" alpha="-64452.755283528764" sparseCutoff="1.0000000000000000"/>
      <sparseX i="472" alpha="-19851.486663432275" sparseCutoff="1.0000000000000000"/>
      <sparseX i="473" alpha="-31512.259943734076" sparseCutoff="1.0000000000000000"/>
      <sparseX i="474" alpha="-30728.884061814373" sparseCutoff="1.0000000000000000"/>
      <sparseX i="475" alpha="-45475.501523581537" sparseCutoff="1.0000000000000000"/>
      <sparseX i="476" alpha="157021.95732546053" sparseCutoff="1.0000000000000000"/>
      <sparseX i="477" alpha="-56105.818821719869" sparseCutoff="1.0000000000000000"/>
      <sparseX i="478" alpha="64665.815764664432" sparseCutoff="1.0000000000000000"/>
      <sparseX i="479" alpha="-16129.071623272164" sparseCutoff="1.0000000000000000"/>
      <sparseX i="480" alpha="-82024.350534893107" sparseCutoff="1.0000000000000000"/>
      <sparseX i="481" alpha="-254576.57325856012" sparseCutoff="1.0000000000000000"/>
      <sparseX i="482" alpha="-69784.451023175046" sparseCutoff="1.0000000000000000"/>
      <sparseX i="483" alpha="34768.934163618680" sparseCutoff="1.0000000000000000"/>
      <sparseX i="484" alpha="-19051.480139128962" sparseCutoff="1.0000000000000000"/>
      <sparseX i="485" alpha="-56017.683959434951" sparseCutoff="1.0000000000000000"/>
      <sparseX i="486" alpha="900.77019873680661" sparseCutoff="1.0000000000000000"/>
      <sparseX i="487" alpha="8493.3582385349418" sparseCutoff="1.0000000000000000"/>
      <sparseX i="488" alpha="39200.640148064238" sparseCutoff="1.0000000000000000"/>
      <sparseX i="489" alpha="-16381.101056438567" sparseCutoff="1.0000000000000000"/>
      <sparseX i="490" alpha="-16567.400819212708" sparseCutoff="1.0000000000000000"/>
      <sparseX i="491" alpha="4464.0468095972028" sparseCutoff="1.0000000000000000"/>
      <sparseX i="492" alpha="-40681.007933169138" sparseCutoff="1.0000000000000000"/>
      <sparseX i="493" alpha="-139951.52423456003" sparseCutoff="1.0000000000000000"/>
      <sparseX i="494" alpha="-24813.163862122081" sparseCutoff="1.0000000000000000"/>
      <sparseX i="495" alpha="1273.7044831993776" sparseCutoff="1.0000000000000000"/>
      <sparseX i="496" alpha="87248.508332836267" sparseCutoff="1.0000000000000000"/>
      <sparseX i="497" alpha="9409.9618549334664" sparseCutoff="1.0000000000000000"/>
      <sparseX i="498" alpha="188638.31977277817" sparseCutoff="1.0000000000000000"/>
      <sparseX i="499" alpha="3996.1924593108397" sparseCutoff="1.0000000000000000"/>
      <sparseX i="500" alpha="125941.59993639347" sparseCutoff="1.0000000000000000"/>
      <sparseX i="501" alpha="18394.441385294223" sparseCutoff="1.0000000000000000"/>
      <sparseX i="502" alpha="31845.428427478251" sparseCutoff="1.0000000000000000"/>
      <sparseX i="503" alpha="-29299.033046812947" sparseCutoff="1.0000000000000000"/>
      <sparseX i="504" alpha="37548.017335139113" sparseCutoff="1.0000000000000000"/>
      <sparseX i="505" alpha="-178791.35308264109" sparseCutoff="1.0000000000000000"/>
      <sparseX i="506" alpha="-13834.694604769356" sparseCutoff="1.0000000000000000"/>
      <sparseX i="507" alpha="173581.43546642704" sparseCutoff="1.0000000000000000"/>
      <sparseX i="508" alpha="-34797.735420759287" sparseCutoff="1.0000000000000000"/>
      <sparseX i="509" alpha="50715.983385400061" sparseCutoff="1.0000000000000000"/>
      <sparseX i="510" alpha="39242.927491781775" sparseCutoff="1.0000000000000000"/>
      <sparseX i="511" alpha="66220.523551789214" sparseCutoff="1.0000000000000000"/>
      <sparseX i="512" alpha="-153494.16455121315" sparseCutoff="1.0000000000000000"/>
      <sparseX i="513" alpha="63135.365043841739" sparseCutoff="1.0000000000000000"/>
      <sparseX i="514" alpha="-15722.474208130992" sparseCutoff="1.0000000000000000"/>
      <sparseX i="515" alpha="-79464.497546570215" sparseCutoff="1.0000000000000000"/>
      <sparseX i="516" alpha="-34653.497681933186" sparseCutoff="1.0000000000000000"/>
      <sparseX i="517" alpha="-80621.680739356438" sparseCutoff="1.0000000000000000"/>
      <sparseX i="518" alpha="24458.447934288386" sparseCutoff="1.0000000000000000"/>
      <sparseX i="519" alpha="-4771.0219477336404" sparseCutoff="1.0000000000000000"/>
      <sparseX i="520" alpha="42539.356279551539" sparseCutoff="1.0000000000000000"/>
      <sparseX i="521" alpha="50057.308864480714" sparseCutoff="1.0000000000000000"/>
      <sparseX i="522" alpha="171948.18380954702" sparseCutoff="1.0000000000000000"/>
      <sparseX i="523" alpha="118869.16301626834" sparseCutoff="1.0000000000000000"/>
      <sparseX i="524" alpha="-66304.079537650134" sparseCutoff="1.0000000000000000"/>
      <sparseX i="525" alpha="42724.707810014850" sparseCutoff="1.0000000000000000"/>
      <sparseX i="526" alpha="-47575.003235815493" sparseCutoff="1.0000000000000000"/>
      <sparseX i="527" alpha="-73906.118893352133" sparseCutoff="1.0000000000000000"/>
      <sparseX i="528" alpha="-12620.860873273179" sparseCutoff="1.0000000000000000"/>
      <sparseX i="529" alpha="-79405.841208414306" sparseCutoff="1.0000000000000000"/>
      <sparseX i="530" alpha="55182.153889267815" sparseCutoff="1.0000000000000000"/>
      <sparseX i="531" alpha="-65258.531482995160" sparseCutoff="1.0000000000000000"/>
      <sparseX i="532" alpha="31941.270621960786" sparseCutoff="1.0000000000000000"/>
      <sparseX i="533" alpha="5989.8109825390520" sparseCutoff="1.0000000000000000"/>
      <sparseX i="534" alpha="28911.953931425218" sparseCutoff="1.0000000000000000"/>
      <sparseX i="535" alpha="171303.88217054840" sparseCutoff="1.0000000000000000"/>
      <sparseX i="536" alpha="58618.328095268589" sparseCutoff="1.0000000000000000"/>
      <sparseX i="537" alpha="11434.510580583825" sparseCutoff="1.0000000000000000"/>
      <sparseX i="538" alpha="107610.39451875165" sparseCutoff="1.0000000000000000"/>
      <sparseX i="539" alpha="43709.689308248417" sparseCutoff="1.0000000000000000"/>
      <sparseX i="540" alpha="27516.324829577767" sparseCutoff="1.0000000000000000"/>
      <sparseX i="541" alpha="-46208.438621521789" sparseCutoff="1.0000000000000000"/>
      <sparseX i="542" alpha="105966.15276022271" sparseCutoff="1.0000000000000000"/>
      <sparseX i="543" alpha="-64649.327448222735" sparseCutoff="1.0000000000000000"/>
      <sparseX i="544" alpha="-147077.88342368140" sparseCutoff="1.0000000000000000"/>
      <sparseX i="545" alpha="45945.205967417722" sparseCutoff="1.0000000000000000"/>
      <sparseX i="546" alpha="19488.269042119911" sparseCutoff="1.0000000000000000"/>
      <sparseX i="547" alpha="-69131.317982547625" sparseCutoff="1.0000000000000000"/>
      <sparseX i="548" alpha="23220.162610068648" sparseCutoff="1.0000000000000000"/>
      <sparseX i="549" alpha="-4080.2634421591088" sparseCutoff="1.0000000000000000"/>
      <sparseX i="550" alpha="-568.76173742536503" sparseCutoff="1.0000000000000000"/>
      <sparseX i="551" alpha="-28005.252491264480" sparseCutoff="1.0000000000000000"/>
      <sparseX i="552" alpha="-29025.130836445096" sparseCutoff="1.0000000000000000"/>
      <sparseX i="553" alpha="-6939.5560956229419" sparseCutoff="1.0000000000000000"/>
      <sparseX i="554" alpha="-1793.2327861889169" sparseCutoff="1.0000000000000000"/>
      <sparseX i="555" alpha="14109.680053168757" sparseCutoff="1.0000000000000000"/>
      <sparseX i="556" alpha="163992.29201251766" sparseCutoff="1.0000000000000000"/>
      <sparseX i="557" alpha="-88683.696880114469" sparseCutoff="1.0000000000000000"/>
      <sparseX i="558" alpha="21622.553036403591" sparseCutoff="1.0000000000000000"/>
      <sparseX i="559" alpha="77068.648858138054" sparseCutoff="1.0000000000000000"/>
      <sparseX i="560" alpha="-16262.956999482059" sparseCutoff="1.0000000000000000"/>
      <sparseX i="561" alpha="5140.8881268096666" sparseCutoff="1.0000000000000000"/>
      <sparseX i="562" alpha="199858.93439759780" sparseCutoff="1.0000000000000000"/>
      <sparseX i="563" alpha="-7179.4454080988662" sparseCutoff="1.0000000000000000"/>
      <sparseX i="564" alpha="41484.271522336036" sparseCutoff="1.0000000000000000"/>
      <sparseX i="565" alpha="-25228.110665710694" sparseCutoff="1.0000000000000000"/>
      <sparseX i="566" alpha="-136952.62627106140" sparseCutoff="1.0000000000000000"/>
      <sparseX i="567" alpha="-91807.022486590955" sparseCutoff="1.0000000000000000"/>
      <sparseX i="568" alpha="-150368.53854048968" sparseCutoff="1.0000000000000000"/>
      <sparseX i="569" alpha="-93199.647961134629" sparseCutoff="1.0000000000000000"/>
      <sparseX i="570" alpha="155046.66762700569" sparseCutoff="1.0000000000000000"/>
      <sparseX i="571" alpha="74144.666789010022" sparseCutoff="1.0000000000000000"/>
      <sparseX i="572" alpha="-20843.129698645924" sparseCutoff="1.0000000000000000"/>
      <sparseX i="573" alpha="72583.568457550195" sparseCutoff="1.0000000000000000"/>
      <sparseX i="574" alpha="-87342.647970384802" sparseCutoff="1.0000000000000000"/>
      <sparseX i="575" alpha="-41834.490380762050" sparseCutoff="1.0000000000000000"/>
      <sparseX i="576" alpha="109431.27962134220" sparseCutoff="1.0000000000000000"/>
      <sparseX i="577" alpha="1546.1544227244895" sparseCutoff="1.0000000000000000"/>
      <sparseX i="578" alpha="-58412.131290571109" sparseCutoff="1.0000000000000000"/>
      <sparseX i="579" alpha="94478.836720019535" sparseCutoff="1.0000000000000000"/>
      <sparseX i="580" alpha="-23696.510753887051" sparseCutoff="1.0000000000000000"/>
      <sparseX i="581" alpha="-64392.078326170929" sparseCutoff="1.0000000000000000"/>
      <sparseX i="582" alpha="193786.29402442306" sparseCutoff="1.0000000000000000"/>
      <sparseX i="583" alpha="-72450.822955956784" sparseCutoff="1.0000000000000000"/>
      <sparseX i="584" alpha="-67945.908796503500" sparseCutoff="1.0000000000000000"/>
      <sparseX i="585" alpha="63606.117127615442" sparseCutoff="1.0000000000000000"/>
      <sparseX i="586" alpha="163676.61413774933" sparseCutoff="1.0000000000000000"/>
      <sparseX i="587" alpha="-257502.02059444838" sparseCutoff="1.0000000000000000"/>
      <sparseX i="588" alpha="-395193.25905930100" sparseCutoff="1.0000000000000000"/>
      <sparseX i="589" alpha="41933.219153040161" sparseCutoff="1.0000000000000000"/>
      <sparseX i="590" alpha="-23354.850277135509" sparseCutoff="1.0000000000000000"/>
      <sparseX i="591" alpha="61864.916527698493" sparseCutoff="1.0000000000000000"/>
      <sparseX i="592" alpha="-113046.85273352072" sparseCutoff="1.0000000000000000"/>
      <sparseX i="593" alpha="-141187.84919852030" sparseCutoff="1.0000000000000000"/>
      <sparseX i="594" alpha="151216.28295025165" sparseCutoff="1.0000000000000000"/>
      <sparseX i="595" alpha="-37458.762230717628" sparseCutoff="1.0000000000000000"/>
      <sparseX i="596" alpha="-61995.598272116178" sparseCutoff="1.0000000000000000"/>
      <sparseX i="597" alpha="-116824.21787689129" sparseCutoff="1.0000000000000000"/>
      <sparseX i="598" alpha="183335.86477595885" sparseCutoff="1.0000000000000000"/>
      <sparseX i="599" alpha="-22695.373153901761" sparseCutoff="1.0000000000000000"/>
      <sparseX i="600" alpha="-49790.681279826880" sparseCutoff="1.0000000000000000"/>
      <sparseX i="601" alpha="-263009.26179156534" sparseCutoff="1.0000000000000000"/>
      <sparseX i="602" alpha="47661.705508451603" sparseCutoff="1.0000000000000000"/>
      <sparseX i="603" alpha="3895.5366532572421" sparseCutoff="1.0000000000000000"/>
      <sparseX i="604" alpha="25062.440784713031" sparseCutoff="1.0000000000000000"/>
      <sparseX i="605" alpha="253788.68461474139" sparseCutoff="1.0000000000000000"/>
      <sparseX i="606" alpha="-99257.350887960754" sparseCutoff="1.0000000000000000"/>
      <sparseX i="607" alpha="-21147.666595886203" sparseCutoff="1.0000000000000000"/>
      <sparseX i="608" alpha="55990.139145756948" sparseCutoff="1.0000000000000000"/>
      <sparseX i="609" alpha="-238483.73271118006" sparseCutoff="1.0000000000000000"/>
      <sparseX i="610" alpha="-16781.857589429521" sparseCutoff="1.0000000000000000"/>
      <sparseX i="611" alpha="-121147.51966672162" sparseCutoff="1.0000000000000000"/>
      <sparseX i="612" alpha="127264.14741046945" sparseCutoff="1.0000000000000000"/>
      <sparseX i="613" alpha="40267.158512030226" sparseCutoff="1.0000000000000000"/>
      <sparseX i="614" alpha="-216265.42362832316" sparseCutoff="1.0000000000000000"/>
      <sparseX i="615" alpha="-84318.063580330068" sparseCutoff="1.0000000000000000"/>
      <sparseX i="616" alpha="52109.682809025595" sparseCutoff="1.0000000000000000"/>
      <sparseX i="617" alpha="-10853.489604747068" sparseCutoff="1.0000000000000000"/>
      <sparseX i="618" alpha="-291965.52998406970" sparseCutoff="1.0000000000000000"/>
      <sparseX i="619" alpha="105793.16686165748" sparseCutoff="1.0000000000000000"/>
      <sparseX i="620" alpha="500258.82315265917" sparseCutoff="1.0000000000000000"/>
      <sparseX i="621" alpha="-347090.34779056686" sparseCutoff="1.0000000000000000"/>
      <sparseX i="622" alpha="-399284.80158567691" sparseCutoff="1.0000000000000000"/>
      <sparseX i="623" alpha="-86987.886616524600" sparseCutoff="1.0000000000000000"/>
      <sparseX i="624" alpha="-196878.32360393187" sparseCutoff="1.0000000000000000"/>
      <sparseX i="625" alpha="-64370.334341766407" sparseCutoff="1.0000000000000000"/>
      <sparseX i="626" alpha="21716.912677661992" sparseCutoff="1.0000000000000000"/>
      <sparseX i="627" alpha="-244377.26854542736" sparseCutoff="1.0000000000000000"/>
      <sparseX i="628" alpha="49278.696357535453" sparseCutoff="1.0000000000000000"/>
      <sparseX i="629" alpha="211167.96906682325" sparseCutoff="1.0000000000000000"/>
      <sparseX i="630" alpha="-21255.426492342405" sparseCutoff="1.0000000000000000"/>
      <sparseX i="631" alpha="18660.832542887732" sparseCutoff="1.0000000000000000"/>
      <sparseX i="632" alpha="-47490.284569738629" sparseCutoff="1.0000000000000000"/>
      <sparseX i="633" alpha="647947.69020287716" sparseCutoff="1.0000000000000000"/>
      <sparseX i="634" alpha="-44095.142142054421" sparseCutoff="1.0000000000000000"/>
      <sparseX i="635" alpha="-142082.65871727763" sparseCutoff="1.0000000000000000"/>
      <sparseX i="636" alpha="15956.946838879729" sparseCutoff="1.0000000000000000"/>
      <sparseX i="637" alpha="-365733.13528061326" sparseCutoff="1.0000000000000000"/>
      <sparseX i="638" alpha="-15187.669023131177" sparseCutoff="1.0000000000000000"/>
      <sparseX i="639" alpha="255827.92855661726" sparseCutoff="1.0000000000000000"/>
      <sparseX i="640" alpha="186682.24619070740" sparseCutoff="1.0000000000000000"/>
      <sparseX i="641" alpha="465900.41344708978" sparseCutoff="1.0000000000000000"/>
      <sparseX i="642" alpha="221271.01608939745" sparseCutoff="1.0000000000000000"/>
      <sparseX i="643" alpha="-196190.78381503647" sparseCutoff="1.0000000000000000"/>
      <sparseX i="644" alpha="34380.789717567102" sparseCutoff="1.0000000000000000"/>
      <sparseX i="645" alpha="-275462.08518552629" sparseCutoff="1.0000000000000000"/>
      <sparseX i="646" alpha="-201295.08026015892" sparseCutoff="1.0000000000000000"/>
      <sparseX i="647" alpha="97656.231721749238" sparseCutoff="1.0000000000000000"/>
      <sparseX i="648" alpha="-11238.774415004356" sparseCutoff="1.0000000000000000"/>
      <sparseX i="649" alpha="69793.820773910556" sparseCutoff="1.0000000000000000"/>
      <sparseX i="650" alpha="-257436.64280462376" sparseCutoff="1.0000000000000000"/>
      <sparseX i="651" alpha="64466.497541347569" sparseCutoff="1.0000000000000000"/>
      <sparseX i="652" alpha="-260450.65091798650" sparseCutoff="1.0000000000000000"/>
      <sparseX i="653" alpha="-21125.693690430016" sparseCutoff="1.0000000000000000"/>
      <sparseX i="654" alpha="126309.52507406185" sparseCutoff="1.0000000000000000"/>
      <sparseX i="655" alpha="-239698.54373306481" sparseCutoff="1.0000000000000000"/>
      <sparseX i="656" alpha="-308428.37995705887" sparseCutoff="1.0000000000000000"/>
      <sparseX i="657" alpha="195286.50812626703" sparseCutoff="1.0000000000000000"/>
      <sparseX i="658" alpha="177085.71312129061" sparseCutoff="1.0000000000000000"/>
      <sparseX i="659" alpha="-16235.576698037699" sparseCutoff="1.0000000000000000"/>
      <sparseX i="660" alpha="-50001.091075956312" sparseCutoff="1.0000000000000000"/>
      <sparseX i="661" alpha="-116100.90829152473" sparseCutoff="1.0000000000000000"/>
      <sparseX i="662" alpha="49208.097050895572" sparseCutoff="1.0000000000000000"/>
      <sparseX i="663" alpha="297578.49185247533" sparseCutoff="1.0000000000000000"/>
      <sparseX i="664" alpha="-206251.48469639430" sparseCutoff="1.0000000000000000"/>
      <sparseX i="665" alpha="85956.263022177212" sparseCutoff="1.0000000000000000"/>
      <sparseX i="666" alpha="-40965.174097525574" sparseCutoff="1.0000000000000000"/>
      <sparseX i="667" alpha="5395.8682826427103" sparseCutoff="1.0000000000000000"/>
      <sparseX i="668" alpha="137793.17876910546" sparseCutoff="1.0000000000000000"/>
      <sparseX i="669" alpha="-53352.892259904911" sparseCutoff="1.0000000000000000"/>
      <sparseX i="670" alpha="-64710.597303351744" sparseCutoff="1.0000000000000000"/>
      <sparseX i="671" alpha="22659.817532014218" sparseCutoff="1.0000000000000000"/>
      <sparseX i="672" alpha="139511.76046523076" sparseCutoff="1.0000000000000000"/>
      <sparseX i="673" alpha="53215.133906427582" sparseCutoff="1.0000000000000000"/>
      <sparseX i="674" alpha="-237508.50794260649" sparseCutoff="1.0000000000000000"/>
      <sparseX i="675" alpha="58456.330381788895" sparseCutoff="1.0000000000000000"/>
      <sparseX i="676" alpha="14152.145675013579" sparseCutoff="1.0000000000000000"/>
      <sparseX i="677" alpha="-7036.1471440453106" sparseCutoff="1.0000000000000000"/>
      <sparseX i="678" alpha="122394.65647466527" sparseCutoff="1.0000000000000000"/>
      <sparseX i="679" alpha="-33987.966165499085" sparseCutoff="1.0000000000000000"/>
      <sparseX i="680" alpha="62659.340411172088" sparseCutoff="1.0000000000000000"/>
      <sparseX i="681" alpha="-34546.204462433918" sparseCutoff="1.0000000000000000"/>
      <sparseX i="682" alpha="26349.663644743770" sparseCutoff="1.0000000000000000"/>
      <sparseX i="683" alpha="-55212.906408586699" sparseCutoff="1.0000000000000000"/>
      <sparseX i="684" alpha="-6388.5182545283415" sparseCutoff="1.0000000000000000"/>
      <sparseX i="685" alpha="124472.91801037657" sparseCutoff="1.0000000000000000"/>
      <sparseX i="686" alpha="-184048.44740429663" sparseCutoff="1.0000000000000000"/>
      <sparseX i="687" alpha="-54217.243958436404" sparseCutoff="1.0000000000000000"/>
      <sparseX i="688" alpha="46895.050618547699" sparseCutoff="1.0000000000000000"/>
      <sparseX i="689" alpha="173982.41641454745" sparseCutoff="1.0000000000000000"/>
      <sparseX i="690" alpha="-78610.934118343168" sparseCutoff="1.0000000000000000"/>
      <sparseX i="691" alpha="-63929.727413976172" sparseCutoff="1.0000000000000000"/>
      <sparseX i="692" alpha="-17671.702742862257" sparseCutoff="1.0000000000000000"/>
      <sparseX i="693" alpha="85238.858502012910" sparseCutoff="1.0000000000000000"/>
      <sparseX i="694" alpha="58061.849206950006" sparseCutoff="1.0000000000000000"/>
      <sparseX i="695" alpha="193492.39797475658" sparseCutoff="1.0000000000000000"/>
      <sparseX i="696" alpha="-91747.448122068192" sparseCutoff="1.0000000000000000"/>
      <sparseX i="697" alpha="138911.35381445219" sparseCutoff="1.0000000000000000"/>
      <sparseX i="698" alpha="-72872.967385872354" sparseCutoff="1.0000000000000000"/>
      <sparseX i="699" alpha="156143.10292136748" sparseCutoff="1.0000000000000000"/>
      <sparseX i="700" alpha="33788.096255900819" sparseCutoff="1.0000000000000000"/>
      <sparseX i="701" alpha="62686.863927771090" sparseCutoff="1.0000000000000000"/>
      <sparseX i="702" alpha="10819.778688554539" sparseCutoff="1.0000000000000000"/>
      <sparseX i="703" alpha="-129337.06709177591" sparseCutoff="1.0000000000000000"/>
      <sparseX i="704" alpha="26607.875131859553" sparseCutoff="1.0000000000000000"/>
      <sparseX i="705" alpha="-25779.655790405493" sparseCutoff="1.0000000000000000"/>
      <sparseX i="706" alpha="-232648.10512143001" sparseCutoff="1.0000000000000000"/>
      <sparseX i="707" alpha="55160.488779481842" sparseCutoff="1.0000000000000000"/>
      <sparseX i="708" alpha="150430.04769399867" sparseCutoff="1.0000000000000000"/>
      <sparseX i="709" alpha="-315659.10550171201" sparseCutoff="1.0000000000000000"/>
      <sparseX i="710" alpha="-129363.35252353140" sparseCutoff="1.0000000000000000"/>
      <sparseX i="711" alpha="201526.72314546318" sparseCutoff="1.0000000000000000"/>
      <sparseX i="712" alpha="-222378.20911502375" sparseCutoff="1.0000000000000000"/>
      <sparseX i="713" alpha="157911.25756724653" sparseCutoff="1.0000000000000000"/>
      <sparseX i="714" alpha="-42522.885231184824" sparseCutoff="1.0000000000000000"/>
      <sparseX i="715" alpha="-274194.27574819361" sparseCutoff="1.0000000000000000"/>
      <sparseX i="716" alpha="258128.74162219325" sparseCutoff="1.0000000000000000"/>
      <sparseX i="717" alpha="-166245.68403085167" sparseCutoff="1.0000000000000000"/>
      <sparseX i="718" alpha="-82620.830451825648" sparseCutoff="1.0000000000000000"/>
      <sparseX i="719" alpha="27125.756598822700" sparseCutoff="1.0000000000000000"/>
      <sparseX i="720" alpha="85933.089980885314" sparseCutoff="1.0000000000000000"/>
      <sparseX i="721" alpha="-109989.88884785480" sparseCutoff="1.0000000000000000"/>
      <sparseX i="722" alpha="-17126.473606346550" sparseCutoff="1.0000000000000000"/>
      <sparseX i="723" alpha="-23933.586564063284" sparseCutoff="1.0000000000000000"/>
      <sparseX i="724" alpha="-41570.274629139021" sparseCutoff="1.0000000000000000"/>
      <sparseX i="725" alpha="38110.299916028300" sparseCutoff="1.0000000000000000"/>
      <sparseX i="726" alpha="-46386.786249466742" sparseCutoff="1.0000000000000000"/>
      <sparseX i="727" alpha="-65162.039380651935" sparseCutoff="1.0000000000000000"/>
      <sparseX i="728" alpha="2952.1451295430234" sparseCutoff="1.0000000000000000"/>
      <sparseX i="729" alpha="-7667.9879469586540" sparseCutoff="1.0000000000000000"/>
      <sparseX i="730" alpha="39367.841753491186" sparseCutoff="1.0000000000000000"/>
      <sparseX i="731" alpha="-7853.5343008451582" sparseCutoff="1.0000000000000000"/>
      <sparseX i="732" alpha="92483.666034127673" sparseCutoff="1.0000000000000000"/>
      <sparseX i="733" alpha="-37191.495518572687" sparseCutoff="1.0000000000000000"/>
      <sparseX i="734" alpha="36553.006996297983" sparseCutoff="1.0000000000000000"/>
      <sparseX i="735" alpha="104721.30661201250" sparseCutoff="1.0000000000000000"/>
      <sparseX i="736" alpha="-113101.25194666460" sparseCutoff="1.0000000000000000"/>
      <sparseX i="737" alpha="39108.837877129758" sparseCutoff="1.0000000000000000"/>
      <sparseX i="738" alpha="266743.35497238353" sparseCutoff="1.0000000000000000"/>
      <sparseX i="739" alpha="-434421.97787038080" sparseCutoff="1.0000000000000000"/>
      <sparseX i="740" alpha="52274.495100680397" sparseCutoff="1.0000000000000000"/>
      <sparseX i="741" alpha="-111352.82443196881" sparseCutoff="1.0000000000000000"/>
      <sparseX i="742" alpha="72999.771506356323" sparseCutoff="1.0000000000000000"/>
      <sparseX i="743" alpha="-143182.73732537351" sparseCutoff="1.0000000000000000"/>
      <sparseX i="744" alpha="-65400.013990110121" sparseCutoff="1.0000000000000000"/>
      <sparseX i="745" alpha="-1037.2117838562085" sparseCutoff="1.0000000000000000"/>
      <sparseX i="746" alpha="-126545.04106458483" sparseCutoff="1.0000000000000000"/>
      <sparseX i="747" alpha="-522358.64423198247" sparseCutoff="1.0000000000000000"/>
      <sparseX i="748" alpha="107748.91243147815" sparseCutoff="1.0000000000000000"/>
      <sparseX i="749" alpha="-77452.348966336518" sparseCutoff="1.0000000000000000"/>
      <sparseX i="750" alpha="56761.964189918945" sparseCutoff="1.0000000000000000"/>
      <sparseX i="751" alpha="174917.27006172918" sparseCutoff="1.0000000000000000"/>
      <sparseX i="752" alpha="-97034.777298052461" sparseCutoff="1.0000000000000000"/>
      <sparseX i="753" alpha="112779.31686554708" sparseCutoff="1.0000000000000000"/>
      <sparseX i="754" alpha="-7047.3633075175576" sparseCutoff="1.0000000000000000"/>
      <sparseX i="755" alpha="-347235.54371791222" sparseCutoff="1.0000000000000000"/>
      <sparseX i="756" alpha="144815.45921995980" sparseCutoff="1.0000000000000000"/>
      <sparseX i="757" alpha="-86060.701052287914" sparseCutoff="1.0000000000000000"/>
      <sparseX i="758" alpha="-38442.688494041700" sparseCutoff="1.0000000000000000"/>
      <sparseX i="759" alpha="298166.58683528472" sparseCutoff="1.0000000000000000"/>
      <sparseX i="760" alpha="62925.345320631903" sparseCutoff="1.0000000000000000"/>
      <sparseX i="761" alpha="-101015.30324223045" sparseCutoff="1.0000000000000000"/>
      <sparseX i="762" alpha="305414.74614659883" sparseCutoff="1.0000000000000000"/>
      <sparseX i="763" alpha="100985.89429399192" sparseCutoff="1.0000000000000000"/>
      <sparseX i="764" alpha="-20917.148179616859" sparseCutoff="1.0000000000000000"/>
      <sparseX i="765" alpha="34839.030307355628" sparseCutoff="1.0000000000000000"/>
      <sparseX i="766" alpha="263555.37816076330" sparseCutoff="1.0000000000000000"/>
      <sparseX i="767" alpha="-484119.34817909525" sparseCutoff="1.0000000000000000"/>
      <sparseX i="768" alpha="-109396.13856867692" sparseCutoff="1.0000000000000000"/>
      <sparseX i="769" alpha="24092.368605142627" sparseCutoff="1.0000000000000000"/>
      <sparseX i="770" alpha="-6214.9932541757407" sparseCutoff="1.0000000000000000"/>
      <sparseX i="771" alpha="-57502.349889648394" sparseCutoff="1.0000000000000000"/>
      <sparseX i="772" alpha="388470.37082916131" sparseCutoff="1.0000000000000000"/>
      <sparseX i="773" alpha="102022.98524164676" sparseCutoff="1.0000000000000000"/>
      <sparseX i="774" alpha="61199.864418235069" sparseCutoff="1.0000000000000000"/>
      <sparseX i="775" alpha="311659.37488504214" sparseCutoff="1.0000000000000000"/>
      <sparseX i="776" alpha="-180664.92631168221" sparseCutoff="1.0000000000000000"/>
      <sparseX i="777" alpha="-29225.051364939343" sparseCutoff="1.0000000000000000"/>
      <sparseX i="778" alpha="-359876.06661939534" sparseCutoff="1.0000000000000000"/>
      <sparseX i="779" alpha="19786.637972869572" sparseCutoff="1.0000000000000000"/>
      <sparseX i="780" alpha="19279.844992692826" sparseCutoff="1.0000000000000000"/>
      <sparseX i="781" alpha="-183946.74842320837" sparseCutoff="1.0000000000000000"/>
      <sparseX i="782" alpha="-60203.281118219384" sparseCutoff="1.0000000000000000"/>
      <sparseX i="783" alpha="-122735.96035555305" sparseCutoff="1.0000000000000000"/>
      <sparseX i="784" alpha="6501.9617781787083" sparseCutoff="1.0000000000000000"/>
      <sparseX i="785" alpha="57298.819578667055" sparseCutoff="1.0000000000000000"/>
      <sparseX i="786" alpha="-15879.299277026752" sparseCutoff="1.0000000000000000"/>
      <sparseX i="787" alpha="-134711.52418524231" sparseCutoff="1.0000000000000000"/>
      <sparseX i="788" alpha="344073.09931280749" sparseCutoff="1.0000000000000000"/>
      <sparseX i="789" alpha="-5993.8139561235321" sparseCutoff="1.0000000000000000"/>
      <sparseX i="790" alpha="60619.136722062081" sparseCutoff="1.0000000000000000"/>
      <sparseX i="791" alpha="-9043.9434089554634" sparseCutoff="1.0000000000000000"/>
      <sparseX i="792" alpha="-80683.784838136591" sparseCutoff="1.0000000000000000"/>
      <sparseX i="793" alpha="244856.89798893037" sparseCutoff="1.0000000000000000"/>
      <sparseX i="794" alpha="56143.928701468583" sparseCutoff="1.0000000000000000"/>
      <sparseX i="795" alpha="116027.53489370790" sparseCutoff="1.0000000000000000"/>
