<GAP_2024_4_8_180_19_35_16_923>
<Potential label="GAP_2024_4_8_180_19_35_16_923" init_args="Sum init_args_pot1={IP Glue} init_args_pot2={IP GAP label=GAP_2024_4_8_180_19_35_16_923}"/>
<pairpot>
<Potential label="pairpot" init_args="IP Glue"/>
<Glue_params n_types="1">
 <per_type_data atomic_num="15" type="1">
  <!-- P, Z: 15, many-body data ==> zero energy for pair potential! -->
  <density num_points="10" density_y1="0.0" density_yn="0.0">
   <point a="0.5" rho="0.2"/>
   <point a="1.0" rho="0.2"/>
   <point a="1.5" rho="0.2"/>
   <point a="2.0" rho="0.2"/>
   <point a="2.5" rho="0.2"/>
   <point a="3.0" rho="0.2"/>
   <point a="3.5" rho="0.2"/>
   <point a="4.0" rho="0.2"/>
   <point a="4.5" rho="0.2"/>
   <point a="5.0" rho="0.2"/>
  </density>
  <potential_density num_points="10">
   <point rho="0.0" E="0.0"/>
   <point rho="0.1111111111111111" E="0.0"/>
   <point rho="0.2222222222222222" E="0.0"/>
   <point rho="0.3333333333333333" E="0.0"/>
   <point rho="0.4444444444444444" E="0.0"/>
   <point rho="0.5555555555555556" E="0.0"/>
   <point rho="0.6666666666666666" E="0.0"/>
   <point rho="0.7777777777777777" E="0.0"/>
   <point rho="0.8888888888888888" E="0.0"/>
   <point rho="1.0" E="0.0"/>
  </potential_density>
 </per_type_data>
 <per_pair_data type1="1" type2="1">
  <!-- P-P, Z: 15-15 pair potential -->
  <potential_pair num_points="20" y1="1.e50" yn="0.0">
   <point r="0.3000000000" E="859.8804089700"/>
   <point r="0.4000000000" E="563.8615607500"/>
   <point r="0.5000000000" E="387.3577946800"/>
   <point r="0.6000000000" E="272.1176935900"/>
   <point r="0.7000000000" E="193.0605588600"/>
   <point r="0.8000000000" E="137.5769363200"/>
   <point r="0.9000000000" E="96.0487479000"/>
   <point r="1.0000000000" E="64.0028768600"/>
   <point r="1.1000000000" E="39.0318501500"/>
   <point r="1.2000000000" E="20.9460800300"/>
   <point r="1.3000000000" E="8.5214703666"/>
   <point r="1.4000000000" E="0.9748577012"/>
   <point r="1.5000000000" E="-2.5166352438"/>
   <point r="1.6000000000" E="-3.2487315300"/>
   <point r="1.7000000000" E="-2.4964595561"/>
   <point r="1.8000000000" E="-1.2948334936"/>
   <point r="1.9000000000" E="-0.3443012230"/>
   <point r="2.0000000000" E="-0.0000000000"/>
   <point r="2.1000000000" E="-0.0000000000"/>
   <point r="2.2000000000" E="-0.0000000000"/>
  </potential_pair>
 </per_pair_data>
</Glue_params>
</pairpot>
<GAP_params label="GAP_2024_4_8_180_19_35_16_923" gap_version="1686220958">
  <GAP_data do_core="T">
    <e0 Z="1" value="-.52375976999999996"/>
    <e0 Z="2" value="-.52375976999999996"/>
    <e0 Z="3" value="-.52375976999999996"/>
    <e0 Z="4" value="-.52375976999999996"/>
    <e0 Z="5" value="-.52375976999999996"/>
    <e0 Z="6" value="-.52375976999999996"/>
    <e0 Z="7" value="-.52375976999999996"/>
    <e0 Z="8" value="-.52375976999999996"/>
    <e0 Z="9" value="-.52375976999999996"/>
    <e0 Z="10" value="-.52375976999999996"/>
    <e0 Z="11" value="-.52375976999999996"/>
    <e0 Z="12" value="-.52375976999999996"/>
    <e0 Z="13" value="-.52375976999999996"/>
    <e0 Z="14" value="-.52375976999999996"/>
    <e0 Z="15" value="-.52375976999999996"/>
    <e0 Z="16" value="-.52375976999999996"/>
    <e0 Z="17" value="-.52375976999999996"/>
    <e0 Z="18" value="-.52375976999999996"/>
    <e0 Z="19" value="-.52375976999999996"/>
    <e0 Z="20" value="-.52375976999999996"/>
    <e0 Z="21" value="-.52375976999999996"/>
    <e0 Z="22" value="-.52375976999999996"/>
    <e0 Z="23" value="-.52375976999999996"/>
    <e0 Z="24" value="-.52375976999999996"/>
    <e0 Z="25" value="-.52375976999999996"/>
    <e0 Z="26" value="-.52375976999999996"/>
    <e0 Z="27" value="-.52375976999999996"/>
    <e0 Z="28" value="-.52375976999999996"/>
    <e0 Z="29" value="-.52375976999999996"/>
    <e0 Z="30" value="-.52375976999999996"/>
    <e0 Z="31" value="-.52375976999999996"/>
    <e0 Z="32" value="-.52375976999999996"/>
    <e0 Z="33" value="-.52375976999999996"/>
    <e0 Z="34" value="-.52375976999999996"/>
    <e0 Z="35" value="-.52375976999999996"/>
    <e0 Z="36" value="-.52375976999999996"/>
    <e0 Z="37" value="-.52375976999999996"/>
    <e0 Z="38" value="-.52375976999999996"/>
    <e0 Z="39" value="-.52375976999999996"/>
    <e0 Z="40" value="-.52375976999999996"/>
    <e0 Z="41" value="-.52375976999999996"/>
    <e0 Z="42" value="-.52375976999999996"/>
    <e0 Z="43" value="-.52375976999999996"/>
    <e0 Z="44" value="-.52375976999999996"/>
    <e0 Z="45" value="-.52375976999999996"/>
    <e0 Z="46" value="-.52375976999999996"/>
    <e0 Z="47" value="-.52375976999999996"/>
    <e0 Z="48" value="-.52375976999999996"/>
    <e0 Z="49" value="-.52375976999999996"/>
    <e0 Z="50" value="-.52375976999999996"/>
    <e0 Z="51" value="-.52375976999999996"/>
    <e0 Z="52" value="-.52375976999999996"/>
    <e0 Z="53" value="-.52375976999999996"/>
    <e0 Z="54" value="-.52375976999999996"/>
    <e0 Z="55" value="-.52375976999999996"/>
    <e0 Z="56" value="-.52375976999999996"/>
    <e0 Z="57" value="-.52375976999999996"/>
    <e0 Z="58" value="-.52375976999999996"/>
    <e0 Z="59" value="-.52375976999999996"/>
    <e0 Z="60" value="-.52375976999999996"/>
    <e0 Z="61" value="-.52375976999999996"/>
    <e0 Z="62" value="-.52375976999999996"/>
    <e0 Z="63" value="-.52375976999999996"/>
    <e0 Z="64" value="-.52375976999999996"/>
    <e0 Z="65" value="-.52375976999999996"/>
    <e0 Z="66" value="-.52375976999999996"/>
    <e0 Z="67" value="-.52375976999999996"/>
    <e0 Z="68" value="-.52375976999999996"/>
    <e0 Z="69" value="-.52375976999999996"/>
    <e0 Z="70" value="-.52375976999999996"/>
    <e0 Z="71" value="-.52375976999999996"/>
    <e0 Z="72" value="-.52375976999999996"/>
    <e0 Z="73" value="-.52375976999999996"/>
    <e0 Z="74" value="-.52375976999999996"/>
    <e0 Z="75" value="-.52375976999999996"/>
    <e0 Z="76" value="-.52375976999999996"/>
    <e0 Z="77" value="-.52375976999999996"/>
    <e0 Z="78" value="-.52375976999999996"/>
    <e0 Z="79" value="-.52375976999999996"/>
    <e0 Z="80" value="-.52375976999999996"/>
    <e0 Z="81" value="-.52375976999999996"/>
    <e0 Z="82" value="-.52375976999999996"/>
    <e0 Z="83" value="-.52375976999999996"/>
    <e0 Z="84" value="-.52375976999999996"/>
    <e0 Z="85" value="-.52375976999999996"/>
    <e0 Z="86" value="-.52375976999999996"/>
    <e0 Z="87" value="-.52375976999999996"/>
    <e0 Z="88" value="-.52375976999999996"/>
    <e0 Z="89" value="-.52375976999999996"/>
    <e0 Z="90" value="-.52375976999999996"/>
    <e0 Z="91" value="-.52375976999999996"/>
    <e0 Z="92" value="-.52375976999999996"/>
    <e0 Z="93" value="-.52375976999999996"/>
    <e0 Z="94" value="-.52375976999999996"/>
    <e0 Z="95" value="-.52375976999999996"/>
    <e0 Z="96" value="-.52375976999999996"/>
    <e0 Z="97" value="-.52375976999999996"/>
    <e0 Z="98" value="-.52375976999999996"/>
    <e0 Z="99" value="-.52375976999999996"/>
    <e0 Z="100" value="-.52375976999999996"/>
    <e0 Z="101" value="-.52375976999999996"/>
    <e0 Z="102" value="-.52375976999999996"/>
    <e0 Z="103" value="-.52375976999999996"/>
    <e0 Z="104" value="-.52375976999999996"/>
    <e0 Z="105" value="-.52375976999999996"/>
    <e0 Z="106" value="-.52375976999999996"/>
    <e0 Z="107" value="-.52375976999999996"/>
    <e0 Z="108" value="-.52375976999999996"/>
    <e0 Z="109" value="-.52375976999999996"/>
    <e0 Z="110" value="-.52375976999999996"/>
    <e0 Z="111" value="-.52375976999999996"/>
    <e0 Z="112" value="-.52375976999999996"/>
    <e0 Z="113" value="-.52375976999999996"/>
    <e0 Z="114" value="-.52375976999999996"/>
    <e0 Z="115" value="-.52375976999999996"/>
    <e0 Z="116" value="-.52375976999999996"/>
    <e0 Z="117" value="-.52375976999999996"/>
    <e0 Z="118" value="-.52375976999999996"/>
  </GAP_data>
  <gpSparse label="GAP_2024_4_8_180_19_35_16_923" n_coordinate="2" fitted="T">
    <gpCoordinates label="GAP_2024_4_8_180_19_35_16_9231" dimensions="1" signal_variance="1.0000000000000000" signal_mean=".00000000000000000E+000" sparsified="T" n_permutations="1" covariance_type="1" n_sparseX="47" sparseX_filename="phosphorus.xml.sparseX.GAP_2024_4_8_180_19_35_16_9231" sparseX_md5sum="cdf3b1d54a32bf91c8626d0bd7fec2f2">
      <theta>  0.50000000000000000E+000 </theta>
      <descriptor> distance_2b Z1=15 Z2=15 cutoff=5.0 n_sparse=47 covariance_type=ard_se delta=1. theta_uniform=0.5 sparse_method=uniform add_species=F</descriptor>
      <permutation i="1">1  </permutation>
      <sparseX i="1" alpha="319975.54272917431" sparseCutoff="1.0000000000000000"/>
      <sparseX i="2" alpha="-395344.39988111338" sparseCutoff="1.0000000000000000"/>
      <sparseX i="3" alpha="584293.48281590629" sparseCutoff="1.0000000000000000"/>
      <sparseX i="4" alpha="432168.52950963128" sparseCutoff="1.0000000000000000"/>
      <sparseX i="5" alpha="145442.80302805867" sparseCutoff="1.0000000000000000"/>
      <sparseX i="6" alpha="-472733.17859778804" sparseCutoff="1.0000000000000000"/>
      <sparseX i="7" alpha="-120766.14537058452" sparseCutoff=".78082653559578108E-001"/>
      <sparseX i="8" alpha="-497585.16558160062" sparseCutoff="1.0000000000000000"/>
      <sparseX i="9" alpha="-130548.76180609592" sparseCutoff="1.0000000000000000"/>
      <sparseX i="10" alpha="157881.48509750585" sparseCutoff="1.0000000000000000"/>
      <sparseX i="11" alpha="-530743.14087820495" sparseCutoff="1.0000000000000000"/>
      <sparseX i="12" alpha="694346.63503405941" sparseCutoff="1.0000000000000000"/>
      <sparseX i="13" alpha="-284109.00174043648" sparseCutoff="1.0000000000000000"/>
      <sparseX i="14" alpha="-563555.83640162274" sparseCutoff="1.0000000000000000"/>
      <sparseX i="15" alpha="-28995.707793602556" sparseCutoff="1.0000000000000000"/>
      <sparseX i="16" alpha="409236.58657845343" sparseCutoff="1.0000000000000000"/>
      <sparseX i="17" alpha="-116165.72377451761" sparseCutoff="1.0000000000000000"/>
      <sparseX i="18" alpha="147253.36271179648" sparseCutoff="1.0000000000000000"/>
      <sparseX i="19" alpha="-345052.26847186970" sparseCutoff="1.0000000000000000"/>
      <sparseX i="20" alpha="553451.59622943879" sparseCutoff="1.0000000000000000"/>
      <sparseX i="21" alpha="-225519.89017392756" sparseCutoff="1.0000000000000000"/>
      <sparseX i="22" alpha="447313.94609962060" sparseCutoff="1.0000000000000000"/>
      <sparseX i="23" alpha="510629.61293022835" sparseCutoff="1.0000000000000000"/>
      <sparseX i="24" alpha="303851.95853574964" sparseCutoff="1.0000000000000000"/>
      <sparseX i="25" alpha="69311.828780464682" sparseCutoff="1.0000000000000000"/>
      <sparseX i="26" alpha="-72195.649174337334" sparseCutoff="1.0000000000000000"/>
      <sparseX i="27" alpha="-83419.664184524110" sparseCutoff="1.0000000000000000"/>
      <sparseX i="28" alpha="342955.23759220593" sparseCutoff="1.0000000000000000"/>
      <sparseX i="29" alpha="365611.50416937383" sparseCutoff="1.0000000000000000"/>
      <sparseX i="30" alpha="49773.825940416384" sparseCutoff="1.0000000000000000"/>
      <sparseX i="31" alpha="-263596.49200292636" sparseCutoff="1.0000000000000000"/>
      <sparseX i="32" alpha="655360.29223514954" sparseCutoff="1.0000000000000000"/>
      <sparseX i="33" alpha="-650983.54321040935" sparseCutoff="1.0000000000000000"/>
      <sparseX i="34" alpha="-423893.54622792330" sparseCutoff="1.0000000000000000"/>
      <sparseX i="35" alpha="23534.881439730616" sparseCutoff="1.0000000000000000"/>
      <sparseX i="36" alpha="-460653.58053641097" sparseCutoff="1.0000000000000000"/>
      <sparseX i="37" alpha="-127944.39487778227" sparseCutoff="1.0000000000000000"/>
      <sparseX i="38" alpha="221457.84082998571" sparseCutoff=".48978458852002438"/>
      <sparseX i="39" alpha="417888.70117007970" sparseCutoff="1.0000000000000000"/>
      <sparseX i="40" alpha="20781.971849323319" sparseCutoff="1.0000000000000000"/>
      <sparseX i="41" alpha="-29465.387475218398" sparseCutoff=".85906779948471634"/>
      <sparseX i="42" alpha="-301124.83871926490" sparseCutoff=".77859843222977854"/>
      <sparseX i="43" alpha="-184328.53439373843" sparseCutoff="1.0000000000000000"/>
      <sparseX i="44" alpha="-392502.13054843509" sparseCutoff="1.0000000000000000"/>
      <sparseX i="45" alpha="-58466.510031364509" sparseCutoff=".11604731268499702E-002"/>
      <sparseX i="46" alpha="-346815.92161523772" sparseCutoff="1.0000000000000000"/>
      <sparseX i="47" alpha="106588.17382114250" sparseCutoff="1.0000000000000000"/>
    </gpCoordinates>
    <gpCoordinates label="GAP_2024_4_8_180_19_35_16_9232" dimensions="72" signal_variance=".10000000000000001E+000" signal_mean=".00000000000000000E+000" sparsified="T" n_permutations="1" covariance_type="2" zeta="6.0000000000000000" n_sparseX="3248" sparseX_filename="phosphorus.xml.sparseX.GAP_2024_4_8_180_19_35_16_9232" sparseX_md5sum="226f7baaef6cc23d390b4b5b9c16d485">
      <descriptor> soap_turbo l_max=8 alpha_max={8} atom_sigma_r={0.5} atom_sigma_t={0.5} atom_sigma_r_scaling={0.} atom_sigma_t_scaling={0.} zeta=6 rcut_hard=5.0 rcut_soft=4.5 basis=poly3gauss scaling_mode=polynomial amplitude_scaling={1.0} n_species=1 species_Z=15 central_index=1 radial_enhancement={1} compress_mode=trivial central_weight={1.0} config_type_n_sparse={dimer:48:trimer:200:tetramer:200:exotic_crystals:400:2D:200:P4:200:liquid:200: cryst_hp:250:cryst:500:rss:250:phosphorene:200:ribbons:200:BP_new:400} delta=0.1 f0=0.0 covariance_type=dot_product sparse_method=cur_points add_species=F</descriptor>
      <permutation i="1">1  </permutation>
      <sparseX i="1" alpha="251164.08318451946" sparseCutoff="1.0000000000000000"/>
      <sparseX i="2" alpha="-81706.385156063348" sparseCutoff="1.0000000000000000"/>
      <sparseX i="3" alpha="-32089.833006262714" sparseCutoff="1.0000000000000000"/>
      <sparseX i="4" alpha="12998.497756388262" sparseCutoff="1.0000000000000000"/>
      <sparseX i="5" alpha="-3102.2545130933013" sparseCutoff="1.0000000000000000"/>
      <sparseX i="6" alpha="-178243.47159690881" sparseCutoff="1.0000000000000000"/>
      <sparseX i="7" alpha="-26037.626415083461" sparseCutoff="1.0000000000000000"/>
      <sparseX i="8" alpha="43612.443172053776" sparseCutoff="1.0000000000000000"/>
      <sparseX i="9" alpha="-55582.007185845308" sparseCutoff="1.0000000000000000"/>
      <sparseX i="10" alpha="105205.89609896507" sparseCutoff="1.0000000000000000"/>
      <sparseX i="11" alpha="82111.941682782999" sparseCutoff="1.0000000000000000"/>
      <sparseX i="12" alpha="1741.3262803597552" sparseCutoff="1.0000000000000000"/>
      <sparseX i="13" alpha="7038.2754434393682" sparseCutoff="1.0000000000000000"/>
      <sparseX i="14" alpha="-4132.8668376491260" sparseCutoff="1.0000000000000000"/>
      <sparseX i="15" alpha="-128990.81399088683" sparseCutoff="1.0000000000000000"/>
      <sparseX i="16" alpha="171063.58389202436" sparseCutoff="1.0000000000000000"/>
      <sparseX i="17" alpha="-59180.036819692374" sparseCutoff="1.0000000000000000"/>
      <sparseX i="18" alpha="-11324.125758558346" sparseCutoff="1.0000000000000000"/>
      <sparseX i="19" alpha="-17534.501729239888" sparseCutoff="1.0000000000000000"/>
      <sparseX i="20" alpha="6820.5149102172018" sparseCutoff="1.0000000000000000"/>
      <sparseX i="21" alpha="-19489.995623028590" sparseCutoff="1.0000000000000000"/>
      <sparseX i="22" alpha="70303.538176380098" sparseCutoff="1.0000000000000000"/>
      <sparseX i="23" alpha="903.29483890351264" sparseCutoff="1.0000000000000000"/>
      <sparseX i="24" alpha="-26007.658501345355" sparseCutoff="1.0000000000000000"/>
      <sparseX i="25" alpha="2021.0283983942725" sparseCutoff="1.0000000000000000"/>
      <sparseX i="26" alpha="-31967.278792067948" sparseCutoff="1.0000000000000000"/>
      <sparseX i="27" alpha="157391.09212709751" sparseCutoff="1.0000000000000000"/>
      <sparseX i="28" alpha="12877.600858242973" sparseCutoff="1.0000000000000000"/>
      <sparseX i="29" alpha="11003.124573809366" sparseCutoff="1.0000000000000000"/>
      <sparseX i="30" alpha="-29417.249546542560" sparseCutoff="1.0000000000000000"/>
      <sparseX i="31" alpha="-3031.1779497168077" sparseCutoff="1.0000000000000000"/>
      <sparseX i="32" alpha="5232.9575016820500" sparseCutoff="1.0000000000000000"/>
      <sparseX i="33" alpha="92796.922198592234" sparseCutoff="1.0000000000000000"/>
      <sparseX i="34" alpha="-14298.091081291090" sparseCutoff="1.0000000000000000"/>
      <sparseX i="35" alpha="-45401.833620618359" sparseCutoff="1.0000000000000000"/>
      <sparseX i="36" alpha="-28688.246014794859" sparseCutoff="1.0000000000000000"/>
      <sparseX i="37" alpha="-34472.024592597874" sparseCutoff="1.0000000000000000"/>
      <sparseX i="38" alpha="-8982.8673843964807" sparseCutoff="1.0000000000000000"/>
      <sparseX i="39" alpha="-12139.771345440708" sparseCutoff="1.0000000000000000"/>
      <sparseX i="40" alpha="-59067.948745402267" sparseCutoff="1.0000000000000000"/>
      <sparseX i="41" alpha="16152.649076159558" sparseCutoff="1.0000000000000000"/>
      <sparseX i="42" alpha="40270.916205247406" sparseCutoff="1.0000000000000000"/>
      <sparseX i="43" alpha="4836.0276704925727" sparseCutoff="1.0000000000000000"/>
      <sparseX i="44" alpha="-9509.3359536145708" sparseCutoff="1.0000000000000000"/>
      <sparseX i="45" alpha="52530.144911124837" sparseCutoff="1.0000000000000000"/>
      <sparseX i="46" alpha="-157113.24380782110" sparseCutoff="1.0000000000000000"/>
      <sparseX i="47" alpha="-27435.050165265744" sparseCutoff="1.0000000000000000"/>
      <sparseX i="48" alpha="117093.72181897599" sparseCutoff="1.0000000000000000"/>
      <sparseX i="49" alpha="-96594.809334302918" sparseCutoff="1.0000000000000000"/>
      <sparseX i="50" alpha="25835.342191451258" sparseCutoff="1.0000000000000000"/>
      <sparseX i="51" alpha="-26903.182112675277" sparseCutoff="1.0000000000000000"/>
      <sparseX i="52" alpha="-83552.540880194443" sparseCutoff="1.0000000000000000"/>
      <sparseX i="53" alpha="33400.512972125769" sparseCutoff="1.0000000000000000"/>
      <sparseX i="54" alpha="13982.769908454635" sparseCutoff="1.0000000000000000"/>
      <sparseX i="55" alpha="-49241.699664051652" sparseCutoff="1.0000000000000000"/>
      <sparseX i="56" alpha="-29114.918885920484" sparseCutoff="1.0000000000000000"/>
      <sparseX i="57" alpha="-98205.684904074064" sparseCutoff="1.0000000000000000"/>
      <sparseX i="58" alpha="-1430.0561649011315" sparseCutoff="1.0000000000000000"/>
      <sparseX i="59" alpha="-14692.760427633173" sparseCutoff="1.0000000000000000"/>
      <sparseX i="60" alpha="-23405.683724553106" sparseCutoff="1.0000000000000000"/>
      <sparseX i="61" alpha="33455.754181377903" sparseCutoff="1.0000000000000000"/>
      <sparseX i="62" alpha="7308.8985326080492" sparseCutoff="1.0000000000000000"/>
      <sparseX i="63" alpha="-43432.957247782695" sparseCutoff="1.0000000000000000"/>
      <sparseX i="64" alpha="-20409.773485585167" sparseCutoff="1.0000000000000000"/>
      <sparseX i="65" alpha="-138181.31918593668" sparseCutoff="1.0000000000000000"/>
      <sparseX i="66" alpha="114699.71400012914" sparseCutoff="1.0000000000000000"/>
      <sparseX i="67" alpha="-111870.40913573762" sparseCutoff="1.0000000000000000"/>
      <sparseX i="68" alpha="38961.036824697854" sparseCutoff="1.0000000000000000"/>
      <sparseX i="69" alpha="-22213.463702752892" sparseCutoff="1.0000000000000000"/>
      <sparseX i="70" alpha="-48172.450518474318" sparseCutoff="1.0000000000000000"/>
      <sparseX i="71" alpha="61495.743382121203" sparseCutoff="1.0000000000000000"/>
      <sparseX i="72" alpha="41098.386576410579" sparseCutoff="1.0000000000000000"/>
      <sparseX i="73" alpha="131719.22963312126" sparseCutoff="1.0000000000000000"/>
      <sparseX i="74" alpha="4633.1934018575703" sparseCutoff="1.0000000000000000"/>
      <sparseX i="75" alpha="70723.653130154067" sparseCutoff="1.0000000000000000"/>
      <sparseX i="76" alpha="-102876.63268777113" sparseCutoff="1.0000000000000000"/>
      <sparseX i="77" alpha="-102942.45545885847" sparseCutoff="1.0000000000000000"/>
      <sparseX i="78" alpha="-31070.645511723204" sparseCutoff="1.0000000000000000"/>
      <sparseX i="79" alpha="104889.51808796517" sparseCutoff="1.0000000000000000"/>
      <sparseX i="80" alpha="462893.63366524613" sparseCutoff="1.0000000000000000"/>
      <sparseX i="81" alpha="863.45228438989261" sparseCutoff="1.0000000000000000"/>
      <sparseX i="82" alpha="-48785.444624588519" sparseCutoff="1.0000000000000000"/>
      <sparseX i="83" alpha="150319.38813119777" sparseCutoff="1.0000000000000000"/>
      <sparseX i="84" alpha="-357124.33583208523" sparseCutoff="1.0000000000000000"/>
      <sparseX i="85" alpha="260805.93652050043" sparseCutoff="1.0000000000000000"/>
      <sparseX i="86" alpha="-64767.242193243692" sparseCutoff="1.0000000000000000"/>
      <sparseX i="87" alpha="62789.075605610698" sparseCutoff="1.0000000000000000"/>
      <sparseX i="88" alpha="-106243.34114784154" sparseCutoff="1.0000000000000000"/>
      <sparseX i="89" alpha="-460412.57236868056" sparseCutoff="1.0000000000000000"/>
      <sparseX i="90" alpha="-146395.30941042083" sparseCutoff="1.0000000000000000"/>
      <sparseX i="91" alpha="80217.671009205398" sparseCutoff="1.0000000000000000"/>
      <sparseX i="92" alpha="-99479.798286611098" sparseCutoff="1.0000000000000000"/>
      <sparseX i="93" alpha="-73577.966095814278" sparseCutoff="1.0000000000000000"/>
      <sparseX i="94" alpha="-27466.192645945190" sparseCutoff="1.0000000000000000"/>
      <sparseX i="95" alpha="-209915.77755281384" sparseCutoff="1.0000000000000000"/>
      <sparseX i="96" alpha="19610.431250228117" sparseCutoff="1.0000000000000000"/>
      <sparseX i="97" alpha="98280.935636713184" sparseCutoff="1.0000000000000000"/>
      <sparseX i="98" alpha="119990.15528446792" sparseCutoff="1.0000000000000000"/>
      <sparseX i="99" alpha="8533.8294381669493" sparseCutoff="1.0000000000000000"/>
      <sparseX i="100" alpha="23052.605044879459" sparseCutoff="1.0000000000000000"/>
      <sparseX i="101" alpha="22901.312591338909" sparseCutoff="1.0000000000000000"/>
      <sparseX i="102" alpha="-205286.56041073066" sparseCutoff="1.0000000000000000"/>
      <sparseX i="103" alpha="145039.22616392077" sparseCutoff="1.0000000000000000"/>
      <sparseX i="104" alpha="212662.25436115195" sparseCutoff="1.0000000000000000"/>
      <sparseX i="105" alpha="104971.01030784953" sparseCutoff="1.0000000000000000"/>
      <sparseX i="106" alpha="-189857.80537536161" sparseCutoff="1.0000000000000000"/>
      <sparseX i="107" alpha="305810.17754173744" sparseCutoff="1.0000000000000000"/>
      <sparseX i="108" alpha="-108858.35385372391" sparseCutoff="1.0000000000000000"/>
      <sparseX i="109" alpha="-78352.244642780061" sparseCutoff="1.0000000000000000"/>
      <sparseX i="110" alpha="-59668.511522310713" sparseCutoff="1.0000000000000000"/>
      <sparseX i="111" alpha="39261.764201593607" sparseCutoff="1.0000000000000000"/>
      <sparseX i="112" alpha="29447.138898955447" sparseCutoff="1.0000000000000000"/>
      <sparseX i="113" alpha="18921.525691271061" sparseCutoff="1.0000000000000000"/>
      <sparseX i="114" alpha="-57664.165479513758" sparseCutoff="1.0000000000000000"/>
      <sparseX i="115" alpha="-94401.642782492607" sparseCutoff="1.0000000000000000"/>
      <sparseX i="116" alpha="99009.320299836065" sparseCutoff="1.0000000000000000"/>
      <sparseX i="117" alpha="-152716.22972967234" sparseCutoff="1.0000000000000000"/>
      <sparseX i="118" alpha="-91640.601468469584" sparseCutoff="1.0000000000000000"/>
      <sparseX i="119" alpha="-338.86020698156545" sparseCutoff="1.0000000000000000"/>
      <sparseX i="120" alpha="113824.96966103699" sparseCutoff="1.0000000000000000"/>
      <sparseX i="121" alpha="49901.211174000120" sparseCutoff="1.0000000000000000"/>
      <sparseX i="122" alpha="13674.920201644176" sparseCutoff="1.0000000000000000"/>
      <sparseX i="123" alpha="-66741.587468816579" sparseCutoff="1.0000000000000000"/>
      <sparseX i="124" alpha="29439.922108315033" sparseCutoff="1.0000000000000000"/>
      <sparseX i="125" alpha="-123397.42514712966" sparseCutoff="1.0000000000000000"/>
      <sparseX i="126" alpha="-278621.85440826428" sparseCutoff="1.0000000000000000"/>
      <sparseX i="127" alpha="85558.652519068346" sparseCutoff="1.0000000000000000"/>
      <sparseX i="128" alpha="150669.59575043118" sparseCutoff="1.0000000000000000"/>
      <sparseX i="129" alpha="-12072.929658106998" sparseCutoff="1.0000000000000000"/>
      <sparseX i="130" alpha="83932.540167256942" sparseCutoff="1.0000000000000000"/>
      <sparseX i="131" alpha="-88653.668744151306" sparseCutoff="1.0000000000000000"/>
      <sparseX i="132" alpha="-44678.157616349228" sparseCutoff="1.0000000000000000"/>
      <sparseX i="133" alpha="-87189.522041315970" sparseCutoff="1.0000000000000000"/>
      <sparseX i="134" alpha="-37667.462629397836" sparseCutoff="1.0000000000000000"/>
      <sparseX i="135" alpha="-121079.92917267059" sparseCutoff="1.0000000000000000"/>
      <sparseX i="136" alpha="-58497.205019338362" sparseCutoff="1.0000000000000000"/>
      <sparseX i="137" alpha="-191452.88916529791" sparseCutoff="1.0000000000000000"/>
      <sparseX i="138" alpha="-13841.198653162048" sparseCutoff="1.0000000000000000"/>
      <sparseX i="139" alpha="-20296.026476086958" sparseCutoff="1.0000000000000000"/>
      <sparseX i="140" alpha="-20129.563463113693" sparseCutoff="1.0000000000000000"/>
      <sparseX i="141" alpha="-157244.83255868411" sparseCutoff="1.0000000000000000"/>
      <sparseX i="142" alpha="28738.627566365598" sparseCutoff="1.0000000000000000"/>
      <sparseX i="143" alpha="98051.726600376773" sparseCutoff="1.0000000000000000"/>
      <sparseX i="144" alpha="104390.80686821943" sparseCutoff="1.0000000000000000"/>
      <sparseX i="145" alpha="11259.079713737852" sparseCutoff="1.0000000000000000"/>
      <sparseX i="146" alpha="153503.34688134064" sparseCutoff="1.0000000000000000"/>
      <sparseX i="147" alpha="105827.27768747670" sparseCutoff="1.0000000000000000"/>
      <sparseX i="148" alpha="68770.856830722318" sparseCutoff="1.0000000000000000"/>
      <sparseX i="149" alpha="140094.93723710097" sparseCutoff="1.0000000000000000"/>
      <sparseX i="150" alpha="-161242.02114640520" sparseCutoff="1.0000000000000000"/>
      <sparseX i="151" alpha="225312.73649507423" sparseCutoff="1.0000000000000000"/>
      <sparseX i="152" alpha="-319035.68697678600" sparseCutoff="1.0000000000000000"/>
      <sparseX i="153" alpha="-37817.413899406354" sparseCutoff="1.0000000000000000"/>
      <sparseX i="154" alpha="-41185.359202918196" sparseCutoff="1.0000000000000000"/>
      <sparseX i="155" alpha="72708.280851086485" sparseCutoff="1.0000000000000000"/>
      <sparseX i="156" alpha="65611.614477213574" sparseCutoff="1.0000000000000000"/>
      <sparseX i="157" alpha="-169391.89165751814" sparseCutoff="1.0000000000000000"/>
      <sparseX i="158" alpha="289389.43501510343" sparseCutoff="1.0000000000000000"/>
      <sparseX i="159" alpha="780640.63928408164" sparseCutoff="1.0000000000000000"/>
      <sparseX i="160" alpha="-48889.600169467645" sparseCutoff="1.0000000000000000"/>
      <sparseX i="161" alpha="-278963.99423682800" sparseCutoff="1.0000000000000000"/>
      <sparseX i="162" alpha="-141354.49778292634" sparseCutoff="1.0000000000000000"/>
      <sparseX i="163" alpha="267106.60071363172" sparseCutoff="1.0000000000000000"/>
      <sparseX i="164" alpha="-299584.66444185819" sparseCutoff="1.0000000000000000"/>
      <sparseX i="165" alpha="242476.35204232877" sparseCutoff="1.0000000000000000"/>
      <sparseX i="166" alpha="274037.20823167363" sparseCutoff="1.0000000000000000"/>
      <sparseX i="167" alpha="-362909.41108939733" sparseCutoff="1.0000000000000000"/>
      <sparseX i="168" alpha="215939.93616182479" sparseCutoff="1.0000000000000000"/>
      <sparseX i="169" alpha="85493.905093698471" sparseCutoff="1.0000000000000000"/>
      <sparseX i="170" alpha="-82343.441463595998" sparseCutoff="1.0000000000000000"/>
      <sparseX i="171" alpha="-217635.82490611120" sparseCutoff="1.0000000000000000"/>
      <sparseX i="172" alpha="-114768.78718180554" sparseCutoff="1.0000000000000000"/>
      <sparseX i="173" alpha="158592.20080236389" sparseCutoff="1.0000000000000000"/>
      <sparseX i="174" alpha="151263.84179517449" sparseCutoff="1.0000000000000000"/>
      <sparseX i="175" alpha="-249113.93852297121" sparseCutoff="1.0000000000000000"/>
      <sparseX i="176" alpha="171753.66266488898" sparseCutoff="1.0000000000000000"/>
      <sparseX i="177" alpha="-101292.29466729875" sparseCutoff="1.0000000000000000"/>
      <sparseX i="178" alpha="-302555.50278387015" sparseCutoff="1.0000000000000000"/>
      <sparseX i="179" alpha="98953.306657189634" sparseCutoff="1.0000000000000000"/>
      <sparseX i="180" alpha="-21512.424004690492" sparseCutoff="1.0000000000000000"/>
      <sparseX i="181" alpha="15023.372842629577" sparseCutoff="1.0000000000000000"/>
      <sparseX i="182" alpha="-190745.55108265480" sparseCutoff="1.0000000000000000"/>
      <sparseX i="183" alpha="-41765.880507158443" sparseCutoff="1.0000000000000000"/>
      <sparseX i="184" alpha="2885.9030517133169" sparseCutoff="1.0000000000000000"/>
      <sparseX i="185" alpha="92740.007383620497" sparseCutoff="1.0000000000000000"/>
      <sparseX i="186" alpha="-152927.01018501847" sparseCutoff="1.0000000000000000"/>
      <sparseX i="187" alpha="-252921.83436873672" sparseCutoff="1.0000000000000000"/>
      <sparseX i="188" alpha="172299.68526731079" sparseCutoff="1.0000000000000000"/>
      <sparseX i="189" alpha="250056.53204664227" sparseCutoff="1.0000000000000000"/>
      <sparseX i="190" alpha="61439.834374915248" sparseCutoff="1.0000000000000000"/>
      <sparseX i="191" alpha="45205.492512851539" sparseCutoff="1.0000000000000000"/>
      <sparseX i="192" alpha="-188448.09670430451" sparseCutoff="1.0000000000000000"/>
      <sparseX i="193" alpha="47177.420371300053" sparseCutoff="1.0000000000000000"/>
      <sparseX i="194" alpha="23479.614029782377" sparseCutoff="1.0000000000000000"/>
      <sparseX i="195" alpha="-82557.332212469089" sparseCutoff="1.0000000000000000"/>
      <sparseX i="196" alpha="3684.2666323834801" sparseCutoff="1.0000000000000000"/>
      <sparseX i="197" alpha="6919.8740899777222" sparseCutoff="1.0000000000000000"/>
      <sparseX i="198" alpha="16836.676113910304" sparseCutoff="1.0000000000000000"/>
      <sparseX i="199" alpha="-117790.38526054578" sparseCutoff="1.0000000000000000"/>
      <sparseX i="200" alpha="40225.116357101564" sparseCutoff="1.0000000000000000"/>
      <sparseX i="201" alpha="46550.233818405577" sparseCutoff="1.0000000000000000"/>
      <sparseX i="202" alpha="580.37918495774079" sparseCutoff="1.0000000000000000"/>
      <sparseX i="203" alpha="129133.46509391700" sparseCutoff="1.0000000000000000"/>
      <sparseX i="204" alpha="-98468.478753624891" sparseCutoff="1.0000000000000000"/>
      <sparseX i="205" alpha="-67070.385550473482" sparseCutoff="1.0000000000000000"/>
      <sparseX i="206" alpha="-34501.241850891260" sparseCutoff="1.0000000000000000"/>
      <sparseX i="207" alpha="60147.913805234246" sparseCutoff="1.0000000000000000"/>
      <sparseX i="208" alpha="-89606.613957293797" sparseCutoff="1.0000000000000000"/>
      <sparseX i="209" alpha="-8274.8136417802561" sparseCutoff="1.0000000000000000"/>
      <sparseX i="210" alpha="4143.9268545790655" sparseCutoff="1.0000000000000000"/>
      <sparseX i="211" alpha="-21672.415974586722" sparseCutoff="1.0000000000000000"/>
      <sparseX i="212" alpha="-29260.036353996264" sparseCutoff="1.0000000000000000"/>
      <sparseX i="213" alpha="3131.1887391140840" sparseCutoff="1.0000000000000000"/>
      <sparseX i="214" alpha="21990.944422167555" sparseCutoff="1.0000000000000000"/>
      <sparseX i="215" alpha="-694.54196740787972" sparseCutoff="1.0000000000000000"/>
      <sparseX i="216" alpha="-74565.102074104070" sparseCutoff="1.0000000000000000"/>
      <sparseX i="217" alpha="24399.350861741113" sparseCutoff="1.0000000000000000"/>
      <sparseX i="218" alpha="-27158.568078401709" sparseCutoff="1.0000000000000000"/>
      <sparseX i="219" alpha="28221.795260481489" sparseCutoff="1.0000000000000000"/>
      <sparseX i="220" alpha="63051.648737934476" sparseCutoff="1.0000000000000000"/>
      <sparseX i="221" alpha="49282.033250203443" sparseCutoff="1.0000000000000000"/>
      <sparseX i="222" alpha="-56974.436611052843" sparseCutoff="1.0000000000000000"/>
      <sparseX i="223" alpha="-3282.4713459172353" sparseCutoff="1.0000000000000000"/>
      <sparseX i="224" alpha="17120.372010173382" sparseCutoff="1.0000000000000000"/>
      <sparseX i="225" alpha="10699.813376383003" sparseCutoff="1.0000000000000000"/>
      <sparseX i="226" alpha="-1810.1002926619335" sparseCutoff="1.0000000000000000"/>
      <sparseX i="227" alpha="7.6761520642166499" sparseCutoff="1.0000000000000000"/>
      <sparseX i="228" alpha="12039.638501835285" sparseCutoff="1.0000000000000000"/>
      <sparseX i="229" alpha="-8921.5524784079371" sparseCutoff="1.0000000000000000"/>
      <sparseX i="230" alpha="-36740.796796505027" sparseCutoff="1.0000000000000000"/>
      <sparseX i="231" alpha="-24631.432875042592" sparseCutoff="1.0000000000000000"/>
      <sparseX i="232" alpha="45804.100582187923" sparseCutoff="1.0000000000000000"/>
      <sparseX i="233" alpha="15729.043950160565" sparseCutoff="1.0000000000000000"/>
      <sparseX i="234" alpha="37459.266036855632" sparseCutoff="1.0000000000000000"/>
      <sparseX i="235" alpha="46655.377255947264" sparseCutoff="1.0000000000000000"/>
      <sparseX i="236" alpha="212992.46074947692" sparseCutoff="1.0000000000000000"/>
      <sparseX i="237" alpha="53708.011965410362" sparseCutoff="1.0000000000000000"/>
      <sparseX i="238" alpha="50738.178402722180" sparseCutoff="1.0000000000000000"/>
      <sparseX i="239" alpha="166746.66941013493" sparseCutoff="1.0000000000000000"/>
      <sparseX i="240" alpha="-74908.187895876879" sparseCutoff="1.0000000000000000"/>
      <sparseX i="241" alpha="-224975.10543203828" sparseCutoff="1.0000000000000000"/>
      <sparseX i="242" alpha="-126738.96069639383" sparseCutoff="1.0000000000000000"/>
      <sparseX i="243" alpha="17050.750025085559" sparseCutoff="1.0000000000000000"/>
      <sparseX i="244" alpha="-128697.72140895373" sparseCutoff="1.0000000000000000"/>
      <sparseX i="245" alpha="-264390.03507737641" sparseCutoff="1.0000000000000000"/>
      <sparseX i="246" alpha="94374.425342528892" sparseCutoff="1.0000000000000000"/>
      <sparseX i="247" alpha="73819.296866951045" sparseCutoff="1.0000000000000000"/>
      <sparseX i="248" alpha="-92670.540626407266" sparseCutoff="1.0000000000000000"/>
      <sparseX i="249" alpha="63129.070173518841" sparseCutoff="1.0000000000000000"/>
      <sparseX i="250" alpha="83376.016125087306" sparseCutoff="1.0000000000000000"/>
      <sparseX i="251" alpha="159065.39179001251" sparseCutoff="1.0000000000000000"/>
      <sparseX i="252" alpha="-43982.225611777685" sparseCutoff="1.0000000000000000"/>
      <sparseX i="253" alpha="-51163.458072664122" sparseCutoff="1.0000000000000000"/>
      <sparseX i="254" alpha="-81113.421436258926" sparseCutoff="1.0000000000000000"/>
      <sparseX i="255" alpha="59249.417637320832" sparseCutoff="1.0000000000000000"/>
      <sparseX i="256" alpha="210490.22420389357" sparseCutoff="1.0000000000000000"/>
      <sparseX i="257" alpha="33418.203743954844" sparseCutoff="1.0000000000000000"/>
      <sparseX i="258" alpha="187216.98150726350" sparseCutoff="1.0000000000000000"/>
      <sparseX i="259" alpha="-254025.54091676744" sparseCutoff="1.0000000000000000"/>
      <sparseX i="260" alpha="-95172.939220732398" sparseCutoff="1.0000000000000000"/>
      <sparseX i="261" alpha="39093.364014729304" sparseCutoff="1.0000000000000000"/>
      <sparseX i="262" alpha="138106.17744231696" sparseCutoff="1.0000000000000000"/>
      <sparseX i="263" alpha="-248672.11598056013" sparseCutoff="1.0000000000000000"/>
      <sparseX i="264" alpha="78598.623030435672" sparseCutoff="1.0000000000000000"/>
      <sparseX i="265" alpha="384107.71138632129" sparseCutoff="1.0000000000000000"/>
      <sparseX i="266" alpha="153759.59126202593" sparseCutoff="1.0000000000000000"/>
      <sparseX i="267" alpha="24531.070459737512" sparseCutoff="1.0000000000000000"/>
      <sparseX i="268" alpha="202938.89012815160" sparseCutoff="1.0000000000000000"/>
      <sparseX i="269" alpha="248837.45340066164" sparseCutoff="1.0000000000000000"/>
      <sparseX i="270" alpha="-210382.99049236733" sparseCutoff="1.0000000000000000"/>
      <sparseX i="271" alpha="93511.396997859250" sparseCutoff="1.0000000000000000"/>
      <sparseX i="272" alpha="-272686.53104530554" sparseCutoff="1.0000000000000000"/>
      <sparseX i="273" alpha="-116366.50295246371" sparseCutoff="1.0000000000000000"/>
      <sparseX i="274" alpha="203350.79442681975" sparseCutoff="1.0000000000000000"/>
      <sparseX i="275" alpha="-87098.867657887167" sparseCutoff="1.0000000000000000"/>
      <sparseX i="276" alpha="-4566.6518148636187" sparseCutoff="1.0000000000000000"/>
      <sparseX i="277" alpha="50658.300898427915" sparseCutoff="1.0000000000000000"/>
      <sparseX i="278" alpha="89271.019285524380" sparseCutoff="1.0000000000000000"/>
      <sparseX i="279" alpha="230545.15059292095" sparseCutoff="1.0000000000000000"/>
      <sparseX i="280" alpha="118124.86615528936" sparseCutoff="1.0000000000000000"/>
      <sparseX i="281" alpha="181558.47909204493" sparseCutoff="1.0000000000000000"/>
      <sparseX i="282" alpha="-101067.28208866056" sparseCutoff="1.0000000000000000"/>
      <sparseX i="283" alpha="217959.79670299048" sparseCutoff="1.0000000000000000"/>
      <sparseX i="284" alpha="134952.85535486578" sparseCutoff="1.0000000000000000"/>
      <sparseX i="285" alpha="-287429.78569816030" sparseCutoff="1.0000000000000000"/>
      <sparseX i="286" alpha="-80835.583784475501" sparseCutoff="1.0000000000000000"/>
      <sparseX i="287" alpha="132193.72243493999" sparseCutoff="1.0000000000000000"/>
      <sparseX i="288" alpha="102012.20374448200" sparseCutoff="1.0000000000000000"/>
      <sparseX i="289" alpha="-201617.39912578688" sparseCutoff="1.0000000000000000"/>
      <sparseX i="290" alpha="-28375.148721466372" sparseCutoff="1.0000000000000000"/>
      <sparseX i="291" alpha="21731.509897687905" sparseCutoff="1.0000000000000000"/>
      <sparseX i="292" alpha="-6871.3189627279662" sparseCutoff="1.0000000000000000"/>
      <sparseX i="293" alpha="-63553.545525840986" sparseCutoff="1.0000000000000000"/>
      <sparseX i="294" alpha="-25997.770335972869" sparseCutoff="1.0000000000000000"/>
      <sparseX i="295" alpha="-122165.70220573431" sparseCutoff="1.0000000000000000"/>
      <sparseX i="296" alpha="-11749.849293126106" sparseCutoff="1.0000000000000000"/>
      <sparseX i="297" alpha="87921.045326918844" sparseCutoff="1.0000000000000000"/>
      <sparseX i="298" alpha="77621.613489438038" sparseCutoff="1.0000000000000000"/>
      <sparseX i="299" alpha="201914.23312207020" sparseCutoff="1.0000000000000000"/>
      <sparseX i="300" alpha="41853.205287294084" sparseCutoff="1.0000000000000000"/>
      <sparseX i="301" alpha="272102.09765130171" sparseCutoff="1.0000000000000000"/>
      <sparseX i="302" alpha="-35445.762398872335" sparseCutoff="1.0000000000000000"/>
      <sparseX i="303" alpha="-19367.292390376067" sparseCutoff="1.0000000000000000"/>
      <sparseX i="304" alpha="-73939.120343739691" sparseCutoff="1.0000000000000000"/>
      <sparseX i="305" alpha="12797.977965191878" sparseCutoff="1.0000000000000000"/>
      <sparseX i="306" alpha="-80831.042746101681" sparseCutoff="1.0000000000000000"/>
      <sparseX i="307" alpha="132968.72027517107" sparseCutoff="1.0000000000000000"/>
      <sparseX i="308" alpha="-4960.7954648137502" sparseCutoff="1.0000000000000000"/>
      <sparseX i="309" alpha="-5331.6971005984215" sparseCutoff="1.0000000000000000"/>
      <sparseX i="310" alpha="-23405.684205160469" sparseCutoff="1.0000000000000000"/>
      <sparseX i="311" alpha="27514.997979675067" sparseCutoff="1.0000000000000000"/>
      <sparseX i="312" alpha="37626.052785330830" sparseCutoff="1.0000000000000000"/>
      <sparseX i="313" alpha="-2214.8599728087574" sparseCutoff="1.0000000000000000"/>
      <sparseX i="314" alpha="-39318.228883715186" sparseCutoff="1.0000000000000000"/>
      <sparseX i="315" alpha="-82459.701591961886" sparseCutoff="1.0000000000000000"/>
      <sparseX i="316" alpha="-13045.196821745341" sparseCutoff="1.0000000000000000"/>
      <sparseX i="317" alpha="22483.384368842071" sparseCutoff="1.0000000000000000"/>
      <sparseX i="318" alpha="86399.934864920884" sparseCutoff="1.0000000000000000"/>
      <sparseX i="319" alpha="-35063.535602196716" sparseCutoff="1.0000000000000000"/>
      <sparseX i="320" alpha="-95029.430503554875" sparseCutoff="1.0000000000000000"/>
      <sparseX i="321" alpha="-10654.827933053570" sparseCutoff="1.0000000000000000"/>
      <sparseX i="322" alpha="-5076.0855347497818" sparseCutoff="1.0000000000000000"/>
      <sparseX i="323" alpha="-17802.748237425185" sparseCutoff="1.0000000000000000"/>
      <sparseX i="324" alpha="958.44985859412361" sparseCutoff="1.0000000000000000"/>
      <sparseX i="325" alpha="-5352.8268738061688" sparseCutoff="1.0000000000000000"/>
      <sparseX i="326" alpha="-8285.2516170640465" sparseCutoff="1.0000000000000000"/>
      <sparseX i="327" alpha="14642.848227740269" sparseCutoff="1.0000000000000000"/>
      <sparseX i="328" alpha="-370.25465206881034" sparseCutoff="1.0000000000000000"/>
      <sparseX i="329" alpha="57110.001831213383" sparseCutoff="1.0000000000000000"/>
      <sparseX i="330" alpha="10051.204820311883" sparseCutoff="1.0000000000000000"/>
      <sparseX i="331" alpha="26351.818425940131" sparseCutoff="1.0000000000000000"/>
      <sparseX i="332" alpha="147305.09162312513" sparseCutoff="1.0000000000000000"/>
      <sparseX i="333" alpha="120721.42555821895" sparseCutoff="1.0000000000000000"/>
      <sparseX i="334" alpha="47397.399318663978" sparseCutoff="1.0000000000000000"/>
      <sparseX i="335" alpha="-2574.5408421944981" sparseCutoff="1.0000000000000000"/>
      <sparseX i="336" alpha="-1907.1146767362522" sparseCutoff="1.0000000000000000"/>
      <sparseX i="337" alpha="119280.37381830181" sparseCutoff="1.0000000000000000"/>
      <sparseX i="338" alpha="-19576.095848031044" sparseCutoff="1.0000000000000000"/>
      <sparseX i="339" alpha="-36430.377373161420" sparseCutoff="1.0000000000000000"/>
      <sparseX i="340" alpha="-32934.434394691911" sparseCutoff="1.0000000000000000"/>
      <sparseX i="341" alpha="-49755.358240069239" sparseCutoff="1.0000000000000000"/>
      <sparseX i="342" alpha="36615.796263640921" sparseCutoff="1.0000000000000000"/>
      <sparseX i="343" alpha="117026.91973607444" sparseCutoff="1.0000000000000000"/>
      <sparseX i="344" alpha="40941.252122438222" sparseCutoff="1.0000000000000000"/>
      <sparseX i="345" alpha="19871.577440840647" sparseCutoff="1.0000000000000000"/>
      <sparseX i="346" alpha="-54255.364311748490" sparseCutoff="1.0000000000000000"/>
      <sparseX i="347" alpha="305371.58775751514" sparseCutoff="1.0000000000000000"/>
      <sparseX i="348" alpha="16619.944753322328" sparseCutoff="1.0000000000000000"/>
      <sparseX i="349" alpha="-156281.01030333256" sparseCutoff="1.0000000000000000"/>
      <sparseX i="350" alpha="-99527.401602521641" sparseCutoff="1.0000000000000000"/>
      <sparseX i="351" alpha="-153050.50427354302" sparseCutoff="1.0000000000000000"/>
      <sparseX i="352" alpha="-94441.888168357531" sparseCutoff="1.0000000000000000"/>
      <sparseX i="353" alpha="-184518.41725116584" sparseCutoff="1.0000000000000000"/>
      <sparseX i="354" alpha="-3425.1703123849088" sparseCutoff="1.0000000000000000"/>
      <sparseX i="355" alpha="-35204.731088711633" sparseCutoff="1.0000000000000000"/>
      <sparseX i="356" alpha="38372.909193774620" sparseCutoff="1.0000000000000000"/>
      <sparseX i="357" alpha="4578.5717125714582" sparseCutoff="1.0000000000000000"/>
      <sparseX i="358" alpha="124435.18263029780" sparseCutoff="1.0000000000000000"/>
      <sparseX i="359" alpha="-320329.14599448006" sparseCutoff="1.0000000000000000"/>
      <sparseX i="360" alpha="-14536.425321965962" sparseCutoff="1.0000000000000000"/>
      <sparseX i="361" alpha="218758.25189460439" sparseCutoff="1.0000000000000000"/>
      <sparseX i="362" alpha="-224340.53571217306" sparseCutoff="1.0000000000000000"/>
      <sparseX i="363" alpha="-132685.45256031165" sparseCutoff="1.0000000000000000"/>
      <sparseX i="364" alpha="95487.259955255242" sparseCutoff="1.0000000000000000"/>
      <sparseX i="365" alpha="63687.548601038856" sparseCutoff="1.0000000000000000"/>
      <sparseX i="366" alpha="94968.466073408665" sparseCutoff="1.0000000000000000"/>
      <sparseX i="367" alpha="-97215.740814349047" sparseCutoff="1.0000000000000000"/>
      <sparseX i="368" alpha="-113580.45886202784" sparseCutoff="1.0000000000000000"/>
      <sparseX i="369" alpha="-346752.61124212452" sparseCutoff="1.0000000000000000"/>
      <sparseX i="370" alpha="128180.56738946405" sparseCutoff="1.0000000000000000"/>
      <sparseX i="371" alpha="85842.007768701282" sparseCutoff="1.0000000000000000"/>
      <sparseX i="372" alpha="-106389.93844127294" sparseCutoff="1.0000000000000000"/>
      <sparseX i="373" alpha="9064.3306056360707" sparseCutoff="1.0000000000000000"/>
      <sparseX i="374" alpha="-50557.232687334668" sparseCutoff="1.0000000000000000"/>
      <sparseX i="375" alpha="47520.193985027596" sparseCutoff="1.0000000000000000"/>
      <sparseX i="376" alpha="-104657.66867968715" sparseCutoff="1.0000000000000000"/>
      <sparseX i="377" alpha="36489.489816861940" sparseCutoff="1.0000000000000000"/>
      <sparseX i="378" alpha="146183.57324338370" sparseCutoff="1.0000000000000000"/>
      <sparseX i="379" alpha="-28292.942515265127" sparseCutoff="1.0000000000000000"/>
      <sparseX i="380" alpha="146870.02565217021" sparseCutoff="1.0000000000000000"/>
      <sparseX i="381" alpha="32809.909123273741" sparseCutoff="1.0000000000000000"/>
      <sparseX i="382" alpha="-46933.159708196006" sparseCutoff="1.0000000000000000"/>
      <sparseX i="383" alpha="94.937891447167857" sparseCutoff="1.0000000000000000"/>
      <sparseX i="384" alpha="108153.22291901281" sparseCutoff="1.0000000000000000"/>
      <sparseX i="385" alpha="-60122.511536416940" sparseCutoff="1.0000000000000000"/>
      <sparseX i="386" alpha="35568.614758240998" sparseCutoff="1.0000000000000000"/>
      <sparseX i="387" alpha="-47511.411252672529" sparseCutoff="1.0000000000000000"/>
      <sparseX i="388" alpha="14154.446541133026" sparseCutoff="1.0000000000000000"/>
      <sparseX i="389" alpha="94136.353980501430" sparseCutoff="1.0000000000000000"/>
      <sparseX i="390" alpha="69349.113954315850" sparseCutoff="1.0000000000000000"/>
      <sparseX i="391" alpha="145969.71717944997" sparseCutoff="1.0000000000000000"/>
      <sparseX i="392" alpha="119394.14653358913" sparseCutoff="1.0000000000000000"/>
      <sparseX i="393" alpha="-92025.891275879752" sparseCutoff="1.0000000000000000"/>
      <sparseX i="394" alpha="264330.44909266528" sparseCutoff="1.0000000000000000"/>
      <sparseX i="395" alpha="-132531.65481331694" sparseCutoff="1.0000000000000000"/>
      <sparseX i="396" alpha="32776.899818554768" sparseCutoff="1.0000000000000000"/>
      <sparseX i="397" alpha="15425.707978738599" sparseCutoff="1.0000000000000000"/>
      <sparseX i="398" alpha="54826.262343045797" sparseCutoff="1.0000000000000000"/>
      <sparseX i="399" alpha="61027.354740994640" sparseCutoff="1.0000000000000000"/>
      <sparseX i="400" alpha="122604.10808506369" sparseCutoff="1.0000000000000000"/>
      <sparseX i="401" alpha="-94802.305808925870" sparseCutoff="1.0000000000000000"/>
      <sparseX i="402" alpha="67593.528995925983" sparseCutoff="1.0000000000000000"/>
      <sparseX i="403" alpha="402408.41664370819" sparseCutoff="1.0000000000000000"/>
      <sparseX i="404" alpha="-72210.263440221519" sparseCutoff="1.0000000000000000"/>
      <sparseX i="405" alpha="-154167.58674987074" sparseCutoff="1.0000000000000000"/>
      <sparseX i="406" alpha="18096.663704862891" sparseCutoff="1.0000000000000000"/>
      <sparseX i="407" alpha="-176747.51002041393" sparseCutoff="1.0000000000000000"/>
      <sparseX i="408" alpha="-113104.42021334631" sparseCutoff="1.0000000000000000"/>
      <sparseX i="409" alpha="84364.794746862273" sparseCutoff="1.0000000000000000"/>
      <sparseX i="410" alpha="10909.380123324187" sparseCutoff="1.0000000000000000"/>
      <sparseX i="411" alpha="-304663.22200136451" sparseCutoff="1.0000000000000000"/>
      <sparseX i="412" alpha="28677.138772491995" sparseCutoff="1.0000000000000000"/>
      <sparseX i="413" alpha="100016.26473200787" sparseCutoff="1.0000000000000000"/>
      <sparseX i="414" alpha="764.91589682984306" sparseCutoff="1.0000000000000000"/>
      <sparseX i="415" alpha="95952.629615775732" sparseCutoff="1.0000000000000000"/>
      <sparseX i="416" alpha="178452.29920135095" sparseCutoff="1.0000000000000000"/>
      <sparseX i="417" alpha="319593.57399803604" sparseCutoff="1.0000000000000000"/>
      <sparseX i="418" alpha="-2267.7421117816343" sparseCutoff="1.0000000000000000"/>
      <sparseX i="419" alpha="-143593.14764141457" sparseCutoff="1.0000000000000000"/>
      <sparseX i="420" alpha="-342516.44847449346" sparseCutoff="1.0000000000000000"/>
      <sparseX i="421" alpha="395524.08553751337" sparseCutoff="1.0000000000000000"/>
      <sparseX i="422" alpha="193862.44196236870" sparseCutoff="1.0000000000000000"/>
      <sparseX i="423" alpha="-58363.365621658704" sparseCutoff="1.0000000000000000"/>
      <sparseX i="424" alpha="193067.62528386881" sparseCutoff="1.0000000000000000"/>
      <sparseX i="425" alpha="-41439.120664278715" sparseCutoff="1.0000000000000000"/>
      <sparseX i="426" alpha="148476.07402694371" sparseCutoff="1.0000000000000000"/>
      <sparseX i="427" alpha="47209.555327797723" sparseCutoff="1.0000000000000000"/>
      <sparseX i="428" alpha="168043.28963570276" sparseCutoff="1.0000000000000000"/>
      <sparseX i="429" alpha="-56165.380266364977" sparseCutoff="1.0000000000000000"/>
      <sparseX i="430" alpha="9386.8167641266627" sparseCutoff="1.0000000000000000"/>
      <sparseX i="431" alpha="-23997.964410559220" sparseCutoff="1.0000000000000000"/>
      <sparseX i="432" alpha="-267405.89267525304" sparseCutoff="1.0000000000000000"/>
      <sparseX i="433" alpha="116222.24097723416" sparseCutoff="1.0000000000000000"/>
      <sparseX i="434" alpha="-33833.392107229796" sparseCutoff="1.0000000000000000"/>
      <sparseX i="435" alpha="-161213.32789931708" sparseCutoff="1.0000000000000000"/>
      <sparseX i="436" alpha="-57284.004457971387" sparseCutoff="1.0000000000000000"/>
      <sparseX i="437" alpha="-200007.80402666351" sparseCutoff="1.0000000000000000"/>
      <sparseX i="438" alpha="12551.101034885083" sparseCutoff="1.0000000000000000"/>
      <sparseX i="439" alpha="-236057.53271647217" sparseCutoff="1.0000000000000000"/>
      <sparseX i="440" alpha="-32358.071578797375" sparseCutoff="1.0000000000000000"/>
      <sparseX i="441" alpha="-24741.447666116339" sparseCutoff="1.0000000000000000"/>
      <sparseX i="442" alpha="70118.548841899144" sparseCutoff="1.0000000000000000"/>
      <sparseX i="443" alpha="-391494.31386801269" sparseCutoff="1.0000000000000000"/>
      <sparseX i="444" alpha="10485.012236676634" sparseCutoff="1.0000000000000000"/>
      <sparseX i="445" alpha="191137.62099800911" sparseCutoff="1.0000000000000000"/>
      <sparseX i="446" alpha="128494.74049788107" sparseCutoff="1.0000000000000000"/>
      <sparseX i="447" alpha="83197.689022631064" sparseCutoff="1.0000000000000000"/>
      <sparseX i="448" alpha="134199.15889131918" sparseCutoff="1.0000000000000000"/>
      <sparseX i="449" alpha="190676.55286060230" sparseCutoff="1.0000000000000000"/>
      <sparseX i="450" alpha="128812.21186316763" sparseCutoff="1.0000000000000000"/>
      <sparseX i="451" alpha="34272.648640569612" sparseCutoff="1.0000000000000000"/>
      <sparseX i="452" alpha="2175.3507659855450" sparseCutoff="1.0000000000000000"/>
      <sparseX i="453" alpha="24524.426207460088" sparseCutoff="1.0000000000000000"/>
      <sparseX i="454" alpha="-60363.317638129505" sparseCutoff="1.0000000000000000"/>
      <sparseX i="455" alpha="-272513.35088289465" sparseCutoff="1.0000000000000000"/>
      <sparseX i="456" alpha="-27009.420637072559" sparseCutoff="1.0000000000000000"/>
      <sparseX i="457" alpha="-15849.983841005667" sparseCutoff="1.0000000000000000"/>
      <sparseX i="458" alpha="-55653.382741618458" sparseCutoff="1.0000000000000000"/>
      <sparseX i="459" alpha="44791.828821675219" sparseCutoff="1.0000000000000000"/>
      <sparseX i="460" alpha="15220.950216098969" sparseCutoff="1.0000000000000000"/>
      <sparseX i="461" alpha="2843.5570230893281" sparseCutoff="1.0000000000000000"/>
      <sparseX i="462" alpha="3634.1472451633995" sparseCutoff="1.0000000000000000"/>
      <sparseX i="463" alpha="42001.147009729095" sparseCutoff="1.0000000000000000"/>
      <sparseX i="464" alpha="8335.0559798063441" sparseCutoff="1.0000000000000000"/>
      <sparseX i="465" alpha="-82635.182767681763" sparseCutoff="1.0000000000000000"/>
      <sparseX i="466" alpha="-27601.358478382292" sparseCutoff="1.0000000000000000"/>
      <sparseX i="467" alpha="30909.997031372433" sparseCutoff="1.0000000000000000"/>
      <sparseX i="468" alpha="49931.752649903821" sparseCutoff="1.0000000000000000"/>
      <sparseX i="469" alpha="28226.049272967517" sparseCutoff="1.0000000000000000"/>
      <sparseX i="470" alpha="71020.714801529510" sparseCutoff="1.0000000000000000"/>
      <sparseX i="471" alpha="-24817.761371520919" sparseCutoff="1.0000000000000000"/>
      <sparseX i="472" alpha="-116588.88885104495" sparseCutoff="1.0000000000000000"/>
      <sparseX i="473" alpha="-8578.0291833837309" sparseCutoff="1.0000000000000000"/>
      <sparseX i="474" alpha="75096.433643437049" sparseCutoff="1.0000000000000000"/>
      <sparseX i="475" alpha="-35983.633727490625" sparseCutoff="1.0000000000000000"/>
      <sparseX i="476" alpha="-3866.8124044876054" sparseCutoff="1.0000000000000000"/>
      <sparseX i="477" alpha="23592.956441861985" sparseCutoff="1.0000000000000000"/>
      <sparseX i="478" alpha="-110791.72214138266" sparseCutoff="1.0000000000000000"/>
      <sparseX i="479" alpha="-109754.16809395222" sparseCutoff="1.0000000000000000"/>
      <sparseX i="480" alpha="13433.540548985660" sparseCutoff="1.0000000000000000"/>
      <sparseX i="481" alpha="13071.849862986433" sparseCutoff="1.0000000000000000"/>
      <sparseX i="482" alpha="2806.7381847839197" sparseCutoff="1.0000000000000000"/>
      <sparseX i="483" alpha="-29390.561280127098" sparseCutoff="1.0000000000000000"/>
      <sparseX i="484" alpha="26963.008813485005" sparseCutoff="1.0000000000000000"/>
      <sparseX i="485" alpha="-23625.194186608576" sparseCutoff="1.0000000000000000"/>
      <sparseX i="486" alpha="497.03034131640709" sparseCutoff="1.0000000000000000"/>
      <sparseX i="487" alpha="8446.8135182652568" sparseCutoff="1.0000000000000000"/>
      <sparseX i="488" alpha="-2708.2775187635425" sparseCutoff="1.0000000000000000"/>
      <sparseX i="489" alpha="-19735.282649891880" sparseCutoff="1.0000000000000000"/>
      <sparseX i="490" alpha="77163.169414008735" sparseCutoff="1.0000000000000000"/>
      <sparseX i="491" alpha="65886.505780102671" sparseCutoff="1.0000000000000000"/>
      <sparseX i="492" alpha="57512.598628463085" sparseCutoff="1.0000000000000000"/>
      <sparseX i="493" alpha="-4501.5390168192562" sparseCutoff="1.0000000000000000"/>
      <sparseX i="494" alpha="177772.82601735706" sparseCutoff="1.0000000000000000"/>
      <sparseX i="495" alpha="-39015.805010461110" sparseCutoff="1.0000000000000000"/>
      <sparseX i="496" alpha="214074.07752018393" sparseCutoff="1.0000000000000000"/>
      <sparseX i="497" alpha="-44338.768499809987" sparseCutoff="1.0000000000000000"/>
      <sparseX i="498" alpha="60093.706715060813" sparseCutoff="1.0000000000000000"/>
      <sparseX i="499" alpha="2890.1616960031083" sparseCutoff="1.0000000000000000"/>
      <sparseX i="500" alpha="-10247.887432112304" sparseCutoff="1.0000000000000000"/>
      <sparseX i="501" alpha="2674.2498274363734" sparseCutoff="1.0000000000000000"/>
      <sparseX i="502" alpha="-44999.463746861074" sparseCutoff="1.0000000000000000"/>
      <sparseX i="503" alpha="-85.459601185466823" sparseCutoff="1.0000000000000000"/>
      <sparseX i="504" alpha="39311.454054516682" sparseCutoff="1.0000000000000000"/>
      <sparseX i="505" alpha="-63741.187366128041" sparseCutoff="1.0000000000000000"/>
      <sparseX i="506" alpha="28071.145400036403" sparseCutoff="1.0000000000000000"/>
      <sparseX i="507" alpha="-40425.481879189821" sparseCutoff="1.0000000000000000"/>
      <sparseX i="508" alpha="-143604.67027526550" sparseCutoff="1.0000000000000000"/>
      <sparseX i="509" alpha="-111861.80642628133" sparseCutoff="1.0000000000000000"/>
      <sparseX i="510" alpha="17459.744968340376" sparseCutoff="1.0000000000000000"/>
      <sparseX i="511" alpha="158827.55328387310" sparseCutoff="1.0000000000000000"/>
      <sparseX i="512" alpha="85887.577071417705" sparseCutoff="1.0000000000000000"/>
      <sparseX i="513" alpha="24237.024197084236" sparseCutoff="1.0000000000000000"/>
      <sparseX i="514" alpha="-216765.57875082910" sparseCutoff="1.0000000000000000"/>
      <sparseX i="515" alpha="128440.05987633865" sparseCutoff="1.0000000000000000"/>
      <sparseX i="516" alpha="-3287.9220712517167" sparseCutoff="1.0000000000000000"/>
      <sparseX i="517" alpha="218728.70434613730" sparseCutoff="1.0000000000000000"/>
      <sparseX i="518" alpha="-78736.938677694372" sparseCutoff="1.0000000000000000"/>
      <sparseX i="519" alpha="-23712.079622819772" sparseCutoff="1.0000000000000000"/>
      <sparseX i="520" alpha="62380.936029877928" sparseCutoff="1.0000000000000000"/>
      <sparseX i="521" alpha="-106201.99400446497" sparseCutoff="1.0000000000000000"/>
      <sparseX i="522" alpha="201524.11371504902" sparseCutoff="1.0000000000000000"/>
      <sparseX i="523" alpha="15611.369675625234" sparseCutoff="1.0000000000000000"/>
      <sparseX i="524" alpha="194169.79613975057" sparseCutoff="1.0000000000000000"/>
      <sparseX i="525" alpha="-75456.354786502765" sparseCutoff="1.0000000000000000"/>
      <sparseX i="526" alpha="-62571.077902317455" sparseCutoff="1.0000000000000000"/>
      <sparseX i="527" alpha="265030.25919125456" sparseCutoff="1.0000000000000000"/>
      <sparseX i="528" alpha="393085.32334190933" sparseCutoff="1.0000000000000000"/>
      <sparseX i="529" alpha="80715.624313213353" sparseCutoff="1.0000000000000000"/>
      <sparseX i="530" alpha="-81860.254935546167" sparseCutoff="1.0000000000000000"/>
      <sparseX i="531" alpha="-66842.785601631767" sparseCutoff="1.0000000000000000"/>
      <sparseX i="532" alpha="236691.36039893772" sparseCutoff="1.0000000000000000"/>
      <sparseX i="533" alpha="37621.113808640192" sparseCutoff="1.0000000000000000"/>
      <sparseX i="534" alpha="-70228.713030350613" sparseCutoff="1.0000000000000000"/>
      <sparseX i="535" alpha="-16.684452574133495" sparseCutoff="1.0000000000000000"/>
      <sparseX i="536" alpha="-95299.647308392290" sparseCutoff="1.0000000000000000"/>
      <sparseX i="537" alpha="-77962.890406459890" sparseCutoff="1.0000000000000000"/>
      <sparseX i="538" alpha="-73206.734496950914" sparseCutoff="1.0000000000000000"/>
      <sparseX i="539" alpha="15351.899588615790" sparseCutoff="1.0000000000000000"/>
      <sparseX i="540" alpha="14820.917572374246" sparseCutoff="1.0000000000000000"/>
      <sparseX i="541" alpha="-26029.044211394568" sparseCutoff="1.0000000000000000"/>
      <sparseX i="542" alpha="284667.44944240834" sparseCutoff="1.0000000000000000"/>
      <sparseX i="543" alpha="-251615.07885372511" sparseCutoff="1.0000000000000000"/>
      <sparseX i="544" alpha="186441.67804810969" sparseCutoff="1.0000000000000000"/>
      <sparseX i="545" alpha="-25129.114155995205" sparseCutoff="1.0000000000000000"/>
      <sparseX i="546" alpha="-287664.93646161375" sparseCutoff="1.0000000000000000"/>
      <sparseX i="547" alpha="74765.889556370021" sparseCutoff="1.0000000000000000"/>
      <sparseX i="548" alpha="-155780.99008070241" sparseCutoff="1.0000000000000000"/>
      <sparseX i="549" alpha="-128375.34096020930" sparseCutoff="1.0000000000000000"/>
      <sparseX i="550" alpha="-286136.61778935476" sparseCutoff="1.0000000000000000"/>
      <sparseX i="551" alpha="-3968.3280911971715" sparseCutoff="1.0000000000000000"/>
      <sparseX i="552" alpha="285050.92533184699" sparseCutoff="1.0000000000000000"/>
      <sparseX i="553" alpha="160161.79007738901" sparseCutoff="1.0000000000000000"/>
      <sparseX i="554" alpha="-179913.37218029803" sparseCutoff="1.0000000000000000"/>
      <sparseX i="555" alpha="-316578.35578698409" sparseCutoff="1.0000000000000000"/>
      <sparseX i="556" alpha="23682.469405513370" sparseCutoff="1.0000000000000000"/>
      <sparseX i="557" alpha="-286865.67809577973" sparseCutoff="1.0000000000000000"/>
      <sparseX i="558" alpha="-101149.34481068609" sparseCutoff="1.0000000000000000"/>
      <sparseX i="559" alpha="-70738.289386608609" sparseCutoff="1.0000000000000000"/>
      <sparseX i="560" alpha="104714.20421069195" sparseCutoff="1.0000000000000000"/>
      <sparseX i="561" alpha="40751.773495135210" sparseCutoff="1.0000000000000000"/>
      <sparseX i="562" alpha="122349.82764693661" sparseCutoff="1.0000000000000000"/>
      <sparseX i="563" alpha="52680.608100489291" sparseCutoff="1.0000000000000000"/>
      <sparseX i="564" alpha="-269582.37760980515" sparseCutoff="1.0000000000000000"/>
      <sparseX i="565" alpha="-125383.41501237213" sparseCutoff="1.0000000000000000"/>
      <sparseX i="566" alpha="-99550.728541406876" sparseCutoff="1.0000000000000000"/>
      <sparseX i="567" alpha="-98213.634915704533" sparseCutoff="1.0000000000000000"/>
      <sparseX i="568" alpha="127492.12519832332" sparseCutoff="1.0000000000000000"/>
      <sparseX i="569" alpha="15901.997941125948" sparseCutoff="1.0000000000000000"/>
      <sparseX i="570" alpha="267581.49875000957" sparseCutoff="1.0000000000000000"/>
      <sparseX i="571" alpha="-13070.427937480932" sparseCutoff="1.0000000000000000"/>
      <sparseX i="572" alpha="-14154.463629741886" sparseCutoff="1.0000000000000000"/>
      <sparseX i="573" alpha="13346.671844882387" sparseCutoff="1.0000000000000000"/>
      <sparseX i="574" alpha="67073.702567352433" sparseCutoff="1.0000000000000000"/>
      <sparseX i="575" alpha="-7208.8384883082981" sparseCutoff="1.0000000000000000"/>
      <sparseX i="576" alpha="-21033.283240418888" sparseCutoff="1.0000000000000000"/>
      <sparseX i="577" alpha="-72320.102512742887" sparseCutoff="1.0000000000000000"/>
      <sparseX i="578" alpha="-10011.184810202985" sparseCutoff="1.0000000000000000"/>
      <sparseX i="579" alpha="1973.3365075351467" sparseCutoff="1.0000000000000000"/>
      <sparseX i="580" alpha="68632.262063471528" sparseCutoff="1.0000000000000000"/>
      <sparseX i="581" alpha="-198964.94852050929" sparseCutoff="1.0000000000000000"/>
      <sparseX i="582" alpha="36087.234613699868" sparseCutoff="1.0000000000000000"/>
      <sparseX i="583" alpha="1916.3856946669709" sparseCutoff="1.0000000000000000"/>
      <sparseX i="584" alpha="9152.5333951320408" sparseCutoff="1.0000000000000000"/>
      <sparseX i="585" alpha="5959.0918898395175" sparseCutoff="1.0000000000000000"/>
      <sparseX i="586" alpha="-111243.19783131042" sparseCutoff="1.0000000000000000"/>
      <sparseX i="587" alpha="-67143.368773583643" sparseCutoff="1.0000000000000000"/>
      <sparseX i="588" alpha="-17813.592089575101" sparseCutoff="1.0000000000000000"/>
      <sparseX i="589" alpha="-29742.651407192716" sparseCutoff="1.0000000000000000"/>
      <sparseX i="590" alpha="9532.4551220498288" sparseCutoff="1.0000000000000000"/>
      <sparseX i="591" alpha="17792.705151757888" sparseCutoff="1.0000000000000000"/>
      <sparseX i="592" alpha="-26816.417153052538" sparseCutoff="1.0000000000000000"/>
      <sparseX i="593" alpha="50264.684829765807" sparseCutoff="1.0000000000000000"/>
      <sparseX i="594" alpha="7810.5849760250776" sparseCutoff="1.0000000000000000"/>
      <sparseX i="595" alpha="3662.7050045687597" sparseCutoff="1.0000000000000000"/>
      <sparseX i="596" alpha="26332.229206334112" sparseCutoff="1.0000000000000000"/>
      <sparseX i="597" alpha="-62473.569424978799" sparseCutoff="1.0000000000000000"/>
      <sparseX i="598" alpha="20418.980342638017" sparseCutoff="1.0000000000000000"/>
      <sparseX i="599" alpha="-102798.91551683475" sparseCutoff="1.0000000000000000"/>
      <sparseX i="600" alpha="-15300.602300567465" sparseCutoff="1.0000000000000000"/>
      <sparseX i="601" alpha="16367.848659213198" sparseCutoff="1.0000000000000000"/>
      <sparseX i="602" alpha="55711.558078260670" sparseCutoff="1.0000000000000000"/>
      <sparseX i="603" alpha="-128594.26866514439" sparseCutoff="1.0000000000000000"/>
      <sparseX i="604" alpha="-149169.89376804201" sparseCutoff="1.0000000000000000"/>
      <sparseX i="605" alpha="54109.928271009543" sparseCutoff="1.0000000000000000"/>
      <sparseX i="606" alpha="16339.323399579049" sparseCutoff="1.0000000000000000"/>
      <sparseX i="607" alpha="17547.421748245059" sparseCutoff="1.0000000000000000"/>
      <sparseX i="608" alpha="-39556.929815282318" sparseCutoff="1.0000000000000000"/>
      <sparseX i="609" alpha="13465.618122252537" sparseCutoff="1.0000000000000000"/>
      <sparseX i="610" alpha="-150361.59874498006" sparseCutoff="1.0000000000000000"/>
      <sparseX i="611" alpha="120959.36286270911" sparseCutoff="1.0000000000000000"/>
      <sparseX i="612" alpha="-134232.22014774513" sparseCutoff="1.0000000000000000"/>
      <sparseX i="613" alpha="147130.16912630838" sparseCutoff="1.0000000000000000"/>
      <sparseX i="614" alpha="35161.757326500592" sparseCutoff="1.0000000000000000"/>
      <sparseX i="615" alpha="30333.319861330525" sparseCutoff="1.0000000000000000"/>
      <sparseX i="616" alpha="-255653.58582469408" sparseCutoff="1.0000000000000000"/>
      <sparseX i="617" alpha="65099.861839980054" sparseCutoff="1.0000000000000000"/>
      <sparseX i="618" alpha="153452.59116369058" sparseCutoff="1.0000000000000000"/>
      <sparseX i="619" alpha="-2458.6337813850964" sparseCutoff="1.0000000000000000"/>
      <sparseX i="620" alpha="-284465.16652706929" sparseCutoff="1.0000000000000000"/>
      <sparseX i="621" alpha="49927.057732216599" sparseCutoff="1.0000000000000000"/>
      <sparseX i="622" alpha="-217483.20474318578" sparseCutoff="1.0000000000000000"/>
      <sparseX i="623" alpha="-122511.47512866752" sparseCutoff="1.0000000000000000"/>
      <sparseX i="624" alpha="-126658.00153276090" sparseCutoff="1.0000000000000000"/>
      <sparseX i="625" alpha="-257667.30908913893" sparseCutoff="1.0000000000000000"/>
      <sparseX i="626" alpha="69557.228521772704" sparseCutoff="1.0000000000000000"/>
      <sparseX i="627" alpha="-187136.88911934462" sparseCutoff="1.0000000000000000"/>
      <sparseX i="628" alpha="-158662.75584936506" sparseCutoff="1.0000000000000000"/>
      <sparseX i="629" alpha="97906.878691946025" sparseCutoff="1.0000000000000000"/>
      <sparseX i="630" alpha="-10606.885893730561" sparseCutoff="1.0000000000000000"/>
      <sparseX i="631" alpha="-109602.81348789590" sparseCutoff="1.0000000000000000"/>
      <sparseX i="632" alpha="-108815.30642811664" sparseCutoff="1.0000000000000000"/>
      <sparseX i="633" alpha="258017.35654492173" sparseCutoff="1.0000000000000000"/>
      <sparseX i="634" alpha="55848.569635647487" sparseCutoff="1.0000000000000000"/>
      <sparseX i="635" alpha="-3048.4269603056555" sparseCutoff="1.0000000000000000"/>
      <sparseX i="636" alpha="-74573.376070521655" sparseCutoff="1.0000000000000000"/>
      <sparseX i="637" alpha="-39287.890907949237" sparseCutoff="1.0000000000000000"/>
      <sparseX i="638" alpha="42518.935125851618" sparseCutoff="1.0000000000000000"/>
      <sparseX i="639" alpha="-1937.0511864714877" sparseCutoff="1.0000000000000000"/>
      <sparseX i="640" alpha="77947.839740688112" sparseCutoff="1.0000000000000000"/>
      <sparseX i="641" alpha="-4095.1083422751826" sparseCutoff="1.0000000000000000"/>
      <sparseX i="642" alpha="-202460.73761665885" sparseCutoff="1.0000000000000000"/>
      <sparseX i="643" alpha="21278.524194928235" sparseCutoff="1.0000000000000000"/>
      <sparseX i="644" alpha="45029.009213639540" sparseCutoff="1.0000000000000000"/>
      <sparseX i="645" alpha="-17913.235260647270" sparseCutoff="1.0000000000000000"/>
      <sparseX i="646" alpha="-100492.63232306710" sparseCutoff="1.0000000000000000"/>
      <sparseX i="647" alpha="-88658.686207987703" sparseCutoff="1.0000000000000000"/>
      <sparseX i="648" alpha="12365.215909335806" sparseCutoff="1.0000000000000000"/>
      <sparseX i="649" alpha="-69432.850894247400" sparseCutoff="1.0000000000000000"/>
      <sparseX i="650" alpha="61806.329559947721" sparseCutoff="1.0000000000000000"/>
      <sparseX i="651" alpha="213371.45191145228" sparseCutoff="1.0000000000000000"/>
      <sparseX i="652" alpha="9846.4394806563232" sparseCutoff="1.0000000000000000"/>
      <sparseX i="653" alpha="-127230.30601268150" sparseCutoff="1.0000000000000000"/>
      <sparseX i="654" alpha="-76071.281409593721" sparseCutoff="1.0000000000000000"/>
      <sparseX i="655" alpha="71649.911654376963" sparseCutoff="1.0000000000000000"/>
      <sparseX i="656" alpha="198323.34446676821" sparseCutoff="1.0000000000000000"/>
      <sparseX i="657" alpha="24659.884722972351" sparseCutoff="1.0000000000000000"/>
      <sparseX i="658" alpha="127624.56825677604" sparseCutoff="1.0000000000000000"/>
      <sparseX i="659" alpha="58826.041878793876" sparseCutoff="1.0000000000000000"/>
      <sparseX i="660" alpha="-49049.882756872430" sparseCutoff="1.0000000000000000"/>
      <sparseX i="661" alpha="-150636.96994018223" sparseCutoff="1.0000000000000000"/>
      <sparseX i="662" alpha="-110239.27506704618" sparseCutoff="1.0000000000000000"/>
      <sparseX i="663" alpha="9945.1292714673018" sparseCutoff="1.0000000000000000"/>
      <sparseX i="664" alpha="37698.500043477441" sparseCutoff="1.0000000000000000"/>
      <sparseX i="665" alpha="-59203.291363818273" sparseCutoff="1.0000000000000000"/>
      <sparseX i="666" alpha="-188362.31959335486" sparseCutoff="1.0000000000000000"/>
      <sparseX i="667" alpha="-310.19904844383484" sparseCutoff="1.0000000000000000"/>
      <sparseX i="668" alpha="280742.40900943341" sparseCutoff="1.0000000000000000"/>
      <sparseX i="669" alpha="44534.551170063802" sparseCutoff="1.0000000000000000"/>
      <sparseX i="670" alpha="47413.885300204944" sparseCutoff="1.0000000000000000"/>
      <sparseX i="671" alpha="-18902.780164257292" sparseCutoff="1.0000000000000000"/>
      <sparseX i="672" alpha="248761.92843012375" sparseCutoff="1.0000000000000000"/>
      <sparseX i="673" alpha="164251.63858522454" sparseCutoff="1.0000000000000000"/>
      <sparseX i="674" alpha="-72829.994016968587" sparseCutoff="1.0000000000000000"/>
      <sparseX i="675" alpha="-139241.26001675543" sparseCutoff="1.0000000000000000"/>
      <sparseX i="676" alpha="-341972.45306524722" sparseCutoff="1.0000000000000000"/>
      <sparseX i="677" alpha="106812.26753119139" sparseCutoff="1.0000000000000000"/>
      <sparseX i="678" alpha="113680.23590049804" sparseCutoff="1.0000000000000000"/>
      <sparseX i="679" alpha="354853.96864809329" sparseCutoff="1.0000000000000000"/>
      <sparseX i="680" alpha="123263.06760030477" sparseCutoff="1.0000000000000000"/>
      <sparseX i="681" alpha="29276.839463345943" sparseCutoff="1.0000000000000000"/>
      <sparseX i="682" alpha="-64544.389694117555" sparseCutoff="1.0000000000000000"/>
      <sparseX i="683" alpha="-420463.13381952286" sparseCutoff="1.0000000000000000"/>
      <sparseX i="684" alpha="-90609.490552664225" sparseCutoff="1.0000000000000000"/>
      <sparseX i="685" alpha="-44628.658460580060" sparseCutoff="1.0000000000000000"/>
      <sparseX i="686" alpha="-44679.489515403176" sparseCutoff="1.0000000000000000"/>
      <sparseX i="687" alpha="-18724.005324775051" sparseCutoff="1.0000000000000000"/>
      <sparseX i="688" alpha="-324617.57500256685" sparseCutoff="1.0000000000000000"/>
      <sparseX i="689" alpha="81180.501374226442" sparseCutoff="1.0000000000000000"/>
      <sparseX i="690" alpha="225354.15340693342" sparseCutoff="1.0000000000000000"/>
      <sparseX i="691" alpha="-38703.878271262154" sparseCutoff="1.0000000000000000"/>
      <sparseX i="692" alpha="-84719.981406014063" sparseCutoff="1.0000000000000000"/>
      <sparseX i="693" alpha="-102715.11961332506" sparseCutoff="1.0000000000000000"/>
      <sparseX i="694" alpha="436919.56108697865" sparseCutoff="1.0000000000000000"/>
      <sparseX i="695" alpha="228187.69942885340" sparseCutoff="1.0000000000000000"/>
      <sparseX i="696" alpha="255702.14736167114" sparseCutoff="1.0000000000000000"/>
      <sparseX i="697" alpha="-110521.13626512444" sparseCutoff="1.0000000000000000"/>
      <sparseX i="698" alpha="-179166.35083563643" sparseCutoff="1.0000000000000000"/>
      <sparseX i="699" alpha="138751.67599575029" sparseCutoff="1.0000000000000000"/>
      <sparseX i="700" alpha="-69975.274187097239" sparseCutoff="1.0000000000000000"/>
      <sparseX i="701" alpha="-32260.631495495978" sparseCutoff="1.0000000000000000"/>
      <sparseX i="702" alpha="-105189.40919350207" sparseCutoff="1.0000000000000000"/>
      <sparseX i="703" alpha="-152111.54232258123" sparseCutoff="1.0000000000000000"/>
      <sparseX i="704" alpha="-280040.86266610574" sparseCutoff="1.0000000000000000"/>
      <sparseX i="705" alpha="-92242.970136013610" sparseCutoff="1.0000000000000000"/>
      <sparseX i="706" alpha="-492647.59360504983" sparseCutoff="1.0000000000000000"/>
      <sparseX i="707" alpha="-37159.391912311694" sparseCutoff="1.0000000000000000"/>
      <sparseX i="708" alpha="-144943.50241126152" sparseCutoff="1.0000000000000000"/>
      <sparseX i="709" alpha="-2768.1378310640393" sparseCutoff="1.0000000000000000"/>
      <sparseX i="710" alpha="-166876.85452035168" sparseCutoff="1.0000000000000000"/>
      <sparseX i="711" alpha="16631.459262374872" sparseCutoff="1.0000000000000000"/>
      <sparseX i="712" alpha="-134573.34513081136" sparseCutoff="1.0000000000000000"/>
      <sparseX i="713" alpha="-36967.332883126357" sparseCutoff="1.0000000000000000"/>
      <sparseX i="714" alpha="105403.48285956413" sparseCutoff="1.0000000000000000"/>
      <sparseX i="715" alpha="-20874.546488748463" sparseCutoff="1.0000000000000000"/>
      <sparseX i="716" alpha="49043.795633972739" sparseCutoff="1.0000000000000000"/>
      <sparseX i="717" alpha="84389.399845659791" sparseCutoff="1.0000000000000000"/>
      <sparseX i="718" alpha="67976.986046251724" sparseCutoff="1.0000000000000000"/>
      <sparseX i="719" alpha="272325.13613322319" sparseCutoff="1.0000000000000000"/>
      <sparseX i="720" alpha="-21031.821601830074" sparseCutoff="1.0000000000000000"/>
      <sparseX i="721" alpha="98129.080528336548" sparseCutoff="1.0000000000000000"/>
      <sparseX i="722" alpha="25800.562672158052" sparseCutoff="1.0000000000000000"/>
      <sparseX i="723" alpha="48899.665112165691" sparseCutoff="1.0000000000000000"/>
      <sparseX i="724" alpha="108.03829106576323" sparseCutoff="1.0000000000000000"/>
      <sparseX i="725" alpha="-6474.2990706935825" sparseCutoff="1.0000000000000000"/>
      <sparseX i="726" alpha="-40495.952817592159" sparseCutoff="1.0000000000000000"/>
      <sparseX i="727" alpha="13863.250184980394" sparseCutoff="1.0000000000000000"/>
      <sparseX i="728" alpha="-26629.259324578950" sparseCutoff="1.0000000000000000"/>
      <sparseX i="729" alpha="59514.580380886007" sparseCutoff="1.0000000000000000"/>
      <sparseX i="730" alpha="103176.02422729506" sparseCutoff="1.0000000000000000"/>
      <sparseX i="731" alpha="-9809.6028374434591" sparseCutoff="1.0000000000000000"/>
      <sparseX i="732" alpha="-129999.35024850111" sparseCutoff="1.0000000000000000"/>
      <sparseX i="733" alpha="-28181.209926070158" sparseCutoff="1.0000000000000000"/>
      <sparseX i="734" alpha="-853.86252848589891" sparseCutoff="1.0000000000000000"/>
      <sparseX i="735" alpha="-8674.0643947274348" sparseCutoff="1.0000000000000000"/>
      <sparseX i="736" alpha="81672.346984928910" sparseCutoff="1.0000000000000000"/>
      <sparseX i="737" alpha="71774.533525712352" sparseCutoff="1.0000000000000000"/>
      <sparseX i="738" alpha="5305.8371538442079" sparseCutoff="1.0000000000000000"/>
      <sparseX i="739" alpha="5362.8346492653181" sparseCutoff="1.0000000000000000"/>
      <sparseX i="740" alpha="5466.7253338712726" sparseCutoff="1.0000000000000000"/>
      <sparseX i="741" alpha="-40883.445175159119" sparseCutoff="1.0000000000000000"/>
      <sparseX i="742" alpha="-23405.232096998345" sparseCutoff="1.0000000000000000"/>
      <sparseX i="743" alpha="8900.9968117718945" sparseCutoff="1.0000000000000000"/>
      <sparseX i="744" alpha="-38810.685873250804" sparseCutoff="1.0000000000000000"/>
      <sparseX i="745" alpha="4061.3471608839709" sparseCutoff="1.0000000000000000"/>
      <sparseX i="746" alpha="19361.994180890571" sparseCutoff="1.0000000000000000"/>
      <sparseX i="747" alpha="102335.40318086588" sparseCutoff="1.0000000000000000"/>
      <sparseX i="748" alpha="-1565.1128904091445" sparseCutoff="1.0000000000000000"/>
      <sparseX i="749" alpha="72662.623804211893" sparseCutoff="1.0000000000000000"/>
      <sparseX i="750" alpha="1390.6656087548897" sparseCutoff="1.0000000000000000"/>
      <sparseX i="751" alpha="62130.513970108303" sparseCutoff="1.0000000000000000"/>
      <sparseX i="752" alpha="174138.33713708277" sparseCutoff="1.0000000000000000"/>
      <sparseX i="753" alpha="221349.00010169146" sparseCutoff="1.0000000000000000"/>
      <sparseX i="754" alpha="-28560.974803264358" sparseCutoff="1.0000000000000000"/>
      <sparseX i="755" alpha="3736.9333583813850" sparseCutoff="1.0000000000000000"/>
      <sparseX i="756" alpha="-56468.076967607667" sparseCutoff="1.0000000000000000"/>
      <sparseX i="757" alpha="-190659.37625436563" sparseCutoff="1.0000000000000000"/>
      <sparseX i="758" alpha="-36098.231300063861" sparseCutoff="1.0000000000000000"/>
      <sparseX i="759" alpha="-73066.905177147419" sparseCutoff="1.0000000000000000"/>
      <sparseX i="760" alpha="45374.974727676723" sparseCutoff="1.0000000000000000"/>
      <sparseX i="761" alpha="93218.098030835667" sparseCutoff="1.0000000000000000"/>
      <sparseX i="762" alpha="-2470.3257904738675" sparseCutoff="1.0000000000000000"/>
      <sparseX i="763" alpha="-75151.769461319171" sparseCutoff="1.0000000000000000"/>
      <sparseX i="764" alpha="-39726.743200325334" sparseCutoff="1.0000000000000000"/>
      <sparseX i="765" alpha="385940.71093767131" sparseCutoff="1.0000000000000000"/>
      <sparseX i="766" alpha="67248.943505090196" sparseCutoff="1.0000000000000000"/>
      <sparseX i="767" alpha="93687.871339561243" sparseCutoff="1.0000000000000000"/>
      <sparseX i="768" alpha="194782.58653584687" sparseCutoff="1.0000000000000000"/>
      <sparseX i="769" alpha="40387.300203019426" sparseCutoff="1.0000000000000000"/>
      <sparseX i="770" alpha="-45569.206663616707" sparseCutoff="1.0000000000000000"/>
      <sparseX i="771" alpha="56529.593722421654" sparseCutoff="1.0000000000000000"/>
      <sparseX i="772" alpha="-91960.211989648407" sparseCutoff="1.0000000000000000"/>
      <sparseX i="773" alpha="-78277.213698864842" sparseCutoff="1.0000000000000000"/>
      <sparseX i="774" alpha="-174996.30138484566" sparseCutoff="1.0000000000000000"/>
      <sparseX i="775" alpha="8161.6457820072901" sparseCutoff="1.0000000000000000"/>
      <sparseX i="776" alpha="-70423.191129032755" sparseCutoff="1.0000000000000000"/>
      <sparseX i="777" alpha="-69611.767320167579" sparseCutoff="1.0000000000000000"/>
      <sparseX i="778" alpha="-17288.543630454082" sparseCutoff="1.0000000000000000"/>
      <sparseX i="779" alpha="-18272.003778362090" sparseCutoff="1.0000000000000000"/>
      <sparseX i="780" alpha="-19174.997908016907" sparseCutoff="1.0000000000000000"/>
      <sparseX i="781" alpha="95797.381693288626" sparseCutoff="1.0000000000000000"/>
      <sparseX i="782" alpha="92321.085551817392" sparseCutoff="1.0000000000000000"/>
      <sparseX i="783" alpha="-97934.028612624825" sparseCutoff="1.0000000000000000"/>
      <sparseX i="784" alpha="87783.806832743343" sparseCutoff="1.0000000000000000"/>
      <sparseX i="785" alpha="58337.160610296662" sparseCutoff="1.0000000000000000"/>
      <sparseX i="786" alpha="-156481.76108154180" sparseCutoff="1.0000000000000000"/>
      <sparseX i="787" alpha="431987.59288871853" sparseCutoff="1.0000000000000000"/>
      <sparseX i="788" alpha="3193.1550238224145" sparseCutoff="1.0000000000000000"/>
      <sparseX i="789" alpha="-155477.46292508725" sparseCutoff="1.0000000000000000"/>
      <sparseX i="790" alpha="58537.100638559976" sparseCutoff="1.0000000000000000"/>
      <sparseX i="791" alpha="-101546.45485702962" sparseCutoff="1.0000000000000000"/>
      <sparseX i="792" alpha="-252496.15131037435" sparseCutoff="1.0000000000000000"/>
      <sparseX i="793" alpha="-101694.19486967949" sparseCutoff="1.0000000000000000"/>
      <sparseX i="794" alpha="-60581.854459472117" sparseCutoff="1.0000000000000000"/>
      <sparseX i="795" alpha="188481.71943258672" sparseCutoff="1.0000000000000000"/>
      <sparseX i="796" alpha="121602.31971934736" sparseCutoff="1.0000000000000000"/>
      <sparseX i="797" alpha="-24778.058440004748" sparseCutoff="1.0000000000000000"/>
      <sparseX i="798" alpha="393603.02927494835" sparseCutoff="1.0000000000000000"/>
      <sparseX i="799" alpha="-106514.29976133011" sparseCutoff="1.0000000000000000"/>
      <sparseX i="800" alpha="-103360.67051336002" sparseCutoff="1.0000000000000000"/>
      <sparseX i="801" alpha="186933.65112305919" sparseCutoff="1.0000000000000000"/>
      <sparseX i="802" alpha="225897.53163696601" sparseCutoff="1.0000000000000000"/>
      <sparseX i="803" alpha="117857.07546665541" sparseCutoff="1.0000000000000000"/>
      <sparseX i="804" alpha="-202887.45380588010" sparseCutoff="1.0000000000000000"/>
      <sparseX i="805" alpha="-221410.93968339593" sparseCutoff="1.0000000000000000"/>
      <sparseX i="806" alpha="-109037.47817107401" sparseCutoff="1.0000000000000000"/>
      <sparseX i="807" alpha="54467.146875919767" sparseCutoff="1.0000000000000000"/>
      <sparseX i="808" alpha="-54233.746214539249" sparseCutoff="1.0000000000000000"/>
      <sparseX i="809" alpha="65315.054878477560" sparseCutoff="1.0000000000000000"/>
      <sparseX i="810" alpha="14102.471670893830" sparseCutoff="1.0000000000000000"/>
      <sparseX i="811" alpha="-20848.978910771621" sparseCutoff="1.0000000000000000"/>
      <sparseX i="812" alpha="167068.32384748507" sparseCutoff="1.0000000000000000"/>
      <sparseX i="813" alpha="-71886.060866635060" sparseCutoff="1.0000000000000000"/>
      <sparseX i="814" alpha="-86611.055691660324" sparseCutoff="1.0000000000000000"/>
      <sparseX i="815" alpha="-8755.0687104039898" sparseCutoff="1.0000000000000000"/>
      <sparseX i="816" alpha="-15768.184868445991" sparseCutoff="1.0000000000000000"/>
      <sparseX i="817" alpha="-152661.04528384746" sparseCutoff="1.0000000000000000"/>
      <sparseX i="818" alpha="237331.94272016452" sparseCutoff="1.0000000000000000"/>
      <sparseX i="819" alpha="492.94813830093329" sparseCutoff="1.0000000000000000"/>
      <sparseX i="820" alpha="-103327.87196863897" sparseCutoff="1.0000000000000000"/>
      <sparseX i="821" alpha="129285.31011851037" sparseCutoff="1.0000000000000000"/>
      <sparseX i="822" alpha="21271.026378498089" sparseCutoff="1.0000000000000000"/>
      <sparseX i="823" alpha="118590.90858065138" sparseCutoff="1.0000000000000000"/>
      <sparseX i="824" alpha="9779.9941895609099" sparseCutoff="1.0000000000000000"/>
      <sparseX i="825" alpha="-90376.914583943129" sparseCutoff="1.0000000000000000"/>
      <sparseX i="826" alpha="-145600.40399489645" sparseCutoff="1.0000000000000000"/>
      <sparseX i="827" alpha="208157.23135863803" sparseCutoff="1.0000000000000000"/>
      <sparseX i="828" alpha="57044.744817660074" sparseCutoff="1.0000000000000000"/>
      <sparseX i="829" alpha="195540.26845284613" sparseCutoff="1.0000000000000000"/>
      <sparseX i="830" alpha="25798.500584061654" sparseCutoff="1.0000000000000000"/>
      <sparseX i="831" alpha="-74573.308068141414" sparseCutoff="1.0000000000000000"/>
      <sparseX i="832" alpha="174539.39450193348" sparseCutoff="1.0000000000000000"/>
      <sparseX i="833" alpha="-19334.632884657083" sparseCutoff="1.0000000000000000"/>
      <sparseX i="834" alpha="1788.2366407316654" sparseCutoff="1.0000000000000000"/>
      <sparseX i="835" alpha="-2453.2113700908121" sparseCutoff="1.0000000000000000"/>
      <sparseX i="836" alpha="-596.53376781694794" sparseCutoff="1.0000000000000000"/>
      <sparseX i="837" alpha="-24843.416731828009" sparseCutoff="1.0000000000000000"/>
      <sparseX i="838" alpha="14243.425094614162" sparseCutoff="1.0000000000000000"/>
      <sparseX i="839" alpha="63295.317402423330" sparseCutoff="1.0000000000000000"/>
      <sparseX i="840" alpha="4420.3578800885189" sparseCutoff="1.0000000000000000"/>
      <sparseX i="841" alpha="-12677.317187446915" sparseCutoff="1.0000000000000000"/>
      <sparseX i="842" alpha="-20931.522731433703" sparseCutoff="1.0000000000000000"/>
      <sparseX i="843" alpha="-8089.0159941529118" sparseCutoff="1.0000000000000000"/>
      <sparseX i="844" alpha="139456.14284845974" sparseCutoff="1.0000000000000000"/>
      <sparseX i="845" alpha="51524.701619750325" sparseCutoff="1.0000000000000000"/>
      <sparseX i="846" alpha="-109615.72518412395" sparseCutoff="1.0000000000000000"/>
      <sparseX i="847" alpha="14541.789186551994" sparseCutoff="1.0000000000000000"/>
      <sparseX i="848" alpha="25594.005738671487" sparseCutoff="1.0000000000000000"/>
      <sparseX i="849" alpha="-46195.174130516287" sparseCutoff="1.0000000000000000"/>
      <sparseX i="850" alpha="15350.870439392716" sparseCutoff="1.0000000000000000"/>
      <sparseX i="851" alpha="-125016.12616068911" sparseCutoff="1.0000000000000000"/>
      <sparseX i="852" alpha="215293.38833141790" sparseCutoff="1.0000000000000000"/>
      <sparseX i="853" alpha="-88546.505835921111" sparseCutoff="1.0000000000000000"/>
      <sparseX i="854" alpha="-142940.04860477737" sparseCutoff="1.0000000000000000"/>
      <sparseX i="855" alpha="-74501.743492107780" sparseCutoff="1.0000000000000000"/>
      <sparseX i="856" alpha="-204889.66823123192" sparseCutoff="1.0000000000000000"/>
      <sparseX i="857" alpha="190513.58362163740" sparseCutoff="1.0000000000000000"/>
      <sparseX i="858" alpha="-71810.029971792988" sparseCutoff="1.0000000000000000"/>
      <sparseX i="859" alpha="107173.04616673937" sparseCutoff="1.0000000000000000"/>
      <sparseX i="860" alpha="15061.216691543390" sparseCutoff="1.0000000000000000"/>
      <sparseX i="861" alpha="10173.971538693453" sparseCutoff="1.0000000000000000"/>
      <sparseX i="862" alpha="127612.09394070310" sparseCutoff="1.0000000000000000"/>
      <sparseX i="863" alpha="272.87085358053412" sparseCutoff="1.0000000000000000"/>
      <sparseX i="864" alpha="15498.537144330870" sparseCutoff="1.0000000000000000"/>
      <sparseX i="865" alpha="8313.0017215164971" sparseCutoff="1.0000000000000000"/>
      <sparseX i="866" alpha="144383.54123622051" sparseCutoff="1.0000000000000000"/>
      <sparseX i="867" alpha="43332.328168299442" sparseCutoff="1.0000000000000000"/>
      <sparseX i="868" alpha="28135.821568861407" sparseCutoff="1.0000000000000000"/>
      <sparseX i="869" alpha="-80265.589527315489" sparseCutoff="1.0000000000000000"/>
      <sparseX i="870" alpha="-70437.465533362789" sparseCutoff="1.0000000000000000"/>
      <sparseX i="871" alpha="-200615.37458237694" sparseCutoff="1.0000000000000000"/>
      <sparseX i="872" alpha="-41008.957378476473" sparseCutoff="1.0000000000000000"/>
      <sparseX i="873" alpha="5543.4717159675010" sparseCutoff="1.0000000000000000"/>
      <sparseX i="874" alpha="-80633.579684336393" sparseCutoff="1.0000000000000000"/>
      <sparseX i="875" alpha="-62479.176999472736" sparseCutoff="1.0000000000000000"/>
      <sparseX i="876" alpha="154603.66152175833" sparseCutoff="1.0000000000000000"/>
      <sparseX i="877" alpha="-304759.37680268375" sparseCutoff="1.0000000000000000"/>
      <sparseX i="878" alpha="-324103.41629871802" sparseCutoff="1.0000000000000000"/>
      <sparseX i="879" alpha="-94570.157136116715" sparseCutoff="1.0000000000000000"/>
      <sparseX i="880" alpha="140179.86882724395" sparseCutoff="1.0000000000000000"/>
      <sparseX i="881" alpha="59998.920950222368" sparseCutoff="1.0000000000000000"/>
      <sparseX i="882" alpha="210932.31626740459" sparseCutoff="1.0000000000000000"/>
      <sparseX i="883" alpha="265122.29776532116" sparseCutoff="1.0000000000000000"/>
      <sparseX i="884" alpha="5539.0774714596137" sparseCutoff="1.0000000000000000"/>
      <sparseX i="885" alpha="176206.69662475368" sparseCutoff="1.0000000000000000"/>
      <sparseX i="886" alpha="-189018.23075190332" sparseCutoff="1.0000000000000000"/>
      <sparseX i="887" alpha="180068.99417486528" sparseCutoff="1.0000000000000000"/>
      <sparseX i="888" alpha="-9016.3423047447723" sparseCutoff="1.0000000000000000"/>
      <sparseX i="889" alpha="13823.883984541524" sparseCutoff="1.0000000000000000"/>
      <sparseX i="890" alpha="110282.68107861982" sparseCutoff="1.0000000000000000"/>
      <sparseX i="891" alpha="-87253.919292369726" sparseCutoff="1.0000000000000000"/>
      <sparseX i="892" alpha="-4368.4211192129615" sparseCutoff="1.0000000000000000"/>
      <sparseX i="893" alpha="221749.79381003947" sparseCutoff="1.0000000000000000"/>
      <sparseX i="894" alpha="4171.6904359708124" sparseCutoff="1.0000000000000000"/>
      <sparseX i="895" alpha="-140078.47255366223" sparseCutoff="1.0000000000000000"/>
      <sparseX i="896" alpha="-98583.207454358999" sparseCutoff="1.0000000000000000"/>
      <sparseX i="897" alpha="-25914.697832763508" sparseCutoff="1.0000000000000000"/>
      <sparseX i="898" alpha="82772.406929065677" sparseCutoff="1.0000000000000000"/>
      <sparseX i="899" alpha="-36260.076469127162" sparseCutoff="1.0000000000000000"/>
      <sparseX i="900" alpha="-371157.71290745784" sparseCutoff="1.0000000000000000"/>
      <sparseX i="901" alpha="-30027.054362376679" sparseCutoff="1.0000000000000000"/>
      <sparseX i="902" alpha="163404.47801095372" sparseCutoff="1.0000000000000000"/>
      <sparseX i="903" alpha="9595.2303837986474" sparseCutoff="1.0000000000000000"/>
      <sparseX i="904" alpha="17163.039204350443" sparseCutoff="1.0000000000000000"/>
      <sparseX i="905" alpha="174765.74281641669" sparseCutoff="1.0000000000000000"/>
      <sparseX i="906" alpha="74379.606032053751" sparseCutoff="1.0000000000000000"/>
      <sparseX i="907" alpha="-334417.39800845343" sparseCutoff="1.0000000000000000"/>
      <sparseX i="908" alpha="-30465.598513139230" sparseCutoff="1.0000000000000000"/>
      <sparseX i="909" alpha="93349.913988323911" sparseCutoff="1.0000000000000000"/>
      <sparseX i="910" alpha="67846.680962124461" sparseCutoff="1.0000000000000000"/>
      <sparseX i="911" alpha="21218.573199419399" sparseCutoff="1.0000000000000000"/>
      <sparseX i="912" alpha="9572.1724793661397" sparseCutoff="1.0000000000000000"/>
      <sparseX i="913" alpha="-86241.639166472727" sparseCutoff="1.0000000000000000"/>
      <sparseX i="914" alpha="74216.190061834612" sparseCutoff="1.0000000000000000"/>
      <sparseX i="915" alpha="41470.391290386833" sparseCutoff="1.0000000000000000"/>
      <sparseX i="916" alpha="7060.7409790690435" sparseCutoff="1.0000000000000000"/>
      <sparseX i="917" alpha="95397.568230839068" sparseCutoff="1.0000000000000000"/>
      <sparseX i="918" alpha="-118986.83206191511" sparseCutoff="1.0000000000000000"/>
      <sparseX i="919" alpha="-333664.43517041433" sparseCutoff="1.0000000000000000"/>
      <sparseX i="920" alpha="-39206.349910757010" sparseCutoff="1.0000000000000000"/>
      <sparseX i="921" alpha="-5681.2109297016514" sparseCutoff="1.0000000000000000"/>
      <sparseX i="922" alpha="-108181.84510485358" sparseCutoff="1.0000000000000000"/>
      <sparseX i="923" alpha="-150760.05271781262" sparseCutoff="1.0000000000000000"/>
      <sparseX i="924" alpha="228871.46868853635" sparseCutoff="1.0000000000000000"/>
      <sparseX i="925" alpha="77227.079256089259" sparseCutoff="1.0000000000000000"/>
      <sparseX i="926" alpha="-93839.137220967677" sparseCutoff="1.0000000000000000"/>
      <sparseX i="927" alpha="-89551.065253580644" sparseCutoff="1.0000000000000000"/>
      <sparseX i="928" alpha="64865.746034728203" sparseCutoff="1.0000000000000000"/>
      <sparseX i="929" alpha="-161287.36207636690" sparseCutoff="1.0000000000000000"/>
      <sparseX i="930" alpha="-43889.525372116041" sparseCutoff="1.0000000000000000"/>
      <sparseX i="931" alpha="202546.92368628626" sparseCutoff="1.0000000000000000"/>
      <sparseX i="932" alpha="127666.97963382889" sparseCutoff="1.0000000000000000"/>
      <sparseX i="933" alpha="125417.72224190846" sparseCutoff="1.0000000000000000"/>
      <sparseX i="934" alpha="-73523.717566405772" sparseCutoff="1.0000000000000000"/>
      <sparseX i="935" alpha="3600.4781979188506" sparseCutoff="1.0000000000000000"/>
      <sparseX i="936" alpha="-39236.751833321963" sparseCutoff="1.0000000000000000"/>
      <sparseX i="937" alpha="4661.4876371487080" sparseCutoff="1.0000000000000000"/>
      <sparseX i="938" alpha="79756.591044124943" sparseCutoff="1.0000000000000000"/>
      <sparseX i="939" alpha="-26887.783266475824" sparseCutoff="1.0000000000000000"/>
      <sparseX i="940" alpha="115536.91665545227" sparseCutoff="1.0000000000000000"/>
      <sparseX i="941" alpha="-3786.0276060099332" sparseCutoff="1.0000000000000000"/>
      <sparseX i="942" alpha="-18137.810023269827" sparseCutoff="1.0000000000000000"/>
      <sparseX i="943" alpha="118169.85639532752" sparseCutoff="1.0000000000000000"/>
      <sparseX i="944" alpha="222478.94192442251" sparseCutoff="1.0000000000000000"/>
      <sparseX i="945" alpha="-80950.246151882384" sparseCutoff="1.0000000000000000"/>
      <sparseX i="946" alpha="143884.11799124867" sparseCutoff="1.0000000000000000"/>
      <sparseX i="947" alpha="199859.46047501609" sparseCutoff="1.0000000000000000"/>
      <sparseX i="948" alpha="-50172.371479188929" sparseCutoff="1.0000000000000000"/>
      <sparseX i="949" alpha="92295.963071922029" sparseCutoff="1.0000000000000000"/>
      <sparseX i="950" alpha="-484586.37484845240" sparseCutoff="1.0000000000000000"/>
      <sparseX i="951" alpha="-51351.940363831571" sparseCutoff="1.0000000000000000"/>
      <sparseX i="952" alpha="-1563.3008910131255" sparseCutoff="1.0000000000000000"/>
      <sparseX i="953" alpha="408978.19150443142" sparseCutoff="1.0000000000000000"/>
      <sparseX i="954" alpha="-158686.41450939217" sparseCutoff="1.0000000000000000"/>
      <sparseX i="955" alpha="150449.03887891947" sparseCutoff="1.0000000000000000"/>
      <sparseX i="956" alpha="121218.43522831846" sparseCutoff="1.0000000000000000"/>
      <sparseX i="957" alpha="-67386.319094864055" sparseCutoff="1.0000000000000000"/>
      <sparseX i="958" alpha="-176916.62306443480" sparseCutoff="1.0000000000000000"/>
      <sparseX i="959" alpha="-116796.78874981629" sparseCutoff="1.0000000000000000"/>
      <sparseX i="960" alpha="323006.22154952917" sparseCutoff="1.0000000000000000"/>
      <sparseX i="961" alpha="1111.7867591129127" sparseCutoff="1.0000000000000000"/>
      <sparseX i="962" alpha="153883.84904235962" sparseCutoff="1.0000000000000000"/>
      <sparseX i="963" alpha="28064.753125350493" sparseCutoff="1.0000000000000000"/>
      <sparseX i="964" alpha="-6802.9962669987290" sparseCutoff="1.0000000000000000"/>
      <sparseX i="965" alpha="-157778.25504968749" sparseCutoff="1.0000000000000000"/>
      <sparseX i="966" alpha="-271804.92283939687" sparseCutoff="1.0000000000000000"/>
      <sparseX i="967" alpha="-43242.797511216515" sparseCutoff="1.0000000000000000"/>
      <sparseX i="968" alpha="536635.82663019211" sparseCutoff="1.0000000000000000"/>
      <sparseX i="969" alpha="-414570.48700954340" sparseCutoff="1.0000000000000000"/>
      <sparseX i="970" alpha="340341.50751159730" sparseCutoff="1.0000000000000000"/>
      <sparseX i="971" alpha="344414.16437717126" sparseCutoff="1.0000000000000000"/>
      <sparseX i="972" alpha="-50816.446456501006" sparseCutoff="1.0000000000000000"/>
      <sparseX i="973" alpha="-50805.103694891659" sparseCutoff="1.0000000000000000"/>
      <sparseX i="974" alpha="-92248.181540191566" sparseCutoff="1.0000000000000000"/>
      <sparseX i="975" alpha="143380.15282531385" sparseCutoff="1.0000000000000000"/>
      <sparseX i="976" alpha="159885.09561754146" sparseCutoff="1.0000000000000000"/>
      <sparseX i="977" alpha="-273352.73599411687" sparseCutoff="1.0000000000000000"/>
      <sparseX i="978" alpha="111144.60737847834" sparseCutoff="1.0000000000000000"/>
      <sparseX i="979" alpha="242222.67661677391" sparseCutoff="1.0000000000000000"/>
      <sparseX i="980" alpha="-24818.960392720845" sparseCutoff="1.0000000000000000"/>
      <sparseX i="981" alpha="98791.998678686476" sparseCutoff="1.0000000000000000"/>
      <sparseX i="982" alpha="97210.007620375793" sparseCutoff="1.0000000000000000"/>
      <sparseX i="983" alpha="-328802.87564812915" sparseCutoff="1.0000000000000000"/>
      <sparseX i="984" alpha="-73019.824095615390" sparseCutoff="1.0000000000000000"/>
      <sparseX i="985" alpha="-125285.63379034567" sparseCutoff="1.0000000000000000"/>
      <sparseX i="986" alpha="138877.67749343917" sparseCutoff="1.0000000000000000"/>
      <sparseX i="987" alpha="199901.36518553123" sparseCutoff="1.0000000000000000"/>
      <sparseX i="988" alpha="15242.957600301792" sparseCutoff="1.0000000000000000"/>
      <sparseX i="989" alpha="55074.121930392488" sparseCutoff="1.0000000000000000"/>
      <sparseX i="990" alpha="97461.354477427289" sparseCutoff="1.0000000000000000"/>
      <sparseX i="991" alpha="-6697.3642278323732" sparseCutoff="1.0000000000000000"/>
      <sparseX i="992" alpha="-112995.41756385064" sparseCutoff="1.0000000000000000"/>
      <sparseX i="993" alpha="67010.012946786577" sparseCutoff="1.0000000000000000"/>
      <sparseX i="994" alpha="87071.534524686460" sparseCutoff="1.0000000000000000"/>
      <sparseX i="995" alpha="-73133.284169407256" sparseCutoff="1.0000000000000000"/>
      <sparseX i="996" alpha="48306.108827578173" sparseCutoff="1.0000000000000000"/>
      <sparseX i="997" alpha="-12300.125995360342" sparseCutoff="1.0000000000000000"/>
      <sparseX i="998" alpha="39171.152490094006" sparseCutoff="1.0000000000000000"/>
      <sparseX i="999" alpha="296399.62253691495" sparseCutoff="1.0000000000000000"/>
      <sparseX i="1000" alpha="6691.7760731076487" sparseCutoff="1.0000000000000000"/>
